-0.22724355926815,0.190299199216713,0.367620838169219,0.104118759599833,0.445358053376005,-0.00725576056730097,-0.188731195593152,-0.111472433577248,-0.085389829874417,-0.194918255461421,0.310249608953109,0.0246330686688023,0.137764012599994,-0.360405880043984,-0.12197178695317,0.0970363757363168,0.436748586580393,-0.279309903798014,0.395774073973176,0.0919140492438204
-0.00801278541626737,0.0103135723906645,-0.0120696326387188,-0.000799471950228752,0.00415013941491885,-0.0050743690582067,-0.00460438590950421,-0.000924108415337332,-0.0281509579221172,0.0023795241951738,-0.00101621100833439,0.00752542234496295,0.0143232774692268,-0.00749971444219372,-0.0220903268486377,0.00944011268717564,0.0129034188538717,-0.0183654559491454,0.0174007148069997,-0.0195997611868536
0.00735113823357081,0.00110476843502608,0.0121797465167076,0.00179870249050936,0.0127096721811766,-0.0223669692394309,0.00295111240928873,9.91761704112585e-05,0.0227619948167198,-0.0146770611178546,-0.0265416481723203,0.0113819508288101,0.0108451341491324,-0.0162997649223526,0.0055040291830234,0.00606417587904216,0.0228246041744792,0.0145588554032542,-0.00312045826931158,0.0184368518238869
-0.0228362676595229,-0.00835061771348298,0.0148651129072545,-0.019858365582803,-0.0219095526350094,-0.00420897342808005,0.0081004821252288,-0.0159437871816827,0.0161522981089118,-0.00163315323011137,-0.0046809932518598,0.00765148306317835,-0.0113947673586506,0.00675685490178111,0.0319383306530797,-0.000426139655049854,0.00472871140478655,-0.00650552049794489,-0.00452768025651703,-0.00315726517861624
0.00353326667290332,0.0113542971430411,-0.00260145374258697,0.00153159873914833,-0.0213308307901014,-0.0140110045759193,-0.00255093354955759,-0.00470359957766981,0.019015001776757,0.00867529242129355,-0.000593673449571334,0.00229551318169399,-0.0197200480156463,0.0103363545353651,-0.00417916743294282,-0.0115870558513816,-0.0050509749389214,-0.00344679202764542,-0.0135859637513805,0.00175801433717251
0.00401046673620014,-0.00244030550763984,0.0261844389505571,-0.0193315473345887,0.00967776716261288,-0.00683012414072382,-0.00481007439890839,0.00147536768270934,-0.0135097736182591,0.0204593332119732,-0.00102242471603356,0.01705323188678,-0.00746723147133067,0.0134400859315504,-0.00784274624572716,0.0125759098535719,0.0180594720874026,-0.016359007546944,0.0254838988153048,0.0244587908677804
-0.0213017099487671,-0.000846794229767821,-0.00693526549630355,0.0183448313417387,-0.00643478619560182,-0.00762698629786679,0.00323500157136751,0.0184717965879087,0.000556520346624399,-0.00417114940962073,-0.0109002245563668,-0.0137144258907983,-0.00264492738319504,0.00985541883022597,-0.0122192981827188,0.0132692176645825,0.00765065317492013,0.0299932762802126,0.0021581381424988,0.0077341025033361
-0.00159140135993217,-0.017683068575752,0.0181582355228933,-0.00210619840733307,-0.0145845280349503,-0.000420729972376097,-0.00956156738405611,0.00124860934384447,-0.00419328422489575,0.0101854338123563,-0.00242421878645539,-0.00629102468130712,0.0347677734286725,-0.00135561902856746,-0.00514616373628177,0.0066613202242655,0.00415074823610394,0.0106189472381742,0.0192122010291148,-0.00294024504877642
-0.00678134337194223,-0.00320238047446348,0.0131906390327599,0.00522719622319471,0.0137371065522767,-0.00473277397549163,0.0176804034592007,-0.00151880896583268,-0.0122360591949414,0.00883378592512451,0.00340116588649085,0.0119282398399857,-0.00969287456046245,0.00165188903612606,-0.000128592083302884,0.00460058922486335,-0.0167527566041637,-0.00309058133639563,0.016452121674457,-0.0250395121721662
0.00751167747689334,-0.00633951768305547,-0.00137490911972267,-0.0114132112774352,-0.000279334470631248,-0.0180332969792876,0.00177018266033829,0.00549796637569866,-0.00794309602205109,-0.00844083573687136,-0.00841813805636336,0.0169641986104084,0.00273025554698309,-0.0193310828840257,-0.0141866999454353,0.00227996803902062,-0.0111478738763336,0.000938720889670403,-0.0127803166952239,-0.00445881104603107
-0.00466459520913481,0.0149218549028229,0.00680430646176061,-0.0259671163140906,0.00325147202163758,0.0110626393227698,-0.00369625953670519,0.00903457084640364,-0.0207032466305189,-0.00404244930039891,-0.00250640835737911,-0.0207589796653414,-0.0100775487553758,-0.0253413083042452,-0.0127738876641829,0.0031022357264053,-0.0241566232876417,-0.00807367687569214,0.00316871251384542,-0.00021618191479439
0.00995909355703159,0.00221211177438502,-0.0316079403233135,-0.00476301972069361,-0.0175878122754959,-0.00188196399720136,0.0101800516991051,0.011256029509871,-0.0233291511414028,0.00229999561994406,0.00988110203755137,0.0123950695256532,-0.00427186396436471,0.0123843491213068,-0.00782079219778112,0.0111627923265311,0.0033138163716798,-0.0180230054115539,-0.0318586498913621,0.0164197690618087
-0.0125963153167929,-0.00319976772437216,0.00924738617272443,-0.0163307582635378,-0.00801232083310015,-0.0175940968232192,-0.034561269934849,0.00561078121650045,0.00996218677128083,-0.0213010122684527,-0.0111708918265928,-0.0188115355403789,0.0219225839857091,0.0143466581682641,0.0121007439777037,-0.00648787304408412,0.011379623255765,-0.00458257708273569,-0.00712584341364995,-0.00818419484188763
-0.00400222433621979,0.0289003986538133,-0.00954052459314398,-0.000896093169562853,-0.00120945230324842,-0.0049126990000199,-0.00377982693661139,-0.00749123989020195,-0.00590357700704342,0.0107110325093935,0.00684586814348618,-0.0248152138372327,0.00842850519665727,-0.00449994627633128,0.00499446464866191,0.00286182736217978,0.00531212864177985,0.00021437562176869,-0.000113706007303414,-0.00115117654619658
-0.00431072075419731,0.00412812145262254,-0.0151216383770824,-0.0118264237190196,0.00756741265028138,0.00670955376568883,-0.000631834901533857,0.0153494755817174,0.00504216247550584,0.0230438625475517,-0.00131563429142076,0.00443488009070552,0.0150668094713508,0.00444525112794802,0.00475858810325577,0.00508228094039866,-0.014872907799206,0.000402986722119527,0.00337922346740634,-0.00438078803963702
0.010476338668683,-0.00669996990670671,0.00662873241218324,-0.0110801964859223,0.00226211741677118,0.0173056046370761,0.0265207421720415,-0.0171894903170381,0.0261905867860219,-0.00294955459514056,0.0125767279011758,0.00695934340475487,-0.0208056422664688,-0.0124335611670317,-0.00352717690777888,-0.00568495910827775,0.00677804308995303,0.0131434053605402,0.00100174943152975,-0.00119018930110997
-0.00252243592542618,-0.0182925174818465,0.00847788939710402,-0.0174044677760164,0.00202481878482807,0.00349776008575824,0.00722877601509878,0.0024620221726273,-0.0207742769251484,-0.00303886762957828,0.00629590278317665,0.000204636502488898,-0.0256947205235358,-0.0176717812068923,-0.0104370802358923,-0.0109595677585276,-0.00620364128786898,0.00519706148152577,-0.00252415977063149,-0.0166658907933389
-0.0262265855250904,-0.0139950614700013,-0.0117321224007979,-0.014179494573662,0.00559863190645834,0.0155033531587373,-0.0163018429032811,-0.0240861947882928,0.00192504458755142,0.0178095104845497,0.0114067439155829,0.00724302544149402,0.0153381707449244,0.0128230436391841,-0.0122434240920912,-0.00394214564924385,0.00254408006233939,-0.0190151973093782,-0.0156686730944888,-0.0122175182403672
-0.00292593867371015,0.00346579408200408,-0.00360709763997212,-0.00936077142897852,0.00300443042304501,0.00289679789347581,0.00779782018022119,0.000148041562329801,-0.00560628047070988,0.0143978393358314,-0.00662462324078465,0.000183326462242771,0.0258527499506484,-0.00677125427979472,-0.0113703457857746,0.0131675189567265,-0.00957437471052666,-0.0153785568449281,-0.0136357495091098,0.0114083420230725
-0.0164384652996699,0.00520131776238048,0.00975769410359848,0.00795479702211463,-0.00541382992315392,-0.027826906757809,0.0311409486163312,-0.00704601229563903,0.0046833664540425,0.016012039271508,0.00273531266618431,-0.0192137401322926,-0.0162797988608311,0.00384739890907937,-0.0142031276445658,0.00717081698436769,6.72066383623413e-05,0.00875280258520183,-0.0226721268381059,-0.00319650791235471
0.00191206535046479,-0.000534325927231061,0.00986701970914458,-0.00471347072714213,0.000457452133136891,-0.0183060449968595,0.0116643278557937,-0.0124296733644836,0.0123462951944103,-0.00711232432648032,-0.00447025965388787,0.00320315248542589,0.00368437336669293,-0.0101183820975812,0.0163476292723721,0.0296657764011005,0.000723651281339001,0.0235974773822402,-0.00341888864809435,0.00519267465819263
0.00692078629373123,-0.00463551875665444,0.00163465010131902,0.00580688998793027,-0.00504633836597225,0.00506008237667489,0.00650604896185686,0.00142161819383993,0.00517795889501963,0.00248375077365416,-0.0062181708377602,-0.00259620140139663,0.00305482326553876,0.00640500523143024,-0.00389824712997611,-0.00645571012476752,0.00320872105706982,-0.00329592878210008,-0.0293521709235658,-0.00846511569234506
-0.0247563763824454,0.00483553557186126,-0.0120959166266256,0.000503543395848672,0.0172085407578015,-0.00629389288768303,0.00167032823359932,-0.0134255424893039,-0.01256148263455,-0.00230477109208473,0.00927631959236601,0.0126816534919852,-0.0122122219321576,0.0106907529545367,-0.000713217793451053,-0.0249444015983667,0.00501829508525179,-0.00790672307663397,-0.00659389877838663,0.00648052546477988
0.0204932879838103,0.00108784462295937,0.0157700050814492,-0.00742780320665266,-0.00495331412687222,-0.00149743418143458,0.0154936812563962,0.00579749436051088,-0.0147826072286695,-0.0163584221152545,-0.0190184631020278,0.0123829692099883,-0.00987273865788804,-0.00210773285169327,-0.0127354454596414,-0.00300749903317956,0.00533359897938047,0.0142741453449669,0.00251719965011553,3.63276246629532e-05
0.00997323966707058,0.0167539068067648,0.015095605309285,-0.00832173104028867,0.00648831446114671,0.00894876087206852,-0.0102894802151805,-0.00783928085548413,0.00847899871172498,-0.0217315650773179,-0.00492067770038405,0.00615460379662654,-0.00932688374751447,0.0154587946791962,0.0121526092330704,0.0139130664252841,0.00626188412647231,-0.0226914606073895,0.0122610895820731,0.000269422494787573
0.00192756133661309,-0.0205468086197818,0.0011859163679268,0.0200860847836823,0.00432718439841789,-0.0223536588473082,-0.00978219019693652,0.00399549831047396,-0.00952855967320579,-0.00370654086986871,-0.00371746986847393,-0.00110555457440379,-0.00660393522396049,0.0102814245390767,0.0117658054802631,0.00511589703566242,-0.0131528937561091,0.0263553205764179,0.0186993263863643,-0.0136798095491316
0.0352550025536263,0.00107097338686219,-0.00397095125925536,-0.00496283145221508,0.0073172740920695,0.000592724271360103,-0.00407870677636023,0.00675448342707776,-0.00343153364039909,0.0127538930071507,0.0204338658748358,0.00418593823660518,-0.0216896844076986,-0.00465408494440628,-0.0194039220854093,-0.0183117112852117,-0.00724203744905731,0.0044532828738372,0.0148355474715978,-0.0135184962084204
-0.0117838314680088,-0.00555716800303139,0.00961375153289265,-0.0160500863871697,0.0140740348525313,-0.00763505943207162,-0.0085205762241762,0.00577657550457739,-0.00614819731641403,-0.00551583921761012,-0.0225251232350311,-0.00561521792362089,-0.00244173221070037,-0.00734607345449032,-0.00593419576838474,-0.020350877509,0.00503912615281538,0.0122357551395748,-0.0115552510397548,-0.00813659273121763
-0.0156010465615548,-0.0239786142208085,0.00961861091154518,-0.0182930025464478,0.00512854527890026,0.0189016746177024,0.0207923032629961,-0.00213278913203188,-0.00600687778986893,0.00766397296936604,0.0125294142392207,0.0141440679454734,-0.0194736976203479,0.0197047198901064,0.0194254823399542,-0.00479364095698189,-0.0109296473765733,-0.0114313873091661,-0.0313958096887563,0.000617858463896304
-0.0166350253893391,-0.00297598262031422,0.000561059407014012,0.00983171269895869,-0.0113988445106839,0.010003960039272,0.00142812724169899,-0.0198035859861089,-0.00339928528160996,-0.00953359302611208,-0.0124952102515913,0.0123312320031028,-0.00764190326793102,-0.0169741641460699,0.0125707650135494,0.0285574372628349,-0.00688856046815359,-0.00482490195758407,-0.0166829452983005,-0.00743076262495149
-0.00136843391883168,-0.025501621278994,0.0157271036704623,0.0102273823431794,-0.00861935986800312,-0.0116063687379837,-0.0206314693781641,0.0280952412335986,-0.00787201089997004,0.0164274646004723,0.0107404549882776,0.017222167855041,-0.0149085542522668,-0.00358378823070127,-0.00116603199932349,0.00787522383973367,0.00953874488432835,-0.00650044482218002,-0.00338100836786549,0.00232685411560625
-0.00489012762363773,0.00527448776938206,0.0163079235292428,0.0279646871843211,0.00232280677482995,0.00878936796700744,0.0176059820615334,0.0291096167003978,0.010813422525994,-0.0271239186570813,0.00791367951321677,-0.00231999785718925,0.013158561312925,0.010278966427394,-0.0186174982369055,0.0182942256577725,0.00116103536314107,-0.0189596684765874,0.0342960776080068,0.0170384167876066
-0.00898482902031748,-0.00266938579337222,-0.00616591146552474,0.00356629944948514,0.00655831824244373,0.00427789089007548,0.0192941572286583,0.0163087737436016,-0.00648374707752385,-0.00763640252715267,0.00820900364980449,0.0010510755181059,0.0122817394726117,-0.0166937064597297,-0.0068285054845413,-0.0166435181032045,-0.0242081906477769,-0.00882913169164784,0.0220583570586887,0.0195367829467275
-0.00101379949472583,-0.0126868809492428,-0.00494484855652616,-0.0155532315284918,0.0119283493557909,0.0022692846746539,0.00187619226395585,0.0063535614087094,0.0257777830288685,0.00170386004581465,0.00810271232218026,-0.00305606958195916,0.0191370705862236,-0.0238364839542107,-0.00807667982458207,0.0174410342341724,0.0201667797438675,0.00068490796262625,-0.0130733300843303,0.00229564342270345
0.00589908803510634,0.007631017593647,0.0120416412829945,0.00669794754669293,0.020824257210459,-0.018575392249388,0.014325095167872,-0.00793220025875514,-0.00691088612477953,-0.00254804649908618,-0.0224870647039492,0.00470157250716764,-0.00703815151426028,-0.0104195651363147,0.00945858253637477,0.0133339846641153,-0.0184230581763322,0.00803530985891839,0.00758956665117385,-0.00988576568391466
0.00503765222127684,0.0138538173251021,0.0112695058078326,-0.0184235072968625,0.0151667628905973,0.0210536313882168,0.00907307435980035,0.00257412467328558,-0.00250324498960413,-0.00724802191160946,-0.00152612873958725,-0.0319441327333444,0.0124809395147537,0.0140781014080746,-0.0178151099398463,0.00934548983970979,0.0222536359047627,0.00586857073591707,0.00286787273970412,-0.0149864039092388
0.00559308801718899,-0.00160434347290796,0.00522127817526764,0.000638417370356791,-0.00517930186177218,-0.00215987938923133,-0.000370600303525458,0.00836215831176512,-0.0177661589578656,0.00668234925707247,-0.0227165544481932,0.0161855200917171,-0.0033733994479141,-0.0223420738490613,0.0355923748299166,-0.0160993297976584,0.00947524926175924,-0.00232890379851503,-0.0256468343526225,0.00358493042265007
0.00405688972379241,-0.00633538245473894,0.0115268087956495,0.0100763587718893,-0.00438200004949163,-0.000673843219640599,0.0131975834329823,-0.0167313638882192,0.00425645369615124,0.0125075548020911,-0.0172733978287149,0.0145350950799294,0.0120088731332959,0.00496551368015076,-0.00344370434042844,-0.0127757995314326,0.000848867369671648,-0.0164493620856881,0.00167909290098678,0.00300180225967488
0.00315453174599469,-0.00583782812302152,-0.0132300368302071,-0.00939761412001483,0.00635360756750955,0.00845920013136814,-0.0040430605644645,0.0055660366953111,-0.016771674967238,0.0143923386456685,-0.0230503611958258,-0.00292082765414051,0.0103510793039774,-0.00789484430045882,0.0189454924813739,-0.00179119864181723,-0.0212181694817274,0.0078986198553176,0.00344277981269386,-0.01407063616561
-0.0180155953803349,0.00401822123263659,-0.00703748417168202,0.00592120998263684,-0.0149316486326745,-0.00301570489436978,-0.017513794519316,-0.000715729681189007,-0.00912459516295309,0.0158230597309417,0.00908906078858769,0.00841378914565007,-0.00715709307887995,0.00535077283215102,0.0189149927120559,-0.00448116581688345,0.0136623390949327,-0.00790903379178163,0.00364383634717862,0.00573801419005612
-0.00287832375067292,-0.00986337711809293,-0.0159045708464188,-0.00459805983095604,0.011799319803696,0.00063150703731817,0.0191878852692871,0.0123002872203744,-0.00224112799052626,0.00274340105523374,-0.00993090469207334,-0.0229654275813189,-0.0103850993055159,-0.0158426407876612,-0.0130951830641206,0.010597990741802,0.0145079128088825,0.0180607998482864,-0.00790586927352449,0.00293114495958458
0.00260076949845038,0.00557961892625619,0.00317231166221658,0.0047587009867693,0.0118014828614,-0.0172671675679068,-0.00167384376284464,-0.0224131415644636,-0.00740030531005063,0.000264919878634358,-0.00211482080163738,-0.0107647449544957,0.0111922277528514,-0.0234377571671645,-0.000362859694514057,-0.00383390454289462,-0.00887002591488595,0.0275219948073889,0.0202111092730905,0.0226228529872123
-0.0182193054764438,0.00070901852824749,-0.0025857931548455,-0.00203254513444677,0.00756316787063076,0.00300540937981096,0.00513229900899872,0.00744111040850863,-0.00432261567564952,-0.000707395751372863,0.0133930783274895,-0.01278415410689,-0.0098777755394738,-0.00445294273934753,-0.00660789986630283,-0.0226327261095384,0.00161620676480758,-0.000362949783861919,0.000317320354498324,0.00144484567122459
0.00573281817109509,0.00431777128097812,-0.0174880270556863,-0.00949073851738661,-0.00426655593660939,0.000919333789054722,0.015277480402738,0.00493496355880044,-0.00772876283265221,-0.0103110839159245,0.0134569269002434,-0.0157566955190761,-0.0019224635558454,0.00201802139881314,0.0110660104176977,-0.0107773888399535,-0.015594913525772,0.0153811251407477,0.0109357764275139,-0.0273563335795389
0.0132295201061429,-0.00187755491280759,0.0140930984179997,-0.00638602805665556,-0.00974016471269512,0.0121102115491742,0.0104870207162305,-0.0121070827171937,0.00803372496315716,-0.0037575605718041,-0.00521318298513007,0.00404711322521034,-0.00848631811556008,-0.00577639022467877,-0.000174763680995857,-0.00965116256324227,0.0111904819106877,0.0178396574167493,-0.0144920822571944,0.0165307529528988
0.00659169097771015,0.000967373735625172,-0.00880681530297235,9.19678955825516e-05,0.00110191744278706,0.00351350326413347,0.00729876293788805,-0.0214121636901976,0.00139872654275156,-0.019039566521484,0.0103868065869493,-0.0175022598380714,-0.0121695725267559,-0.00259048084629375,-0.00288438683269182,0.00447500548503654,-0.0029677996550612,0.00943459711865862,0.0104331584293679,-0.00798953072483163
-0.0180456135462805,0.00374564916818725,-0.0154332193938625,-0.0086446184347461,-0.00516684112819705,-0.00562330074112295,0.0109144192384905,0.000958553241819468,0.000339277642711213,0.00471126012164951,-0.00675833689848355,0.0213851616264903,-0.00947449246193813,-0.00172007921973651,0.0175190786351376,-0.00842959283030622,-0.0300429058091012,0.0191178890762677,0.0022591103526153,0.00703101552334577
0.00571368637589108,0.00573080326944414,-0.00541734382282614,-0.0017943318778078,0.0111808710375887,0.0209715035054887,0.0051890375540306,0.023671776600934,-4.58191849360337e-05,0.00106235259513811,-0.0215801975085029,0.00530017328546322,-0.0104039950724634,0.00941081347445625,-0.00494877745147401,-0.00212008866320015,-0.0177573870221695,0.00852491254351638,-0.0203073409653611,-0.0111112489689441
0.0108410775738862,-0.0104462284900696,-6.75552409197644e-05,0.00195142988222543,-0.0279762799472057,0.0143341989966763,-0.0127396502411141,-0.0200133768120239,0.0293701898312685,0.00502016044646036,0.0174663600355711,0.00268044301602052,-0.0136079542363804,-0.0131840759858761,0.0172357126216694,0.022725704469005,-0.00137766409294059,-0.011327297381387,0.00911084814960405,-0.00503526553334205
-0.00427937225922902,-0.00314051341212314,0.00508738571297397,0.0237839224428535,0.0220653745259006,-0.0185288770512767,0.0055877285485826,-0.0130081331198033,-0.0215873007843444,-0.0230951808191711,0.0131528726396104,-0.0111307289097834,0.0187521526268835,0.0124805627296479,0.00834256031067075,-0.0103114704395464,0.00267317815034221,0.0214640101854815,-0.00166872508607434,-0.0194707175406415
-0.00676357693507837,-0.0149640376434907,-0.0133477670444619,-0.0064575771259582,0.00544989788475216,0.00861117266916824,0.0062502646594571,-0.0254949319093265,0.00566633202458966,0.011350418776225,0.00756759718705653,0.019585532437687,0.0152797845837598,0.00297078848132608,-0.00931764574636534,0.0177022906062358,0.0199156482744679,0.00934897643198683,0.0212196506744826,0.00150633310530178
-0.00845965872870787,-0.0263223146221473,-0.0017166091508833,-0.00938684545339179,0.0123632304125263,-0.0119522502015509,-0.00315223043246088,-0.00471638839756147,-0.00416114934068656,-0.00209023887524649,0.00842336743700637,0.0113865592261317,0.00019912777420437,-0.00628742414901643,0.0183027656847703,0.0133887274091829,-0.0193957213022849,0.0265814741955706,-0.0129029622903528,-2.19977696257478e-06
-0.0108318494217762,-0.00713908680008451,0.00933318463535459,-0.0101285059278326,0.00936819041014731,-0.00356821994389144,0.00963134450792858,0.0145769496216224,0.00466193104666524,-0.000198060991338928,-0.00409848177324638,-0.00567871774047166,0.009106096380849,0.00572415760186758,-0.00311206194134672,0.0200961589703541,0.0166568773171026,-0.0038009520514132,0.00752015849050141,0.00383005983297819
-0.000578554198492394,-0.00661544164436166,-0.0039676232726995,-0.0266824220331073,-0.010884938175798,0.000103980512206485,-0.00388469067546528,-0.00745368364592585,-0.0131436957537044,0.0085170925300112,0.00592582877929534,0.01652620020214,0.00224078926003673,-0.0119645844856933,0.0190312572614687,-0.00497802847007645,0.00796967227269722,0.00124656048146877,-0.0157042489030514,0.0178270325208958
-0.0012722716483387,0.0148002696298696,-0.00862653062042176,-0.0108206230031897,0.00461825312760684,0.000745273374516324,-0.0225779549549945,0.000847159763982394,0.00348881699998234,-0.0395784595196567,-0.0167177268123328,0.00163418553838557,0.0175045577901768,0.00870734311716256,0.012327019043136,-0.00675820060968348,-0.00678144460024645,0.0020728729399192,0.00199752712500866,-0.0195800011940765
-0.00406470274766984,0.00621521319654309,-0.0022753893155555,-0.00304944470346501,0.00598794525517897,-0.000941484649110039,-0.0226532271975412,-0.00276038050350662,0.00301010139595884,0.00847024406306308,-0.00898662551070203,-0.0151936746355571,0.015040249033141,-0.00764601405020787,0.0179997285630332,-0.0276961021503845,0.0103192081493179,0.0102316126653625,0.00368961451823382,0.00756282648869672
0.0138937248128707,0.00351939897338238,0.0206580433400461,-0.0205518118584367,-0.00227324478135325,-0.0260289385513615,-0.00238431575902171,-0.00121049034435193,0.00171343979377978,-0.0099771780679574,-0.0153084593104881,-0.0118169752275471,-0.00667997871091457,0.0146128806950165,0.00909689035728317,0.00756894194157362,0.00252914708192523,-0.0234314018347413,0.00693507190680084,0.023224239195182
-0.00121802892476141,-0.00973864768055361,0.00182277966911131,0.0106967199554422,-0.0140476818683662,-0.0173417892281231,-0.00136337146493855,-0.00500383236394636,-0.00527698094788006,-0.00590144734641623,-0.0118854253794297,0.0107661571973949,-0.00613469127420732,-0.00383014086385932,0.00775129825285142,-0.00459519577770849,-0.00391271386785786,-0.0105981630587301,0.00298097147112678,-0.0167546159822268
-0.0239022895180618,0.0168991831372354,0.00526871551734259,0.0131420498868608,-0.000371654252375999,0.0168291924789692,0.0107495283591712,0.0163699536830084,-0.0127509049543449,-0.0168145114758022,-0.00323986035051757,-0.00372470582326179,0.00250397633420484,0.0148978295834061,0.00060653882367239,0.0172149402788987,-0.00863229860707342,-0.0117716040434487,-0.00172216482342283,0.00196207271582118
-0.0237605211364503,-0.00946403705306323,-0.00152787066606491,0.00525072582597577,0.00497638688623183,0.00863754690089267,-0.0172440275082477,-0.0149938524724137,0.0122125599110371,-0.00381531347860253,-0.00444660312131506,-0.0176758735827274,-0.00189485032380959,0.00421987546753689,-0.0147325546896045,0.00350752321343404,0.0142162465335898,0.0111850132993359,-0.00840684182494476,0.0087813341644705
0.0102888385362817,-0.0138076967521513,-0.00779922520949861,0.0109730406324039,0.00956908794397149,-0.00287651378214515,-0.0136046474462658,-0.0222721427546333,0.0226531080243589,-0.00984424297821262,0.00579581671432722,-0.00231311844592028,0.0245811712986529,0.00504311820698173,-0.000791501737803824,-0.0110898449074058,-0.0170015120328386,-0.00908482331439708,0.00709906080856395,-0.00868362639352537
-0.0168100537944782,0.00828425524539334,-0.0149979362515556,-0.0114853625904471,-0.0122594186503714,-0.00362942945458345,-0.0137260493793577,0.0277022290381813,0.00476684748608692,0.0325074814556467,0.00427771972126419,0.0104708446122316,-0.0159578327640631,0.0319622203367434,0.00337880477473407,-0.00155993821238074,-0.0272250260711893,0.00412769902401942,0.00911264448245047,-0.00947505879594391
-0.003444937651638,0.00375137237830497,-0.00612605362129137,0.00240586153113513,0.0104122760181408,-0.00153592087355136,-0.0175341177279899,-0.00208718814230688,0.0148587414560166,0.0102744702780156,0.00506472924353172,0.00115661406247045,-0.0198431720340766,0.00844232773337861,0.00860684923941005,0.00548744101195498,-0.00301117120753821,0.00499609971025256,0.0239079864409366,-0.0285300802794772
-0.0246319249089211,0.0121722711599605,0.00101357623302257,-0.000951882019402514,0.000592035692438426,-0.0115925294571943,0.00160655315679503,-0.0075282898323682,-0.0158628653808743,-0.00017327741464073,-0.0255424354562202,0.0186238921053312,-0.00305527930336833,0.00475583029427329,-0.00560574799399375,0.00240126941702937,-0.0138755657085838,-0.0087662742219388,0.00336158696465073,-0.0152028338931307
-0.0137905359451069,0.00566651930529208,-0.00738221155597002,-0.000579134874909849,-0.0145149924084743,0.0103619876481949,0.00913766862431412,0.0119589635151098,-0.0150852579878881,0.0029139355988137,0.00346621080599425,-0.00906979990966369,0.00502017165419366,-0.0273637993457341,0.0148761238258157,-0.00551946551234734,0.0163161318959109,0.0087520738844248,0.0205273968653231,0.0293596270437276
0.00747033779080909,0.00596352203430167,0.00587654981700582,-0.00254484692706639,-0.0245520177759911,-0.0154661745197496,-0.00405912845302989,-0.0201452015459045,-0.0109519985583682,0.000733437513791305,0.00382737556172355,-0.0129818820835576,0.0131838085722204,0.0022926847402874,0.00233310854949641,-0.00537437543902045,-0.0142967330359652,-0.00897282661959173,-0.00189353517986619,0.0338901830569924
-0.00753550613568309,0.0123094708467492,0.00776514426552001,0.00703069841538427,-0.00108478753929274,-0.00455510247951238,-0.00586362772135083,0.0109447361101187,-0.000171029673610047,-0.00559165787799122,-0.00112057823435613,0.018108300760818,0.0139280161949446,0.00571852231727023,-0.00420780013902628,0.0096947010327548,-0.0170460649797635,0.00859111491578866,0.0120453056901225,-0.0127696214466997
-0.00828404728299173,-0.0057919004711595,0.00848401844499528,0.0234963742078766,0.0120516727233016,0.0120129653718405,-0.0198512300500306,0.00796473553666833,0.00376236402486313,-0.00159261730131643,-0.0027118134734744,-0.0137844326161124,0.0096425911190303,0.00921726648532138,-0.00541082194794847,0.0138458311085951,0.00485039837021734,0.0036719873094772,0.019400091721841,-0.00867917099230339
-0.0155438769432648,0.0158885344812157,0.00371830209630519,0.0159018735938708,0.0147631765060381,-0.0129030902390222,-0.0231252042704067,0.00332019148765569,0.00861491276095678,-0.00118279249419558,0.0158170034505897,0.0151522168230823,-0.00290802243303703,0.0165047297963341,0.00799712684224518,0.00245291859288119,-0.0116486139632724,-0.000689193839081694,-0.0146142850549716,0.0039846788692566
-0.00249817788056735,0.0252318721064912,0.0179646026782585,-0.0062064787867078,-0.00729078549836565,0.0218325923468226,0.0121901785255272,0.0111725716556134,-0.00771154590505834,-0.00748597250581539,-0.0216851832489345,0.0163599215939101,-0.0132062472954286,0.0203688183467896,-0.0103479258841105,0.0090653910250622,0.000568152820517421,-0.0150504835133902,0.00331211609866788,0.0198822743321956
0.0243202218238595,0.0124355160796943,0.00964989240290787,0.0177471928204715,-0.0108852481447605,-0.00717747015227675,0.000554782270364351,-0.00691063816708852,-0.0140981979915598,-0.00890930635014145,-0.0159477686472074,0.00249815382930707,-0.00273959315125079,-0.00866656744671476,0.000334074337333876,-0.000495290965543335,0.00780021554514395,0.0160452564481801,-0.0225706504503883,-0.00678774637670299
0.000604527630584366,0.00766052189849108,-0.00487785468814107,0.00768517069586566,-0.0254306460705702,-0.00555284186605156,0.0167933517890931,-0.0127154817596093,0.00240768524180845,0.0182830265943895,0.00710808827424138,-0.0195366907061343,0.0129930351515347,0.0134515051173289,-0.00449482551047677,0.0117465415319002,-0.00833432616878635,-0.00410216927671142,0.00381279836649987,-0.0106285987573235
-0.00413581781961437,-0.00803757139185282,0.012395651198676,0.0175254965604051,0.00899017434149713,-0.00343489321382506,0.00936495132047171,0.0335696398783517,0.00250475321575139,0.0080480105699111,-0.00434182109544571,-0.0241296007305096,-0.0236950277388599,0.00431486642614904,0.00565681585298735,-0.0183265845821304,-0.0197048312215067,0.0139845665733834,0.0203478991291622,-0.0162989765497134
0.0285736044207983,-0.00206702971548655,0.00827078169619883,-0.00911255392844229,-0.0100720115397021,-0.00396359451929292,-0.00966805971918282,0.00965824710807173,0.0260582454822757,-0.0139447873052909,-0.00228527863705581,0.016763541979702,0.0138700089958565,-0.00228201696937399,0.00332821212201959,-0.0132928930382424,0.000666376860851741,-0.00179469394051003,-0.00935589007910438,-0.0137242107194178
-0.0177617154003205,-0.00785264097478556,0.0136006980506247,-0.0153116042522004,-0.00321577579249712,-0.00885393481157535,0.0123376959442077,0.0151016716805,0.00927476960031407,-0.00047477084356391,-0.0204672301434628,0.00260864082594348,-0.0147155826681727,-0.0015718813294428,0.0133264536591237,0.026662754747018,0.0255384717047346,0.0164427769792131,-0.00665698473934337,0.0147312137199887
-0.0159031113638698,0.00139587784940377,0.000938696252632024,0.00613141091886755,-0.0175034554206121,-0.00912205691356052,-0.017600872435161,-0.000523822020682924,0.0274312815885706,0.00244529175720898,0.0126184729558928,-0.01408181495551,-0.0320198621737014,0.0130651322696478,-0.0062812877607124,0.00203984873117339,0.0130307781972232,-0.014608360795086,-0.00268413422803662,-0.00229852829880847
0.0184035937071257,0.00347346628331565,0.0151103077783569,-0.0105285642257031,-0.0129751405718415,0.0234229523679071,0.00265218284981578,0.00742364462200247,0.0146053717641524,-0.00530161472650245,-0.0136816920287206,0.00425539587309409,-0.0123316661367048,0.0125421389076868,-0.00945232121711595,-0.00101455304707212,0.0028633202333359,-0.0218930066077093,0.00189208881986147,0.0161624431636809
-0.0094440751368979,0.0100624113516905,0.0213298956564517,0.00799086314159396,0.0234983952476853,0.0195353594403308,-0.0162622877992289,0.00738665274318523,0.0042550903199984,-0.0160749413231797,-0.00635895852214534,-0.00636537299385208,-0.00965398505636696,-0.00658063955375784,0.0258623369345079,0.00365289538239016,0.00660728475904409,0.0212255651877543,-0.0245014747027407,-0.00928899734136026
0.0108788216031828,-0.023657614816289,0.0191624545678707,-0.0173875202174427,-6.16433208855439e-06,0.0166083882831438,-0.0217672041186638,0.0054693633384483,-0.00782877944294893,0.0117458166921324,-0.0155694266967911,-0.0144195904542987,0.00506103869598341,-0.00356997557927719,0.0112490821325477,0.00108097571414025,0.00418623629108684,-0.0103480059026623,-0.0196311587081915,-0.00832547769190243
-0.00677169634276561,0.00649331220048869,0.0372684741865656,0.00716481044446178,0.00344207732938619,0.0143402002049658,-0.012016179498185,0.00861229027234526,0.00280958300787704,-0.0227809180690226,-0.00839579092451044,-0.0260701537027081,0.00748870680733153,0.00816505062410126,0.013724311991186,0.00442735583390182,0.00274067986128788,0.00381858924404347,-0.017057863877582,0.00765696902376062
-0.00677801859722429,0.0265645177971957,-0.00243950786806341,-0.00872537557972873,-0.00257514241155514,0.00106470707930763,0.0134113120729187,0.010028398144263,0.00393120304575218,0.00580078980732916,0.00621913130452618,-0.00378971734519206,0.00409130929969271,0.0025392300484078,-0.0216743284217411,-0.00167222171267445,-0.00116470213989909,0.0228809321812885,0.0138233240267087,-0.0136391247372804
-0.00957224412959149,0.000873092690748251,0.00178188371730636,-0.0016022235530365,-0.0046046761018138,0.0065973687213327,0.015879067280855,0.00448040595360885,0.0057041424049911,-0.0112162832462875,-0.00511875350357179,0.0215820867061256,-0.00612933425333515,-0.00555337281948861,-0.00918379774412812,0.0187868037441572,0.0112827273567513,0.00248011219537747,-0.00188839564660635,-0.0119141936476519
-0.0168102798818724,-0.00759743219676171,-0.00391001907292832,-0.0056905263454395,0.0114506849536224,-0.00148234570173584,-0.00278293258847165,-0.00484563250163646,0.00142764936947927,0.0063261269606874,0.0054772312483716,0.0127110478723904,0.021837402201982,0.004594598096748,-0.011090903803205,-0.0217094459547167,-0.000456358971993073,0.0004572574334006,-0.00739493548775359,-0.0155359640382695
0.00416844234535187,-0.0101836871365949,0.0243756849775469,0.021934182142841,0.0117133444532799,0.0181431945419618,-0.0060344731935556,-0.00787901983196246,0.0391852036524862,-0.00173899701620195,-0.00375594013898426,0.000711703234698783,0.00725846796550992,0.010818392012558,-0.00645951112244681,0.0239968966960873,0.0151354081774763,0.00134529155739972,-0.0268014580145081,-0.00838275228469891
-0.00636555188361375,0.01286474357669,-0.00109782304857932,-0.00298510572861354,-0.00233556223161519,0.0197436064211025,0.0122484856170483,-0.00516659355673582,-0.0068675878533739,0.0126765514686219,-0.011175644144516,0.0202751584420591,0.0135384328849025,0.0170623376195354,0.0184949287276891,-0.010019120230487,0.00610979589570944,-0.0119042339518084,-0.000697081140408081,-0.0190794192897473
0.0169109986419306,-0.00872727596651322,-0.0105551307192628,-0.0104190797953828,-0.00455387939734488,0.00496719035682653,0.00954156614996839,-0.00380344528852806,0.0199020443203782,0.00953045450803977,0.022996362514356,0.0161128021073128,0.00599360904852105,0.0196943520672496,0.0133109507291264,0.0176965171415815,0.0148334393853517,0.0145417048005118,-0.0142734481179866,0.00244361774262007
-0.00120754193991617,0.0103319792795627,0.00545069200394083,-0.0203081071659996,0.0171500271405801,0.0182544526270883,-0.0197062683995535,0.018521791016309,-0.00665243637664031,-0.00860262229679554,-0.0181716214813112,0.0106766143121384,0.0246026716176785,-0.00748199519185838,-0.011672082019847,-0.0153768695522578,0.0170070943475408,0.0117762661156392,-0.00141464494627926,0.0237755368769394
-0.00232573449201912,-0.000312439021676934,0.0305129014448103,0.00653450839505537,0.00911228612934059,0.0160437193661601,-0.00745260039165701,-0.00768754343024202,0.010009166489567,-0.0139510121487245,-0.00443425935932895,0.00819432795410486,-0.00275480582079945,0.00148544367158433,0.00219306226932623,0.0166155602648864,-0.00971858904603296,0.0163045196721798,-0.00329031680698681,0.00264653028994889
0.0166805919217689,0.0257243489355345,-0.00326915840213492,0.00984642028374945,-0.0132613396340545,-0.00457870155853139,-0.0191511868045757,0.00435576570459506,-0.0124162538238318,-0.0100643602577166,-0.013986590225887,-0.00330774532435239,-0.00159109923559531,-0.000958855798054895,0.0250772724523707,-0.00489901497507751,-0.00768975378926817,-0.016261529612764,0.013071121751335,-0.0238818149432638
-0.0149358688804036,-0.00621047897504675,0.0138883491878156,-0.00652127359997034,-0.0122740791476955,-0.00307916159598316,-0.00575966047548321,-0.013132700724358,0.0131382094356374,-0.01772487029784,-0.00588391403765343,-0.0150395627098775,0.00101975555605122,0.0286605660350598,-0.0105840542342808,-0.000659937051543621,0.00645880122533433,-0.000987247351402568,-0.000389298691632072,0.0229690638395177
-0.00945523770002526,-0.0208028097233603,0.0135033813711688,-0.0101922776228552,-0.00418382256619264,-0.0181927308978815,-0.00665039174556793,0.00434144326687177,-0.0129085386987916,-0.00524265318539988,0.0180058296019041,0.0169576898006272,-0.00206283596521249,-0.0103706269093347,0.010479994266002,0.00169031768596358,0.0102002535877255,0.0113674906212009,-0.011816826820189,0.00569291964909678
0.00680817463381106,-0.0191714434154712,-0.0119024640149746,0.0044824785736321,-0.000149576045984033,-0.000575180551389766,0.0161507137716753,-0.0139884014242105,0.0081889680094039,-0.00929718273520962,-0.0300487428561007,0.0168407194396488,-0.0190622715945345,0.00785140577838114,-0.00760652894354991,-0.00600702246409899,-0.0124284162058951,-0.0192355871308024,-0.0185345772412209,0.0249382954020583
0.00056490698407413,0.0155939147612437,0.0168427019704432,0.0125546621898242,0.00067279592143463,0.0106801628816294,-0.00618858894772692,-0.00967233135975965,-0.00148909319092278,-0.0121845658534541,-0.00344787036454239,-0.0067865907599364,0.0241996061592275,-0.0197159760095604,-0.00236662864067525,0.0116739086993814,-0.0103526985834423,-0.0039279587793835,-0.00655568312933144,0.0206212699199443
7.26124709191595e-05,0.00854301967811312,-0.0164390601141537,0.00629731313326679,-0.00297614318919835,0.0130413137610384,0.00761041384097805,0.00122792126571624,-0.0208061496212917,0.0120793115622318,0.0213671400452559,-0.00400086389027307,-0.00223984543014675,0.00664730177921399,-0.0117998194627104,0.00690528712507488,-0.0164733732929725,0.00414138048171857,0.032498734180692,-0.0263115411175201
-0.000904856950258665,0.00349191131543272,-0.00484054141665001,0.00615623790841903,0.00609535671655206,0.0153711869368591,-0.00958174416216962,0.00486676033755903,0.00779168986240719,-0.027433329243157,0.0110282378310276,0.0120184317012495,-0.000939270797014928,0.0138675495944562,-0.0155157892016394,-0.00750973959172284,-0.00467794525548785,0.0215860021904248,0.00738881874096793,-0.0188502367119942
-0.0065310306291005,-0.0132835185179476,0.0080709794026061,-0.00114407509607602,0.00721578825663433,-0.014259117844316,0.00877090495149763,-0.0106662113912936,0.0168657084972768,-0.015321306699819,-0.00234099780345954,-0.0157289015052611,0.00460546347955921,0.0479142064844607,-0.00883899813571395,2.32598456881447e-05,-0.0124102625065347,0.0268624902405959,-0.0199135145057592,0.0141321523880256
0.0156594645171135,0.00542900106121584,0.000897851451487153,0.0145326076153248,0.00844950362829459,0.0243049763308945,0.00339286858053243,-0.00182672682720615,0.0230845636917184,0.0156194062089663,0.025957673609686,-0.0233468170160581,-0.0152113608892409,0.0214662885689272,-0.0149788564774109,-0.000141838628187293,0.0219672485147963,-0.00671887080496849,-0.00582172109196857,0.0106188209943004
-0.0110283299688017,0.0233712060286496,0.00637094254497328,0.00224877864053498,-0.00537505077703222,-0.00761907654810943,-0.00356013910223861,0.00790166564039167,0.015116916803424,0.000985998638669632,0.0251761892205757,0.0129927889506527,-0.00832691582431673,0.0189853833156338,-0.00762311640578299,0.00261212874016298,-0.000535145936341498,0.0026595696859655,0.00379970831846383,0.018946700523722
-0.00833251447976786,0.00934139715505388,-0.010971813782635,0.00114995640892751,-0.0176462132331724,0.011167940647275,-0.0109184975990214,0.017478733177823,0.00334609631865117,0.00123081969284186,0.00578979086932161,0.0217791480308747,-0.0231906073303844,0.0123855821502584,0.00908468424076426,-0.00518410012755121,-0.0194970528130251,-0.000736479797685551,-0.0043321496768332,-0.00138059375802213
0.0132352164763621,0.0148357198558095,0.00841469799338379,-0.00452981619067066,-0.0123619720370473,-0.0145808418949388,0.00951248918539737,-0.0026067640541567,0.00330430592105293,-0.00291770812843165,-0.00866244893824226,0.00409958652711607,0.0166002167223678,-0.00293443672265716,0.0185721314575289,-0.00549561113243855,0.00289172158899449,0.00490487378419674,0.00370789171894438,0.0119273084395575
0.0228095674787952,-0.00585553089873355,0.00387787456969633,0.00568015704502567,-0.0139606616547212,0.00056405152316272,0.0122486375178062,-0.0203766377884704,-0.00227937906075436,0.0073585270856639,0.0050123852143916,-0.00258580028203932,-0.0101856299996227,0.0285685087827595,0.00578101253627885,0.0103570553931899,0.00831615695985893,0.0110207232757706,0.000834448273831628,-0.00736685538180809
-0.0169466316880021,-0.00306034470247877,-0.0134279856962466,-0.0152387883935697,-0.00354693074067316,-0.00446218200696473,-0.000139877287844123,-0.0152455021630137,0.00554434736260348,0.0203724712675032,-0.000410430771088407,0.00404719644409069,0.00404640971802507,0.00746476414760151,0.0127885360585588,-0.0117918877565414,0.0228434744423492,-0.0130567655742427,0.00569978195858773,-0.0351405044432341
0.00143250059191319,0.0191009472509393,-0.0170158174479553,-0.00222857933916576,-0.0213720353340937,0.0238496844027386,-0.00259150960451769,-0.0185311037462733,-0.00108136910589327,0.00611253967437291,0.0129063699626305,-0.0106270380919472,0.0157544163868857,0.00383367645646276,-0.0145248786642308,0.000541272610671996,0.00127544150694846,0.0085870485746723,0.0122542240936132,0.010894170768632
-0.00362319050438604,0.0235276106762374,-0.0013469230148133,-0.0107493440763252,-0.0101077142270992,-0.0124779348093453,0.0173526554420547,-0.0101231054918654,0.0129220287658759,0.00155625070997802,-0.0284726110562009,-0.00115807122920001,-0.0226289346801486,-0.0300718893677526,-0.00276346927665946,0.0187153923266192,-0.000642550896132337,-9.60329808041019e-05,0.0126103517234135,-0.0153978549619326
-0.00101550830841598,0.00929438671480447,0.00764369058476909,-0.00779976631133093,-0.0194094246767492,-0.00751526487631055,-0.00691869716243967,0.024717469658502,-0.000170154453609423,0.00319702511100921,0.00819409538008831,-0.00323614333104144,0.00309822960408966,0.017665676710147,-0.00114381927809729,0.0102507244325381,-0.00945997492249555,0.0107614025603465,0.00543706698244477,0.00450726012957588
-0.0280869624889483,0.00191966001365112,0.0179356309599669,0.0134586494201495,0.00914961981078115,0.00452521023052258,0.0134557985682889,0.0204526755640542,-0.00244235669529409,0.0216047180850835,-0.00192317132669232,0.0118657456984015,-0.0106086311683743,0.00271067481670559,0.0109856153785489,0.00533702567965133,-0.00231495761839913,-0.0239682048427908,-0.0071275773202178,-0.0111280626707858
0.00510210939711608,-0.00546327659486185,0.00672946942529535,-0.015894604168142,0.00424940570716712,0.00500829385112222,-0.00371687957546718,0.0295475949429673,0.00943548953627397,-0.0127227611914344,-0.00577316257283007,-0.0229579570383678,-0.00227217511240973,0.00581311350831266,0.00146839428915012,-0.00117822142754905,-0.0236724519210231,0.00043684431496168,0.0157282905260978,-0.00565951019272584
0.0172509478910758,0.0189351921941932,0.000926041815882402,-0.00933888692144482,-0.0233160200070458,0.0242942074520565,0.0275408555000262,0.00528885463874614,-0.0011629600785644,0.00881805690824873,0.014949957928386,0.0137653402313482,0.0139581299218433,0.012884487315384,0.00191803821707232,0.013272216082463,-0.00552222258517313,0.00870577409405692,0.0165946592314779,-0.0175575691310981
0.00467342433052703,-0.00247922388185989,0.0102085449939069,-0.0112420216296095,-0.0138741661277223,-0.000213776236067523,-0.00108507463139519,0.0310992708457853,0.00813903117266952,0.0172239044452823,0.00725525270389788,-0.0152079048056281,-0.0117568567765389,0.00818317560542309,-0.0172230304318419,0.01039434770762,0.0153968620180718,-0.00456738737256046,-0.0078640237912007,-0.00181412733773939
0.0118012156664505,-0.0193928575121666,-0.0200511162481632,0.0161643016122934,0.0219279552005356,0.00581902774845388,-0.0206512279870268,-0.00386449344081264,0.00785554172901092,0.00694771724209062,0.00622430290046219,-4.8095114504839e-05,-0.00590521962171076,0.00903840042693276,0.009675445316718,0.0129399122913782,-0.00391425143574546,-0.00558847906164112,0.00934527097507666,0.0028650836879841
0.0177308822705228,-0.0177912084512917,-0.00286521161003138,-0.00597170185218807,0.00380884901560635,-0.00390973739606641,1.56655290601083e-05,-0.00814480731515877,0.0118586161523916,0.00765954764280366,-0.0144706780029277,0.000629161023839209,-0.0114700584424644,-0.0062867505090635,0.00735152957146342,0.0070495737147983,0.00605258758010125,0.029497019198549,0.0110577704688905,-0.0107164805001354
-0.00535476931286436,0.0148364919299158,-0.000128113157889958,-0.0107771184774414,-0.00777918357024766,0.00489342616218302,-0.0177658379229435,-0.00574710640902924,0.00595445808200115,0.00285499709878411,0.0163929698967937,0.0185963940398587,-0.0154578650229921,-0.00122092755198421,-0.00107880989441486,0.00595632965080248,0.0183084877826752,0.0141365411243531,0.0187019534333977,-0.0036455525572867
0.00873042839021794,-0.0142944189579901,0.0147731440764775,-0.00902105277199531,-0.00451867693195513,0.0230379760869309,-0.00330473389229946,-0.014723941361595,-0.000924698921792496,-0.00195302715253861,0.00365349819573822,-0.00182980743348331,-0.00212649257413312,-0.00171423641980521,-0.00275623463470471,0.0203341038965634,-0.00154219584794183,0.00957733611580455,0.000785518302501316,-0.000858741518628339
-0.00130836779261751,-0.000551209620851308,0.000582988960514656,-0.00277687043636235,0.000892041154818416,0.0240383513427197,0.0133817438840882,-0.0159058206138921,0.00583565105865726,-0.012479702188586,0.0145856963796557,-0.00438417509883005,-0.0269710418786937,0.0164721770024234,0.00117345355332338,0.00244922749320921,0.0140844843148748,-0.00154388471898703,-0.0271230092407929,0.00850383904898401
-0.0135886787791565,-0.021455753064025,-0.0123749002605003,0.00334149729444525,-0.00347739437087019,-0.00807061706995563,0.00645808162686676,-0.00680101577440712,-0.0292190054184172,0.0036132773644611,-0.0169428886048932,-0.0114847918241694,0.0137169532592131,0.00747737611062424,0.000265169873574889,-0.0211532713036964,0.000495791015482055,-0.00193309468681756,0.00318545031267218,-0.0247558434576207
-0.0109637471884148,0.0170850223329576,-0.0176026017453621,0.00637333926295864,0.00111915456604048,-0.0187333925875123,0.00413994743695901,-0.00537307816950033,0.0105685240573598,-0.00524766145879333,0.0234541995665442,0.00145505081891794,0.0119571017850839,0.0212131351946538,-0.00529637572777337,0.0167732170825757,0.00676515965260796,-0.00210250678221675,0.00734960241855266,-0.0192620567232178
0.00752222879291043,-0.00712498267568508,0.00218015326105491,-0.00357071906974771,-0.0048228275085979,0.017922628419106,-0.00292632493876097,-0.010256852629206,-0.0241646311751238,-0.0113664007136364,-0.00300642032343158,0.00566161939455381,0.00125333069051429,0.0237014620236096,-0.00872876975603287,-0.0131661737878537,-0.00940776606815365,-0.00225903029144483,0.0181099846096144,0.010946545623682
-0.010051802165199,-0.0105169299515031,-0.00939146950448708,0.00156978530297713,0.0150714870559699,-0.00998375737013001,0.0100667777217969,0.00745865795699458,0.0110307224134763,0.0176799820934202,0.00387379524332111,-0.00459307773067603,0.00878298662445449,0.0111643286049798,-0.0295647790993954,-0.00367784558572928,0.013743271542013,0.00463886273901832,-0.00452090398612849,0.0126092576247161
-0.0048464067794248,0.00348222352519156,-0.00482959461971409,-0.0162469348282635,-0.0091941962246636,0.00538430934295718,0.00608342127495442,-0.00979292398803252,-0.0286347072788417,-0.0260206370035999,-8.88101454754459e-06,0.00632274812240789,-0.00167783350395571,0.00586580764476512,-0.000687862647973879,-0.00868918828945483,-0.019290481232997,0.0080344214436099,-0.00570377455983687,0.0132489747832737
-0.00362918282905652,-0.0137357547850318,0.0159466433466979,-0.0102411489361691,0.00120303006173751,-0.000836832079717501,0.00288391278509263,0.000605123572645301,0.000682683394802786,0.0222154304712538,0.000278448284328303,0.00978966480273864,-0.0257148453240016,-0.0106382502932504,0.0164518099418976,-0.0139368022285783,-0.00747125953786144,-0.0251627312115635,-0.00532424132741962,0.0133162061738169
-0.0152832803177368,-0.0099533168439568,-0.000415907598600353,-0.0131800837350562,-0.00366202014301135,-0.0125752888566591,-0.00922464964405047,-0.0124634509105192,-0.0120034733573063,0.0182836751715117,-0.00757011110911962,-0.00418863834956454,-0.00547667808477618,-0.00413935019724138,0.00628415538652476,-0.00807985248188331,0.0013848166555417,-0.0105333925815281,-0.00475757449951462,-0.00287261331931072
0.0143167888971574,0.0162374065747997,0.0068239536340521,0.0049785534661664,-0.0067343963209229,0.00694239382502676,0.0121894569939115,-0.0297112886764119,0.0200025489788782,-0.0109825609942168,-0.0180434034081055,0.00903330250876156,-0.00510237693391212,-0.00176424375374344,-0.00853921307177351,-0.0113615566055125,0.0107694410149172,0.0255270074252443,0.0042926862600919,0.0131166010173901
-0.00395544105392925,0.00730566176864457,0.000206859099029282,-0.00136140009239932,0.00324099528427014,-0.000406357727118849,-0.0046866610726086,0.0103381558687213,0.0189757995382738,-0.0165673108931069,0.0157081966272725,0.0115807106115053,0.0150154350452814,0.00122241288230612,0.00155870845712748,-0.000313659668823711,-0.0190637963245069,0.0243393820726924,0.0227501932340693,0.00200497111141556
0.00251902316306269,0.0240846698926705,-0.00808535021906593,-0.0216488845914048,-0.000208906572475528,0.00900579956815183,-0.0125496046425535,0.00164293472737124,0.0279202553736128,0.000362964415202269,0.00732802550457018,-0.0118204015030117,-0.00591108231668653,-0.00334714777562047,-0.0123158882661861,0.00803440924492599,0.00410192419637905,-0.0265065432433153,-0.00550339454918085,0.00931202749263169
0.007078338809771,0.000237944953129644,0.0166304596721384,-0.00607913796478805,-0.0137784980908796,0.00153950011144985,-0.0154372240821741,0.0145803434877881,0.0180254876037582,-0.0130530226376298,0.0174468165676773,-0.0046740672637065,0.0136494376359117,0.0214973979982974,-0.0108438159974246,-0.00173034170473285,0.0120853118218463,0.00328679773413495,-0.00465158629623443,-0.0110458821077123
-0.00246806132355212,-0.0194208534882259,0.00696373768870825,-0.00209710647226643,0.0113806944641859,-0.0104672749388163,0.0129829699678696,-0.00599183839470988,-0.0142701866147365,-0.00735724764834967,-0.00621116248031248,0.00272902614994796,0.0148154916254529,0.015007303697188,-0.00686077947500055,-0.00858680936831915,0.00451788345738093,0.015158239027409,0.000127081909961195,0.00558803905642958
-0.0226089894293063,0.0151526719451429,0.000827475904903415,0.00794971417336931,0.0055322035949728,-0.0200298288797173,0.0154690850533125,-0.0121578994936394,-0.0155976960603165,-0.0203483364161084,-0.000293766093902118,-0.0236185845004717,-0.0175652807576718,-0.00200809478479546,-0.0082449065389956,0.0165525043164621,-0.0246362630237745,-0.0245045283537833,-0.0293345565174877,-0.0113206826972198
-0.0162910033263621,0.012626414844513,0.00512942624267729,-0.0260140944840601,0.0020292721449691,0.00115055767432177,-0.014239769725715,-0.022122156937101,0.0146249162469327,-0.0245507923032163,0.0219496277374273,0.00939458584227068,0.0036326967937842,0.0225940175669517,0.00629161831328999,-0.027181762394184,0.0142851527482096,-0.00635432755733688,-0.0144756912380366,-0.00570045567538147
-0.0080653313784892,-0.00985546517479381,-0.0144600639195712,-0.00118321146259917,-0.00379005321313849,-0.000536164440647703,-0.00991672148054754,-0.00291085173217885,0.0167572214018504,0.00378096049967999,0.00787311509783526,-0.0105657104117514,0.012861406933054,0.0166649884408389,-0.00512679490594031,-0.00977910341892173,-0.00606930400205447,-0.00868685525469436,-0.0034669106747975,0.0106211992051923
-0.0124175182299561,0.00292422286858547,-0.0238450455559168,0.0136251879072827,0.00135437389970896,-0.00109236288712717,0.00699250005603189,-0.0119393725858844,0.00968780968300859,0.019623156536938,-0.00771572581181055,0.00287296813645196,0.0186802197524201,0.0192135149540807,-0.00553853311604655,0.00505314412761154,-0.0208438391238133,0.00899253744147726,0.0140859999730912,0.0218028012613126
-0.00458359414205603,-0.013373962477471,-0.00487469703715313,0.0129781460826009,-0.00204853174673754,0.0151420183503524,0.00413866247377294,-0.0269548965344761,-0.00241933678539533,0.00601623299986013,-0.00143574965984616,-0.0201220097249836,-0.00194388706628166,-0.00351406394264059,0.00574133553865667,-0.000289903225504184,-0.00569978794759767,-0.00621954746015866,0.0212324403495437,-0.0410731730309055
-0.00143648490900377,-0.00944712776529169,0.00911298323908714,-0.0111524906442706,0.013633232770242,0.00639474117722706,0.0157371903246639,-0.0247047787954178,-0.00598447183528374,0.0124288767006686,0.0191252650392566,0.0312859857515301,0.00460218814782269,-0.00833186823349573,0.01135195306308,0.00530388611697642,0.0252549330353464,3.48465421791911e-05,-0.0103622986593368,-0.0168699292672971
0.0189502535373307,0.000220882424863432,-0.00572358263901853,0.002180657072725,0.0193723550880269,-0.0177167735603298,0.00427042040386021,0.0141005541199333,-0.000318069255430964,0.015648459186025,-0.000567715548910542,0.00711154747994804,-0.0260716847650062,0.0101147734137697,-0.0066162043450144,0.000520434810318639,0.00116873257460671,0.0201405415373748,-0.00651891250964779,-0.00973311101896309
-0.00537182185807547,0.00484658354975003,-0.00151398791931364,-0.0254264046198943,0.028706092053898,0.00860708109124938,-0.0154012713515905,0.0127262033914686,0.00747370072415879,0.0119395685092554,-0.00417566521812345,-0.01910012049161,0.00898728560333973,-0.00176500229027552,-0.00685660131918557,-0.0151718125830496,-0.00281424111966489,0.017756576517168,0.0247544094086623,-0.015791730022061
0.0104004498688692,0.00167544449454876,0.00112865505177284,-0.000582346202270635,-0.0127700354135761,-0.00104257961184732,-0.00389975714561293,-0.00226277881448157,-0.0110461776441359,0.0134921852563357,-0.000855194167792268,-0.00478349013660235,0.0207564436186752,0.00253577010135388,-0.00325354008978714,-0.0220817637487509,0.0122803332376051,-0.0194564587643005,-0.0067771551766627,-0.0151542511911133
-0.00415460353709728,0.000829330151427,-0.0252871712947718,-0.00452404998165419,-0.00945173951355777,-0.0203444852752759,-0.000300670474768691,0.00436721683568318,-0.0215385934681207,-0.0214435979086631,0.00494887157728436,0.0149546082198086,0.00980000780875713,0.00913622436240523,-0.000515267103360643,0.000593451978783935,-0.0195129569460662,-0.014616535434385,0.000363426056950187,-0.00349115225752989
-0.0200332556784199,-0.0115623774123777,0.00498525233014379,0.0151773982881562,-0.0141372193449382,0.0114436611321868,-0.0102383403672125,-0.013363935915893,-0.0191436390753648,0.00443036447417987,0.00691747585410786,0.00753147216132123,0.0137705123278242,0.0119653546677776,0.0176817182382933,0.00107297410911707,0.0229958375839134,-0.000468997700054633,0.000945313595413917,-0.0243384836541477
0.0050430157592655,-0.00997100716390825,0.0152016555380158,-0.0168479824432658,0.00347562746475684,0.00701062858907378,0.00267478893651767,-0.00967359150297013,0.00674738841570456,0.0296073316149899,-0.0127962044609777,0.0138794838440058,-0.0202127574580572,0.00288408279896658,0.00140761413407252,0.00572230790362057,-0.0220278923218634,-0.00498588186492255,0.0332930550858682,0.00483442057960136
0.00121504165796736,0.0101438569721749,-0.0127405744696589,-0.0143465815490611,0.0204680554581771,0.0121971837983137,-0.0218176198139348,0.014604206445247,-0.00463115475600652,0.00194898469802916,0.00878643154436159,0.0208042350542178,-0.0186666630886108,0.00723769255812635,0.0179088880780517,-0.00163253838738691,-0.00590813737721488,-0.0221340256551014,-0.0301320568723458,-0.0147369333454893
0.015074831894921,0.0165995504756241,0.0109728522632271,0.00225141517612187,-0.000484107215864019,0.0136410375202078,0.0142105012489357,-0.00273863257460424,0.0122926017527968,-0.0143618174555225,-0.0263358566586528,-0.00675163490012289,0.00587198425466077,0.0173230157687474,-0.0153959933586314,-0.00192488385961546,0.0157112639559248,0.00785573998981085,-0.00129970707016751,-0.0156166592645424
0.000392416447684515,0.0113019421952465,-0.0149393313707447,0.00475354875670772,-0.0176720830357034,-0.0180242855845254,0.0272862784607195,-0.00354920301353292,0.0213200728223202,0.012967477756214,0.0264301043671721,0.0203036666714833,-0.000607298289346379,-0.013210724623981,-0.00331390768149983,0.00152092796936488,-0.00980275175954974,0.0238136940049534,-0.00985215095886181,0.0103268181264604
0.00835613722698285,-0.0115903403557049,-0.000251160423824818,0.00206321198486662,0.00379880844631943,-0.00133396499771939,-0.00394626337331103,-0.0146657499605992,-0.000643571943446301,-0.0129202370727487,0.0153190924177402,-0.0110433533744047,0.014927535996285,-0.0201386539218867,-0.0277774178928223,0.0046049673411408,-0.00149074084296216,-0.000467818399399128,0.0346982704276739,0.00680577785852841
0.022156954087272,0.0140194941890063,-0.013992732546235,0.00508019103782179,-0.0110660095772497,-0.00535316420138294,0.0069781370585129,-0.0140167810740006,0.0106809552272937,-0.0215322613480159,-0.00246289263318492,0.026973545205536,0.0024254963802662,0.00858444603101771,0.006302232250485,-0.00549749378262087,0.00307552126751487,0.0137407793300248,-0.00386671110212755,0.0350689470662235
-0.00885665004978725,0.0252013304234489,-0.0203155715804894,-0.00266837567891762,0.00612872314940191,-0.00648893110295122,0.00667503247023182,-0.0108901014835645,0.0145173844339926,0.00406548299269683,0.0121451455439978,-0.0264577944661879,-0.0131959289364927,-0.0224188783889538,0.0012992355781423,-0.0245210333390605,0.000512088145789536,0.0131407588373918,0.00488150333106503,-5.11812897413831e-05
-0.001327858476833,0.00483752144057709,-0.0158770252472791,0.0120888005792723,0.0186944020418731,-0.0230520215662629,-0.0115489532813613,0.00736624167164262,-0.00126026083926115,0.00524380525533754,-0.00099952956499334,-0.00130501005856718,-0.00117183952341132,0.0232864505458593,-0.00676284270903368,-0.00429347278627728,-0.0042084323425828,-0.0120005893911056,0.0161470718990391,-0.0221225640323563
-0.00888820055359339,-0.0301636479316731,0.00716705494262149,-0.0052911029257004,-0.00868654948725151,0.0161781382734411,-0.00289412279883306,-0.00632706276510094,0.0102262459723613,-0.00793659296906441,-0.00250924772968712,-0.0068287082808435,-0.0190163879554365,0.0119101195521661,-0.00472786335867738,-8.00989888165234e-05,0.0142835197743775,0.0103993506293619,0.0156465695190829,0.0047671287916006
-0.0133924877376943,0.0124716964691838,-0.0268741564493303,-0.00623766754901415,-0.00973847581276069,0.00905647535820656,-0.00212626579854551,-0.00155417925689212,-0.0110198855099512,0.0119434385511788,-0.000749201529026408,-0.00124470926004889,0.00168151830747573,0.00154494826043423,-0.0172886021612385,0.00993401658999028,0.0120822016505812,-0.00288125004646064,-0.00469319194115434,0.0195503916542857
0.0279174508094225,-0.00878030508608325,-0.0193908284251725,0.0112959490469931,0.0175065915959067,0.00681205238462687,0.0180266817877856,-0.0227270411468881,-0.0196608092798783,-0.00805735512700173,0.0122914636616983,0.00884498031328123,0.00257638891589233,0.00669889768735802,-0.00542771358271032,0.0160235164884033,-0.00989340522901913,0.00552500284635961,-0.00250751033699945,-0.00798564239252687
-0.0172317427771112,0.00164232217756772,0.00381962925293221,0.00218321592287056,-0.0123965001410359,0.00287257542264639,-0.0134232843917283,0.00239014154605302,-0.00903239852253132,-0.00119681517743304,0.00274160108694833,-0.0142525604459134,0.00842407913608628,0.0258292910388915,0.0222816185961131,0.0128539619179128,-5.29111620114285e-05,0.030727551702531,0.000941716086521001,-0.0183339240146051
0.00569521642383689,-0.000684773310117032,-0.0112632506148183,0.0182058667720885,0.0109414147712939,-0.0128334769715675,-0.00155499088327696,-0.012503879712253,-0.00200499391962578,-0.0187764318846831,0.00707980862387999,0.00143620432032424,-0.0159538388303503,-0.0151985505960356,0.016219890445663,0.0238171434937073,0.0159399089986603,0.0143025659117144,0.0128681255127643,-0.00142750800279974
-0.000247014698494345,-0.00422706733871928,0.000413728382130733,-0.00480197179514936,-0.00977741565906293,0.0173241511945884,0.00830522741824782,0.0246221391602043,0.00644115488242303,0.00552295611460395,0.00651319783490209,0.0318311995535646,0.0062625012732995,0.0106095947683277,0.0150589937300027,0.00701330072721223,-0.00189015876393974,-0.00825714827844936,0.004210567485148,0.0101305355470131
0.0136939336362332,-0.0156499095011378,-0.0184085602937608,-0.00767774366226533,0.0126576161691234,0.000537708011446787,0.00250959988445649,-0.0148546998024785,0.0011734080509773,0.0206795332056833,5.44960171911038e-05,0.0122320586525587,0.00184617610595295,-0.00858615182915419,-0.00028161906045376,0.0235751756652847,-0.0177612098667075,-0.00897642280261181,-0.00698497886383317,0.0113798358368962
0.0110823455316245,-0.00138574504415028,0.00281182642523625,-0.00370756325237361,0.00235716616912337,-0.00998961628373523,0.0114200024761318,-0.0154279805357519,0.00752752996744671,0.0165205373042671,-0.000308001964256883,-0.00042180296814565,-0.00960013222841569,-0.00705377984209048,0.00690104513031276,0.00532916055336559,0.0146878279013457,-0.0154528081918793,0.0149324297649346,0.0160071037616106
0.0316792099479924,0.00366812620650274,-0.00189813927812091,-0.00209392731839822,-0.00665709190464558,0.0123654711925139,-0.0042895645829298,-0.0087452619581729,0.012347529584152,0.00033594965406461,-0.00718679144278904,-0.01162626744325,0.0104405452174584,-0.0076704901500351,-0.0205553577900396,-0.0133388956551151,-0.0119602904496246,-0.0023821671080232,0.000612546430429281,0.00802655078737204
-0.0100822468164352,0.0229023359656539,0.0161193516510495,-0.0261584721269466,-0.014906984767735,0.00173612290880398,0.0039405876882838,-0.0126377836239324,0.00461495438331496,0.0159583958021999,-0.0124723092795443,0.00766179464423577,-0.00801373813460824,-0.00505514965298206,-0.00221951043277464,-0.0070645438396497,0.00624230032221448,-0.00733382574380004,-0.0219899769840424,-0.0100775763262016
-0.0141279808721625,0.0118613508931569,-0.00228787490531026,0.00490241906059051,-0.00559913444141194,0.0111126495188047,-0.0146486008270035,-0.00768944048105913,-0.00461207829167434,0.0128585466725933,0.00836673740088507,0.00407485922381403,-0.00520476500719677,0.0011978231074622,-0.0144314657119724,-0.0074994674928768,-0.00798439595238518,0.00503904242652552,0.00925881350145383,0.000796668211374876
0.00279879867131844,0.00553459952614614,-0.00875448219290453,-0.0102649779087839,0.00971690997979478,0.00179130694559145,0.00771912640599247,0.00409192986155342,-0.00431772719767774,-0.0224274182894443,-0.00079597806791202,0.0119654328636792,0.0147201258215934,-0.0393085386845827,-0.00961890183976635,0.00984332771599871,0.00894923744914669,0.0142930606492848,0.011111338538286,0.0159213542886986
0.00405764485571481,0.0224040812276195,0.00874553691825163,-0.00966788983528191,0.00386353358013741,0.00484576812271127,0.0068495226352596,0.0139082404756675,-0.00364097091844634,-0.00539030904710532,0.0151395137763553,0.00656154371365132,0.0158636417880312,-0.0103775672049436,5.93540986881996e-05,0.014735032135729,-0.00311412861585759,-0.0325424998274148,0.00579631343420497,0.0140160916505582
0.0133479195394951,0.0111387451578547,-0.010791736574147,-0.013175060023792,0.0234666081914225,0.0118302494805784,-0.00667430532071233,-0.00570173820673401,-0.00850100108574641,0.00380815489618796,0.00183180454236905,0.0130646819691081,0.0149370028181545,3.80034682892921e-05,0.00466386318751341,0.0018549218817941,-0.00975720358451821,-0.0148644145616678,-0.0158558210311275,0.024275768952072
-0.0103252638186058,-0.0148448415399805,0.00593578425632053,0.0101576728456796,-0.00382795436168661,-0.0151737323138477,-0.00978423767513902,-0.00917394289627409,0.0206295144606842,0.00684212921829423,-0.00543258941871412,0.00287617581047467,-0.021116889222932,-0.00128245956044767,-0.00338078362722685,-0.0113202673035722,0.0158436246029341,-0.0231293460171408,0.0110422320355065,0.00432269419203778
-0.00938696021901745,0.00292570314688196,-0.0116163313913205,0.00994703227672807,-0.00025459646728893,0.00544166062501325,0.0032073613005249,0.0054574880804815,-0.0202391183920721,0.0121675515164729,-0.00326709425768689,0.00400244084987449,0.0137335805512001,-0.00672281112827369,0.00545237563612207,0.0243565501736055,-0.00829942507148826,0.00446409490280217,-0.003533066871633,-0.00159363873142296
0.0111700620357897,0.0137290317517603,-0.0268309946664643,0.0212743184109674,-0.00639169514972122,-0.00554520914976237,0.0215760507044672,-0.0121216603766739,-0.0100530417278109,0.00216822284478945,-0.0116886499927856,-0.0129655468526232,0.00303519124421353,-0.00564990591288598,-0.0285182771452405,-0.00558113423085581,-0.000858694507878745,-0.0153663808835967,-0.0131618824823143,-0.0156617125533328
0.0188214301970986,0.0132525251219391,-0.0163862295971956,0.00443927134292194,0.000827529338181203,-0.00332515057763973,0.0146555760770456,-0.00933805344787358,-0.0139748811941889,0.0356299700792821,0.0197298867303829,0.0160628972746446,-0.0018376332721504,-0.0137648744126543,-0.00329231938388765,0.0112307013100929,0.00433687929463282,0.0134731827379712,0.0145891750593265,-0.00207398468011588
0.0331861467079156,0.0106670102487129,0.00947662595759425,-0.0139413429438697,0.0106970585614033,0.00376840841558036,-0.0204078765949581,0.00739211650627693,-0.00241499984104913,0.00818615855764889,0.00118940414603528,-0.00557160528908969,0.00873669798374073,0.0171064379446775,-0.00923055073319214,0.00984933651745704,-0.00283415681177429,-0.00994990238617616,-0.00112419063625239,0.0249335189084502
-0.0106360387860487,-0.00827006791164207,0.00946785887516732,-0.0182603868281825,0.0239113735629165,0.0112109962846976,-0.022387743247606,0.00241170492540068,-0.0179552950379612,0.0272594594228848,0.0131589321870162,0.00213061358628441,-0.0199512762441284,0.00966259371732844,-0.010818658563539,0.00395307141563345,0.00286221443390207,-0.00103687659500404,0.0200015607887586,0.00145531504849448
-0.000811243672357242,0.0169006778791882,-0.0118596880515738,0.0130633002852158,-0.00474450130272834,0.0129726547834003,0.015167908299093,-0.00199096935459075,-0.0132388239669111,0.00994809985554074,-0.0062878785305704,-0.0274248935804595,-0.011723273065349,0.0175814620101577,-0.00368850474731767,0.00504038668185863,-0.0268862043507978,-0.0213046415867873,-0.00251693349015565,0.00641602374015705
0.0181675037823834,0.00154906301319733,0.00256830476271691,-0.00505756318496461,-0.00271040958482622,-0.00510877676484022,0.00185906579610714,-0.00277969508075832,-0.0177281561834145,0.00932036005043584,-0.00887905785343967,0.0056691538621469,-0.0110056445234843,0.0175595411158638,0.0133051660747108,-0.00481149644609459,0.00840955852460656,0.0105351168163221,0.00948667570893806,0.00106247222468047
0.0110745553411214,0.00573525495203862,0.00147268707367508,0.00898550003450318,0.0123612648052789,-0.0100878107432566,0.00352005225904255,-0.0011815191021167,0.0129171134013154,0.0183950123526058,-0.00403681005982854,0.000365441424399061,-0.0100676606068961,-0.00446673942988638,0.00590341828044833,0.000953687547944189,0.00454810937606536,0.0237236413787489,-0.00563466235839765,-0.00688971614265418
0.00841781686530737,-0.021220832894269,0.0163941167599357,0.00886191337429697,-0.00657212483312934,-0.0305491001723103,0.0126823945784634,0.0260403147594491,-0.0112136672005575,-0.0159705529801824,0.00237691131839744,-0.00277108625439248,0.00635140347626648,-0.0254899677515501,0.013894603077217,-0.00295169190460042,0.00245353738254459,0.00981413685217512,0.0168237995164517,-0.0034726102934473
-0.00668672157501465,-0.0115786016860847,0.0201169895958378,0.0131345714955224,0.00788943691972241,-0.00374572177868001,0.00479460436407787,-0.00472925923070215,6.09823986179665e-05,-0.0026715892359216,0.0126991864017036,0.027044197688844,-0.02118787831898,0.01509273813683,0.00717431312176581,-0.00268238616745308,-0.000153032667431079,0.00595159195438503,0.0217689922599207,-0.0221217613781939
-0.0237390839452912,0.0170043567352006,0.00739817384980586,0.0158561954933106,-0.0032214976117303,-0.000183428076547701,-0.0132545209113994,0.00778048919794542,-0.00705763752292232,-0.00243580416605332,0.00902194636261896,-0.0162217089985394,0.014590538918924,0.00346661932293656,0.0311333232810282,0.0193319401534486,0.00350941554141433,0.0104300604020022,-0.00605081851153361,-0.0137805764552069
0.0199886189289497,-0.025581830140185,-0.00859645813347526,0.0168564545665268,-0.00998048293556042,0.0101506211287295,-0.00232466368053246,-0.015631012812023,0.00191530966275749,-0.000492821083483165,0.00734327769874515,0.00210849682433362,0.0174390214015174,0.00858971334735384,0.00269586515005021,-0.000352510463505425,0.0170560069261731,-0.0113005820577868,-0.00567561460664923,0.026810759297943
-0.00416060545810409,0.01937658683264,-0.017844902367812,-0.00842682208319421,0.0107293734452083,-0.0140479507026208,0.016726972143735,-0.02931421613071,-0.00260129358265315,0.0119664887080242,-0.00498430429536498,0.00460318715458616,0.00151265495093464,0.016570742918308,0.000863251799309456,0.000157977627231566,0.0313370522983538,-0.0182863751328743,-0.0312794182550786,0.00725128414699118
-0.000247804224332518,0.00697839944866508,0.0054747245165447,0.00431909044847467,-0.011648571811093,-0.01213503761045,-0.0125030424026685,0.00456802999630532,-0.00412558283917062,-0.0217918574604956,0.0028083512248343,0.0043335484546914,0.00802277558852202,-0.000637534760195227,-0.020262147070032,0.0139668697234631,0.00629164117461122,0.0122928783504878,0.00563442560360847,-0.000293188048265472
-0.0263062560166658,-0.00264146759013329,0.0115837425117774,0.0136485801529362,0.0100689961275054,0.0256683100059435,0.00173146554116492,0.00859480023150668,-0.00317683453769181,0.00364537620182361,-0.00599777200294263,-0.00217199791891322,-0.00503007760552686,0.0101237716453039,-0.00696657612421957,-0.00311163057603841,0.00284334666229664,0.0182027020147246,-0.00289194626950657,0.00131801709476226
0.0101722606532878,-0.00600435355780998,-0.0147010511274658,0.0166957171330241,0.0145389110871183,-0.00780930044018417,0.022021550550997,0.00865875911082726,-0.000236553440026054,-0.00489461707352724,0.00646151762192443,-0.012159747566833,0.0182892506300715,0.00451489582185542,0.00571176300458263,0.0070897853675562,-0.0100740708402176,0.0166837384450137,0.0122147049060343,0.0120472083510659
0.00290307880340982,0.0166641401299775,0.0150003152661208,0.00599656992147392,0.00624404648786566,-0.00555609683134878,0.00135958972063952,-0.0169469310525104,0.0134347016437331,-0.0083393169534076,-0.0129414491119467,-0.021400141520522,-0.0223756605160175,0.00318601186372573,0.00316697600155295,-0.00622122044504103,-0.00963585165927276,-0.0130514657690243,0.00328686484253924,0.00613088933169098
0.00389278034415408,-0.000315665619260341,0.0254244809375495,-0.0181982054431245,-0.0133724729824868,-0.0147264723866867,0.0010638620788595,0.00670078829986762,0.00725868511470444,0.00269389950523478,-0.00783263812738988,-0.0037921497237491,-0.0170252617252387,0.0287731165698087,0.0132059450671566,-0.00778067456499042,0.0294831474455996,-0.016550456995535,-0.0170180880281036,0.00104776531384818
0.0188569487935002,-0.00875329116643872,-0.00400137313810893,-0.000850636968130752,-0.0180564626895554,0.00350493741339968,0.00802429485841343,-0.0199887052311592,-0.000520685476477312,-0.00115967131940724,0.0112830384881395,-0.0122407964907395,-0.0101321312853278,0.00533059670776148,-0.0210594773206521,-0.0132499989751043,0.0219851030863298,0.00513227064762862,-0.0218644268822552,-0.00229520571508073
0.0093942852548188,-0.00110967202312388,0.0040470880294835,-0.0207624427548848,0.00123760271157233,0.0155575630862691,0.000452418568434221,0.00732000120765181,-0.000854262653138064,-0.0151156899226941,0.00595951066829242,0.0259193118348678,-0.0208619493733385,0.0119495215497764,-0.00892291619736962,0.0170628271207834,-0.00860069917391377,0.0108808000273756,-0.00206781748474713,0.0111450513562433
0.0101173362021184,-0.0118437072062364,0.000629409451104,-0.00897134392468086,0.00274991337039392,-0.00302740033450769,0.00537358855736571,-0.00248451774450229,-0.000174787590864957,0.00466771446346796,-0.00544012102940984,-8.15715182280603e-05,0.0258089973144982,-0.00916101542132558,-0.0188407560606903,-0.00665726211414903,-0.00579445590680944,0.0138484696681414,0.00680533889633016,0.014575316822169
-0.00148273538977995,0.0258705683990379,0.0153647414198627,-0.0133615781496397,-0.0128062936558184,0.0160146701145596,-0.00525876936819079,-0.00292856950064719,0.0117828606717212,-0.0224485773094436,-0.00359427406818721,0.0127260428282178,0.0269279988116193,0.0265016017907717,0.0250473648999345,0.00309365448277429,-0.016852799447218,0.0090637200502872,-0.0211258649951411,0.0101774410789044
-0.0154124094266384,-0.0233955893118365,-0.00508227889732981,0.00374014929484662,-0.000604695944724679,0.0203668384301548,0.0203340769126122,0.0160298957029122,-0.00426001864539893,-0.00702476282652518,0.0152343186900991,-0.0117895771153246,0.0104058928627771,-0.00608344907815715,0.0386929141861921,0.0158828301216215,0.0178677613381884,0.00853031293245107,0.0139392858043343,-0.0300946728869902
0.0128528785757317,-0.00288847163994096,-0.0114760596979463,-0.0245640941554525,-0.0187935044863703,0.00177561399288047,-0.0221032671384593,0.0117274511300047,-0.0023483461028292,0.00659529723400883,-0.0068164498989119,-0.00323618355645907,-0.0281939533859449,0.0044117833524558,-0.00844668898865278,0.00419934057760394,-0.0177234614581832,-0.00725741275178154,-0.0121154759414982,0.0244243281526634
-0.0249584997156752,0.000898560655345135,0.00113162059959041,0.0099704103759325,0.0174585472990885,-0.00561075602144822,-0.0186867078754945,0.0139050558405837,0.000128068707626158,0.000846747200297045,0.00647087143043611,0.00364086758127518,0.000649243777814207,0.00285590819521637,-0.00411163831969781,-0.00288709785235316,0.0134211770123633,-0.00721876726632363,-0.00954412103457938,-0.000927004930601326
0.000977203711076528,0.00543676124878454,0.000224493908572871,-0.0038875086613749,0.013086590886474,-0.014818140532726,0.00118617260337561,-0.0140955436640158,-0.009553883304148,-0.0109684525216585,-0.00140590551566496,0.0149275445091176,-0.0102564636418776,-0.000857534579949305,0.0113703474313104,0.014154288241627,-0.00765159098271562,-0.0118235466604837,-0.011979469843983,0.0131730382931649
-0.0195190552005216,0.00793034629339276,0.0190145461977328,-0.00129711087380954,0.0123959126317151,0.000444623738140962,-0.010610639099489,-0.00195183076813624,-0.0173953674316448,-0.0107052174038949,0.0113073752393769,0.00343989394001301,-0.00511209042703641,0.00267136187063467,-0.00562697129987069,-0.0222946928427376,-0.0125417568129715,-0.00902524124043099,-0.00844929769004146,0.020085508665858
0.00494651836823002,-0.00315705472219462,0.000237661991680996,-0.00464418376730243,-0.00659772400333523,0.00447572727877431,0.000710407034168268,0.0155911508037653,0.00445128260348739,-0.0150667277168013,0.0244048497726259,0.00637355865947647,-0.00482748021526209,-0.00164156618794756,-0.0181639820416134,0.0107468899507352,0.0228216154574592,-0.0122662656582849,-0.0112409170874693,-0.0104519140458611
0.00748005161420607,0.0191395290124998,0.00750134865123186,0.0118806617101255,-0.00701119037594374,0.00418280630511069,0.000844681106678797,0.00470909162362623,-0.0173748309718938,0.022961306940465,-0.00470580139832244,-0.0168545722950845,0.00549881866848367,0.0165493510948983,0.013977398552367,-0.00413173495038982,0.0188496857803246,-0.00815422706925877,0.0100380370622596,0.0080498969484882
-0.00399596873273086,0.018089780433588,0.0167346656953479,0.0179862688859705,-0.00552315060169358,-0.0157147486839703,0.000400876047060705,-0.00705578010391409,0.00783628543765693,-0.0147693689592752,-0.0116641784213989,0.00122570359922711,-0.0147830194584779,0.022980170689717,0.0155235786086331,0.00465294552429323,-0.00218709910996602,-0.00357350575363884,0.0209062691350287,0.00233679794638102
0.00317497746972442,0.0120974161922007,0.0188720171946207,0.0165130786104708,0.0142224285818237,0.00621221202677605,-0.000123564499882663,0.014709348321495,0.021622541089745,0.00710010043144142,0.027777851591915,-0.00215263319966225,0.0152366459189741,0.0107079786322971,0.00517503929015765,-0.00838472747177463,0.0033547731939818,-0.00510379647668278,-0.0170203190751371,-0.00816336073617886
0.0163180532382256,0.0233736543560502,0.0216905938399986,0.0152860476678375,-0.00228166533598121,-0.00557132481558358,-0.0121012936892902,0.0213672795602261,-0.019356961917895,0.00314454383261043,0.00158734312528555,0.0028954831687107,0.00532411942419205,-0.0136739727310209,0.0122280237833375,0.00389301198054564,1.08190961598129e-05,0.000309954597398904,0.00186459680397433,-0.00503002364000243
-0.00283082765150379,-0.0166361039064723,-0.00242552789872929,-0.00829053946604383,-0.0133389514327798,-0.00168122038146633,-0.00165981900720096,0.0138727818902745,-0.00992293170794786,0.0123039958424283,0.00259793224983325,-0.00448447324408276,-0.00804152906208675,-0.011221999353694,0.0233121736858159,-0.0304385974223016,0.00491663407883288,0.00831247910841192,-0.0132205330484304,0.0020063657056261
-0.0108808349330764,0.00249013791737762,0.000653202255296283,0.00289413341646301,0.00288231172225543,-0.00893877890450135,0.00529674749624402,-0.00699882255584508,0.0126521386097827,-0.00834553570611846,-0.0248814078744603,0.00272895276756886,-0.00845590639771767,0.00190234521490083,0.00333776489297706,0.0135251345861754,-0.018915079157759,0.0175783104941575,-0.0246316129078573,0.000859607407521407
0.00525864360798457,0.0298394157653056,-0.0122165190328917,0.0141594777261716,0.0176559662102588,0.0216338927646871,-0.00584298893910916,-0.000291791188222745,0.0284190703222826,-0.00606439593649249,0.0170356079192114,0.0317534037253994,-0.000435758921143094,-0.00485710989063194,0.0140588862743905,-0.00483463886893015,-0.00936952337500527,-0.0176859211487208,0.00491639152943255,0.0051235224424573
0.0304044444049224,0.01300781689648,0.011496607377119,0.0060919603424067,0.0214565310503772,-0.00488986409024888,-0.00405269752535991,-0.0103983527375556,0.00865699200967004,0.0029611779058138,-0.0121715745558805,0.00427276679535133,0.0027518691155569,-0.00317750607567766,0.00307475140583887,0.0025316701629351,-0.00364113432520906,-0.000651465737888479,0.00116763709540821,0.0161535760611351
0.00416936177704996,-0.00206521717456302,0.0154515578944891,-0.0284606574393051,0.0210193169578905,-0.0189718701604422,0.0048606877834959,-0.00797075179472598,-0.00256795825808972,-0.0096152932754581,-0.0106971554742774,0.000489113303583537,-0.0140019458861534,-0.00284566454152203,-0.0037147116716049,0.00419556825635906,0.00464937002623728,0.0079968144484296,0.00922875425868466,-0.00464220098251161
0.0277760944322232,0.00179937738723439,-0.0108075603293805,0.00082255906242733,0.00232489018236311,0.0130676629156287,0.0142406572137094,-0.0210966584346603,0.00314421563132628,2.23084424380781e-05,0.0165769337682794,0.0017435003382124,-0.00208529145385008,-0.00684969482133942,0.0112792613356505,0.00612629182989004,0.0307416520314166,0.0248778589226198,-0.00374457127305772,-0.0029007986240958
-0.00871231905626053,-0.00639362757646286,0.0155333608556622,0.00451436278429423,0.00605696404522069,-0.0115860099143439,0.0231806316576875,-0.00871769001280806,0.00361054852924684,0.0057195322103737,0.0083032402629685,0.0262681282092586,0.0151662483090383,-0.0262842784244241,0.00724882233508706,-0.00159551353800237,-0.00325640796443734,-0.00371443529688379,-0.0122882248118585,0.0115651363873672
-0.0047165789129496,0.00361782371361877,0.00251790971231387,0.0212394351418853,0.00659061417658336,0.00152763701142053,0.00777754650066075,-0.00990626268031455,0.0103742950528348,0.00307632058073599,0.0249646550428165,-0.0148531675819616,-0.0091670884934688,0.00602275735325715,0.0193083456249346,-0.0116937412717822,-0.00138549167654536,0.000613597776676128,0.00188294144674703,-0.0259114813458784
-0.0264171681946699,0.0159942312800898,-0.00649224024765286,-0.0151485470780383,-0.023357523772314,-0.0075726882588061,0.0109493592110692,0.0111759450705282,-0.00998459610895298,0.0201583227875018,0.0115061136781722,0.0174235632864583,-0.0155695022370909,0.00414327635908189,0.00851971551355466,-0.0021301073379533,-0.0132703181708749,-0.00806879541611037,-0.0120641768628822,0.0113331367227706
-0.00268684542531728,0.0048782609469704,-0.00631317711654985,-0.00144494625463529,-0.00147917125962815,0.019991268404673,-0.00676321160886574,0.00580027421375108,-0.00636118042771274,0.0304371901419276,-0.00170831078722377,-0.00156810780813638,0.00740874408327535,-0.0135903062423725,0.015544217613005,-0.00458249950413272,-5.6975257606236e-05,-0.0134670824523967,-0.00416180825662302,0.00387420469914856
0.00947995115499272,-0.00801193326135333,-0.00731933629515575,0.000220952038884635,0.00155992716808303,-0.0134293656844203,0.0100118531804366,0.000404964263469175,0.00771936253231793,-0.0196848936290506,0.00525821283108513,0.0082183377901814,-0.00417672048083352,0.0158417125458811,-0.0243399166307795,-0.00797535795904507,-0.00870788145507343,0.000232478430404866,-0.0103310567586516,0.000980867558181037
0.00135676522401086,-0.000792840451507708,0.00887084069706067,-0.0288213049112056,-0.0109695114689505,0.0120862040082564,0.0261579587352616,-0.00293114969879158,-0.0219682641265502,0.0100841698105651,-0.00767574933166914,-0.0130867220970735,0.0239255859859948,-0.0255782613155305,0.00153796248373678,-0.0237426841710447,-0.0118455854296047,-0.00346073889287291,0.024639096425776,-0.0079588941006654
-0.00774435926947727,0.0144876522590895,0.0191228733504059,-0.0166762473624352,0.0274790368658242,0.0291085786750609,0.0117737128017821,0.0194540820236046,0.0106901485369836,-0.0127029042674342,-0.00384977125194377,-0.0107048006625589,0.0103755329608674,-0.00863437748442828,0.00422692006271748,-0.00103291687097753,0.0141993184226598,0.0041944887813854,-0.000704993939302616,-0.00979470638025304
-0.00840316471560285,-0.00563744033811761,-0.00568811174938859,0.0015762538587669,0.00450662912990081,0.0071438540120841,-0.00791144763688749,-0.0137456569331426,-0.00705387121199442,0.0101516684774578,0.00470416233875179,0.00313220167453942,0.00815615502525982,-0.0275695245032958,-0.00923302298636457,-0.0148851678873019,0.0175671032313443,0.00489567599842316,0.0318739699522422,0.00135625357959089
0.0141826633527302,-0.00230322132887746,0.00377205692487123,0.00704040080833327,0.00790988770393651,0.0102575852749559,0.00269051024707578,0.00494091963552181,-0.00139002080058193,-0.000767598486568165,-0.0187689740177474,0.00138017798963518,0.00210883796267836,-0.0102830515023797,-0.0130729343289514,0.0266366542266759,0.0113903740088903,0.00270776276477316,0.0065782438252499,0.000794662888562472
-0.0118467954263941,-0.0333391447499433,-0.00695094177434055,0.001913970840332,-0.00023451950200982,-0.0117787271003351,0.0157461670567157,0.000102656858240727,0.00560522032516128,0.00525410665541958,-0.0201372693647546,-0.0359036860764264,-0.0128211093754815,-0.0174501725517394,0.0036510184327174,0.00947030077816482,0.0057934173970732,0.00638250389370379,-0.0131670509369124,0.00659398517672863
0.019523477168856,0.00987478503106281,0.00914571872721665,0.00761743487703373,-0.00120130167016173,-0.00727559253478032,0.00673853027410696,-0.00683719966722647,-0.00915003968231518,-0.0116848658877093,-0.000571150006037496,-0.00204287051859238,-0.0100468290950833,-0.0203909241403244,-0.00491546388349302,0.0101092408727409,-0.0127741285916895,-0.0094328296153128,0.0118493053669308,0.0180800523524998
0.00914284948823837,-0.00492455010361538,-0.0136202269341524,-0.0225727000160332,0.000509141376134061,0.0170720301610037,-0.0044030089190823,-0.0076816330210531,-0.0153212310638488,-0.0123382855516019,-0.000440459701875386,9.20875019797471e-05,-0.0157887438751662,-0.0102388268147664,0.00262354706383607,0.0132672546314053,-0.00517425030517105,-0.0263552146610713,0.0198566555044313,-0.011856089075908
-0.00137724741419186,-0.00456287342209495,-0.00509285890944587,0.0140312207041821,-0.000162800593525818,0.00531931900168986,-0.00920349117934076,-0.00688050941119529,0.00751180903691476,0.00098709009838523,-0.0222530698787654,-0.0217679978132977,0.013467100078356,0.00626509222856629,-0.00192689796567833,-0.0130490246158419,-0.0140738404060781,-0.010761144101107,-0.00423527349920101,0.00667250877681506
0.0174164129211989,-0.0109479942140654,-0.0168246546171517,0.00566113216088891,0.0043951712145819,0.0171326103617923,0.0167395587930555,-0.0131021888961958,0.0164080934690353,-0.0119810260550023,0.000143335718824624,0.000973921943101846,-0.0114644927442146,0.00757475107447062,0.0264791394630554,-0.0292594750658479,0.00604365854816209,0.00167055955706038,0.0222121011568096,0.00531808212856494
-0.00371102884033856,-0.0289963698167073,-0.00711102259600802,0.0233647758727891,-0.0209754151017269,-0.00110466024679115,0.0102694664182554,0.0241733189031277,0.0173276100194351,-0.00184881063685546,0.00404861415255941,-0.00523718826995553,-0.00774172134515328,0.0108304697964556,-0.00322602213892985,-0.0131239313515784,0.00112698792990403,0.0117678886514008,0.00940203861925206,0.000323463795141862
0.013494224880442,-0.00601785857864754,0.000105110791053002,0.0109268063310312,-0.0166003459039736,-0.00561942692193406,0.00455555573348511,-0.0208404200379257,0.00208643536966754,0.00161825919288795,-0.00264177856567181,0.0199944328160919,-0.0220236346490326,-0.00310544514085815,0.00460891803732143,-0.00827937295579989,0.0156073602527145,-0.0220730663930122,0.0125858849704615,-0.023579012070797
-0.00566215991853513,0.00271575097969657,-0.00167181998121067,-0.00363799583859664,0.0177097296764376,0.011946482400097,-0.00722058126510633,-0.00745251223517013,-0.019555052805686,0.00843320752081819,-0.00613977763697904,-0.0265180788335624,-0.00523369872485499,0.0130505297042892,0.000597883984635985,-0.00601713904708101,0.00180561287063303,0.00658285094719957,-0.0152654741835706,-0.0123641298909664
-0.018976916721303,-0.0174066720418558,-0.00912013014578292,-0.00847315701658033,-0.0074856606252155,-0.00554067473085471,0.0126342867375944,0.00813021211196355,-0.00800734372455505,-0.00514715847512591,6.66023649110201e-05,-0.000459109498644225,-0.0102975030483492,-0.00399822275349329,-0.0147019103460263,-0.00796183339972712,0.020171570565075,0.0223442655632581,0.00822567526782047,-0.0300294646542413
-0.00361613033767284,0.00246458992864885,0.0048818342537123,0.00158248555601713,0.0102283154538968,-0.00305703441331218,-0.00241389075481433,-0.000449829850346836,0.0174785602767978,0.0022222550656582,0.00819436961261624,0.0194720206435657,-0.000360802759585996,-0.00805877702813323,-0.0254440215953658,0.00245770130745193,0.00565990173960432,-0.00408008619153907,-0.0117279540541012,-0.0128033627211378
0.0307494429098233,-0.0123614497511455,0.00785918006077238,-0.00352788973800967,0.0284643907627933,-0.00873243259202032,0.0153871717547698,0.00535649548844406,0.0308991591553011,-0.0168060647370561,0.0201164198873205,0.0134548974738866,0.00966783605663086,-0.0158458872381255,-0.000192202365813598,0.00252242825539477,0.019642105228834,0.0137196838337721,0.00288232071841271,-0.0142892217913464
-0.00822341965200643,0.00294005683871176,-0.00617616463961381,0.0182833805204832,-0.0135754964197531,0.00473862301695105,0.0167611707871353,0.00689324300546178,0.000755338827098738,-0.00290586357714456,-0.0150140687264168,-0.00291186998096885,-0.00603821539703832,0.0118297158430472,0.0142427754505644,0.00403570044048438,-0.00478510850311647,0.00960840227005563,-0.00723805202726088,-0.00778446759025394
0.0131103370542242,0.0154460432323592,0.00573437778448062,0.00944816303544103,0.0260303243570285,-0.0142336891940532,-0.0169880521583462,-0.0167309872123938,-0.0149711766573082,-0.025006289030106,0.00273467554418433,-0.0119572016670807,0.00325459640147249,0.0123963060782921,0.00735354605281938,0.0139032280999053,-0.022327949430433,0.0139600957102194,-0.00169269832923109,-0.00172487488904157
-0.00638735636409858,-0.00307353126395893,-0.00135505120307001,-0.0102171307665722,-0.0135977841911096,0.00287119466495531,-0.000355169734717051,-0.0093522552321065,0.00763794962768128,-0.0189333988593148,-0.00764609739675498,-0.0294006011324903,-0.00905488274597013,-0.0138830636041329,-0.0036629145166413,-0.00100227490630868,-0.0273523815625096,0.0113333043546118,0.0151051439284751,-0.00289609755498593
-0.0111809369790009,0.01521592476129,0.0192776837898024,-0.00491202121437795,-0.000830962951638622,0.00669781198887864,0.00466847851629753,0.0135675219066958,0.0113822547759235,0.0134614507920184,-0.00172259622562533,-0.00141865072108614,0.0085929208903557,0.0137596877425391,-0.00796820391527566,-0.00377419844456172,-0.00777645297449941,-0.0104055837669267,0.000659068884164562,0.014543468572681
-0.0108351255621938,-0.0193758252499669,0.00953474309176191,-0.0148685412169174,0.0140619131043587,-0.000437570700120097,-0.00872229043119407,0.0060281733630292,0.00693281685624123,0.00291080296771104,0.00120160955982613,-0.0144428036950813,0.0357518185147155,-0.0133968990091899,-0.00623723252479494,-0.00318725483180107,-0.00259354495048953,0.00887601465032946,0.00453757897381669,0.00695746503438092
-0.00354740748580068,-0.00210602124398669,0.00131568856246889,-0.008527513080407,0.00391897662860574,-0.0183052820820444,-0.0218001742197413,0.00446811027713568,0.00799804140014244,-0.0115772632102408,-0.0138322222685161,0.0201147329025984,0.00667404714334017,-0.00108542823096601,0.0208664322793724,-0.001150113209567,0.0250454210901174,0.0179218636260416,0.00248576854063572,-0.0289372495247048
-0.00679296479958922,0.00764145644981898,-0.00833236686014628,0.000161485798738364,-0.00137371427577448,-0.0133109423945957,0.00573249251569576,0.0108553217887641,9.35426720105853e-05,-0.00093760833058526,-0.00487257710191537,0.0248561380468315,-0.00224829123659463,0.0157282920634859,-0.0261978520043928,-0.0275900473457444,-0.0210909141322543,-0.0063834546925038,0.0189383201042324,0.00123251922238835
-0.00305510783853254,0.00962728586928969,-0.00806374690656775,-0.025090378002992,-0.0231398858349425,0.0117762556523975,0.00909389950519275,0.0106815112156164,0.00546294789832762,0.00256262020028932,0.00790923350196271,-0.0130904572139752,-0.00852297029433484,0.00136215254478429,-0.0172076161320732,0.0167575578762013,-0.00773488665054108,-0.00345576411144557,-0.0156713206320046,0.0214018201411043
-0.00228428268896314,-0.0117309446643571,-0.0101396340209299,-0.00322223829689129,-0.0177581331820016,0.000819080005289639,-0.0120347468973075,-0.0139843780417814,-0.00516477556419153,0.00782988015692946,-0.0275941782152553,0.0308706550071138,-0.0297244428672269,-0.0183694745739263,0.00498119362772353,0.00525842597880763,0.0137777971082295,-0.00540411784608369,0.0324572802412134,-0.00931204225892547
0.0167905228164034,-0.0162119967061053,-0.00933909397604374,0.00522463258781324,0.00848857433799799,-0.00301548568056423,0.013884707938004,-0.00326578615394104,-0.000204330389321909,-0.00579673779207919,-0.0043770790876019,0.00481274594191383,-0.0128723869070913,-0.00438669198170142,0.0272965716628246,-0.0236504282906156,-0.0143485733908877,0.00825452373004652,0.0174684022498602,-0.0123607791648948
0.00836574345541112,0.00641820732996388,0.00262021812227002,-0.00331700916083622,-0.0178136580031621,-0.00471938969983721,0.00675503631089497,0.0126962527094331,-0.00147607564661257,-0.00278113729819731,-0.0122183362412571,-0.00700003687396849,0.0055671440149417,0.00641622917941511,-0.000847793408943144,-0.0140321188057042,-0.0114344168144533,0.012303027999313,0.00133267488620372,-0.0187806319417364
0.00816424879777622,0.00274411100748768,0.0133439781604902,-0.00823446205579034,0.00108148359997003,-0.00330549939583885,-0.00849597301103751,0.00216962416594293,-0.0278621505213202,-0.00304176420244043,-0.0281901875897679,0.0174852202077007,0.00413949541853737,-0.00551780679535987,0.00858386405368679,-0.00854409961704469,0.0123699697310776,0.00490721401899423,-0.000224817996533985,0.0119458023377747
0.027357952445215,0.00219565715408499,0.00547090936346064,-0.00597968587637999,-0.0160146577076042,0.00734057353394507,0.00951852335261222,0.0050085941241776,0.0124443552270293,0.00972098972848655,0.00133582306889222,0.0198566158471063,-0.00980615759108532,-0.000666039803237457,-0.0212474429716471,0.00883238324857308,0.00507710429609237,0.0223324290940516,-0.0136025786594201,-0.0149887314820964
0.00963926408524218,-0.00202119783157316,-0.0180329524205015,-0.0132690518252311,-0.00206280653672846,0.00871624925023989,-0.0120577246309967,0.0035746209971783,0.00909809614581589,0.0197511421833845,0.00110246970400594,-0.00109890492569439,-0.00210972060761629,-0.0140464922115146,-0.000217421505615534,-0.0047961210529622,0.000944557531164018,-0.0138048402833712,0.00929818533342022,-0.0081114821970361
-0.0153146087675931,-0.0106819013573819,-0.0130259161064557,0.0200353476027097,-0.00592127352141659,-0.00833311752554309,0.00860136004611606,-0.00971060344385054,0.0123055337403819,-0.0188494498292635,-0.00842109504355815,0.00076805454727016,-0.0168548614462616,0.00650630954980471,-0.00435882293345799,0.000922428419396486,0.0133974151581433,-0.00187787592767101,0.00290548679913485,-0.00417402673177643
0.0138843586768974,0.00381945941794229,0.00994477932345082,0.00332699968380165,-0.0100681318888049,-0.0027666554254893,-0.00219364250156839,-0.00846192863466602,0.0028722027118676,0.00592553541796675,0.015462358328482,-0.00398350860279831,-0.00250160845583327,0.0101201915247248,-0.00681189195852961,0.0170864983517764,0.00539312875022283,0.00370151991630783,0.0117363950317694,0.0218496612154857
-0.0131013691294789,-0.00201090914884383,0.00430934049548059,-0.00671341610302384,-0.0217715228877516,-0.0176581055491671,-0.0100467650862008,0.0213883914112186,-0.00835920625480004,-0.00280873733143444,0.0189694141273198,-0.00409757168364148,0.0097797125308436,-0.0134202961122952,0.0303592491628033,-0.00514416418189447,-0.0116361457703155,-0.000656291499796183,-0.00168384713271813,0.00550218452181661
-9.35498763502227e-05,-0.0110064961694304,-0.00124303230750869,0.00854731030420542,-0.0151065018784223,-0.0250554752433153,0.0082084724320465,0.00229389997833903,-0.00190867965848044,-0.015724604713401,-0.000896087065587657,0.00975265001604223,-0.00565573476195368,-0.00728031627302189,0.0161311149621747,-0.00954597009774192,0.0234961436213673,0.0167847929453334,0.00180397016091677,0.00284625958222122
0.0170638574180481,-0.0305052958822598,0.00146541949971728,0.011680537420534,-0.00825208214339664,-0.000479953586063097,-0.00625625000570153,0.0056447025558458,-0.01716478790215,-0.0176486927909997,-0.0197671564688146,-0.00420111682828593,-0.00761840964406648,0.00599915304692006,-0.0110334095786027,0.00365523442675238,-0.0116215224233728,-0.0121545223480778,0.00450072302069609,0.0108050930275993
-0.0202692152216855,-0.0171947415012225,0.00220625648604725,-0.00272012281249654,-0.0131209735967446,0.00717623350842916,0.00519969418348392,0.00802990901190418,0.000484659245827321,0.0202346118689319,0.0196455889936848,-0.0150076587318754,-0.00887930063702235,0.00997074323584934,0.0093032836702351,-0.00841441627286374,-0.000391705301478149,-0.00637256439307241,0.0017445417627985,0.0102109447771896
0.00789577874927593,-0.00288123601900427,0.0119573224985935,0.0148872043824877,-0.00191359751692678,0.010032899529443,0.0150467722955626,-0.0106314248814301,-0.0166584609167447,0.00880653928182948,-0.0135447962292243,0.00560692955043388,-0.00128338693867761,-0.0147255838380261,-0.00475067783093212,-0.00412150261336776,0.0115222847553271,-0.0112654125568355,0.0128076598510518,0.00885559380273096
0.0137408686334086,0.000426243287912864,-0.00725623344354159,0.0030806373646393,-0.0158230037019186,0.00119575011523132,0.0358367654030938,-0.0178167461910021,0.00871793056767052,0.00446325631187831,-0.0027637760641084,-0.00506840421233039,-0.00886334722194494,0.00617418948526085,-0.00283474921024224,6.04791154192943e-05,-0.00818714775901675,-0.0091297625707853,0.0176852871798755,0.000716752088013865
-0.0103698274102232,9.60012142872668e-05,-0.00975011359826467,-0.0210763618336899,-0.027837687881375,0.0242584712446408,0.00710071305621715,0.02252940080943,0.0107654030854901,0.00460979580409482,-0.00103272203267403,0.009853962921403,-0.0169290205118341,0.000469828811952434,0.0154411043246872,-0.0260939504996272,0.0216978372137233,-0.0231802562270611,-0.000435440575837505,0.010984426757927
-0.00646854242921486,-0.00713002654495772,-0.00188117469598709,-0.00507381025818904,6.4732085525615e-05,0.00462906179354378,-0.00959573701474118,0.009972234491601,-0.0134951293747323,0.0166213390062686,0.00952967904720765,-0.000809869329174493,0.00503615189316745,-0.00396855354616161,0.0167951572093792,-0.00562975955139481,0.00449558779218804,0.00165515992029391,-0.0155896818387462,0.0125005401293186
-0.00294125214964747,-0.0140004856234153,0.00472308676071076,0.00738967858367348,0.000156267978620562,0.000524634394656186,-0.00687594251856487,-0.000654234884045015,-0.00454669441813425,-0.00644835329601589,0.0107160378708879,-0.00825395099422547,-0.00982016648039404,-0.0159116221505908,-0.014037635394661,0.00765521020336156,-0.0042331900345653,-0.00853372920043704,0.00841244870860449,-0.0191814322412255
-0.00377222546013914,-0.00819435244425305,-0.00471557767154958,-0.000419553022772824,0.0302237533616654,0.0103895285048952,-0.0308749952054204,-0.00211347204095796,-0.0124025162961627,0.00937632301599924,-0.00693205344001817,-0.0214425888137475,-0.0138383512368073,0.000416777668096763,0.0110088958456139,-0.0274721405968077,-0.0102116705373318,0.0109469329561265,0.0110423566540364,0.0225577975056043
-0.0167633042430632,0.0118139689529581,0.0120093893449215,-0.00477118748603968,-0.010412986424383,0.0144561883312867,0.0123328059743807,-0.0214715647516612,0.0188024759416651,0.00548336188176135,-0.0126508969834968,0.018425065057702,-0.0180728762757736,0.003728825115848,0.00674996737852959,-0.0247005095010569,0.00185692236857377,-0.00652588750474732,0.0184273327448722,-0.0050937142426411
0.0137973188725743,-0.00648419693363783,0.00831815995224423,-0.0318445049708354,-0.00580613037517032,0.0247438223963048,-0.0132707710720929,-0.0152935430190453,0.0211191706451129,0.0265807214436599,0.00293478887082129,-0.0280527313584007,-0.021417100296984,-0.00206247565106322,-0.00604787724044792,0.0116670180965057,-0.0139406659987794,-0.00462068796379178,-0.00396243766074973,-0.00193985301590568
0.0149035855762307,-0.00875395585598617,-0.0160906075932771,-0.00668694504890599,0.00938786288632159,-0.00505004656364596,-0.0165643959730735,-0.009795187861726,0.00432509959965015,0.000409814613623984,-0.0227841518996596,-0.0113261404891838,0.0166811947793742,0.00572096270012684,0.00872914862957132,-0.00724842687091057,-0.0219796096751693,-0.0098156636927251,0.00776004286484822,-0.00466516751109309
-0.00398086699703457,0.000116798022195351,0.00493990670944238,0.00999871662428032,-0.00600512462261359,0.00442375827863595,0.0349550309188799,-0.0241069651673861,0.00907983529457085,0.00651611347025855,0.0228714034276901,0.00245118992529767,0.00255941801769079,-0.00560550939316441,0.00904075821618799,0.00111490613064888,-0.00290151433522677,-0.0281333251746595,-0.00144516632534699,-0.00736110175002074
-0.00905817842712467,0.00777416951818035,0.0105531550225823,0.00619815663387786,-0.0143083710555427,0.011953633347126,0.00249644838786464,-0.00150748837211826,-0.0056286132685527,0.0115261286733593,-0.00989823614853251,-0.0148494475217379,-0.0240320127404376,-0.0106309035107894,0.0140453536121803,0.0160109087529964,0.00132243001268663,0.00221906246601868,0.0110238901026013,0.00471197583663692
0.0174240791054183,0.00591654288885792,0.0241153965957212,-0.0105710054099817,0.0314257254339638,-0.00853264156269925,-0.0101009376105116,0.0178600441333154,-0.00224506666643753,0.028377293118222,-1.64949788607194e-05,0.0264121014687034,0.00719938876648703,-0.024368525060265,0.0204148621844529,0.00972563778925748,0.00740964909861251,0.00264950183772801,-0.0154347772877614,0.0169881356568795
