-0.432022423005524,0.144657214653628,-0.023874322936028,0.169514791143704,0.395152310232108,0.336897144425968,-0.333779454994032,0.836868288347695,0.457970085064976,-0.299225671314751
-0.00389046450449997,0.0144705672707835,-0.0146019725753978,-0.00258747438759185,-0.0153456978749686,-0.00607941182864306,0.00861352102279247,-0.00966812678436691,0.015113559573259,0.00131468623358681
0.0024287400779725,0.00129989851710922,0.00758516125358348,0.0123914903739619,-0.00186599496428157,0.0086319046260465,-0.00558473117360379,-0.00792367446105295,0.00225878664692513,-0.0164129686204372
-0.00767744937209639,-0.00602365075322216,0.00764409245112323,-0.010071402705511,0.0165203764472157,-0.00253356143056081,0.00624065300561481,0.0124814148820313,0.00378781930940489,0.00294193975624006
-0.00025738955219806,0.0123346060676669,0.00946137053122413,0.00564124807648886,-0.0091879339352341,-0.0111865925349389,-0.0150250250736158,-0.00317352020066578,-0.00280254543794525,0.0164582225310434
0.00542884486175847,-0.00558122963917771,-0.000294118698296182,-0.0146645781296018,0.0120712869230424,-0.0060831154579295,0.0183586017399376,0.0118526831345202,-0.00290106748753403,0.013542320309754
0.0178759578800899,-0.00786660201200662,0.0130986763025264,-0.0177554483158715,-0.0158356577159742,0.00353242989857772,-0.00783001573698898,-0.0153495186027602,-0.00613255542676982,-0.0188340941023211
-0.0119958382796107,-0.00978964803688683,0.000973957191222298,0.00938936142865313,0.0126975073156292,0.00238420324881042,0.0104501246728937,-0.0126955142969513,0.00380111366398727,0.00616214437662731
0.0163914275967278,-0.00366721121495966,0.00463021963874487,-0.011483156821401,0.00720769894525264,-0.00435352341869004,0.0115683018037725,-0.00655209680497688,0.0164512043755133,0.011425007348395
-0.00486835254998098,0.0150898780972084,0.00831043941333776,-0.0158085587093204,-0.0130653423717524,0.0114173883287385,0.0102794770474361,-0.00792988152485581,-0.00404856679654125,0.0122249947793316
-0.000723408528487832,-0.0179275948480225,0.0166098194563964,-0.0124678529135614,-0.00746270101981674,-0.00306903021969996,-0.000348536254028679,0.0118163828289202,-0.0091276415001157,0.0142191693910035
-0.0106051734835409,-0.00025514637699535,0.00361548728405438,-0.00522056689838766,-0.011895178615178,0.00220585551597075,-0.0181065454093691,-0.0156369604753995,-0.0116128757857571,-0.00920979531306939
-0.00699256501840365,-0.00866027015519066,-0.0087508287278333,-0.0106203015498856,-0.0172083406156764,0.00193996668912378,0.0158838692950975,0.00655018390534561,-0.0110675674852845,-0.00267800597293224
0.0101948057575013,-0.0107574671784858,-0.0153699874381586,0.0167582675024241,0.00368012467899707,0.0141747948526351,-0.00288923177862896,0.00714581805286816,-0.00372400434172279,0.00601609571155623
-0.0180045964088581,-0.0137948302028041,-0.0156346554761529,0.0100581952444255,-0.0128543649486056,0.0070329921796167,0.00675960741445873,-0.00959562641947019,0.0117512250632789,-0.00328609954913109
0.015489670050598,-0.0127212426917553,-0.00293014232627848,0.0143030067040187,-0.0135324909245233,0.000378978677824251,0.00614718404206553,0.0188749906360006,0.0121984341160356,0.014093081837469
0.00912124419304636,-0.0135969984784292,0.0179679259032584,0.000951138951520099,-0.00751533379364983,-0.0152051591011044,-0.00585651216614177,0.013482160260793,0.0101296361180056,0.0167034642621612
-0.00700340203725216,0.00572648208426229,-0.0042398729184098,-0.0169644972536308,-0.0156220009587552,-5.31960200869745e-05,-0.0167901486238209,0.0184994931730446,0.00544334095921758,0.0102445933514563
-0.0129769366041384,0.0119198907870794,-0.0158166272054357,6.7529578159284e-06,0.00909988383760083,-0.0178058661893171,-0.00569927584981988,-0.00379201265009926,0.00254037809849713,0.00756423405777162
-0.0177769670874519,0.0177543962759878,0.018545522360341,-0.00242497275038372,0.0104789523689515,-0.0103178576357647,0.00774398827622262,0.00130208847633149,-0.0131342517135888,0.0101069490246739
-0.0171083961753877,0.00840472194953586,0.0047967529424305,0.0177921761649905,0.00458294499338675,-0.00660864220474574,-0.0132140647611152,-0.00292100879168943,0.000283337094330547,-0.00801805449245546
0.00651924775712025,-0.0108449946995892,-0.0127802366191719,-0.00816614187091833,0.00267580486123928,-0.0127363547117488,0.00972531538395444,-0.0177321367097326,-0.00618703341787428,0.0116346817178993
0.00516174338603931,-0.000346426464430965,0.00217304585725018,-0.000544154377763797,0.00349558305006842,-0.00205539792265328,-0.00926156227869823,0.0166901155486999,-0.0134024606686499,0.00186854368673066
-0.000665733245003222,0.0119116266757338,0.0148783485831836,0.0066984982882685,0.0125761841886836,-0.00509215582377919,0.00122084034959542,-0.00371878748272601,0.00704036854603126,-0.0073188972221988
-0.0130780889715364,-0.0158548167120322,-0.012190182904833,-0.0108224689077775,-0.0119855507293024,-0.00138047981717631,-0.00881181321888465,-0.0186426488527562,0.00779094003131811,0.00827142323098937
6.31539039825422e-06,0.00712568156970805,-0.00750324656176391,0.0163297413894636,0.0031370982947114,0.00623242447142743,-0.0103440926537166,0.00033940915739864,0.0128328594664924,-0.012747090609094
0.0175416241555601,-0.0160653059072145,-0.00941995303634103,-0.0113557904013418,0.00123331121686825,-0.0162712366226292,-0.00508885305420336,0.0153007021771289,0.0123276706808543,0.00545609052132101
0.00252946587861522,-0.00430212599553114,0.0131533562747741,0.0111151581082964,-0.00401021696343822,-0.0151992429430991,0.0145636167297255,-0.00505865506760296,0.0128404486945995,-0.0180711141644215
0.0102772018666872,0.00729954412300714,-0.0185063424264869,-0.00993152295012578,-0.00180669684421709,-0.0131282915378273,-0.00448634923281532,4.92719962371316e-05,0.0170960341997226,-0.00191414399870219
-0.00943139224918479,-0.00214242744648851,0.0160792514426394,0.00413775881167209,0.00935859278333487,-0.00328786836580157,0.0103836679865816,0.00558189802119871,0.00402222605099622,0.0168584996642792
0.00603736629507733,-0.0122158901956545,-0.0168445804773319,0.00147497512319892,-0.0175399491824177,0.0116230164910038,0.00875822919174699,0.0134990495186206,0.00931460868738086,-0.00404367066197659
0.0126781263160885,-0.00428033972894279,-0.0134548622542931,-0.00222284526588893,0.00441034739332783,-0.00566322323909147,0.0144621726413527,0.00625193223693335,-0.018627896230974,0.0133901004350521
-0.0102959633785115,0.00092735583746181,-0.0147552896461033,0.0176403526607786,0.0100573322608454,0.0144427439699755,-0.00489825946548263,-0.0170792156167684,0.00442775898009797,-0.00758994991169154
-0.0136656529171632,-0.00672102987107319,0.0113921901936706,-0.00885676660494301,-0.00852683613557584,0.00940426925353633,-0.0187027628220462,0.00795623565245317,0.00482655747955247,0.000199631736022622
-0.014635505564283,-0.0160041004379383,-0.000998630703706712,0.00235065990485754,0.0152633257391283,0.0133480973614619,0.017038794812668,0.0152380480710056,-0.0177235322879536,-0.017556889762203
0.0125042841669842,0.0103287315163712,0.00771848674769567,-0.0123923757460679,-0.0167952086050995,-0.000558301418918583,-0.0174346588380754,-0.00168139033374871,-0.00705518212751991,0.00631460771398135
0.0122224272014867,-0.0106878495817164,0.00256817932835873,-0.0139423579093385,0.0109274386998539,-0.00939455011969207,0.000125103263906211,0.00576872685919914,0.00118149161132342,0.0180802643369962
0.0142475430465947,0.0017027207286326,0.00820897297802775,0.0157770863064375,-0.0172144565469605,0.01240866464047,-0.00451945565023607,-0.00548842423752736,0.00594935477831663,-0.00614399022095255
-0.011096951662196,-0.00612971036116436,-0.0160564016527176,0.0111561385537519,-0.0113020859645295,-0.0103276837362422,0.00571780500225339,0.00506889722286716,-0.018537410782182,0.0083762514725363
0.00754857459390933,0.0112479500876751,-0.0187827338309241,0.0165755114171428,0.0140543585658506,-0.016682135397899,-0.00555639873184922,-0.0121559970118791,-0.00745706128276055,0.00110546110233841
-0.00196376281874791,-0.0156614176203693,-0.0119006483568831,0.00516899051748023,0.0131114578938197,-0.00289806462288369,0.00366766547887773,0.00100919539144117,-0.0175155457438598,0.0179296354136431
0.00231206083089475,-0.00115996182932272,-0.0112099077148256,0.00344771678910379,-0.0182221070946804,0.0155140705085194,0.014137141062097,-0.00345297249136205,-0.00527539445764761,0.013096005840213
0.00273108648288616,-0.0169728189998648,0.00661151224872183,-0.016785368935768,-0.0144513517789721,-0.0100094751231552,0.0139733075016052,-0.0071316048931144,0.0152439193196534,0.0141056360700656
-0.0167264848239109,0.00119823542955941,0.00986688094751904,0.0186840458730167,0.0182959750402987,-0.00404103427723236,0.0034577596008325,0.0188719882233706,-0.00708064138167006,0.0123307243598258
0.00486547334278859,0.00676002461075488,-0.00170322176513416,-0.0174222024509496,0.0140224203098617,-0.0170801200107945,-0.00757721500797656,-0.0120949194652131,0.00682186007975761,0.00915760292469066
0.0136568466588155,0.0058378654069107,-0.00554089229046104,-0.0127174239385498,-0.00524173753220448,-0.00906858524036195,0.00200574733487653,0.0159600131711779,0.00714340121933533,-0.0142754296326196
-0.00571213573166267,0.0114517097080714,0.0115964286058413,-0.00419178528960154,-0.0153698753854807,0.0141826289414514,-0.00852354379201001,0.00514152927346784,0.00529731062742128,-0.00951981412301154
-0.000982426062404738,0.00591807217037083,0.0106308217679633,-0.00357216684089394,0.0151958729687591,0.00074633222982317,0.0171615131977116,-0.00954227693901716,0.00924453592863203,0.00529711517331201
-0.0106815118917951,-0.0169513729740755,-0.000526134652345887,-0.0176171376339132,0.00931550604309052,-0.00482338470854477,-0.00821646537955037,-0.00863138253675865,0.0185117735752879,0.00642370324971896
-0.00228692290124176,0.00378811089904652,0.00765756492682449,-0.00172251643748582,0.00773426210722005,-0.00506619725159216,0.00440365395821547,-0.00338136564463832,-0.00878398246749601,0.0132946314799883
-0.00323523664118106,-0.003738687595728,0.0126968183704529,0.0186532430892879,0.012173312976853,-0.0100733249290797,0.0142990628420352,0.00771467269021103,-0.0109305265578891,-0.0146365016400391
-0.00129994941263106,0.0078200111827973,-0.00462935586815226,0.0063383076983506,-0.00521479110800568,0.0101682247981965,0.00474360759156371,-0.00411868359430416,-0.0116849135886608,-0.00659813019459378
0.00100649382509565,-0.017421527345959,0.0171782247881813,0.016702236978387,0.0150344860805298,0.00598279660179171,0.00151483108256341,-0.00707465788979353,0.00723911812472063,-0.00743428027675959
-0.0114203800752359,-0.00957439411631405,0.0130045032974143,-0.00147704669441891,-0.00913946777055886,-0.0137380556964401,0.0162673906960866,0.0157924532468132,-0.0161580783083601,0.0049038966420027
-0.00916645010408536,-0.00270183675301473,-0.0165136679760072,-0.000379040382843966,0.0135824203217138,-0.00180146409882998,0.0187646775065993,0.00244560842881905,0.0105929357032678,0.0101914261145792
0.00437598610312078,-0.011973124941494,0.00779201126587757,-0.0104919580362306,0.00616944318477171,-0.00105638515942413,0.0185608753926924,0.00779509559001474,-0.0108417839358776,-0.0149113503843993
0.0139985314428475,-0.00609900810448832,0.0127373910742054,0.0047294554549207,0.0133402071236874,-0.00297754653015616,-0.0150872886697556,-0.01670095232142,0.00625961485792669,-0.00643073862037998
0.0117420189171796,-0.0085057694910629,0.011333399084981,0.0149545157133744,-0.0124892485808628,0.0180617827187725,0.00159660503828515,-0.0138583415109835,-0.0182750102630785,0.00169056788918147
0.006866199463904,0.00478615100741615,0.0114275106663577,-0.0126068870758139,0.00113581484404714,-0.0187850622049516,-0.000361228197814776,0.0168952349231337,0.00369494644618615,0.00730223541583563
0.0171620566417538,-0.00653569338357109,0.0130778847196006,0.00126402157600097,-0.0103349876333032,0.00433107512321987,0.00677205975898633,0.00766504501967423,0.00750630792496796,-0.0160213337775991
-0.0156474686237812,-0.0153842842449943,0.000921377773923618,-0.0164035917542097,-0.00300659559719224,0.0175740036312861,0.0109123480965933,-0.00838026914490424,-0.000145983450564121,0.0106092045218804
-0.0077031389220273,0.0117101972087247,-0.0151988571301374,0.0137489360695971,0.00970840618177098,0.0179657096794503,0.0169159755290877,-0.00430963137649701,-0.0151037217400383,0.00485095125760333
-0.00914036219167701,-0.00352210060082002,0.00144313584160013,0.0148917617012206,0.0122070976642503,0.0149002363147229,0.0135706412155389,-0.0177411871969289,-0.007829784556362,0.00418099430703038
0.0145479554396012,0.0135482974022793,0.0017136883022942,0.00272158377161417,-0.00911832415551061,-0.0059213704218155,0.0148773076847139,0.0109637870696383,-0.00761054757423795,-0.018541882839691
0.00859509038330319,-0.00773267556966733,0.00752873132175064,-0.0183515529464538,-0.00490832654403844,0.0113919581643605,0.00197050525815541,0.000392967335607645,-0.0123552687961862,-0.00146324478254428
-0.000131264811505183,0.0149906643928295,0.00726656126257987,-0.00379702402515066,-0.0125290693837465,0.0144009619515988,-0.00814883797138221,-0.00909905597166806,0.00289394339868187,-0.0106715910826315
-0.00153044649955936,0.013940649629286,0.01296659283557,-0.0137984026460879,-0.0147737042954616,-0.00715627557765257,-0.0146529505702695,-0.0187665918253185,-0.00519578839096159,-0.00939955540718823
-0.0167597985758488,0.0178586904269972,-0.0121999232829851,-0.00308862554342151,0.0180783862315989,0.0110874860171642,0.0070309479711287,0.0109726242238493,0.00977377513887025,-0.00512487555077284
-0.00301162400714312,-0.0108264404282044,-0.0182081816595022,-0.00691888333465016,-0.0120326775141763,0.00472401498106113,-0.0177738572478969,-0.0134205665409942,-0.0144686863418603,0.00398169792148319
-0.00572937993848538,-0.0154856347411945,-0.0167173279226246,0.00887104092099617,-0.00610858091203417,0.0108943280429049,0.0102271041492284,-0.00273698545092388,0.0140625471775406,0.00156058215691831
0.00429128964849642,0.0157427199691002,-0.00283964843006545,-0.0181932320055058,0.00162872921808106,0.0182823605488709,-0.006940208641564,-0.0107309108303534,-0.00416978845336996,0.0123909982233377
-0.000367443682401089,-0.0105190780545977,-0.00494405170146797,-0.00121886891313541,0.0115547650211493,-0.00762692756558052,0.00479861489291335,-0.00503905942602207,0.0166949020904156,0.00794341480382789
-0.00412351811914434,0.0170783291773842,-0.00690863723621401,0.00302535318863815,-0.000196096527333084,0.0209557901945893,0.016743991528043,0.00821209730602913,0.0107466756748071,-0.0164357290614251
-0.0114038700455057,-0.0186364124222089,0.00533822613242314,-0.000985770171501734,0.0109904978079556,-0.0232327441550287,0.0198025482250673,-0.0103917826562408,-0.00397112604709363,-0.0139390522742651
-0.00976872435766509,-0.00316081569095084,-0.0110844144183971,0.000773792237817079,0.00448913357630803,-0.024545244809529,-0.00123095008749892,-0.00899731530423635,0.00663769009300558,0.00346262660342026
-0.00612680061795836,-0.00187606120268771,-0.00968431225277987,0.0202951731529164,-0.0176493460637067,-0.0161157892672375,-0.0103067793283425,0.0103257391919512,-0.0255089386212413,0.0107764457761265
0.00176262752931912,-0.00187280785441091,0.0132886893073553,0.0130211379012792,-0.00524157656023957,-0.0235458500091387,-0.0100173263745236,-0.0166592417051133,-0.0178811098811637,0.0151954877682709
-0.0183729617731306,-0.0100860819804646,-0.00386964285555634,0.0103384449743631,-0.0149418009509854,-0.0307199057073361,-0.00287220709851711,0.0130319982235703,-0.00667803721288459,-0.00676622591108039
0.000907934706259286,0.0120752359479829,0.00190312881427733,-0.00655149215510959,0.00721926416261045,-0.021206979681565,-0.00933528024502028,-0.0135142220776048,-0.0235722218952732,0.0097248040774605
0.0138649357249718,-0.00612750178349573,-0.00378049509371027,-0.00112334808514583,0.00414797370173324,-0.0111292679877724,-0.0104291537241463,-0.0111106533653165,0.00178402635653125,0.00183259666650192
0.017934855443592,-0.000650411701302626,0.00773256327089577,-0.00158493618425402,-0.00100358934667855,0.00580597983085103,0.00884114468230311,0.00483420698052766,0.00169897984456368,-0.0159277840331592
-0.00143455979981345,-0.0124058726734972,-0.00473204517060184,-0.0142264541166947,-0.000364894722090522,-0.0154044542018422,0.0159867539072339,-0.0191022868823471,0.00106722433810222,0.00947592271270371
-0.0128439826789791,-0.0131414811498833,-0.00680532931144841,0.00642283215621764,0.0180237875108976,0.0145407098498719,-0.0146007486027715,-0.0154298272317598,-0.00357059076967971,-0.00217427356879358
-9.72073348404512e-05,-0.00820116723455403,0.0155464627375265,-0.00180481404999638,-0.00497631454196538,0.000878779611521587,0.0153107567554856,0.0135898408644611,0.00888072282038217,-0.0185751848436167
0.0180572566438535,-0.000289907030581893,0.019766924074287,-0.0131748969004207,0.0159644131141764,-0.00173736374908191,-0.00835950783767858,0.0136777887333509,0.0148890347997434,-0.0152815330924739
0.00412765951843154,0.0083297575714295,0.0299750181471996,0.019204935897789,-0.0205102149635009,-0.009667729469977,0.00512814969501882,-0.0179441436928671,-0.0229502319300894,-0.0178821238863099
0.0187679080410826,-0.0139740333313406,-0.000853024953066819,0.000242559973580433,-0.00366324389929327,0.00706968397499739,0.00720001734103333,-0.0109066928518945,-0.0106837671617384,0.00478130063117513
-0.00865868983068904,-0.0039950209290114,0.00376870178059343,-0.0169150990376341,-0.00198649816933246,-0.0206910398391037,0.00246741299736402,-0.00676854928785181,0.00727526779173218,-0.0129159385764217
0.0065202715178656,0.011678082679452,0.00184623073608008,0.0131279059374984,-0.0107668909342731,-0.0108923044134101,-0.00686985240865276,0.00966743800043389,-0.0174984459330733,-0.000545158915622491
-8.61850235875107e-05,-0.00744875181638939,-0.00322202684887179,0.0115517197837365,-0.00727453765045714,-0.0111882239294856,0.0177091931812597,-0.0016666408320289,-0.00143149679328338,-0.00709973092764316
-0.0048982270618464,0.00672174193221078,0.0201633222421593,0.0229133047619494,-0.0130751337811977,-0.0305813329895401,0.00873327725318831,-0.012783224902021,-0.00128187893270655,-0.0180188102548744
-0.0136833524612511,-0.0193140172320009,-0.0126815736965776,-0.00199205246398796,0.00694424965409809,-0.0102690585024951,0.0229811470563175,-0.0127027965069193,-0.00542022869968088,0.00530483168516489
0.0179225295174956,-0.00569531464370495,8.27568767087327e-05,0.000475115664942087,0.010375793983407,-0.0112096640018857,0.0162353928365865,-0.00493349689454278,0.0148089805647515,-0.0150982028899729
-0.00686280100004895,0.00696124843464191,0.0193048270619011,0.018521881588333,-0.0170063953553411,0.00322641092431615,0.0201654060501065,0.0140228769491793,-0.0128940938048019,-0.00318349595039138
0.00158774658920748,-0.00843091749504528,0.0154197109863499,0.00481289723425153,-0.00215636197061509,0.00708129938651427,0.0212618603605221,-0.00375953426352844,-0.0180917731108266,0.0150187760155076
-0.0163959699603876,-0.0145535164325507,-0.00562084069722683,0.00808157664663582,-0.0181462669579039,-0.0149172907477967,-0.016077235895234,0.000345376464352347,0.0150359817071599,-0.0169856413752224
-0.0043511289038455,0.00897028387281565,0.0104426440846791,0.0159142837330061,-0.00538147484391087,0.0146878296854144,0.00312439526573447,0.0107087985094875,0.00321280087628962,0.00778721114039125
0.00648335556219522,0.00536115292942147,-0.000505639897467884,0.0107810404085654,0.0137798375784011,-0.0146726995486583,-0.00580443184840858,0.00311797670259018,0.0100339540715596,-0.00515366437474338
0.00655981850062651,-0.0153297717177633,0.0184777276449173,-0.014192413656951,-0.0013599362890314,-0.0152661994156054,-0.00465589239922477,-0.0204775259890736,0.00305184233468955,-0.0181296286624239
0.0158269779277915,0.00980404488414845,-0.0188516590744787,0.00440193833363749,0.0137501488111385,0.0114596527537604,-0.0187647318191487,0.00526493396803822,-0.0165264404009776,-0.00155950454778532
0.0107424369981567,-0.0146854422593981,0.00993514920789323,-0.0142854141125748,-0.0142733816735216,-0.0129807694391411,0.0237707968425562,-0.00530211925845385,0.00718831447962793,-0.0160365586861408
-0.0176487987329985,0.0109841889691811,0.0174160755656028,0.0110187321022686,0.00871027094815233,-0.00352274721389133,0.00205830980241669,-0.00171351202781637,0.0113979641361913,-0.00416044652705759
-0.00935695300536218,-0.00375737804344349,0.0174005087768682,0.0209767079340453,-0.00658929672023379,-0.0195022188836951,-0.00635288803120769,-0.00504131639995454,0.00679700901389342,0.00864812616551448
-0.0154546945437303,-0.0144450443043952,0.0145298750369873,-0.0152374674717139,0.0154504182829477,-0.0102925559343815,-0.0115979813729857,0.014405078037074,-0.00619891655406036,-0.00633731294350071
0.00576360528894927,0.0143270213271714,0.0164444612189471,0.0180918284472049,0.014086988509694,0.00159623164410875,0.0118935858809346,-0.015504968228181,0.00113868546118516,-0.0141039093304905
0.00877777735316128,-0.00397741652604047,0.015401482765274,-0.00258759856257535,-0.00311313276106148,-0.00970506135192897,0.00152729292343005,-0.0124330074182676,-0.00288158333469411,0.0149167283948048
-0.00755748073756975,-0.0112170707101597,0.010448826571897,-0.0144234308256814,0.014423525655792,-0.0265072711578832,0.00463752332784708,0.0103818876160544,0.0119106047664485,0.00657415346243534
-0.00247275543833363,-0.011989651079192,0.0135107054812159,-0.00581050504862878,-0.00508847387028494,-0.00681764356202187,-0.00369351505356152,-0.00166642883227135,0.00477916857702458,0.0132796437635977
-0.0178539533932365,0.0100937646408788,0.0100789963235387,-0.00821182815701551,0.00158973471050313,-0.0227040835739854,0.022362707168652,-0.00525440647281966,-0.0103772304914016,0.0104910377576129
-0.00726951742513461,-5.64627300716202e-05,0.0100933746327289,0.0143505911907867,-0.00930954962402997,0.00672607443701124,-0.00482932010651231,0.00143765072145328,0.00350739944505019,-0.00358694548588372
-0.0146862736881963,-0.013662028243526,0.0242476732923664,0.0153456060372555,0.0170558523699346,-0.0144225799209976,0.000849707269886825,0.00511853973186312,-0.00920491030626971,0.000539090255179413
0.00603036642911653,0.00124232135252351,-0.00421784062742248,-0.00547329679965627,-0.000652268979929003,0.000226938844074123,-0.00910072735582187,0.00759230435513797,-0.00794383238831011,-9.44342165197387e-05
-0.00215873444132329,-0.0139709814495498,0.01465731778204,-0.00543750089426129,0.00974338987099511,-0.0125099884408882,0.00161428497978502,-0.0121663501868027,0.00655697121419726,-0.0064309786576094
-0.0180917902545505,-0.0166843441274004,-0.00192691936349449,-0.0147466357674033,0.0111104609434552,-0.0014737386026705,0.00211552800986837,-0.0216190584785804,0.00335919927407277,0.00219988300770725
0.00855507111214421,-0.00859845661888764,0.0140107433251783,0.0128629600806599,0.00627969754609955,0.00104548893755096,0.022027054096395,-0.000136796316283868,-0.00730736765744232,-0.0154647149038905
0.00108505854921686,0.000991217476170023,-0.0175068487061027,0.0161934040761057,0.0127442139407345,0.00441208655167006,0.0154852707690246,-0.00339735952721277,-0.00464337832994655,-0.0104907311455555
-0.00515651330165587,-0.0193761154486241,0.0221418027268847,0.0172695150920429,0.00613429344203142,-0.0138737048697552,0.00400430488639556,-0.0181501383925692,0.00339967545336135,-0.0134620034230592
0.00119782057136335,0.00879157033004325,0.00779164383655267,-0.0101790906464404,0.00980667720958353,-0.0226014063026087,0.00645670836826504,0.00496341743442464,-0.00508044164187735,0.0129302550318086
0.001233425865324,-0.00105245294238067,-0.00235072579797749,-0.0113431697574325,-0.00732429212602498,-0.0165918829591719,-0.00823317049709346,-0.00765156610503832,0.0110295392783734,-0.00706498450646235
-0.016236572881272,0.000421607530419774,0.00502155624406949,0.00653904237070289,0.00385175625452247,-0.024501504708207,0.000944674705525329,0.00322624323143185,-0.0219701883892701,0.00392483940112169
0.00128890592421474,-0.00371101853577963,0.00374230017265093,0.00571411566592626,0.00466990052033583,-0.0186147813216949,-0.00944755919464179,0.00368219037684359,-0.00933450099334248,0.0103324056037458
-0.00238511848796076,-0.00246679782592656,0.0158041404264099,0.00949273519172244,-0.00452603375756297,-0.0278450286764699,0.00836758762923506,0.00740608994087593,0.00276635536009769,0.0072089722010087
-0.00121601379128877,0.0159846490318258,0.020268233412238,0.00398947376490542,0.00985499850727234,-0.001895705557695,0.0160291640352611,-0.0201086378598984,0.00686528081509937,-0.00861938383985774
0.00507551420319927,-0.0062490199270084,0.0175728724764895,-0.0010499376112671,0.0173570122757164,-0.0051408732833849,0.0127709130711901,-0.0226234368227905,0.000848823220593267,0.000745498672889147
0.0149170683572235,-0.00500800169235821,0.0230306048256326,-0.00975046581906486,-0.0121370266871736,-0.0152028091069934,0.012503092110422,0.00900638647610424,0.00278412136232713,0.00208224858022292
0.00633500915580985,-0.0186526770202709,-0.00246270306022181,-0.000711585004008522,-0.00944847913247699,-0.0187907490960007,-0.00199647240564869,-0.00604469132978315,-0.0176194932451451,0.0110785694713481
0.0151129974075773,-0.00680353042238832,-0.00765661597718775,0.00952695488994716,-0.00892281325209852,0.0101322051766976,-0.00355371200181026,0.0150123029459762,-0.0204686434208782,0.000565318984792575
0.0171985426404709,0.0104989470859914,0.0198253924345308,0.0238096738758342,-0.00320069508442896,-0.0196850995241007,0.0265435365467556,-0.0248804702407435,-0.0244257473498884,0.00656456954639037
-0.0143034593673515,-0.0120733868203738,0.032446466080621,-0.00756250766240679,0.00272789713922936,-0.0269185286660074,0.011749072680376,-0.00770612062216098,0.00336101315589958,-0.00269262684648552
0.000260308640730571,-0.0100984939318316,-0.0012265385120569,0.00409329159853888,-0.0112250296348349,0.00395672851670312,0.0150721671079749,-0.0123637087441498,0.0114717549046472,-0.00846484354938199
0.00596576917066759,-0.0122230484033466,0.0169265249216464,-0.0149459112666279,-0.00013177036276277,-0.0202329215193855,-0.000821983043521162,-0.00244983033284367,-0.000746873299761554,0.00984976428528823
0.0032372663311645,-0.000531552830412896,0.0133908463734549,0.0109595834707655,0.002468601218155,0.00327635111658215,-0.00887526721284201,-0.00427127114712946,-0.000271147056231315,-0.0155483290052139
-0.00485521468886356,-0.00886772975238738,-0.00739219038257489,0.0221034527669462,0.0039045021510778,0.00432836428693882,0.0101450127474576,-0.0108298283567255,0.00832484656572503,-0.00641287673508629
0.00561070403357103,0.000796333710933317,-0.0106604713995645,-0.00234030220660993,-0.00965084059057312,0.012261653071716,0.0180319438483996,-0.01355987904525,-0.0125082983706574,0.0162077945353461
-0.0118440838268897,0.0093491951849128,-0.00547064261312545,0.0133185769548181,-0.00679030882128626,-0.0143835235798634,-0.00791701303645271,-0.00326448077152202,-0.00415314700111951,0.00283364866320751
-0.017126404069322,-0.00407215276777921,-0.0146369356890317,-0.00844851428349795,0.00620636486308313,0.0173553692878856,-0.01787056166552,-0.0193035993711788,0.00757454822226346,-0.00144533182855004
0.0145414703619193,0.019333139382067,-0.00327593526218378,0.00512928394791983,0.0139419358506275,0.0251790175708743,-0.0171167857036965,0.00208551920738438,0.00319676005165024,-0.00844734388531431
0.00712762434828131,-0.00960316374782273,0.001154353596054,-0.0172240704743653,-0.00177849251981265,0.0227028164720918,0.00158337582465932,-0.0156535821023191,-0.0010500035422367,-0.00346191347029356
0.00152068427201281,0.00585617044747035,0.0209935122192574,0.0201047609711437,0.00229000275266388,-0.018113465137282,0.0191358027051271,-0.0115323051919309,0.00984079513979167,0.00570634965444047
0.0141521148653677,0.0116094017742736,0.00618720215287296,-0.0147504620776093,0.0065104609811838,0.00185799538511251,0.0128017111841723,-0.00771934821379136,0.0101548095706233,-0.00452063538722387
0.0151046567413017,0.0178623198177626,0.00192983947654063,0.00198964428982708,0.00412471135228893,0.000903640083269032,0.0166419529478393,-0.0145268687757095,0.000763985296585536,0.00336507501306656
-0.0172910050725035,-0.0157220646221416,-0.00856026865775395,-0.00374364889367588,0.0124097922306041,0.00839101077086158,-0.00140266827259621,0.013648756642333,0.0121257387823665,0.0111582454604713
-0.00406598030044333,-0.00194673130961837,0.0156220533276754,-0.00288574952952162,-0.0139759417826244,-0.00326368450644309,0.0161446591140815,-0.0209834457863853,-0.013382797483606,0.0113303380720462
0.0154340944364169,0.0161444152712717,-0.0227390844862874,0.00738996249824156,-0.000141869394665199,0.00782960999771343,0.00486328405255615,-0.0111112078468868,0.00732253735746845,0.0183710089751595
-0.000541652530546551,0.00824002719558488,-0.00771640013337313,0.0146677038098269,-0.00279337160605014,-0.00562670495158937,0.015258493797421,0.000768647877707961,0.00542314616280143,0.013974808746713
-0.0173344200388413,-0.00686088843391576,0.0101307401961108,-0.00592419825893534,0.0179460698437292,0.0040894152848242,-0.0179383177726076,-0.0123272648179455,0.0100455570531143,-0.00675326831377471
-0.00143361762182599,0.000273831959490546,0.00340171767066294,-0.0200665881451516,0.0154292615188345,-0.00697381644517786,0.00605859882834211,-0.00970520579549039,0.0204160993521681,-0.00323479925933397
0.00545283439000085,0.0150690230765396,-0.0136289472655326,0.0177258049212848,-0.00103473857614853,0.00169191024017813,0.0179664104812651,0.00814625789542783,-0.00900004971035553,0.0183811241849718
-0.00750819617512605,0.0131780381762687,0.00431716039915798,-2.02422260122795e-07,-0.00632136909796836,-0.00953236758737808,-0.0157642480396831,0.0111389479539562,0.00949341421003248,0.0072482530351422
0.00533348136126969,-0.0109572890625602,-0.00319951684502027,0.0150953814992121,0.0151669006647915,-0.00929166853979158,0.00161333715102299,-0.0129809457820834,0.00233261410637077,-0.0170917551413013
0.0116620189682921,-0.0138388013462017,-0.000660026195968405,-0.0151252493274162,-0.0116323046054687,1.25667132315378e-05,-0.00885731149512615,-0.0138951978319645,-0.0192649452204162,-0.0162498515450729
0.0186028961504891,0.0135122434738287,0.00190862987366189,-0.00788970069127344,0.000420265265096905,0.00970141369900404,-0.00538685821808626,-0.00259751187279896,0.0160279373089906,0.0125291634155744
-0.00725466624593318,-0.0141889935558919,-0.0107208457569811,-0.00993053131059336,0.00193718475818222,-0.0105686025281932,-0.0150052952541114,-0.00892927382022752,-0.0115162609878956,-0.0153509526305418
-0.00370980272391225,0.0181135069748789,0.00741893377561096,0.0173240945724099,-0.0182506638322135,0.00176182558132785,-0.00684245900267783,0.0156761455125947,-0.0142696538141556,0.00966355492044012
0.00725757370793332,-0.01355750986786,-0.0239936976483474,-0.00683739796076778,-0.00294738577378569,0.00938926272479289,-0.0113837194673595,0.00952955941555311,-0.00729652891220862,-0.00949159816274694
0.0179315424002178,-0.0102652799658953,0.00685369231530007,-0.0181295926361772,0.0114174075872042,0.012237137340816,-0.0135129212843256,0.0145241748210643,0.0131807004853195,0.00782178125900386
-0.00261351936748646,0.00714191993609013,0.00227017423997545,0.0012413821247904,-0.011393171890891,0.0209687313952746,0.0120454777338807,0.0168082567530516,-0.0104517669555598,-0.00450411786545843
0.0165666473042614,-0.0178274915453584,0.0110382165957567,-0.0151009954231816,-0.0124008208502931,0.0130257586051519,-0.0206727565845608,0.0159194368626575,-0.0173279741531816,0.0111195791680231
-0.00358765033072797,-0.00559676261897487,-0.0135999920941432,-0.0103884460992298,0.0137085755564936,0.00988523791404421,-0.00608950406083734,0.00416200305576804,-0.00202970273373431,0.00776750827421392
-0.0127568090206998,0.0115806587567744,-0.0156703984205116,0.00455857630529469,-0.0173689874158132,0.00406412005118206,-0.0060898956094553,-0.00932478225228555,-0.0127230977992496,0.0160957352408625
-0.016762344453393,0.015524162220897,0.00294288924987404,-0.00685507694108979,0.00640920402405381,-0.00474143988895652,-0.0108798884317289,-0.00668511918163004,-0.00945632063375018,-0.0057436477625063
0.00925354045577783,-0.00100045440679027,-0.0046896256696991,-0.0132972123579104,0.0080983799487552,-0.000456914571532406,0.021695997866424,-0.00877729736062497,0.0112221848695724,0.0120945187116635
-0.0129326130480668,-0.00400836673610319,0.0156519512140997,-0.0158869242410949,0.0181917975023574,-0.00126332532620249,-0.0120001332216015,-0.00375302522087141,0.00751577114142904,-0.0129464943823959
0.00714651732542696,-0.0130323150250841,0.0136766010493195,-0.00468372006721848,-0.0171394198483624,0.0120942265940683,-0.0028955077525419,0.0131656632389267,-0.0160576963002856,-0.0175168966614813
-0.0115691100045519,0.0128012667032538,-0.0122792782281791,0.0126830693419732,-0.0170226885331571,0.00969790400339297,-0.0169811162984185,-0.000581528763975777,0.0158508853659446,0.00743953944179372
0.0137338463634556,-0.0158087743601697,0.0158085015223044,0.0125483688162138,-0.0113980003733815,-0.0146527520398126,-0.0124936634486615,-0.00164614441452282,0.0112459602790623,-0.00521307387967918
0.0155086088933874,0.0139231784739413,0.00208220338366548,-0.000119140357210154,0.0178350627928039,0.0100952972713813,0.0117802009850971,-0.0163765790576409,-0.00426760158739435,0.0114029085610071
-0.0157846364586604,0.0117434105149715,0.0104294790557303,-0.0140287185284236,-0.00672911227324739,-0.0266410160275746,0.0214371568784255,-0.000268258663970042,-0.0125587272002336,-0.00176336958342332
-0.00298538819550033,0.000193404594721599,0.018196072114577,-0.00461593957862918,-0.018817554279635,0.0183425599540869,0.0130023702926754,-0.00590573838379422,0.00257085863220155,-0.00375102175966336
0.00507908143561639,0.00121780870835206,-0.012531564368834,0.0193245257215591,-0.00131372379750432,-0.0170793300923144,-0.00658958265805772,0.00456935609470635,0.00177727676933327,-0.00224582203339085
0.00656024175636191,-0.0162465023899769,0.0219339576287325,0.00466928965533344,-0.00839462832854188,0.00648965257368383,0.019336977969486,0.00986578817832555,0.0107620944044615,-0.0110123011149068
-0.0126862312579226,-0.0186121590366907,0.0167251786941058,0.00801365593523545,-0.00481987519554412,-0.0200775066746398,-0.00399150056573358,-0.0084887229202217,-0.0132115729396221,-0.00527351835109265
-0.00568382336654884,0.0120599851434109,-0.00997244006247792,0.00233675636003122,-0.0100791760838453,-0.0081831565423059,-0.0138061410873115,-0.0158672048169998,0.00690776250159136,-0.00377789268525713
-0.0178406533791273,-0.0039159703022103,0.0156460249932165,-0.0151341059602626,-0.00285693682067278,-0.0178457129180196,0.000947818477600297,-0.00295552187991247,0.00370270688900783,0.00456167163900372
0.0144937524973262,-0.017718423705362,-0.0127875767511242,-0.00938356154062791,-0.0182670953582977,-0.0150269926251463,-0.00570285862591347,-0.0036439487171731,0.015155991543989,0.000160500008426776
0.0150273526804445,-0.0157808224195923,-0.00707292347695111,0.015141200727363,0.00501694818502895,0.0137208045139189,0.0181360593661147,-0.0103018460563447,-0.000853986244025641,0.0126929407630267
-0.00194084334648743,0.00717807330546693,0.0139645747962679,-0.00126662208859153,-0.00200559504746805,0.00422594718673706,0.0121684340288325,-0.01020084784471,-0.0152783330921954,-0.00296201453258463
-0.0022714204269201,-0.0146337603751558,0.00129595639863563,-0.0144222865530307,0.00568807275854585,-0.005006855189256,0.0152950521376234,0.00320384268680899,-0.000907213069102232,0.00611194467937935
0.0023555674789755,-0.000807040349251538,-0.017399273846135,-0.0161060948548049,0.00443879072758224,-0.0126023068315451,-0.000829261288470327,0.00133707131588263,-0.00259571961963113,0.0115779072047962
-0.00660749711727594,-0.0140860017314759,0.022595689092173,-0.0131463344191187,-0.0196792392531365,-0.0231318516733334,-0.00773759446244685,0.00878865473548427,-0.022277942652153,-0.00215193884257003
-0.0137174372401225,0.00828147569515635,0.0142506553090954,-0.00122491475799096,-0.0023334196487485,-0.0145894229607217,0.00907289813191861,0.0064701972490501,0.00219620928714219,-0.00738401186208523
-0.00616484686485841,-0.0158134353044278,-0.000815892356449312,-0.00182779982324125,-0.00159479316888986,0.0026945232202043,-0.000984852569384547,-0.0125392851190743,-0.0203085401585565,-0.00238811992347731
-0.0121256169996623,-0.00436182133988493,-0.0104522640453046,-0.0187520915869791,-0.00350685446297217,0.00973569795645565,-0.00482157459547499,0.0164865564734238,0.0195329927848184,0.00529683956810071
0.0151235491053558,0.00921684810042161,-0.00188309556245565,-0.000351391076458016,0.0110603081226232,-0.00501099062177312,0.000200032380266044,-0.0163254470087058,-0.000355448061698139,-0.00991684038115849
0.010967549468068,0.00392455647282208,0.00513761274097333,-0.0139718630746668,-0.00371467755796712,-0.0200483726743952,-0.00123946087139742,-0.00445273947822815,0.00591409252481874,-0.017954430935149
0.00582620310359794,0.0103359579074571,-0.00622524076800144,-0.00707867706870163,0.0184430673356647,-0.0131191412508207,-9.59672228785841e-05,0.0157071230893317,-0.00799017669053145,0.0130965312623334
-0.00989913790579331,-0.00617781624595145,0.00798994074454284,0.000516351381998922,-0.00125716242490128,-0.00172255660341481,0.00347987146495887,0.00378165580452264,0.0138430955648157,-0.0179799158948088
0.0156901605507507,-6.77984726673763e-06,0.00531819038982906,0.00324398589401338,0.00135551437559305,0.0147449495335065,0.00656761445603038,0.00474618355704667,0.00704613154000427,0.0166708539761342
-0.00195003630728692,0.0131095409551933,-0.0197715617585336,0.0166230308343292,0.00376938855633581,0.00845002982107637,-0.00512712366817113,0.0106911725301006,-0.00393963530659319,0.00861804325202414
-0.0171605170058587,-0.000765174240705927,0.00213431885083214,-0.000705098860024127,-0.00326731619777934,-0.0123263265818446,-0.0125967179232974,0.0146790021868483,-0.00433255243085466,-0.011708561133838
-0.0168952676574623,0.0018672778422154,0.00309551489999958,-0.00630094292043365,-0.00178329211076583,-0.0173954463881412,0.0146457313359651,-0.00032826329014085,-0.0139826495728076,0.00606284907784988
-0.0100926944979791,-0.0170627766803484,0.0144576002505818,0.0108950629867481,0.00927656769811573,-0.0108327698451079,0.0171208087339661,0.01352980817659,-0.0208943447265491,-0.0011907531234602
0.00670466872370842,0.0117410193602253,0.0226067795763687,0.00683929517733482,-0.00843082652102563,-0.0220609104390136,0.00353130984029484,0.0116631723164644,0.000221470810522438,0.00460897242647907
0.00388355435504575,-0.00369360518008433,-0.00678249989248006,-0.00054449559910601,0.00466274024158716,0.0150546836295899,-0.00160003077113074,0.0134438380581015,0.0139145600975025,-0.0115287284626254
-0.0166062778716339,-0.0181009522979725,0.00793490936045476,0.0211898761249207,-0.0194950593624555,-0.0143607141623758,0.00293335113352216,0.0160662240307314,-0.0194228534812992,-0.00832530762627367
0.00280424381130458,0.0159226466177778,0.00919406682059077,-0.00416494940596078,-0.00597345787219031,-0.00387504875573712,0.0146777718688241,0.0059453779966193,0.000469839578839443,0.00466592026895853
-0.0141397761924434,-0.00657443277748735,0.0167871517366709,0.00184795156092719,-0.0154256273471751,-0.00528409778521308,-0.0131126134782138,-0.000892331152941943,-0.0111869834301742,-0.0150285524344835
-0.00217739484481219,0.0119121508176151,0.0186010924665881,-0.00347689874924472,-0.0176507604110467,-0.00609722827341459,-0.000721746421863273,0.00787542050745453,0.00458709278292836,-0.00528342776890795
-0.0179128071996659,-0.00182766681449618,-0.00441752657234378,-0.013761513298675,-0.0109913964094807,-0.0185084163943494,0.00450027067298268,-0.00623031449326313,-0.0163154074406016,-0.00670383683684181
-0.0166521628751914,-0.0126888643640584,0.00544340906115636,-0.0207127419688487,-0.0127087268888812,0.0312802763031861,-0.0186360882268537,0.0106754769391244,0.0189281140789808,0.0182769653655423
-0.01546404625883,-0.00757329510837834,0.0170213811457236,-0.0125113170446539,0.00620281047065822,0.00434642670548334,-0.0164610231837368,-0.00950097220040135,0.0163067493300224,0.000135360501848444
0.0127684946431618,0.014530531392233,0.00163989906836311,-0.00371776656150031,0.010266858504058,0.0146144091566061,-0.0135027746287078,0.0192732058740837,0.000315609484413642,0.00178525650999151
0.00957388443424166,0.010654033576486,0.0113655885588121,0.0154187694308368,0.0102447726917216,0.0118172155891202,-0.00918572633023244,0.0135139693712351,-6.36564212807777e-05,-0.0135336200817675
-0.00863565490966816,0.00832963996337681,-0.0211140648767388,-0.0116965550561309,-0.00831881428741921,0.0237362060888135,-0.027912784532074,-0.0032961978022129,0.00126080791061269,0.0175598935229818
-0.0107170618905218,-0.0118596676740565,-0.0155298222644238,-0.000577799067998799,0.00270051802609645,-0.00956242113266847,-0.0165940480893093,0.0182933986104621,-0.00402841047104506,-0.00273178516196919
-0.00191316756437001,-0.0101340242372126,-0.0136210306127947,0.012769207574366,-0.00407860184449039,0.0240253555831915,-0.0219723736186044,0.0190327564133842,-0.00674885399388889,-0.0113096892070069
-0.0135090026350543,-0.00676570447179139,-0.00570646716530807,-0.00995349816972656,-0.00449852051710053,0.0203592152224805,-0.012623964867446,0.0139909459090155,0.0122057920854233,0.0107425623292919
-0.00228209847983311,0.0106184458526448,0.0138139203477412,-0.000189785720376994,-0.00319557794808272,-0.00417168929922818,-0.0193864876525502,-0.0172250840346102,-0.00125960304619228,0.0117830486044621
0.0135228237693475,0.000499698562846887,-0.00827856718058241,0.0208271665511669,-0.0131963099289959,-0.0119505360962574,0.0173274515829951,0.00890469416109346,-0.00928646951424241,0.0109272914313476
-0.00803479118071516,0.000491048296671898,-0.00507502593942584,0.0134138579819019,-0.0188704486597993,-0.00843995761792768,-0.00788683339897156,-0.0156135817258425,-0.00958229580089949,0.00328674327497597
0.0069607713361619,-0.0175628373779869,0.00543818753705596,-0.0144285058931412,-0.00702655774856458,-0.0147760439942815,-0.0151656760406626,0.00185926555994143,0.00325550482132758,0.00397408869352895
0.0109951727234248,-0.0102412620447412,-0.016432019634416,0.00490858227468119,0.00149146376435411,-0.00513141379344417,-0.0118456186420124,0.00367344610921077,0.000781237838750057,0.0133328598665524
-0.0181604218017756,0.00461209737602998,-0.0127099672099451,-0.00466020754788674,0.00724216386886252,-0.0107275769998567,-0.00444416956360891,-0.0188937200567698,0.00501546651144525,0.0175771695033231
0.00576547134267058,0.00290976477190453,0.00875000567204121,0.0127336707716704,0.00595973994798587,0.0221361848357223,-0.0156045382725307,-0.014475953987884,6.87877612009748e-05,0.00610513316957656
0.0183950192504331,0.00401085704742809,-0.000487271748993066,0.00571096832431604,0.0146677189084085,-0.0188908256691961,0.00884026695179247,-0.0054826880369985,0.00833459746991264,-0.000826142902443549
0.00402611273619448,-0.00837490145709456,-0.00331827341499206,-0.0134563347182781,-0.0183845487462059,-0.00384758813266914,0.0243553312549051,-0.0102689340230552,0.00324009565405321,0.000334133333511805
-0.00336793574680227,0.00313949844461003,0.00592170184476329,-0.0155219842835929,0.0125839695027275,0.00363180870226649,-0.0148982410548068,-0.00684330402124593,-0.0110954432666239,-0.0176359857590173
0.0128612823736663,-0.00311416985706392,0.0153501828643509,0.0195701150149851,0.00639990625669244,-0.0149174175818224,0.0129382521023468,0.00935610111144741,-0.0155048563715271,-0.00120205632835809
0.00166581054795636,0.0174885012898811,-0.00616485106883278,-0.00619466177749408,-0.0157259046638501,-0.00424795699049505,0.0094600258397937,0.0133978213516775,0.0121059140609759,-0.00413345301552446
0.0165130826994067,-0.0149587602246808,0.0188861141477682,0.0105281367451524,0.00114547702647893,-0.0113606662234203,0.0184048602975506,-0.00201122480563015,0.000672266160933539,0.00255857990206471
0.000423637843325196,-0.00865938527712068,-0.00400239453655221,-0.0172371169426713,0.00627738538562874,-0.0182876430279373,-0.00272115444724381,0.00151631931829065,0.00372688912888808,-0.00172867404912661
-0.000321110343897321,-0.000943613157151388,0.00877241945512796,-0.01291285983717,-0.00567519896378554,0.0113987988719521,-0.0174690776168017,-0.0087562050179253,-0.000228241990863526,-0.00978847182197988
0.00873361270219687,-0.00658794502040549,0.0111843535230967,-0.0169632750945842,0.0125637139476079,0.00956279529959051,-0.00686946974655913,0.00225204012445646,0.0134588325548479,0.00460272205626777
0.0181118825479914,-0.00298312184953677,-0.00118813144854701,-0.00356876397116979,0.00310177506692235,-0.0209293320241993,0.00449065378443729,-0.00561111780071963,0.0110528580177543,0.00981907355336332
0.010221013088507,0.0056791898309171,-0.000778706704846449,-0.0131804555594842,-0.0182215201577845,0.00923468891215195,0.00128662216897244,0.00352114999889554,0.0128641782554236,-7.82429373378793e-05
-0.0129877898984623,-0.00143230566281728,0.0239013100368559,0.022800769813071,-0.000256777129356141,-0.0268295946911625,0.0080220096337558,-0.0129057788464479,-0.0204612577624033,-0.00133867173985233
0.0116536101178698,-0.0154331107275798,0.0031708393094931,-0.0111676767015663,-0.0108557701068183,-0.00271940736181477,-0.00907903643717379,0.00746672681540727,-0.00618618378004437,0.00896369111225197
-0.00427260436839123,0.0117136957129015,0.0236879699714332,0.0116261345762435,0.00440983208688933,-0.00492297645686644,-0.0036958243496808,0.00413408732488763,-0.0135867284050609,0.0134237469040935
-0.0121964939601727,-0.0181725439777624,0.00719126349665609,0.0213030014211112,0.00930256888716598,-0.0243035229896093,0.0150022982123263,-0.0106130091881985,-0.00100908604020604,0.0173186220276911
-0.0130222197654318,-0.0161485946283933,-0.00316134860262654,0.00289258921614652,0.0171174216848134,0.0161551864180389,0.0177906564472632,-0.0110878273200667,0.00384199505989539,0.00326281803401265
-0.00823193879107926,-0.00498100450458002,0.000526914582587504,0.00484518719683471,0.00977097854197673,0.00728140766317436,0.00526751941382283,-0.0175026785208834,-0.0109567733815797,0.0052305068121173
-0.000473927355937415,-0.00721580428244717,0.00837180206751984,0.0175020940189675,0.00104796128715654,0.000428699946882749,-0.0129268546946254,0.00120535594097147,0.00586554741627278,0.0131968428864614
0.00299363054682357,0.0133249148186289,-0.0139518355526227,-0.00812358663746126,-0.0139076214827821,0.0093016411154212,-0.0151151769318313,-0.0070844505506566,0.0122148629983952,-0.0100976069741917
-0.016161495018432,-0.0144418889714934,-0.00310757433443489,0.00276671297285769,0.000834554876944074,-0.0195086920380597,-0.014471964253337,-0.00254018349540237,-0.0112171120889438,-0.00226667905927064
0.00629737053395158,-0.016763582582794,-0.0111204085249588,-0.00295139634167575,0.0165941745464226,0.00169946725976797,5.13082995349617e-05,0.0159625068926398,0.00510555065182661,-0.00381738400295717
-0.00519119095585747,0.00130766650062144,-0.00996740475326787,-0.0155397205438638,0.00237851640893216,0.00990649231438574,-0.00425404518412426,0.0164355524377627,-0.00848361895343073,0.00849368850987039
0.00135961620121669,0.00958294893899247,-0.0169326715199989,0.0167939641989741,0.00651414646687338,0.00914041988901991,0.0058456771143575,0.0180830536771588,-0.000884052129537966,0.00550204705519408
-0.00142028216177105,0.00705734297264387,0.00781520673195106,0.0116918668815728,0.0155493909542683,0.0080305681422672,-0.0153297421998395,-0.00106611496761565,-0.010518800608211,-0.00803721726178066
0.00972042414990206,-0.0121831525261323,-0.0172819124532837,-0.0128070055578747,-0.0114389143153299,-0.000536699655655725,0.0183619237173234,-0.0110135619174834,-0.00526706880363919,0.0105312258661921
0.00482236250112442,0.0178130531569433,-0.0101151846391276,-0.0119119369226988,0.000585436276527968,0.0225856330152994,0.0045095762287134,-0.00039952789899593,-0.00498433762450564,-0.00585677482867013
0.0155363424660416,-0.0183343361251459,-0.00724965287363765,-0.0168247858419223,-0.00590236717103817,0.0240253798745679,0.00785398086870974,0.0188644808372507,0.00301314241682204,-0.007228538588533
0.00545692449290968,0.0145559303120263,0.00314830909070562,0.0060707309595002,0.00213375853420832,-0.00466516300338747,0.0156166876744922,-0.00870839121135935,-0.00324850844680595,-0.00782056126135389
0.00932420724760585,0.00888503216256679,-0.0123096468722717,-0.00560284258632693,-0.00900505201222628,0.00302390285449154,0.0116923428683189,-0.00154903967575329,0.00128990197327057,-0.000714001581011691
0.0171130210871834,0.0181370103305287,0.0130838100590333,0.0091319165847999,0.00599562590892589,0.00216014349161378,-0.0046937200980132,0.00636689339352065,0.0179918449643285,0.00986698621223164
0.0110561291576706,-0.00251465363221509,-0.0115419606209942,0.0128288979582397,-0.00863548440466141,0.0144570365637844,-0.0113633675149187,0.013503484259753,0.0207128526447076,0.0175559979473877
-0.0124518113660951,-0.0122712546582471,-0.00120678984384148,0.00163550702657547,0.00438259983397015,0.0135667518140763,-0.00550370082425985,-0.0157239294788146,0.0210810012009533,-0.000674128858054746
-0.0162608858890638,-0.00492262932303386,0.00742276959891645,0.000200765619309122,0.0171258519181527,0.00924848556503224,-0.017067790751134,0.0184179325893493,0.0052675388721441,-0.0108427147020316
-0.0121257249583051,-0.0173395416682201,0.00965272286668492,0.00395751394010978,0.0038034180409759,-0.00331181091994035,-0.00661648902216247,-0.0052023969901527,0.0114293095858362,-0.00118671819357233
0.00213534260426244,0.00248375080804312,0.0169834869233183,-0.00624188322742229,-0.0156405357271044,-0.0123905727911318,0.00771795635268819,0.00950698807899376,0.00871747272351476,-0.0101885611193695
-0.0173037776949807,-0.0101057961615216,-0.0129165367367597,-0.000221376659107512,-0.0108076897813678,0.00675521428832779,-0.00829097269421664,0.0128762863927305,-0.00326388198623874,-0.00634295519109479
0.0158752714956222,-0.00651005116684214,0.0100534705953133,0.0178302947860096,-0.00579463805260894,0.0118341733508994,0.0159346536284523,-0.0183543576842968,-0.000471391280602068,-0.00417019595381189
-0.0163291160527323,-0.00572339887791088,-0.00890233783576445,0.0150136257815583,-0.0090444288809248,0.00224914833098767,0.00926596305441555,-0.00238075636587931,-0.0145054262988186,-0.019848319775312
0.00471136295714502,0.00152065157454424,0.0029900456748413,0.0137601229739738,0.0167031659422562,0.00283533725847701,-0.00784110456615459,0.00471440985120427,0.0110468970945676,0.00312717202485802
-0.0181615428637721,0.0147796793739098,-0.0242084327109628,0.00471632332906351,-0.0115855337845601,0.00530439966121821,-0.000948260934998696,-0.0142667986300269,0.0100058991050915,0.011896410012746
0.0123055730575434,0.00636777390631898,0.0129654869270517,-0.0129254896102598,0.0077070669641113,0.0103471307033309,-0.00150082064043004,-0.00838739472775323,-0.0147715894472067,-0.00585833732327664
0.0137155186789408,0.00825024141704628,0.00397547269511279,0.0133240376670291,0.0041237918819787,-0.0170242597469951,-0.00660932036947665,0.0124048668644172,0.00912993308594342,-0.00385687786617102
0.0165229494340369,0.0176006064917742,-0.000256845291844772,0.00554822196438686,-0.00390873640941807,-0.00758783353806237,0.00779371499649547,-0.0207525729394331,0.00453061527192491,0.0125313614109849
0.00628016398368881,0.0176972399942544,0.0248042774828644,0.00300625442024111,0.0160859012493491,-0.0246066098771119,0.00873395962177574,-0.0148313536648322,0.00203752611323989,-0.00899352480821906
0.00692029418787924,0.00496932335164407,0.0141124621585393,-0.0106138663873393,0.00462749587892199,-0.0138474913497253,-0.0115403228020079,-0.0108202654760346,-0.00825726804161591,-0.011762755341174
0.0162471293528318,-0.0156528966477426,0.0158335987464013,-0.00390371005662597,0.0145443879969297,0.00607183783896905,-0.000217794191667435,0.0178775354127431,0.0166901304459865,-0.0161535808835566
0.0156380795965962,-0.00824403564319109,-0.00813975667526334,-0.012057174030723,0.0079453101176657,-0.0173997944052125,0.00301371233072873,-0.0107614123406865,0.00598617223528771,0.00965270206789234
0.0159022726219154,-0.00431195781292505,0.0151062853471184,0.0123224551901841,-0.0131256522532063,-0.0262804840218049,0.0184447995796262,0.014345299078139,0.00774043763979433,0.00356557823151981
-0.00755602564464018,-0.0068682478147056,-0.00662212673748306,-0.00421226623261372,-0.0163977500584198,0.00292969420506899,0.00878164402113398,-0.0200174698714902,-0.0136939369145763,0.00121772643918292
0.00818782491435053,-0.0133829564898553,-0.00520394728590943,0.0216277510242465,0.0165210552175882,-0.016658721224186,0.0224493859552143,0.00181277530915174,-0.0178910026758624,0.00285634438906029
0.000764943473085576,-0.014842604658662,-0.00538127460000951,-0.001868814465855,-0.00418529658771375,0.00924804040413306,-0.0110069771289863,0.000765064927672404,-0.0194116677009324,0.00740449922365364
-0.00860810285904956,-0.00185143953746106,0.0130472416633897,-0.017905681924081,-0.0130325070154989,-0.00658168413450849,0.00294282484937952,0.0153286098117163,-0.0141154121013577,-0.0146031040428975
0.0098900417644826,-0.0175878589280339,0.0118541384592414,0.0191429238401897,0.0175516866016987,-0.014605052437715,0.0129199027516944,0.00330591243215774,-0.00321110184897894,0.00431336515576438
-0.0159853402643533,-0.014614337804286,-0.0116264844216657,0.0122618402703101,0.0150807231964158,-0.0166907329259756,0.000605213339735865,0.00463031288519968,-0.00782723352427471,-0.0144186068829031
-0.00814498276186571,-0.00102470716873602,0.0131455760338951,-0.00891102095112605,0.0159104373812603,0.0160533284523191,-0.0066692141513995,-0.00704189769734593,0.0163101775078695,-0.000285035292313793
0.0125187230725547,0.00595009299050242,0.00203472490415886,-0.0106202710698335,0.0120860851708904,0.0177863511544496,-0.00615097370906013,0.0174701443958595,-0.0141941738552111,-0.00488546942921893
0.0051365392812597,0.00126119256600392,-0.0199815780078007,0.00221131045461079,-0.00366571889017204,0.0227671043536896,0.00166822985057122,-0.00367278171248346,0.0085707479359771,-0.00459195449059404
-0.00128055317144693,-0.00893277764785147,-0.0188375625460323,0.0182393868083819,-0.0173010752907252,-0.0025361150318177,0.0137366809817191,-0.00200898495178807,-0.00517728223092889,-0.0101145863180707
0.0044849674613763,0.00734057048689413,0.0107696903785739,0.00571622610621549,0.0107324457757347,0.00135499351492681,0.00514183912032508,-0.00653927731069748,-0.00445078858336735,0.00902180483661906
-0.00920893526925103,0.000104768555866663,0.013047415228174,0.0154971666436318,-0.0137501189164472,0.0244673514018718,-0.0136833923993425,0.0191077606796092,0.00943179686422199,0.0100010977688925
-0.0125085977254895,-0.0141255946806899,0.00634591708694491,-0.0102221470109012,-0.0187165354548914,-0.0188400755191947,0.00317400106585595,0.012962303247701,-0.00363011561114966,-0.0077305028086043
-0.0117563463024498,0.008764155079183,-0.00383877286327714,-0.0137016844456806,0.0198304660108805,0.0310252050577386,-0.00986725948982256,0.014877815596608,-0.00820813315622085,0.0133244266163216
-0.00321163848848299,0.00469432535877464,-0.00679875893674449,0.0168995169554025,-0.00809864359879066,0.0152128350890576,0.00445556579383118,0.00490803446731868,0.0120927359058122,-0.00640817912576597
0.0186918575228089,0.0144884608670611,0.0142823856769807,-0.00102620441506185,-0.00872862100714815,-0.00124778755221542,-0.0055148294329809,0.0045007759883458,0.00263940101506914,0.0138433443668153
-0.0182604300965155,-0.0151764506807837,-0.00689554041094377,0.00797379707753854,0.00336699655191016,-0.000778500497822493,0.00954700810848602,0.000356641575679834,0.00774867972699802,-0.0182575084419148
-0.00275159122457567,0.00795377116738032,0.0270499272899956,-0.0128873353445805,0.0121516365336152,0.00105977920523918,-0.00104105751177105,-0.0227906175053869,-0.0231112901068697,0.00120046623862438
0.00452346362598053,0.00927090460651373,0.0131010346012644,-0.00529666245414506,-0.00856241782113974,0.00960407219404814,-0.00341686788874086,-0.0165010040395777,-0.0100262155233705,-0.00377590626709459
0.000406898087867064,-0.0145248145967478,0.00910076736806401,0.00663658550529572,0.00619152442094758,-0.0121934150994852,0.0132528807230427,-0.0160885831028088,0.0125028250396569,-0.00052705670039787
-0.0173001168617438,0.0160076362842111,-0.000283452730563088,-0.0113488407043603,-0.00380731216096789,0.00718144710453067,-0.00736713642232453,-0.00184773168377296,-0.00226132768070795,-0.00851533751624778
0.00887945662918741,-0.0110149968377249,0.00797764273842478,0.00290188600256259,-0.00102503037362911,0.00752230315007995,-0.0107915506757937,0.0168606043506666,-0.00692616713920603,-0.00624832196087845
-0.0117621477142796,-0.00752424808361624,-0.00775545034415863,-0.010715128075921,-0.0126665903990196,0.0153177897773316,0.0102071247958143,-0.0120882719730111,-0.0083162088427758,0.0147827172371415
-0.0107364054646124,0.00493808557132046,-0.00756091516139498,0.0124417327709042,-0.0103426886791834,-0.0211550621965663,-0.000610972600044013,0.0102823078092788,0.000279150700026159,-0.00355904651461187
-0.0123554914956146,-0.00969466994039964,-0.0188652545390427,-0.0157855933667535,-0.0143119710257215,0.0143578601108547,-0.0110743257892871,0.0152342083874422,-0.00597843655175765,0.00344137882193745
-0.00612695796010735,0.00516919659439949,0.018853018240109,0.0132048379085108,-0.00571715635714844,0.00903816363836491,0.00481193466145829,0.012534668504926,0.00897695366692706,0.00278943492674559
0.00775716307514878,-0.00608559930809408,0.0132565764316796,0.0174361204955454,0.00462710152816687,0.0143753140334459,-0.00253460120501603,-0.00747698404837244,-0.00173458099745797,-0.0164308475298337
0.0122848183581301,0.00633060984196282,0.0156638201754361,0.0131379140119523,-0.00488756838469378,0.00148595228924339,0.0100960959021715,-0.000954000270410011,-0.0190258457371501,-0.00646535478078552
-0.00943939836261851,-0.000196968397317405,-0.0171337036261852,-0.000461741300189288,0.00883568393901422,0.0154229077560089,0.0179877190265545,0.0149945484090589,0.0095754462658456,-0.00870913568155335
-0.00556674950363805,0.0125950101347688,-0.0102979019896502,-0.00245948856210612,-0.0147581618438182,-0.0117097000165759,-0.0143303571215811,-0.0195862669017191,-0.00767330536135785,0.00196593074286026
0.014780335232612,-0.0160872039345805,-0.00948026306268228,-0.0111887485340105,-0.00283546384776248,-0.0140473896926408,-0.00715965164300119,-0.00341086102025333,-0.0178503426159063,-0.00826343968307469
-0.0131691226201026,-0.0164087692780629,0.00700792307709803,0.00792807628368846,-0.00573075518609535,0.0106735704884987,0.00215520344303606,0.00977230717947932,-0.000181265623175801,-0.00511573647889074
0.00187506954140831,-0.0110734933211702,0.00705407906950501,-0.0126642605837231,0.014695856077676,-0.00476614831626423,0.0152835507900303,0.0136782940989111,0.0133461605734287,-0.0172455096133367
-0.0173750392153014,0.0174232519645725,-0.00679174311043863,-0.0064139375685704,0.00470050611814113,-0.0335111618779689,0.0108809798004584,0.00500817280851614,-0.00907825635793815,0.00121311542506202
-0.00317110577933272,-0.00609516579948084,0.0195555931740126,0.0178214557711242,0.0118918527006397,0.00668622346510198,-0.00378421297683886,0.0154283262059428,-0.0101025334259862,-0.00930988036497654
0.0162114535019225,0.00416659527632461,0.00634307904925251,0.0123692018029346,0.00736218001427928,-0.0116399135266678,-0.0042149604491439,-0.00928476998744349,-0.0179719411045233,0.00796340398900214
-0.000166674515527109,-0.0156224955174672,0.0126426707398766,-0.00278538745330919,0.00343042233066726,-0.020814575564156,-0.00603813624264574,0.000885892689901814,-0.00238192109779877,-0.0195147074747827
0.0113082832905759,-0.0113203484744025,0.008922662275722,-0.00496935023407434,-0.0160713142554368,0.00721588215037193,0.00350939344796571,-0.00260681774825209,-0.00183317145421612,0.0171872645786166
-0.0143082518232047,0.000270072099981747,0.0174417024542769,-0.0059382673013143,-0.00607245850887104,-0.0267677301974347,0.00552823245572402,-0.0208403971541439,-0.0176962427833985,0.00521961871281636
0.0173876723738213,-0.0166882411572675,-0.00336135181761104,0.0154409033660522,0.00527823653606331,-0.00657759761850434,0.00817840281008659,-0.010240169073529,0.013814709322879,-0.00189693744994489
0.00154422557384526,0.0074334718623195,0.0144846843301932,0.0181713874648393,0.00570447647995236,-0.0032664554002691,-0.0119424671588068,0.0133802913917643,0.0108804208335168,-0.0167140039261919
-0.0147983102252353,0.0175355768969013,0.00467192467737232,-0.00134397256149573,-0.0144098705789274,-0.0294487768871158,0.00572039769874286,-0.00955099039423564,0.00660546041765341,0.00810297683181691
-0.0156008705733964,-0.00260993590326599,-0.0137036540761095,-0.000124368060086201,0.016328131236018,-0.0157645205085136,-0.000714408928814886,0.000801997387594565,0.00460738777465913,0.0154133233175042
-0.00242808821100088,-0.0020396419404252,0.019339884038419,0.0165514640491906,0.0183568727980599,0.00941087341551811,-0.00991325330260513,-0.00397724027167781,0.0129351383296532,-0.00228570218871001
-0.00801681971701755,0.0125048019059793,-0.0172281582441594,0.0167224939205257,0.0092639367534179,-0.00672984399415733,0.00844165217498938,0.00412970968068961,0.00277803843343338,-0.00690461706019411
0.0147905396426803,0.0131099071822657,-0.00833112078292631,-0.0141640715093594,-0.00238457951468133,-0.00333152254394081,-0.0104593093031864,0.00712620804050594,0.00381384575535511,-0.0113358396088137
-0.0184659275204861,0.00723860861714824,0.00834225150176034,-0.0113814295350016,-0.0186403228153863,-0.00177845040064173,0.00536335509660934,0.00561903392240507,0.00189873299465515,0.00871557331876027
-0.00456353545553857,-0.0109566661158977,0.00264292664541519,0.0155526242061147,-0.0193762541074203,-0.0307497802850607,-0.00282563718976779,0.0126309619043014,-0.00708530396177211,-0.0162144627050775
-0.00347891411334535,0.0147723375798741,0.0248920719509264,-0.00931990932398138,0.00928104006745595,-0.0254348821761164,-0.00861698389486304,-0.00702999668064616,0.00107460521488941,0.00316331089295198
-0.00346383883192358,-0.0184346401725789,-0.00272777391558437,-0.00155388837068027,0.00244162304011827,0.0103265093053475,0.001823315966083,-0.000700041875483006,-0.0108615276743362,-0.018028820623952
-0.00345914665586121,0.013646904034337,0.00948435703151525,-7.2655675488638e-05,0.0120251936907106,-0.0191927971141591,-0.00707670330645665,0.0107602693071423,-0.0180974110584043,-0.00794452002938391
0.0128198867828036,-0.0163794333056356,0.00220225291707593,-0.00793884136184042,0.00726623863345133,0.0015780866617528,0.0139930596113389,0.00724554422423244,-0.00462769209522334,-0.00392298373157668
0.0140844171245887,0.00747829196732656,-0.0108377006321174,0.0124796626433608,-0.0166539078187228,-0.00522949538868531,-0.00524750724964514,0.0126235259562374,-0.00205374219750759,-0.0092310824050151
-0.0173571392659616,-0.00509869128095629,-0.0128905677864819,0.00863613264649888,-0.00464919414144857,0.00602442719126399,-0.0118927188109514,-0.0180057985692764,0.00269312049093718,-0.0163066300707645
0.00738154949609517,-0.00550267113398712,-0.005060000952776,0.00832288465797662,-0.0115907884689638,-0.00542612615723497,-0.0147189624320066,0.00355332224566946,0.0107297796372199,0.0147254687241794
0.00129818256499159,0.0173313683198793,0.0104395320772846,0.0119229833048699,-0.010661926771825,-0.0181919910647637,0.0138961443967248,0.000779610801044778,-0.0101969989650048,0.00171895854700957
-0.00427391071736204,-0.0102726691029171,0.0242184964672685,0.0173248398412328,-0.00722538441620376,-0.001793503634184,0.0302483324639825,0.00556114171333639,-0.000215978252534908,-0.00236154575486147
0.0161501295202129,0.0117351499671237,-0.00348527864658617,0.0157191289521848,-0.0116799095070101,-0.0129909611790597,-0.00794712014164704,-0.014558648226796,0.00749093884615439,0.0149947527203502
-0.00109437491314651,-0.0179404332451978,-0.00305481406401803,0.015488920584253,-0.0123156981824773,-0.00578192079908399,-0.01418689302902,0.0140967797337787,-0.0109360713452468,0.00844849250444621
-0.0173481312891457,0.0165519723388425,0.0280533953182185,0.00397827717370944,-0.0114714083583604,-0.0205286773125861,0.0259181107022618,-0.0185696483452515,0.00751356760662007,0.0143047162822146
0.00428257145491913,0.00946915384195697,-0.015707507573602,-0.00811057352449176,0.00606684234160457,-0.0119327008417589,0.00348849120223167,-0.0175345912005383,0.00508989776175241,0.0125638716898968
-0.0143765936817869,0.0128438769181841,0.0160034470021176,-0.00332275247059546,0.0042088823365699,-0.00783233596148023,-0.00066079164614386,-0.00302573469107594,-0.0209109347143773,0.0133735655309909
-0.0148532406662446,0.00674314423229914,0.0151878982399057,-8.5595596943814e-05,-0.017041937730679,-0.0104515721553031,0.00569314895448542,0.00457515296224008,-0.0134067447184925,-0.00369857005703609
-0.00987199278080899,0.00476708744918196,0.0162173134983901,0.0190030161950321,0.00685948589688544,-0.0326197431041073,0.0161769785892006,0.0119937022639876,0.00127107076223003,-0.0109387295302008
-0.0154904157146457,0.00374434951017029,0.0184731605147769,0.00750059927737622,-0.00864941800491526,0.0126466917159716,-0.0129492218913407,0.00191394975107316,0.00400365343635435,0.014722548412761
-0.0153991849805651,-0.0063933397956943,0.00102733402449974,0.0131821693996408,-0.0114664752068991,-0.0180309139674286,0.0134012542477492,-0.0105751514459471,0.0145083355601052,-0.0129228689625466
0.00408382210283857,-0.00331075023488894,0.00612422786759205,0.00561294269965,0.0114823547169274,-0.00797770920275728,-0.00592439789007192,-0.015825094526174,0.00509418287506967,-0.00333173060252586
-0.0128595089768415,-0.000686958089350622,-0.00544595254725067,-0.00346561269389781,0.0144846013306474,-0.0208899199935594,0.00326513969076269,0.00428260650899048,0.0131479368056179,0.0139950357842316
-0.00337842236422386,0.00637008514518723,0.0109925553054613,0.00850415770659588,0.00183916619644883,0.00229783859411502,-0.00131247159561735,0.00666119173666452,-0.00331361932166074,-0.00302537501235838
-0.00542381317230351,0.00567674013078022,-0.0119134513398839,0.0121847949840614,-0.0159115504751868,-0.00660195015559324,-0.0139954960938641,0.0104187962158754,-0.0163069130244836,-0.00291898615257599
-0.00117639318268365,-0.0188715441417513,-0.00256555567130507,-0.0152508526830443,0.00431418432896959,-0.00765213466436424,0.00184135293500595,0.00302280062872661,-0.0188256958703591,0.00612457205851888
0.00749079479727,0.0149842614599812,0.0250352118391881,-0.00261403926085291,0.0133447829922403,-0.0187913765074243,0.0136977128022689,0.0132065533786953,-0.00863641070908786,0.0141770786612127
-0.012421002164677,-0.0146571882733167,-0.0117352026270444,-0.0148356889300989,-0.00945365385837799,-0.0209198865661498,0.000179541138542351,0.0161495308381118,0.00656706014431997,-0.00754844048038343
0.00824321824982292,-0.0101650577345074,0.0120290105028711,0.0102516266211401,-0.00236737212003083,-0.010634592988847,0.0197813637796145,0.00274179478640332,0.00223828210824953,-0.00868477616165808
0.0132935925190495,0.0104114423898793,0.00632109287673763,0.0112825972826318,0.00577528466015398,-0.0058172517312858,0.000921257732172077,-0.0146486527203891,-0.0195313068137835,-0.0176019453316145
-0.0060363439431948,-0.00332862502933193,0.0182638171617606,0.0104448284451686,-0.0094627159378897,-0.0218907341721003,0.015717530888621,0.00526733996048838,0.00182805223881782,-0.0176541168511475
0.00530798219645493,-0.0102133910849329,0.00736447677519471,0.00323004483319274,-0.00302205196886224,-0.00948014215276569,-0.00603087835692973,-0.010921126641238,0.0120371762560812,-0.00978820481552575
-0.00971380597787917,-0.00560507690325827,0.00679538317002341,-0.00195193484916906,-0.0162073388816689,-0.0176984949576379,-0.0103918684745836,0.0113163694129104,-0.00857783558642809,0.00715515949189819
-0.0182551002653078,-0.000463334244860427,-0.0149136780884076,0.0097317304785124,-0.018316125052998,-0.0028248960411542,0.0173019216837207,0.0030268031686001,-0.00284041811017697,0.0160415983128538
0.00252512729998803,0.0033794207198469,0.0185679339837337,0.0037925570087929,0.0161237168586971,-0.011035086623755,0.012065035531677,-0.00457009078744462,0.0128279181857394,-0.0177253958559715
0.0169163737324412,-0.000654103084155957,-0.0121259053929807,-0.00481708551393976,0.011722800001739,0.00651777822399965,0.00448875049591006,-0.001238791896889,0.0236297665392846,0.00668665580708891
-0.0054723489933556,-0.000654683809701352,-0.0210462400893281,-0.017419239307579,0.00530175017683786,-0.00150459235855878,-0.00181518952710251,0.0146197849172226,-0.00746659420750393,0.0158803076162441
0.00126050579147249,0.00531548286363111,-0.0116491696623568,0.0170616087441264,-0.000897552607509702,0.0169353809402472,0.01043254785309,-0.00289700540557886,-0.0101936733320161,0.012613526198511
-0.0156898249014921,-0.0165366578920882,0.000528161474298458,0.00449938547588384,-0.010815946142851,0.00318580021644005,-0.0256933795204993,0.00233587449425714,0.0255391630173613,0.0049164385864845
0.000570495423852861,0.000647859866172487,-0.0134926933209454,-0.00451529765307394,-0.0113964578245216,0.0130711583494092,0.0139815121717728,-0.00112723939290819,0.00428919837683621,-0.00458385859407105
0.0132789936738134,-0.0129279897214432,0.00827118953168053,0.0202707876405837,-0.00387916512945739,-0.00597089353231434,-0.00757452603051356,0.00114167555825119,0.0123785547074693,-0.00504192495165079
0.0124837842662285,0.00918073221742081,-0.000490518668791642,0.00437677548289805,0.000814490668670286,-0.0246738755126466,0.0221034960961106,0.00821765836286438,0.0116315907848956,0.00018256986155005
-0.0148592323535209,-0.0172391377042704,0.0071208226206402,0.0221400322727736,-0.0154427318549454,-0.0206398265741463,0.00231530849253823,-0.00993333086081317,0.0100093225781891,0.00635343378540577
-0.00115362910427665,0.00613110383979257,-0.0101390357214744,-0.00242747955755041,-0.00436876945969248,-0.0110514175605446,0.0051576909293704,0.00664712126184472,-0.015829643943123,0.00666752151192225
0.00429577464021264,-0.00980922693523456,0.0105562588006876,0.00998205279603635,-0.0179366706022262,-0.00447226093424516,-0.0132596393428812,-0.0173941335822733,0.00178810778527907,0.000404760916527081
0.00179520427685931,-0.017242580371002,-0.00967777918153758,0.0103012093253418,0.00407719127181245,-0.024172603131526,0.000659308661929717,-0.008401104069107,-0.00932841720860473,-0.0154981765633946
-0.0182561915378936,0.00860996442367343,-0.0164520579002295,0.00756695824649622,-0.000307750339806848,-0.0057016758606815,-0.019884884203238,0.00151166201056229,-0.00673394493564121,0.00432685072624826
-0.000468630359756137,0.00708489034233015,-0.0171234555730951,-0.00274516934203893,0.00189816376082276,0.00709965600458324,0.0132749333444469,0.0137189290083084,0.00548144702254887,0.00112932332728759
0.00282525257176612,0.011460218901469,0.0125744105249867,-0.00593161254602285,-0.000218564435520565,0.00968539023426655,0.00776906431375225,-0.0100598840240329,0.000550466144116097,-0.0147399380208065
-0.00487869263282151,0.01505868883375,0.00600365847113758,-0.000490115546896194,-0.0127151881862437,-0.0045266014307498,0.0109039996385162,-0.00664458616495757,-0.0207010030185636,-0.00365220846093906
0.00875342188384133,0.00716728083761987,-0.0174260681201706,-0.0118962614925682,0.0160095089996506,0.0115312839586127,0.0139654558587786,0.00444422373702259,-0.00931134490185904,-0.0139467947359853
-5.57716353557419e-05,0.0092982776944722,-0.0164970811359376,-0.00402310619875275,-0.0181930317827056,0.00795862212655008,0.0128910350430898,-0.015840235320219,-0.0163613352253749,0.00878046611132601
-0.00256429020903763,0.00730373372059984,-0.0216890647526364,-0.00050617846149557,-0.013984998702506,0.00102513356105677,-0.00594085192919416,0.00976510414203887,0.0114745615629339,-0.00802237513445495
0.00780885920813818,0.00539028384407935,-0.0220004996765321,-0.0135123686780594,-0.00354961049876,-0.00269899656156682,-0.0120517648977205,-0.00294980985213902,0.0196256483990473,0.00734345612825982
0.0150873497020284,-0.0149703677121573,0.00765521423629964,-0.00975034878539406,0.0179504096829366,-0.00580381671030071,-0.0115766420870436,-0.0131153934109511,0.0111485058091952,-0.00288850129541687
-0.0127569675078321,-0.00218580215899146,-0.000627172962553196,0.0129077915989233,0.0182614200777554,0.0118231546252032,0.0156489954454535,-0.00820685136782592,0.0161620591317762,0.00686374787073516
-0.0188017484164223,0.0127628894713292,0.0120353357425187,-0.0161107103318358,-0.00795520768311142,0.00234216278888115,0.00420226783455361,0.0171518720294336,0.00616513950580577,0.0155358970298496
-0.0107611830978853,-0.00233230878202386,-0.0239358372588435,0.0101839029241429,0.00563637531352019,0.0199413230999595,0.00208417605772844,-0.00106528534328189,-0.010618865987031,-0.0105180305226606
0.0101252818879409,-0.0179255875449649,0.00190105196623949,-0.0031962519112747,0.0162600142284752,0.00205416226333604,-0.0103123224242752,-0.0147871713655404,0.00869768364029904,-0.00078824689692798
0.0091135565457581,-0.00889686870978593,0.00526527424291451,0.0122678933735978,-0.00595060866919593,-0.0173741834528519,0.00294663690462058,-0.00480684638545372,-0.0142036478510667,0.0162478556074043
0.00684675776202479,0.00977136966036196,0.0147502729336799,-0.0116789285811428,0.0118450694627246,-0.0095030459719876,-0.0127097449305321,0.00757026341273842,-0.0179085409708267,0.00337112452728101
-0.0129529062916846,-0.00158646160664278,-0.000766429692866501,0.0131359568659243,-0.0151278990190845,-0.00850706543896987,0.0199952322909528,0.00929444739217738,-0.0154602029030469,-0.0110308693539802
0.0174577474309545,0.00613059734753302,0.0154094033538929,-0.0151982724497453,-0.0076588180244132,-0.0178210267654054,-0.0151363850402638,0.00547901522714648,-0.0145047971934034,-0.00111149353468955
-0.00723474485891743,0.0100835245081533,0.0139762772082691,-0.00928931066063415,-0.00549022922386769,-0.000677395930388165,-0.00177078912728824,-0.0177220025586895,-0.0154038025906428,-0.00162821862352857
0.00633081898165822,0.00717710098588046,0.0111357208049219,-0.000939073828437923,0.0165394834860621,0.00788146998120866,-0.00609716576360119,0.0106651281562033,0.0128761862446752,0.0103610355934928
-0.00678190388691463,-0.00687535188913075,-0.017230915641677,0.00656321794605008,-0.00642436906479725,0.00276687823156115,-0.000195637679834094,0.0109414619175744,0.0023800929709784,-0.00578585184563618
-0.00134697173694167,0.0189416694855813,-0.0202499337996801,0.00062204758315279,0.0171453531902874,0.00400441572614843,0.0139680405684927,0.0128388239210134,-0.00755930340773076,0.0186414681537827
0.00485795214173757,0.00386470773727953,-0.0136781789664192,0.00414090686106918,0.00386304757875626,-0.00563156247041928,0.000544901918120221,0.000291564498173029,0.00875750388150119,-0.00853020402556987
-0.00638538067427765,0.0112705318075751,6.15004412868757e-05,-0.0180174099684399,0.0120678001414053,0.00745822434782564,-0.00807348158922345,0.0167684238068014,-0.0173365779867534,0.0184309169454027
-0.0123925037833751,0.0169730316806349,-0.0160986714091967,0.00380234740836439,-0.00753236946407605,0.0220607356436772,-0.0195626712880651,0.00490923821974119,0.0201579874655971,0.00368975754722976
4.78511119096385e-06,0.00496684111198646,0.0144342833826556,-0.0121972080570201,-0.013015958870801,-0.004493096266224,0.00998750015380718,0.00887456936109184,-0.017165964098764,-0.0151013906746077
0.0155299458285747,-0.00650642052580375,0.0191367275437766,0.000388064641580611,0.00884116888546286,-0.0293956089002036,-0.00217512247283894,-0.0114698105536799,-0.0155862006604385,0.0155924700971857
0.00569161229679173,-0.012281463644951,0.012177271020192,0.00612237527735355,-0.00842606863979798,-0.0101491953737812,-0.0207942320430487,0.0156843443730126,-0.0116051765227829,-0.0168053848937126
0.0177123382286651,-0.0153827503913785,0.0150898974961695,-0.00198528912023716,0.00957761631350597,-0.00297874807780173,0.0137021406559098,-0.0124315622015297,0.018238956039485,-0.0171673668723754
0.0170301245556168,0.00818940505859635,0.00497200099069093,0.0187009060187308,0.0149397472323558,-0.0184456249819534,0.0192145637881913,0.00662135607046454,-0.0153968650140382,0.0118818227568974
0.00723295844340494,-0.00329443342827096,0.0102598687000075,-0.00911634736996434,-0.00684555600925667,-0.00188944093239463,-0.00632565976004049,0.0130741145967488,-0.00453246002124616,-0.0057926176473611
0.00655006455725172,-0.0101484240098504,0.00995768722736284,-0.0153517561684146,-0.0119199031788217,0.00364883893384943,0.00789590360814121,0.00681807825129886,0.00232156799369176,-0.00302891580199872
0.00713806092440665,-0.0023669346629574,-0.00923587369146813,0.0110349383916535,0.00246866012133283,0.000387403792532564,0.0156362926664721,0.00278835199304689,-0.000468945347456871,0.0134015523232924
-0.00195626293007624,0.0157103247341947,-0.0141081229878241,0.00396165975571458,-0.00877265334656792,-0.00468050538801861,-0.00563367742237639,-0.00687337528038339,0.0105571012042424,0.0106556249678145
0.0191536296109184,-0.00229010754693395,0.0109969019790652,0.00527508051516618,-0.00173269849885097,-0.0201903492529645,0.00738821171291425,-0.00896847075397213,0.00153592787608216,-0.0136994215416438
0.00947098962118922,-0.0163830859956265,0.000803322699177556,0.0160127208315006,-0.0137055902708001,-0.00664882250600248,-0.00148406788682081,-0.00829988461894348,-0.00121022497774244,0.00150462998764701
-0.00154150547522969,0.00837237811599045,0.0154828733990839,0.00787486633908716,-0.00510279016065032,-0.0195875611674063,-0.00224425670759765,0.0103807913269413,-0.0101001199637234,-0.0109945626604618
0.0142333633232232,-0.0110753023153358,0.0215291213188338,-0.0107629557697054,-0.0162378206036022,-0.0207594596396318,0.0178943269143562,-0.0097259793343447,-0.0210403782984998,-0.00410445853607558
0.0185217640055523,-0.0148710689166839,0.0173200958951987,0.0156542585885148,0.0148222651449163,-0.0166006050776542,-0.00254141566188217,-0.00939975704048504,-0.00653447070752148,-0.0148981401708366
0.00181964789637598,0.00490620627013353,-0.000201556709573888,-0.0127160283644451,-0.00629072718371001,0.0168017896234213,0.000763053831229364,0.00851043357461917,-0.0175997913278557,0.0105723628650505
-0.0111995001830701,-0.00429375909697594,0.0139932515692,-0.0164585143303665,-0.00517498267846239,-0.0169315961163803,0.0160859855276293,-0.00436743999067719,-0.00852676773692854,0.00766867629589691
-0.0146216391826313,0.0113382049660116,0.025124655336914,0.00362351204913942,-0.00924903858370829,-0.00783485091781493,0.00118640343659462,-0.0188693172214635,-0.00705174736403664,0.00583090720129417
0.00776742806751022,0.0133427560796294,0.0121077737989265,0.0106095681005669,0.0158598847152092,-0.0136434840763051,-0.00131219846671733,0.0086669347974113,-0.00712796715566189,-0.000915418890798645
-0.00806654948830428,-0.0048851728415215,0.0168387261527191,0.00302686355021544,0.00136819861979164,0.0010515973120387,0.014756491523589,0.0103840353224197,0.00117981355721403,0.00528267306644369
-0.0117316025040622,0.00303387766195704,0.0163818028360714,-0.0129300033179907,-0.0199952348963614,-0.0151437885510056,-0.00721445455842152,0.0110682869817911,-0.0102709089350611,-0.0161014832393967
-0.0119153387462401,0.011805608066927,0.00540813454527204,0.000932177519392159,0.00838827328901139,-0.0138563689865153,0.016733494312476,0.00227324330280851,-0.0222278867677261,-0.00444520883043042
-0.0182817348985768,-0.00437568498513526,0.00381022888175353,-0.00920633282392505,0.0153145559183741,0.00354330083944286,0.0145665299677972,-0.0117871415141242,0.00488089861859355,0.00485565464481018
-0.00858232561569688,-0.0128282158111757,0.0165507576710989,0.020384652068989,-0.000882871670375294,0.010148460791044,0.00364592009529843,-0.0117414093705685,-0.0147850950196357,0.00174627580149812
-0.00839026776756588,0.0137224595671955,-0.0158156551883089,-0.00890042767244664,-0.0151682826897179,-0.0053320448679231,0.0123038439336423,-0.011276976039057,0.00261712685590284,-0.00186629423697419
0.0149923093628052,-0.0105842632204954,0.00145539074307063,0.00870819054891677,-0.00873045347191045,-0.0297665156155078,0.0244885702719205,-0.0182675026505453,-0.00721428427173376,0.0148995452912702
0.0138270256292589,-0.0100716955675594,0.0116568221208161,-0.00944596332505513,0.00406227972859894,-0.0065180488579401,0.0092739978439916,0.0148613713828188,0.00616213093398221,0.0139922272759913
0.0158640576891759,-0.0076984336317297,0.00929314510438569,0.0149196418988107,0.0118851327616885,0.00334650564739947,0.0183852909571387,0.0122332708317485,-0.0167635196991908,0.00817760835452915
0.00715166725712005,-0.00397687630481305,0.0146589904061756,-0.00938874714915641,-0.0101621809460564,-0.0208117962362952,0.0217956050339132,-0.0193814031900904,0.00679684948830505,-0.00840532311098704
0.00710213705265127,0.0120859395493942,-0.0051349385527144,-0.0144037907717534,0.0149376813627631,-0.0203900483580434,-0.00602577168746803,-0.0165491910875199,0.0105167648534411,0.00785378424515342
-0.0092039681177165,-0.0192858979435346,0.0121010022172086,0.0204811867222456,0.0134487350570357,-0.0183235709850262,0.0162752174169994,-0.0126218726770938,-0.0103068114353828,-0.00246149833548053
0.0139645729736252,-0.00808754740237742,0.010676613859922,0.00105492701195545,0.0128966866916721,0.0063909533351294,0.0206375050869382,-0.00508555520188394,-0.00500818052105867,0.0123937281387333
-0.00690020157845977,0.00569846512553914,0.00561392466256888,-0.0113671580256091,-0.0146707885032427,0.010833291592877,-0.0102769107223172,0.0040561978776542,-0.0163374070051836,0.0122620950106998
-0.00443309435850595,0.00436127642872452,0.000798851716405286,-0.00447926277112285,0.00123755489339102,0.0217082226693941,-0.0196402513362386,-0.00860760391319812,0.00416226595263719,0.0107868395483662
-0.0013369028116489,-0.00214523366025635,0.0110406329213219,0.0142478901717429,0.0173318514687499,-0.0112677422723722,-0.00120247192013992,-0.00913253722863947,0.00498660515906412,0.00730413332020354
-0.0160475901847832,-0.00130284137403582,0.00934488882306223,-0.0123727990559866,0.0105960714741133,-0.0104829521616073,0.0117504385959192,-0.00137093919059921,-0.00964213589530909,-0.0100683112717259
-0.00150474521930569,-0.00808926377584321,0.00854614629339399,-0.0178418716955663,-0.0148282369036704,0.00665518723095479,0.0105460558397305,-0.00295465797712116,-0.0163125600712235,-0.0127225852498067
-0.0108368558813964,-0.0113879962763573,0.00239977990513376,-0.00815499394011362,-0.00769719823441422,-0.00266407963384116,0.0147219113097273,-0.0114831362507894,-0.0150747407034017,-0.0121262136031628
0.0124940173365759,0.0089519094776487,-0.0107481301815555,-0.00948436182366164,-0.013071403954336,0.024312994683513,0.00871390906831258,0.00811268714291776,0.0144704617390749,0.0148060894307546
0.012966507362619,-0.00522411854985403,-0.0120578385114048,-0.0170485712536678,0.0142433354566489,0.01385748362604,0.0113121070238336,-0.00561279798117856,0.006992148425469,-0.0174019444790173
0.0135150431928024,-0.00717011718091991,0.000834083082862778,0.000568464395308166,-0.00296090527385944,-0.000664860606616377,0.0165817538968997,-0.01704462990263,-0.00138218178005907,0.0141872190915576
0.0188243453487842,-0.00809881639925045,0.0278872212275741,-0.014085238571454,-0.0111733873150939,-0.0305992441718507,-0.00141477537988923,-0.0105701418953694,-0.00111158250194343,-0.00322790127196103
-0.00915213760063879,0.0158344138429931,0.0127192210797734,0.00679472220908508,-0.00221228592417199,-0.0253354178313578,-0.0113237530347496,-0.00278779974427006,0.00136479610300832,0.0086629701405256
0.00177242572198042,0.00869555223931069,0.0190492350039904,-0.0150056573357527,-0.00616683697929227,-0.00816384282609007,-0.0101585615015365,-0.017620092409074,-0.00934983588519061,0.0142479734362803
0.00146944971590621,-0.00637074869265268,0.0156482379982354,0.00712956558259141,0.00747214813270183,0.0182367154692611,-0.00679613093585127,0.00814695396318888,-0.00382678954372385,-0.00813278279124721
-0.017850715693726,-0.0033154241714848,0.00696181365253534,0.0178098864404424,0.0117180684516686,-0.00855729170419338,0.00578302125011893,-0.000754738382989459,-0.0180832657769915,0.0102718520493817
-0.0119667176686234,0.00110558173655166,-0.0127205032430009,-0.0146904454249173,0.00800857428450594,-0.00860363929145014,0.00326033864099551,-0.00739084188473211,0.0134992324580649,-0.0092521181895761
-0.00995478663864732,0.0104657701519312,0.0125645912934531,0.0158162224752446,0.00765193603480952,-0.015342981852959,-0.00791637197600108,0.0174076114202475,-0.0163842882303256,-0.00567192511313706
-0.0143580945950198,0.0124820306766698,-0.00539270274834154,0.0126943645097132,-0.00179669608772005,-0.00291463197290112,0.00885264986458786,-0.0194492216396132,0.0132182131316187,0.004139924709578
-0.00392899299725577,0.0152677131031894,0.0183033051855743,-0.000507256982255973,-0.00250109754469693,-0.0148158696864365,0.00629627149370101,-0.018094065934831,0.00619569931999711,0.0149331718393152
-0.0119453107758197,-0.0113149150431224,0.0117344336481441,0.00452391525074911,-0.0147479721507776,-0.0151121494347704,0.00202309075325967,-0.00201328836262605,-0.0108452744520839,-0.0130762970584963
0.00721995901497282,0.0135572953582999,0.014762351691135,0.000383306496619086,-0.013348378248341,-0.0114228584245528,0.00627420183510651,0.0160925657880572,0.00164175594885755,-0.0159611835536652
0.0128140082197842,0.00136298465071128,0.00520175677683912,0.0174994944022996,0.0153926976268064,-0.0216600119380062,0.015803791520609,-0.00575910459193005,-0.0190944288283612,4.45315205622756e-06
0.00361111976722748,-0.00547346996014637,-0.0199867419485936,0.0166107759602001,-0.00664308338143841,0.00852328362363523,-0.0109368073401594,-0.00986322284166407,0.00433451089390011,-0.0172038607116504
-0.0107024706718861,0.00478588807702086,-0.00971303237797248,-0.00549455089101279,0.0118635637960995,-0.0134630683497513,0.0177746631752603,-0.00809096697669511,-0.0184783041659115,0.0161381612702996
0.0154383201905038,-0.00451858462107782,-0.00261540467362727,-0.00534144430499246,0.00687378055637098,-0.0268027821191581,0.0270351537666666,0.00285276465605998,0.0103157014420548,-0.0142795157533009
-0.0184074593141778,-0.0167692738326838,0.0130627974554601,-0.00783259400735682,0.0172859053572972,-0.0163629567415746,0.0148057698201835,0.00321669810469089,0.00890387072145959,-0.00166877616545689
0.011913822915071,-0.0138485029631243,-0.0104005023151562,-0.00921307914715443,0.00757530841299126,-0.00330615031559158,-0.00293021605850709,0.00846323494203632,0.00407959710120121,0.0152567829206214
-0.0183147173533654,-0.00421472728073611,-0.00317869404956476,0.0130302128460789,-0.01715667871175,0.0125827488546074,-0.00954764837141019,0.00663295007742023,-0.017692512838244,-0.0163621373265546
0.0121700646534331,-0.0130652202692121,-0.00990850527686497,0.0159053418481429,0.00414938648798001,0.015445932556026,0.00192125529165583,0.00475325688158308,0.00506545914983693,-0.00498713366910205
-0.0158730913185754,-0.00368312809494837,-0.0108676639183338,-0.017844870592164,-0.0120767514293745,0.0117666755938289,-0.000268816073906621,0.00442102181784189,0.00135823700215977,-0.00605981271841269
-0.00499489845823905,-0.0121481882125664,0.0202804329917939,-0.0105048744714458,0.0040351110255947,0.00671268116922866,0.00558865658971478,-0.0195394657416977,-0.00833376973926435,-0.000943138593870547
0.00702780542420428,0.00481225651993183,0.0126909096981805,-0.00622258934216466,0.00838665535680427,-0.0151803352156807,0.0202165075592116,-0.0176890513392312,-0.00928757467333948,-0.0187050157085804
-0.0103586087383651,0.0109298343986169,-0.00385609848944598,-0.0107513129932897,-0.0113098082790796,-0.00128328340084015,-0.013931714153513,-0.00115669881863434,0.00330599483116899,0.00333948468514454
0.0104102487383222,-0.00958789320253944,0.00630133673717112,-0.00974188248318365,0.00860616392097313,0.00666231344900401,-0.00577121752710903,-0.0138804241750038,-0.00224140323477561,-0.0105688822102165
-0.0154809258868309,0.00548370234337576,-0.0118811107946547,0.0117196373999269,-0.00245451104605524,-0.0127049332724943,0.0117077129467056,-0.0151630881945284,0.0141710204793075,0.00646082365158604
0.00815019982302723,-0.0174441905556803,-0.0136349808846556,0.0173485543360023,0.018489909355925,0.00319145819721327,0.00474962557778441,-0.00898922158887962,-0.000851301272557451,0.00225024257238362
-0.00858776154012556,-0.00226269878685845,0.0189198831992151,-0.0095444404722789,0.00809374774218924,-0.0177889305521992,-0.0095814903838816,-0.000323936620867768,-0.00871595885622529,-0.01236513404572
0.00237544019090256,-0.00820167434827163,0.00446789373690813,-0.00170580396349541,0.00568167950764026,0.0132406046187703,0.000108259114016453,0.00203788474625974,-0.0126720481824604,0.0110640429579546
-0.0127195534658382,-0.00203185427834473,-0.0138216165990842,-0.0019752384560153,0.00315401814436371,0.0158837793572582,0.01510198841255,-0.0185217028390837,0.0168504075929806,0.0114441266161292
0.0150552114391009,0.00179337185185081,0.00833310013985893,-0.00844350922065209,-0.011132776312087,0.00971965978111093,-0.0188511794834376,-0.0069731291940312,-0.00198356093567208,0.0193380515117306
-0.00804031440501325,0.0140069342892925,-0.00955161630831934,0.0148986279791708,-0.00486610228239392,0.010217867936339,-0.00193860096432725,-0.0166139239818182,-0.011803808632346,-0.00153698901919334
-0.0126737094378689,-0.0117235503625772,0.0253043676968561,-0.0072215908444335,-0.0154717784459247,-0.0110408236625625,0.0124957946851085,0.01166154566099,-0.0202473159517375,-0.0178444898769304
0.0152449065797353,0.00308901719542387,-0.0148529648108771,-0.00564910878244959,0.0092713317868326,-0.00543143610060498,0.0134789268748038,0.0168847266540885,-0.0122351812500103,-0.00976458790596842
0.000398079788064461,0.000120655623602053,0.01287327987763,-0.00722056818923428,0.00436055694846271,0.00869822516988583,-0.0036161639360727,-0.00533985748055699,0.00501444320667184,0.0179509394293196
0.000865864777680389,-0.00334469367337712,0.0157752060808337,-0.00215802025381746,-0.0100074225805035,-0.0310412361239109,-0.00473260948996924,-0.0143388844467151,-0.0215416315599883,-1.1604005242711e-05
0.00199154510351054,0.00362051093325699,0.0132415864501504,0.0160195228535862,0.0114118452609575,-0.0231854098448548,0.0130768879134536,0.00218218754089308,-0.000462258887599422,0.0166218475025007
-0.017633653839317,-0.00277585143813049,0.00871095799422959,0.0237182295430743,-0.00381552726275973,-0.0367387062321262,0.00410471045316705,-0.0145158246330387,-0.0169701067980613,-0.00272856587706755
-0.00210678197615501,-0.013943673249583,-0.000573514334617457,0.0180123388462058,0.00879619163526856,-0.020782307837815,0.0071055452062034,-0.0141565224085271,0.00473380455128986,0.0131783796888012
-0.0136956793738,-0.0164421217867395,0.0076619286703359,-0.005445607661252,-0.0158425477676761,-0.00779746308884801,-0.00604587957673372,0.000296861307743035,0.00399986857688629,-0.0174349013947689
-0.0102399236139068,-0.00570003818176546,0.00848151387221902,0.00739164172465598,-0.00308400403464612,-0.00160659912765837,0.0235392111738573,0.00647277610213642,0.00463980342386214,-0.015118835529548
-0.00717442009595977,-0.00985018604708018,0.00673113585216258,-0.0132183761321364,0.00305475639648483,-0.0156042861923283,-0.0042306110370648,-0.00991307663509451,-0.0107980210435765,0.00298245269340835
0.00171532413152696,0.0121715625007676,0.0175037008887635,0.00608640172791709,-0.00669815434135349,-0.0118319794159994,0.0134515562538589,0.0160549573040003,0.00809239856939088,0.0153006255337263
-0.0104244325979695,0.00469558762876668,0.00646969085147569,-8.03413326425844e-05,0.0139056678043349,0.00379949665578026,0.00619330361374778,0.0134073526973275,0.0107876614580418,0.00111280021874363
-0.000356314586974362,-0.0175377888299813,0.0184857828511466,0.000769019474907026,0.00159742929795317,-0.0121867330331484,0.0217601681431101,-0.0140080713251298,-0.0240648717991981,0.0153137761568322
0.00812644150023479,-0.00871647575419825,0.00687559153785869,-0.0140557108169693,-0.00566575264528728,-0.0225759802104408,-0.0067550863847493,-0.0144215222355416,0.00575445019717066,0.000785037001276732
0.0164624444354767,-0.00952977748198178,0.00548220707291437,0.0096522925924274,0.0048863833240975,0.00301890596670295,-0.00485326753627948,-0.00445046188994864,-0.00672213660822842,-0.0146202142344062
0.00224643261023137,0.0159957687378046,0.019085814432027,0.00716752052530363,-0.0103638456090149,-0.029315829331968,0.00798378154690482,-0.00346556742889569,-0.022595197523993,0.00408843883624197
-0.00828956191439723,0.00729574364400122,0.0196555898057843,0.0198704302782921,-0.00657917607472547,-0.0165169231934926,-0.00789811612718973,-0.0176431875673467,0.000867077858581916,0.00499072363338858
0.000627076559591193,0.00219127680065191,0.00278706483683098,0.00871277209910092,-0.00642824296235799,-0.0298314321564913,-0.00393768099608051,-0.0170971454009598,-0.0224358017327587,-0.000974236640241713
0.0110962904368304,-0.00501151613900284,-0.00119461380507278,-0.00708556516047424,0.00170885875227558,0.0010923160321421,-0.00741722533817767,-0.0214775305214907,0.00433793462550356,0.00817315318358535
-0.00543215008692942,0.000488380336835158,0.0133444388534535,0.0122937695567548,0.00304202412061505,0.0064772008467692,-0.00434902544126667,0.00732179478730011,-0.00162355156273102,0.00332134380925346
-0.00781122078486507,0.0123173003310933,0.0179315246848186,0.0017105308340562,-0.0151142386609608,-0.0253269093685239,-0.00676155479109989,0.0144846111473337,-0.00610074965210163,-0.0190050457702313
-0.00409525473434163,-0.0138840836187061,-0.00866338574897125,-0.0095432798182896,0.0127501135038642,-0.0206497251327726,0.0139854821777213,-0.00897772902602291,0.0128818790566604,-0.0137218888347782
0.00140192767907489,-0.0155855379441133,0.0159640144092737,0.00898698205716788,0.0025388651733598,-0.0170924142909823,-0.00728799953457245,0.0151360844264202,-0.0195447908160513,-0.0179082956997143
0.0126257782418713,0.00652271341439324,-0.00654617062471361,-0.017755579985016,0.0134796325472628,-0.00882420140381805,0.004395318753416,0.0156259565079224,-0.0153303085747875,0.0146445398768393
0.00786788433072252,-0.00916979109098838,0.00545513703887651,0.0160029165072569,0.0162837989688741,0.00729890703916091,0.0134090804783224,0.0144151195281488,-0.011051764383745,-0.0158976121953077
-0.0114287970681514,-0.00716612706556603,-0.00522094348632108,0.00148419190243983,-0.0053406429403388,-0.00241189617453514,-0.011563526269475,-0.0185058786434239,0.0110025634539351,-0.0146879581179409
-0.00941696290066326,0.0151253944238068,0.0220748209196798,0.00709585515152393,0.0141573940967802,-0.0207578508196594,0.0150197077694389,-0.00461992241119457,0.00202482063869821,0.00407698027796763
0.00538181533164358,-0.0042908484679991,-0.00825884853931674,-0.0112503832560014,-0.000214191952914146,0.0185504004449516,-0.0028712111409684,0.00578620879051066,0.00386002080608415,0.0069440002827653
-0.0156225711651844,-0.0130872411723206,-0.00019421807102702,0.0155604238484419,-0.00199510014958948,-0.0244869804945681,-0.00356021554723171,-0.00938885639240528,-0.0241833035451337,-0.0137140458656098
0.0138806345427879,-0.0132167784451046,0.0193422998457028,0.0172808909304329,-0.0166717281138944,-0.0117844005811593,0.000266113737044946,-0.00571281282642221,0.00460618192958415,-0.00697644295668609
-0.000531216778978149,-0.0131666560056401,-0.0153133407571926,-0.010111876141448,0.00392225100871804,-0.0162208058676802,-0.00278775530485959,-0.0130810657712356,0.006439089546026,0.0100765638569268
0.00281855836962959,-0.0147944756936005,0.0174914573229465,0.00836000695159294,0.00331133135406347,-0.010526064148362,0.0158518617613268,-0.00680858949449948,-0.0164764634309355,0.00372746177008626
0.0131901050148728,-0.0131190747052811,0.0225294855733797,-0.00879991236177151,-0.00817500310754627,-0.0103114389366332,-0.00401735848195007,-0.0113325710099925,-0.00963214549583734,-0.0159048803862354
0.0142463278737318,0.00430525927722677,-0.00583587264076984,-0.00131155508277689,0.014785058680669,0.000241014695852546,-0.0190487462528488,0.0111977141990994,-0.00721716373429102,-0.00698526572940423
0.0031774900761907,0.00733750343396329,-0.00620519276156018,0.00470429366316949,-0.000816754509255814,-0.00524865060408036,0.0121937900161216,-0.0121281845412319,-0.0169924132713321,-0.0162422560237531
-0.00358356696988191,0.0172933096124255,0.0121905715864506,-0.0202072087358868,-0.00610010004004674,-0.00503873124535578,0.0094367907830106,0.0153776220802511,0.0173049116415963,-0.0183710588256252
-0.0152175008003347,-0.0134701336257994,0.00173554902592944,0.00300104765656408,-0.0165098523826195,0.0154777172197351,-0.0220123149915005,0.013016741281735,0.00116492751949484,-0.0152760321054348
-0.00306670082383252,-0.0111771413145776,-0.00960486859455907,0.0190745993328231,-0.00364742993140053,-0.00996708947639381,0.0162229352414546,-0.00963939426235432,-0.00754327444852506,0.00426431783279347
-0.014877218925383,-0.0174794626529419,0.00541409990959369,-0.00177656460908502,-0.00693984356737178,0.0137020738564457,0.0115966666631887,-0.0130977175051549,0.00682694714416462,-0.0121547652555518
-0.00314119112992087,-0.0186716883963368,-0.00438422104917753,0.0195050556544308,-0.00229664243839487,0.00572667983426234,0.0209651834573936,-0.00366861404430252,-0.00786295135568092,-0.00836808976185467
0.0107419460523719,-0.0154167832107506,-0.0203475492952038,-0.0144930195330942,0.00181258002339249,-0.0129241950117003,-0.0123090258258408,-0.0177669052173235,-0.00552173948191613,0.00761745754863574
0.00699864523062275,0.0140044896529824,0.013029857348863,0.011326238840486,-0.0185885733697877,-0.000766467614126845,0.0119734124369052,0.0119500953272147,-0.00426172036803116,-0.000979927343836982
0.0174368567413852,-0.00566477854431247,0.000396038938613221,-0.00231041917045926,-0.0158656870468948,0.01342316289196,-0.00835255506031104,-0.00577170915513551,0.000726074162051804,-0.00746147191824457
0.00588051149691819,-0.00843751219981118,0.0184236464666192,-0.0123020477165541,0.0163011875624859,0.0132492943485782,0.014973688589813,-0.0121676467527078,0.000128034795474807,-0.00351864931035466
-0.0174490481299271,0.012632646958883,0.00584034203630575,0.00509318655387142,-0.0102332092507999,-0.0207281385572228,0.0205841202241444,0.0143952572492502,-0.00435835550286729,-0.0198259671448911
-0.0173867291866733,0.00135570469985467,0.00690125745513592,0.00729790752058669,0.0147358220312563,0.0130978043486269,-0.0232854208278791,0.0196098750977661,0.00292762208571821,0.0104716937366608
0.014846995796381,-0.010375245489207,-0.00378026906659062,-0.0127550171956994,0.00482636475797125,0.0132363336107663,0.0140854623236798,-0.0103532478001741,0.00889407633117071,-0.00310134873629906
-0.00609569257165609,-0.00728455574363282,0.0181389645472775,-0.0013196982689117,0.0088061933996969,0.00590536472548839,-0.00534244585415757,-0.0120387463175746,-0.00354544476532154,0.0130435197289295
0.0128296713351876,0.015091367955131,-0.0149693410223277,-0.0074601436427101,-0.00619578908716318,-0.0175856534119268,0.0115984724004254,-0.0123727502185833,-0.0189953352134207,-0.0103412398376791
0.0131912457631989,0.00250874199587329,-0.0120395856758819,0.00283061851341001,0.00283600976743366,-0.0118876877658372,0.0174260805332705,-0.0168454415628238,-0.0215825664332369,0.00803301721646944
0.0171011068995069,0.00908031263378041,-0.000666595160376981,-0.00417714037944492,0.00816096478437033,-0.0222590017882058,0.0116525794151168,-0.0200156870061057,-0.0212308346038446,-0.00726501486012983
0.0152675698072318,-0.0117884968344789,0.00742109387042658,-0.00206765469373859,0.00101325416666039,-0.0115752808701386,0.0109957993033453,-0.0048485849803329,-0.0045291654871349,-0.0149453297492328
