0.118606140711782,-0.0960070393495694,-0.0320278755437526,0.134464169736373,-0.263874610769495,-0.0715934178921473,-0.462516994775689,0.49864750577073,0.387509087818249,-0.0587185464997151,-0.46951606620782,0.142210909686707,-0.0698118194048871,-0.225349914752212,-0.0813861048087098,0.296596772308845,-0.146080637735521,0.0635194562365648,-0.0353258940899629,0.235182775427807
0.00707345881233443,-0.00193346269663813,0.00967741133661615,0.0185418526013967,-0.0226270964370388,-0.00478514827419481,0.000891073082900293,0.00607434127787921,0.00899578637199108,0.0117360112570493,-0.0290944205218994,-0.0135068971123979,-0.00217949622320441,0.0164183093701649,0.00500251790145599,0.00353598035348274,-0.0109932140056028,0.0113849346220693,-0.00889175594028144,-0.0275015174251328
-0.00112461586173071,0.0117241896032881,0.0259392159021646,-0.00110138083158602,0.0123281207344082,0.00494521732063154,0.0107795099112986,-0.0202936105023869,-0.0058029009100074,-0.0015128273654492,0.0103084909669653,0.0187183030707993,-0.0119334364099162,0.0367033880927622,0.0176823876453823,0.0177317892057842,-0.0103696579222086,0.00072789094473107,-0.0146137997031564,0.0262685855181189
-0.00616442104157307,-0.0226209662370332,0.00797923897481638,0.00234287110026823,0.0263111229390472,-0.000223856027031964,-0.0209332918567879,-0.00907250824972841,-0.0037029004565045,-0.000774818185646736,0.00343801351903022,-0.0124586153777668,0.00251935985887731,-0.00428271756374435,0.00910910898721608,-0.000257946368234951,-0.000715417989527963,-0.00767196226687789,0.0118841662441474,-0.00670064197707454
-0.017458344206874,0.00929927071134074,-0.0116911075737715,-0.00103845101338038,0.0135137955228126,0.00430594673824427,-0.0110338633565845,-0.0250070032685766,0.0135881708501224,0.0217838168632602,-0.0071639586725372,0.0111687785633535,-0.0144852298097268,-0.00442256845693714,-0.0336494925123228,0.0158461504200786,0.0258133413149373,0.0141724660275002,0.0139876312714887,-0.000876347547630764
0.00990612471233098,0.0150696201594737,0.0172496368157899,0.00761219479400356,-0.0021632321675956,-0.00707702953823582,0.000489890743218645,0.0177854887371771,0.0160680118563756,-0.00378557086676512,-0.0224741500527802,0.00792123195097443,0.0136494612026447,-0.0144531374776026,0.00605025278838324,0.00774840986338572,-0.0101531590618255,-0.0128763171896915,0.0245554213074776,0.00203093497635302
0.00632950371311184,0.0080118071219743,-0.00193637362624785,-0.00440106823111499,0.011841053137014,-0.0135505267358105,-0.00169981021392522,-0.0133127040124902,0.00177150297048808,-0.0181721678457882,-0.0147400357933369,-0.00448509448708449,-0.0073712984183249,0.0200381965138311,0.00922030296484031,-0.00653484560734901,-0.00242974552130363,-0.00327469576861182,-0.000580055708187241,0.00144728557322568
-5.98817708335142e-05,0.0121403458651509,0.00901213536649414,0.00252252943037582,0.00153102420457822,0.0226682125688944,-0.00233647745845474,0.000308722586938812,0.00333787058121036,0.0243106251847201,0.001417817203986,-0.0181990539276453,-0.00277262090821237,0.00486421855021747,0.000784856964924004,-0.0118747558020228,-0.00554719569141986,0.0030493294843459,-0.000387701148302894,-0.0104569050132663
-0.0234682468829895,0.00767154014677619,-0.0010986722379475,-0.010788262177127,-0.0214012319273243,-0.010953395473363,0.01931618281236,-0.00806144312070138,-0.0128866287270111,0.0207228828045286,0.00503781290274156,0.0115404529042189,0.00812506748045153,0.0313959147814719,0.0218509650247122,0.0123148987486183,0.00286203000940872,0.0341574914614538,-0.00857997058520686,-0.0175131508002078
-0.0113999892336193,0.0146035470573582,-0.00797299204203837,-0.0084900707061593,-0.0135554519417954,0.00975956903759461,0.0147654365754082,0.0175398079406326,-0.0195250572102809,0.00859471423652166,-0.0138665930351227,0.0157560391058784,0.0218952317708886,0.0197734186956802,-0.000647853607876205,0.00491549152716024,0.0114014969678834,0.010269448412562,0.0019970922190632,0.0037811028143792
-0.00441737797302832,-0.0268132004808438,0.00788760158867996,0.00752502299798796,-0.0261128138190386,-0.00950244622109497,0.00426829315994936,-0.0105418567586042,0.0098000287537897,0.0120030848836501,-0.0176232835282873,0.0197469412895221,-0.00149214697750428,0.00919469821569468,-0.0104571246386537,-0.0118840220435057,-0.0141054592268156,-0.0191002597174653,-0.0254078278556998,-0.0040794138264012
0.00323272240447151,0.0175148178735992,0.00610412549021221,0.0161572525435667,0.0215875164732384,-0.0205207243820802,0.0133937547416232,0.00718561618096581,0.00519562193903334,0.00422416341174568,-0.0154191709335437,-0.0173677980408304,0.00276689162117338,-0.00152366523647716,-0.00452634445729183,-0.0103848781530767,0.0240725236799687,-0.000524734046366691,-0.000404697841686824,0.0132440472042312
-0.0313412261414944,0.0200986175079082,0.0158901148833954,0.0288096902176458,0.0142989569740098,-0.00973099768276436,-0.00896082030625988,-0.0203388001460003,-0.00396316414788316,0.00567929763265052,-0.0141941239522047,0.000708415051113964,0.0224413941097785,-0.00826897481187222,0.00284742190122682,-0.00699426260761918,-0.0188203818512438,-0.000918697516812055,0.0194102300650007,0.00848513079893566
-0.00867730783735801,-0.00978825381792623,0.0275663517106307,-0.0029003315949312,0.0159401700636229,0.0101799779723214,-0.00790329383949248,-0.000812883839021775,-0.0143241687786629,0.00236089768076858,0.00113734515508225,-0.0187935194320575,0.0207859485047304,-0.00491357367014255,0.0150327583730865,-0.00932471088317154,0.0134212701047528,0.0129084587324225,-0.0280431777015968,-0.0127985460049998
-0.01126976750423,0.00877628835392722,0.00245304879528273,-0.011226638672344,0.0178032458620848,0.00520342877568689,-0.0022703905532383,0.00588367931641425,0.0155497734321117,0.0102948852453931,0.0116950171611503,-0.0279551805143917,0.0203168671111572,-0.00555881663249828,0.00552226614659263,0.0188545659982043,-0.0119494859369733,0.000218471230861333,0.0209118282265067,0.0075783683863839
-0.0102849730512523,-0.00460926603099917,0.0165708697246938,-0.006495218581587,0.0142844401860624,-0.010874044279034,-0.00106591407337103,-0.0183355349406022,-0.00837386778771779,-0.0190420611978876,-0.000241805906652557,-0.00315611184879737,0.00581481164739656,-0.01340891316335,-0.00888242055471341,0.00390559220924978,-0.00188896197910886,-0.008096921722544,0.0211796270335712,-0.00966899131487145
0.00320939247776054,-0.00371269061184257,-0.00561416606985007,-0.0186882967050835,0.00498331035463141,-0.0190157244375876,-0.02734309321787,0.00305573129955301,0.00519634546247896,0.0051857605352429,0.0156305163304419,-0.0214934749302762,-0.00614896092328391,0.0130237326837619,-0.00623702883516378,-0.00735203217872744,-0.00604904298579749,0.00574476310880673,-0.0116666061203456,-0.0330786166542834
0.00535112170654404,0.0233555335325604,0.00483499033176905,0.00475648261063426,-0.00507060684435895,-0.000721366640729906,-0.00844373737779803,-0.000874750202515238,-0.00784811937284972,0.0127413996102899,0.00904878165040451,-0.0181783846485676,-0.02486028825088,-0.0137434539358529,0.0219227718620851,-0.025665840259656,-0.0218435845444899,0.0103942352527449,-0.00437868199917978,0.0184258386956621
-0.014164931546437,-0.00315396300499067,0.0167314742312986,-0.00251805364445629,-0.0142854790692539,0.00854026175426532,-0.0146313161481244,-0.00907163186329527,-0.00431217014815798,-0.00736070828083501,0.00432951741136157,0.0026863272895771,-0.0237249139583804,-0.00651628145592644,-0.020820845957156,0.0063376826428581,-0.000408303943152213,0.00762808215759216,-0.0131560618988658,-0.0129272848878211
0.0286535088549313,-0.0251897168798005,0.0204341702809973,0.0107202563121248,0.0262706068719867,-0.0121461510291908,-0.00706933062325785,0.0143948749014007,-0.00577791651069052,-0.000186802366010291,-0.0125003344398618,0.0110308823491531,-0.00152043004347455,-0.000323835502435315,-0.0150929202212493,-0.0120314481046582,-0.0122130872139923,0.0240833407707625,0.000781421291259572,-0.00838685925883003
-0.0144805400197215,0.00752723132272986,-0.0186341732344544,-0.00396816979142138,0.00591414650076884,-0.000368805618603691,-0.00143108487075742,0.0102283773822784,-0.0213426048312706,0.00196547436217576,-0.0044382134514009,0.00713148739919091,-0.0135837439925561,0.00274599211506012,0.00189114697762545,-0.0137232508984689,0.00930296736006623,-0.00673704728125043,-0.00211532552939374,0.00114670359481368
-0.0174083255818403,0.0105801082673191,0.00895406548567317,-0.0106086217981,-0.0114795612221233,0.0126852173942601,-0.00439530780281268,0.0135404578585316,0.000657955434889076,0.00846535539829928,0.0109880737737926,-0.0132824189014082,-0.0145447921774465,0.00609130325913688,0.0130048050595278,-0.00499577946068625,-0.00498197568003461,0.000396516728605999,-0.00487330586789651,0.0021548135460306
-0.00235985602617279,-0.00190558944892883,0.0196372120718122,0.020672875320531,0.00111009132399178,0.000574414693555385,-0.00569817516838351,0.0215835992933226,-0.0119815570308235,0.0084184305880533,-0.00122877349635819,0.0122942424240563,-0.0102482671926244,-0.00548963741992333,-0.00945029952930925,0.0134405932695656,0.00355897559630556,-0.02370655635715,-0.00951598888456587,-0.00966476457265442
0.00177296780485107,-0.00200936909122447,0.00258884431123158,-0.0106508777016542,0.00236934800898949,-0.0129229406469988,0.021986069491031,-0.0119960602175635,0.0117153787954274,0.00666654454958213,-0.0149623380848011,-6.56182771110403e-05,0.00893949961338439,-0.00453291401163299,0.00210709058429154,-0.00680359157336233,-0.00375791416874276,0.00599050731727396,-0.0121574526332141,-0.00422861295756938
0.00486667535321591,0.00515893237893133,-0.0135860205137694,-0.0162399043456732,-0.0165132721958696,-0.0127684860957155,-0.0121090344299223,-0.00180998896430745,0.00300881128167877,-0.00904457389079776,-0.00220666722803601,-0.00239746306072813,-0.0273796568721007,0.0143597420803972,0.00884391249566305,-0.00350514265127883,0.00790499252739823,0.00731141323982937,-0.00365739415745839,0.0181552553511866
0.000970380772404381,-0.00135340032700933,-0.0209720246576822,0.00428938670656359,-0.0180704986374795,0.0226667407092768,0.00194248063512246,-0.000803784214314632,-0.00298049501308139,0.0245020118818363,0.0125096522134144,0.00367259606761579,0.0252605748639235,0.0118427021127781,-0.0184860993871515,0.0155726209052678,0.00649966346501494,0.00563436173721267,-0.00928535187387526,0.018238007822579
-0.00478966779899828,-0.0219550993462144,0.0151856731099358,0.00518784114803256,-0.00521034393477448,0.0164571373937247,0.0308529909456664,-0.0134217173633032,0.0111501628988362,0.00392505794535022,0.00840155723749443,0.00441289036156952,0.000937776538997101,-0.00402446772701694,0.0101502507147159,-0.0164590853080578,-0.00172544968064744,0.00393965979103102,-0.00965554320370911,-0.00290532822919269
0.023287646620798,-0.0056027376475751,0.00635406168585435,-0.0190412893869053,-0.00747150553986439,-0.000848216168506306,-0.0174510174583789,-0.00852853543643477,-0.00600364399158215,0.00112748411216335,-0.000472957926667814,0.00723467409930393,0.00409142276034701,-0.0258507745889847,0.00768157174249448,-0.013644462273534,-0.000586770545394317,0.00457065735984879,-0.00591103597839462,-0.00755889892461645
0.0146995606842133,0.00402951748515307,-0.002047639894039,-0.0190931689383125,0.0116573011318834,-0.00712614940198784,0.00450033645505043,-0.0190893940050178,-0.0143117646128507,0.00897205369657585,-0.0133307204261752,-0.0204718259831505,-0.00983173443356466,-0.012889440876429,-0.00542517254406947,0.0116680581520829,0.00100953846480674,-0.000797526395821801,0.0130308274678495,-0.0039849297472281
0.0113060700157768,0.00569294472248617,-0.000377484557325313,0.0149555653671843,-0.00967069796590121,0.000314775330363912,0.000520453583340916,0.00326476238963104,-0.0123455799797722,-0.00833613288766905,-0.00226254948791814,-0.0093343388600995,-0.00618957679217545,0.00260142387806327,-0.00851094095774523,0.00550831330430197,-0.00792265041766707,-0.00260488954535608,-0.00061289553357493,0.00991690983217856
0.0075604770588731,-0.0244029573817451,-0.00829327749692735,0.0153279019755525,0.00310780158972555,-0.0198227319410283,0.0140108138849163,0.0117136647862231,-0.0178544064576427,0.0080113964125827,-0.00538619483648008,-0.012219240923936,0.00308737809824433,-0.00591786423372338,0.0187324673877631,-0.00170721086554763,0.0152294213754733,-0.0129909897686727,-0.00893404333923213,0.0223905328340244
-0.0191257266120498,0.0061905258900399,0.016948842375659,-0.00228858682053481,0.0101656738535581,-0.0170568144722352,-0.000804149468009749,-0.0145006877926753,-0.00398582517737649,-0.00331531886255062,-0.010155856349305,-0.00714824321826585,0.00361375865046349,0.00780339345906132,-0.00693777918401273,0.00101183953901099,0.0141550901215096,0.0179765843326032,0.00627046886353936,0.00350541664006187
-0.00126661219841092,-0.00297207440211506,0.00530337706509611,0.0122126089119198,-0.00224081620005962,-0.00856067829892136,0.00243090333394651,0.021494211050067,0.0222542829732408,0.000858354926578516,0.0139082376103979,-0.00763826043999976,0.00333596753860382,-0.00469382513559907,0.0189116721519173,0.00473920333276958,0.0181180407282037,0.00703972103548578,0.00532419263108609,-0.00924903660118925
0.0240014915562357,-0.0274010330484479,-0.00987409119639907,0.0189141530999021,0.0185583115530832,0.00924518460153864,-0.00301539024775019,-0.0195353785840972,0.0217278534582617,0.0109385575353364,-0.00354601944412245,-0.011485495875156,0.00904790944384435,-0.00742069228388228,0.0222994660626332,-0.0105258997805694,0.00803736151008428,0.00291678801660944,0.00015237592780124,-0.0133934093438333
-0.00548836214333231,0.0119453888421941,0.019168167769646,-0.00800824179263553,0.0103572209277367,0.00186836817515455,-0.00677687176630535,-0.0139147570236804,0.00841929072811649,0.0151334076566082,-0.00149319724644866,0.00580272677094532,0.00291970696853073,0.00599194870952178,0.00364082290930163,-0.00649411237513644,0.00244265778083271,0.0021059012998125,-0.0155037361779769,-0.00994852157708586
-0.00144836806764233,-0.00476022052906879,-0.00340160709987549,-0.0172871812630382,-0.00896831744497097,-0.00804905647800799,-0.0168439228084278,-0.0238540724585778,-0.0211359918767337,-0.0194479062793995,0.0141387898694772,0.00641595123836249,0.014841813403611,-0.00758814999899073,0.0238205474455058,0.0115634840443535,-0.00513882607376997,0.00273931789957795,0.00382675815772889,0.0133699489870502
0.0182252362764663,-0.00221707441551651,-0.00898215550666349,0.011093714138337,-0.00536115278205555,0.00309512992925855,-0.0164685462833145,0.00891059852702959,0.00606665886051209,-0.0257102844817293,0.0120471375072344,0.00968805274078696,0.000767774928962262,-0.0188032329570407,-0.0145688767913927,-0.0189558586309004,-0.0111092160219749,0.00991764308634013,0.00210271712818875,-0.00318793011709427
-0.00877884975594066,0.0202746083202326,0.0007900371261578,-0.0165928849913055,0.0200191026481026,-0.0100169262069513,0.00700959606387274,0.0181329764119808,-0.0120219339310414,0.0154791162559951,-0.0322393722466365,0.00731317748917074,-0.0137348794694237,0.0072204063496359,-0.0158686581858542,-0.0224625929366294,-0.0297629917453037,0.010135505181391,0.00487213653151932,0.00666011142207953
0.0242294841277198,-0.00200508296264661,-0.00994544880369522,-0.000249723885986404,-0.00715066611260867,0.00899905801890098,0.00806371440911673,-8.16104188389996e-05,-0.0031624663108723,0.000304821439364009,0.0179299366521456,0.0288695236298113,0.00148130400960783,0.00879411873552404,0.000472295219979368,-0.00404692840183399,-0.000803477616237255,-0.0270520337756108,0.00348305265158385,0.0157602463523012
-0.00192274884569462,0.000246025296249187,-0.0129891340574789,0.00372074545153061,-0.026666314332029,0.0126928719539582,0.0226136445339849,-0.00300466940958684,0.0195203254121989,0.00676990054894665,0.00698261582159049,0.00550286505950159,0.00112725284169542,-0.00638314465811822,-0.00849492832847433,-0.00218371690895906,0.029462176007912,0.00138582200022882,-0.0023986764558333,0.0138268760859523
0.0023937377748699,0.0122282527374669,-0.00257010976044633,-0.000327258454401002,-0.00165877863397403,-0.0112040103757838,-0.00183682403474228,0.0211601097924413,0.00854234223972762,-0.00055175171497419,0.00960138362241218,0.00464407681246456,0.0103955180072731,-0.00219620171767453,0.00442559028774065,0.0240123433749233,-0.0144576705874589,0.00932712260261972,-0.00175185264853756,-0.00939790427257372
0.00536098226781048,-0.00418970232945748,0.0239057757174424,0.00189796790290309,-0.0133881836797906,-0.0126912997498202,0.00499766705524026,0.0120051157409054,-0.0146776959387428,-0.0183307406348623,-0.0153324280096418,-0.00649747068901141,0.00384549248331251,-0.0168491113985499,-0.0134731730755062,-0.0164672090569699,0.00193956811637581,0.00203031189592422,0.0164406206901251,0.0157962547527548
-0.00880535631889794,-0.0136665795782125,0.0144104987672631,-0.00535349072850675,0.0042522160089662,-0.0161069744113464,0.0100253376452624,-0.000243321913387209,-0.00269805774456797,0.00322238336290481,0.00443501513450991,-0.00400474930699666,-0.00916122690754211,0.0023468142708442,0.00966005070127121,0.0126218727059305,-0.00240941157865873,0.000470353405190273,0.00486371943183118,-0.00298460451647839
-0.00449669686383525,-0.0120076643774496,-0.0106078306788396,-0.0131984714729138,0.0126178614123455,0.00835464293116691,0.012961059279828,-0.0148662992844921,-0.00754339294213672,0.0130192278085421,-0.0166232598254473,0.0178876859459869,0.00907775212604838,-0.00866931279306745,-0.0155775980186925,0.000534619178550277,-0.0013744906292267,-0.0193229690390837,0.015318003786101,-0.00100580895975458
-0.00739154549176976,0.00604547148936337,-0.00172452520086222,0.0139245318939654,0.00653069446535689,-0.0134558361652475,0.0151514628604282,-0.0132181940280287,-0.0200968460730793,0.0131834491494296,0.00373818058862708,-0.000248355250204199,-0.0130503962712356,0.0293661221417554,0.00870349121939891,-0.00315587198635002,-0.0183262490793089,0.0170924505243222,-0.00551061830848803,0.0135111837460437
-0.0145938842686341,-0.00702479753013853,-0.0163721237802821,-0.00282861218999805,0.0166692513110081,0.00856684079209861,-0.0170219876482408,0.0379597390613982,0.034093259988356,-0.0112397628857183,0.0119939499986279,-0.00558683653791825,-0.0157549958236867,-0.00708888628400504,-0.00672994501140236,-0.0274097367451043,-0.00789230992271129,0.0135393864159646,0.0205836175465564,-0.00968763410840407
-0.00911906123362425,0.028834018330421,0.00859868028921628,0.0192392068800278,0.00322815225157753,-0.00317778751141611,0.0123779297879442,-4.46513673428191e-05,0.00322022803197524,-0.0126801190693291,-0.0156070092332232,-0.0120309333573419,-0.000540847600361004,0.00337919383783966,-0.00244259392710691,-0.000810490449006281,0.00272389289500874,-0.0204393727084822,0.00486483566626107,0.0202516746368506
-0.00101658013229334,-0.0137647725296084,-0.00375789252876212,0.0154139445623008,-0.0192604839140779,0.00188862820527308,-0.00278989257548226,-0.00453330487714627,-0.0140157009098765,0.0214341486140779,-0.00401868850623592,-0.00178346653024095,-0.0115136944546459,-0.00093258474130046,-0.0140953176130444,0.0118532461249027,0.00425219617956961,0.0128929344994242,0.0173953412469874,-0.0107003368872658
-0.013295868297884,0.00925163988545044,-0.0173469596216288,0.0076822007398635,0.0171868898828331,-0.012093079469887,-0.000233982103811631,0.00409267875920463,-0.0142967186805578,-0.00837416731466385,0.0119009116097779,0.0162130034318878,0.0179308244572579,-0.000239631124417334,-0.00658032253963568,0.0157532114610013,-0.0122667045598763,0.0185239220079994,0.0117539715001391,-0.0029082541069043
0.00451440821552173,0.0105301654884427,0.00906000512479955,0.00296858308650341,-0.0154403458933998,-0.0207856382608554,0.016574530512004,-0.00894273278285303,-0.00770193022565808,0.00511988102845262,0.0128998768426861,0.00321199478334779,0.00865443796188274,-0.00910230376398389,-0.00948717912948523,0.00333697212361913,0.00455111385314318,0.00434591029004663,0.00376869349184961,-0.0123011898098162
0.00165027512750935,0.0117747889445055,-0.00379869060427138,0.00272381772767783,0.0114855297569887,0.0101204887082094,0.0102731817986652,0.0115245972213837,0.0213734718829301,-0.000450307446694869,0.0116892796474101,0.00106134101665631,0.0178162780382424,-0.00244122784071108,0.0135743971977309,0.0135449728946136,0.00958891403731293,-0.00550159451501255,0.000663999718568883,-0.0218070046517402
-0.00215584805724848,0.0069380360434302,-0.0227901390353342,0.00135906647457104,0.00458211790636192,-0.0256119393676867,-0.00248708995171767,-0.0241175925013657,0.00737212236282229,0.00768269364893838,-0.0135807298810645,0.00836751236966913,0.0208164623009829,-0.00207711535966876,0.0242408914949561,0.00537342877774888,-0.00866224767536887,-0.00798749068968516,-0.0130537129321666,0.00162773715824775
0.00773642917380594,-0.020988915341952,0.0227866217275961,-0.0214300411364433,-0.00174957239399943,-0.0120365805832449,0.00199659799259447,-0.0191169315102148,-0.00201618692709549,-0.00191114029270017,-0.00659785515631672,-0.0245096206420312,0.0165553830524714,0.0374396750084789,-0.0167982138692958,0.0144764381343906,0.00059223697876323,0.0125206320752321,0.00749729885389168,0.000344114361370848
-0.0112664392710637,0.0134967206027076,-0.00397749533064024,0.00244123850945115,0.0212937845109168,-0.0227400479940172,0.00110444188856471,0.00241856947529532,-0.0236715739847875,-0.0190438779403025,-0.00665359067044711,-0.0194249033012097,0.0117871252368226,0.0218375192644963,-0.00985383936320794,0.0100605196283004,0.0114509771799524,0.00728105059965839,0.0166894436026202,-0.00747558858531184
0.00147190588407755,-0.00789982662001447,-0.0095568633191214,-0.0064166760741979,0.0221565641150799,-0.0172967649013052,0.013193213899448,-0.00759771124931505,-0.0176764254083013,0.000140960559776705,0.00683993745695497,-0.00371333441186683,0.00608270090001163,0.0264207454909197,0.0131815782757771,-0.00499789923823852,0.00654839166903869,-0.024362156790522,0.0138710861839432,-0.0057543026057807
0.0132081261194159,0.00732883893234338,0.0085738750479655,-0.0200924427894107,0.0040229019797563,-0.018331451939862,0.00487227567223645,-0.0217210468604061,-0.0205823203885369,0.00179642793422744,0.00239835370493604,0.00532570605018266,0.00672086174145408,0.00410434703707066,0.00851573752370869,0.000433318711969578,-0.0148324861502638,-0.0103635939531413,-0.01171638611685,0.0176692837188328
-0.0151112987195105,-0.00747922378115596,0.00820588101641577,-0.015636349737085,-0.0069833932869231,-0.0224458480256756,-0.00867474578243508,0.00981653132334203,-0.00735082880391555,-0.00893966821077482,-0.00329275983467021,0.00647201289040082,-0.013224623532033,-0.000558479133525196,0.00436216334505974,0.00298558907145249,-0.00470455283026092,-0.00560887292367705,-0.0185371466604988,0.0122707695779649
0.00296553739053344,0.00798746180797753,0.00253880174982911,0.00282910240540019,-0.00181778131945213,0.0290355118526206,-0.0128645797142704,-0.0199109574176675,0.00286003060379311,-0.00697524964501385,-0.00737762090701088,0.012581674814457,-0.012257608952423,-0.0133866379606622,0.00402438676004865,0.0108841063123506,0.000631156952885968,-0.0223753443339804,0.004674861368571,0.0101206152752361
-0.0147913195227726,0.0148912481814057,-0.00121928502825133,0.0114209457622154,-0.0122782634095352,-0.0173664560771275,-0.00464948206524058,-0.025951834469226,-0.0127167502245598,0.0054566200099482,-0.00599295587778682,-0.0124335695447971,0.0136826253696783,-0.00195884688541848,-0.0167829652170094,0.00333797231098479,-0.019744489502976,0.00819852752814162,0.012025239774676,-0.0214558888142924
0.00529442943814426,-0.0172383831794281,-0.0137307280176667,0.0148294327449509,0.00597376886397708,0.00687242253802605,-0.0153760967560531,0.0226525446983589,-8.99430808360559e-05,0.0246352286695967,0.00012810168140424,0.0119026702173097,0.0025735187614665,0.0127889205745754,0.00423309899329391,0.0171715215598506,0.00247538094055506,0.0112112570414088,0.00568289895462335,-0.00133620258332534
-0.0150340464976566,0.00491430065738906,0.00478909713680215,0.0124068175184422,-0.0140235181021146,0.0167022444081058,0.00286317200332798,-0.0126760036348613,0.00894504595062494,-0.0177028750116285,0.00842593578115287,0.00164176851362934,0.00788991352197377,0.00434942853729561,-0.0135886409523957,0.019180094801649,-0.011029264311036,-0.00496509861304756,0.0240374409702836,-0.00983280393869368
-0.0167676149310371,0.0133431571934982,-0.00487672516846724,0.024708929124384,-0.0281691721927509,-0.00715234332823116,-0.00140047605393965,-0.00539842897745379,-0.0014162312829005,-0.010650124487625,0.0141072959408632,-0.00558960410022995,0.00445401584582926,0.013023360082639,0.0175478185868254,-0.00189832907926248,0.0150740933244637,-0.00525266522218253,0.00714851347797068,0.0189995155209957
0.00349942566019879,-0.00954961339901131,-0.0190190735182847,-0.0282681605219929,0.0105316936732746,0.0243791680324064,0.0219891523254816,-0.00907280901579404,-0.0129797926075413,0.0139568739460445,0.00429185398143054,0.00120592216537967,-0.0107448261912873,0.0105269959829113,-0.0119569218348018,0.00224641993370383,-0.00364432348069352,-0.00826867111391882,-0.0231536655266742,-0.00190848337518364
-0.000152722899480017,0.007628035054303,-0.0272426494287754,0.00277125242053154,0.0122050490800899,0.00396689489596952,0.0137613388688272,0.0124432473430975,-0.00511074830129315,-0.0109836981634259,0.0088895315168139,-0.0106979371977116,0.0130838848475624,-0.0307253424878851,0.00463980112616924,0.00810976519365629,-0.0133027555196028,0.00568866137004002,0.0165257231030276,0.00973993181873687
-0.0244764694822833,-0.00229037646792838,0.00752199663455998,-0.0133572784977904,0.0114961981849206,0.000396205954521369,-0.00207484620567472,0.00466177557721345,0.0183965492437735,-0.00589281699400663,0.00029226023104425,0.00763938240927319,-0.0121211019836896,-0.00750705216580187,-0.0128795858792062,-0.00440018527300638,0.0151239244611605,-0.00882539158382889,-0.0234257197393161,0.00975144964944684
-0.00278137167874645,-0.00439585003575322,-0.0105286359238596,0.0122990148295489,-3.42664478204871e-05,0.012140133926833,0.0164295209731184,0.00870970023597976,-0.00263402407231916,0.00978855448215502,0.00876948213986386,-0.0167661400342829,-0.00599030234123988,-0.021229503314901,0.0246479551194484,0.000195085826064511,-0.00221361752122216,0.000238210531007332,-0.00609231399217399,-0.0115442253449927
-0.014616715885038,-0.0132907214353497,0.00902526842362594,-0.00226775600724054,-0.00535830666491739,-0.00408923150117989,0.0133331281207178,-0.0281229170342543,-0.0149657358288408,-0.0121777857791182,0.00168017509963791,0.0278712161500034,-0.00202476084629017,0.00687324412984707,0.000590282097504616,0.0190182715402083,0.00832622290369627,-0.0267973650789264,0.0159636448263158,0.00581310241009808
0.0230275352381049,-0.0186490167199426,-0.0120571415594788,-0.00376713738016517,-0.00583934206450235,-0.0119229518193734,-0.00791792487990247,0.00959078918855325,-0.00918511052317077,0.0354056565556371,-0.0210615198253361,0.0102117112119654,0.00100998447286359,0.00304766610677461,-0.000682012214705122,-0.0100622298905493,0.000818499374262619,-0.00471278807278853,-0.00874959430282788,-0.00647548517029219
0.000293382953334843,0.0133864259974763,0.0138618210203738,0.0100828051931534,0.00575980888889459,-0.0293375844354562,0.00508289729393278,-0.0103099277883495,-0.00471682002425042,0.01817029947896,-0.0157618295237781,-0.016730433244809,-0.00642266581994514,-0.0146661200368789,0.0158289143486445,-0.0176425577213378,-0.00213905952308214,0.00459241161461751,0.0106184098399493,0.011240685094977
0.00142564852871608,0.0155950894048442,-0.023509605554374,-0.00210306671009244,0.0153750305814858,-0.00831902985135649,0.00912595992715456,-0.00784041980470997,-0.00890452719378539,-0.00973691825636683,-0.00822624925105058,-0.00118891900054097,0.00816890041393641,-0.00556842654382859,-0.0159242738382346,-0.00457972312319526,0.00867821553625465,-0.0192156282282086,0.00215042797775355,0.00656725742708212
-0.00637436735680158,-0.0213865601199857,0.0188851343404338,-0.00193383956045981,0.00149424431496511,0.0138160269459227,-0.0162808632316142,-0.0100961009197744,0.0090933298038791,0.00612472664661475,0.00142895331410751,0.00637266265290426,-0.0047145793458273,0.0197658120990362,0.0097448009867284,0.0124827161971756,-0.000267022913665835,0.000477292916724276,0.0100974482130816,-0.00966877723953479
0.00782158965458581,-0.0084540730154606,0.0209027026019624,0.0194092187379509,-0.0231162732366352,0.0109933818265008,-0.0260340750409981,0.00727890350700412,-0.026366498175433,0.000309827957973603,0.00396639321996665,-0.00999398353681188,-0.0175970346499074,-0.0117873843262718,0.00284941459375854,-0.0125189144233432,-0.012873403195246,-0.0123097534086097,0.00558638271058596,0.012255079737685
0.00231873270899698,0.00235750492981729,-0.0117205040676996,0.00434577847868056,-0.000493640604487829,0.00157431128526059,0.00644657669517788,0.0112798100400147,-0.0313148895848621,0.0205346716103227,-0.020387789249724,0.00641160947644139,0.00798644444357386,-0.00322962794672469,0.00158241976905886,0.00257831419406032,0.0143363947299255,-0.0106719696753064,0.0182403479450648,-0.00277277844602879
-0.00145927435395431,-0.0126441303493546,-0.0130630493375153,-0.0139375720037584,0.0211532753098283,-0.0088991548191122,0.002492276113605,-0.0131681315505673,-0.00465925910664621,0.00388431659967459,0.00559257660039026,0.00565544281770897,-0.0204078143636791,-0.00582322653930691,0.015733982726011,-0.0131782632873077,0.0172064456918987,-0.00881521169522254,-0.00298435665031013,-0.0110141813260503
-0.0221077268951614,-0.00172153169207943,-0.016755788670236,0.0109114685219196,-0.00615249581849885,-0.00195486673148338,0.0186605394576377,0.00731355701681328,-0.0269087999877212,-0.0279622807252738,-0.00650764956225208,-0.0344040890639101,0.00636562999535053,0.02675495142364,0.000444798801830017,-0.012934004633918,0.00661916621465567,-0.00171879616649765,-0.00328354811223009,0.00526182177665554
0.0177276629689392,-0.00242613225988437,-0.0165731996633956,-0.00125018396041779,0.0145841409776588,-0.00221330035650477,0.00159241730225281,-0.00694944821547734,-0.00385380701443464,0.00232707831488384,-0.000356362627345815,-0.00972921443882013,0.00501789324662058,0.0097482431649216,-0.0141872096035131,-0.00714439677201187,-0.00504428613529964,0.00623198250390332,-0.00819914902762202,0.0196677305255772
0.00970082271483104,0.000140676978421938,0.00300550251196335,0.00906611672072986,-0.00819034750414366,0.00821448313750282,0.00196017526963724,-0.00690451426807985,-0.0125939114469772,-0.00296190010111438,0.0255978963480409,-0.00914678355573337,0.00408664679002795,0.014406178083811,-0.00552730829993822,-0.0100645378415043,-0.00559004063103872,0.000690607911919131,0.00294497648313267,-0.00184754027574278
0.020634525132135,-0.0146532750441668,-0.00699150802282468,0.0170401298253388,0.0276039117811871,0.00427121206906215,-0.00810708583290784,-0.010565500861031,-0.0112110155515431,0.0154907289107602,-0.0170279007837655,0.00965048808791956,-0.0165776281299276,-0.00435629180218747,0.0102453107810209,0.00158987859505064,0.020892769774509,0.00514237133360985,-0.00125034674004723,-0.0096708546847085
-0.00229423327604405,0.0195517355976041,0.00215756846066746,-0.00198808423066107,0.00241148891146058,-0.0236756490126332,0.0214037533378897,-0.00853005208842729,0.00684427344709408,0.0114471426384194,-0.0144837135442395,0.00181796674675696,-0.0104170742867466,-0.00447146522454346,-0.00521800049277983,0.00386823552225653,0.0322340574448132,0.0111469768934954,-0.00205470209520119,0.00876252380815076
0.00390205891853688,0.0195691099166492,-0.00778314264713506,0.00459455872459074,0.0127921712601951,0.00495731274354257,0.0316791717660135,-0.000229273558192856,-0.019422254568914,0.00507433212261587,0.00790341744493088,0.0181329901443756,-0.00520708122450813,0.00886697297514043,0.0105224252928102,0.00191712284209432,-0.0139965719930562,-0.00276527448262481,0.00680944692166182,-0.0185929327170135
0.0115868605832343,0.000940914403201836,0.00916070371994139,-0.00726216569443773,0.0173524274937343,-0.0235949582857917,0.0163150483902037,-0.00538457407808779,0.00151999003720219,0.0131408455607269,0.000613876708681506,0.00441606191854022,-0.00403322926096707,-0.00380703209116785,0.00902606791280937,-0.0105856514743878,-0.00662292077521401,-0.00533208231033847,0.0094276204863573,-0.00751366310550337
-0.00154547022922852,0.00252003952674297,0.00483715964340128,-0.00440193085467617,-0.0108213657301135,-0.0125294733217709,0.0133444930341535,0.0060278362752865,-0.0028261082060938,-0.0174360324591004,0.00693029181367835,-0.0219894251631836,0.0236779763715024,0.00613111915827821,0.00458017781460081,0.00258966127888744,-0.0115278684996642,0.0161623101639511,0.00988920572491248,-0.0278110033747319
0.0201559094115646,-0.00288453708261507,-0.00781120860217373,0.00757964487439492,0.00862364301680888,-0.015398654631882,0.016082471711011,-0.00738716046383842,0.0118925798096734,-0.0044163883771029,0.00229487040206403,0.0178049217273745,-0.0135425144800957,0.0179890035630086,0.0168134302187294,0.0246084323263582,0.0057268464627597,-0.0255960427081406,0.0242518580021273,0.00947834727540666
0.0109691209899659,0.0117704012748421,-0.00284197330303262,0.0280044228161552,0.0107891060377183,-0.000917054639651949,0.00255775844209592,0.00072597414890411,0.0042038735753067,-0.00762282688176154,-0.0111813497801519,-0.00250376592413598,-0.0221289085240865,-0.00651500828643652,0.00164581873462504,0.00301911048020367,-0.00648715311747911,0.00518720724551409,0.00246116457385581,-0.00322686991640642
0.0112669066482779,-0.00143940184761267,-0.00495973327997316,0.00214976259501434,-0.00289520683959575,0.00963141269889259,-0.0323894663592432,-0.00188595304891655,0.00846890117423514,-0.00654858390553615,-0.00494480505631493,-0.00401619501768923,0.01454921210987,0.0113279639319826,0.0209688818886969,-0.00679909203345431,0.00339608782392372,0.00958654295400157,-0.00700887070061642,0.0131523790222053
-0.0142496570497892,-0.0105048048711848,-0.00297223963478741,-0.0149897419655025,-0.00930893708099067,-0.00201912993355352,0.019558869737007,-0.00821884583114457,0.00919274086638793,0.00228637217630772,0.00241734149490679,-0.000950351986158555,-0.0130001083156262,0.00311590089216654,0.00428636894352799,0.014002863441738,0.0091080568714101,-0.00325230807845628,-0.0132986090409221,0.00172146304916817
-0.00913301597069923,-0.00863973196329555,-0.0332580916748055,-0.00808566871568712,0.0114051310061194,0.00325022700226192,-0.00331391478650507,0.000298126987632091,-0.0127064329239143,-0.0250201675606687,0.00907561400442186,-0.00412985184427962,-0.0158829361129035,0.0088460223785249,-0.0140311584600344,-0.0137632633419339,0.0127357674274385,-0.00722502083863804,-0.0098527860406812,-0.00238639831591238
0.00541170100852995,-0.0113764844666911,0.0248988335574676,0.0155788751397681,-0.00748147385750148,-0.00799444386155937,0.00344304639358209,0.0240401869982285,-0.0119671543630572,0.00940836219567513,0.00250188043616896,0.0294209890751291,0.015863173775856,0.0275775045241166,-0.0150836785206955,-0.0125004950170312,0.00396128603524985,0.0122689703832979,0.00471482732658244,-8.13850747040851e-05
-0.00320813643258056,0.0248118167921239,0.00688231580738084,0.0053245516090081,0.0102088094854398,0.00486606780011097,0.00899352308409894,0.0140135773986685,-0.0207058570772901,-0.00916656332050924,0.0262545277245226,0.00791087117638685,-0.000947345035606478,0.00680914123455049,0.00886293241731598,-0.0164754375163991,0.000297894181550036,-0.0131726760590995,-0.0152418094342809,-0.0140000906577872
-0.0220355575759755,0.0065086512279498,0.0117679461735558,-0.00901204225390236,0.0104777399524597,-0.0116347290587922,0.0281208489776179,0.00345263048571253,0.0153207112315197,-0.00983132883289594,0.00184152039069557,-0.0136046931551955,0.000185848067943719,-0.000250206945111149,0.0189747078296283,0.0113100457315361,-0.00595314228572989,0.0080521762386069,0.0139530162847555,-0.00327413394117209
0.0118944605583628,0.00952269162725651,-0.0068468217505495,0.010991984079983,0.00715606268677849,0.000971311870645815,-0.00760711780025905,-0.0144166363508531,0.025007921413435,0.00146974418931632,-0.0119404832773442,0.0106584013111973,0.00069176608562849,-0.0201729410821308,-0.0249345014893024,-0.00842523409274057,-0.00188968726201578,-0.0050813158587003,0.00393901630980957,0.00286114627460896
0.00573405976914236,-0.0105227237911758,0.00736616357856122,-0.0188729498086803,-0.00531261249643431,0.011276957106303,-0.0313350461893349,0.00963149599369583,-0.0211389069972064,0.00325712044914637,-0.021120651351858,0.0170020333354231,0.0107253369153053,-0.0187793211894545,-0.00701317528878103,-0.0120755634541118,0.00737175397099221,-0.0334215710564196,-0.0247812090132125,-0.000337552641428836
0.0132826843746513,-0.0191608346916497,0.0332410781727321,-0.0235931543756283,0.0139862244307052,-0.0106265092318958,-0.000390894940963404,0.00401830447997242,-0.00171875920788986,0.000740464303786025,6.52370274846215e-05,0.0111613897930982,-0.00568393873017546,-0.00398470443504451,-0.0173223767929879,-0.00789236877479818,-0.00442342214452914,-0.00484025889151396,-0.00298572352674665,-0.00605035958995018
-0.0196297250586929,-0.00876351653661507,0.0139117590113725,-0.00214186257023095,-0.0169592343028817,0.000387996908263636,-0.00600762067995206,-0.0137313926881552,0.0196709934723665,-0.0067837089957728,-0.011528989303198,0.00741328158983864,0.0173461996510855,-0.0128431299355554,-0.00258712199824528,-0.0134210225806725,0.000175701886297164,0.0103519869036996,-0.00871326671491656,0.0153806181433821
0.00457064417841153,-0.00850097126739676,0.0229096213413653,-0.00955830357540548,-0.00185556908150164,0.00688451644613389,0.000853323716964288,0.00739461305066456,0.00883621396545138,-0.000144434734681943,-0.0107761610750343,-0.0259211736545833,-0.00748287719992663,0.00591248994865458,0.0115559327984696,-0.00739094233858581,-0.0163730105137734,0.00913630517780005,0.000825379566130644,-0.0381313916517084
-0.00284754781303823,0.00410816895330629,0.0172072134282023,-0.0216780215833774,0.00284804446603522,-0.0167103774103812,0.025477862139078,-0.0154289948746431,0.00086705485454391,0.0171904000540625,-0.00944790047771621,0.00689116033377255,-0.00270570248464632,0.00342996719270268,0.00580187221083236,-0.0228017020661942,-0.0104765032097087,-0.00488783728331675,-0.0133050847181012,0.0250401852948054
-0.00156842588111578,0.00144205606042494,-0.000779071303332078,0.00536597604217645,-0.00582350799918869,0.00799883357859518,-0.000968091842998771,0.0020464848575401,0.00890512305520526,0.00542222536129825,0.0302894456554386,-0.018054194696379,0.00604717086836518,-0.00854040777635424,-0.0289186706616271,-0.0165935639408063,0.00584680536305104,0.00801253815073527,0.0115999801495878,-0.0229088593109811
0.00780811505453403,-0.0119404736537035,-0.0154252630574889,0.0161214946391154,0.019344976347537,0.000402752058644389,-0.00107001411491368,0.00118626173486468,0.0160729881530044,-0.020126323920843,0.00748606571102199,0.00597611384338514,0.0127400167798799,0.015520814083895,-0.00515859273901071,0.011117838650049,-0.00639623622776704,0.00808686347020496,0.0246632741621759,0.00341328111554917
-0.029217813655804,0.0107626850248616,-0.0134370682777952,0.017856565206079,0.00833205703434333,0.0337841724379946,0.00613005012806688,-0.00956128416552102,0.0033839339746128,0.0102700815642353,0.00559520949185631,-0.00359496178957239,-0.00568504227493066,0.00743618697568849,0.0154543140890978,-0.00568728835608693,-0.0234724416139535,-0.000597761647139854,0.0270927333585273,-0.00960595272047866
0.0110091236517286,0.0157917164277093,-0.0361251205631315,-0.0059774899073271,-0.00363646245918392,-0.0047001308063038,0.0305333154150821,0.0161719834766303,0.0183754046080138,-0.00278290910302759,0.0293779391010892,-0.0157140995750988,0.0134826079212632,-0.0106419785164758,-0.0240828513809696,-0.0165564070657793,-0.00830797649571475,0.00860371346344637,0.00563747641743686,-0.0147822406410806
-0.012345063515881,0.00363590524439105,-0.0136435863573749,0.000230700018531319,-0.00558380009226037,0.00740452480246898,0.00777667804355492,0.0178055868775593,0.0178698645477141,-0.00790239427135859,0.00760501935390588,-0.00205461574144573,0.0179238557982133,0.00452306721480386,-0.00228104746950818,0.0181476125854381,-0.0134038993749529,-0.00226202619000867,0.012782479072529,-0.00105742948581892
-0.00958566355851188,0.0289276568729983,0.000278121662838331,-0.00264932917490628,0.00729391177387836,0.00781331446815354,0.0100085898093378,0.0174663602816477,-0.00427673160479915,0.026205421928028,0.0143988608540337,-0.00903790710195728,-0.00745585556185835,-0.00657452697528539,0.00681642260408373,0.0121251035465987,-0.00303571126848314,-0.0256639254784851,-0.00256925756078101,-0.0166056992710215
0.00713055459411172,0.0238455598928536,-0.0100746122387003,-0.00452916509020996,0.0222832892675212,-0.000887861671630252,0.017328623947912,-0.0076111604401286,-0.00523972149202297,0.0126877940872301,-0.000369926565129906,-0.00827962427724861,0.0253730013870859,-0.0225650334530455,-0.0137981613727147,-0.00320979087600311,-0.00647560404002862,0.0103491029980139,0.0062589099103439,-0.0126136144599623
-0.0155130311070632,0.0170356965885324,-0.00633996346480045,-0.0064482414839931,0.00248709872523924,-0.0229139094427437,-0.0132636081946561,0.0222292617708661,0.00503022580582563,-0.00660563963971109,0.0131686174323363,0.0197554136038113,0.0120064373730151,0.00607874760838969,0.00174833781161876,0.0110608395598222,0.00688628783020481,-0.00669253646477865,0.00571916730499967,-0.000941245279064287
-0.00683891733017831,-0.0125159531133509,0.00985394888790906,0.0159756020597781,-0.0103360471671018,0.000153255400229749,0.00553766272624697,-0.00196209492229874,0.0138434976833086,0.0200828792508932,0.00295280182134846,-0.00205776881095214,0.0158517150092898,-0.0138668557810102,-0.00825205234553887,-0.0105390198287459,-0.0233575787689561,0.024281977320416,0.00652862678675349,-0.00235575555780604
-0.0134126575623666,-0.0056665015748038,0.00621880371368516,-0.0166687885484207,-0.0146501874443035,0.0113056511794353,0.00131767517565935,0.0130656433125897,-0.0100619481183751,-0.000518439898182555,-0.0153514335063038,0.0289633700983814,0.00682526405346462,0.00573780025401048,-0.0052254683530187,-0.0151512949342077,-0.0262957298874229,0.0135593893848122,0.0025928367126888,-0.0139290055714319
0.014487576758021,0.00638959510757582,-0.00960578184013983,-0.00316795942268487,0.00685271894502062,-0.0164154295338575,0.0161727059768785,0.000236230206707469,-0.00628292816333654,0.0163064838974179,0.00588052177892003,0.0074301217590863,-0.0190907962204919,-0.00527444850910236,0.0184105819888222,0.0264134157136343,0.0042470683832279,-0.0175273326987348,-0.00296312060646059,-0.0195848645399749
-0.0262232329859735,-0.00869515784091043,-0.0245690763453636,0.0104467077924625,0.00119388470730883,-0.0168420626578115,0.00570182388115955,0.00265130593415747,0.00880297742926198,0.00939018686265818,-0.0141187247433837,-0.00076229762309153,-0.0190169477288897,0.0297146310200007,-7.28128782829067e-05,-0.0153316621868311,-0.0148098999550136,0.000731358059725525,0.0101501918880614,0.000252856944267948
0.000974569544546132,0.0097817175165352,-0.0136214090468317,0.00517389434771577,-0.0144662527687894,0.00723879812690529,0.000163972320735451,0.00924699479966141,0.0165320360845795,-0.0111663253957394,-0.0125644174235455,0.0169110969020414,-0.0406138472440216,-0.00748932019017956,0.0192625190624277,0.0105596498130097,-0.0169451184875148,0.00469162435735952,0.00157488211376606,-0.00778644543254466
-0.00402465309366197,-0.000472435868924565,-0.0148770904965134,-0.00588226917024993,0.0265902609274334,-0.00197316316542557,0.0173366299479666,-0.0166451850991445,0.00401665349167344,-0.00553070884642162,0.00868884725402671,0.00317134698034719,0.00508019356965826,-0.0158583274912049,0.0242761170127086,-0.00609192434381156,-0.0160724223446546,-0.00353476741683133,0.00134473253473418,0.00614326466862765
0.0195775913737315,-0.00979320269387361,-0.00498737158213835,0.0072013177771969,0.00815026598991358,0.0146282023907201,-0.0216949367237523,0.00100530377128329,0.0106583099694583,-0.0124663806752871,0.015319139986545,-0.0203935446253849,-0.0264461508617954,0.0130132027846852,0.021313234914493,-0.023567268381697,-0.0100748042078954,0.0198034952225829,0.003538157555902,0.00928838519798789
0.0175718082900591,-0.0224046589333339,-0.0147749956930398,0.00721679921437769,-0.0117543101451222,0.0140474214690362,-0.00453782739822138,0.00878130546011503,-0.00976443273443916,0.0119103549561483,-0.00667138834741529,0.0117469832453641,-0.0218185482841083,-0.0154514304882531,0.0157364388235516,-0.0295041506552149,-0.0194431020887681,0.010625581435219,0.00121083612794448,-0.000299670706421731
0.00989531937352733,0.0166931888596117,-0.0136451403539098,0.00857363194030206,-0.00645106791762401,-0.00576296073180171,-0.0093839198107595,0.0043592164602965,0.00480323105117025,0.00121099937800599,0.0016591598613516,0.00369104367466984,0.00731289841840846,0.00907343131042866,-0.0022590096859144,-0.0135659473926485,0.0105017548566964,-0.0129875489762348,0.00363582844868224,-0.00384241973246422
-0.00622058988361259,0.00100933156058259,-0.0110118301433543,-0.0176585323586608,0.0238130968243432,0.016526437365998,0.0163116587471731,0.0189972025698569,0.00740639866358146,-0.00493295062838174,0.00049974213830853,0.00688614274996936,-0.0163646426565664,0.011122942613471,-0.00488189749813061,-0.0281241527860651,-0.0196306926554271,-0.00246720830098881,-0.00722743171269292,0.00882146024518991
-0.00921869357385299,-0.00706858668240351,-0.0218070295627689,0.00666292604771368,-0.0012464530545722,-0.000141160790446224,-0.0185234626003189,-0.0144607443479924,0.00629950450404397,-0.00724381233151677,0.0199094462615523,0.0150347728468426,-0.00164303037676556,0.0270183004798741,0.0102853630178684,-0.00922690899118608,-0.0261765589943777,0.00744739006581438,-0.00218875326874991,-0.0170397998684943
0.0236557499231165,0.000490497885366434,-0.00763659542537539,0.00561001766899265,0.00155194384367564,-0.0161315291287657,0.00500012790820782,-0.024865465170724,-0.0113881730116466,0.0182806977738225,-0.00318669492833266,0.0196364967587317,-0.00897790966128133,-0.0209065271110999,-0.00158943174403272,-0.0196749203659735,0.00830118731528266,-0.00580441128701745,-0.000466359999011907,0.015635482275847
0.0213883134280955,-0.0229698083115803,0.00709782238600336,0.00663388158119651,0.017421219146292,0.0303353829283704,-0.0102790983011864,0.000339538305212913,-0.00602038632569611,-0.0152418764382195,-0.0149343883185474,-0.00485336619348635,0.0115039588707163,0.00641541732735998,0.0150672855385765,0.0145011831131938,0.00357246488513481,-0.0159594013245514,-0.0203915626324902,-0.0185476286668315
0.0208834834223646,0.0223377459040934,0.000509233330138254,0.0275573843336227,-0.00311868264695412,0.00296064365974712,-0.00579378515067527,-0.000553089837533824,-0.000970435309686479,-0.0195932903059552,-0.00217710289840188,0.00207780836548283,-0.00315041599821759,9.81923818755531e-05,-0.00595038472072792,-0.0183544186692062,0.00781046379462391,0.00854301577390752,-0.0122142635753323,0.0133556679090674
-0.00370184700436901,-0.0021545859473769,0.00410455283626291,0.017980426719501,0.0125729603647614,0.0115357715164384,0.0270316056612517,-0.0123761369918114,0.00624256338775015,-0.0173667440615812,0.00304664819721504,-0.00541646190603019,0.0154706499586087,-0.0179596108834211,0.0141563277296922,0.0016076623847868,0.0147484136848275,0.014365518412001,-0.00404235904503792,-0.018615090106189
0.0106501412793957,0.0180266565511053,0.0092445347816996,0.000437890096018906,0.00570100721740904,-0.0317068263960542,0.0166320296475684,-0.0319077056213777,0.00278009640396765,-0.00315694045643895,-0.0108234547264064,-0.0138183854937677,0.0178555421746006,-0.0182899448998353,-0.00878336658643594,0.0017764981953868,-0.0021631023948188,0.000183475392220943,0.0281224189348875,0.014995948502951
0.00704268631033542,0.0254209743350928,-0.0092511484219058,-0.0175805137607588,0.00768259502230942,-0.0219222197625609,-0.0272239168346702,-0.00939365902753791,0.00521714434256639,-0.0047327350256165,-0.0126600513369884,-0.00856127311761522,0.00348093691204312,0.00859012421896013,0.00426772708708174,0.00511831195462696,-0.00985301744219243,-0.00820160484932778,-0.0178032513920166,-0.00438291579068064
0.0234743024270482,0.000247889602965574,-0.0225011245927465,-0.00116728127761768,-0.0159500784129661,-0.000517193586973417,0.021366308509561,0.000486964291306868,-0.0156647653154128,0.0109772371839351,-1.45718412736948e-05,-0.0199082170119389,0.00250112201315782,-0.0205859119382162,-0.0235867088067119,0.00432191077284573,0.0026299605463033,0.00315946640726954,0.00244618838911317,0.0108887931893127
-0.00129606212554563,-0.0137405961677289,0.0140591976966803,-0.0136931511680741,-0.00103489003705487,0.0186424419095444,-0.0211514361195035,-0.00753293023918708,0.00485358602978339,-0.00435668358246841,-0.0106408552871065,0.0141009046157604,-0.0184202673855252,-0.00494021901174375,-0.00209064713771739,-0.00505716233910896,-0.000467711185842146,-0.0108634154233421,0.00444862547296526,0.0134790563601956
0.000277617983223623,-0.00202293575122829,-0.0111953976379837,-0.0222054040153074,-0.000738518187769144,-0.0101591227257125,-0.00527201547408513,-0.00283824007334632,-0.0222259577524847,-0.0148183643178731,0.0148959229271784,0.00892013678732953,-0.00262239532184793,0.00745318407800392,-0.00128626699791202,0.00193317418425889,-0.00404081074016091,0.00400171590557861,0.00496890952178285,-0.00463212520377817
-0.0114849691602917,0.00157735395118001,-0.022326031722584,-0.00532480653545483,-0.00311952516831808,0.0123613676037188,0.0227321958974298,-0.00666822435960402,-0.00800422578309033,0.0172867642829796,0.010594023968369,0.0036871478017177,-0.0176348393566804,0.020923556981981,-0.018708267926462,0.00756369352277896,0.00363158870529095,0.0104879638914207,0.0111396792480208,-0.0365031280426143
-0.00603543090966074,0.0128887459585872,-0.00817933030566078,0.00336334647329597,-0.014065464972179,-0.0129370406689015,-0.0094995379735502,-0.00571749356983537,0.0254155010317045,0.00795833520600036,0.00910815494386492,-0.0172781865790098,-0.0011770778342248,-0.0176826303799473,0.019346429758152,0.00386682528056589,0.0230133939983772,-0.00422045685637159,0.00501767161336208,-0.0145434569697718
0.00260840946849879,-0.0137340769070543,-0.00570560812636033,-0.0103512869230127,0.000223659493393523,-0.00423378196096709,0.0024475692917406,0.0167447526604816,0.00104836616530848,0.019287956989705,0.0233761489971257,-0.0129663679403782,-0.0111579190961983,0.00592245799729734,-0.0036390811291881,-0.00757235327085567,-0.0008210820612737,0.026300371526828,0.000967157324898909,-0.000856844536961275
0.00091272736047841,0.0139462359054943,0.0162974208263742,0.0134576575158957,-0.00971147592178132,-0.0238568681919003,0.00297626343840011,0.000284986707966576,-0.0108587518876947,0.0198967631967336,0.00980312549815722,0.00160966301527665,-0.00858062785318365,-0.000874395271188944,-0.00526176382450188,-0.00430064359910643,-0.0139377298184955,0.00210249916561249,-0.00281123392028479,0.0132503547509119
-0.00266023113495918,-0.0118911254782271,-0.00147292538675144,0.00143153376172848,0.00570879188607173,0.0046127113204057,-0.00255771913672328,0.00681777677659709,-0.00300298821327966,-0.0195870167355891,0.0110878825431151,-0.00963436048945774,0.00598024840873951,-0.00420519194226208,0.00453163342348224,0.00193683964918498,-0.00338351936120782,0.00842632984208451,0.013542919285611,0.0146957619422793
0.00966183262299026,0.00373681535718628,-0.00830099070599956,-0.010971540483072,0.0152577358032351,-0.00912650373071034,-0.0101358150758341,0.0121857724202071,0.00527256918181842,-0.00480908548691089,0.0172372332008206,-0.0086643396786535,0.0185968477303478,-0.0127167688382552,0.0277644391643941,0.00837218415539479,-0.00126487697846922,-0.00375531955683283,0.0129862295891651,0.00264702057258101
0.00964817995066112,-0.0137545017536907,-0.00703018780525982,0.0166661109120644,-6.99656058234466e-05,0.0294141079272121,-0.0164509697002201,0.017686926671106,0.00896199732505191,0.0116897067013653,0.00543372352581362,-0.020415511190554,0.00271498599045002,0.00325915311026165,0.000831729081484703,0.00156039094359477,-0.00875840603238582,-0.0180301671779641,0.0219330945079902,0.00291458768173692
0.0119386066636897,0.00767451098768581,0.00991431220137775,-0.000175515256023059,-0.0069227420911507,-0.0156106039878156,0.0111731722363283,0.0190080345833154,-0.0106363414536583,-0.0189689719707917,-0.0323218205856439,0.00267510644186464,-0.016481239586608,-0.000764874755737907,-0.0120784609621824,0.0191620909408385,0.00212114407298832,0.00127671656830395,0.0133504063167074,0.000985705419785828
0.0291216942206808,0.0139776589634042,0.0130627646764984,0.00801808446164397,-0.00833380698895827,0.0258443811402206,0.0170809684677279,0.00335234084671612,0.00171845918798587,-0.0222682666519999,0.0120810820845355,0.00482700059568928,-0.00631386262674573,0.00308966172670546,0.00215809620275729,0.00161543269704397,0.0123942743917889,0.0110298991387432,0.0192597106360928,-0.00894155125544968
0.011957620977383,0.00722382053776012,-0.00441744821628673,0.019819566915631,0.00214712703654092,-0.00246824698329546,-0.00277011786090756,0.00186533925439368,0.0167020560628979,-0.00390235265265113,0.00935936611548679,0.00668641182616179,0.0137454548043729,-0.00317650426630409,-0.00558492887479313,-0.0102970479802147,-0.00782522198298894,0.00577514909294232,0.00916840213631616,-0.0291093941757404
-0.0115566035999931,0.0120649189875386,0.00482548211429455,-0.0055355401613456,0.00143229417697476,0.00757675169401947,-0.00962840258303633,-0.0202421510025691,0.0027473074921841,0.0132157934506142,-0.011123718469556,0.0245786606159872,-0.0202774601840823,0.0146550465808644,0.00464122080495069,0.0101344378376515,-0.0034553996090654,0.0117615177367597,-0.00915838680033433,-0.00456146758272334
0.0239757793386022,0.0149626110712698,-0.0123910539157384,0.00127107043968733,-0.00515434663867956,-0.00816738551962923,0.0070981990490443,0.0131646073859695,-0.00545119340621763,-0.0165122546819179,0.00175161907948014,0.000456498363090968,0.00367896006684006,-0.0221792126772792,0.0103497010774478,-0.00580471971028888,-0.0219836828561391,0.016129962737778,0.000843145389293739,-0.0171144429810181
-0.00706900958152305,0.0188149211248994,-0.0313135991890826,0.000773953127932688,-0.0094281553398237,-0.0150947351650649,0.000566884155457116,-0.00180765428403572,-0.00137615782899961,0.0181026626801746,-0.0157431242011131,-0.00567444650627712,-0.0121093724520659,0.00342287543437777,-0.00179323256101233,0.00177261037179355,-0.0181462894281105,0.0260105762874408,0.00692420687403648,-0.000546661883173052
-0.0252630928786459,0.00514766475066883,0.0103331345683111,-0.0342718558536811,0.0276391603318531,-0.00412714409751969,0.0192873624075466,0.00548326214464274,0.0125042448073666,-0.0331309926406124,0.0173265924266929,0.00702060706221972,-0.000225792974069383,0.000581352480567741,0.00182224129495366,-0.0262018269846962,-0.00466689812453496,-0.0197995675517826,0.0152691056754207,0.00526974387029877
0.0015872134712586,0.0136186442879133,-0.00172904933723229,-0.0278254237207713,0.0105268346657402,-0.00898154128637993,-0.00569107878438092,0.0189939806765041,-0.0194627570875696,0.0196164996967721,0.00701929036411047,-0.0017680007664336,0.0260212800243729,-0.0240976713818287,-0.00816255468015913,0.00720670298844919,0.0101790196206465,-0.00729701582224293,-0.00305101174608766,0.0136806630535851
-0.017682133582519,-0.0152096896865147,-0.00225035120011836,-0.02410962732181,0.0154260109633676,-0.0109298346454987,-0.00448259899882182,-0.00726558822709034,0.00315028135990525,-0.00885310204085974,-0.00878584030605474,-0.0149767174720484,-0.00808939799858249,-0.0167145306191033,0.00425575813199314,0.0146422814140107,0.0200107203797345,0.00610983112307751,0.00119852665959814,-0.0174914599549755
-0.00942842765767981,-0.00896256100215084,0.00837630474234791,0.0084980208252677,0.0125363260575017,0.00866229951368573,-0.0029250325963877,0.00251767237702607,0.022724037381434,0.0140757303911005,0.0233133392943916,0.00849752930201794,-0.0253398319608872,0.00578448721651096,0.0125172720929258,-0.00230623277759706,0.0112849154918968,-0.00935605828279491,0.0289660722280159,0.00251391675784328
0.0127453543560983,0.00104491775641871,0.00832421093770052,0.00731055735287046,0.0134145403129307,-0.00477867322229839,0.00498345104300908,-0.0147120607584033,0.00982391987851216,-0.00829894764953119,-0.0244260523051407,-0.0183080769257175,-0.0071329000074631,-0.0306818352060794,0.00946782542949009,-0.00591393326120604,-0.015468211505768,-0.000885109443423516,-0.0228216191230292,-0.0105354565598776
0.025965914221517,-0.0155201155135401,-0.0236438005782089,0.0201862146021805,-0.00531714852399079,0.00445746970086246,-0.0153776070240782,0.0105265403177659,-0.0120086532406962,0.00913332316008354,0.0115396420088343,0.000862353720502101,-0.00504305221617156,-0.0127877644829683,0.00519834126921214,-0.00718355129443168,-0.000457315207618355,0.00214482688010261,-0.0005025259963354,-0.0053826438815222
-0.00465983473854847,-0.0074877410758803,0.00897667307954375,-0.00406490199601563,-0.00083462170340928,-0.0124446854490331,-0.00571733174572019,-0.00335846962483894,-0.0116444874979097,0.0058970744599254,0.00859341399504278,-0.00757770682482011,-0.0105796145734789,0.0149230053694744,0.0208972106521406,0.00253055364975288,0.00200350317615615,0.0165258035739044,-0.000473842341419746,-0.00965310362154017
-0.00414543474138081,0.00892556709113837,-0.0267882000392901,0.0138257327210701,0.0215374431892146,0.0141795340424055,0.00519406101988783,-0.0157957868258926,-0.00456024326886075,0.016185154088054,0.00226087065919617,0.0106970794501383,0.00882522588468575,0.0239850741901214,-0.0186105174109055,-0.0276429507419732,-0.00890907137008838,0.00166763666302956,0.0150501523067705,-0.00816495179026194
0.00144028376732198,-0.0134292406955541,0.00862600139464618,-0.00570376210649969,0.00695052133895743,-0.000664074839815899,0.00107454909017577,0.0106090289860941,0.000700891201819877,-0.00504951421578861,-0.0158448853940749,0.00225470276918206,-0.00139268215670658,0.00461803028197284,0.0244448419835404,0.0204713792817288,-0.00325159989040318,0.00662854208127012,-0.0175947129203932,-0.00585300498757201
-0.0170387387555585,-0.0217346488722344,-0.00547414314321832,-0.0224823497879606,0.00406096111647698,0.00568567438080421,-0.00798594762938017,0.0143851714005987,-0.00642419667888793,-0.00516042709139199,0.00201234935124156,-0.0115079665777482,0.00386688104333126,-0.000609399169877312,-0.0299096727020946,0.014060228852192,-9.64838902585426e-05,-0.0185962603811792,-0.00143384074950297,0.0108241049155332
-0.00126052362467712,-0.0040842843337131,0.00907671749289718,0.00144232366240031,-0.000324089477564674,0.0276556627622462,-0.0109880270341386,0.00268940187895024,0.0188363652866225,-0.0220965510127226,-0.00600052433494704,0.0243142323167281,-0.000411160078011819,-0.0208957175253343,0.0038731926314184,0.0119358802530883,0.00660375156012399,0.017882933230815,-0.00248395326137059,-0.00952712787586526
-0.00782566173990502,-0.0162156408213495,0.00805924487773546,0.0250220809275893,0.00453227645578261,0.0292438711388722,-0.015733820102432,-0.0109104033902825,0.00896585533225965,-0.0297187453554624,0.0108046203326314,0.00856125921991821,0.00644929871482047,-0.00206734291519656,0.0130442526464047,-0.0195236810163093,-0.00676275233378866,0.00307316268119751,-0.00113209431466336,0.0102543907296381
-0.00075813498250378,0.0018477161769395,0.00646631867120138,0.0071323004617256,-0.0163326747371771,-0.0141151482381221,0.0246625519338021,0.00868841188680894,0.000647236415054389,-0.00894717427485351,0.000227883643288753,0.0202670485946976,-0.0115318182328645,0.00843507177065105,-0.00145716548931108,-0.00622432469380668,-0.00897701174260114,0.00663154967572565,0.0180719941215552,-0.0210705831563776
-0.0160944742814054,0.0125232488950268,0.00951278805572256,-0.00500473960572062,-0.0188430617819835,-0.0116055758125536,-0.00724286886261725,-0.00491814805844895,-0.0199398207995431,0.00949076022518049,0.00392880279032002,-0.0200291759825521,-0.0156904874740287,-0.00267508832608615,0.00015738255042484,-0.000916815400963046,-0.0121725521301571,6.64265820305002e-05,-0.00558774857033088,0.0148733215517209
-0.0249673469396642,0.0140700530192653,0.0202492824057898,-0.0013711288428033,0.0153770684132764,0.00109778507040674,0.0218009209039305,-0.00663644357327925,0.00335332230411534,0.00961771460141017,0.0180143616929758,0.00745924208292081,-0.0106664046033991,-0.00470979150957941,-0.0064676107941493,6.68033168825188e-05,0.00322835530310325,0.0002353949018933,0.0104291054653312,0.00751424263169525
-0.0167557788388768,-0.0148486763841245,-0.0197390923590806,-0.0152069014085932,-0.0228426176938584,-0.00156606620621638,0.0174388980470182,-0.00419048746990996,-0.0174235587442219,0.0198353735055841,0.0142856442256872,0.00311862351098114,0.00903943245449334,-0.00954660515462175,-0.000453372462539509,-0.00343027610585634,0.0116938123434639,-0.00374842135700931,-0.00456384572284119,0.0108196367620542
0.00211514440713179,0.0107654272599522,0.000377776119149742,-0.0187525150043529,0.0157397494915388,0.00464958498359596,-0.00649463609457096,0.0102095024598644,-0.0108932097296374,0.00923254270526386,0.00040064489959113,0.0154867193222914,-0.00214204517303472,0.00291465253868941,0.00696230656722493,-0.0171841707623537,0.0273695486632407,-0.00280370519999437,-0.00609184255888175,0.0146009232694032
0.0266634287650118,0.0167090513182582,-0.00309049198680088,-0.00290612131894576,-0.00333362945480999,0.0156954744450514,0.00580348905404714,-0.0199021482582424,0.0071216499198327,-0.00243922822662191,0.00158866339958461,-0.0170806002229141,-0.00662655102981072,-0.00370381981249517,0.00905773004939754,0.00801543907433823,0.00206713913156894,-0.000805441286096907,0.000119599516869341,-0.000835846419866371
-0.00167201607734775,-0.0159985085955603,-0.006680786764848,-0.0140930124979806,0.0019282217525388,-0.00458696537066599,-0.00316624609746583,-0.000343914736315939,-0.00287556681567032,0.000265697552538214,0.0276361846372107,0.00885964429434905,0.00403776537886771,-0.0082477593448282,-0.00350403838243236,-0.0051587458414597,0.0150981923451134,-0.0137959561551714,0.00650166203808445,0.0371518939120738
-0.0172522184855729,-0.00952566460550359,-0.00833951410393162,-0.0114025660561099,-0.0111582220189541,0.0113707415092429,0.00223573490984804,-0.0142000641187894,0.00355745903645046,-0.0155633367770003,0.0138227236759615,-0.0245025675740678,0.00207838289553469,-0.00520396938049139,-0.00922749922985422,0.0251204660758471,-0.0149248031329092,-0.00982180984786874,-0.0111374095591112,0.000398931387760165
0.00121828164149786,0.0068496710310994,0.00143135507910186,0.00578507159964885,0.0116088430177894,0.0279039936749297,0.00139825961429646,-0.00845544685524476,0.0190155659693066,-0.00607418166701649,-0.0284929960707187,-0.0265774107118888,-0.0258444681518365,-0.00898077366088822,0.0112578333449562,-0.0140679770109932,0.00350141733303065,-0.021766582266089,0.00065933343333042,-0.016132579257872
-0.00204184279399975,0.00177892969825458,0.000794519879704638,0.0136360831122987,0.00221323318422012,-0.0143152265174306,-0.0094317089725431,0.00175414126555987,-0.00626064223703026,8.68899383044373e-06,0.0025447594820175,-0.00198685608445828,-0.00969892941793712,-0.017476831711968,0.01350408974547,-0.0101968438648331,-0.00579841678491549,-0.00150337087241439,0.00168230142081816,0.00441976785592064
0.0100751593884474,0.0158406316299449,-0.00441998073001279,-0.0032477572229433,0.00682231102955961,-0.00167809758368224,-0.0103315110600933,-0.0395913046100527,0.0120586062363547,0.0112378416195691,-0.0174903994033621,-0.00119785823998864,0.0246214768020413,-0.00429031418558919,0.0173076987782221,-0.00379092392098425,-0.00531867919336846,-0.0237248069572078,0.00746263675369668,-0.00120717893435995
-0.00279335697433527,0.0117501640101445,0.0135152254881721,0.00384521610662385,-0.0160995798757234,0.0212524815433404,-0.000278962105900181,0.0040141756392425,-0.00511322566383424,-0.0107031058951145,-0.0204230286149629,-0.0260597799631026,-0.00400423089772041,0.0136464540195374,-0.00386378580858535,-0.0135622630256383,-0.000872513539306624,-0.0098629349370419,-0.00947841587745833,0.0248527041020747
0.00698822918986794,0.000935662595967955,-0.0063250477203828,0.00955489593330376,0.00159183486766826,0.00737344458514167,0.00161940524443912,0.0126221070880978,0.000140187116200507,0.00217927354585109,-0.0189463620217889,0.0182000730699142,0.0148805672620686,0.0107671306631287,-0.0179110545141524,-0.00748079568062987,-0.0156033586309493,-0.00505379735192673,0.00141919884668719,0.00796672609555754
-0.00523864023444365,-0.00251883378499664,-0.00204487043724922,0.00577450577984071,0.0101321482532613,-0.0169877996753433,0.0345536880744419,-0.0130772161507388,-0.0155529909559219,0.0220375013455538,-0.0216918514330162,-0.0156360458349826,-0.0253202788930092,0.0118959851815035,0.0057330924016429,0.0114575607677301,-0.016179073949929,-0.0196385739963064,-0.0164868317137352,0.0154767423574622
0.00483224080681823,-0.00369338433773311,0.00269018061457812,-0.0125716291768227,-0.0119166108287807,-0.00485355902379842,-0.00330602066545087,0.00538010675413425,0.00623430795657247,-0.0143421317379962,-0.0179815846728786,0.00653960670374964,0.00818619257705685,-0.00352137136159018,-0.00358054711795317,0.00517743487924396,0.0117716307296943,-0.00416274257955797,0.00527966446349343,0.00259224182597197
0.0127904970845589,0.0105081093935663,0.0197333390372819,-0.00761521021978193,-0.0164840019749906,-0.00113369174577674,-0.0286919412143189,-0.00729902202470249,-0.0381687318642644,-0.0117095639695728,0.000387221585695464,-0.00675374723104006,0.0147899806612321,0.0128638254556746,0.00767023961826544,0.0120767495798863,-0.00890804303982861,0.00126602981255951,0.00525273557965918,-0.00353357542560693
-0.00127063859444931,-0.0192079124128108,2.88407984038723e-05,-0.00577162921767841,0.00815816023755227,0.00929564781526713,-0.000420074476866496,0.00652124990826432,0.00615427003251016,0.00851136307257816,0.00468854913537444,0.00315601544559107,0.000642781772017741,-0.00418717241427573,0.0106260574026491,0.0149783698734873,-0.0134806144169152,0.00264304720971539,0.0061818705416004,-0.0177018015894197
-0.0111800108540473,-0.00383829099514733,-0.0212590416146426,0.000195353596862275,0.0127865056575433,-0.00827803269947668,0.00579814952386314,-0.00240657814757242,0.00769867039620703,-0.00404509335370218,0.00714590672367642,0.0275545053842053,-0.0138795640553664,-0.0102108597224534,-0.00719008815072218,0.0147706194558632,0.0144330411899549,-4.83354125613726e-05,0.0095084246325406,0.00871543307796379
0.0129383705455204,0.000587375698324355,0.000375271915436017,0.016806440003181,0.0232486284711386,-0.0100343235281368,0.00600458262291666,-0.00477307964877178,-0.0168718636847034,0.00233832889700664,-0.00218235414759316,0.00169657053095348,-0.00129705393035673,0.00795605426433546,-0.00209922465473356,-0.0275345895115884,-0.0179472280859929,-0.00149465794151962,-0.020985700472817,0.00508655137245291
0.00695717772757519,-0.00706219888778641,-0.0077615792694582,0.0283696743758346,-0.011160652356149,-0.00355050677148081,0.00235379147025665,0.0209605770414799,0.00966577344112181,-0.00556935166588249,-0.00716485498611193,-0.00228064332128043,-0.000322025273590797,-0.0138991397026931,0.0222214172183023,-0.0230172157016947,0.0359087540596188,0.0209146700212597,-0.00437047306407557,0.0083306711619205
0.0126232983656265,0.00933960462221598,0.0124814002458014,0.0123929605955247,-0.00702362665460064,0.00488856117088814,-0.0156951123408825,0.0111428204412652,-0.00208276209883151,-0.0211579683070787,-0.0185223366383058,0.00865819705976854,0.00989788082349109,-0.00208957690452222,-0.00957937260668522,0.0160926790787055,-0.0104536583458119,-0.00180492348155984,-0.00640991951046287,0.0197139462476106
-0.0154328340087377,-0.00168308032110822,-0.0160685127730969,0.010325270327076,0.00803624066978034,0.00222931701857446,-0.00240281470111771,-0.0186011407438988,-0.0163187719116452,0.00703527849718893,-0.0125815279612804,-0.00288160583740716,0.00468442228181214,0.00303296019330352,0.0158023619461449,-0.0200717172647151,0.00307995341447958,-0.00259479373151942,-0.00963197101742692,-0.000224130275028019
0.00131666634356938,-0.0223105220701926,0.0199292186903158,-0.00445884097578659,0.014122778638929,-0.00335774561945218,-0.0172868004894471,0.00237324791881803,-0.00346321049024344,-0.0209900068635748,-0.00399124705071145,0.00779208027034071,-0.00460148584974172,-0.00756496501425972,-0.00215507130221908,-0.0130580750697284,0.0050452772973292,-0.00895117708327349,0.00404595104698944,0.00460218034474475
-0.00453378877427467,-0.024724978712472,0.0276083835885471,-0.00140143491925527,-0.017356628175807,0.0106036982804949,-0.0265838330987911,-0.0398899156473795,-0.0013539949824709,0.0285733327021473,-0.0105175051973143,0.0125499166294281,-0.00587053450587422,0.0134415658448233,0.0113421643408233,-0.00695595240604667,0.00636409650788849,-0.0103747894758838,0.012217224161412,0.00969225723841551
0.0069868196033566,0.00268063993339579,0.011424233284315,-0.0147475717839634,0.000235158937804614,0.00449406875918252,0.00816818617284324,-0.00466431635357294,0.0220908522221706,0.00187309151534102,0.00305316896824722,0.00521127948315061,0.0189871595308968,-0.00997884147946498,-0.0088228266362553,0.00330689280600047,-0.00567684296049609,0.0179727992450358,0.0231860664236266,0.00495579473151681
0.00244992785000993,-0.0152576889798104,0.00755433379248541,-0.0139634209654643,0.00935707594167696,-0.0115471588196063,-0.00262416731275592,-0.0131212134769428,-0.00222975007560953,-0.0244730646704085,0.00658363683479337,-0.0160127143636497,0.00895880989758621,0.00983919333867113,-0.0158038772452902,0.0278515921295706,-0.0107309171440042,0.015103603647165,-0.00824993218743915,-0.0077101580749027
0.0145446945422598,-0.0217755536991437,0.0137178368192082,-0.0108655417769119,-0.0117937954052568,0.0217382533733257,0.00822903926024615,-0.00048720985865626,0.0139379310608018,-0.0126803599554433,0.00897548919376558,0.0209961550674001,-0.00571627307403425,-0.00914768134014607,-0.00130781783584853,0.00644047756682526,-0.00241227218418148,0.0100923349751591,-0.00299169248813622,0.00294972483997992
0.00642755162181103,-0.0137114976992348,-0.0140053001533238,-0.0256895422972047,-0.0107830391898894,-0.0239622899934232,-0.00182590041051555,-0.00704165803327252,0.0285070886863303,0.00066716172920895,0.0280660720428313,0.0132032816606331,0.00184074505894172,-0.0144054955729334,-0.0105859784988345,-0.00176353434612079,0.0222054113527211,0.00465438596580901,-0.00861080774267508,-0.00383763212384365
-0.0122213952867802,0.016116313650216,0.0172148336539249,0.0151923008660772,-0.0258294108697117,-0.000226146332779208,0.0034694615865883,0.0104390338998439,-0.0102290743268076,-4.44034443292524e-05,-0.002747664120825,-0.0172422151711955,-0.0215413423203935,-0.0049633944250107,-0.00878571829605325,-0.00537649393006637,-0.00681843406140985,-0.00343962947373743,0.0200908538407539,0.000569581320615329
0.0110679157008429,0.00625346137553777,-0.00219918564414959,0.0038762640179656,0.0104604983040502,-0.00448440351580799,-0.00395160637724035,0.0224521615885395,0.00499145814871993,-0.00304801551281762,-0.0194846194279982,-0.0177975297179489,-0.00612868145244724,0.0147599432564398,0.0075793313394481,-0.00971055395417799,-0.000115141086425227,-0.00985365604120571,0.00727544035364066,-0.0152095578409374
-0.007154998012855,-0.00156054206672448,0.00639670365772907,-0.02348286786342,-0.0166670343870682,0.0276311320613088,-0.0114289142079621,-0.00801676825917023,-0.0302120375617346,0.00868145416343157,0.00897438284808181,-0.00246298304589119,-0.012374611650492,-0.0148960702971157,-0.0211535801153725,0.00798874098167874,-0.00351961541827137,0.019694448711541,-0.00386618606217609,-0.0163792118978692
0.0091853928745115,-0.0224529751896858,-0.00715464521690748,0.0209988537891877,-0.0058785951276781,0.00930096378190307,-0.0179890444971471,-0.00428438342937983,0.00830213294014965,-0.0142764334408785,-0.0131761833294145,-0.000259624381845255,-0.00104888338401994,-0.00224461835445015,0.00115443846427335,-0.013039403728058,-0.00347366896242457,0.0317331296024575,0.000401069845088788,-0.0122982659581561
-0.00395076026407457,-0.00798772363885953,0.0160140990068324,0.0125713123941582,-0.0204567851067706,-0.0243622023274913,0.0218392310804488,-0.0167408196372347,0.00122833427727244,0.0020243416045414,0.0120723506650814,0.000328172433116342,-0.0110983424351482,0.00357453746810102,0.00190332676329896,0.00315443015019789,0.0107364957846334,0.00230321054544644,-0.0296774429529539,-0.0116363598239769
0.0191127155930841,0.00470706999284968,0.0130195738164274,-0.00980635213176815,-0.00191893899910015,0.00066136778647674,-0.00297637666443695,-0.00577689776690703,-0.00293495335826052,-0.0105799099062021,-0.00441760855987255,0.00807535263177704,-0.000826331205438179,0.00921785747506473,0.0104383384116059,0.0186203871551742,-0.00305182185417749,0.0164517060117318,-0.00700858586341723,-0.00978437733551704
-0.0113685480234559,0.000377544718415665,-0.0226188438934451,0.0114737785210628,-0.0275605816092886,0.00233059833343051,-0.00125491076329464,0.0172338062857979,-0.00662675529164162,0.00077162787742838,-0.00677748537136237,-0.00912590321859979,0.00631374259836611,-0.00705991799399005,-0.00230991058567928,-0.00955108858929462,-0.0020628203980853,-0.022438335958013,0.00623089765217206,-0.003577537897516
0.00407410037078677,0.00591185254079815,-0.0139846572871632,0.0134792358021261,0.00897643269773,-0.00916545054494334,-0.0013391113725014,-0.00572838162306497,0.0232697289357044,-0.0125325881834847,-0.00717142295453678,-0.0124860606360993,0.00233171568177732,-0.00104759523223536,-0.00413157248939312,0.00410494719740732,0.0189744665026613,0.00776810791294089,0.0138695193226968,0.0318599441058333
0.0212384223747445,-0.00596012316603247,-0.00592368297713702,-0.00599345770528539,-0.00508666417097668,0.00653567863051018,-0.0212355658500707,0.0267859797451221,-0.00180770887878735,0.00411386870139504,0.00476135974248692,0.00989285089872309,-0.00041827114777918,0.0114228118493732,-0.0209183397502791,0.00934177106577468,0.00507800646350816,0.00115989249837702,-0.0215872449804369,-0.00726954907351964
0.00278716562784725,-0.0139014645141561,-0.020636049014713,-0.0078619221519746,-0.0210242057575161,-0.0130550927568647,0.00272854588215748,-0.0157665287594666,-0.00227515070921696,-0.00655084179247541,-0.0327102814933057,-0.018252132801419,0.0179250813361262,-0.00150980466316952,-0.0160103316709666,-0.00459296019157855,0.0072024026634396,0.000744265240414938,-0.00435540263490589,-0.0124289946999287
0.0112495464827677,0.011896743054814,-0.0309429352406658,-0.0227397210123047,0.00757862045377985,0.0110160640225005,-0.000130360307286442,-0.00397696158833833,0.010520187338895,-0.00346859177627372,-0.00399626831268654,0.0175154861703905,-0.0114144483722409,-0.000670920263518499,0.00784757784898591,0.0216210491033305,0.0156714390611267,-0.00576591366028671,-0.0114599553770817,-0.00558908959334784
-0.00373696693961888,0.0113532153787841,-0.0177566802298963,0.0288117818957988,0.0208939365132164,-0.00543836583774006,0.00258684481445651,-0.0193068494179149,0.00568360198396321,-0.0118281473968702,0.0156593190592078,-0.013028219141634,-0.0180415691730459,-0.0118165550933635,0.0106236532536503,0.0195944748914762,0.0117098072639016,0.0307326357119898,-0.0187283074023702,-0.000745514379376216
0.0215999570378195,-0.0196046151476936,-0.0153332119555628,-0.00427382654101832,-0.0173507804927043,0.0148485523755312,0.00754195182234952,-0.00977112951735924,-0.0130744319185467,-0.00762897966005472,0.0175339025668136,-0.00803146440268784,-0.00830564345800969,0.00163437182772888,0.00685699805332144,0.0175586865585398,0.00737679324277868,0.00972014503067287,0.0181907951890087,-0.0199135822969404
0.000750025373663754,-0.025219025020393,0.0110468031389534,0.0141803059742371,0.0119272805355074,0.00459062316109401,0.000385465025860797,0.0077446058835048,0.013971179382786,-0.011660566901236,-0.00810688614736837,0.0265904810322121,-0.00760070724035294,0.0117547549881098,0.00875115724368352,-0.0105369822098436,0.0261077450985374,0.0124159001183043,-0.0182564961595714,0.0325866771690786
0.0012021567070289,-0.00734556728156047,0.000987322526488681,0.00475138939587549,0.00114881807397486,-0.0108385254459652,0.0240728354973631,-0.0191673171624977,-0.00766833931618602,0.00205997696510158,-0.00128065137952063,0.000748733034352968,-0.031439258732772,-0.0150256794464016,0.00213175840973308,-0.0136668472503802,0.00293683641343216,-0.00740071552137657,-0.00113293726437208,-0.00488425537001521
-0.0167332875287303,-0.0115236834734531,-0.0125106090001951,0.00844404636559916,-0.00694981945401225,0.0124866348685962,0.0106467089720163,0.00852563161395825,0.00873127506331114,0.0121064638638565,-0.0214213672694986,0.00677101888930964,-0.0172712255521982,-0.0278260293562834,-0.00137870868440649,0.00411083569368504,-0.0254778296969596,-0.00170983195596762,0.00598160295073999,-0.00224251045946127
0.010394890406687,0.00250032266491596,0.0248734532118402,-0.0137828714919404,0.00276929342656297,0.00459787087784826,0.0215392386295531,-0.00907218620968011,0.00390800667311188,0.00593457191228185,-0.0176919664534722,0.0163470680312916,-0.00753013790183441,-0.00194963093064296,-0.00750858970036685,-0.00194646976609667,-0.0413750344594194,-0.0095086847194976,0.00201307349963009,0.000325124854602808
0.0122308279822615,0.00716519419743056,-0.0158110454083197,0.00823620048946015,-0.015880145927231,-0.00441493539473631,-0.00762649387354168,-0.00312324674114,0.0236020406049566,0.0105581306926233,0.00584727702656181,-0.000635257149918957,-0.00279720872251709,-0.00233534950614854,-0.00362803102660829,-0.0139817608406546,-0.0211484514537415,0.0121972614205641,0.0181225832805406,0.00895404335933286
-0.0204948383387026,-0.0222949796956316,0.00703115804069884,0.0108060168009581,0.0129076057068899,-0.00757746283798719,-0.000999373040063972,-0.00961903019419771,0.00445375835522499,-0.0130659694847028,-0.00909123795075517,-0.00175190796075417,-0.0147974032048395,0.0162489273310665,-0.00475372102947657,-0.00570208526088088,0.00409036712703067,0.00846980199014808,9.24697367935042e-05,-0.0135581582368452
0.0101547902064546,-0.0108145968284999,0.0129624681114768,0.0220453014536836,0.0196491053591241,0.000712821715268994,0.00088973688004692,0.00434011280671187,-0.0071974012031284,0.0178816480311899,-0.0111995273079671,0.0135413327947067,-0.00955800295266777,0.0108492205744258,0.0145657862494127,0.0101713591341216,-0.00945266638980471,0.00638444968805159,-0.000554894265572593,0.0094304323949216
0.00629110037863194,-0.00115164264484581,-0.00867448876450426,-0.00119222357276872,-0.0196691617501007,-0.0131779429204872,-0.013768353666596,0.000158288402688779,-0.00482179062296098,0.00159606350033286,-0.0128012075927851,-0.0341335058760262,0.00794645837511721,-0.00841303519306297,0.0112682231923266,0.0125994160701601,-0.00355635688217058,0.0113353527991844,-0.000686627335555085,-0.00480259554506232
-0.000334770949798187,-0.0136426675889251,-0.0170351992625479,0.0080067943577393,0.0102481467259018,-0.00854270250206487,0.0017622153114815,-0.00501016800512953,0.0155965020779862,0.00209157102601147,0.00603147360680855,-0.000847478855417844,0.00109493589812129,-0.0102412552224852,-0.0320833634334669,0.0133737930195418,0.0279099523923595,-0.0119669076737948,0.00135733833389762,0.014993716919191
0.000222446039993841,-0.00648590865055608,0.00142908790838672,-0.00319386330793741,-0.0230701848339341,-0.00241382619882604,0.0292074267195237,0.00578022714361864,-0.00625086340117911,-0.0272351920787803,-0.0156601781992064,0.00352061048282531,-0.000293018470715728,0.0205716317960146,0.000122294100148506,0.0132177481344419,0.0114533608276176,-0.0112590134432684,0.00352447205251355,-0.00940195954501723
0.00212154441990796,-0.0226663572007542,0.011724700550874,-0.0142669762848871,-0.0303283019813119,-0.00162821162419487,0.00445359637187748,-0.00494891181319376,0.00801820461257217,-0.0129316340859755,0.00739325897862872,-0.00694201355154274,-0.0225412848930473,0.000968277145664739,0.00542670629708498,0.00756765176481275,0.00171166327532025,-0.00958176466294928,-0.00372658189733301,0.0106224255894738
0.0161046761314384,0.00383626064378511,0.00270284858024462,0.00631755992895402,0.00493958298353158,0.0114490744441059,-0.019956749521104,0.00334576893345687,0.0152585014874994,0.00431947196062388,-0.00830237667245255,-0.00559347345878234,-0.0189998691554621,-0.0111371786868346,-0.0083969696560475,-0.00682811973326676,-0.000467274993333034,-0.0293418425134589,-0.00833889833003844,0.000182935175368738
0.00439233065814841,-0.0127971761723572,0.00158949240820775,-0.00187056853867237,0.0149896038317701,-0.00827135518593554,0.00313402665853235,0.0237277078020049,-0.00189779558805138,0.00550645263620676,0.0072010071507948,0.000264711820003606,0.0110663732944859,0.0172059510608414,-0.00873538984852067,-0.0149881178878574,-0.00128618944163423,-0.0362375279211127,-0.00188132688391458,0.0158385106419206
0.0061119485422998,0.00744969745405325,0.0129402831600483,-0.00739184847510509,-0.00216404425569176,-0.00318948017104192,-0.0108986477099864,0.00840466251687609,-0.0133030001432318,0.0144731165569595,-0.00419204866897137,-0.00908434039428401,-0.00559942385699003,0.0111885776535603,-0.00198827722869599,0.026112177670711,0.00481073886271886,0.00528935966312648,0.00463429682176651,0.00116741403549411
0.0139628771147574,0.0132714802813875,0.0206515628765006,-0.021053997607251,-0.00936857169561287,-0.00176707441748125,0.00486104333173441,0.0136437486267445,0.00178066071920083,-0.000126442549924086,0.00869445297855521,0.0160649532708249,-0.00331890419161448,0.0091155503276521,-0.00910118160683167,0.00870771299002647,0.0215064857000478,0.0142178518826008,-0.00120190116442376,0.0268810459437522
-0.0168282445507008,-0.0103560913822892,-0.00743956288807058,-0.0093264749641257,0.00782526163560549,0.0158078768489974,0.00228318189919061,-0.0104259452211685,-0.0289325088691957,-0.00386128094412391,-0.00530641112497916,0.0117802796516666,-0.00367749798495821,-0.00899245570934253,0.00135792261292346,0.020401107310802,-0.000183268936918233,0.00188563764189084,0.0121413989012425,0.00335710535655416
0.0140341410851112,-0.0143670832946683,0.00308960961394172,-0.0188132523039587,0.012015646361153,0.0127450303001035,0.010885309706824,-0.020401251015122,-0.0197190270115153,0.00674784760916209,0.00326134101035095,0.0271845349411415,0.00822998838513978,0.0155839556472049,0.00983686237630947,0.0157366791156771,0.0115641405986007,0.0180633465004707,0.0100436468745396,-0.00936140990479041
-0.00742130944824347,0.019614999847939,0.00313147102376039,0.0167828939901347,0.0129562258872093,-0.0122883409523189,-0.0267825338246688,-0.0046328877140189,0.00609509173450754,-0.014329980758703,0.0196128386292473,-0.0065117890058825,0.0052578950776686,-0.0123675698763685,0.0235122259688998,0.000237854491907359,-0.000233227901726721,-0.0150134840379354,-0.00350567643723898,0.00528699430898502
0.00836030435200351,-0.0193851182371066,-0.00433257545413139,-0.0189183748851638,-0.0147209135864222,0.00399096269686636,0.0136592373261751,-0.000507739341291523,0.00769381536745505,0.00158341380115533,-0.000635222769192023,-0.003191342707471,0.0146844916985432,0.0075097449355884,0.010201248094938,0.00762764538418125,-0.0212848260924686,-0.00317788194144955,0.00775506295948519,-0.0217520420262335
-0.00572403274980799,0.00713464190290219,0.00614407536275935,0.0179587601227534,-0.0139390859326588,-0.0304140221778902,-0.0101267412433388,0.00181774914703562,-0.00102155438510957,0.0160454472353919,-0.0200293798006335,-0.00238641061218407,0.0217671614324251,0.00605029826319689,-0.00152855264285634,-0.00510325343968857,-0.00896877131341701,0.00585520807141988,-0.0250670087662541,-0.0135640473082265
0.00785952018353785,0.0046806515170216,-0.0105724904595822,-0.00773199437281303,0.0113422155222937,-0.00405628268653165,-0.000133795788216785,0.0103236742734082,-0.0237532776075629,0.00852267203962788,-0.00321049842863063,0.00366210390170865,0.0082222940532031,0.00381600876982191,0.0326272743466891,-0.000739288794004827,0.0121356558462336,0.00884388850346542,-0.00866399402628593,-0.0129759302624008
0.00683572064245389,-0.0146770472343474,0.0158896449566096,-0.0115206655948185,-0.00303638773941408,0.0193391730793386,0.0117395060837273,-0.0147411185616444,-0.019038650548583,0.00238274368020568,-0.0094244573852599,-0.020813732327225,0.00417203240206247,0.00452135011736504,-0.000702329548178549,0.00584820490214153,-0.00914034925962588,-0.0153732298454273,-0.00935671757134655,0.0020142385992326
-0.00305804674475117,0.00353013375232645,0.00125996830045125,9.17633156016479e-05,-0.00351866124089251,-0.00085690226960628,-0.0174190412980399,-0.0120507693459182,0.00909650502964633,-0.00566547557450447,-0.0146107078907419,0.00733979948268872,-0.0075822287103363,0.000764405692990701,0.00214593448759947,0.0146994434719301,-0.0160501810391344,0.010031245558719,0.00632264484943312,-0.0203042852955037
0.00430427814033855,0.0173428957342709,0.000698232736194019,0.00753188885812376,0.0253140273862837,-0.0270489257679427,-0.0183253690985113,0.023193479950971,0.00203533629457793,0.0113550762319268,-0.00833921152156314,0.0208293786399909,-0.00891589357459472,0.0163471252780365,0.00940330894862271,0.0237081550927273,-0.0196062565541552,0.00649126499625223,-0.00950108984018953,0.011127113436673
0.00431789383284725,0.00685973696331531,0.00795013811517592,0.0137627663114325,-0.0250794505451708,0.00495228511644774,0.00182781832507452,0.00178744841329957,-0.00777566022320252,0.00856194184826323,0.00985015807356542,0.00505263361925074,0.00572907293319114,0.0199906054198177,0.0133249237256009,0.0148033447228268,-0.00382685762320743,0.0218793241797796,-0.0166286279257504,0.00615042499800024
0.00977705823005473,0.0140231261068181,0.0149336866223331,0.000967595657336405,-0.0213552851566376,-0.00544129037702024,-0.0104626326418763,0.00812169445743514,0.00607366294733652,4.4160888319679e-05,0.00598753040245785,0.0213596710633924,-0.00266252879322243,0.0129510405294139,-0.0141444132909196,0.0128793724972345,0.00596508718084302,0.00327750546722014,-0.0124321373763126,0.0155858080478635
-0.000237705034489602,-0.00879561803735323,0.0260997044282399,0.00115448138754838,0.00242845929351468,-0.000954879765768508,-0.0140018485491479,-0.00207216007913785,0.00681388240687691,0.0227714108929155,-9.87554608901819e-05,-0.00983901774326077,-0.00255221610760861,-0.00410759248663621,0.00625132256608708,-0.000845773701352041,-0.00219630964089545,0.00874375413138747,-0.00271814817997402,0.0114808312408849
0.0053017405194639,0.000666261424198435,-0.0188132797856848,-0.00115736632723118,0.000117029173704171,-0.0140468950583796,-0.000139349568894366,0.00820885996490703,-0.0212763799564742,0.0165122711805762,-0.000671060701065268,-0.00719320654679096,0.0056842358017991,0.015562916508085,0.000242035206148267,-0.00351158472192528,-0.000559589816729468,0.013779392789542,0.0136139958882428,-0.00186076073051291
0.00659588397432677,-0.0170331097858327,-0.0072979687793481,0.00290506654766941,-0.00462674937031203,-0.00108730922084984,-0.0228177046679702,0.0219810917401174,-0.00860643976929533,-0.0124504097390393,0.00571724737034488,-0.0154391354871726,0.00325709220203123,-0.00293119523403181,-0.0093052165901054,0.0177313517293257,0.011801851424928,-0.000490034021952167,-0.010077497229608,0.0292569741934079
0.00556290529952571,0.00426106796749123,-0.00348439171425285,0.0284328679077439,0.0271038703113688,0.00195888316565711,0.0009349263068959,-0.0174037989944565,0.00914046764795223,0.00730450519896315,0.00169866799970328,0.0111798270491739,0.0149538429242429,0.00807070221634336,-0.0205941341004036,-0.000720269708214198,0.00773765772721036,-0.00783999965086699,0.0145739650909691,0.017499444411524
-0.0168652676753792,-0.0130854838163174,-0.0183273512053986,0.00858476797712592,0.0189256557716223,-0.0141855160488889,-0.0210697980075853,-0.00620089694990534,-0.0148269210647228,-0.0161339399239919,0.0197237246262648,0.0151231586568139,-0.0012962395724885,0.0194720416568218,0.00244720961221829,-0.0164462381881597,0.0192602309667559,0.0110375632343382,-0.0193990360673448,0.0207995630152091
-0.0117678181025499,-0.0164281984403461,0.00459280927811818,-0.00120113425934274,-0.023034683782432,0.00677403745606323,0.0230164981112239,0.00381095893753979,0.0166760493608802,-0.000898498396307369,-0.000644297316033365,0.00807947945193404,-0.0120870166547707,0.00789814514521217,-0.000863702429743968,0.000407936012621242,-0.0194531592347202,-0.000338638627308374,0.00763459638627645,0.0229990993420802
0.0125040218337759,-0.0116995490003373,0.0134376089445009,0.019715532486364,0.00797202586743039,0.00626734479052761,-0.0116957278407292,0.0071761690098598,0.025293863621249,-0.0124720901229529,0.00564299399603309,-0.0146777270225051,0.0104005325974206,-0.0116613216357857,0.0146108100271721,0.0217894845827091,0.0101964945748079,-0.00244970951063028,0.0197732523959569,-0.0201174083517715
0.0115407855531661,-0.00331677582172226,0.0176855388352641,0.00769496150763662,0.00117254356530992,-0.00285166373986218,0.0162076915535873,9.21727862351798e-05,-0.0100291037084769,0.00770653476836111,-0.018948953830354,-0.00670394365895612,0.0141969062623539,-0.00426157008510104,0.0110769116734026,-0.00235105996401678,0.00639702600805415,-0.00907287058015826,0.0164520034500072,-0.00607328584089161
0.00309490005427017,-0.00277543013489819,-0.0231277004996782,-0.0211276331264365,-0.0111524731104119,0.0116636954763872,0.0162359105714588,0.02183170478528,-0.0061490078355339,-0.00422884598306454,0.00668422213122659,-0.0179034297808756,0.0219737615772011,-0.00380186782106842,0.00259278158087604,0.00333174974568855,-0.0124455628339039,0.00734159270404604,0.00852213182590392,-0.010487776352527
0.0157881480631356,0.0060197697914745,-0.00442186327001889,0.00153159074588764,0.0212651434827669,-0.00712900658819746,0.00943857350584664,-0.00865349408126467,-0.000454360175662227,0.00143316974251775,-0.00248301769441678,0.00740462805377695,0.0182736666829613,-0.0175263742047641,0.0152204878952359,-0.017665624025862,-0.00627709535003836,0.0134910784708675,0.00740581723241634,-0.0189460746206403
-0.00683952114858539,-0.000563477942123063,0.0179603058418647,-0.00666822522408537,-0.0105637752880788,-0.00937265961787454,-0.00642703064284037,0.0158204744789316,-0.0183823418845571,0.0293287875368859,-0.0219176021992804,-0.0277383319454287,0.0192335721633582,-0.0009323785169623,-0.00319246131984032,-0.0181524248919019,0.0220215381129923,0.0149632986306292,0.00649346611276552,-0.000196943052471797
-0.000483656007611328,0.0151140349908625,0.015299745297909,0.00278121270410283,-0.0112602426449888,-0.00954342080952875,-0.00260970862672306,0.00694695112996078,0.0141502957580399,0.00553525655156713,-0.0137275326991774,-0.0269622535999727,0.0120090388235088,0.00248129610608387,0.00486267299300667,0.00441023164116254,-0.0227423806831223,0.00349621405155223,0.00332981118889272,0.0161891804442813
-0.0218487468472915,0.0177020593637891,-0.0189296445711581,0.0111222184887373,0.00925805358459948,0.0124691430193855,-0.0169276425066836,0.00336384718380162,-0.00201780193039022,-0.00506510492291692,0.0220839609283451,0.00438464041388704,-0.00911278479692711,-0.0121230478477619,0.00640450854060043,0.0147185511453797,0.0087213375222647,-0.011787328173432,0.00187161568832758,-0.0026665792236181
-0.0132132486123164,-0.00296008106159487,0.00614051381655134,0.00740069319783538,0.00903609899732723,0.0178205986793865,0.0106144418853747,0.00373677430590075,0.00362342472167016,-0.0150051539480316,-0.00652922898675205,0.00560665666115357,-0.00778728963240918,-0.00229766328299215,-0.00656328355637437,-0.0119051980860957,0.00540433280437673,-0.000692410076114123,0.0208094642619169,0.0109629808026091
0.00261006888365318,0.0116127103613762,-0.00821816136966507,0.0229262039332138,-0.00689664817707902,-0.00980019078277508,0.0108346719694477,0.0154807753215331,0.00782008998347122,0.00790845203972597,-0.00248839633054361,0.0332334737976417,0.0252619565938025,0.000681189301758417,0.00901871908443428,0.000535088974633039,-0.0142127884128717,-0.0079058953900403,0.00848842674992989,0.00708075696743513
0.00467657934460925,-0.00352808596306157,-0.016037303989339,-0.0137114485866225,0.0119995753255877,0.0210001497449127,-0.00940302002648318,-0.00982644583040818,0.00190745868957199,0.0103415653850256,0.00241131069189076,0.00179206612841418,0.011904575559318,-0.0190675884882371,-0.0115725070320251,-0.0187128436885914,0.0104214065061528,0.00220640604058976,0.00476916482767434,-0.0105324775044266
-0.00491930042184622,-0.00176275048495861,-0.0205408211649242,-0.00508897858886403,-0.0150123778061144,0.010520819124955,-0.0103293490237106,-0.00301314089513985,0.0103127888773271,0.00273532429586751,-0.0114399855728191,-0.00230390561208404,-0.00521228566517987,-0.013334471689328,0.00224418071238441,-0.0021320384466493,0.00219379563433941,0.00635694749087936,-0.0139906155090055,-0.0150646630470961
-0.00662498830705023,-0.00561806935785836,0.0161287409658356,-0.00501921817772509,0.00744127943144212,0.0215108426940803,0.00333924830991783,0.00323452518627743,-0.015498238247828,0.0196757977172825,0.0067950248465549,-0.0167898491068762,0.0082188453066082,0.00790115671980443,-0.00420558721829124,-0.0177135691141544,-0.0116630284975523,0.0107223987792916,-0.00730303699320786,0.00477408962094683
0.0139543385127687,0.000792508022453703,0.0132288509508019,-0.00138381896317798,0.00856175547969029,0.0181133867234964,-0.0109350448721087,0.0242109596578752,-0.0304184114822459,-0.00318345667991305,0.000992255720191283,-0.0143678414499462,0.00357934435122018,-0.0152235700759211,-0.00239004493655067,0.0140407073463202,0.00837992604602668,-0.00792763023928955,0.00586907351887545,-0.0140415235977113
-0.0236050224344843,-0.00927280346246792,0.011021856271326,-0.0192630139790156,-0.00224574498261354,0.0191902079161478,-0.00418404885707134,0.0320253065474187,0.00718780562466566,-0.0126936735942609,-0.0287848289049144,0.0133203581364168,0.00160028680892305,-0.0163399734985508,-0.011938545632614,0.0220891440484585,-0.0267914509659259,-0.010547804824778,-0.00446423225275648,0.0124567021539125
0.00666914462506519,-0.00386620310334752,-0.00601269006434761,0.00959048126877504,-0.0139664290057896,-0.00226390242138763,-0.0175910747505115,-0.0275446482823745,0.0122673055695828,-0.0306290848984473,0.0259620477740167,-0.0162262666907911,-0.0165787205429555,-0.0083851461744285,-0.0133924546504959,-0.0178850327705337,-0.00131170106523039,0.0149106813445649,-0.0177409430959387,-0.0296465696011572
-0.0172792334303435,-0.00306833529326197,-0.0148437708641314,0.0081137512632786,0.00555006195049995,0.00421218912136975,-0.0138853174132073,0.00436102697363797,-0.0120924232827256,0.0081413085526246,-0.0114504721768041,0.0157445412058393,-0.011853033272316,0.0138276418948413,0.00406893902169622,-0.0200357686798779,0.0134662566530499,0.0286138829709442,0.0132952151552686,0.00037205025519573
-0.00133482081031656,-0.00638495526825099,0.00256596366313816,-0.0300651744159835,-0.00100022287081876,-0.00711709914493918,-0.0151230062834565,0.0118309377962427,0.00541847952651268,0.0161731773716488,0.0124768358274822,-0.00552789912409457,-0.0192521773069002,0.00631271336440986,-0.0124821218247353,0.0146162791528347,0.0263292336983198,0.0142145330403839,0.00740311619774348,-0.0222199329605587
0.00574159536671067,-0.0164153610628526,0.0243004224997936,0.00249876134186588,-0.00557086674291487,-0.0165055022157567,-0.0184207801498299,0.0024510254685171,0.00789238992535367,-0.00381483971042158,-0.0185755152963646,-0.0148431609719688,0.00158590377197263,-0.0156818055363483,0.00556589823330822,0.00802962960669718,0.0155042186747243,-0.00459008687900507,-0.00123733688613015,0.017105866850534
-0.00834568010682698,-0.0043763421250112,0.00791139247599612,-0.0017148283936215,0.00401102501000987,-0.00505614859649592,0.0131766783970716,-0.00213880233941964,-0.00478316170366557,-0.0175275186050438,-0.015351381156075,0.00947532823033365,0.00420408521797568,-0.00237108066282475,0.0022090056127433,-0.00878870475701241,-0.0206764876555467,0.0211572500226301,-0.0268418893162609,0.0239737226634461
0.0114740522391548,0.0259325188702256,-0.00664632841524884,-0.000227507918010903,0.000125661747886038,0.0104004036345074,-0.00439519649665368,-0.00443526818536526,0.0118128218112215,0.000887152005963098,0.00277304263509768,-0.00808177531577319,-0.0148409968339633,-0.00460485085163498,-0.00621516606904105,0.0202234098758708,-0.0137690446102645,-0.0037582993962587,-0.0179624216389771,-0.0248088770190038
-0.00895521502909641,0.00692921057122087,-0.00950335739793203,0.00186564860432808,-0.0277580032247008,0.0287229360612626,-0.00592385836431331,0.00610353160006557,-0.00312327680699344,0.0196593396770002,-0.00994266365858469,-0.0190892967310305,0.0235657087682252,0.00691708999508199,-0.00391055513912283,0.00817739344668015,7.27031732391109e-05,0.00970781217129674,0.0138779863441267,-0.00878011216904329
0.00404049063765231,0.0190241917464755,0.0118423444828482,0.0120259867497957,0.00891890987911517,-0.00168481053000723,-0.0123693660830918,-0.00281161812351886,-0.000264342184406585,0.0144837555097732,0.0178872703415168,-0.00688406797954008,-0.00024901567243624,0.0170646456109328,0.00530193908713739,0.0155538913243665,-0.0107964715356142,0.0119265832901184,-0.0239623705359139,-0.0113503407522883
0.0139203920579027,-0.00282109003952773,-0.0122344803228404,0.00973174313595401,0.0192588238646856,0.0205458394169504,-0.0111389512718481,0.0128002475459166,0.000802658873856479,-0.000531811974974004,0.00411456366208279,0.0216248015974419,-0.013996569289771,0.0092894498655618,-0.00356840228112975,-0.00829194639359502,-0.0134427262967041,0.00614265726282208,-0.00430973798821666,0.00875547949020677
-0.0119410589791417,0.0059771998611927,-0.00919777145280869,-0.000937634421327639,-0.0198439987253787,0.0142596841523365,0.0111506450864887,0.00732741267584377,0.0209500870428373,0.00597688357579166,0.0171082131859138,0.00859406358885132,-0.0174577831948782,-0.00892745938531435,0.00835998917044728,0.00607706530082768,-0.00731881034965377,0.0152565173287622,-0.00966918672755156,0.0160297918326276
0.0285643054193666,-0.00546567685095897,0.00902882500843124,-0.00148500472272464,-0.00725658165235495,-0.00621656552766238,0.0102553252462389,0.0151713927383657,0.00730286016891915,-0.00770487620022023,-0.00307251282844633,-0.00449395497322089,-0.0111605705515121,-0.00883195457291336,0.0167183605235601,-0.00881557781822663,-0.00204947166786698,0.0114117290325038,-0.0103894795637032,-0.0153482420073137
0.00135693846528213,-0.0159869026781978,-0.0300543200130157,-0.0137418198095144,0.00374726691068808,0.00442155402573815,0.0324772201906364,0.0103942634268188,0.0130491760713111,0.0318514658811292,-0.0027047698183526,-0.0111112252233852,0.00876535763805494,0.0181327302990249,-0.0146631113586631,-0.0264135736298394,0.0168764427873368,-0.0106670984330006,0.00184440564215189,0.024422738923266
-0.0033988538506067,0.0126552291095552,-0.00845271567094781,-0.0156394173566607,0.011610471647155,-0.00940783788778294,0.0263391135864392,0.00260654322434603,0.00508830706927778,-0.00578167039559828,-0.00826663249371567,0.029893897468668,0.0100640435712258,-0.00086169749614967,-0.00469743583214745,-0.0110939780768657,0.0212838221633731,-0.00605053520459027,-0.0127184358361303,-0.00950794935267953
0.000845055238598499,-0.0044733811636554,-0.00792726593051717,-0.013183268374373,0.0110922231831684,-0.00754095994910771,-0.0100966520443247,-0.00336246687848374,-0.0258282108241873,0.0280646422855597,0.00811333574972402,-0.0128108358364636,0.00465017900374971,-0.000155420362295625,-0.00519783123337777,0.007268412575553,0.0124255767376258,0.000783062083911831,-0.00237968537039197,0.00322093592923773
