0.396066938531927,0.793226296916426,0.675784958431427,0.961909883242531,0.417475781498045,0.71340391362527,-0.0871940657795976,-0.927746365848517,0.329877788044238,0.128140663590499,-0.67405839815767,0.150741087610849,0.566856912619163,0.895021280823225,-0.546872685586441,0.310381887988738,0.385772071540464,0.0401402174660456,0.814007588326099,0.62015760376468
0.0111376399790496,0.0143690747595428,0.00992442798663154,0.0154606200987807,-0.00704898764767247,-0.0151061369073998,-0.0130080461207228,-0.00940110775338472,0.0127095469198943,0.00586577101235819,-0.00787127457492675,0.00807558137081137,0.00681645906385497,-0.0113112069859688,0.0068572916389105,-0.0134171147287199,-0.00697264488189596,-0.0148237216747979,0.00211175071442488,0.000470913252680508
0.0105739532243478,0.0021667448208723,-0.000210783139841772,-0.0037155850200504,0.00431156447229919,0.0153013659112202,-0.00533911888657465,0.0140774212493452,-0.0158875328629545,-0.00762120676782443,0.012002884252942,-0.0122602722755735,-0.00686688249784511,-0.015485743726397,-0.0150224722787549,-0.00263333308482627,0.0102197856683531,0.00548410462945532,-0.000509273934675447,-0.00897910108876924
0.000127950170472285,0.00154172618941474,0.0117695633984491,-0.00877629202305589,0.00268030610391711,0.00421305110140548,0.000911919436569361,0.00768941651968085,-0.00352635084502882,0.0032897337228228,0.00228575356358563,0.0067201160262093,-0.00887621397603681,0.00124926427987376,0.0127182012360512,-0.0006539147397306,0.00544187575659389,0.00996433156641334,-0.0152404001458294,0.0148436673826754
0.00547477625609751,0.00281484650723146,0.00878887548296104,-0.0156768209199459,0.00330149738087072,3.45668983827742e-05,0.00435521247887516,0.00140006728047085,0.0148385318865646,-0.0118057694687902,-8.95187829537619e-05,-0.0117768675131619,-0.00971972512924443,0.00103103037211881,-0.000138703512755899,0.013644249528809,0.0151092013446653,0.00398038791537313,0.00817184769706141,-0.00304668141202413
-0.0138243345380285,0.0143176096093945,-0.00407176287740296,0.0124809655212455,-0.0157283631029616,-0.0158818894825171,0.00697712815506937,0.00741578301027186,-0.00243123121364805,0.00374423855827466,0.0144480577419086,-0.010669649705416,-0.0120550446071077,-0.00703603349667626,0.00233388624524168,0.0112543582384824,0.0102483939771135,-0.0013609054880321,-0.0143860470433199,-0.00736344168735486
-0.00259315453646791,0.00356660616285159,-0.0151364683388635,0.0122066596941091,0.0156229348545011,-0.014224011921003,-0.0119266823499969,-0.0133421753277738,0.0097765738166887,0.0107935868100798,-0.0147113279471764,-0.00647241484002154,-0.00479955997593892,-0.00466096354532668,-0.0055697955907468,-0.00737912042676027,0.000936922189728846,0.0123596757978631,-0.00362294106008968,0.0133915517320714
0.00410681565886307,-0.015698479545917,0.00420209500378233,0.0140620734666428,0.0108285669556697,0.00315025813287009,0.00537354478923184,-0.0118212930706915,-0.00233605734598465,-0.0124612777872553,0.00849101661854404,-0.0102876265155534,-0.00971778204313939,-0.0133863920807173,-0.0111998575714251,0.00396389776750784,-0.012506392802334,-0.0097906120343829,0.0156959524384031,-0.014838735909651
-0.0144083447880855,-0.00849363992568591,-0.012833458552735,-0.00631286763053402,-0.00144654896622145,0.0156778372468908,-0.00917914468774258,0.000497072575815624,0.00171808391531056,0.0111081323724754,-0.0146893771634894,0.0145072627867845,-0.012840307423983,-0.00645017877182304,-0.00871098831143814,-0.00752727067179883,0.00788609410685275,0.00025850696814147,0.015650347882566,0.00120745834339773
0.0105436796973835,0.00648099528683003,0.00858353347185841,-0.0103080271326166,-0.00975976722926316,-0.0112552110836022,0.0130153760564094,0.0122377447225253,-0.00429215675039075,0.0139447902721171,-0.00580150148310899,-0.00663645968381362,0.0128717441106418,0.0116429903197011,0.00561692347573186,-0.00831425222171252,-0.00757712254766349,-0.00826577073508527,-0.0144188135337943,-0.0136809572178701
-0.0160027168893399,-0.0103475564474666,0.0130595252852369,-0.00257341818061445,0.00976741034895543,-0.0155281305372898,0.00218414278087904,-0.0110843148359954,-0.0022586869811206,0.0139788783026301,0.00454020252459436,0.0115253454575392,-0.0110637664585492,-0.0149800658828773,-0.00224892345855133,0.0133839841268292,-0.00418463024434133,0.0117293152074537,0.00581598600642922,-0.0129356095093213
0.00862771135901332,-0.002497462563177,-0.00479121107988051,0.00164362301627451,-0.000379012945590213,0.00332545936317917,0.0114386842786127,-0.00929377215004984,0.0106680144381576,-0.00387804610686542,-0.0116038574299789,-0.0119390824182528,0.012311225001807,-0.00350841135401715,0.00280362675146754,0.00839396404809504,-0.0149445052200674,0.013615842324454,0.00233558979867388,-0.0098916062216738
0.000371227052791752,0.00826895879136883,0.00494824284226925,0.00321727117508927,-0.00966803413484703,0.00676013181268813,0.00180722466366021,-0.0117047222444278,-0.0153940909459035,0.00462763205574236,0.00784905480985232,-0.00197578260624297,0.00319074842821998,-0.00646357563816349,0.00188171049013845,-0.00795214154713309,0.01117163263322,0.015103022279065,0.00660690403323484,0.012735896077431
0.0138696837399603,-0.0062138103580423,0.0158313169796733,-0.0109105977204253,0.0106955529620363,0.0132137711762439,-0.0156846870846087,-0.00362229115761461,-0.00273276904263195,-0.0127671540052048,-0.00811437808731938,0.00257678132670768,0.0152703834488683,0.0127804442560095,-0.00500883123754202,0.00808008210966746,-0.00366619829057363,0.0115587858336002,-0.00415095125928908,0.00226623140309086
-0.0107958234109328,-0.00958757323726239,-0.01495076060024,0.0159542697627533,0.00840334576543496,-0.00904095702490191,-0.0153976632670431,0.0151970271332621,0.000208409160004907,-0.00414911193880761,-0.00919193070211807,0.00648721220896587,-0.00442491444914223,0.0107583111088699,0.00697026858104207,-0.00438808481303973,-0.00249574864782179,0.0111143922258255,0.0132247839577285,-0.0116696712209757
-0.00875688377522635,-0.0156781700460782,-0.000165439012769202,0.00510681425919517,0.00410579002272208,0.00996493891294183,0.00597017832977318,0.00699806321002536,-0.0068816123257095,0.0144470865874021,0.00951916287281392,0.00630600669037555,0.015904285137551,0.00875681191210114,-0.0124074051967913,0.00558402869497222,0.0152983994344047,0.00751442438054612,0.0110001642351127,-0.00442048142326353
-0.0156238409028401,-0.0121360856310467,-0.0122698727328773,-0.00680535406278319,0.0109945000440725,-0.00280073380036605,-0.0027754584565209,0.00694896619262714,-0.000648966015123611,0.00961737276055105,0.00434622057092612,-0.0142655433516387,0.00648993777757353,0.00650945572492265,0.000761076316666404,0.000688951463333578,0.000351726574893631,0.0112467754227413,-0.00514361261712982,0.00970907008226918
-0.00700563916717791,-0.00419817801121901,0.0143448684154142,0.013993990166411,0.0120077055342808,0.0103205269463801,0.00846781186868939,0.0112591819883979,-0.00479533518859706,-0.0028288341969768,-0.0146351475517461,0.00741079391983736,0.00899727785987855,0.0136005232183166,-0.00370389767365152,-0.000503872931279333,0.00216933968438254,-0.0112023611999984,0.00320321925487757,0.00358242291176787
-0.0107310425485157,-0.0119840925848444,-0.000654897573124136,0.00683590399225566,-0.00584882745906397,0.0144704218601437,0.0077951129422658,-0.00710563135927455,-0.016062886971641,0.00813364715341191,0.0157024143042205,-0.00567227003843509,0.00210941794680111,0.00482347510064445,0.0132917712876183,0.0137452565437414,0.00481084516838981,0.00740633021848125,-0.0149893115203263,0.00923846776489332
-0.00308162478117341,-0.0142276162062589,0.00505505341711121,-0.0121226844597256,-0.00768534707599285,0.00492196225980104,-0.0025031238027817,-0.00700563693074899,0.00507406195574892,-0.0142540256077031,-0.0159695504297418,0.00646467885131493,-0.0106838874127404,0.0156012862986669,0.00951561218295867,0.0121279309203318,-0.00257821662306056,-0.0158285810746981,-0.0156172075091286,-0.00217515283091859
-0.00653054157453243,-0.00787336598829998,-0.0118729633511342,-0.00504888652815065,-0.0132329668571543,-0.00355793022314326,0.00194135384312863,0.00112485473755257,0.0154307329536673,-0.00895358882986805,-0.00054434405334029,-0.00169323111430737,-0.000679797492021801,-0.00503529461948868,0.0150219299681847,-0.00990503386685882,-0.00405645494091985,-0.00235533758842224,-0.0142802157680405,0.00662708861607701
0.00299999130175312,-0.00371854195299665,0.0101991878001019,-0.00235399606710048,-0.00501833380404044,-0.00459700276267925,-0.00684125067281631,0.00697959960844612,-0.000843549170399012,-0.0147603717537991,-0.00748165654900093,-0.0133688856319945,-0.0160075345535794,-0.00339852341290136,-0.00269097654033586,-0.00940425188967775,-0.000580810769656129,0.0131250565984228,0.00322675227124692,0.00748887869691506
-0.00588340866441386,0.00400938210895441,0.00484899662212825,-0.00700523645380317,0.00672273653997336,-0.00872141648061995,-0.0131434935502721,-0.0118284661557233,-0.00842732643268284,0.00659051306842509,-0.01240374962602,0.00598802422161438,-0.0039425922160439,-0.00839684771522021,0.0140422665679555,-0.0106218747732129,0.00905776303098651,0.000121285412009826,-0.00374279644272529,-0.0141897636559169
0.00402134191691066,0.0057456445045301,0.00202747728063802,7.05990741152722e-05,0.00930414997945185,0.013406605595737,-0.0111091330971742,0.000404913388425398,0.00469480683291258,-0.00476261027380946,-0.00313247734849471,-0.0112515399402436,-0.00956604110099488,-0.0149808799533079,0.0122249031644315,0.00159837179884653,0.0118342051607413,0.00242995846933434,0.0140705636209513,0.000487875383572473
-0.0156061998459824,-0.00483568811254419,0.000421715685479391,-0.0016311369257045,-0.00282246154279306,0.0119597646250109,-0.00486089243918251,-0.00570168888669691,0.00632862381049629,0.00394459938887617,0.00762144832448015,0.00593357896121713,0.00610798065704064,-0.00181202806985362,0.00319795313192355,0.0124115154355643,-0.00687756414155421,0.00600026993799933,0.00597066982023673,6.37328855107901e-05
0.00459909700044262,-0.0139808163142481,0.00811103524045528,-0.00977007618187444,-0.00560047563639526,0.0024057859809839,-0.00503738706961889,-0.014026986081877,0.0155104196962256,-0.00459653781821226,-0.00321580117239348,-0.00659766517046586,0.00177506960315611,-0.000717796575793928,0.0115895432008021,-0.0146712011833482,-0.0127640406121789,-0.0152902486791583,-0.0144659933338574,-0.00337997133970364
-0.00612046597496685,-0.0148090614434081,0.014335444013923,-0.00385361300012676,-0.00235433222803101,-0.011510279961992,0.00843711909755763,0.0061660586158713,-0.000446979395899707,-0.0120875273034157,0.00639195210072491,0.00942048282749925,-0.0012374405464727,-0.000469935280175295,0.00445771647848381,-0.0120223421144512,0.00446554930352336,0.0118679306506045,0.00403115568304845,-0.00875145245773758
-0.0118216363550351,-0.00895959911221375,-0.00151114752124582,-0.000421357946314795,0.00437254501371681,-0.00333214004341676,-0.0139295592161803,-0.0137289637631709,0.00895476158266427,-0.0156234754906628,-0.012939242055352,-0.0105568379843594,0.00461843094512985,-0.0104876837371748,0.0111796622855701,0.00275246527811759,0.0039389141960817,0.00445414595732252,-0.00139317419876264,0.0128441255250998
0.012631810575708,-0.0153008529728045,-0.0158610480520717,-0.00584343804904047,-0.00964532248868604,-0.010139781841177,0.00236998650080951,-0.0140762398047077,0.00165277339983307,-0.00978125006141476,0.00746501910062209,-0.0124909543155187,0.00406571867893275,0.0156461112134942,-0.015204796264196,0.00765861248066626,-0.00586042779745834,0.00791045019887285,-0.0101331047984469,-0.00698211604056604
0.000981971663420371,-0.0134537280704805,-0.00645227422135193,-0.010703303923918,0.0122082293070581,-0.01153325267195,0.00808466822590825,-0.0145483835539821,0.00159299187501314,-0.0155122729214302,-0.00917900331405264,0.000985527485439742,-0.0151343753815689,0.00870108998757673,-0.00293390949432092,0.0134551655011351,0.00140640371129452,-0.0115685805782002,0.00586685221538985,-0.00515943763644232
0.00172832635516269,-0.00352941687000625,-0.00933686484739112,0.00873262018871163,0.0154493123279657,-0.0084377614001592,-0.00258728997168337,-0.00242471769221852,0.00124544882386955,-0.0137023667148621,-0.00427985416509058,-0.00603691281875469,-0.0134593402306382,0.00710497892973255,0.00419996622626248,-0.0153388700105712,-0.000188380688079919,0.00592523060505664,-0.00953143660364345,0.00725144432522319
-0.00735170930446802,0.0112103099318595,-0.00996728687293054,-0.00824288947074474,-0.0152698262882816,0.00218562512166697,-0.0153816373861095,0.0140686962398976,0.00230233979614469,-0.0125314010449769,-0.00920249665445376,0.00906752664884885,-0.0146676286231849,-0.0122065714765367,0.015986748034693,-0.00746737434855075,0.0105262959714706,-0.0106053787802955,0.00547205433340246,-0.00301522228336889
0.00909193184959538,-0.00082905441669966,-0.013765709906845,-0.011506279147704,-0.010715859932422,-0.00398077241585822,-0.000252354935041846,0.0022449338344734,0.00314085196664429,0.00111356742223375,0.0124827423553845,0.00110573940802823,0.0104871380678333,0.00560437362015068,-0.00863340365624412,0.000802762581510313,-0.0120481750201416,-0.00145560252587057,0.0104569007211203,-0.0146677759156665
-0.0145380682837251,-0.00416378596976685,-0.0152079219364203,0.0074538517267907,-0.00327517832442658,-0.000333599611514747,0.00740435672507344,-0.00462267250652497,-0.000530997162682642,-0.0153064952175181,0.0116815093087264,0.012788930702222,-0.00553677796351228,0.00475750866942307,-0.00508195300346937,0.00567716456607391,-0.00425584458748407,-0.0108223200936928,0.0121033208059807,0.00766213160029756
-0.00292820764997514,-0.0159696898705215,-0.0138470393053434,-0.0118065323288999,-0.00344312809580199,0.0123805753564437,0.00444197757466231,0.0124770968787672,0.00524486342227202,0.00398066462088094,-0.00301777416825279,-0.00436325928514146,-0.0157258020452358,-0.013050375717389,0.0150811974866865,0.00818522893944924,0.0117394245133874,0.0082011145986366,0.00984842976199799,0.00195854025165572
-0.0160463259132947,0.00449493118835935,-0.0104822949234952,0.00410143045150133,0.000830903836368119,-0.000585046718120997,0.00745219005845883,0.0102081756123179,-0.00475384887653616,0.00883301460196772,0.0030268549288297,0.00158609414367338,-0.00617108491415064,0.00192528141195564,-0.000288807541625787,0.00911095960601352,-0.0133124233416022,0.00495634768771423,0.00922643852622523,-0.002517728247841
0.000145286345018669,0.00251842264359544,-0.000967577286701553,0.00590764264955916,-0.00824327999764925,-0.0159828562044894,0.0124320912294987,-0.00154054200328032,0.0121393304413788,0.00283501140928585,0.0156674626215455,0.0141259361068498,0.00792182263914984,-0.0149951602666633,0.00869006199050753,-0.0120797500118009,0.0129498425482882,-0.00196986665242245,0.00298735806970557,0.00300922069260968
0.000145723498686516,-0.0145394651098324,0.0157802384964638,-0.0140933332090104,-0.00910956071681483,0.00172598432064092,0.00588508765573572,-0.0102909301893657,0.00642369363938562,0.0145827563966354,0.00574737065838077,-0.00747113817410973,0.0125348845994133,0.000416714996835642,0.00590993396389484,0.0120552458263546,0.000164332767872618,-0.00261724248052501,0.00705787163099614,-0.0156210964505978
0.00496548297317085,-0.00357701840952905,-0.0159799865752124,-0.00754739995654316,0.00217689696161613,0.00412110765354128,0.00133285991653297,-0.0133711254306481,0.0105011496518916,-0.0103225710861197,0.00224616914902912,0.00497686289530321,0.00736747585107173,0.0137828000251761,-0.00957183055774941,0.0112804991090598,-0.0138688344722894,0.00804982723648774,0.0141562761735089,0.000705522668480941
-0.0100838404395665,-0.0120629731049501,-0.000744352897929439,-0.00887822290803337,0.00620686304487874,-0.0140046504683817,-0.00806558389916602,0.00527672230188955,0.00320592402545795,-0.0108585667337806,0.0102446961891879,0.00699064343995701,-0.000761358676315358,0.00492334975285947,0.00780061850742409,0.00642836763751377,0.00616795305149192,-0.00282311090875711,0.00166990955108683,-0.00133858976223303
-0.00607723036807163,0.00359349878280919,0.0112638677860404,-0.0155225238548946,-0.0144515146190684,0.00787382080081146,0.00926327472599267,-0.00559085558640065,0.00465973399310958,0.00623606464252412,-0.0133113123454633,-0.015429350648551,0.00225372375808611,-0.00293243112433458,-0.0142191964200409,0.00246363299575446,0.00903134888165573,-0.00306402722631045,0.00630076182217897,0.0108954345554079
-0.00180800553335347,0.015758361776237,0.00932069023147957,-0.00240629388795443,0.0019519244705651,-0.000441920211238935,-0.0025444666075158,-0.00544043566409674,0.00599723469954767,0.0133327490054436,0.00571433288317437,-0.0145760073004972,0.0152250423638056,-0.00180921558366995,-0.0035446065758826,0.0102857258633224,-0.00298720577189134,-0.0017868328692638,-0.00415424528425033,0.0136964452947716
0.0127774394707696,-0.0110068305546405,-0.011345024518699,-0.00306600847726189,0.00370386829506208,0.00432650117005756,-0.0152627913597436,-0.0118029051161655,-0.00355758946226855,-0.0107620559985862,-0.00803348920272444,-0.00787840891710045,0.0127106918452123,0.00092002726390285,0.00445017695284361,-0.0094873067146483,0.00689682081622595,0.00386078038803471,0.00882078184948389,-0.00103661402493781
-0.00944343721275275,0.00563746015123188,0.00535772642188777,0.011102177648999,0.00137942687100508,0.00377632252643218,0.00970167999329078,-0.0114547322434212,-0.00157933414069078,-0.0030569448175661,-0.00861128241587581,-0.00852729227785021,0.0116994513565311,-0.0153371550241187,-0.00834441726089508,0.00026483161461569,-0.011539494672464,0.0115498017631141,0.00580954288809576,-0.00153424985970847
0.0151009819400022,0.00289020253213737,-0.0141075587944009,-0.00209424910178019,0.00912017326355827,-0.0123733554901689,-0.0159338490799883,-0.00300875982308945,-0.000785932071128621,-0.0142214392723814,0.015444256450974,-0.0155793497852781,0.0132830666885726,-0.00290678378831221,0.00142460200077283,0.00253165281943854,-0.0103643072820166,0.00110670093240117,0.00553495230668556,0.0149750263085676
-0.000898997889391227,-0.00631568246506469,0.00523021842002894,-0.00246034006185907,0.00858450607590155,0.0119391262098052,0.00685677499562062,-0.00629943747771305,-0.0153294924444909,-0.0114863224746317,-0.0106572682578254,-0.00948592646564217,0.00761058156277724,-0.00193028873947356,0.00191809551044022,0.0104736361401642,-0.00501313907606815,0.00821878003889515,0.00956841125700438,-0.0146521659358435
-0.00325771715083375,-0.000638762635046119,0.0122194723163676,0.00583136030949777,0.00726350284886466,0.0127361363682528,-0.0146196592800691,0.00779956325497855,0.0064178752557564,0.00358788397692769,-0.00520515949627487,0.00630370407460466,0.00358188578535182,0.00115998374113606,-0.00961073698526021,0.00589222896324231,0.00601936020893408,0.0160269416449522,-0.00972486405330479,0.0135178098756764
-0.00828376641883736,0.0155340127441478,-0.00106995019179766,-0.0139281508970739,0.00226975077829973,-0.00923364835613495,0.00353419785018168,-0.00115897670302256,-0.00341381668555423,-0.00395684166147512,-0.0143349849752578,0.0121422430427057,-0.00890753086688648,0.00843548474229889,0.00580395684873961,-0.00125751024748023,-0.00928632282636406,-0.0116815936341223,0.0140550627330843,0.00338061328809608
-0.00722207654307238,-0.00947963339041105,-0.0136218781923558,0.00958529109245746,0.00812335090473151,-0.00994827228631187,-0.00209917724821419,0.00267432557154428,-0.00164948555166525,0.0097447298150529,0.0092141667415161,-0.0145169626392397,-0.0132944166506768,-0.0101658093917957,0.0118228358460421,-0.0123441500401883,-0.00329674898350202,0.0114651461121961,0.00425814133476466,0.0117385307587544
0.00569170453108665,-0.00673093531322206,0.00677160861906642,0.0120034073323823,-0.00348154659312928,0.0120194078018537,-0.00923623001438735,0.00841904672357321,0.00539431511510715,-0.00575776830308014,-0.00888811512964924,-0.00705021873470574,-0.0116988481899659,-0.00216716402975676,0.00389327113603527,0.0155651738721898,-0.0143454476070349,-0.000438942507678557,0.0017591408871424,0.0019154795854456
-0.0148156058789879,0.00275745702012677,-0.0138469040688762,0.00658899932861099,0.00566998787925934,0.00633748407432891,0.00685610558720362,0.0139217819601163,-0.0048950855268494,0.0022633473358451,-0.0122525411850027,-0.00213542040536346,-0.00854803511251401,0.0109913572396135,-0.00655804918066193,0.00729487006176817,0.0160521031323337,0.00200017066704011,0.00307582921702824,0.00239225812233538
0.00989437768927524,0.00452553495692002,0.00710834476031754,0.000980257004602393,-0.00697568555326076,0.0155428287510992,0.0133298223589966,0.000984892975756915,0.00993269871920651,-0.0150455818258673,-0.0130757789190893,-0.00896006975004576,-0.00806143077159816,0.0108729353388936,0.00169097585295496,0.00628399567910575,-0.0143663930133338,0.0149954877623059,-0.0122863096355362,0.00708393762905084
-0.00890348573663342,-0.0113270717409164,0.0113238387152312,0.0139389152351765,-0.00675910968467319,-0.0104077618145731,0.0158148210981035,-0.0137657673125816,0.00562645656423858,0.00885496983424595,0.0110340919359837,0.0154006941286491,0.00613727708518701,0.00789314072456343,-0.0111622462497718,-0.0062726865505599,-0.0155933942319444,0.0049147188501875,-0.0105236317655694,-0.0120405975128719
0.010165045590047,-0.00545702669251339,0.00528466773289784,0.00972272431832192,0.0148347588756247,-0.00593243158519589,0.0134290337136066,0.0124632261501334,0.0107126658138543,-0.00657348160920303,-0.0119210219887384,-0.0137967684286398,0.00529200539506394,0.0103676955049891,-0.00784348393506098,0.0103397251436509,-0.0149890849165028,0.00973022928122708,-0.00815875379152468,0.0017156908480676
0.00046619355114999,0.0142981330511683,-0.00575744490651321,-0.0106176233580468,-0.0142312217355767,0.00236741641798406,-0.0079561964405713,0.0157390507890028,0.00871863037263779,0.00755247189680149,0.0107625511045343,0.00965463222517179,0.00206845849237367,-0.00738990918714633,0.000987692850062176,-0.0126273288386035,-0.00636449663561491,-0.00821508645998894,0.00326659423093973,-0.00211983516427378
-0.00497486289587796,0.0151008500552582,0.00322484558061567,-0.00889253022432444,-0.00214554908331018,-0.00521377644662115,0.0111150074851561,-0.00838037027664908,-0.00575983606284781,0.0151993734832393,0.00701645342132432,-0.0157376942506761,0.00167815680577383,0.0133090404191431,0.00283267411040008,0.00906064042837154,0.00862565301656251,0.00492491721242284,0.0106557168020018,0.00975737569941935
0.00364573460856592,0.00489012890397605,0.0054768334696232,0.0127163720293773,0.0126318172715183,0.00741264019505237,-0.0068591398565316,0.00175221300205225,0.00760949815080948,0.00890807938532799,-0.000989799251082594,-0.0126752595224353,0.00477141436430459,0.0105251901852862,0.000523113981546032,-0.00995343565968826,0.00448268596316242,0.0114565990212829,0.00614590390850477,0.00601383006201256
0.00424211850780092,0.00829026329165301,-0.00140471477778248,-0.01168220856981,0.00949377479634061,0.00908406259179349,0.0158524297593984,0.00996574837139474,-0.00633875988978902,-0.00208907330211213,0.0140937784318437,0.00131950553278942,-0.0003436804368798,0.00492007849091401,0.00816129424697548,0.00999250302359624,0.0131678740537428,0.00716623745950764,-0.0145619529922769,-0.00276075441159939
0.0017980922424023,-0.0144168257903049,0.00246023088250037,0.00949201246476109,-0.0136916475704124,-0.00401035372229281,0.00866422345232557,-0.0141523512753674,-0.00922711038009414,0.00752193951427989,0.0101521921785319,-0.0133820719484341,0.00188787385971337,-0.00960734034490865,-0.00218165311524027,-0.00158603550072427,0.0152840404889333,0.0112874997746749,-0.00536209557473083,0.00292951197973106
-0.0138978468247135,0.0101708586746577,-0.00169607411646061,0.00485294735046987,0.00738317365928105,-0.0136140393719051,0.00290489489182008,-0.00233229315402687,-0.000334380356560542,0.0153369915754462,0.0128856332586687,-0.00946098730535697,-0.00546067955732768,-0.0148188930775116,-0.00147943917888494,-0.00576652340382643,0.0109626144102529,0.00832322990349898,0.0140982071202249,-0.0125267200348641
-0.00999673774707638,0.00999369387590609,-0.0123549813781743,-0.0109869619460488,-0.0119472071964916,-0.0115551968944896,-0.0117902865834442,-0.00756990710906496,0.000250307403455627,-0.0104874824039715,-0.00170153387735604,0.00269335075649876,-0.0127351923008065,0.0136432972913195,0.00688609655101308,-0.0027549416656915,-0.0130698552935075,0.00352482738644471,0.00975829986366352,-0.00875359178478278
-0.00341992006413527,0.00021355538700879,-0.0125997232276136,-0.00829978062562755,0.00839818744405098,0.00550143730567477,0.00959916605155144,0.00447911851256171,-0.00800605597152424,0.00849305418572062,0.0141367929674119,-0.0067385357993778,-0.0117515560267404,0.00359921750857967,0.0141685516194443,0.00760397266249465,-0.00851381919221139,-0.0154875123417034,-0.0061581587834597,-0.0047924364617008
-0.00612572870775307,-0.00984356799692278,0.0105748242560675,-0.00757963186782358,0.00392599946683086,0.00708607616041303,-0.00484608461201524,0.00982778463128705,-0.00629951492803459,-0.00746196741263398,-0.00954597201668997,0.00569436370396762,-0.0109886385927119,0.00412617164148095,-0.00965297298842411,0.0158305940585031,-0.00365596219975152,0.0110181630967727,0.00316147541995888,-0.0160348830368075
-0.0054593096873806,-0.0102509833452194,-0.000533422757272646,-0.00581997926494381,0.00561959287442649,0.0157522948844229,0.0153998047952578,0.00140327640754581,0.0133374358158864,-0.00291770662134225,-0.00554225854203357,-0.0015639140072847,0.0011620558125119,-0.0129408482135363,-0.00870659915627884,0.0010188485777384,0.0138578588026003,0.000299886012501285,0.0113005752280216,0.0157299145737582
0.011312461060115,0.00172692601363433,0.0158414549917182,0.0127688259875558,-0.0118592218774326,-0.00635046909848245,-0.00243340462313134,5.89607411875838e-05,-0.00648026593778516,0.0120993692375754,-0.00836854292640381,0.00717596817775941,-0.00714534314526337,-0.00997252919824627,-0.0112863980874227,-0.00963406146280502,0.0118737401659512,0.0109130808423739,0.0159484542352346,0.0105085888118239
-0.0141458746817171,0.0121676694719452,0.00641976489399159,0.00555513540050469,-0.0144066296664044,-0.0083085754885091,0.0150252888331542,0.0132889478574709,0.00205429733346108,0.00820054407154875,-0.0114611723920425,-0.0155307478195305,0.00612006074170038,-0.00112982284531211,-0.00926253847634008,-0.0110308561380677,-0.00389561240973253,-0.0154076835568841,-0.010657504186386,0.0119392241962112
0.0154696821918394,0.000133695604929545,0.000281423187803377,0.00810476299735319,0.00406722374769574,0.0158599549260078,-0.00141798324668757,0.00940843865887461,0.00181146987275031,0.0067745694770393,-0.000295816768169324,-0.00111947843971517,-0.0149319128693254,-0.0042819318831863,-0.00793086024069656,-0.00712775781006019,-0.0156762659494168,0.00632897369910337,-0.0150111372333352,-0.00390626961622627
0.00614919243800433,0.0157136667318473,0.00796459431995774,-0.00808143707623359,-0.00242118362588937,-0.00241802725854618,0.002199269622703,-0.0056998170231852,0.00437168036455791,-0.00945273084423453,0.00260389714644632,0.000950073274291831,0.0130454879637625,-0.00936133335152979,-0.00627748933732846,0.0141133137412191,0.00338638603743863,-0.000396141933699924,0.0110245898642108,0.00121837931152718
-0.011164156238261,0.00035000247377157,-0.00746681515241434,0.0153237429192146,0.00862509366615533,-0.0011344325360505,-0.00307092646399908,0.0141468649125151,0.00796263038730928,0.00292732343382119,0.00149087195052831,0.0160660295601556,-0.0076023057756575,-0.0147440688544439,0.000638868471898517,0.0128213216373488,0.0129214116414423,-0.00633497450815722,-0.0055610124459237,-0.0108305519235832
-0.0136664446286464,0.0096394510170851,0.0116163769963236,-0.00265343775889683,-0.0131564934861555,0.0081230671275203,0.00143001372036988,-0.0105138583284722,-0.0140153989318253,0.00637428192954525,0.00868973272603158,0.00503350550809085,0.013884986769488,-0.00404836060333145,0.00737130329321354,-0.00890067743724383,-0.0133626210810655,0.00988060986698536,0.0110210944867075,0.00372322162026319
0.00199315105821345,0.00331221251082751,0.00760296955930935,-0.000354439409813995,-0.0141024258817614,-0.00999788069776441,0.00732679769410074,-0.000770392358653552,-0.00776055995967537,-0.00975428516026943,0.00379181610707473,0.0154476671961219,0.015092005297597,0.00440812538774393,-0.0158691694195601,-0.0113829847517766,-0.00753216829541315,0.00760957046669446,-0.0135236375056596,0.0108933351636077
0.0130054529844431,-0.0125054939553471,0.00935469485747614,-0.0106464023141487,-0.00409480411637331,-0.010226226494465,-0.000222071784630215,-0.00713586130529134,-0.0105833319628354,0.013128918959433,-0.0114362740651832,-0.00421096194070066,0.000798525878266098,-0.0113728143619673,0.0114593359881434,0.00540082905075819,-0.00690299916657457,-0.0111144656545376,-0.00223864394886389,0.00296527020189678
0.010502488590658,-0.0121448558834651,-0.0153807605580313,0.00168658680641877,4.72972041065653e-05,-0.0132340880726171,-0.00587914880797392,0.0170628468527496,-0.0184731837329098,-0.00111299747968705,-0.00420509839183017,0.0119746605502681,0.00508165512247384,-0.00705843970718317,0.0126444677743833,-0.0143369800837555,-0.00501600652377481,0.00728908057123354,0.0143014563259847,-0.0130130785516952
-0.00231340844307402,0.00865635461826053,-0.00432960169229417,-0.000420739426735395,-0.00783698046699312,0.00110813711536375,-0.0124197696732178,0.0180109515527798,-0.00909642379694601,-0.00925223340740202,0.00484363803403046,-0.00981684663611786,-0.00061622257764546,-0.00640935466747554,-0.0015653011313773,-0.0172267533988924,-0.0167978659897815,-0.002265666922781,0.0163862012671402,-0.00475859678497428
-0.0212939854892318,-0.00250696454268564,0.000338588410211327,0.0118952681140472,-0.0184550336199555,0.012950313875316,0.0113623003105834,0.00308965500536966,-0.00380324295005008,0.00871040210829159,0.00799482265790895,0.00657724215685562,0.00121046300256226,-0.00647638194367555,0.00247389602767086,0.0093845781628464,0.00379737206577539,0.00700534107795589,0.0174094331790531,0.00447134909408013
0.00092411707998076,0.0163181297588153,-0.00325546213966184,0.00742597793218672,-0.0147917158977552,0.0103580675945824,-0.00686306604511512,0.0152318579994256,-0.00347657060416772,0.00576677918628992,-0.0157179843078356,-0.0201856516603868,0.00537279878905181,-0.0116740515550721,0.0097130984153535,-0.0144827658344302,-0.00242251681171241,0.0156787534157825,0.00594961461448423,-0.00713762654148817
-0.00083526018704655,0.00816087999424826,0.00764494994954348,-0.00366734446825869,-0.0102661942417271,0.0103592106752612,0.00158267907740872,0.0058963665793162,0.0239841692666039,-0.00157261784236682,-0.016394096902347,-0.0222412883617939,-0.0198063642050157,0.00179123145597697,-0.00357433570155985,0.00560848368644782,-0.00626510672231492,0.0104214914073786,0.00988141409441226,-0.0185756347746667
0.00727120414473837,0.00541312304706117,-0.00179446959639928,-0.00750033126933834,-0.00491773916534843,0.0117269767610746,0.0188901802929663,0.00655260050712295,0.0050604588478081,0.0177328542383193,-0.00234563956349595,0.00540479476804256,0.00440399013854338,-0.00306837835094398,0.0138616373763101,-6.10890284466682e-05,0.00169622335311088,-0.00189326356891894,0.00406889225536203,0.00723878570454032
-0.0179471885181847,-0.0109291618025047,-0.0047895108117991,-0.0145055136983808,-0.0119545471379044,0.00189323880744996,0.00839339339918692,0.0189304913918314,0.0127770261346658,0.011308122799535,-0.0156622638984043,-0.0145485533714521,-0.000276096941353278,-0.00541835236374711,-0.0167343770191018,-0.00212753690317692,0.00390208689443925,0.00983163609402106,-0.000238502689656399,0.00456376521064219
-0.00521802201024726,0.00655074803104916,-0.0146701269162124,0.0136911382850424,-0.00143250130596116,-0.00465469978490291,0.00416053445205038,0.00540022945356945,-0.00112314362584628,0.0117294418632979,-0.0144836620313695,0.00441605733567985,-0.0150165115469778,0.0016551082429419,-0.00614882425886036,-0.0144999152827317,-0.00680273429869964,-0.00144481888746854,0.0134075090742083,-0.0140366586419403
0.0080784425248676,-0.00802002148650868,0.00350047281563001,-0.00773346940270166,0.000354673121946278,-0.00268871325863486,0.00679028576019832,0.0241645327122606,0.00594992900135806,0.00833460588296004,0.00758162705986289,-0.00832090301788764,-0.00761400148750649,0.00533440376642895,-0.00928025617476953,0.00238834338401926,-0.00854832919982305,-0.00120570411696368,0.00964692360319154,-0.0224508612866128
0.0108320649133504,0.00161853412667366,0.0112130871270916,0.00368330798828495,-0.00123721248300243,0.0100245883872273,0.00142677265677364,0.0108543690287777,0.00802391095970772,-0.011378113300767,-0.00464215756895085,0.00370107399609499,0.0138582019387102,-0.00548937819626897,-0.00430261195120901,-0.00873879091050213,0.0105766781580807,-0.00206625266740671,0.0038973747140148,0.00735482513698886
0.0105312959673061,0.0128348183590952,0.0144914921742036,-0.000504211606787599,-0.00451295380380868,-0.00639573299663852,-0.00877616727113604,-0.00989218313690568,0.00169057186751611,0.00933401317987525,0.00183055601580805,0.00550200189191859,-0.0131347761445027,0.00456231689177347,-0.000444255588013737,0.0119987637067864,-0.0104277499973177,-0.012432197294427,0.0120170165137502,-0.00322782627757764
-0.0039768966845548,-0.00138684204002337,-0.0167879264743867,-0.0117824250708549,0.000744239785728296,-0.00923407159568121,0.00364342131085188,0.0032052568120361,0.00104820669277051,0.0148434672810098,0.00386736467326177,-0.0149687323896171,0.00888039873157811,0.00700273465001564,-0.0146634687812952,0.00357690942977463,-0.00612156135057215,-0.003251835169247,-0.00693670591722119,-0.00382903211789796
-0.0116970303539698,0.00540746359601427,0.00877484234334594,0.00150501669442979,-0.0156721980183667,0.0124498612087664,-0.011061614553941,0.0062447601749375,-0.00519654219427276,-0.0139498641473567,0.00581903582980874,0.0020375701405989,-0.00683806297264874,0.000915400129387237,-0.0156139528946097,-0.0119831100106617,-0.00352783229977802,-0.00018081720478349,-0.0136546337070157,-0.0174588580174447
-0.000856510588825358,0.0188156312312938,0.00129748568977269,-0.0137109859913309,-0.0139818080279808,0.00520501052015642,0.0122791087195489,0.0222090024692904,0.0308291591064668,-0.00383977930621894,-0.0191830737052222,-0.0194139390480408,0.00292967128099928,0.00432978289094715,0.00921782711642376,-0.014856541242613,-0.018406373150926,0.00195329715584408,-0.000610511522276393,-0.00425651903684941
0.0115171279485253,0.0111999707388302,-0.00618328254923783,-0.00674526576167004,-0.0183573601435715,-0.00896340788731883,-0.0113401476300704,0.00959749713007,0.00325209760857551,-0.00754598048755222,0.00307287455829079,0.00866714534691467,-0.0069988615000111,-0.00812361062203137,-0.00617100255941168,-0.0118860343310842,-0.00607589423403262,-0.00104048469691026,0.00564157089963914,-0.00998208094517085
0.00405405583470178,0.00349601863463637,-0.00592685051667914,0.000239641917716803,-0.00997757545934107,0.0136197888512811,-0.00755649763569444,0.00675842622037139,0.0209164055286024,0.0159500217072007,-0.0102899602467471,-0.0116407407328631,0.00963912808143157,-0.00626227641203915,-0.0059349836501608,0.0111506041783122,0.00416463099038112,0.0038882552635634,0.00959530814010094,0.0111322304627817
0.00660569267972182,0.00457496446246337,0.00380057669919984,0.0155341090653793,-0.00864169965630653,0.00308629891572017,-0.00947833197869935,-0.00124810616331929,0.00489362376908341,-0.00616939290052078,0.00734203025914972,-0.00487331464729021,-0.00455751750756066,-0.00746171795965924,0.00983033511838491,0.00628674254309649,-0.00312615402632249,0.0131796537923929,0.00463489774085541,0.00040882619005777
0.00797166315692742,0.000648411912690268,-0.0148892793649841,-0.00115173668084416,-0.00327222116626075,0.00785494271109212,-0.00858072365206477,0.0238527473116713,0.0073264423083844,-0.00819905665308844,0.0110786000808319,-0.0148589423201047,-0.0181297631860609,-0.0113902053144017,0.00672446013577982,0.00710510973315093,0.01210866656525,-0.00704988798516902,-0.0122333478345156,0.0015540333223094
-0.00454121225473535,-0.00551157858653884,-0.0144241303787545,-0.00602452096050241,-0.0239878527818162,-0.000303713676814601,0.0191644050629346,0.0245468318963286,0.00709065575768492,0.0132306459818765,-0.0155160338130358,-0.0250857375638919,-0.0111370542821595,-0.00803785846322042,0.003096119271081,-0.0238471395176252,0.00165609767099415,-0.0117111037142456,0.00837981011849014,-0.00224750007650254
-0.0018575497086482,0.0115513585429797,-0.0110651289344922,0.00312633969108439,0.0080418852832385,-0.0137576032086745,0.00838617198469332,0.00815500351918767,-0.00586897011613835,0.0152708116388164,-0.0115875820803424,-0.0150213566087828,-0.0080504499307131,-0.00350402489175366,-0.00511447586342792,0.0100465500587865,-0.0111598899296376,0.0148204278843268,0.00179649472289748,-0.0101056845737446
0.00147815225344114,-0.00919052657619866,-0.0139094959648289,0.00620473103726549,-0.00573623547571341,-0.0123676910912649,-0.00729194917618089,0.00557196772050414,0.00125726706458518,-0.00930506630620923,0.00463848993144195,0.00145823262166558,0.00915955795718046,0.00832084808050774,0.000349700142261428,0.0139743633771295,0.0154124198309361,0.00159921326859912,0.00369400686604398,0.0142512625364675
0.0134506459179224,-0.0119780936440633,-0.000388323125341399,0.00681807266506495,-0.00632551317880749,-0.00102999653447928,-0.00821556100376377,-0.0026859278620094,0.0096050677702151,0.00129603441971929,0.0124301167735782,0.00328064675843466,-0.0135328632447207,-0.00815174863158929,0.00552304200997033,-0.00338691271473143,0.0127383439669284,-0.0155411441858345,0.0124225386856538,-0.0090895689163907
0.00427697704873962,-0.00818277220495663,-0.00724586595231276,0.0140666134989385,-0.00517471115420054,0.0140176711786878,-0.00350529745649815,-0.00566591400955382,0.0011908384542391,0.0116727055851725,-0.00513111043347235,0.00392140917759478,-0.0157715047760792,-0.00495324981059031,0.00324465548951905,-0.0160056567653176,-0.0146235690901331,-0.00883486912627371,0.00321209467981485,0.0079705450909688
-0.0158255101631215,-0.00189987731088235,-0.0121470182452301,-0.000531910092280185,0.000850044374314068,-0.0124319651688949,0.00261069276003806,0.0149617393770814,-0.0155869292585755,-0.00236384884283088,0.00484219657603513,0.00448548618313993,0.013686480139696,0.0017191423921857,0.00949662959299258,0.0129568132779217,0.0137102426156287,-0.014066922470433,0.00260352571174479,0.00654659753527363
-0.00855705970159073,0.0116257195041774,0.0119771622683096,0.00113864359467492,0.0136683431155841,0.0110064611998509,-0.0156757635456217,0.00240262115119681,0.000742488479953294,0.0118124690391253,0.0037421272784318,-0.0147285721952981,0.00291365513872972,-0.00545919181244819,-0.00581181726582886,0.000387995881533432,-0.00824754374292853,0.00866856757269851,-0.00421909201016226,0.00359580340675068
-0.00603359605290833,0.01279164037565,-0.00230884091574567,-0.0121150138827402,-0.00294081279774224,-0.00931105525257851,0.0169882530514133,0.00310070456626714,0.0164817454459004,0.000898126774158551,0.00966055201287807,-0.00849692267560686,0.0043049611758805,0.00558644916145748,0.0146932828542503,5.99049435254607e-05,0.0032191542885674,0.00515610164703918,0.0116849953991103,0.00746628888533045
-0.021051408217043,-0.00804394354814968,-0.0150169079878818,-0.00435344021039482,-0.00726288348742428,-0.0102450424087841,-0.00308913725811413,0.00533854317567402,0.000461001229238655,0.00762036987776909,-0.0188803444223739,-0.0108409193013241,-0.000376662337440894,0.0040049707559006,-0.000126262874434839,0.00049504007744215,-0.000391275987678307,-0.0152304179486933,-0.00194290677288481,-0.0104940553180827
-0.00330930284465089,-0.0105397770715647,-0.00214227700295552,0.0113981074176089,0.0188423097220722,0.00274293690123924,-0.0102689843447942,0.00487185753604524,-0.00248971568141169,-0.0153006441583617,-0.00274340786575405,0.0113886975044205,-0.00191129431354325,-0.0119963476964705,0.0060149796694334,-0.0047340803089575,-0.00863741895680703,-0.00624460797155692,-0.00149977431280636,0.016121569060702
-0.00656942774590044,-0.0125652148573165,-0.00583075277957337,-0.0114126207079567,0.0041114043807379,0.0146299970525892,0.011743370593324,0.000268450956143277,0.0161760818640908,0.00261311418975019,0.0142309446183935,-0.00892190762266891,0.00395018406393407,-0.0112933458112425,-0.0158457201032224,-0.0139951632009635,0.00276714523683209,-0.00155410758318712,-0.00649224648935069,-0.0125641052143591
0.0037697130742632,0.0121023331644719,-0.00116486679212456,-0.0116848852487089,0.00574969609821306,0.0131543036671385,-0.0105471968827946,0.0182800832154201,0.015413888657619,0.0183352772860116,-0.00875107605917373,-0.00463955642954325,0.00635662662022921,-0.0111776597654847,-0.0092688580330735,-0.015984631134176,0.00436932801173086,0.0128828330587886,0.0054094034914653,-0.0119071274254988
0.00868963415289418,0.00382272294080283,0.0082351986671604,0.0151817552355894,-0.014515760400023,-0.013293716297252,0.0151179249291094,-0.00691096325092344,0.00819409140665001,0.0110392178977976,-0.00628549556061845,0.00748351185827187,0.00397956169054334,-0.00844704865201233,0.0135272217969777,-0.00265526327763569,-0.0129202688273877,0.00982720483100994,-0.00693979062980766,-0.0129198887612131
0.00778677620190848,-0.00485122673384881,-0.012385465493484,-0.0145506829664048,0.00207474798062794,-0.00918386635056619,0.00403930566576235,-0.00145425790231832,0.0166884147529281,0.0106345316464853,-0.0034373068957273,-0.0110163596299268,-0.00288955217262126,-0.00450473593192318,-0.0137421655256925,0.0077484373195279,0.00989502563984793,-0.00292015856632527,0.0127458073778784,-0.00121274585730746
0.0105636519310017,0.002024892241037,-0.00901911506413094,0.0134499848241399,-0.0106630204821931,0.0097810172098781,0.00256083471049671,0.00320762807682776,0.0115520790782696,-0.00047054531936674,0.00249590683531735,0.0116523890876228,-0.00370682220011169,0.0149525860172426,0.0126985603853124,0.00928334271854665,-0.0159548550868942,0.00377382386744246,-0.0119736407720323,0.00468564746021312
-0.0129667563531335,0.00258332147600698,0.000135324160116109,-0.0147595183549202,-0.017613484258528,0.00792194428797513,0.0139127074773714,0.0184126341438692,-0.00801022642399364,-0.0044483995234694,0.00891052402884488,-0.00156168133983371,-0.00303796936805322,-0.00309769670252136,0.0071224963246465,-0.0147436635736687,0.00645864797935048,0.0116236262794213,-0.0129428959857694,-0.0014594999312323
0.00400254460114925,0.0092774390187865,0.00628076162577862,0.01327935778163,-0.0161539596151871,-0.00756511106557464,-0.00478146575924639,-0.00152357809928216,-0.00199898544017534,0.0193170654289738,0.0039520730034115,0.00794504067679863,-0.00769438883351787,0.00142544602378803,-0.0141685131359703,-0.00268494871435382,0.0136632447941965,-0.0112168440207333,-0.007679974959464,-0.0136179186554713
-0.0193669254754883,0.000734031399884165,0.00917626809727841,0.0152911902090741,-0.00290420388166478,0.00224574909023418,-0.0110223779288061,0.013646923952647,0.0122864180623841,0.0172268815840128,-0.00426429677874418,-0.000231013662385218,0.0107748558428585,-0.00639337112524221,-0.00534665952677927,-0.0118254134588486,0.0130388768122247,-0.0154948620365601,-0.00441170912695459,-0.00332885330838503
0.00774461594410033,0.00117724082720744,-0.00767509126795002,-0.00612296257833111,-0.0108520389533529,0.00870913191320698,-0.0104436164541956,0.00839827830674034,-0.00579709222646442,0.0067656898492337,-0.0151081171573094,-0.013952877087528,-0.00187835582435994,-0.00169754524284907,0.00876436341761912,0.00034072547488453,0.00437377159973647,-2.46185974644991e-05,-0.00297483646486971,-0.00275308681548637
-0.00550165282258032,0.0055601717549081,0.0131446125433709,0.00291141408828934,-0.00669369335841443,-0.0112811426854074,-0.000333707266392409,-0.00385354661162459,0.0137178758043486,0.00105831205011909,-0.00548982247170407,0.00192094462185661,-0.0157122806741782,-0.00379695206733938,-0.00421533607698006,-0.0164042011754126,0.00260578122525955,-0.0101744796012168,-0.0120092377964725,-0.00187514169944282
0.00864382092044094,0.00603588482632738,0.00674190688959308,-0.0129632737132926,-0.0184543566314507,0.00856435799803099,-0.000394469867328465,-0.00534594656498669,-0.00825087582072323,-0.0114700519110696,-0.00153076493687007,-0.0191947574445114,-0.00172073102503882,-0.00250024901666188,0.00343116119237808,0.00304961690113924,0.00366036254142409,-0.00356429313703702,0.0135456142286926,-0.0175490333966534
-0.0129328062337626,-0.0123533012153383,-0.0125324724663645,-0.00975509983917205,0.0161987893097709,-0.00714758600799285,0.0141719515578497,-0.0101296960879577,0.00405570750909741,-0.00742052561780635,0.00289959375984458,-0.000640310680170597,0.0149489383539074,-0.0139775557211372,0.0130279121207481,-0.000717878731980682,-0.00460579666695218,-0.00707047200669593,-0.00412589401157803,-0.01221723439578
0.00424163900759785,-0.000517973852402613,0.00594289213500589,-0.00156097640536633,-0.0105060047983109,-0.00500394175101007,-1.72696534918146e-05,0.0180555730346892,-0.00431423021901991,0.000736233060896517,0.00900819017342611,-0.000512973008654376,0.0104944148648579,-0.0126687380142827,-0.00981320399655562,0.00907338657451745,0.00187331580411115,0.0142164929028077,0.0160049400714624,0.00514598375195203
-0.00824252562504625,-0.00355041311531747,0.00739387641205922,0.00419543513600685,-0.017673446822634,-0.00261241280555428,-0.0129135442266304,-0.00336282064183483,-0.00662056381318168,-0.00970100927836072,0.0110603859421439,0.0102586523162732,0.00806235415315436,0.00110353130205465,0.00897090720405104,-0.00452411362517987,0.0113622964432167,-0.00853207647269825,-0.005899158052426,0.000821464184932481
-0.00543382505509612,-0.011743895115452,0.00422588005352478,-0.00952081394864302,-0.00749254624176928,-0.0107055064121069,-0.00756310126530404,0.00549715791461308,-0.000602337774259548,0.00909764516060315,-0.00604219704982878,-0.0215611998700137,-0.0103507694205674,-0.0126284276422717,-0.0154533162191795,-0.00591697388949772,-0.00855470714348315,-0.0037648239934789,-0.00827151719295393,-0.0061091209483672
0.0123680484925687,0.00117715919401905,-0.0107716822734369,-0.00135063464993372,-0.0144516423819031,-0.00373851333039371,-0.00983321685979733,0.00637168210000482,0.0119600144113727,0.00360525831882446,-0.0154836138115342,-0.00258057097098949,-2.33464703002322e-05,0.00105719960778743,0.00426775277750717,-0.013407320663291,-0.00300151639688076,-0.000588897098022589,0.00696616919849102,-0.0189508158234449
0.00363661737552145,-0.0140230186032603,-0.0021395847424216,0.00761144412019254,0.00227891108458495,-0.0137716348224329,0.0125081058258621,0.014179477858159,0.00321918318677089,0.00801036902786877,-0.00357847738338651,-0.00518527411541049,0.00987636292775635,-0.0124844167216719,0.00988932319970111,-0.0116856410126798,-0.00989629376662856,0.0120929962509836,-0.00308115714814679,-0.0187232687192455
-0.0146206062194013,-0.00912354603699264,-0.000266573507961517,-0.0144229756856994,-0.00984715182976962,0.0063956477339188,-0.00680396427998563,0.0107636749987233,0.00495241342224679,-0.00957904945231013,0.00948022498305212,-0.0230717656381123,-0.00783011696444211,0.00724769226912125,-0.00830788570395853,-0.00660404372017715,-0.0055974355654567,0.00962767644269251,0.00574419631002063,-0.0140068534480796
0.00853308183825763,0.0107304491754987,-0.0102419452326196,0.00351907781996842,-0.00321522429943357,0.00738302548900917,-0.00405574043916842,0.00220305048740583,0.00482233520761488,0.00361401007330435,0.0104300586008605,0.0111489752620805,0.0010807542210393,-0.0160192929916366,-0.00780494379081107,-0.00161021331005672,0.00508023789378218,-0.00937410934720172,0.00374909959868673,0.00522659220000271
-0.0076184727604041,0.0134824169231377,0.00987117853602073,0.0052358789896224,-0.0070689840692564,0.00998213221458543,0.0159477371937414,0.0227978652407673,0.00923050651911707,0.011667740165965,0.00547315828666604,-0.0227206650744526,-2.45200744204849e-05,0.00361992247308801,0.0111132074883893,-0.0207372683638299,-0.00260045182802796,0.0146946743337303,-0.00189246550928643,0.00559033185890914
-0.0168979706857977,0.00845623451776946,-0.00895384051304128,0.00436474240555378,0.00997589568363996,0.00662838927331008,-0.00656826227639151,-0.0072768065450158,-0.0128298124216297,0.000566919668330587,-0.00821364215761086,-0.00944711296687579,-0.00284896556884438,0.0112644464030687,-0.00433279953970089,-0.00917523449897969,0.00953154344574635,-0.00658916306742538,-0.00245124133129493,-0.0133340959869704
-0.0103864799445712,0.0167458523236514,-0.0103317772330809,-0.00707203532685944,-0.00917094023362709,-0.000928389688373105,0.00210981284056569,0.00923814968088027,0.00103436510228559,0.0126001290330974,-0.0169368240326928,0.00269178845563932,0.00665814329010917,0.0103191616704864,0.00648610346805816,-0.00950737438235379,0.0102888636258036,0.0118522663186196,-0.0120083539915772,-0.00128769810418915
-0.0180432822174305,-0.00355628062056947,0.00360819388633384,-0.00821086771339469,0.00460953547571885,0.00857845318624839,-3.72423776359605e-05,-0.00144456207839327,0.0019038791251266,0.0112874467649216,0.00157327647810238,-0.00614434468138743,0.000218094804824897,0.0049042454503395,0.00512402440612929,-0.00328947845938693,-0.00549519599369607,0.0127477659516392,0.00479553617660724,-0.0116093569926907
-0.0200943662905497,0.0163371037255007,-0.0113154391870899,0.0167983649110986,-0.0144577859971502,-0.0065400967519158,0.0166236027073108,-0.000448133899795517,0.0167936952655738,0.0121073568167637,-0.0108962047960739,-0.0226576764224079,-0.0118942551846668,-0.00838579833348461,-0.0134751223549277,0.00648759504988332,0.00879923911472846,-0.0125474344159928,-0.0072516959494007,-0.0203151145663897
-0.013914834667555,0.0166971085927617,-0.0106689072014709,0.0154706537399467,0.00401868663101345,0.00851155480670373,-0.00287230083947943,-0.000755638207459127,0.011578026433338,0.0146585174767217,-0.0123523234256276,-0.00789783904472201,-0.00143766838457275,-0.00749926436015999,0.00392200671591118,-0.0141548458442037,-0.00974077034392857,-0.00675343072960719,-0.0111696596154364,0.00305616510814417
-0.0114803708998714,0.00674181838867956,0.00592651718788336,-0.00348303053273264,-0.0108158471981598,-0.00566321670613376,0.0169409572495618,-0.0108925702196904,0.0121688682263405,0.00911120426276534,-0.00741340137601481,0.00962012386653819,0.00786182385746285,0.00573529384683924,0.00706690419520715,0.0114500483774297,0.0134881279642407,0.00394261823232935,0.005015387503275,0.00356909231405139
-0.00903882463714881,-0.013536334091154,0.00437354517319575,0.00597157748503012,0.000801867750682824,-0.00743147919431237,-0.00463060869830218,0.0163541320067439,0.0137902682491941,-0.00756839761160695,-0.0114165301990668,-0.0154725459811782,0.0014187628367737,0.00362206434505726,-0.00412435914310212,-0.0124184629008394,-0.0141372221216958,-0.000518485376298976,0.0172203553732028,0.00708504343027748
-0.0233569177067693,-0.00684001915935122,-0.00818101201327833,-0.0112646824566156,-0.00677992209104325,0.0075358940918915,0.00960169165818745,0.0272235346961052,0.0017100555210616,0.0175438098229138,-0.00829568656966903,-0.0197990617338462,-0.0201115039192405,-0.00329520982397217,-0.00689410542317931,-0.020614098303481,0.000585179938284629,-0.00971205818347825,0.00131509475513936,-0.0108778389847503
0.00256165142693995,0.00532070851202654,-0.00659329289280523,0.00166203022650733,-0.026676425444067,-0.00429910369524482,0.020674745833855,0.0151805953112936,0.00471506579499098,0.00188852132145476,-0.0208224261314975,-0.0202815217264039,-0.00254874420249781,-0.0139371026812313,-0.017821576152237,-0.00559005687563677,-0.00279569852968229,0.0141193601387775,0.0130866819848935,-0.0144004864601978
-0.0122691794772671,-0.0124549148152433,-0.00700904212231878,-0.00116097098461375,0.0169405110814066,-0.00706591443542009,0.00245691293949158,0.0077350739664619,-0.00255315420629864,0.00290970107410655,-0.0128858987393324,-0.00598571753448751,-0.0139525885141082,0.0122433132653071,0.0134125132944049,-0.00292292644894186,-0.00171953425436483,0.0103076312628081,0.010348940640315,0.0056534109596345
-0.0159671291504217,-0.00667393312322749,0.000138618042560404,0.000646669110546736,0.0033986821878711,0.0127302533484146,-0.0123218281553512,-0.011037988047796,0.0154047253418528,0.00180005368134663,0.00576280241718603,-0.00711595659783436,-0.00543243928161421,0.0068977981404196,0.00102708996094576,0.0022542030545707,-0.0117305873616208,0.000215733955562581,-0.00712316259758229,-0.00838017838790082
-0.000369273188307479,-0.0145208427804769,0.0123153582502873,-0.012279241842947,0.00014686501975618,0.00285835740403292,0.000120919543473695,0.00843004448066807,-0.0114897361852971,-0.0128939811723186,0.0149613186096641,-0.00215832342910164,-0.0120588317895937,-0.00160584968873664,-0.0154017299946637,0.0109392375700932,-0.00175516244110237,-0.00400384540833919,-0.0121683957028681,-0.00674082999041157
-0.0214986516628198,-0.00815569362230808,-0.00851212832176111,-0.0145995460709899,-0.0160542822991873,-0.00217148271511182,0.00841838744893083,0.0137792037704775,0.0208085604781781,0.0103541331197244,0.00853159014420259,-0.00355379485644967,0.0105315420643985,0.000613110140148295,-0.00844871993105253,-0.012583662934844,0.00345658963501131,0.00516960912640787,0.0127810441757162,-0.0153093128353715
0.00130677164650232,0.00443443607117986,-0.00434742639710492,0.0155554509198612,0.00588694440679776,0.00697214336907435,0.0102058520535734,0.0166993041136367,0.00621411785837845,0.0161873679975631,-0.00907023953544072,-0.00523683948247269,0.00705455037869748,-0.00408278603010742,0.00120578341946996,-0.000654535975132601,-0.000551175397043666,-0.0156642296203106,-0.00233312448859217,-0.0135329266127041
-0.0133674710683165,-0.00289427924581778,-0.0156268030930058,0.00829981537187728,0.0146972897659237,-0.0054241150010732,0.0121791166315829,0.00473695224454384,0.00516360467062375,-0.0140238453765214,0.00420778699910041,0.0110808215525144,0.0113847526226103,0.00764948988197711,0.00858464396355447,-0.00288421003128688,0.00311666526130372,-0.0144539396824489,0.000890984252326951,0.0073655297852548
0.0106438714293681,0.00694663191447809,0.0120339513776999,0.0120520057079012,-0.0121630831166915,0.00561387572750521,-0.00524611324712715,-0.0145090948618836,-0.00593582104859296,-0.00233678168438397,-0.00297817356404148,0.00991860020179409,-0.00957311357612109,0.004711902656859,-0.0153057722731523,0.00414921530219362,-0.00821440639652783,0.00417323885550827,0.0142221869831693,-0.00134144477380266
-0.00277788679244787,0.0118988518373954,0.0161814194932418,0.00576938013278391,0.0113476731957184,0.0111467464611573,-0.0106434261685859,-0.00787900180754941,-0.0229497661162334,-0.00786572649751053,-0.00837859246494381,0.0198989020237351,0.00207397794179643,-0.00198661250084948,0.0106734225540342,0.00752645320383058,-0.00900617381322666,-0.00243531014835707,-0.005933998451456,0.0083675347178803
-0.0030152819313347,-0.00642486355043588,-0.00220567750485828,-0.0123340850865814,0.0109957387919073,-0.0156306975731568,-0.00769724604563092,-0.013154564642142,-0.0168544865651808,-0.000775116542797797,-0.00172508253148422,0.0167204645498223,-0.00533802267829373,-0.00329962795521191,0.0140728517717712,0.002527227809477,-0.00754559144692071,-0.000826177890467617,-0.00797113832171246,-0.00601270751159696
-0.00428351107303944,-0.0111047101490066,0.00787605874653564,-0.0100502279959375,0.0093160103286114,0.00369500679855512,-0.00844741177225369,-0.00556916469385386,-0.00924457752362444,-0.00396639901851199,0.00480273079857221,0.00703630981271313,0.00230474130375679,-0.00844630881853543,-0.000710383920555293,0.0100490734253686,0.00565969173652678,0.0135807553692233,0.00712069618761229,0.0103113806481161
-0.0202235013585575,0.00237344329165466,-0.0136380006296632,0.00330113115419881,-0.0209361338369682,0.0135257943255605,0.0115451807934255,0.0159080748423463,0.00270303274351122,0.00277307529560978,-0.00595620933869168,-0.0126469250899552,-0.00727622409277307,-0.0174588718500057,-0.00935331951919823,-0.0151379392383247,-0.00300768490892198,0.0145508459079513,-0.0120586950937606,0.00800977589777961
-0.00643527475812518,-0.00618283451682541,-0.00877236573333029,-0.00158053132339006,0.000211003998650745,0.00477479563610504,0.00677533939462205,-0.000165974124031548,-0.0100305664178595,0.00974617399351812,0.0131282255730496,-0.00275654416407607,-0.0147574128436087,-0.000369255897448674,-0.0157956825414234,0.00984428525403447,-0.0101122417415044,0.0120494926770679,0.0101830366538025,-0.0060760105012608
-0.0137096025850981,-0.013149124126183,0.00574563757811883,0.00234915342521117,-0.0134779433013057,0.00257218226117811,0.0061770533653895,-0.0110107417971524,0.00139734275738311,0.00686309762459281,-0.00724021525611607,0.00898796816120173,-0.00941406209820339,0.00377789814668352,-0.00852530346111813,-0.0148344264840808,-0.00271088155399604,0.000975811419821306,-8.83012734125739e-05,0.0127364650575405
0.00139623116215052,0.0111183393778688,0.00222509814718317,-0.00772326182427789,-0.0103622272916362,-0.0133525780968615,0.00518602644638977,0.00997503828088776,0.011731934085077,-0.00920926075132445,-0.000376394460339628,-0.0208839629298981,0.00424555974840912,-0.0178642316141381,-0.0146695818509937,-0.0193609860244398,0.00102882737719939,-0.00564898258284253,0.0116413780116439,-0.0160413202173942
0.0137256466761532,0.0105993145679061,0.0104684341382487,0.00392720648753095,-0.000824959713992367,-0.00377204872401339,0.00729102846581278,-0.0163655502451273,0.0100761404349806,-0.00666456430904097,0.00522708967363624,0.019027189211988,0.00340176594215489,-0.0148939035498473,-0.00776383788459096,0.00441328373882118,0.015592316967206,-0.00324448071610808,0.00414148285253433,0.000145868034535448
0.0162369775152714,0.00463356831585895,-0.00599674993006824,0.00111466578991755,0.015791761441443,-0.01051004724734,-0.00290769181525285,-0.00525375508325438,-0.0130331996864115,0.0101058067633699,-0.00219988734007519,0.00247576052888906,0.00121978786317345,0.00976723420078133,-0.0139048963953778,0.00500451141061178,-0.0102973828623258,0.0157064773122756,-0.0160099255636077,-0.0137848988558045
0.00278839900087397,3.59344968742366e-05,-0.0114946247950196,0.000313272699923392,0.011384770843942,0.000760181371722543,-0.0170635090939992,0.00870930077327628,-0.0176223111289188,0.0124961431009803,-0.0102266229369851,0.0133260595960736,0.0159365905169921,-0.00930132342386335,0.00147124010205717,0.0158343170944354,-0.00968895568366486,0.00461054375412834,-0.0146694244436223,0.00834673470910226
-0.00657600780454514,0.000209685419202526,-0.00935412942425227,0.00824156539454208,-5.55756735014208e-05,0.00469321499918215,-0.0121546947097351,-0.000277462858625843,0.00965837241542788,-0.00877693503459463,0.00233513344366125,0.0113433303967742,0.00977572475229727,-0.00547581218375549,-0.00239962054052142,-0.00276424733926364,0.00870111709560147,0.00482771076117905,0.002588126300137,0.0147744032943808
0.00609678963945768,-0.00727495972320403,-0.00487100349603574,-0.00103694698640099,-0.0121500627392887,0.0105765154297227,-0.000790865119291941,0.014059147661857,0.0178836618016442,0.00325798061640558,-0.0099890301959926,0.00498143145823934,-0.000442291211220211,0.0139020951381452,-0.00415545062119142,0.000567480882574323,-0.00342786816449577,-0.0135620509877608,0.000849329732271213,-0.0154888387032536
-0.00572484405815339,0.00856196044921401,-0.00466936766641317,-0.00432738482686987,-0.0156277920626882,0.0115463228945261,0.00720514235241638,0.011355029830577,0.0158939582443051,-0.00284224957475114,-0.0163062625858824,-0.00872114360835654,-0.00240616546745448,0.0056833470271555,-0.0117724330424114,0.0134420127297887,-0.0126635498148216,-0.00738045891653463,0.00873912268338393,0.0124082513127489
0.00541014237321434,-0.00592088410853079,0.0121978784278995,0.0132314193773123,-0.00470481023196201,0.00899445719159037,-0.00144082707796579,0.009037210083801,-0.00133051193924456,0.00895655453604998,0.00270771748387054,0.0011311430457946,0.0151114746428244,-0.0129311228745118,0.0163085082078028,-0.00571076201099306,0.0012908778924367,0.0121889327038145,-0.0027508022198236,0.00958615890201997
0.01109933902377,-0.00856472733842317,-0.0106448410043716,0.00621033175609265,0.00936800699313944,-0.0126195615221215,0.0161628439281002,0.00743104915334514,0.012547692227235,0.00806370651685101,0.00433301758275351,-0.0025288581599933,0.00251707332504777,0.00440268966576752,0.00242789994034938,0.00601050235827218,0.0116475812401433,-0.00935658602653673,0.0144638788013254,-0.00616350740139516
0.011004451875055,0.00383218232883512,0.00861434720514593,0.00585575440386383,0.00235749680182113,-0.0124205964352363,0.0135810983700129,-0.00295468494715277,-0.0124950199777993,-0.00926292062116483,0.0122679602075048,-0.0131002182595165,0.012367135312765,0.00184509694044554,0.00332321986111956,0.00424310200294526,0.0135583743622443,0.00860301359271871,-0.000567182713028007,0.00580913436549768
-0.00215333865849308,-0.00459788543841089,0.0157884644205195,-0.00894579796989391,-0.00909927244619218,-0.0122770465931206,-0.00992210279751823,-0.00220405436497993,-0.017443251102232,0.00564158533087778,-0.00294954509082041,-0.00339957903042688,-0.013215058935445,0.00806402038165922,0.00336147263219821,-0.0139323585359142,-0.00999512390308237,-0.0113599148103467,-0.0165984700068213,0.00500181155553442
0.00170360536546163,-0.0157157345650304,-0.0132782087666247,0.000402733719005971,0.00725411718687595,0.0141349012866991,0.00314774891871055,0.0110601626478561,-0.0053192366688241,0.010511500485446,0.01026542183169,-0.00868047557999912,-0.00303327865932949,-0.00124831777994817,0.00889967866299568,0.0148157355174806,-0.00140088441344111,0.0122919887337295,-0.0134772513725883,0.00435677251642983
0.0163620145671265,0.00187712677878483,0.00171786684023242,0.00945922477675858,0.0229390371502634,0.0101985802825238,0.00124375223741875,0.00626365172022475,0.0045108342047431,-0.0128495509319205,0.0118725094899423,0.0126255567735305,0.0162153707802277,0.00647966089796149,0.0169159826612198,0.00481046123888804,-0.00611993692353959,0.0103072316151695,-0.0105755251479813,5.8181581501575e-05
-0.00811625902793677,0.00703260475269046,-0.0133295260089909,-0.014314344332807,-0.00443332381193099,-0.0136803319723464,-0.00222855827311753,-0.0139826223882786,-0.00421585771351931,0.00259415965729039,0.00436568279581527,-0.00581718442829156,-0.00221868498182204,-0.0162477633535449,-0.00248490304403381,0.00324992095096408,-0.00089766607035196,-0.0141088249925785,0.00332447572672477,0.00369171503353213
-0.00745698581675509,-0.0159240238157223,-0.0101962138700482,0.00487189201169208,-0.000370364950225817,0.00420955752142971,-0.00494741239871123,0.0113631572973832,-0.0140598590338785,-0.0100165523596724,-0.00830099996547902,-0.00949373420647415,-0.0085132495844954,-0.00885338871963256,0.0160749571701291,0.0150728004664,0.000807265767210678,0.000421436187073211,-0.00978871839470517,0.0174731088801577
-0.0106400713113974,-0.0149981129718927,0.0115216843459098,-0.011722583027557,-0.0077078125230736,-0.0116952587271681,-0.00418976221545973,-0.0144143914002936,-0.00292993863101447,-0.00274043094832728,0.0059133347707831,0.010825088918223,0.00249607273614128,0.00591397325058781,-0.00574688019895128,-0.00708756368512769,-0.0047715529984533,-0.00463115241039001,-0.00945442409334677,-0.0106061265995224
0.0118251430180439,-0.0157825752893457,0.00911341594153378,0.00129171335103112,-0.00466928863801429,0.00120611186565313,0.00328286829286094,0.00750992711481845,-0.00815279484700178,-0.0122916197616793,-0.00852509783734801,0.0199642379351063,-0.0135889612307577,0.00984933126548609,-0.00728867762146934,-0.00604376368569527,0.00989294036484177,0.00314103063438421,0.00324430421283163,-0.0102419694542795
-0.0115933877410648,-0.00413022763940546,0.000792458535693009,0.0108345088121868,0.00628794864714695,0.014491621172399,0.00335401681055489,-0.0141180661813475,0.000316038192376666,0.0119013915869087,-0.00768995388985181,0.0041634908088261,0.0135990560038831,0.00923143133373025,-0.0141764742027276,0.00975531588906429,0.0101928143991972,0.0120573247710581,-0.0036955709832341,-0.00466974869272324
0.0169217500646696,-0.00122120439127995,0.0057472120655476,-0.0129195133708335,-0.000733837972166953,-0.000870297219394978,-0.0136183867133828,-0.00908004768105576,-0.010613449267669,0.00697853886908663,-0.00652319889240041,0.0103000753713132,0.0147179164035503,0.00826785563426733,-0.000407995735471145,-0.0103337415459437,-0.0117878250042872,-0.00594098809560384,0.0138541623250922,0.0133000084295788
-0.00274874179697765,0.00255789777256344,0.00516253593918922,0.00860567495489057,-0.00539459957397631,0.000498314248151284,0.0133139993971317,0.00999671325925515,0.00788128761292521,0.0136691505852578,-0.00310160738456439,-0.0131112138743484,0.00666447658222069,-0.00142733870903133,0.0140499558873993,-0.00235853504521755,0.00733800137301371,0.0146892408010438,-0.0122405801708379,-0.00271820777224002
0.0114704623597577,-0.0151381641292014,0.00564074974289616,0.0121189549400684,0.00108637558564594,0.00463579366672908,0.00873653807773209,0.00100609000779409,0.00641349059510418,-0.0132735909493814,-0.0130061143378101,-0.0137205930690303,-0.0060594003448431,-0.000233058272092934,-0.00799127937762871,-0.00248105291411772,-0.0139223566699271,-0.0153991894788131,-0.00775495438796966,0.0156099909090803
-0.00305678411806661,0.00553431934379973,-0.00731522524873882,-0.0117351346773478,0.00721143326391614,-0.014916625627511,0.0100888928335466,0.0093305321816387,0.00688677902111726,0.0154303767125971,0.00300203609547726,-0.0144067478806197,-0.0083566724149912,-0.0139610122818057,-0.0152774657886766,0.00110634330985453,0.0113793972537649,-0.00795042238950516,-0.0160574378328579,-0.0144740350925746
-0.013585265533358,0.0142687111733671,-0.0075673552884711,-0.0157203979070118,-0.00665534370799301,-0.0129833239237713,-0.00515477539578137,-0.00374934892248766,-0.00284805758815165,0.00407085367790372,0.0155481679927713,-0.00342186769831068,0.0130543393113052,-0.0026615316922014,0.0143958714552986,0.014339421229362,-0.0116491996486722,0.00958181568511699,-0.0105564034171923,-0.00751186225398521
-0.0130596831286778,-0.00543359652908059,-0.00630668912919053,-0.0144777348077358,-0.00556341559205374,-0.00289097708246494,0.00391331842183463,-0.0136275156509747,0.00806418368939456,-0.00784166544587757,-0.00412251624086314,0.00700123902427331,-0.00412057125110928,-0.00897617431628512,-0.00802852324156974,0.0123308526540802,-0.00099384071530568,0.0145360317202296,-0.0103023614742214,0.0121390064868965
-0.0100935732115164,0.0096710217540157,-0.0011454966990385,0.00538150434936449,0.00983934076660705,-0.00152622145109002,-0.00457604183251029,0.00550846823340071,0.0014445024888554,-0.00404194936701253,0.00475775860855825,-0.0182042917725302,0.00534995352928323,-0.0049037572711565,0.000727058598962741,-0.0160173822457775,0.0048517789150873,0.0143721381206817,0.0152139365847366,0.00645726186587938
0.00532485122156688,0.0154745919260655,0.0116619334657571,0.0120257523084604,-0.00653705450483014,0.00984866508679445,-0.012081981597613,0.0216407276912998,0.0117637914893019,-0.00429544593955798,0.00999593122868571,0.00786587232227285,-0.00963832695253076,-0.00973447594935417,0.0146643575702575,0.00935632468729218,0.00839212708112479,-0.00327949896245812,0.000997993704285152,-0.0193071197328735
-0.0109331810331682,0.0132181086023328,-0.00139596249200121,-0.000949064258551176,-0.0166703264649808,0.00276657824901401,0.00489897083008819,-0.00881561148229809,-0.0129686029080137,-0.00670179023200958,-0.012214464829298,0.00181322551613353,0.0138739757616911,-0.00227163146314916,0.00815064206913418,0.00104906795131839,-0.0144146632713171,0.000967354583131321,-0.00654238971868415,0.0131988255844577
-0.0119173898969358,0.0111522769266141,0.000819393813185417,0.000710807406702888,-0.00523749472663864,0.00189430855794547,0.011413243258984,0.00219014995786399,0.0173606625687933,0.00211359871501083,-0.0109775047087969,0.0125819458470812,0.0080859385360127,0.00846142237929155,0.00193023771316538,-0.00642070840276706,-0.0124667906046101,0.00781793934644144,-0.011305797684362,-0.00917125028424222
0.0035475972483355,0.0129104257122003,0.0137734681419979,-0.0141218664802182,0.0101172018576085,-0.0154766909189323,-0.0087714434522191,0.0158498799780032,0.00629215109488937,0.0160668261380193,0.0148014017796057,0.00333034425152975,0.00228056656011069,0.000204320706865226,-0.00327279515198769,-0.0111077955561115,-0.0104067591165248,-0.0070910746628788,0.0102315540097803,-0.0183358107599132
0.00245389004019238,0.00425663540030306,-0.00972123362463659,0.00585470217232478,-0.00281415568140293,0.00097515886128408,-0.00906075387256635,0.00891887366967833,0.0131485024299545,-0.0129519911268779,-0.00372024912394026,-0.00102244931894667,0.00483001305185373,0.000670861402127068,-0.00750942146255564,-0.0145354407992344,-0.0151429460701182,-0.0126728306113711,0.00181032715871767,0.00100847961521472
-0.00692104716952608,-0.000784746174832579,-0.011282829037542,0.000415145749894683,0.00273837979056009,0.0155767051943088,0.0155024793561671,-0.00627130431016527,0.0117397211041361,-0.00147900981988888,-0.0101184718113666,0.00140582112237025,-0.0124158554054146,0.000843523530983353,-0.00616459115264539,-0.0119709530048402,0.00244452744745088,-0.0017523976839339,0.00342076117051428,0.00960079129328262
-0.0156052470483413,0.0165507417641671,-0.0146077328323474,-0.00421889269358611,0.00208735805855779,0.00530059902297293,0.0156120397823355,0.00784598536687356,-0.00245450540874465,0.005731597188512,0.00939262766132397,-0.0175267564395363,-0.0158120572817223,0.00782743600861233,0.00557925931508439,-0.0102789380618055,-0.00331049690108258,0.000901914232495071,-0.00767833286757778,0.00169539256528956
0.0159991259814986,-0.00244460931116851,-0.00228836160441974,-0.014192399858174,0.00232217632855992,0.0101874289773453,1.90516357073845e-06,-0.0120514151409302,-0.00953063251301359,0.00455493005162434,0.000945817281370688,-0.00702103400521155,0.0148190640961753,5.67648825130742e-05,0.00608517070223582,-0.0027525264430382,0.00524265674343395,0.00532374813147186,0.0139402748041688,-0.00845842460002752
0.00977586417344567,0.00579732289525306,-0.00394449917315212,0.00697168026138082,0.00863142279467506,0.00813530442155178,0.00777074069449922,-0.00186031607239843,0.00865215568013263,0.00766218213094308,0.00607057182093809,0.0120254636270363,0.00588047978553169,-0.00300041276918542,-0.0014602392855037,-5.06391188417713e-06,-0.0168140083811844,-0.0147194614101553,-0.013044341440353,-0.00989084629742867
-0.00502734026034146,0.00568029899228935,-0.0121347679127485,-0.0123899922006465,-0.0106713048313537,-0.014592049462172,-0.00272155046869275,0.015400015342116,-0.00304590130486802,0.00768627449779328,0.0125900050922231,-0.00560856886223108,-0.0155027073603613,0.0103729037900115,0.00836641702083367,0.00336290903152951,0.0104247457970515,-0.0075928859510266,0.0035474230863906,-0.00499857309506794
-0.0143555810541194,0.00492849797652462,-0.016424175568134,-0.00777685189065943,-0.013926855542772,-0.00181294733796671,-2.79033077489996e-05,-0.00818139045655239,0.016299528438756,0.00217078378890695,-0.0166229025782396,0.00836956689320468,-0.0145147093727364,-0.0148102567931057,-0.0117851074774376,0.00887063110071016,0.0114833413168894,-0.0115944115619675,-0.00352164996260008,-0.0154612711806603
0.00670816516995326,0.0114157169430542,0.0149406649873495,0.0115163168925555,0.0119893866786271,0.00356353830540743,-0.004795307127314,-0.00113039577437993,-0.00840477149958883,-0.00448058795306817,-0.00448211600161452,0.00833543108489308,-0.0126378397014816,-0.00911667731612048,-0.00189742027492828,-0.00700104461306454,-0.0109128256977364,0.00172467931679388,-0.00216004218503306,0.014027936635835
-0.0062956809345512,0.00790315971397009,-0.0178362727480747,0.00812735458280254,-0.0249622398229789,-0.00664037033380508,0.00470740137061939,-0.000276173980197101,0.0192858640837667,0.000253446983233562,0.0103130729139248,-0.0195379234925595,-0.0189941380445325,0.00224736582931507,-0.0103056145550969,-0.00403264071605009,-0.00899806717121388,0.00388747884918895,-0.00445252446619915,-0.0170997530863717
0.00456033084430186,0.0150160779490405,0.0112719419046043,0.0121173522741931,-0.0162641839198877,0.00576114215989765,0.0118247552255668,0.0111310817234376,-0.0144621321535412,-0.0058390253225429,0.00848828073905263,-0.00455006970392436,-0.0128948751096036,0.00322154458600355,-0.00960451626887801,0.00759447452237896,0.0136696429389771,0.00483319873950809,-0.0124284918952512,-0.00827659168731718
0.00931989098022571,0.00518492185793579,0.00904047370998128,-0.00556221880616986,-0.0221843374454571,0.0140953744722187,-0.00233303843089302,-0.00183858410993894,0.014941248326473,-0.0101732376692626,-0.00813439968801988,0.0075362068681169,0.00382622405305389,-0.00294115157482222,0.00744068400591296,-0.00341571092981052,0.00269092471036848,0.000636566379608227,-0.00748763619377723,-0.008228009148086
0.0120306187349038,0.0108541582791382,-0.00459135879575899,-0.00354062232306394,-0.0034030044556022,-0.0148306339819558,0.00166852829417717,0.00933225336145666,-0.00806466427051373,-0.00874006147917199,0.00786977323952304,-0.00384113255214575,-0.00838687992745303,0.000588500826896036,-0.0108611126147443,-0.00620606832177214,0.00665624014205553,0.010424515120119,0.00383035751289039,0.00482837720151903
-0.0165115703596273,-0.0119803007889835,-0.0116834206440905,0.010514510035956,-0.0174007685347652,-0.014224450937649,-0.012695831865434,0.00741450887498013,0.0129929892191255,0.0111859995488633,0.0122158419700225,0.00145254109854989,-0.0142945502617309,-0.0105960310304751,0.00986867725896323,0.00370153711750465,0.00434712180548398,0.00385388752351053,-0.00142871718218139,-0.00901524230307505
-0.00809820014647232,0.0152268458470369,-0.00914979271561258,0.00127246489749722,-0.0103586310786292,0.0011068633397507,0.00776209281420643,0.0204352289017474,-0.00358735355871586,-0.00868415723397723,-0.00599930239204926,0.00322030519021131,-0.0126985203790919,-0.00248041883516576,0.00838653138088705,0.00207852863729226,-0.0103872298561301,0.0153722766589588,-0.00238942927358105,0.00808049170567496
-0.00421511482508395,-0.00191382900294537,0.00141676864594722,0.00759438596069453,-0.0106118517909436,-0.0132831390701615,0.0104154541737382,0.00580195165993984,0.0168016058925455,0.00936068329263063,0.012349894411392,0.0094525919804724,0.000388272996608686,0.0125885831352481,0.000214210518475558,-0.017288566401675,-0.013319528501068,0.0125272108248232,0.0104911827569279,-0.00622592801988296
-0.0137183509767037,0.00759847279159095,0.0149215963199019,-8.28296635286405e-05,0.00302501749515566,0.00410151701042705,0.0153146319022269,0.0081689237668795,-0.00586890878009212,0.0153117360928335,-0.0107028714151025,-0.00733295600411608,-0.0165652063401141,0.00506276887022957,-0.00294943121235708,9.41896694153647e-05,0.011024108146268,0.00996273792151362,-0.0117476363981355,-0.00806678495524712
0.000141005848256484,-0.00870451646969804,-0.00807998978571587,0.0097947513793174,-0.00125031145422726,-0.00885335165176477,-0.00627146134395527,-0.0100342696756797,-0.0123235008840515,0.00762208884669446,0.00702373958292287,-0.0170653539574429,-0.00862743549065097,-0.00254068536058887,0.00591712949597446,0.0124715938781449,-0.0138143584384031,-0.000755808748545971,0.00365183967718301,0.000131920390812503
-0.00257350372648477,-0.00897251957036203,0.00998713624558724,0.00639318300381804,0.0107372260403809,-0.0137927529830443,-0.0036541110475894,-0.007402204919101,-0.00249445568515414,-0.00170906032580456,0.0159277435906123,0.0177295603866053,-0.00485621809061943,-0.000101636456510407,-0.0124902261056013,0.0054415969534788,0.0122985093418247,-0.000840120650148362,0.0143500834044184,-0.0106771274841
-0.0126773709784701,-0.0130291529487078,0.0127930180823985,0.0152422022594588,0.00411495318118287,-0.0144776899224007,-0.0108840409433632,-0.0137163110515707,-0.00510827120402638,-0.00474387963936879,0.0105511058218207,0.0169463834452846,-0.0101921570503894,-0.00840619105903,0.00380826259911533,-0.00553749128088986,-0.00453650303676004,-0.000938239868035218,-0.00995096924224594,0.00249888038225232
-0.00966740143245375,0.0134393693904668,-0.000738205470338588,-0.00151426859258651,-0.0116831389779829,0.015176932766094,0.00137319140036759,0.0169371598941537,0.0112365500837764,-0.00159154214970601,0.00701462559568326,-0.010048963961006,0.00670651089213999,-0.0102289359986549,-0.00175515713573701,-0.0104506947319219,-0.0152674363134859,0.00844436922210124,0.00716895639138595,-0.00207236921124985
-0.0109087628612149,-0.0108241979914129,0.0106904100497352,0.0160394050098023,-0.0112997299734323,0.00995729207187774,0.0134974251100264,0.0187499338322799,0.00941380726157044,-0.009094141019182,0.0127157255703685,-0.0166869881751117,0.000304347254454086,-0.0108510254709027,-0.00690109895600738,-0.00502738743624342,0.00752710665517459,0.0063321421048242,0.00620000597599089,-0.00715512763685168
-0.00157520110482927,0.0107125116885013,0.0110568819750514,0.0121611234133014,-0.00429456694882755,-0.000601612906636605,0.00199874221247198,-0.00558101177206875,0.0106082542574431,-0.000951849458428796,0.00336290930294633,0.0115403286423077,-0.0151511797096363,0.00824303701050673,-0.000377669378208535,0.011568313645108,-0.00850976758984814,0.0125644446831045,-0.00651898822848217,-0.00321736283953846
0.00322747952026716,-0.000437107239959514,0.0143146879865202,-0.00892896757251478,0.00750227370240215,0.00561009417703245,0.0124520582983651,0.00128924876062431,0.00917591282631927,0.000243742220323517,0.0113417487808142,0.0138859473821348,0.00415671288518686,-0.00589879372597143,0.00257867572569524,-2.30412684391389e-05,-0.00469413107951761,0.00587769192453645,0.00409580588751027,-0.0157578205733967
-0.00283787238397715,0.0109271772887606,0.007209037004497,0.0109019628008306,-0.00333789896678138,-0.0156110904347805,0.00323027321686078,0.000563783696797969,-0.00240926433430944,0.00752771212298462,0.0106750103796761,0.00642232652047818,-0.00736832102633992,-0.00773097693044301,0.00705634075527356,-0.00184436998741226,0.00409204121749768,0.0130341892793774,0.0107919645064908,0.00921777486606332
0.000776453169017304,-0.0120395761642406,-0.0132537696824311,0.00728786889393018,-0.0176209434110152,0.00859988969343201,0.00705881301354827,0.00718795103308799,0.00626572475938816,0.0131734164871042,-0.0100000173826851,0.00437921666787902,0.0134261261530625,0.0136304725817623,0.0133380495898891,-0.0163475978952638,0.000412532575086549,-0.0128109268998535,0.00613677743066767,-0.0138475530225338
-0.0134251276092503,-0.00628529781039998,-0.0102467034824213,-0.00255851146294662,0.00581830279745785,0.0140127540141693,0.00813003688281402,-0.00936633031367537,-8.64809963850222e-05,0.0136711227631905,-0.0077213121391831,-0.00544951750499135,0.00634435981276096,-0.0148123666760197,-0.00332189051521311,0.00835997907679887,0.0119206402274774,0.015603442200863,-0.00865461352396272,-0.0121079070060536
-0.0181101874340064,0.00429627434042443,0.00665009367492124,-0.00391110816553161,0.00942047076067931,-0.00282793882478033,-0.0143298601549964,0.0011699150544517,0.00737666754009574,-0.00851844165285705,-0.000462193808673963,0.00563325214949885,0.0118515173712467,0.0116289125810055,-0.00598261051023758,-0.00247426039033491,-0.00649347958500744,0.01325554124516,-0.00224575585383028,-0.0143815570504408
0.00569497108390477,0.00656684493825694,0.00608890705173573,0.000948997378894341,0.00138400968431955,0.014897707118182,0.0124548461597332,0.0177737838381068,0.00207322291952315,-0.0130977700533335,-0.00421110338271005,0.0116806443380331,0.00766179967711531,0.00110484403509538,0.00135588244223813,0.00598903737878054,-0.00870197315507631,0.00269448012346903,-0.00221390585769364,0.00660132590134918
0.0177655088889485,0.00535182534739491,0.0128397176879348,-0.0137323795931936,0.0202083346182928,0.0166370104543572,0.00821246765843515,-0.0116263173333933,-0.0130933747215913,0.0113750023681683,0.000754435628142963,-0.00110214821175859,-0.0117422946642806,0.0072734039962515,-0.00369808465215947,-0.00556116721599046,0.00163271861059972,0.00563246524830521,0.00808291314671202,-0.00942734992450187
0.000980981106858303,0.00305552667343489,0.0116726728284985,0.00597575523405825,0.00927512362592343,-0.00228788167618718,-0.00752290199843332,0.0100760472803989,-0.0159664740838664,-0.00324820887271033,0.0136694958185338,0.0109964767766878,0.0114580277708786,0.00160847475051804,-0.010112862931353,-0.00780740460189653,0.00272003524040996,-0.00635262827592742,0.0121478786728982,0.0152458378121493
0.00644530383321382,0.00121756982167164,0.00644734091101285,-0.011325331190137,0.00153741509344272,-0.00610729053854503,-0.0170907128311169,-0.00989733689198969,-0.00299648110182743,0.0140862278493772,-0.00206583156672067,-0.00471349110236751,-0.00638849200056882,0.00884423677867835,0.00518217453750695,0.00741845543716508,-0.0138697348799608,-0.0026936208048245,0.0117082314289805,-0.00578829830833875
0.0126924403961286,0.00185236470246562,-0.01139154479308,0.0121382890004794,0.0110255872001911,-0.00473370734465517,0.0140612838332772,0.0034690305036649,0.0153917474817901,-0.00729724141973181,0.0153516423524034,-0.00636244223205739,-0.00445847600756263,-0.000419673475812957,-0.0148149842762664,-0.0100988169006255,-0.0142996811042586,-0.0122104811779259,0.0101666247116764,-0.00352344189212071
-0.00856870280526934,0.00657893444041462,0.00934587168440351,0.0114722275828495,0.00363979684123089,0.0104925247202725,0.00380643508116807,-0.0140196003842008,-0.0283954040387963,-0.0118679317166608,0.014878723453634,0.0238788745817939,0.0110813091304049,-0.00722243064090885,-0.00887709429261271,0.0203023333633302,-0.0105152512613589,-0.0123841369057268,-0.000977583414723972,0.0146629388258629
0.010295049740078,0.000891663269948472,0.0106824034438062,-0.0139297934868882,0.0142932581316632,-0.00774016624939723,-0.00773635794841417,0.0139813728720098,0.00220916715939305,0.00934823082848158,-0.0122080170513892,0.000143770248885822,-0.00467048999524388,-0.0149194535946204,0.00885998769014375,-0.00836305337312367,-0.0138508757752104,-0.0159612576738386,0.00272004528637121,-0.0108564854005782
-0.00279534000368201,-0.0101490102768095,-0.000161365473817074,0.00347280220201335,-0.00549558179621283,-0.00728930604579998,-0.00441377170299006,-0.0228264923402361,-0.0209002995168209,-0.00563359797096141,0.0118542352673569,0.00357748937785925,0.00516346153825049,0.00805346391255594,0.00486562814435816,0.00906884948120242,0.0039732947535838,0.00181714009375436,0.000445070567397115,0.011629492869022
0.00205106161052286,0.00643966707264504,0.0145876150647776,0.0102462748773364,-0.00928798584604009,-0.0137684540106227,-0.00648571110520624,-0.0052682917843522,-0.00279350529979195,0.00671402365322425,0.00302732827827431,0.00641265750389278,0.00296269103006822,0.00519589620310692,-0.0112278985591662,0.00806695275233592,0.0161499659945316,0.00212345430302665,-0.00727630126016937,0.0127242414447844
-0.00620137567494221,-0.00279558136382002,-0.00592228627989155,0.00544102459395793,0.00762612584699083,-0.00527950342743855,0.011359794870417,-0.00883145675906803,0.0127224496734477,0.0110785981721202,-0.00479492515285755,-0.0107351590273975,0.00552581232759905,0.00339514030073585,-0.00493676990941264,0.00947534909500547,-0.00979917397309195,0.00214877311973263,-0.0172714465311425,0.00985878359853344
0.000532904579493487,-0.00103742916823068,-0.000406583332271382,-0.00373612821215697,0.00751215709882269,-0.00637040509485612,0.00336281269281552,-0.00931962492461156,0.0203107113831964,0.0169332482828904,-0.00463563109323914,-0.0138584490463454,-0.00649310814973137,-0.0112089464633322,0.00129857208848928,0.00428714044324383,0.0136850357147145,0.0133432153498119,0.00852027008471786,-0.0124419771635497
-0.000586719392549786,0.000319455195770482,-0.00478645697789278,-0.00295490186091755,-0.00834107430690724,-0.0112228033817013,0.0143897826814538,0.024389347370633,0.0115898556572836,0.00372355932981965,-0.0180463593648028,-0.0235035244063833,0.00847577738887106,-0.0106374888420787,-0.00446372472013561,-0.0202530811386673,-0.0045303708941262,0.0116751547888196,-0.00296555817615889,-0.00789376699755684
0.00798613101474952,-0.0141437371639114,0.0109698508975628,0.0112345621871707,-0.000177310229162546,0.00645245941243234,-0.0109017502011436,0.0120929646449624,-0.00368816314526975,0.0020544482893786,-0.00447253027300356,0.0112530372965111,0.0139669012772576,-0.0118587821246036,0.00331361013965315,0.00775832525662873,-0.00458818148024709,-0.00486013731192844,-0.0130203896256064,0.0051020472247915
0.00406073887687658,0.0151315777161197,-0.0121992295830518,0.0101445997363363,-0.00163751011167787,0.0144462145183797,-0.0113397657522146,-0.00955883862978397,0.0130015818762499,0.00395534176745218,-0.000928309913846612,-0.0155131987003371,-0.00305976625200391,-0.0100678990407794,-0.00728078222208958,-0.0016510723242655,0.00574443140530316,-0.00201509456028761,-0.0150326868649237,-0.0113776000500488
0.0118810715880551,0.0120132184360151,-0.0147611192714652,-0.00341805099141272,0.0135948325669418,0.00257869231007746,-0.0126636489218346,-0.00984370603193961,0.00779653711141302,0.00317966997803966,0.000932210078470182,-0.00609721222269603,-0.0143649573156132,0.00765899676456639,0.00621157548020942,-0.00440025144579213,0.00728634122240036,0.00794426996304409,-0.0142811716536832,-0.010193237149166
-0.0136780834952036,-0.0161997815277442,-0.00722549215469432,0.00772692232893332,0.0173771751860206,0.0109944079377419,0.00953362468460217,-0.0186618854021703,-0.0135468443442726,-0.00172151270075254,-0.00770850723115709,0.01400579790168,-0.00650060205564306,-0.00539413862168273,-0.00834224945927851,0.00757471183507043,0.011433955719439,0.0123529944626158,0.00262294864124636,-0.0116799630858574
-0.00400888363883995,-0.0142656277826279,-8.48842993572863e-05,-0.0159507457025027,-0.0101056032126375,0.00356368882693523,-0.015586305324317,0.00479046539576811,0.00951524790416021,-0.00908877622680283,0.00884584591575839,0.0064505651389771,0.0114293920933913,-0.00413851854326351,-0.0144265730476928,-0.00887256025943843,-0.00489915574074233,0.00258674000698645,0.0027091018700002,-0.00622139956757545
-0.0211349906791247,0.00852719300461166,0.0080312149981027,-0.000415461380919242,-0.00135452366936896,0.00863371323894549,0.0103627802455365,0.0118166528004237,0.00217311933778204,0.0123784023152053,0.00239844265028639,-0.0153272770118905,0.00190211702449337,-0.00107443698759846,0.013924335243486,-0.0192996071118281,-0.0091366327819534,-0.00554027910301183,0.0167065648472178,-0.0134095541763881
-0.0147304037478644,-0.00568894577492795,0.00390958993084672,-0.0163114963626197,0.00351114760750816,-0.00490877268466244,0.0105684876199113,0.0125764374529093,-0.0114603159850709,0.00996423448184915,0.0146186001252461,0.0023070982506752,0.0013939130888058,-0.00951046395704165,-0.0136287512283672,-0.0019925966116519,-0.00584217256185872,0.0100952995114245,-0.0043903633847219,0.00886574509692588
0.00959411354732802,0.0102948475298613,-0.0177902017600501,-0.00596188543050875,-0.00315133413716766,-0.0143653449708701,0.0143234140079952,0.00726631375628628,-0.00328820506564629,-0.00545692732901421,0.0064827609562537,-0.0100487197468511,0.000938583907166218,0.00666655344420714,0.00690612024288967,0.0030782856446276,0.00712029889356911,-0.00180464394606909,-0.00565851654613891,0.00989719172689605
-0.01199765483935,0.011595058965666,-0.000809406462319297,-0.0155828921805855,-0.0140754413108775,-0.00916155329395385,-0.0103883630450874,-0.00106260833286465,-0.00669558966305191,-0.013444429145001,-0.0118297742493805,0.000788370194938837,-0.0116916537059801,-0.0138189040176139,-0.00204113052913497,0.00622203510650302,0.00779684143339408,0.000257356459637906,-0.0128607599027366,0.00855952654618802
-0.013907946484639,0.0143183331699629,-0.000172737927517784,0.0147065590852595,-0.0117010765383362,0.00774693267889444,0.00886245681872413,-0.00568360398383534,-0.00769617646809028,-0.0125317370789576,0.00146484435891156,-0.00156871388897533,0.00465695068404913,-0.00405669243715425,0.00539322117627014,-0.0143552686856154,0.00761431643535038,0.0148513981857547,0.00112828231423086,-0.000690976512085972
-0.0032225645835559,-0.00708528092188578,-0.00281536874022173,0.0051704750017664,0.0043830470195338,-0.00282749594375112,-0.0110434476635549,0.021312740399615,0.0194199641806452,-0.00145165082726645,0.00593715112383553,0.0111635894253069,-0.0061417143782216,0.00597067709251811,-0.00686690763818319,0.0025696601708296,0.00735671820071334,-0.00374990601655959,0.0157774481254056,0.00727490176271269
0.00601145809024385,0.0142396552605718,-0.0114354992293824,-0.00930893911252041,-0.00879239814521577,0.0142881339817888,-0.0147019252722884,-0.0103527941201253,0.0113190825117142,0.00433036952780749,-0.00342041809555425,-0.00926465683840653,0.00818986543919561,0.00629209228160874,-0.010347027755952,0.00699618518945782,-0.0156250593692789,-0.0102162222561003,-0.0136072545182086,-0.00623463669208758
0.0157477024488938,-0.00969860373215808,4.19256685230783e-05,-0.00483022729365404,0.0078558899885251,0.00725706041228027,0.00185284678150679,-0.0127958871473149,-0.011314951978958,0.0107295590737348,0.0153490945730284,0.00860387015199864,-0.00355206117881222,0.00938137153803778,0.01499588931486,0.000834077846946385,-0.00443497200107137,0.0151216824825776,0.0114659444171461,0.0025876385379445
-0.0181523219628087,-0.00463671396272684,-0.00320849073606695,0.0169486698941425,0.0023904259068161,0.00562120256224275,-0.00474019391251222,0.00441368871317307,0.0117874562235333,0.00192066393749331,0.00348404561285574,0.00732097327651165,-0.0161502958237193,-0.0133288513958032,-0.000291131191877418,0.00159762504274273,-0.00696260831640068,0.000971189973289187,0.00510220883351154,-0.00326479765498023
-0.00443675874900135,-0.00451113622112876,0.00435783035704756,0.00166084893501492,-0.0144035759234888,0.00385635259371687,0.0143248561103005,0.00459057421000627,-0.00633287556116441,-0.00638406786277631,0.0135810201188402,0.0069804864304009,-0.0100185088564216,0.00553894665812739,-0.00704900363880215,-0.0146591444209869,-0.0118810764689412,-0.0131181933471574,-0.00645898467978067,0.0113756293881002
-0.000876412653463578,-0.00444978184120283,-0.0119868603431701,0.00705578311856494,-0.0122830148498703,-0.0168696782547019,0.00851968439371905,0.000795228388269694,0.00400795144955974,0.0143336778463635,0.00888007425188101,-0.00506797642891503,0.00932960687990498,0.0114151235559387,0.0043797151783276,-0.0238514112628282,-0.0183405834285313,-0.00367109336318194,0.0114235579005516,-0.00539591152629138
-0.00642329735185497,0.00486626725918893,0.0127194013762757,-0.00230162522847573,0.00896388736698645,-0.0152893260730558,-0.00353252691151325,-0.00723936761229929,-0.0133014602435178,0.0159104769506562,-0.0148403313937985,-0.00340115776845358,-0.00581583911107941,0.00135891768295454,-0.00425914434774807,-0.01689699417221,-0.00560643906533544,-0.0124970680764643,-0.00812182469214446,-0.00143655130006512
-0.0180810410185926,-0.00533365977164398,0.00350318247739202,0.00585730945657794,0.00434161765641802,0.00162295105571994,-0.00410109288301576,-0.00338164788183612,0.0181103962281447,-0.0132843634755515,0.00710240668524418,-0.0107792135113028,-0.0149774869784502,0.00332338615637034,-0.00350422445007313,-0.00280396717064057,0.012725530400737,-0.011798911065626,-0.00520875954770614,-0.0102408579107463
0.00612898835192887,-0.0109206720999813,0.00432317230488879,-0.00942996135960794,-0.00336668615359368,-0.00569520782297186,0.00728240980853282,0.00538761729132464,0.0110235111845246,0.0109121323930161,-0.0109734374843679,-0.0042393514956454,-0.00763305501836723,0.00319311682644504,0.0080551564594293,-0.0197195042189761,0.00520389232213599,0.00374491256657727,-0.01285013746585,-0.00725929892335974
-0.00131576906959878,-0.0123503456077182,0.011967281981727,0.0140272648214212,-0.00907464067612612,0.0124590276364299,-0.0152554666531541,0.0101137697124206,-0.00484392724201701,0.00191608408165615,0.00962467298553199,-0.0153442650577467,-0.0158314310612646,0.0108825210939735,-0.0150059002420235,-0.00221808851397343,-0.00194020197665277,0.0059046029788633,-0.0134809469163471,0.0109411887098902
-0.0102361794925147,0.00434473361978519,-0.0147673232807512,-0.00525372082266663,0.00834392642535348,-0.00880292470353912,-0.00367358061270002,0.0126567445049353,0.00661347321625965,0.0170641960255326,0.0083720731298706,0.00185535614817697,0.00270416878732442,-0.00534031536042023,-0.00122132914925676,-0.00996590325935397,0.00873900679265974,0.00404830922454108,0.0150994755887198,0.0115470805576863
-0.0133337891797186,-0.0022057753791524,0.00144310327726863,-0.0109030078804886,0.00297136391966028,-0.0150667950538809,-0.00375457812559607,0.00135354115286648,-0.0065088605523783,0.0119303478209841,-0.0143247176917812,-0.00394873971862967,-0.000752874964115779,-0.00591460577186964,-0.00842993836003595,-0.0140257711112305,-0.00601306161649742,0.00481571626006177,-0.00609827203844206,-0.00369802598782311
-0.0117802420418624,0.00571078282194997,0.00387921129610352,-0.00696763553045788,0.00602387995947442,-0.000437996485627277,0.00430405109141609,0.00457981667487901,0.0105347195322228,0.0026420076984548,0.00376487115247352,-0.00419758477021665,0.00368565051105338,0.0143292844719342,-0.0056013965691598,-0.0166023286007825,-0.0091387111727438,0.00868992109281537,-0.00542036876532636,0.00949173900854746
0.011862413244361,0.00535395449773436,-0.0054902946298872,0.00805884373171407,-0.0105678068557354,0.00435411456827762,0.0113827099094133,0.00165319879485623,0.0123707248834314,-0.0109356504661172,-0.00161381244230248,-0.0181212854448675,-0.00574420488454281,-0.0157985910457487,0.00564739191744263,0.0065011517327663,0.00219733380059066,0.0146116378755607,-0.00279532295582304,0.00278242203070329
-0.00882416856715805,0.00963492847461303,0.00874631274432051,-0.00582145912758748,-0.0184711920381753,0.00581658624845534,0.0147756976697936,0.00446318949668663,-0.00662893822360935,-0.000823890969065961,-0.0125639020145409,-0.0155125084795715,-0.0167621179894682,0.000292912243637092,0.0048717474799474,0.00836383871342653,-0.00321059531767694,-0.0152782532990974,-0.00636114981732904,-0.00430287887785922
-0.0102902737674051,-0.0162541750369931,-0.00301953587969294,-0.0118875664830615,0.0109165541037827,-0.0109632650393385,-0.0141900306828819,0.00380649575024542,0.0134868328610663,0.0113685257938552,-0.00990267733269186,-0.0111565209238398,-0.00738384736133891,0.0141602489625826,0.00650546231272706,-0.00800281135086096,-0.00913546239399859,-0.00438267257675538,-0.00887974024684875,0.00910860983755803
0.0113411151328031,0.0089846468153603,-0.00404461978021836,0.00736246271690836,-0.00319013353352205,-0.00523669450267712,-0.0155493408416902,-0.00645049707074021,0.00534015093454043,-0.00186444354136853,-0.00149721790823088,0.013703360660835,0.0123681110673551,-0.0127104458163962,-0.00490558285963232,0.00762513562899024,0.0134798348484671,-0.00641542087596422,-0.0141608675752185,0.0069584740478864
0.0114009135533347,0.00414965234659719,-0.0139439776171186,-0.0142049862792734,-0.00241000018997066,0.00996790962578662,-0.0103075384403472,-0.00693840747058426,0.00444257815679708,-0.00467602582115248,-0.0168351663286873,-0.00867290293013297,-0.00823454996738117,-0.00475501609994404,0.0146182350378772,-0.00504406330568081,-0.0166055382087767,0.00686913789015737,-0.00167400700060261,-0.0152291048470891
0.0017360945446094,0.0102649532736213,-0.005761927451196,-0.00653032167652948,0.0110414248535736,-0.0029096088022676,0.0139480554230614,-0.000965372085666953,-0.00183658274389663,0.00820807517144733,0.0138361365335542,-0.00228566924732963,0.00347082672369045,-0.0122606179282689,-3.96781401476151e-05,-0.00785434880930024,-0.00259868204279651,0.00823426578773915,0.013908855637958,-0.00848482433905875
0.0152780778675864,-0.00207200093007802,-0.00828190040366045,0.0136621678347502,0.0276318974366889,0.015709149128723,-0.00118207390280689,-0.00929482277173624,-0.0148828562972958,-0.000937221770134298,0.0182799882722207,-0.00376557744974593,0.00897605572986237,0.0157835603227087,0.00803862209996616,0.0160752429994664,-0.00758038112165022,-0.00755105730378153,-0.0172011913742861,0.00721162999009965
0.000266045177419938,-0.012015819902955,0.00580766674961844,-0.0138178966074952,0.0215623168695316,-0.00823220572152559,0.00625442989427269,-0.0164333158527813,-0.0123581173062621,-0.00269025474879229,0.0191072457101461,-0.002055446146143,-0.0141605892921609,-0.0037618478407183,0.00828910191815888,0.00715714828216699,-0.0111593278708862,0.00469841593836705,-0.00104864810029268,-0.00834247190560298
-0.0125398519081114,0.00492642714039587,-0.00162015308686672,-0.00226814060622603,-0.00571618279366949,0.00420612636485616,0.00354863022638336,0.00258709726416107,-0.0162533857315305,-0.00209551645222721,0.0106412575347588,0.00457598012034178,0.00575169310141061,-0.00726848528770054,0.000923579923185137,-0.0133214127131011,-0.0124505661234387,0.0116616320900212,0.00763956362541661,-0.00123609570638777
-0.000760723737230806,-0.00351528358389601,-0.0121753554344165,0.00610982809767359,-0.0104996805596388,0.0107976238015321,-0.00150171898733937,-0.00193141405164615,-0.00798962922891306,-0.0121314263352989,-0.00218594321615142,-0.0117519562301405,0.0154879712890346,-0.012903317572638,0.00414610839785436,0.000813911892034464,0.0094121735271919,0.00874494922718706,0.00193356981372574,0.00759432397863819
-0.000923899013960773,0.00852282787727948,0.0106971806726813,0.011391454899394,0.0184010704335127,0.00453256154817498,0.00799529587335082,0.0113290241884114,-0.00761347521095841,-0.00580127334457404,-0.00444439490298529,0.0121889043697081,0.00284920010960996,-0.0128702797994505,-0.0094481122378709,0.00543990858624563,0.0159300682609508,-0.0118746448730942,-0.00563570344983832,0.014686707656486
0.0128682002028698,-0.00466457458043743,0.0149832277549041,0.00417096585717749,0.0176284221064922,-0.013099946531746,0.00318684309824842,-0.00776688480193864,0.00703146867661583,0.00922484923902984,-0.00523001741228776,0.0117378681783093,0.00809609936441475,-0.0108644907196734,0.00934438496649894,0.00522174062245169,0.00523551822919772,-0.0132183570189667,-0.0142299781678283,0.00666636954838446
-0.00102343914379566,0.0113034772366813,-0.0125526855636337,0.00799974221325672,-0.0095085133232274,-0.00799779365971224,0.00628257923345144,0.00392508279216176,-0.0196218062026987,0.00804871731148593,0.00184174255238717,0.0159314297021601,0.0168867877108318,0.0138112202184359,-0.0135292441630278,0.0122989785305088,-0.00691684960262055,-0.00304286602849745,-0.0110299579368283,0.0141003213529482
-0.00972313756396534,-0.00183429789699276,0.0137728468356648,0.00466538910324467,0.00875150619944278,0.0154988220540032,0.0139117967615816,-0.00689497698159211,0.0084702048109071,0.0131178135747797,-0.00884415355111998,0.0112730550342681,0.00990139700371393,-0.0138994947586456,0.00452179344604154,0.00891745878803905,-0.0122593427088981,0.00405311870321651,-0.0136158299029429,-0.00729471829968377
-0.00102453099073886,0.00117699528554504,-0.00382947086725148,-0.00752174432581653,0.0101314750786559,-0.00451863643545652,-0.00159007124978126,0.0107066544190381,-0.0162935113434402,0.00316322266242745,0.0134156590680285,0.0172707870326232,-0.00240730341549651,-0.00191233241301503,-0.0112453984409641,-0.00817686786166456,-0.00981350177851374,0.0106497850835694,-0.00888254230727237,0.0154177432734988
0.0145784221877482,0.00989527434778275,0.0141583781864244,-0.0153264419995958,-0.00668582259196217,0.00771946526974759,-0.00411575939784139,-0.0131833120753931,0.0065315322097513,-0.0118690847809015,0.0160167993349168,0.00240048199123723,-0.0139961875642357,-0.0059707626716962,0.0143634303210145,-0.00574818135594442,0.00586555676841229,-0.00158143472102295,0.00370329476884379,-0.00590226276815024
