0.230291136684274,0.039757314966683,-0.295137782928055,-0.20578751077888,-0.201773873270439,0.186520646732039,0.39649874544176,0.142210842196207,0.218439540193526,0.138381769913963
-0.0283399836971608,-0.131448294583137,0.048663670361915,-0.187659884538871,-0.156460850946161,-0.165995919994338,-0.171746787077695,-0.0476966105587579,0.152328834857378,-0.106787245888351
0.0972589917075418,0.125379717442666,-0.00301627462344937,0.084437832658027,0.0816328719424503,0.0573721532527988,-0.000555660163940888,-0.0764963654373085,-0.207399842693697,-0.0885182123744007
0.138867768851625,-0.0757261272394905,-0.259983207896997,-0.00763850123318441,-0.0261007186446693,0.21616121639155,-0.0678608322303718,-0.201551434288206,0.0440723696246435,-0.151254016664683
-0.341488216932292,-0.231426073967378,-0.299677908843164,0.046493925074863,0.142163362824739,0.163564862473018,0.0248668525830988,0.019984479067545,0.106807153335179,0.277664483254527
0.0652276674277668,-0.156822287014092,0.141658436672849,0.13933833337324,0.13033925922123,-0.145669993970222,0.13923023545667,-0.0257588515832206,0.234298908991971,0.216833377100254
0.0296690347774529,-0.020945072107827,0.0147147641885944,-0.0481179672180364,0.102437816199137,-0.00428978288362447,0.135476874632592,0.198857429944405,-0.147541204003258,-0.224354905320551
0.00333417736583652,-0.21493079665384,-0.145246678746584,-0.117187480081591,0.0873501259470747,-0.0927640636095465,-0.153981821020715,0.107375238326242,-0.0715956284936845,-0.170688399436329
0.140377691371344,0.174320314061905,0.019544042509527,0.223989848025086,-0.0227694386472026,0.160887882967294,0.0319796158004249,-0.105290557382773,0.183833218663598,-0.0382037180290295
-0.0899045765005347,0.0917805891030497,0.0951215478915373,0.0660055083281124,0.219559128133869,0.0827918815812766,0.048102626521766,0.0784022041733374,0.0693988147025921,-0.150531120014893
0.102378211053335,0.0577847854810044,-0.29223818612361,0.127176460081045,0.287224231603647,0.124899742841545,0.126303938734703,0.135071857711665,0.031506427479309,0.087958913167493
-0.24268193546062,0.158117816711852,0.133551935212621,-0.101293692060275,-0.126071786861847,-0.0184190249904888,0.0258911752920047,0.127352045728389,0.193084836278114,0.183999819850989
-0.123842380714481,0.00887106549417931,0.302976667007623,0.249005949367038,0.0139238156007366,-0.22908558867174,-0.16975809683911,0.241331738392258,0.140702865463017,-0.17408186054269
0.060269533246841,0.124931598655758,0.111139774118714,0.150577003878151,0.0159550837446438,-0.0471310102855825,-0.199898333331996,-0.0204389892099847,-0.0561514796038698,0.058603196519373
0.0674501801201952,0.034843737291783,-0.0261640359923876,-0.0800529873695205,-0.130721882450301,0.155505588969068,-0.0542145308426691,0.138499619145564,0.119555557201065,-0.176702238820963
-0.00919227970386307,-0.0922107962498209,-0.0103772306075749,0.022821533077691,0.186367243843248,-0.0973340589096222,0.116653464421332,-0.0877075098046103,-0.135381954309463,-0.123385634188444
0.134443838906296,0.453563634799279,0.211389556131524,0.0794725721955868,0.252805816065722,-0.0246302856013502,-0.0476914545539747,0.0265061562196333,0.271794026271649,0.0751584638829298
-0.271290597493426,-0.105051251337761,-0.0294775218917082,-0.212089714650416,0.112803558010615,0.0235473173881528,-0.124866114730943,-0.0824163205571562,-0.165327285654876,0.11441558019017
0.14418250299818,0.169201313187062,-0.302283825434453,-0.0197617315403864,0.307900468055867,-0.18168448334476,-0.00562300373882167,0.164556558775501,0.065211578922147,-0.384124370302943
0.326651440675097,0.0351100548088348,-0.192407153216166,-0.185433531117059,0.133019760748268,0.188532074217782,-0.0742620811594757,0.107336767543609,0.0464742741021607,-0.174862237684139
-0.120465450096622,0.114613672886942,0.293622543978466,0.214521607849868,0.0127959294812029,-0.167217206847363,0.23874944014951,-0.00189613892071933,-0.188817916367893,-0.159740744206712
-0.305692283369862,0.186139923991664,0.139505856847289,-0.0333783085554842,0.0648145618439394,0.0236150356931453,0.0811268385663096,-0.0407134533040616,0.112107886673037,0.1789479559405
0.169527230256179,-0.203771156380672,0.248422130041066,0.107444147788705,-0.15636338355195,0.128930776778421,0.0161897574232162,-0.0220513866727248,-0.0733659231036237,-0.291949355487053
0.00409478601534673,0.0101834323426676,0.0200630996997149,0.130142941141064,-0.023482251120875,0.237400516872031,0.202277049168068,-0.0349895886967883,0.0822682842075035,-0.0726664588971402
-0.04143617251289,-0.144484358238068,-0.268314984781345,0.0743808931445649,-0.308877974946999,-0.269284211584765,-0.205110648915383,-0.178152444722464,0.0152641516886943,0.0631458091744359
-0.286607615543559,-0.27010664649358,0.0682573988831681,0.155718954546855,-0.183820156988305,0.160678930942226,-0.309578985442872,0.0942904830725358,0.0313844373472871,0.132539591484182
-0.219533625835915,0.0296953346371118,-0.0039422085855337,-0.325431619731461,0.0215209503478034,-0.190874966988678,0.273631915443651,-0.143234289683899,0.0453657703138757,-0.0679435784138848
0.0781094087799255,-0.0515483247667795,-0.280037703595619,0.0813827364224211,0.0428603154690499,-0.102336655022792,-0.0189392423896848,0.259251545769668,-0.298388152453832,-0.119738854168223
0.195615080579108,-0.0296976490139407,0.241751843331755,0.143185774821925,-0.0327100028962806,-0.172075805673468,0.00452076165221911,-0.158529933663288,0.138901532745099,-0.0787357771545493
0.0981705471387172,0.213999194479506,-0.0663585020756768,-0.136813943907089,0.0993367593610055,0.211887779746628,0.0478219451747612,0.155995168221882,0.0558727680345078,0.24528720357651
-0.181605867071568,0.0345987977470188,0.211194190102841,-0.113706672503497,0.0228223816506338,-0.111406990909435,0.0256324161272503,0.428739746334334,-0.136875114567379,-0.166818962587801
-0.155604163560803,0.209226025217258,0.0579525237712952,0.214877026292048,0.0721787231680293,0.127031622298087,-0.103397476521135,0.184049631663426,0.201391923101469,-0.113516586616445
-0.113637110396029,-0.217544617858535,-0.0953575322158704,-0.298246653166229,-0.280636259107294,-0.176435235632747,-0.267369145723176,0.0418288384216816,0.00674499033341813,-0.0609426247164675
0.132612387571289,-0.106719358073604,0.00874636088089155,-0.0577358216882355,0.139506383828311,0.110787345733629,-0.213893578964848,-0.0673468869153243,0.351266014567704,-0.0444047628982997
-0.171775527776131,-0.101158416704049,0.062497435476239,0.280341396052545,-0.220660507256214,-0.126660797642806,0.00588043844787652,0.0159757891209162,-0.178948877962164,0.243494084851539
0.0379121517006972,0.0678754978251451,-0.161035310264669,-0.0940618778194575,-0.196490982205009,0.0151082172748148,-0.0512712757560396,-0.264073562346484,-0.145591641176349,-0.00459166003051214
0.0712233410565212,0.01271522189229,0.019540718181797,-0.0143915227559056,-0.122492469595678,0.189166372273641,0.130885817156014,-0.0815721724943384,-0.0877007239524535,-0.0187655638306703
0.034520802115934,-0.0664890606196044,0.030895951842999,0.107899957282117,-0.141995281117132,0.160746072174144,-0.159549458594445,0.136389129347214,-0.131179320757077,0.0181519390684084
0.045644070846012,0.149730699849797,-0.00606544064005296,0.414040044247094,-0.112224671666142,0.0256081870281517,-0.0905487281704306,0.0931940997730541,-0.0600686913394477,-0.0416297798794023
-0.0660741374068251,0.0749530714858058,0.0634915922303925,-0.109252788597307,-0.15232975131449,-0.212954392986992,-0.164018179688616,0.0953149607709056,0.258060165600715,-0.191637365409009
-0.137351372098347,-0.149401184969028,0.10892043702439,0.21775419530198,-0.107469094889621,-0.118944496146844,0.0767631471455564,0.114689942751747,-0.118765140901292,-0.179109324744765
-0.190287169542707,-0.0720489811399964,-0.188009698817189,0.146279432481258,-0.0429914539961803,-0.106467108948964,-0.203215397202022,-0.0182211619975873,-0.0345287270657835,0.0770546993051316
0.00451188134242382,0.0383573283311569,0.120781750178699,0.0788312706543917,-0.191266625471728,0.101407043692738,-0.165026325945454,0.126586450740819,-0.0897104748548603,-0.074852438392459
-0.287598966790366,0.101822853246471,0.0667653096445524,0.117268605666017,-0.080301090892751,-0.195626432361374,0.0493415963181405,0.144968576759371,0.0171135692705194,0.143888947858466
0.0807065097197196,0.187300099768672,-0.0781166183096058,-0.319345778113122,-0.22370562985227,-0.240582714427696,-0.336600932043728,-0.0258498439797916,0.0894783097515332,-0.0569128180995829
-0.00451360526146364,-0.0316442763902074,-0.163861356757862,-0.189963259072662,-0.0878323208478104,0.259372343657334,0.0755620186143468,-0.103767811974703,-0.0607490133837689,-0.0480328226504297
0.175330067156894,0.0982934572712692,0.0964038526177547,-0.146783392187008,-0.11054828694048,0.0690109881920885,0.0373245784058217,-0.0456775777090464,0.238152992083168,0.0361308688510556
-0.418806879748312,0.169170613470086,0.00154654811391478,0.108697241969053,-0.054574078043725,-0.311688215763728,0.0386854748678977,-0.0911188543824629,0.0894578391508958,-0.195186476778159
0.260876942576766,0.0699757977385241,0.162108236127768,-0.0816290651406107,0.12167835644766,0.08091740609819,-0.133222604837925,-0.098315807719929,-0.0101287825416843,-0.129174378474088
-0.0696516621019067,-0.0751553082437613,-0.101610471207741,0.0145078143987415,0.076251554775697,0.0178717981112525,-0.130360852103164,-0.0327057929805473,-0.158831457392344,-0.108711234166298
0.0267413326368189,-0.414909393262038,-0.00526468708128384,0.0430267338768144,-0.0959446695376894,0.247495962794489,-0.0568782916028165,-0.325885468360685,0.0243812350938713,0.193788294266265
-0.207667293153719,-0.00632136618700424,-0.31495975638866,0.118155830940104,0.123044350122525,0.161996106650223,-0.393046299278745,0.0843487719737223,-0.0544033511331747,0.111834634341246
-0.194196489036216,0.147562265291309,0.188930055878082,0.193873764348706,-0.0552325215339358,-0.1244951212495,-0.176552012521799,0.284177310672279,0.075387706530311,-0.360167082340826
0.252670719498413,-0.180041102215939,0.0915445558332017,-0.0153685528708513,0.0222744318485977,0.200771880634086,0.041148498564536,-0.0604672327770152,-0.0207824328369769,-0.0995269749620863
-0.341805460994601,-0.117805376448809,0.00650564242016343,0.0797460352922071,-0.192241011381666,-0.195453317917317,-0.0850598975067873,0.117168065825837,-0.115956458571546,-0.1744940351164
-0.265312292823306,-0.0344030219782082,-0.173097186686429,0.0844767349566741,-0.011507254621683,-0.174785923648408,-0.109938713910445,0.128857713873556,-0.0155105146105657,0.0319937385169428
0.377322855245939,-0.166405237005317,0.0671024686131435,-0.267725627511194,0.234276962552812,-0.110757532713915,-0.171342112400167,0.189891508405312,-0.0138051034576852,0.0944715678513554
0.103578151999053,0.0206360107524806,-0.219098463342611,0.146463145095008,-0.108648126267197,0.25845209458088,0.0532415089108568,-0.014552632656043,-0.233157140341614,-0.141403129159716
0.211690488935347,0.111954904089686,-0.143677011741503,-0.0603575547725072,0.170872710973859,0.00700189226026763,0.228360788342881,-0.0728213824830466,0.0372794389865072,0.323606289370853
-0.110312505927933,-0.018679727169142,0.212773156420713,-0.0797448954463824,-0.0072036710513139,0.202973635469193,0.103690158156041,-0.247067830238818,-0.0919944112154448,0.142772467893433
0.0252531691158532,0.145496397424031,-0.0847820708442252,0.117231045209417,-0.129670406335068,-0.0692017551877001,0.180883040380025,-0.0561007733562696,-0.0730484701129359,-0.258876167005705
0.137294534944693,0.194169080621931,0.172168949875957,-0.080299326506838,-0.166516239673379,0.0795333160581577,-0.131834147975401,-0.169493970969841,-0.0832824717087333,-0.210860838369978
0.0800892342243729,-0.176633826619877,0.190145815437367,0.0224707362744986,0.043058152230599,-0.0973095168932959,0.126095176657198,0.101923316734347,-0.212232281601285,-0.107759058160031
-0.00667651105219377,-0.171461161090876,-0.207946431762455,0.0984356431662382,-0.199250178409899,0.109389702584578,0.134586956538804,0.093083352502134,0.219558741570507,0.163755200926965
-0.388123838081895,-0.0940657428308822,0.137692497485736,-0.274414783627974,-0.0490443323497518,0.214376170962659,0.0608496993510007,0.112766387683271,-0.00267372446590842,0.0934396651017069
-0.104347132663327,-0.343201096927856,-0.3250822259616,0.124186094900894,0.0177444226295487,-0.000388392661285858,0.0675749605254027,0.172540776007359,0.141801391308096,-0.00774875295809269
0.101050036374276,0.319685387988384,-0.151615483419089,0.18781855252472,0.217218779857196,-0.0400991957338135,0.0141210466902971,-0.0486506962700862,0.192145639920584,0.124296337783065
-0.00466940898354819,0.309880983530326,0.078107678504978,0.00593406849698233,-0.0201592751294165,0.0291234554684607,-0.103276943798451,0.232936606375767,0.0774156111011412,0.142625483067352
-0.0551906882357079,-0.0407061052623731,-0.140166048946413,-0.288628481351719,-0.0929849553623239,0.0813320646300312,0.169851469810728,0.209406035128642,-0.093427080303865,0.00342734250059598
-0.31674682552543,0.0139108437910802,-0.124004584226096,-0.202051479741853,-0.0510684035247269,0.166590196200103,0.0260002702858733,-0.0879726284339638,0.00863278343442596,0.17469113624935
-0.323079685000439,0.145291510928061,0.135564632743073,-0.085995114120523,0.0642094274564303,-0.129109542800824,-0.0712173476781251,0.104529229588582,0.00701025947732332,-0.0143814911523689
-0.261627420470146,0.160469463683492,-0.0453519938718655,0.119534370363233,-0.0822243091760973,-0.0277690706143755,-0.0992720629794997,0.0246300817725296,-0.214783688157188,0.15645665824912
-0.396772079016639,-0.0693787611300064,0.0491169963391606,-0.0770295588087554,0.365189175408166,0.207366178274075,-0.0126165506179652,-0.0588490185486588,-0.146746091178223,-0.199449712791311
-0.00490393830885472,0.219287638696431,0.0765591990818311,0.0732270801619762,-0.0887176346943841,0.0620456243002957,-0.116428817800477,0.192458679735235,-0.0299849482528599,-0.0517982886063177
0.143862673960336,0.154258010275052,-0.118921542213833,0.157133911207807,-0.195049574058494,0.0204564194973639,0.0451401373683945,0.146680312864716,-0.164353041946252,-0.0744760468896417
0.230178154464494,-0.112240434576201,0.165088076581341,0.0461855431596238,0.166660832718197,0.214548175012267,0.0138717560475472,-0.348560006651008,0.0233164708910168,0.232777598348184
-0.18623841708414,0.164223335519882,-0.0334457909393469,0.0618802140075881,-0.0435157818446532,0.0478965346323938,-0.041329656527883,-0.112766899628465,-0.162844992729265,0.0421057135060523
-0.157052329039783,-0.0596295584248835,-0.0470047221952559,0.0630378379194428,0.11865763634785,-0.156425321606681,0.0984105321847167,-0.0779906431324635,-0.0988995046794397,0.0510625158216285
0.179272408960352,-0.221935179854373,0.234229395067685,0.0535540958496876,-0.163088198929071,0.00828028951132645,0.263185398153715,-0.0632672634759027,0.254887999226354,-0.1392296469696
-0.176158007615516,0.0771944835011346,0.21875304017668,0.175960595092499,-0.135521587382918,0.298955285810301,-0.0561721406401055,-0.106587535658339,-0.156693937568096,0.103962745658412
0.296260237641495,0.0722583631582788,-0.162664530235421,0.0191321454712109,-0.0211838655856531,-0.00836322959632269,-0.110963289206673,-0.0451176264674306,-0.0023463661017142,-0.0620956322460848
0.0442642143466231,0.186532600018567,-0.121382371832775,0.0578075902461247,0.0398709105249193,-0.00760867216911811,0.00452168712745555,0.307319345803299,0.0770089414038938,0.243640389844774
0.0610826047640972,-0.0726629731194206,-0.219526523677707,-0.0338272384910589,-0.121424658362992,0.336041781567577,0.127432189200104,0.0994981812200902,-0.229140992446119,-0.201575814830889
0.0408255369618486,0.12250068297039,-0.145123773824761,-0.0741363773666614,-0.211964015404779,0.280179701160663,-0.05526363093964,0.291826916566105,-0.180183142452608,-0.233404033417351
0.0563342396752115,-0.32560904695188,0.151866202071229,0.00591185795066623,0.202100067005787,0.041143123951583,0.0219226326061996,0.0538925699959412,-0.130175021528709,0.109391476717971
-0.17832221850515,-0.128770517620924,0.0441294875699211,0.435636234648748,0.0979424702734277,0.134608715550598,-0.0885126904426046,0.130440112841266,0.282265354129266,0.073822849780489
0.192687092170955,0.175871961929949,0.10558938712879,-0.112561197052955,0.168279457006467,-0.193315178538043,0.179959474249265,-0.00355321502562186,0.246043157509533,0.288603654537519
0.263912499256513,-0.0705988782804115,0.030208078096489,0.15623056413376,-0.118625948226052,0.195033927063124,-0.259779796377974,0.186856301648923,0.0991608262758717,-0.0655373820513475
0.152758164046205,-0.151082700417032,0.136302977781698,0.169326665011662,-0.16287459732894,-0.316125388115259,-0.0877554688289294,-0.0373752681366,-0.027893929025106,-0.0541659463620546
-0.17396136951437,-0.186128194555935,-0.123066022765201,0.0571422935917318,0.118132476846239,-0.195806123005341,0.036909347363588,0.337978237328478,0.0591296935330931,0.12423773997431
-0.132723655241876,-0.187247564249914,0.04481083988037,0.250274049103959,0.162660056818205,-0.0284749016358925,0.069668540645817,-0.207879845150502,0.0476610465255984,0.0263566392044924
-0.141320495003024,-0.0698727853074756,0.22185517839322,-0.0907868199745864,0.0325509572387183,0.185210652497677,-0.136657608959135,-0.0771658126590131,-0.0254297557314915,0.0129587600508014
-0.0645457776065536,-0.0541982359017827,0.114457048131782,-0.0157536475095584,0.0438701874514505,0.0637372100704219,0.175985187958798,-0.0499584965758769,-0.0255770806533399,0.119875205073272
0.0779941594261306,0.201301174293796,0.166771466711115,0.209466004137851,0.0776905557379056,-0.22129339665736,-0.171690402792014,-0.0216523530831395,0.293236811584733,0.151422521443481
-0.00874033951513671,0.132807445440736,-0.0318064521743471,-0.0209336228441931,-0.13566705605293,0.0114688943122926,0.0587711547817252,-0.0739786815091981,0.130804790416717,-0.144812225231341
0.0288856034173798,0.00220860348851631,-0.403661966778307,0.138361929961561,0.0220917748130509,-0.028210802214306,-0.164126997833588,-0.211030748673921,0.14401568962224,0.210891871698743
0.088507941513869,0.0116824625120872,0.302032100352581,-0.338424557844988,-0.21242793138097,-0.215235919329112,-0.0267071117041899,-0.0734780077270888,-0.0648394650718134,0.0947026633554599
0.129798985195541,-0.00464904657958419,0.207116422615877,0.0548457529981498,0.223438108833243,0.0641193557565874,0.185583656498274,-0.0522080104360806,0.321477174694371,0.199822378041816
-0.182348421628593,0.181700370707205,0.147820950933567,-0.035704815750964,0.28459557300895,-0.0718857454686728,-0.141903044986449,0.0803802873511165,-0.0504978737711707,-0.10533355972535
0.304235530491156,0.15315493621974,0.101709895829835,-0.0255214087526341,-0.11590953793726,0.135657509670468,-0.0281010119997124,-0.120494018406534,-0.245984020673383,-0.294597501864517
-0.145435908414137,0.216435482433091,0.0184303503328559,0.0468027045323669,-0.281949689682072,0.0537687162028752,-0.0762830457206656,-0.103270135849567,0.0150454268461206,-0.118447841793311
-0.296873618234976,-0.205437772845095,-0.0687125894478802,0.021822968761473,-0.0476806770802781,0.0879758532118331,0.0124481527522017,-0.296762655750794,-0.0360121220047635,0.174938146405967
0.165568697877922,0.0167024434494184,0.199050742794612,-0.145415793955966,-0.0420473984594954,-0.235915514149092,0.125332993752389,-0.303042846913648,-0.0159201678071208,-0.0293929935961213
-0.180651968088606,-0.0768913437610889,-0.0716176830868153,-0.0563739255492437,0.116737114850596,0.0771900129374837,0.326707691984181,0.0190475837587827,0.232344737857998,-0.180338463759951
0.177923065557766,-0.0752721114288161,-0.00775566522170215,-0.140645204731496,0.101280707915928,-0.0425371382058347,-0.225633128414611,0.0945994089876105,0.476694023298087,0.00789889437141278
0.193230716043116,0.13728750716795,0.116806568180983,0.162814832090757,0.211736800501897,0.00858486195422676,-0.026648676307768,-0.0840685430287354,0.158775544145994,0.207255762984881
-0.209478463817227,0.0501053532552065,-0.267872107814714,0.165633639068809,0.238744703505228,0.000575660274915363,-0.191026117467877,0.106542178913863,-0.115961771242716,0.114390819094003
-0.00181283694562576,0.13654920047664,-0.0146899744227441,0.0384196561264359,-0.0552519391318074,-0.036064394705252,0.0512059920116715,-0.0633567889667311,-0.0441555743366197,0.0932936178447903
-0.0217554022246219,0.172102572696494,-0.0289764290647635,-0.265418914740111,-0.0258643230899475,-0.0771611762127282,-0.131164064842338,-0.280582765714941,0.144068973856054,0.0601416787936203
-0.0782419436708265,-0.232025273561829,0.048722375414981,-0.141976626436236,0.0820376067744127,-0.00482110877660982,-0.105520194311045,0.166677738715581,-0.158085840410438,0.0714230840208714
0.121678660541033,-0.190936371278131,-0.117914078067896,0.00672724438593253,-0.139756225897776,0.0310620935864986,-0.117046550439996,-0.106302957480872,-0.287180977436759,0.265448038611108
-0.125309095774741,-0.0993175213142534,-0.134733112515353,-0.104645367089384,-0.0419651045455953,-0.267820196992427,0.0929447638695631,0.116076235692512,-0.134140343699167,-0.203575482935175
0.155918013780395,0.0397543532298346,-0.0142707532338015,-0.081219301056528,-0.076842097232928,-0.166307883471417,0.0607361802236461,0.121115747884631,-0.102701285299417,0.118938837760279
0.118663801533572,-0.285205132667813,-0.0467718921145901,0.0189059227492851,-0.200762834041381,-0.0102687007313556,-0.116745030600589,-0.18781131580562,-0.046386760987819,-0.169769950191709
0.0867023227032854,0.0513870950752223,-0.00833753159018719,0.188752528516906,-0.235384551224528,0.181890153068473,-0.109551224206699,0.0796621777232688,0.0212997258598027,0.275202080938674
0.0856726079129265,0.0732105244766772,-0.0787611297898917,-0.0453785283564394,-0.120134631118754,-0.109142033860798,0.0950581735655869,0.0273190133308133,-0.0598873017770312,-0.0204689321544951
-0.125515014537196,0.0767480176427977,-0.0571893507334475,-0.0435657901049425,-0.0134368975322343,-0.15486438378659,0.171092474118157,0.131869567294526,-0.00561912128869774,0.039982950688874
0.282315483808788,-0.0816991319044797,-0.0709752951959925,0.0589959200589284,0.0944919017185735,-0.0550459568525866,-0.0803124388633372,0.0365565345667064,0.0823870385291836,0.1332024653177
0.129477969459679,-0.12801306813043,0.0374241230404508,0.0194169208757168,0.144652295008711,-0.0930239830307669,0.31154638001662,0.0996264863140892,0.0462350339775262,0.0235576281629644
0.0100541781414971,-0.0655570346523444,-0.21499359288967,-0.0533942637086475,0.326650604615702,0.00976836919810846,-0.234792229282735,0.0376208250054395,0.110819979459932,0.0523241087887627
0.128922726112066,-0.432636310012534,0.0187115002169503,0.0564309087103461,-0.0992235921747656,0.0161217218471606,-0.159836645569753,-0.0411774179285832,0.0725262945017083,0.25128735028878
-0.208126860575428,-0.192421656121079,0.250064347989367,-0.279189638692759,-0.145917675419081,0.222507657028147,0.089777632833125,-0.174420717778231,0.19083771510325,-0.0978367280645602
-0.204934892688316,0.0865341713121282,-0.131397767994996,0.124242562643263,0.0658759567004786,0.110431827672803,-0.154995840097123,0.060799555416406,0.229672518616787,-0.0111293210679191
-0.191044437009759,-0.10446085353147,0.0322276487667415,-0.306052989925848,-0.00615877760384137,-0.0549394048106164,0.00388526488487106,-0.256203344126173,0.278451699954112,0.0525106620509245
0.191995546057618,-0.0899678274936523,-0.0461544609704258,0.083696175400359,-0.286806111064599,-0.0172317360668787,-0.220561243616976,-0.0196682313152707,0.0146032565648904,-0.0283652671258197
-0.24282529135848,-0.135285954837694,-0.238774546512617,-0.0409209358541645,0.00553504588476847,0.249342499560023,0.0323089636459652,-0.315598626521183,0.0501829126472203,-0.181009517627168
0.110589475082712,-0.158465328442233,0.106132754438731,-0.103839021899355,0.0567604016661834,-0.178801913344141,-0.0393069443885451,0.17588228566334,-0.0130822900703198,0.128821386287912
-0.0615840566198852,0.101343353581446,-0.231934640109634,0.09110082349754,0.310543601284016,0.167515800001313,0.103601693174851,-0.0533733124990601,0.0995414477281568,-0.0259670849996416
-0.122918423032123,0.0320835700423735,0.282675749570441,0.21627765996218,-0.0418000421836585,0.084547228746893,0.0572491178136956,0.105792038469239,-0.00318165508829157,0.0667094860176395
-0.138182617198977,0.330464251790873,-0.366681727930543,0.220448798230614,0.124841339554469,-0.0900468963025683,-0.0392117157616277,0.0148618100643842,0.00614593151267517,-0.02026289032487
0.00036003947455796,0.0200031722693435,-0.0725206682004718,0.0514106055643052,0.0609343476441325,-0.156580685958561,0.0312369809377199,0.186670842769798,-0.0264563858328035,-0.0997801495420144
-0.000747125744864169,0.0292409294360819,0.128777185619513,0.155728682882972,0.0991776969111022,0.124618129259835,0.220349731796302,0.045258021234135,-0.239608174037573,-0.0332194888137422
0.0435109016430349,0.35462921725926,-0.244151176897669,-0.0213023223687569,0.117425846845989,-0.0997196162275147,0.0542127928776249,-0.0176695705714352,0.123847668063296,-0.00218801147801588
-0.208591361581603,-0.217613836315085,0.0525600030371577,-0.0767809384779009,0.0389956738005364,0.0653168881157392,0.172727485574337,-0.158766937222661,0.0297448972910846,-0.0841754083316051
0.150824512996436,-0.0141276565335093,0.0847693477064716,-0.171737732927364,0.00700909866740982,0.115047978078845,0.253826197752302,-0.0378694726298685,0.00356084170455675,0.0277454935116389
0.0330616534394465,0.0064465000982154,-0.140448902658703,-0.0889999287286581,0.140815398711794,-0.115837330539899,-0.104287857459414,-0.0322305474405842,-0.0688997276524582,-0.225294662279701
-0.0421636163636718,0.237394143512516,-0.061023934140778,0.196782041342062,-0.115294978594924,-0.0867972730581044,0.034863101734594,-0.0364266320686817,-0.136811816490865,-0.221078846194001
-0.0198536007296575,-0.236504545273626,-0.122777398953693,-0.264191652898893,0.149460833932934,0.0387039200988854,-0.23683125663397,-0.131288572404021,-0.0148619606548499,0.0353700967826689
0.182759637079293,-0.171493220544535,0.15921909756552,0.0900309751704998,0.127689078575561,-0.015417994586165,-0.0691243630720961,0.0718819049530147,-0.0994221707639587,-0.279403126726273
0.136377298013633,0.123862657374168,-0.00239431940639943,0.120599272024836,-0.338155624441784,0.0235397107288519,-0.217503893616321,0.214195905546883,0.0756627335590382,-0.00354117698132218
-0.0386249563467179,-0.0250147844616175,0.0385036199134159,-0.0880303810540956,0.0361167310469352,0.045000754791194,0.0586715364845374,0.107754776240115,-0.106248193368194,0.0123604038283851
-0.0301513225346236,0.0386680113718217,-0.213020449498601,0.0279311272217634,-0.0553531417053516,0.197060711660279,0.0474561217355977,-0.0382036657944969,-0.0472605375038602,-0.05070985281987
-0.163160013973116,-0.0399819867525782,-0.142400249014998,-0.0902773978747814,0.149176847905064,-0.0048883122272137,0.0115031182785266,-0.0589102830276601,-0.033194926545943,0.066029331385446
-0.0309609230664045,-0.171677222005088,0.0773658715922238,-0.164320671904157,-0.206235563506145,-0.115443577574004,-0.0540942523867505,-0.195739671727947,-0.0206189877501354,0.204166540277574
-0.103614198429519,-0.0315411215676643,-0.0481731123692402,-0.40129150454467,0.1136481453357,-0.139546914746658,0.030312159871385,0.272005370973706,0.0955045426127577,-0.12310255463247
-0.0790729565031671,-0.168998332595655,-0.0245132509313301,0.177115482000225,-0.332494406923207,0.172885260456275,0.177157530632302,-0.0522177984348618,-0.181584871748879,0.118805663893312
0.0164323957484055,0.105252017728684,-0.133482149650804,0.21092366562828,-0.15276427386097,-0.0295343999920065,-0.0114164241486098,-0.375080730216331,-0.0295765460347526,0.0284313151482321
0.0620043457534684,0.205028829432702,-0.0270647016516688,-0.04027036470602,-0.00596534909902304,-0.110857498123228,-0.160300385085346,0.0501752507546403,-0.108273143202164,-0.060411686301294
-0.0871506166748027,0.0524785051418065,0.0354410696446684,0.388039772282008,0.123653689642597,0.0176947716436156,-0.153182673470898,-0.0781086096424788,0.149564389230114,-0.171675332424181
0.118814328798575,-0.0688667830955142,0.0608619858543568,0.167448460877282,0.102485629192261,-0.306523338914193,-0.086659481167761,-0.217508847723179,0.200463620546368,-0.0854746368732685
0.229530934076132,0.121355748554086,0.0496443447169295,-0.0414464157367501,-0.0763313319978857,0.169350378083098,-0.0263221321002044,0.00673285526318482,-0.0319684238208163,-0.00961927719898603
0.151308879733068,0.0969743361179695,0.198713257616737,-0.0755157955521727,-0.193249346566765,0.177803574191178,-0.136876523059723,-0.0528144040296419,0.130004510800279,0.0966954845572018
0.00616506645021376,0.291942535490279,-0.0651325293582817,0.187044671202399,-0.0680941081120727,-0.436438694597755,0.0996444585336192,0.00369201062151623,-0.307652465385431,-0.105098074786609
0.175147475047336,-0.258957067163301,-0.0914291516330661,-0.148616916975252,0.040312464754242,-0.181091997260736,-0.0349684079809865,-0.185066613409347,0.0410090114983259,0.23708746126447
0.30680885844555,-0.00603380007732572,0.0451752098437597,0.0214374628730074,0.0886182913418646,-0.0956089508251583,-0.0691530971604154,-0.123777320309753,-0.120192563832749,-0.116882894928433
0.128178413314507,0.007710362510062,-0.017163005284231,-0.0599569403599144,0.124610332850036,0.00428031585049581,0.104480839991712,0.103538875084302,0.0350904967670849,0.0915501794545965
0.0120886754435536,0.0378181545917039,0.108222616249722,0.203943069308642,-0.155068064132298,-0.0253922965185059,-0.241004721346363,-0.144527713181893,0.0669885301037556,0.240034458942966
-0.116499452905762,-0.232561109896487,0.0327385453946223,0.145716659513137,-0.150663579714008,0.11411134578671,0.126895696834091,0.137368385314854,0.00887744903959206,-0.000798904358759844
0.152364643182764,0.222680731274567,0.0378485338426878,0.119850412983752,0.0916116548516832,-0.0730834868536525,0.130859579291576,0.0307443168297383,0.0772571020193485,0.180233171993244
0.000156554234458045,0.172028296632141,0.107161344107236,-0.00807287736056055,-0.146256812789253,-0.253159570381514,0.153892179721584,0.101260775672128,-0.0888851696703413,-0.171771432894016
-0.477180379894349,0.0681139798027951,0.0445775565906587,-0.287730084791404,-0.305075839644647,0.0261142231168757,0.16886086138315,0.219914487171746,-0.00234490677133962,-0.00682993527186611
-0.213279029693951,-0.0416973695010915,-0.156796846971512,-0.212888003847254,0.00977514715064612,-0.303781823609512,0.0676203201587738,0.294023636160026,0.149255520063295,-0.00793786321800868
-0.0640472659501768,-0.155567041144879,0.224983264781738,-0.0482659384494317,0.233712727911473,-0.0471210156191848,-0.192023480079101,-0.123340142367177,0.272691671942496,-0.33308736879157
0.23232197739069,0.268918724424477,-0.118318124462527,0.0542070968253979,0.31052538562429,-0.092219223470586,-0.0631267915359418,0.0455430118576801,-0.22843684467591,0.0691731792471632
0.0262539790750712,0.00333043395646507,0.092883805938687,-0.104725363957951,0.176434914095225,-0.0600777260428024,-0.241938303784989,-0.296865252589476,-0.430951226307863,-0.050928894285321
0.218545189661676,-0.064693793822305,0.249280613885953,-0.0779415015260123,-0.0606863985617496,0.124980218761948,0.0099955421606902,-0.0681927637104737,-0.202638619307861,-0.0483582838038651
0.0890838240158781,-0.173448996358738,-0.141261976942172,-0.177364155174727,-0.123363164786892,-0.216986501623045,0.188592868633905,-0.00839805668851684,-0.223060018018932,-0.316978566052204
-0.0895917381153012,0.149729091390978,0.131893110308208,-0.262420489441649,-0.140312501940443,0.105426036615949,-0.0706477655963095,0.0974470430529823,0.154772257251198,-0.032956319940292
0.0567927760814733,-0.139458850769385,-0.154673037602234,0.273967514720242,-0.253325126460931,-0.101106246435374,0.010739913433531,0.198852652571887,0.225570394091023,0.0982403710968268
-0.096213831018576,0.223640967384597,-0.189713550438741,-0.112222238771052,-0.150950198555602,0.0228569734249126,-0.0204464793929555,-0.0818659796685963,0.179172855569062,-0.115183393503719
0.107185075706351,-0.268348709281804,0.150647034869822,-0.403375209255707,-0.262934378204371,-0.160539745899097,-0.128948155676636,0.0365486169245666,0.0102095901175034,-0.0836484335225879
0.161252117709775,-0.0245897705523802,-0.125076158961013,0.00538399403828488,0.109056148428234,0.0922405746746828,-0.0636605887208331,0.0397589226823382,0.212216744013464,0.0640907538278472
-0.492786953906039,0.0607930721912294,0.013292305618832,0.0304225620832219,-0.0519918805539512,-0.0815287900476876,0.21660065309096,0.175444707473729,-0.159429780024858,-0.0604919862840978
0.106738970480566,0.17942278143957,0.0592249753848266,0.101705900295781,0.0242073270112175,-0.296745447031973,-0.0583820402947871,-0.047474190007721,-0.0660655157846596,-0.0255321877664808
0.204357075995924,0.27882402332984,-0.232911147791086,0.32731670623913,0.167270613630256,0.0210187147668444,-0.022883721619435,-0.139082780629075,-0.0952425216181161,-0.217657655400738
-0.0242008073554858,0.0407514211719716,-0.10068005639896,-0.190475874944266,-0.000784623614841928,0.154741180791911,0.201720260021417,-0.124814793188067,0.0641821838019161,-0.242277611155049
-0.075877717109002,0.0897802870237719,-0.0747242237919683,0.0715285307625692,-0.235513912099891,0.0835882633570752,0.105259220762936,0.295926886349557,-0.413362444165934,-0.0139283878873647
-0.379411772499638,0.236443142653853,-0.00612191587793669,-0.427216404060861,-0.0648157141155311,0.0423415402663614,0.0806186083903325,0.00336293697594414,0.334672036689205,0.0654880703698485
0.245379776065829,-0.185783579290011,0.209311342777031,0.257249577817844,-0.152548496125423,0.126415886032486,-0.100541634087008,-0.279252986254234,0.409246969116445,0.0228871483918092
-0.457992453611656,0.0870970007088745,0.138350525288069,0.0657879420772031,0.0255984224302558,0.195685324082939,0.209995578321244,-0.219708598384266,0.0807656296834302,-0.0805641916940383
0.122798804656715,0.0445069402734284,0.0710074225572428,0.00999212599470291,0.0211555799983845,0.101547960794763,0.279052370062191,-0.233744307474086,-0.0508438312658424,0.17689206101972
0.17205397602692,-0.000602116688852416,0.0432507000988227,-0.167010415864537,-0.180996524806836,0.260996612355641,-0.0113993190691815,0.0723860815691866,-0.303727783135865,0.0133850839699802
-0.313484924128195,0.0702177834144274,0.102780393716365,-0.187959913467558,-0.38049925655379,-0.230351061461401,0.00618251040942456,-0.0445336128234691,0.016663543298527,0.252413145965095
0.0106734991812378,-0.0396222344411131,-0.0989415218842101,0.200534036936917,-0.0372549192216193,-0.0133116566806762,-0.157579833755748,-0.0855854970509372,-0.184106715012148,0.290264615772499
-0.143918290053318,0.209954685291634,-0.0251777886972518,0.00835010422528821,0.354435955099169,0.0391780681355765,0.00205554209589007,0.0651332989483794,0.114602738350144,0.104347448940098
-0.105477212583091,-0.0862739145884319,-0.19231047290412,0.0307198517058886,-0.0233850189084547,-0.144669356418469,-0.181042312723332,-0.241044609379509,0.244938964330385,0.159085484858263
0.128538380325633,0.112019739280537,0.0405941423458874,0.0745731261451395,0.0111000753004843,-0.0570512558897632,-0.013448113688741,-0.0864986828323782,0.341358484972443,0.0523619864177256
0.0848453983536096,-0.155343124473551,-0.27670414402054,0.0287281179583588,0.243740857132934,0.109906825811172,0.170426035807835,0.182264353700307,0.170662367123784,0.131662266163425
0.200598324151261,0.176291509505398,0.263146647921934,0.067278259959221,0.059703605148223,-0.0577114069984784,0.0965154628219475,0.17799237199699,-0.213477837170291,-0.13567697096673
-0.100891300161323,0.264791127863449,-0.087268828069205,-0.160533604078886,-0.159851681068291,0.123763289493652,0.0821878926283132,0.240682294229763,0.0794215644046707,-0.088767168203904
-0.00258717808706839,0.00237956288932046,0.0539365847976498,-0.21013393387023,0.19333399884537,0.148878293988599,0.149186558899532,-0.0235952709957626,-0.311953272311982,-0.0500664194008434
0.0750708021168379,0.380663780673593,0.0146466600356695,0.0824379348314667,-0.104061723598907,0.087362343414916,-0.010603052653398,0.0622394722141776,0.19058711364429,0.0146276073573965
0.254028001417576,0.172000081006723,0.0394996217214153,0.0651890657063799,0.241251022646157,-0.270269202749614,-0.0310151740080868,-0.196435416972448,0.300031512375725,0.0123983535013678
-0.210159072389281,0.0552633608198021,-0.238398728451141,-0.00913768958171926,0.110348365128782,-0.149367319268544,-0.152500540936306,-0.0148392643658682,-0.153767692780241,-0.126338409878775
-0.00948796237355645,-0.146062463501955,-0.261127795619958,0.164269524696294,0.233443252098198,0.21171696697935,-0.0641321331508228,-0.113185412693922,0.177714773106069,0.0609419331811053
-0.166897713038425,-0.0502193442975592,-0.135097813596686,0.0696920054656459,0.0803321454230116,0.0784473873153835,0.0307605126961665,0.0990011370519738,-0.0579464799524379,-0.105090502616079
0.419079874972371,-0.155956919555328,-0.111253511524867,-0.166645896584566,0.211481651717474,-0.105194268688623,0.129046665498646,-0.0803781680139178,-0.0390733052101044,0.214660105083974
0.0465392255908889,0.230042296519382,0.214759640281983,-0.285332703825056,-0.106471848410583,-0.0989456204457835,-0.0547959419979968,-0.125510989853094,-0.248370652138441,-0.0981954095464442
-0.14915659965578,-0.320973486894766,-0.0288177335014603,0.0493106342774377,-0.0163329925731449,0.231834885474594,0.0455812009806447,-0.157561922238708,-0.135991814893878,-0.0355827006899021
-0.0227146603200063,-0.244358235320399,-0.164566946589495,-0.138947270368937,-0.0565299437843499,-0.0100197431647318,0.279319747333685,0.11448992230924,0.0732064564746154,-0.23221539309089
0.0508380022774518,0.0532236627558011,-0.152755764230531,-0.0629036696096293,0.000309452916773867,0.149035382460076,-0.126107454043525,-0.21411936557267,0.0671814605087618,-0.120495057890491
0.159194726414985,0.193490492931127,0.205148694620565,-0.0587506026781256,0.045860727917456,0.191224925270468,0.0772591820416169,-0.11918627927133,-0.0292498138797749,0.0196745408199814
0.0713125454803874,-0.210633825873914,-0.176996782917742,0.0012766900738331,0.237732732821196,0.0474244867340881,-0.0287618992693029,0.199354000829423,0.0167343550401448,0.0892749707306841
-0.183584313372366,0.212011708164784,0.00274831819656713,0.0676543048005482,-0.196887556079777,-0.0472878838923892,0.130142057780415,0.12990115579719,0.257100255754421,-0.0596876952565942
0.158934927136354,0.102497081196124,0.0126623569083163,-0.0175985731368835,-0.166922777948258,0.124522651803396,0.190352678532974,-0.0726406549332542,0.193025490731725,-0.04542922755925
-0.119692660666355,0.152250005495653,-0.122303245391572,0.102923096684021,-0.162895407307549,0.0353291972887945,-0.0559195100319364,0.13407523020216,-0.0271492465127042,0.257665898851713
-0.0824987799406264,0.125671737927169,0.0944040251265311,0.014405199580944,0.0657708057253492,0.37417674325716,0.231400148983864,-0.0204684597407519,0.101238412350517,0.329922500788594
0.066933393468433,0.11326352559789,0.00936872887224842,0.161190343260127,0.0490240188500344,0.0197796325923281,0.23093762904147,0.00912252416340351,-0.167672657122448,0.0874003105023784
-0.0208240142009734,-0.228402816102526,0.0409476038739646,-0.037280919306676,0.0488282631707293,-0.122690880238261,0.0398870444725681,-0.0933171241475253,0.233434526365258,-0.283175683869979
-0.0243236076713544,-0.00203637777281578,-0.170018950853793,-0.0197490541320829,0.0423962925028417,0.167978000804054,-0.150252396892591,-0.00735023749555742,-0.209791482331764,-0.181465121098676
-0.113983262457613,-0.00159654285041611,0.181878323016346,-0.109115628544659,-0.0777018874721104,-0.102060377497486,-0.0628234203550598,-0.112663565625436,-0.0154181174325773,0.0175790797305492
0.147144092874975,-0.123911564139295,-0.00996863187096748,-0.0599608790292768,0.0464264488004524,0.216970043734113,0.244822484423938,0.298109457020911,-0.061030119388809,0.125953390498398
0.0127490616605705,-0.0191264383028985,-0.0894308514458959,0.0327860496798329,0.148462973731076,0.145923073728541,0.0290758110620893,0.0292150800975661,0.175532841614815,-0.188338655286046
0.206095599187944,-0.0365874337030149,0.161819636553692,-0.0256775312759567,0.0648482017359966,0.152393381580307,-0.199250623880889,-0.213077262222431,0.10191690492672,0.115688611271105
-0.0436329995274613,0.0164388999403984,-0.14119729999129,-0.402691413439269,0.130213945052279,-0.178830945484958,-0.0814274754362264,0.20499607874816,-0.0801766510974999,-0.076010012392559
-0.10042743252794,0.0200819940894046,0.00324288257646349,-0.0413316432276205,-0.160246458862451,-0.133954148779892,-0.186712232785967,-0.181648886391223,-0.0994204468228941,-0.235664313295177
-0.0723994400070353,-0.252133774918024,0.11946102474508,0.267057583065902,-0.15155269588372,-0.112676733759978,-0.193242138727276,-0.103958928011176,-0.217431743004085,-0.135821411828415
-0.0057297228330791,0.0985308551937769,0.00230537270925756,-0.0643148037424607,0.232499927836256,-0.245176759739888,-0.0944538864145944,0.152987076806009,0.0225658157628861,-0.194473475352174
-0.113656140172684,0.126372068177914,0.0236814615044092,0.241571955599555,-0.27357873024828,0.0656937957080926,-0.337572060590694,0.147774601981941,0.310959162411995,0.0598379173573273
-0.123175015676599,0.205034411288845,0.0416137611786843,0.111155448179198,0.117289365387729,-0.101153816962883,-0.0307419015712867,0.0829993255526204,0.01017251224845,0.132736948678232
-0.0913315711460026,0.0645290970690218,0.0937092407788465,0.151084769457201,0.122779415223803,-0.0190761591534447,-0.0663148304561405,0.147772133076731,-0.105360799746507,-0.117341465572064
0.168769065703744,-0.0887745813509399,-0.227211164162016,0.177322279661835,-0.197877850805541,0.103391877353473,0.16090462215929,0.207310204123639,-0.0362112538340987,-0.0673992640026515
-0.131103037567023,-0.165346950961732,-0.060455837119819,-0.0375225212109527,-0.0663142755030071,0.115119022274734,-0.0362457887535138,-0.0180996286058454,-0.143818876662528,-0.0790976127587516
-0.00906324615531913,-0.181450197948127,0.218368915828109,-0.23254938665337,0.00509861075893709,-0.0742279279340575,-0.029971545976865,0.139628379249856,0.015264680956849,-0.186695479153235
0.19485961746697,-0.0339301729103912,0.0435570230427008,-0.144108207960567,-0.119382686425133,0.016933794506258,0.14524363102084,0.142151255681986,-0.368272035370781,-0.0432165284182802
0.000783715248998741,0.223373396233034,0.164152768993696,-0.128662512226393,-0.0562053739720716,0.0517478294964725,0.163506606319901,0.0967650633321548,0.0900804434196681,0.102120044535708
0.205706440056952,0.091819973484533,-0.0130223473103177,0.0173615405695571,-0.168041061350076,-0.0561080769440594,-0.0860244541584178,0.215901949575648,0.156731021918093,-0.243846627379613
0.09760559329896,-0.253166553951569,0.165090783966531,-0.0898273391381791,-0.0891162649087658,0.137170995450652,-0.10799609002824,-0.348053815457486,0.0876733263626172,-0.09773916499728
-0.0611869284910694,-0.185406344801225,-0.111495118690724,0.0439783990083841,0.0548766184166771,-0.0650967710152563,-0.162652781568082,0.113565461132269,0.227309627870963,-0.33575588201037
0.0606167738540989,0.0313414728952291,-0.148642583810943,0.111422923096591,-0.14440775113518,0.253082432079684,0.168027577856435,0.146176414144063,0.0198167193992701,-0.236202548602514
0.135120160280306,-0.183953858235366,-0.066297877938128,-0.00801078999579299,0.197321359339437,0.0332028415300571,-0.0281929483174675,0.223226558299575,-0.167099835281054,0.209153693352026
-0.189675262537468,-0.112650714960952,-0.00141848785458105,-0.0268006626796565,0.192688373359052,0.098346135990257,0.159935207385197,0.0726597646229846,0.117732487359987,0.149543693833377
-0.0201739712303135,-0.0314232861601123,-0.307403950087576,0.0309333863998278,-0.00169699308348963,-0.24088414570246,-0.0278349860244994,0.0210060689673407,0.115176903955559,0.0594836935213947
0.159499752593861,0.0101989519141642,-0.0503779782902321,-0.244573537355434,-0.248706629314361,0.0422813959988657,-0.167618353571935,0.144148889594465,0.0242526783868708,-0.289232303405889
0.039009893564891,-0.0920753484196667,-0.411898006940441,0.235859085160319,-0.165383701154073,-0.234536588031073,0.271323528102556,-0.0261889476168909,-0.131393548604249,0.212732351739187
0.326825991407175,-0.0090326982381738,-0.000834862380590434,0.0844120611480866,-0.133677979587457,0.00366202691840944,0.0405395209883128,0.0394688485504644,-0.079236960840582,0.250449609080183
-0.163922480575164,0.0497722695906766,-0.0497904593803012,-0.131552776299917,0.246411294742425,-0.209469305225843,-0.0228276509330871,0.0609149839915652,0.0695941915207628,0.0508207263546353
0.0782358708132906,-0.21197278630125,0.215749217654328,0.109560110130265,-0.000917952430284602,-0.172544407997979,0.0326615385143372,0.105829529864703,-0.184017282991852,-0.15418114418013
-0.0597874320777834,-0.0398984712223001,-0.0199870540374975,-0.291360103852477,-0.148798379358727,0.0674958246371273,-0.187018175945383,-0.262824629585962,0.130441040348284,0.232058009186443
0.107908496096635,0.0474819964591327,-0.233155205410273,-0.0966594749728401,-0.108516175374754,-0.124221861663002,-0.308261615980866,0.251895171956594,0.11843085505865,0.0913404116989543
0.0439658463786925,-0.386348144553275,0.058243331119154,-0.089677211815165,-0.177896004272192,-0.169413845378918,0.246726031445315,0.039406947115511,-0.110650462832163,-0.213555581830709
0.0414418401763156,-0.0995247683406156,0.0936771953671316,-0.0383422665538806,-0.163643761988309,0.20717615668233,0.0391724700187814,-0.0696285510604623,0.0129245512542253,-0.134566820626867
0.00568367975103048,0.0208986198278664,-0.0141479382470931,0.186304157515235,0.0386842456204164,0.298069070446792,-0.0751760027720041,0.0971170325553872,-0.025285797066109,0.113365980654526
0.242753021173684,0.0370458200213763,0.265424716962207,-0.187128304088855,-0.137847924519595,-0.0134663159105328,0.0935213859921535,-0.00811753830293814,0.0808108874048852,0.0884485269595671
0.0172344189642892,0.214205981026642,-0.319235696324941,0.135797856808388,0.107501324553004,-0.180498434232702,0.0922669072847915,-0.0370938646869376,0.026575872684114,-0.0723781025979321
-0.121278258053613,0.0673222001778887,-0.0566395531646864,-0.0229200953543281,-0.170203785582311,0.174137308759384,-0.0839579479297238,-0.0107854880818948,0.087543901296929,-0.171368450678007
0.0753122721698803,0.129378827910236,0.0151378449956706,0.15937501799297,-0.116244107075051,0.0815342501770504,0.0230221574582433,0.021374317070164,-0.225681565608586,0.0569974471147028
-0.114006205722258,-0.110626389078133,0.0858680218426287,-0.00288532623266684,0.0326898369288404,0.000318641770718631,0.134045826389426,-0.0057552560570352,-0.0836594521909382,0.064187544522794
-0.0919883810570914,-0.0108250579319229,-0.149471088350532,0.393432732909713,-0.293278950378502,0.108732531805365,-0.0179729906847504,0.085184739500846,-0.0173137446258804,0.189568974464586
-0.0687779272745481,-0.205012785746415,0.239533872796635,-0.113192438088835,0.0284765701715214,-0.0397142100962262,0.244972274624888,0.124581134359446,-0.198154982978988,-0.0510300780217266
0.0505468251316968,-0.0687467196105149,-0.320670368846829,0.0393987620347653,0.222446430319098,0.271484183414481,-0.0720400028228888,0.0155780342082754,-0.164883016267199,0.117135049595904
-0.101060980639282,-0.126919378446332,-0.11711201432031,0.235373106157532,-0.0046938260476989,-0.381018967896783,0.115423220920653,0.109547458037132,-0.0657398701029642,-0.000521758683504175
0.0613735129568461,-0.201185198583958,-0.176412406138877,-0.162974312041712,0.124206239664391,0.171093889916599,-0.105956910137535,0.261768502183875,0.0759653962334837,0.0929442640967722
-0.242587756748699,0.0458815559806298,-0.0639912143257847,0.33052019724329,-0.307817894416637,0.0326471954080291,-0.0597266309380314,0.110219146319762,0.147059593621815,0.180802774588274
0.0919179232378922,0.316314341028518,-0.112771050606522,0.094676721514635,-0.25349183957146,-0.106415032105908,-0.059762698717438,-0.230728502901694,0.0496476433748786,-0.206559531084618
-0.224011510718286,-0.0162896090051944,0.080099182347667,0.0228360927021875,0.112521926400259,-0.151206304068045,-0.0879474123227414,-0.253634889943926,-0.201449828078908,-0.257944372627464
-0.13324848047526,0.0935975814824631,-0.199815544955264,0.0895162125927657,-0.0295407794245696,0.209203804443469,-0.189971642772463,0.235071324567086,-0.0440969155550737,0.208160794042766
0.0695878415034192,0.203588254712266,-0.15698950134093,0.00841834148449584,0.000606439839244488,-0.0808377664349456,0.226611897340859,-0.192773017603363,-0.105906918630049,-0.0695725183918352
-0.0668319977808678,-0.0667611664557311,-0.0873801306880635,0.0938517407822312,-0.0934092022937318,0.0700946287539743,0.22427435873133,-0.00204739554946344,0.187460589809363,-0.0708804339630145
0.180020905737792,-0.0768718171676025,-0.144162866414921,-0.0327873082403032,-0.0673094602082807,0.0390509970952988,-0.135368637378689,0.283976627961351,0.109316998757724,0.0188961553770266
0.110450320771675,-0.00802444066059229,0.152328324754059,-0.0762162046343476,0.113108894474117,0.0149332526652568,-0.0848824692699939,0.215991934874935,-0.0358254305333498,0.215542846568558
-0.186527725233915,-0.0649203026302331,-0.192694398116445,-0.131969041203122,-0.35386536374681,0.034453406534015,-0.107921337611946,0.0472739266147608,-0.112454155297726,-0.102318047475622
0.176654001344831,0.0452836605221692,-0.0998661346153457,-0.179587713382797,-0.119489957782049,0.0913532729457726,-0.00587587315347663,-0.142004788340203,-0.0919516939399412,-0.10147448862799
-0.329059380691027,0.118628292098584,-0.0533466978143984,-0.0895306519947494,-0.281147444962292,0.293236198776815,0.0234061920659932,-0.0219190750798262,-0.0156465710945268,0.246292409605651
-0.00371846151326984,0.336239891745249,0.100921241176766,0.0495821116800474,-0.0538943887480686,-0.140792470110772,-0.049289464219149,-0.108488048933682,-0.00449875856277689,-0.0957656675129562
0.125837623097857,0.214244262973817,-0.00669842287890823,0.144435653591617,0.101193283001311,0.163645647784468,0.132875403109522,0.0467612706090268,0.366608208813524,0.0446287557769704
-0.331701117629733,0.0749776801697967,-0.113736522144961,0.0952662922792843,0.0990972186390192,-0.0193252712817356,0.00393102010632328,0.238958664415194,0.141392888112352,0.184359482793417
-0.0820778111144298,0.271975850434515,0.0779074555181734,-0.125755747467168,-0.0013702535678588,-0.0356745209919751,0.0169970306418483,-0.139118656524212,-0.167440933432033,-0.00878864892580648
-0.11449314461916,-0.131408250150561,-0.0841449279675287,-0.182123510970993,-0.104165430062481,-0.0299837051818663,0.00106179914214337,-0.0433123652947702,-0.0835838626103443,0.357727275906559
0.218622955718275,-0.0859670729865075,0.0790084705186558,-0.273151607990242,0.00239683618671929,-0.287280200605808,0.0490495064142558,0.159785000844951,-0.0815036763992836,-0.0594496323100942
-0.284816952819825,0.2391054251196,0.0465510522315825,-0.0405584398521196,-0.207011624211776,-0.0433255213304913,-0.131543532846624,-0.184377097235285,0.0603057688747728,-0.106688296232866
-0.207950800181503,-0.0800840116784947,-0.0783573419122667,-0.143174148745397,0.09135889297551,0.141888290752144,0.147601212020742,-0.0687600530184644,0.0174478554352423,-0.217906869645342
0.217168894064653,0.0682355694525,0.0252892293467553,-0.312199230484669,-0.153873552833463,-0.118706485591743,-0.205165436041235,0.00847927006525028,0.179226573859108,0.0686118174228221
-0.101530586107659,-0.018915661608628,0.00167708149026274,0.131583511498224,-0.0105972750021348,-0.122367831115544,0.294334352070784,0.0085482052593375,-0.0288488970324643,0.0196834516488517
0.13922848684496,-0.123651087315957,0.193095620149161,-0.0127679978925185,-0.0478452987017052,-0.0626679908808427,0.0663321147933591,0.0209038569981387,0.0107691749932386,-0.23452501512815
-0.103541231512682,0.29927153424115,0.101555328086861,-0.166558794768874,-0.0699406830790031,-0.184577101884912,-0.112640681080419,-0.089426235806697,-0.00592737243181993,-0.00816321579128886
-0.0867680514350635,0.081764095102016,-0.235659169270656,-0.102129539535314,-0.0874066040505139,0.136913331120228,-0.104662007242224,0.00468188983743292,0.119194201651666,-0.188896661595214
0.406578806260933,0.293052751056911,0.111035665247643,0.101100740110778,-0.0209317674460037,-0.0428470760542546,-0.0751438712800495,0.11235151813998,0.186295687654101,-0.0418729269319489
-0.0243396736910975,0.0489783840826487,-0.110948865302918,0.0277619125797701,0.0955598046028694,0.206036407154166,-0.201408965554095,-0.262632221184078,-0.0225065155790266,0.184765713844363
-0.0427793033601624,0.0157193737789913,-0.193688716006351,0.0859519530512525,-0.0900703265933753,0.347437496151473,-0.144873277479612,0.0198483942363749,-0.203216068892511,0.109698792669596
0.0706597386328322,-0.15048028517153,-0.177877690737565,-0.00480462315571827,-0.107037667446537,-0.0559396430046425,0.0491089935266386,-0.132306587708303,0.178824445188551,-0.243557962268468
0.0170204378196571,-0.0424161628687455,0.029272407184228,0.146840455955091,-0.0337054296710117,0.0853291769174381,0.00592767317720797,-0.00172355230543644,-0.382050903413989,0.0511744383205723
0.206412818689425,-0.242289493262332,-0.0752946682824293,0.0895496646509733,0.275051435257865,-0.0322591995782439,0.161444253154572,0.218486987535327,-0.14340371889329,0.163293882577541
0.055565978854556,-0.303022170687225,0.250632970769852,0.154394477149585,-0.206065015623843,-0.0623094379189256,0.146368696093037,0.0345002689581805,-0.227404703364184,-0.092479543549525
-0.00026883062503742,0.0496336152532082,-0.163263354096412,0.230568684257833,-0.0695397253620732,0.124190269549987,-0.290839509683301,-0.0231646492694634,-0.131317257812167,-0.0315060578692148
0.0811882486920825,-0.0973889036655113,-0.0977028750901766,0.291755539818364,0.237356288898017,-0.0297986593081107,0.166431770208724,0.265674458525372,0.0292023388264925,0.0468883265331154
-0.284254637111147,-0.282404661827188,-0.017533323222265,-0.209196466181544,-0.053462258383609,0.0663865642460379,-0.0288979514894066,0.216990221614022,0.00972497012469953,-0.121662046062462
-0.022688661568038,-0.0791474465908113,-0.0226278303551404,-0.0473123255822142,-0.189455733743882,0.109487133187682,-0.161753247881018,-0.0454557069388189,0.128263932141278,0.051195665327225
-0.0261551068876693,-0.216220811211992,0.00599834593189312,-0.28168982615321,-0.0476326330250603,-0.0133163993874951,-0.0145185002413546,0.227085742446821,-0.0678719005249735,0.202769025066603
-0.20129652495166,0.166138861911339,0.0695998035247997,-0.160379651554983,-0.0526067075016725,-0.103738490044807,0.0405449854091886,-0.156774497872208,0.0119688853804376,-0.210492257894341
-0.0681649033887065,-0.0336240358902732,0.00482543030348352,-0.185729132853054,-0.255778772268631,0.189606095408732,0.0889616125477669,-0.0537135631432154,-0.15443418885828,0.131308299353092
0.0116119374881051,-0.079052372054072,0.0693784664052935,0.0346172058606392,-0.431162532353566,0.133682502806872,0.0834583804370714,0.156525675398482,0.143072693220309,0.0731390742299666
-0.235691961199416,-0.279599200508636,0.0967342488317962,-0.0280648770225629,0.224245381220444,0.363113247393844,-0.126314731186975,-0.134809597241684,0.328089969933893,0.289968549432562
-0.0195637790102233,0.161033777627149,0.0603164299437665,0.12643745981314,0.104935528684387,0.159171681289005,0.00338000261122506,-0.0330251674951272,-0.0996915053068446,0.228944098645276
-0.0869017370280718,-0.0491009784930067,0.0626068535897718,0.0573475231423659,0.0990602544913008,0.139888862079375,-0.0677145513322932,0.0581285758012868,0.0628931835394976,0.0196150162193243
0.00272367374013723,0.0962521183535296,-0.0312067851950391,0.0399294166780308,0.0689200291632639,-0.379913174072914,0.0464780055382413,0.0888234030232176,0.132319725607496,-0.266495718183617
0.0301242345801598,0.21358889866151,0.0971275508299862,0.0723043114991176,-0.00772079994812813,-0.157687228835704,-0.21617615291778,0.0747110557647222,-0.078563954777398,0.18997326270541
0.0152450925232882,0.0491515438876705,0.282696494621074,0.00915711667717447,0.257917952081255,-0.318467422538145,-0.0968651460846643,-0.299858114562051,-0.0257351115023772,0.070281832465526
0.156860018357749,0.21136441266087,-0.0744034780904345,-0.130909148571859,-0.0642484246152507,0.0783597909931533,0.0599257620870355,-0.032840173045502,0.155278200645818,0.1527598589759
-0.00915790400850722,0.197305139484755,-0.0239779019978515,0.204577818658649,0.0312041120294897,-0.0331001070407449,0.112264389251676,-0.102927419365742,-0.109838347366272,-0.0747364649395921
0.087268416504298,-0.0915891967045338,0.261709550367655,0.0389215194122761,0.0107312814303008,-0.0213835904884392,-0.0676164097898929,-0.108905602165652,-0.140074049562789,-0.0964014520023625
0.243384454880797,0.208800548134325,-0.0209474109749443,-0.027312404066261,-0.0392659773840336,-0.17538677161593,0.301952669924207,-0.0823338371477486,0.122843177628521,0.0615946517334204
0.0393503269465317,-0.0961101736821475,-0.167074762314798,-0.374353620358869,0.187461742875657,0.0924605131745589,-0.0881333868039257,-0.101123930596964,0.16035498025782,0.303339493577352
-0.138164135794496,0.168312945162934,-0.231080787379422,-0.19052896193235,-0.0522281882529785,-0.070616214786664,-0.00126374677774457,0.0396568603642566,0.0794436092091412,-0.19624170323615
0.101998155859133,0.145927598681392,-0.123507297919477,-0.150959655999342,0.08966344300627,0.240605992886157,-0.0352239271318775,0.0203467016808073,0.140096441400908,0.0510876260521902
0.095787972439601,0.0027287106881671,-0.289765419774186,-0.104112745888841,-0.00157069097507609,-0.384499293996848,0.164484826431533,0.00462552761087017,0.176906038831637,0.033338085884036
-0.127917833030641,-0.226852164716619,-0.107219515636859,-0.122376125270326,-0.0987763859270967,-0.107700770832536,-0.00374456978786073,0.148053655994949,-0.130979485936454,0.0480015089655715
0.0892973916127601,-0.0597799179479414,-0.231164256337746,0.121910937480841,0.0872406477793373,0.328188308636754,0.0394239566366694,-0.391602171684921,0.0108238339795802,0.0936759434045125
-0.048320175557755,-0.0522138112384632,-0.0383428231529142,-0.0720776729534582,-0.104492198335167,0.106864304211633,0.10034085549131,-0.225297312506041,-0.0299604656157465,0.279751393873404
0.0480103680751155,0.19871997188797,0.248006566305585,-0.0279540266109983,-0.0303128994943367,-0.0862355624944721,-0.287126398865975,0.103162197793685,-0.0268245058293889,0.0850532875427674
0.182144403734316,-0.05710090242122,0.0287521371751702,0.0777861547208654,-0.0408652091346074,0.27243336184476,0.00742211190603649,0.182822945820651,0.255513204890052,-0.0305235385817747
0.310330976655222,-0.111060973610558,-0.0957948905745578,0.0996832330031466,-0.00242297642484215,0.115652271621626,0.17988878859211,0.109930032041468,-0.146797479676099,0.0122437556300249
0.287606350429553,0.00840809233440649,-0.0518051799840614,-0.252099990508859,0.0377405820446634,-0.155030941129651,0.243444676952013,-0.0659266053410094,-0.202598079294687,-0.237022386339885
0.214021495438358,-0.103307304274794,0.101114024938388,-0.0770494178713954,0.164498507261624,0.344232647362385,0.181346237590114,0.261228296007373,0.0701380062725996,-0.238611683324583
-0.379599429473333,0.00460073536747917,0.0207080609841083,0.139830906735263,0.142948742680794,0.227938512242127,-0.102798058505266,0.350842949841776,0.180920137208101,-0.0377021784245289
-0.13721176777299,-0.232535167564908,-0.149534373112115,0.139812940192533,-0.231409705303451,-0.20312662640337,0.274473986838715,0.037385625827021,-0.0274252421488272,-0.0905159516884864
-0.0487700534908092,-0.085475035712677,0.0553342599798567,0.142812785615916,0.0980918683891344,-0.183742035346507,-0.250583125476027,-0.0202272230944383,0.149558247262973,0.192113262305578
0.0112785558830081,-0.00376172186119877,-0.0444703333395463,0.262864722446984,-0.0895570273510152,-0.0699453337901458,0.0524911860727616,0.120069085302071,0.253998206749195,0.0139712173538179
0.0790896056948764,-0.0606799329323404,0.0540996953443776,0.00716838874854683,0.0406927799950784,0.0214902706974204,-0.0636116072827706,-0.216889308250596,0.138142711380345,-0.0349790804741394
0.116196988076723,0.0983057210935502,0.144211346720714,-0.0767354032284577,0.0177426872360301,0.278240341353956,-0.00865499096958703,-0.00301840845006769,-0.0094667856269152,0.0747480604419327
0.0738083915082156,-0.0076881059163834,-0.218817517765265,-0.0549668218345449,0.143743094437879,-0.211744081130278,-0.137735524412153,0.211296760298717,0.150468807601418,0.114444195917415
0.179336683262784,0.0748226684930922,-0.261299934835844,0.00105093206790912,0.244176668247807,0.0700711797072022,0.144740001827574,0.289273379730371,-0.0627966250889909,0.175052464769539
0.0430234762623567,-0.182913225889736,0.0307459645938363,0.0275269017999559,0.217691052522727,-0.118263190257342,0.00489028533257474,0.327817937211517,-0.193705297720561,-0.212868033323769
-0.118707684508778,-0.148118349381535,-0.098547621404635,-0.302319738065954,-0.154510034744386,0.20991407404781,0.0664729166016195,0.228157458740094,-0.1311803453991,0.166047478566534
0.0350294748601784,0.0976877222695546,0.129945764685115,0.0693439557926236,0.381603116293837,0.0675203464217104,-0.352781588783548,0.221151167232616,-0.0637375163743092,0.176431202538198
0.0389700897200101,0.132205220870998,0.0955423910007585,0.0458217802133796,0.0928773908084856,-0.0908654856172736,0.101847249790952,-0.0192555149809566,0.0793120053354077,0.124326836600891
0.123236674671998,-0.0316203228975088,0.0914594432908423,0.118359693109513,-0.214186103954458,-0.114166826429117,0.00527876686942281,0.417471534492243,-0.00609138129350664,0.107039418981876
0.0691905179053049,-0.0722466102579741,-0.162218696410879,-0.0147683020015514,0.200592412288461,-0.123740448235818,-0.077046181183451,0.043184997913579,-0.000857401842483263,0.326536024670346
-0.171868381899876,0.186967644750708,0.0558914178383646,0.0380661635256038,0.00345841593504085,0.484947597371047,-0.0976123135531959,0.247725662277134,0.00553178200283272,0.19087873434963
0.312504659414888,-0.0981827979751459,-0.0185769352596028,-0.223189840168553,-0.0687112609562859,-0.00876689915375999,0.133543831811088,0.29120617083142,-0.19869805291673,0.226628740804669
-0.196472150029422,-0.368267507254512,0.31246764137401,0.0404571193529533,-0.0760251367208675,0.147572075731335,0.0308696749626048,0.0167971970763053,0.0475259839316597,0.0183014720936581
-0.0515124516498909,0.133735302901766,-0.131249649297518,-0.245911969991144,-0.052890968572743,0.0150336562756244,-0.324765097982748,0.0111605101430451,-0.0805931463759061,0.112329762658824
-0.181787656685676,-0.143732000973724,0.187074927895011,0.171284757608524,-0.104400658073178,-0.101822943225125,0.12926164797358,0.157462406841444,0.184530525655741,-0.193269497334114
-0.154248561694006,-0.128892137279998,0.0387403810239444,0.0413060262054449,0.0921511075757568,-0.231987767582018,-0.00587506915359456,-0.204586504415775,0.176965538590926,-0.0153996944980955
-0.363080781555076,0.111868456073751,-0.167757770186268,0.223714202523772,0.0178039367490932,-0.0405489995054841,0.0061923469805541,-0.0156071175687939,0.140454065784863,0.173264364453022
0.168742240514476,-0.0194152925183105,0.132368516091783,-0.0249143319685531,-0.0304713182611859,-0.13741996233008,0.0997448472743589,0.0587101241487689,-0.0905138800866063,0.0379487749405887
-0.117219204983094,-0.125760927846963,-0.140638056802128,0.149193126417967,0.0975178897727047,-0.00778322177396391,-0.148322028591192,-0.00773948278734119,-0.167638204083081,-0.189726493521579
0.0198692580546961,-0.190508131441896,-0.199114743333559,0.176605309175889,0.304751870940089,-0.0330431915787174,0.0127725093026979,0.0620488306209584,0.0226744331261568,-0.234776883877223
0.0646670918985622,-0.0364440346463168,0.176765057064879,-0.314583120574958,0.0277263401798255,-0.0347821270366587,-0.276317224111506,-0.0497162390457486,-0.0391885702554483,0.232455826090361
-0.221647137801918,0.227486582509844,-0.212391943532229,-0.340566487818326,0.0209093323779623,-0.00434692811609973,0.0249824052600832,-0.181903764745575,-0.164237228267168,0.0942452168914323
-0.057947429531599,0.281880004060003,0.08448421755665,0.244474607007392,-0.0896128453131486,-0.133594023951604,0.0316034037622209,0.179489588262649,0.230711894541203,-0.17686808965463
-0.108577154837963,-0.00773183771168407,-0.0383891045802325,-0.14217271666549,0.244140493252641,-0.0187645506717509,0.0358417978239679,0.207620743597795,-0.229118118844053,-0.0419724579244506
0.0615007290657825,0.0695891850067384,-0.0153823528052131,-0.0289892129327324,0.000889778187164802,0.0737275268238921,-0.0323771045051093,-0.141344899723816,-0.0211529763235415,0.000596741801963396
0.0239653833330272,-0.109335744635604,0.242103709499056,0.000846144639331781,-0.0157336526692482,-0.00572938729519413,0.0296526659822137,0.255096823777963,-0.110346987080714,-0.0515909431303963
0.0845295857274812,0.0652107737250855,-0.373001427136762,-0.138641056163956,0.101547457866206,0.106734388147113,0.0215927180148249,0.11364368304781,0.11693576843612,-0.110960748703123
0.156391950781056,-0.156272444756287,0.0658716794149413,-0.0708419906934932,-0.19294273909526,0.0405977551463994,0.127818548914021,-0.269000522635712,-0.106200536393786,-0.0998188088902809
-0.0497635038808213,-0.0174106783135986,-0.0461552600637531,0.035434620507493,0.195091539824195,0.220601138143053,-0.120335477156043,-0.12957261219813,-0.00262165637629748,0.325112430179974
0.0152551540972796,0.0308639274336358,-0.400698918267339,-0.0984102954466302,0.00979750288783572,0.0145836040723386,0.122260260971887,0.0263324600172389,-0.280882779612021,0.0419475457424182
-0.195837484081594,-0.144618934230237,0.059103521916281,-0.200912031970332,0.00690970768379524,-0.0241080504572013,0.0633817824462777,-0.299776497486582,0.0145915556355012,-0.0341392643897993
-0.0842949903915616,-0.108164196741011,0.172524901851697,-0.00400145778376565,-0.219054827963848,-0.129989979653186,-0.123201722527729,-0.14962315296346,0.0440834484611349,0.0879537813247333
0.161118547302631,0.270953480632974,-0.109968157607184,-0.0441864933833112,0.159075410061161,-0.173170731273816,-0.104386670254916,0.237807593295039,0.0660371155962751,-0.0556018969078811
-0.0276457523358518,-0.0431193377073919,-0.238845954157993,-0.178568334276205,-0.0329587994848465,0.0918837346305022,0.123418612339535,0.0331754708807434,-0.0192091321743389,-0.229116270099082
0.0126040125098522,-0.192358158846228,0.201470654059286,-0.227305005348922,0.0513918909086311,0.140580535812504,-0.0547871366006493,0.225898185957628,0.175926978800849,-0.22892903045583
0.0792139817762256,0.0500248042910728,-0.0664267174621167,0.081218188905614,0.0363921525758481,0.13654021086328,0.0777935964904244,-0.299202310063403,0.259701319564318,-0.0469487434216507
-0.133844339104167,0.0730538050732751,0.0997293263772477,-0.00247037673410317,-0.285163921721767,-0.133037452235037,-0.0801539324347782,-0.0487852720866248,-0.239434185970191,-0.261939766730245
-0.044075573961577,-0.136795832887502,0.104275738535785,-0.130283412074838,-0.103143859979051,0.146694764199563,0.109066125896198,-0.145090967990732,0.120662170519865,0.0470352928320471
0.255787061892915,-0.127161337166286,-0.047426885906865,-0.0518584264208129,-0.0454663030943362,-0.130791501050541,-0.140944930963114,0.122468795876681,0.281916566668624,0.0271672841182864
-0.0876542000675959,-0.071348108907224,0.0158031515299751,-0.118440124683198,0.0976343484982501,0.105027219460996,0.0786857415229478,-0.0741503843493008,0.0136210067340733,0.0797720449505337
-0.262414773799306,0.00893735527026135,0.191021644715638,0.0786140284163265,-0.0881558408158831,-0.157143122494421,0.257639441604929,-0.0598284091865429,-0.0728656893684697,0.0652037637053316
0.100478519773087,-0.066962921104083,-0.0819827677584442,-0.0893528729002691,0.0299612380517681,-0.167581831076911,0.0946254499400647,0.0331781958063291,-0.0265883731627991,0.253394509461328
-0.212749152245488,-0.0116801121689951,-0.139902666019476,0.17275172211375,-0.152782903094812,-0.13145130619532,0.0661663231111664,-0.0179616091865222,-0.0994022659093882,0.0289058092789457
-0.0934698816104367,0.231333804825666,-0.202291024210868,0.0526353245848228,0.137737486078893,0.0257868730651183,-0.264615522003522,-0.099145620361354,-0.0426970172818739,0.047006486687659
0.0202625595593724,0.0559322355316327,-0.152793042692402,0.205644471916416,-0.0390155387539175,0.0972390639727338,0.264281547687248,-0.0720298745854457,-0.159995490077621,-0.0854989330378127
-0.134387343066125,-0.0641011073799495,0.132936137797287,0.259350639479703,0.00222119050482961,0.0323299369098819,0.0662463888623048,0.0649292451968544,-0.0873273847614805,0.138900954715704
-0.0731465782341154,-0.147589200565394,-0.194201578009155,0.166019669092409,-0.299019242994105,0.117627940422475,-0.223039889754987,0.081580794134828,0.0259077362414153,-0.0179569835778686
0.0898856114665485,-0.320347762099358,-0.096697975415868,0.0514629876902892,-0.283250875680311,-0.304166468401558,-0.0213218862353134,-0.170642850461451,-0.205102997400011,0.176334422781878
-0.123766106186538,0.154471928402395,-0.0787647308027577,0.0491376881809021,-0.273045830815662,-0.142647072739884,-0.0820097730582111,0.15713138877855,0.173778855373758,-0.273026089035043
0.031850195204433,-0.11778604305979,0.0543273408795907,0.364975036998489,0.0460295160006717,0.0402046502545067,-0.202525403349678,-0.0653578291336717,0.0673458648078445,-0.319867746427086
-0.14049399963748,0.0962992672401691,-0.0913312607488565,-0.086800897319504,0.249322242062131,0.0189551388860075,-0.148900992185823,-0.0123436690477261,0.162112895895728,-0.0194650076923035
0.0139959523796883,-0.359645295015826,-0.123383029046553,-0.0389266128282129,-0.0379140145178098,-0.0710914927321143,-0.00545089289626866,0.0864648096362069,0.164855514888312,0.181191188495502
0.0959784594538357,-0.0154392702848362,0.22201915676424,-0.0525689380189146,0.159432677033621,-0.0931341373831685,-0.0320486826692701,-0.102349894359264,0.27317920649813,-0.0331821897676214
0.0596065185933736,0.0490465353836961,-0.103961094845598,0.0382620330106291,0.258970889631838,-0.0900516894489913,-0.177578661917206,0.0702226307179259,0.0599070893471289,0.016037191993448
0.3050807423202,0.0296075585366312,0.00148282739271121,0.150822659959691,0.0899845758287936,-0.133146210598071,0.206696865720185,0.0383965236775754,-0.285396730766828,0.117591618452136
-0.166227874241021,-0.12442609069977,0.04437128395584,-0.115659638742389,0.0968368171660956,-0.0158449337070025,0.147429844765612,-0.186295233708161,-0.031900563945935,0.0514865662822292
-0.135989031355108,-0.118036250966211,0.151623943880922,-0.207296913045189,0.111426488274515,-0.01948411615529,0.250173014343469,-0.120778475556687,0.291937774474774,0.169134129835618
-0.0629095687746226,0.0301744032582437,-0.0516214830999015,0.0740613229426706,-0.103616549426664,-0.004802188908171,0.0203153767338319,-0.0966066641041389,-0.129080879868158,0.0336529816452525
0.00945659211713228,0.0253486812516133,-0.140233425945232,0.053940950024955,-0.263515094915362,-0.0449234919035057,-0.117052163237095,-0.15106934163234,-0.0488235431994059,0.174510756037805
-0.0382951722328299,0.0505075034397793,-0.187620471991937,0.280477369391167,-0.165862458715285,0.274742226183528,-0.167465806018116,0.127320623801642,-0.262516415020385,0.192847160341653
-0.08646156444877,-0.0326278413218188,-0.169375057065495,-0.00639376113069648,-0.405498984610359,-0.0331394461480732,-0.153434148507725,0.015673925180694,-0.0529823102230333,0.308538412183272
0.167789252721416,-0.0707376281622406,0.178395560184706,0.195970031138616,0.159534929654869,-0.114033933953283,-0.16107763382664,0.274361093836883,-0.0853370801402951,-0.036231049494081
0.0100171687077854,0.0847641974365261,-0.0932404733247565,-0.156261931814321,-0.110565983917206,0.132201714227387,-0.0604843990044284,0.290668954651179,-0.0536559602372946,-0.00499257581504739
-0.232769287859821,0.111784821261997,0.185012276029298,0.138265307254909,0.00499911902563052,0.250372574429339,-0.285319535103617,0.239251459425184,0.266642178669416,0.0466386051615713
-0.0808899417458341,-0.256230370587305,0.0655850417787354,0.256732965269231,-0.0355219058442996,-0.250016923244092,-0.0541205389260216,-0.13130252628681,0.19928827373142,-0.0261810039380873
0.163371958090918,0.229596651383384,-0.0829167992856311,0.143315078382252,0.0108074487222157,0.170395541678585,0.029997924485248,-0.15091306369144,0.0693488949011156,0.0546254683848332
0.152939789284929,-0.234352854810238,-0.0286522704217169,0.0329007293278299,-0.171007745464269,-0.189671987913763,-0.0310222018916792,0.0104828241175819,0.0595085334346733,0.0942785129607296
-0.0731677046063977,0.332628210809002,0.0196626431546543,-0.0807178126904328,0.0224335744797466,-0.132774083059579,-0.153938285218151,-0.211441873833493,-0.0489531805371536,0.122072882828684
-0.0797256713938751,-0.0148209207915946,-0.197183590477536,0.246198452326225,-0.0889246849161087,-0.0846306889999243,-0.0115049241453882,-0.246956966064168,0.107163745801265,0.0111430720254395
-0.171191362427612,0.138060998782337,-0.336596171528446,0.0830502237314764,-0.135741933233282,0.230063356516195,0.120526521622113,-0.288644058181057,0.349657708671655,0.0520194791630789
0.347629684437581,-0.0541528720034513,0.238201168072917,0.0455712143165663,-0.02105644431823,-0.0408069955933615,0.0110795513256073,-0.0626323344356356,0.0371278026120219,-0.075472696276415
-0.10235466918768,-0.183464616116319,0.137892108809171,-0.0632462439314557,-0.0561145877286304,-0.075658182192541,-0.0972903809347331,0.202089264151956,-0.180064772821311,0.139001560645115
-0.160675248202101,0.00942102738201079,-0.181269986816193,-0.0583764503256925,-0.276073805072447,0.148379209821437,0.1149148647784,0.0529832046885044,0.0815705321346912,-0.105997138180548
0.207452012124392,-0.00940355721149764,-0.0870675060129761,0.186415202267932,0.0827375253440591,0.27004725140329,0.105712752355757,-0.280463935582618,0.258290099039499,-0.250070204764055
-0.275272722028084,0.204126840638216,0.0242281166894782,-0.0431363073508361,-0.225222855225742,0.0383423260560969,-0.0498336667837655,-0.0788966176352481,-0.152822879496892,0.201139042628215
0.0532031797070593,0.052928976147597,-0.135598576206489,-0.0734631729591923,0.13295414772457,0.0146833084609915,0.176135347440145,0.0306264784033365,-0.112234368833689,0.0487036649707032
-0.295272879291958,0.0858245768937523,0.0482419584994895,0.0370474820227458,0.125381116073137,-0.21652322541074,-0.207450185219204,-0.0637445754355593,-0.0350577952248459,-0.0788638875253807
-0.23510631669422,-0.0731624704487442,-0.057894931518863,-0.268895580585821,-0.00662771615458183,0.006690520158804,-0.140397049121299,0.101490737255413,-0.0063059018748813,-0.204014928592702
0.153924420737137,0.0524063657688555,0.157326016418385,0.0156835206534922,0.219058560696411,-0.144984540910955,0.301018261107177,0.00401249599722595,-0.197073429132681,0.0210481858450995
-0.0577048626226509,-0.00948359548165621,0.080085891299982,-0.0147313774757591,0.0239378974744141,-0.0464480547317801,0.299207081088834,-0.220007230802865,0.247488916412003,0.204539881825419
-0.0555123246206442,-0.214842121508269,-0.094437964517628,-0.171298171828861,-0.219614977411931,0.0728866384982045,-0.237706960269819,-0.100261653936667,0.0235988556032388,-0.126031641246205
-0.0972389290549535,0.294642984137095,0.0759668075700184,-0.0507449493899249,-0.139154930725173,-0.190922137251341,0.113058983411444,0.073301433860159,-0.0489542328847409,-0.153133233935075
0.05743540190666,-0.0906870984945072,-0.173829096650235,0.0154908629102134,0.150169255483342,0.0387319580634132,0.0411187878981043,0.143850510655656,-0.0302843129920327,-0.21777494180819
0.311764335774815,0.0331592873628477,0.219648340749604,-0.219585876613148,-0.130775844809381,-0.0742640829892868,-0.0223285167821882,-0.0157043489154895,-0.0778266236687889,0.0245880388911941
-0.169991763474301,0.144050177555231,-0.119085809189287,-0.181748902656916,0.344457053421844,0.0341956789882116,-0.251392911140116,0.228914137205915,0.0260146703104468,0.260539141828951
-0.0858278160260833,0.0041064279072808,0.0898580234919023,-0.0892529642618739,0.254738428087168,0.0252840735962326,0.0190279689305829,0.0676544200296227,-0.145664069213636,0.0127639792476919
-0.158233918845944,-0.0921545785400376,-0.0511262003542886,0.294533260008813,0.0439098728470228,-0.157886911916049,-0.114125694360452,0.136837154459559,0.332641871981733,0.0258579950467837
-0.0441382323242369,-0.123286652995277,-0.0618938562068229,0.0531498544962628,0.273926058793788,0.0724965005026825,-0.104251776283517,-0.0158891865518513,0.0233958032451225,0.0676035823500755
0.0497938493845405,0.0782010910440865,0.0784658053271259,0.310684151441507,0.227821120761188,0.00031078448982042,-0.299416212145536,-0.109073353505578,0.252545015269861,0.0190559146429491
-0.00277409510846923,0.436188271470777,0.199611910634395,0.0224234365124365,-0.0318938004394888,-0.120287754514222,-0.0148349768396061,-0.237001753627957,0.0441287573545215,0.163832110159266
-0.13892698140014,-0.358931566847704,0.128404441163289,0.17503195653851,0.0687049863711587,-0.0882808126274967,0.101913264280767,0.0628923770499882,-0.0179865110893748,0.0294036936413272
0.0268566594342009,-0.162357787773991,0.178491314058653,0.163421755343936,-0.0196179406918516,0.201474724790849,-0.0846503591381319,0.0269941945772436,0.0725138274193781,0.0283682159631748
-0.146450212240782,0.185175068799992,-0.0424483180601624,-0.0242703101598912,-0.153399649812042,-0.154666184330236,0.0225019419659305,0.139711004911418,0.117558612002501,0.0134914425335378
0.000753375937121747,-0.271978555129815,0.324815722151414,0.111716654716226,-0.0983975007289374,-0.17412417704322,0.0292240440671681,0.0752166685345949,0.0333123124295647,0.059611159028499
-0.210764419170345,0.02203117022872,-0.110192839901177,0.0121991339995273,0.0862782156628936,0.0146255296709629,0.0776230333433206,-0.0528424781109117,-0.06220462876464,0.162878456174844
0.0203530573690357,0.0429285781193312,-0.149524434641391,0.0973706121852645,-0.259255689564033,-0.0626219683317003,-0.0239594780581076,0.111393534965074,-0.0964803811666356,-0.171683863165643
0.169543801642056,-0.220244201446577,-0.242677278483173,0.228796742831773,0.0925432597108234,-0.0705644125534752,0.217728482814874,0.00425687666319378,0.0628789870600871,0.0194103199650318
-0.0405362670425379,0.129034330936515,-0.0396491872779946,-0.00446259206511929,0.152324725594632,-0.0560049769304897,-0.204124205016312,0.0173781942300668,-0.129906085482472,-0.316231381666043
0.270020378853219,-0.0552841634008114,-0.0785365815535012,-0.0295768034078841,0.0258782331627689,-0.103418504459741,0.199701270874263,-0.223463336475168,0.246485161066435,0.165434594549213
-0.347897944235542,-0.11031460238218,-0.134652131710894,0.0449729828971051,0.15864247595598,-0.197845903306172,0.0943723664088575,0.0540190840907654,0.1159970831298,-0.046870026823533
0.0630100524414626,-0.0357616755863244,-0.0429910640261665,-0.0849723347858047,-0.0741366202725153,-0.0659372637603731,-0.0630538000905734,-0.252392079171617,-0.0594230485794704,-0.101913122034692
0.156315861695179,-0.118589227894114,-0.156998788113926,-0.137194147171951,-0.0948209067077127,-0.0105434738790359,-0.307812469069766,0.0049635647253174,-0.112146409433087,-0.00213431061623415
0.287649079793817,-0.134347326310433,-0.125799014649289,-0.273414401115829,0.254703418252431,0.0623504307394386,0.0989319074544697,-0.10098249343833,-0.263980891276298,0.037236472456923
0.0198415010017315,-0.185456297017451,-0.00838043604471093,0.253132817643396,-0.0389949335732292,0.136510705900048,0.0909950361840861,-0.0975133251512648,0.141929558463196,0.0590860860852754
-0.045177174745407,0.13798469092628,0.216137264703028,0.215048987054247,0.174695812200422,0.159112513857033,0.0369142360027299,0.0625548365937791,0.216824491541443,0.0612470123300863
-0.211357651256493,0.163634981883076,0.0178436603454623,-0.0480477017647938,0.0698776014288773,-0.135414852518481,-0.0886771601666975,0.119104208203041,-0.173239696742466,-0.000873403809262507
0.0752320568929683,-0.0285945868165516,0.132708878391841,-0.0100575324839139,0.0290034716663829,0.0996702011096211,0.101005014720774,-0.0178689765922321,-0.216243315399597,-0.151766425855858
0.323901319465466,0.072860574718404,-0.0442242920628044,0.13638279285008,0.0517391626805355,0.243633527920639,0.0598719966845529,0.330077159238728,-0.197106295218844,0.330779386409436
-0.162369978820979,0.124800856440383,-0.0622237198462687,0.0356905881069123,-0.15820861857524,-0.266364148005638,-0.139579659104346,-0.0318379324239583,0.00564210569119737,0.039057901024527
-0.0287926292082732,0.069492458032284,-0.0842469340587375,0.283960478234053,-0.183470777134527,0.360722741937933,0.0578521996874303,-0.0373832450667908,0.109308305334064,-0.127198778431941
-0.261633262272038,-0.154763988604076,-0.00886838104204032,0.0777105570833987,-0.105220065223113,-0.0811314063878951,-0.176516743572575,0.21420629830335,0.297547822271228,-0.145613512188474
0.310938881708664,-0.0100925529405061,-0.11078591391913,0.121175222471328,0.00699051273584669,0.361171504842861,-0.0837486262189888,-0.12663160217193,-0.148901179955739,-0.0216469414177339
0.202121488586305,0.155398996708989,-0.183011716260586,0.340262475979271,-0.0248305071290696,0.101678423469045,0.20021508140798,-0.25573717211379,0.255396260702553,0.175673222546078
-0.0964973534810499,-0.18002575092343,0.0388957552151952,-0.122916875716309,-0.13448910513827,0.091460681216775,-0.0670271376470731,0.0745762067857995,0.0368602863818162,-0.00413677651585952
-0.189459309950308,-0.218196863288674,-0.0264600780046401,-0.204063330073387,0.0667983299857539,0.331489395978891,0.231505190173383,-0.17583475420475,-0.132837948744151,-0.111478181342071
-0.197446367505265,-0.0137470129129749,0.0888840831612618,0.134789238017474,0.22404508842404,-0.168295065007532,-0.0667774179483922,-0.0144725156768031,0.096312149792748,0.194619378055033
-0.282288847363851,0.056989264239765,-0.0501103241251919,0.192252940146791,-0.00943844241492625,-0.199243005350039,0.0814993975447683,-0.0990344684890505,-0.0502083837788736,0.0341508164827838
0.147166787030209,-0.0457905528278137,0.129039503377383,-0.108548126385401,-0.0245569946821229,-0.146971842285256,-0.233317685455608,-0.0191298616104663,-0.0377085205841849,0.0994092420123122
0.0645937300810656,0.0696499292967934,-0.0856071371446162,0.17047381628172,0.132993126031395,-0.224611434104953,0.142170639229799,0.0240207268142589,-0.0333793177530206,0.097090540531695
-0.0404418147189867,-0.269550078555817,-0.120867598674779,0.321287244316431,-0.219485798170851,0.0395846229177731,-0.225542910285525,-0.156467475294751,0.0171304108475573,-0.141481533556213
-0.0028473042941833,0.108881036659992,-0.134670098691949,0.3116237598679,-0.00727704572482116,0.0151912906851424,-0.0778955102790874,0.0796730124812613,-0.00555772995701529,0.0129546769195838
-0.184605451217561,-0.0924893689628662,0.19971707781948,0.242592457908186,-0.375505584952386,-0.0104845351565247,-0.248874830760169,-0.000893752620696531,0.123231883526105,0.0517727477829021
-0.094042602126325,-0.133323433147542,0.177998631166209,-0.335989679557016,0.0535402190768268,-0.163171346839567,-0.0428434875315026,0.00201175750821809,-0.0292185203802516,-0.00625672884076469
0.0188502272210398,-0.359389960616414,0.0135051770322277,0.0527966051563859,-0.273574093853132,-0.00841393053398229,0.0952493277464714,-0.109453192922734,-0.191245583749686,-0.0692393192216364
-0.0416778234072981,-0.0456362347136871,-0.0384497720940844,0.0654044290653474,0.000346853525897511,0.00701778760961831,0.0156703251451934,0.254388446853891,0.0587340911107403,0.14047411834902
-0.0729540411851122,0.1048936941904,-0.0591502881363601,0.297196730297496,-0.0140802020258992,0.127217162049368,-0.11846392758229,-0.193973308761412,0.0605942193253337,0.35221562151088
-0.104718364546829,0.160856568000768,-0.00822585742294872,-0.103325162869341,-0.0828135298412035,-0.245997229110383,0.0373450802791532,-0.130968994927359,0.294722204828274,-0.0355290499317889
-0.0785306868727513,0.0320098365874771,-0.216022717618719,0.109577672803925,-0.0725836918770811,-0.310282449841492,0.0370430633217704,-0.0668940274540324,-0.0822304730866691,0.0620704166571284
0.0422658423042617,-0.116577228852882,0.0167637523827458,-0.0973721588412257,-0.284675762388259,0.0107920972121658,0.294067946065382,-0.0642271645202725,-0.285772894966977,-0.289005711042118
0.0404606218191306,0.181375129534085,-0.202425698063616,-0.0417222338472207,-0.178539466094183,-0.013533585032296,0.108466198006438,0.178541161497159,0.0743407424092617,0.104677811232141
-0.351138171536436,-0.247751300901424,0.00873480864323244,-0.324111300815434,-0.127119451533041,0.122162622460115,0.223287375100059,-0.184054034206072,-0.00537625939579972,0.0818486283275492
0.0792024515444522,-0.224858726440574,-0.0463546907672364,0.0762945318903387,-0.00406942958734577,-0.0311150170889122,-0.14903787409541,0.18589825126256,-0.137891184036188,-0.103311029406977
0.152011110128326,-0.107895793537991,0.187436041310302,-0.315589507365685,0.108840427884709,0.334480451724689,0.0137915332438819,0.0746676585955864,-0.0984989835112098,0.0801967663621407
0.199035805175419,-0.0693551047592415,-0.205923764270453,0.0792716118753541,-0.0995665735578107,0.172016134752494,0.106659662763467,-0.10150688500335,0.103010328798641,-0.140251956792035
-0.0478604876427423,0.167558613137184,-0.203565313825778,-0.0240244384885771,-0.0625010263645249,-0.301270141540707,-0.110702057432944,-0.111987999866293,0.354403116889276,-0.250003526206999
0.13990030896563,0.163796374320798,-0.0347601141820613,0.0425833479692099,0.225758060639911,0.167554157642346,0.264123900181594,0.0475294366591311,-0.251328746655949,0.122964541869121
-0.240093564914682,-0.124483148715142,0.0829244849235345,-0.0870005302277161,-0.0916292752605891,-0.0207455504231516,0.188045263853544,0.114011925118455,0.20301415024904,0.167839836341162
-0.124009937971438,-0.210660155132198,-0.0626544222311124,-0.341342296830167,0.00741149877812703,0.140406976710643,0.208006789519913,0.0879410382771235,-0.331694305323586,0.141511295986973
0.17866103545489,-0.0168001511759168,0.0819983827361796,0.0738540359907069,-0.0273196149272665,0.384398550625682,-0.165746476046303,-0.277321688242095,0.0500165547850538,-0.0336142550208481
0.0568196267756459,0.103302353546096,-0.350020310356072,0.239064548765545,-0.0694286271886886,0.110840069199069,-0.0472521846837093,-0.056167886221903,-0.0860071857752166,-0.136974613617953
-0.0197794618353535,0.256172770629631,-0.0902547077087352,0.027934623651553,0.0149051047615064,-0.25741960910035,-0.215066504601874,-0.168877501617903,-0.125189295036236,-0.00253878271632666
0.151394409688568,0.0828691106558293,0.063149477632423,0.200800704315916,-0.167343814155653,0.0671833091204748,0.199224346246184,-0.199724810843289,-0.0164686761283518,-0.112685631602898
0.0575137085545533,0.212350138857787,0.0486030123966104,0.327795023173898,-0.0832828136097199,0.243646337772597,0.094325771841604,0.100221003179655,0.11734918132639,0.236463606229467
-0.0550408855161341,0.110070404156685,-0.108668109830176,0.027601099802044,-0.0304493675050291,-0.106950124947725,-0.180691595884876,-0.0704437803111087,0.0847681889826595,0.0587947332299636
0.142309609814872,-0.131723924888906,-0.0789560053831367,0.0659146460022772,-0.0903503020478677,-0.212912833417847,0.227063491112001,0.222219068511085,-0.261613810196829,0.230382146776579
0.115017988969125,0.142043894653966,0.034127680500472,-0.0832481944512503,-0.147779898344345,-0.233905972482944,0.13779438517249,-0.27831682540797,-0.113616388722935,0.194099325311562
-0.178556933666816,-0.18628254700159,0.012876373955781,0.068609345184508,0.0850970487154697,0.118722387835061,-0.0343214088673653,0.120243844161734,-0.152172722329135,0.227979650516003
0.0493407680244709,0.0512518198013326,0.16544646145071,-0.0386987905027167,-0.135208951416022,-0.158772954672087,-0.203519268046624,0.231343498327176,-0.162822331914013,0.273083554309526
-0.118753168542503,-0.0809961457935607,0.0579993414880023,0.174966224506522,0.100554243544823,0.266716520610585,-0.0733347261797586,0.0435304319399406,0.0297335865554676,-0.00234886251356751
0.256523597229696,-0.167409687787289,0.0260053499640164,-0.268762931676132,-0.163257364681532,0.0602894101195895,-0.287886547432252,0.0914240118856517,0.123510365891903,0.0573243545829126
0.20540838550254,-0.276511453202826,-0.168197166615577,0.0377423671102787,0.0107459439101348,-0.330836009069511,-0.213311251518755,0.295456879397361,0.0653132285056772,0.0745297508030563
-0.166466886410225,-0.0435584560574653,-0.0447774787600562,-0.0575291730793469,-0.0618766703089489,-0.386439187618854,-0.0807451122352282,-0.0981994510783544,-0.0376822240595337,-0.268469530409079
0.0873961434719781,0.0253555090724046,-0.128743339123174,-0.029990220249999,0.120107843238945,-0.263615575230306,0.0957146427040633,0.0969309275776728,0.14341053659662,-0.0857438865790378
-0.112833559798269,0.0330851627991604,0.0164790275849524,0.14960582766554,0.104781226715304,0.00427532265871868,0.126428304359891,0.138430452664879,-0.377899201839241,0.256557742919382
-0.134657506591178,-0.0248971093910359,-0.128219469576898,-0.141516892250589,0.00985976332813089,-0.281510663215046,-0.153783440512868,0.214534431375263,-0.26058868899608,-0.0708291574713907
0.0745059476015514,0.305249278150613,-0.286497603022712,0.0909552480062607,-0.100799270032681,-0.185874928847544,0.122114573059543,0.124421436294312,-0.363883174443518,0.163997627278922
-0.255764018937415,0.0594659243620121,-0.129209793356652,-0.181823918644533,0.0146934727600207,-0.273431891236011,0.272086059552298,0.0629307368112423,0.0944730964844113,0.046328545578501
0.0361876215788958,-0.269166979567616,-0.0203934772367897,0.123513426629189,0.125054553756576,-0.237336347282276,0.245552535997603,0.319970568978236,-0.0190152952456721,0.16903473916304
-0.0399716212718799,-0.164185653208971,0.137986382606087,0.0504436694790954,0.082146582988121,-0.0417500012230137,0.151967496448721,-0.163034015218685,-0.129083487011029,0.0532676064255279
-0.0128163627295702,0.0928435041736152,-0.0796924030703545,0.119669164128991,0.179790063823144,0.124307123867018,0.0590409006700042,-0.00761231589885882,-0.270078633799101,0.221185134106673
-0.277090081670944,0.112922393007956,-0.33507935425006,-0.106564321238559,-0.122629573493906,-0.220518962046047,-0.317330048963422,-0.0191320104748399,-0.0356895923594963,-0.135092594649749
0.0954603029437611,-0.0922507941421547,-0.016879328636263,-0.17268709234877,-0.137864605213486,-0.223129867913751,0.18573694474686,0.0718095075171936,0.185626528976994,0.243673588402015
0.069784479606613,-0.409573920579309,-0.114343245805477,0.0193590017407999,0.0130492191923061,-0.245890413529372,-0.0875898012632246,0.010236957965007,0.0976315275005761,-0.0269282698103496
0.0334760632273312,0.0991995640322344,0.0515274770298456,0.115108961755183,-0.0837634331360558,0.0577612925527098,-0.120703596767992,-0.170659673050499,0.146281699346101,0.00538521842849916
-0.0264375684896747,0.0375534006182567,-0.103215289801836,-0.327866926676092,-0.194590030565863,-0.0942510136264036,-0.268625000546885,-0.0844959474403022,-0.125602439244034,-0.0841056449600532
-0.00122189760210786,0.107918644126851,-0.268956873159375,0.237253905776218,-0.196438313993829,-0.0913327014002762,0.424322288276944,0.0431298255160276,-0.339944856740642,0.185601634292565
0.0762809907546248,-0.326663560037916,-0.0957977226810582,0.0679318687873086,0.137777431403707,-0.0585317836423615,0.115924986311301,-0.22829191346348,0.170971093118768,-0.104750647189004
0.173784576397411,-0.0909796603944572,-0.0357170462980338,0.340768621374504,-0.226046043999393,0.0930668213576378,-0.234096194194966,-0.14198969283631,0.0381981899502313,0.144220547953733
-0.00663698001276404,0.294633971903491,-0.12832580667571,-0.0892676514453358,-0.0732418242990252,-0.0413242177120797,-0.0907018129235069,0.16060915086912,0.0716709676830763,0.0876523628841549
-0.132009505663182,-0.0071030438133934,-0.1411722893571,-0.148505081812239,-0.273137150281476,-0.0978696013274311,0.139723531725896,0.0976443281077225,-0.19569252216377,-0.00761800835086884
-0.27138633803334,-0.275983248109639,0.0929367299196318,0.258877440548723,-0.171865946676424,-0.0558316533969631,0.175771950482796,0.169028228389876,-0.110312720266447,0.0798286193482766
-0.275842392122197,-0.0790438740468663,0.174922695064582,-0.215176947387279,0.237162517111906,0.1163906731848,0.168101277799486,-0.157899338066755,0.215104257568952,0.164918438644372
0.0973809030088508,0.0337237378272889,0.197328778353441,-0.0529543145780779,-0.175761786912388,-0.0717187261122547,-0.0483182052279441,0.270325295613424,0.191408068304363,0.0363946861137921
0.29737517359587,0.0186080695226234,-0.0801939410464624,-0.114734599204013,-0.149963877241647,0.153072384802871,0.0571178910884235,0.215895806470268,-0.233450969454784,0.341764517624568
-0.0313908888343975,0.151088983875732,0.0843627533867574,-0.061453739413767,-0.272774165208936,0.130236290891803,-0.0691141786314332,-0.0654802320152249,0.0164967148927293,0.0664616108427011
0.0331268401010209,-0.230479502174472,-0.297459218414408,0.122413570364284,-0.0299903845335679,0.121987642062693,-0.166313051524454,0.0285171845997074,0.158360071729376,0.147863052868112
-0.0732714766918234,-0.0497813500226689,-0.120698318729853,-0.0229581193272213,0.256775916633033,-0.313111759952374,-0.119844061320025,-0.120180350183452,-0.144041519217985,-0.103060781800139
0.0832695567288092,-0.0133477744151977,0.257078904467329,0.203999071699525,-0.0078731431147702,0.124545071006001,0.148679282718147,0.0837635994280766,0.324628393238772,-0.0587891073448024
0.303733510229926,0.18259537400107,-0.123987654455406,-0.0141308058057032,0.0361010633638909,0.0268450185334696,0.139590662252365,-0.0705665224888588,-0.158742565479105,-0.0687922082175647
-0.00910994003716294,0.357892346335968,0.089048771711436,-0.0144504058648888,0.0102244380960563,-0.240434945795663,-0.0120261064554215,0.27749798496305,0.0505795178563652,-0.231427741086481
0.202190527544897,0.210695114491037,-0.311381210562382,-0.105204546944437,0.155663138761276,-0.0275080641396208,0.206810916257999,0.0776569148101723,-0.0664211614595599,0.157509009613626
-0.26680276413988,0.29789038255213,0.00846060309798121,0.0563087836799335,-0.066216215657412,0.0337106351109638,-0.2020958566051,-0.108773027612985,0.236362828155493,-0.00295013077813912
0.0363370413480612,-0.124530124562591,0.211258476364958,0.137999033212166,-0.000628651611386777,0.0510954473565734,-0.032065071221737,0.0699995132767574,0.0204113969545579,-0.0150418987534931
-0.0976028461516366,-0.0352902205950354,-0.00926096693875597,0.2045851321057,0.0492384603928321,-0.00913841671698061,0.0629676464103867,0.0482866926181677,-0.17381537973961,0.0721880645945347
-0.10027115274467,-0.35327606931833,-0.022706723019687,-0.0270299790288045,-0.0406230631019283,-0.204747381750921,0.256893883432582,0.0381121553547755,0.242648981904406,0.072399313634795
0.223024867859701,0.0522373963349321,-0.0288379438702226,-0.0588257499209177,-0.019180826114696,-0.202679969525051,-0.08918889521821,-0.0610096761196888,-0.161665317225544,0.00273008466015787
-0.160348298213522,-0.157542785049013,-0.219924155930021,0.25636483205622,-0.0999364731765076,-0.0143854977960166,0.0295447477998459,-0.0845202880464251,-0.171337009737497,-0.245773714111835
-0.0342827475066974,0.0121667309832533,0.138001329316288,0.0903168216965983,-0.138301910488393,0.0776163596624234,0.205425112770913,0.0989583523066648,0.147066279418615,-0.0620462598592987
0.38345362442886,-0.239863121539821,0.0254779807136755,-0.0714645241906757,0.186534596387762,0.0467008639675479,0.299962426580541,0.101220280756481,0.318174894039401,-0.137930302009753
0.0931543144084735,0.289250820245384,-0.192728898361558,0.243120871235193,0.11584080564882,0.0890043416747561,0.033203324571436,-0.227348426698865,0.130900832163868,-0.125030420325991
0.0146508210622983,-0.0112570617332329,-0.00926804863681296,-0.22396156623074,-0.0820886990290235,0.37922383913684,-0.136580947977426,0.0129370570866128,0.0573466376627495,-0.0869915014801545
-0.209875709496691,0.167298964709115,-0.00953846722427847,0.0860714172427381,-0.0689287477635687,0.391011580345388,0.0100900296326025,0.305319570001113,-0.173890255810232,-0.0292193494671044
0.115400685504166,-0.0825018735144802,0.0997835464359692,0.143456440676434,0.250721291671137,-0.00497953926673206,-0.145260018364641,0.0628071978250245,-0.133216411550766,-0.208810536031991
-0.099537180178217,0.202176677691883,0.0126418417174069,0.0373539672186434,-0.167292249165319,0.0911614173854874,0.101002065454808,0.0418559382764323,0.164392018027012,0.0458552568783834
-0.086196774729597,0.0289849128533342,-0.13306631936349,0.163068383218138,-0.10442354165032,-0.119870376062859,0.0255778043671484,0.15567607956351,0.0963509783819863,-0.181588394814935
-0.0587906334843173,-0.235091909678598,-0.160824050951795,0.285684538602048,-0.246806805533718,-0.202018777948511,0.0025037514037221,0.0610119638582851,0.0331652784108514,0.17800571137072
0.0711661059509604,-0.102807280480434,0.0908958434044274,0.150893332307309,-0.259346657979313,0.168564524487378,-0.18425437564173,-0.218868389193905,0.0476949407669569,0.119868204254648
0.0232098710933301,0.0817515796240767,0.00552063669744152,0.050399020534855,0.229171575288008,0.139526686354906,-0.153482006773297,-0.0906366501443452,0.332572711669336,0.174026701184071
0.0222824188187441,0.190660575597894,0.0512955545795097,0.34218768951697,0.0394225786802164,0.0802993452442046,-0.278133872474379,0.273230664954633,0.245326122273758,0.109868532924116
-0.191420378162139,-0.146986442983587,-0.0678755917026681,-0.295803157156597,-0.212930564161875,-0.0745717271070503,0.0977243246514233,0.0833421670928357,0.10670765280312,0.224198543967585
0.0736144925102464,0.127867562052514,-0.0334060393435298,-0.121179812544456,-0.172519925580532,0.158210577731495,-0.0625257135130164,-0.0763564639545112,-0.0556084801923178,0.0245193216583753
-0.0105244837755077,-0.123821072390977,-0.0743023460561772,0.0494469642726511,0.162075946659887,0.186491071690517,-0.00680944899594463,0.116793912078254,0.208512055118196,-0.105982571421053
0.170264002685784,0.116930248445919,0.170885457276014,-0.1778631660056,-0.227530980849045,-0.0302455009214544,0.1002821390437,0.311312471456597,0.275834994784293,0.150700186872213
0.0404063004790431,0.190673766693279,0.174402957409442,-0.111196485513971,0.256083391700111,-0.193951822207201,0.0492807665386477,0.0746110031720331,-0.0853860237791184,0.11128884617897
0.108450966896422,0.0240463727558583,-0.107005560037079,-0.0297971383019501,-0.21295413569479,0.207521197014427,0.0962015329144345,-0.0857732115546371,-0.102797766794687,-0.0789968058639433
-0.130060741612298,-0.0458198955122739,0.20273287384926,-0.0146720535674601,-0.12709795996965,-0.127391462035059,-0.00414243614070153,0.0922143704645282,-0.340611350745762,-0.186459635743163
0.115464410736235,0.16529287380241,-0.133966006550982,-0.177473423964544,-0.100719417295559,-0.0370965997182913,-0.133224385625515,0.113373354869216,0.118923669152939,-0.141154639115817
0.0563075079845619,-0.130995617859177,0.0696600483801636,-0.0553077851332921,-0.021809695795953,0.0966190497091255,0.0300363019113905,0.0654076515294244,0.0148769402087098,0.112725362984625
0.296186928663895,-0.0620380860317869,-0.0243937856253644,-0.011893687272351,-0.0116100341853298,0.20357220102572,-0.150089659232654,0.293600664760212,-0.153868962960853,-0.139799846294994
-0.177438260646271,0.079089586140486,0.0620567405128642,0.103203590279618,-0.203413223011426,0.195061199282253,-0.150572626230086,0.0361703516154551,-0.142093001642922,0.024425480237349
