1.85648624319789
0.527176959285365
0.452236747483203
0.617474999232276
0.227212711357705
0.691617491358152
0.514971060082356
0.527593522835401
0.452470282585618
0.62122546081604
0.252743895827236
0.600084735348878
0.590476462542953
0.416585565356595
0.4526187260893
0.571429748785035
0.540328766166731
0.538594798328854
0.520210182619217
0.193330171822173
0.415658052433065
0.643897081165407
0.54205303144241
0.586183462246706
0.533562434603861
0.386392694628221
0.596791227728023
0.63972142406599
0.645385206942692
0.528645148039412
0.750198953272509
0.359074636249816
0.25785694402366
0.570586918293161
0.368519039041541
0.154598339549926
0.375760215611636
0.406915885720714
0.579812205112259
0.583647899302208
0.484621829930371
0.513724218278179
0.600049040940984
0.547208995161384
0.41135684853738
0.643363092974777
0.34451854607075
0.858113775566722
0.510034002269601
0.551872874690531
0.596725284394021
0.359682048941299
0.228503260502354
0.773298262926382
0.369888011612338
0.399559645139312
0.438686205440475
0.469797483114664
0.519602679474548
0.293288938819118
0.548537583376661
0.548374230029035
0.559260559837304
0.418058234241714
0.306960514737023
0.443204131364865
0.48930761890444
0.588293559505916
0.335865629767909
0.537744191072067
0.567996732230472
0.589864495493792
3.71625176751694
-1.42126799757966
-4.10978430867131
-3.3887251995915
-3.81637436505913
-8.31265773879155
-2.74548841316181
-4.55537183831533
-8.13928768023898
-5.07475202986264
2.99028840291865
-7.28421378460435
-4.15110871030192
-10.0336556490578
-9.07791570411381
-9.53378071893408
-8.24293084982456
-9.87212097943612
-11.0736893995921
-4.3986141469546
6.61873856787203
1.66131982799847
8.09873008719212
6.33809192871663
5.00772563533682
2.53010782222431
-7.47420130798075
7.85484233433165
-3.04930472292908
-3.97572336657527
4.80844134756525
3.25628129602257
-2.24409069727957
-2.05911307605502
3.70578515065186
-0.233943159324293
0.36050091350238
-5.68674371922941
-5.96933375077532
4.50568106163023
-4.27920453131075
-1.54245205805416
-4.36814677481276
-4.18463727053303
1.65946389948929
-5.51559149255108
-5.75593169149664
-12.8679796622121
3.92288931303831
-7.84049047673252
-1.9628471156948
-3.20538691989242
-0.251303199025727
-0.806864696960987
-2.28473816982147
-7.31736580006358
-2.70042681298921
5.38135962364227
4.62784915108845
4.25903987461213
-0.282895145038114
7.22838774496714
3.71833025010898
6.68466871539855
12.5239657470063
2.82054834171502
-3.47958825828562
-16.5638034756632
0.410833178354843
0.294422108466723
-8.77573312406895
8.61160176072114
-1.81862670330958
0.439233534681527
4.0839193431482
1.77716938200844
-0.332255492886915
0.206935993436774
-7.52430992451063
-4.22482956416257
0.881301882575134
-0.251130930589942
4.97416717174348
-1.824951050865
-2.05729711410729
-5.63851150571404
-0.0602684367887448
-0.51787430429909
-0.894624114824348
-11.5846886094314
-0.24925367641228
0.860704145196457
-1.86894398580799
0.556207194989993
-7.15309527040479
-1.15573031999648
5.06925471723451
-3.6251457468156
-0.464560260606827
3.38144413892843
8.96436347176255
-10.8579588542323
-4.32501715828456
-4.75943096828304
-6.4026752375634
-11.0673614218509
-8.3051676734574
-17.4794202128338
-5.86043412073866
-13.3943476614172
-8.98378711217321
-4.15199399694178
-8.13060994329622
-7.75912104506691
-8.5394590523966
-5.81508795080451
-3.70030807427931
-1.08585765808556
-2.18302469517807
-12.7482271510134
-0.744188747989096
1.88560391513331
-6.38987730497495
0.404090240714903
-1.66476752268977
-8.02817779323973
-5.40077160358416
8.41010378538886
-3.94202591433615
2.89653268177622
-3.51586710379937
16.3575666254525
2.05530040600764
4.17663573967021
1.36505788793214
0.405490177930336
-2.91576150564907
-13.3214397370157
0.722127496246975
0.456506735710292
3.35694090259288
12.9806702751317
-2.18112559187054
-6.03066212933021
3.62731907991098
-12.8058280676187
1.65026857474451
-0.886400041756636
-6.63974123932458
4.4754876208646
1.6279876085859
-9.56976961099613
3.75770074063686
-14.4883930101847
4.32310917039276
-5.13462145753912
1.44079513367306
7.71021304246131
-3.34191250657761
1.07886384530732
-2.00355153318239
-0.217036623745252
-0.213780566450315
4.50681548017462
4.55559044333161
-5.08547527529316
1.11944878492091
10.7490993416285
9.19575439745477
0.886948134704403
5.68663273456239
0.758335251575581
3.26279664789415
-0.210238985425599
4.60020272588635
7.16083078870574
-3.34435487321715
5.66166680774291
3.68980251885608
-7.08067018743292
2.89227221640265
7.33353869502395
5.56853121016882
-2.71857867249665
2.06632541448219
-3.66107495353061
1.02047559762015
7.20070174834312
3.35484051481451
-6.7600777453969
-2.0097746094223
-12.1398408185305
-1.02361183433128
-4.16608326062637
-4.66401265492768
-10.4370186438828
1.85146096500211
4.70053234822569
3.40494511150893
-1.14281869497781
-3.87858965195669
8.76516277264898
3.07076705229505
19.4219616666394
5.95399268462078
-3.38071219107931
-1.34495882990573
-8.5518496701025
0.623929739026031
0.46055301380109
6.10845574101636
16.5243051264638
-1.13853955489223
-3.83440357856333
12.8828867371317
1.4854220405548
-0.687896666551153
0.19198100673551
1.74989170450282
4.1141057360197
-6.59564232902585
0.337740232150871
7.26576714153445
-10.8727890480225
-4.30567379695834
-3.54157184992539
-4.71876586020413
-3.96988460349102
-5.04322715814316
0.0795865367874056
-6.34849613315229
-9.07267202667886
6.57973478608552
0.244334755417052
7.00919146727896
-4.70755439466813
-2.04289579877538
-5.65274319634045
-6.76279301718583
-2.81493249883876
1.66626241891726
-12.2312533702424
-1.72531507655664
-5.40835687814615
4.88701390992292
-4.89236986727964
-12.532869268894
3.77643860671638
-0.940380547579791
-7.70653593253674
-7.20583253416761
-7.60876877771267
-3.91269587695545
-11.4462437718657
-1.83415672078315
1.87442882324248
-8.62931931030176
-4.63372172791234
2.29364163771732
0.142073394394893
-1.80936801230039
-4.92414587423058
-6.38055357178963
-1.3173770440524
2.07071584984824
-0.678273960568837
5.24402247423307
3.97760985408068
0.386171497401345
-2.70506133058955
5.60364688610925
0.225849953817622
5.37313461350733
10.0296234146049
8.00522167600151
-5.78927802249036
-2.64071185189371
0.514117731447213
0.593311866494777
0.392479104574596
-2.37602677780324
7.01276815845413
-0.0562090792622522
0.140930270001294
3.71781530348294
5.91141973683238
9.4266933578457
1.94000153665144
8.51482362538902
13.2886477929083
-3.87676018107169
8.34088540932864
4.18257826584835
-1.01273559614431
-3.12661041056801
-6.06876782323163
1.09240781125883
-0.0325617432261811
-2.94193580549924
-2.99761576682493
7.77460364269866
7.38180551067598
9.78465515631549
3.43795485751701
12.4693831893335
6.01947923601796
-8.32922379998151
4.21015013881148
-7.20825784934929
-9.86208733086384
1.71495628299241
-0.606903603914799
-5.05949276235899
3.58401435002677
-3.60572927919966
-8.79580630529258
-3.21171375974876
-4.56972051079853
-0.646572690987052
8.80712042364917
0.902627717882674
-3.43692784157573
-5.97497137644732
-6.67367648813623
-2.57986382972071
-3.85433608865137
-1.58177126457272
3.25345054915121
-0.402668334234693
-12.2012273907065
-11.9049945228039
-9.16207034668782
-9.92014557030437
-13.1404438106515
-3.50999347667613
4.60962585398211
1.7235277376629
18.7562696974714
-3.28753351634954
-7.84269036546732
4.44191222364606
-3.95285004376989
10.4539099911181
0.310271255536027
1.32609796881746
-10.0022288620866
-7.01870639663719
4.86361804271675
0.486517550087329
0.461207955045555
4.12280975153182
1.77275790367531
-4.33639828926393
-0.274035551421253
-4.16680443792228
-7.26719478726009
0.652759707454299
2.81307963125439
-9.08418289524549
-4.69880787193848
-8.69344404919917
1.60463388630145
-1.71420231462182
-0.685418965745262
-7.56780999145432
-9.33245747895275
-11.2983928600065
5.0406934436392
5.80757276529372
-3.34979616348336
-2.67911831784933
1.67325645125893
13.0274311814918
2.47040685615338
12.0750346516092
-2.19921434873327
-11.6086082098068
-0.787203005201041
-2.94707944239686
-15.0380330547451
-7.96313601072791
-10.7013024036006
-14.3487437538544
-1.10314284402298
-9.48282119951745
-2.35583997561864
-7.24817285615843
8.33295756708149
-10.0569277470492
-4.63215747161347
-4.03071452855553
-7.80992584263828
-7.40122409208634
-3.99001467500947
-3.59902389960387
-4.93981784114031
-0.155735628295416
-4.32290199854163
1.80440695551145
1.39562394497484
11.7295338623073
-3.28287202818104
6.38302795365784
3.07705063062975
-4.98392378202819
-7.32559714324511
1.49753149212164
4.5418929455466
-5.88192271583109
-9.03881243270431
-1.33668885066775
6.06008759868041
8.64483716610603
3.11277373049537
4.99527267849821
-8.80964077021789
4.6096925659277
-0.673306818346243
0.535537051277288
0.585972431198167
-4.32351761740169
4.52227612427585
-2.65457138302925
-7.5792052185191
-0.013333842296467
-2.89410523735106
-5.36123022642761
1.61366804285337
-6.10426179126889
3.01018889978916
-8.47855260695508
1.04875507280043
8.1818907933326
3.76824507403915
-1.93317092531362
0.355251626967595
-3.01087223357549
-2.32208831629696
-9.16615886393929
-3.8588343997505
0.549971063846328
2.4667075699989
-0.779900754632587
-10.7452077293331
-8.27353886765088
-8.44134009585853
-5.10811267384307
11.2793004160629
-6.92665333101982
-3.8023036202158
1.23630807756956
2.51037478021243
-2.1039529057359
-3.80250254849789
-1.20962535175857
-2.50278624866725
-12.2817676670753
-2.21083932029966
-2.93503828947682
2.61400288933276
-5.85334010080415
-1.95585726395469
0.698911883873722
1.21389664277792
-4.84989244137684
2.22344436836226
9.96533887030007
1.55162503115387
0.797985293373109
-4.64323029440294
6.95411754962869
-8.43595105819218
-1.68241262891272
-2.78661777071209
0.959587483706476
-1.30014636922166
2.11780988158024
0.605673867841815
-4.74890091217585
-6.67078870100383
10.122295480183
1.52250685984219
-9.47424557164134
4.68246505438372
7.99098833871507
-6.16266681465889
-7.82835564664659
-1.60508830778653
0.32286527741895
0.696572038194744
1.66019919853321
3.57262639890909
-6.06933681602376
-7.17382838578875
0.0644551634727089
2.91165172391796
3.58593891480949
-1.13305361355958
-4.12490846336843
-11.5768413617572
3.06454527627689
4.10248517505435
4.19404257547452
4.31676528108394
-12.6842968570095
1.32192526778544
-2.58787682116741
5.43530751921685
-9.91835051049195
-2.41283190570785
-9.19263778230682
-4.99696563871648
4.71781866292163
-7.11780724601206
2.45832075427046
2.04677706952556
-3.7215441409272
1.39707533395324
-17.3650504250967
-12.8776934404288
-8.35779004457854
-3.48597003927724
-9.76064939798826
-7.97809261624396
2.03776679369705
-4.29543196319198
-1.46182547421722
4.90949061747544
-0.581128406902407
-1.59477819152332
-2.68062052632022
2.6254788887016
-3.75790869206748
-2.90921583583899
-10.310048292928
-17.2027763310741
-1.53340894089988
-7.17200134110514
-2.84356839175404
-2.86522068343427
-11.8328173054775
-5.30073401810747
-2.25712683328022
-6.97684170433564
-4.70676191375006
5.18647323156215
-5.40433519435884
-1.26033049437705
-5.69111316530045
-11.8084540609945
1.4790012221561
8.81517444771344
-7.58577587439194
6.20204832420122
-0.259684806052862
-20.8122961061847
-1.58120784065247
-5.98817890131451
0.551181208144988
0.723969138338026
3.22014415938832
4.86269621152588
4.04125989303335
4.48866175049726
2.10643588440595
14.3173403937277
-8.79188104276988
-2.3680341954877
-0.622009422090552
-14.9099655459331
-9.47994690012135
1.90406332511347
-18.2094014135239
-15.7046231439839
-0.555653677324213
-8.35141119027003
-5.83758613521994
3.57109751821192
-0.438815072312829
-11.9246116604202
17.2779524748849
10.5241991847988
-2.68689464598454
-1.01413554002925
5.56713509856987
8.72604795936455
5.11828592234157
8.75924581303049
6.27670507850269
4.08044330275821
10.6247481387074
-4.94147759970906
5.65598603194947
5.70861592453553
0.151802306166968
-1.54287133599592
-3.79270773752478
0.466966741717817
0.964556775465723
10.786639701257
9.0533163687954
4.38239925262205
-7.8528575471624
-12.7028011432001
-22.9798092702741
-20.2620616067143
-4.11028483554074
0.895832177679914
-9.8921914757828
-8.01227385425593
5.7816939538984
2.42537188128964
-2.75888658094791
-9.43153728223524
-4.03292964810413
14.1023259788128
2.0677229941019
3.74644911786862
0.0909739899646226
-14.977953456659
2.18766606289526
4.11923362071097
6.24770374123834
2.27239376631695
0.11987897501961
-1.37218322054514
3.30549923010889
-4.605667494993
0.622769405641786
0.290298873729557
-3.41478269725477
-7.41596957305763
-8.09571822388842
-11.4072415892476
-4.68765684140038
2.09001275043187
-13.9128356983639
-5.67601796282121
-1.13107797084376
-1.40135815873307
5.18969646197634
-3.52731628986742
-6.41021436086187
7.25146741264838
3.6046010635033
-1.04396085798576
7.2232190096581
8.00942269345007
5.22315875457356
14.8969798618382
-11.8766873247887
5.22492633137032
-4.98058474575963
10.8889423579967
17.4839242309027
5.60124767556585
5.33125948993823
1.43571004733388
12.0409577208616
5.65265405301791
2.25309158954551
5.95304930517924
-2.84299029118442
2.64199805548288
-7.28631097765275
6.06942224337162
-0.918775650644315
-4.95649613144102
7.04332255014658
-5.78217415322426
-4.43436477108684
3.98347492988617
-2.84330495418723
-1.65588733477938
9.246393912888
-0.45605381589851
-4.35562578979543
-3.08474452150757
-6.84342012644163
-1.25454207273295
4.59511967819962
8.0932190039587
-1.82337209595237
5.96571442835202
0.22390724550966
-2.22426020145794
11.7014380644409
4.87001020037572
1.36173465044481
-8.55865135421293
-2.58834083876218
-3.94694308633138
1.51221552920202
4.7174459444762
6.39929112412685
-7.90750822194822
2.10033748112592
-2.63753879584913
0.620411857439938
0.4741024543635
-9.5566447834944
-1.61805642813911
-7.29623565276973
5.39710833138037
-8.96151028702338
5.29650888453203
-6.89495050291903
-9.53131841025833
-7.00463104584451
-3.31884159777492
5.76652961684
0.241246725755198
2.12783491370623
5.88951730225777
4.77238432104787
-11.1446025128546
-1.46005395861544
-9.49420447252662
15.3266881770572
2.86547261923267
1.0775188460322
6.3559917948682
1.36053825772903
-2.73690033159528
-0.509213151122966
-1.35337574446995
6.29220384022024
-5.15087185494556
-12.084719160229
-9.61174956042966
-3.88154136396561
0.297296089688501
11.9902160946038
2.64061884107895
-4.73589545375381
9.90057383349099
-2.32269932297164
6.28773364747069
9.98468387813634
7.88837034063685
10.42098218468
4.50564655186824
-6.74365806321014
4.08799543846478
2.46367344093984
-0.752449950330357
-3.18696627854277
0.806227587311989
-3.4722739572138
-7.50012984196395
0.101285928672639
1.07116197977829
-4.87474056215229
10.7881821893316
-0.819022719818131
-4.34055429208443
13.1550840451523
17.4177582351743
7.98664129892839
-1.69754465960361
-0.012112071624194
5.69106733914231
14.2168417210617
8.70257464674406
4.11859717409294
-6.57200286179982
-1.8005424386992
-5.6312658459517
0.475144233598839
0.219539311883582
-3.0082990015019
13.2780354452906
-5.18511919682642
1.3044077416876
2.61278199232412
1.39547766350579
0.923643615975962
8.08953456188739
5.09890284782588
2.99519989333014
-5.24233558356595
5.58917298275566
10.9158965184354
3.63489528190932
2.18888353496992
6.23472774112707
19.3643079522399
-0.657019469309171
8.32711619220568
8.15796529797409
3.95419578717563
2.23016556620978
-1.19804978338796
-13.0458555597204
-3.61343829752816
6.36646521560862
4.96883655094393
-4.86947555999819
3.14136075129769
-14.4915438063522
11.6504741544623
-15.092331946351
5.47378281298406
14.197684510301
-0.587535734710288
-1.14649468549851
-3.07287313767399
-2.98935420612071
2.06349540264473
8.063331210884
4.73580664344809
7.02395618860613
3.52716707592888
4.93839429422232
5.25975535559482
8.3277937477513
6.05779791055639
2.7596893267215
-9.62261602455087
-1.12746048211053
-1.55522188941511
-2.32937079791596
1.34517892246939
-6.9947609702812
-7.51977911878913
-0.697827604782624
6.96176438880052
5.23986646044163
-3.10366631369127
6.57682793389122
-4.70352364682961
15.1953980252505
-1.02598188578972
2.98989303200005
1.04851463796167
2.18170489212814
12.287182551815
-0.16182308398347
0.517384172166069
0.525030464874818
-9.92105482098269
14.6284458727689
0.584597076612284
-0.394599787982406
-7.42480034081543
1.41404401219516
0.454496280777525
-12.5443477733356
-11.3320761924734
-8.21321178755001
-0.200517473406083
-7.15325062341994
18.074579798094
5.35742417057488
7.67752179317849
-7.05657818129232
1.84281969397493
-6.20721235361769
-14.5121721405279
3.4215342867457
-15.9713481701947
-8.98372011011117
-5.50093902786458
-7.50834018242565
5.81582040546628
-1.18334153554417
3.51000721013519
12.9110413334839
0.88725881113078
-2.70075670173518
1.63139994820922
-7.46822386156958
6.00790976128151
4.05457397873771
9.03812449925788
20.9169293290393
12.5677656016532
7.39495770958216
20.5480238481879
23.2771803737615
19.5423417266973
18.912867680336
8.73300288399239
7.67411939679224
-3.65144502448358
-0.380559060508158
6.1302888542662
6.12050934377915
-3.55371759554864
-4.33839265151022
2.00481234923631
-0.917347669584423
-5.21003884308003
0.972436436354638
5.27080465560853
-1.40170758729819
4.33477499978816
11.1383325169443
5.35187549675665
-1.71390422211916
-1.69879945860429
-1.12803331683979
11.2216320368222
-1.34586688049355
10.8724458293175
0.523375695562724
1.9973539565784
5.28295655894851
0.295570571718003
0.393129241042481
2.93801183389306
4.54458648862596
-1.79850536417905
-0.0739945220237363
-11.7218924868629
-0.651607646375094
12.4506681823382
-2.77491311676786
2.07501034719869
-6.20484416573844
9.81045921247628
11.5087151258469
7.63411305394955
13.9561929784356
7.12672170676448
2.53326662737927
11.3430657261584
7.8941183985374
1.84736196270066
0.526865883033119
-1.77746423153863
3.80711628660212
1.35050174899724
-2.69825349045922
2.57584299479489
-0.305828566224365
-0.733901937036387
6.59806397484298
5.659031634545
4.35946675858462
11.8134289237008
3.51569668857526
10.7106351843074
16.2567837618448
3.67170318240773
7.04383930309686
-0.85275574248276
10.1909749957465
11.1665730742524
20.0258877819586
14.853350712297
12.886358849557
1.50336777185032
21.542068725193
23.6528918757676
34.439100888039
14.5418032674169
14.1127020876915
14.4776100552448
7.64800731057674
-3.56140507116298
0.640803721668573
-8.86900914672218
-3.20574373919631
6.32263764180704
-12.6226220787219
-9.23693019970401
-7.10340917261413
4.54653658810439
-1.43414044535038
8.12332147027964
7.10874385173681
8.18215896238451
9.99990425129141
-4.636901067285
-1.71884300925375
13.7909158836529
1.11739201579639
0.537796971392445
0.291071875058766
-6.73377714362806
2.06266355201342
-0.285822707021184
-3.97572089612031
2.57760291519621
8.07803743765563
-3.70380349106425
9.3929461309663
14.3900505594088
20.8416877823772
16.978431163991
18.3548553220365
6.14539287611836
1.48620663224959
15.8107067139549
-5.55932857664963
-1.91202980653567
-2.21195634610426
-2.84225425501089
-3.41294638709894
-0.335653520266507
8.25386327858412
7.05065971981745
1.23676299117209
7.15816703025344
0.959245707910174
6.46115141580963
16.9617591644283
10.1484857196386
17.9130752966325
3.73699803432021
5.40713141300112
4.03329753982194
15.4625822711256
8.57725831285792
20.1586822658201
-1.59290335924435
-1.79430782446681
-1.64851456089425
7.49393142792632
-3.16525357651474
10.4337890252137
14.8845094841715
7.22121871533242
0.120597098149605
22.3050796965517
20.4744699890143
18.1539039567252
25.3970487592388
15.443895860124
-2.96843822587183
4.03201636126619
0.0365576514611107
3.15754399734984
12.9614797108393
-4.32123288147882
9.45771563703769
-0.171870887545313
5.20670865467094
-24.4752880759431
-9.38212730347221
-4.04411001475971
-5.51463682851086
0.131526236558462
0.377867672684015
7.01140512393781
-4.67398728767618
1.41390146053342
0.428170093834081
0.555167165212001
-8.628071517197
-4.42202589123148
-8.42144606010238
-9.61748819823334
-0.928442047660432
8.46232014874918
-0.0261426367293936
6.15493572635894
6.6550636765759
-3.77508445401968
-0.466887182727465
1.35323179170944
2.60345860019065
13.147463460663
8.64596269469833
-8.96375013738397
-7.82152232325025
-0.423535893408448
3.34412520592268
-1.97662199191015
-6.39152230500695
2.27688384558277
0.43149628144396
-0.5381827802221
22.5083658237275
14.1305568946633
7.10212698706717
6.63101368069698
10.5687496133796
-13.1768981964866
-2.14900088172222
-3.81611666810761
3.77949582982552
4.076525173866
-9.43002356877007
12.122445167165
3.16474016469069
8.1128168108257
16.9954832703899
8.77246630762932
7.56630044856685
3.1731240115943
0.435301719302919
21.1447545857683
0.0294290723328235
-1.02941337708953
22.7715214801619
14.9266460549026
9.63120997274315
5.90481511593422
17.9785764527523
23.1941414046722
5.74796997617646
8.4634689980909
13.9209343046105
2.78986359416903
15.2758253541976
2.86172661092399
-0.274715354671926
7.70435201522906
4.39235856730995
-4.30438473244391
-4.33879099410248
6.89818829451874
3.3851556993011
-0.20966704327581
12.1910219342207
5.22691580604109
0.316254748374487
0.472063163624322
-2.10393182588204
-2.5863812238371
-2.42283652302152
4.89035802416709
2.67112301126519
2.47041483170768
5.45001181294255
-3.1592636148308
-13.4351644645443
3.2658620638503
-2.42989220010894
-2.83413664287763
-2.61925035744159
-8.01635261253895
-12.2486581903152
-15.4875124577056
0.400684135072961
-2.32366500390324
0.466758265717633
-11.0521616432284
-19.866163494652
-4.58993078338422
-9.44777672822183
-0.203341952768039
5.73722658255038
8.06267274927414
-2.87412869247312
10.9835834533515
3.74852464441608
5.49521632207342
12.9800263177651
-0.522084978571938
13.3468984076855
2.66977187082491
6.26295144681094
11.9122536036833
11.263551842897
1.4528091560802
3.8666473435465
13.129538072518
-1.25286394696765
7.84330080416344
5.53965196569201
13.3156527831194
17.444811553926
10.6019366021756
5.4685249053327
3.1163575836485
26.5524902679003
21.6940235487838
7.61921435663847
2.74779565117923
20.9681951485056
5.74211630613857
5.5168391790327
9.93815327316258
17.3136280143396
10.2359749743573
0.113714749704761
-2.65786310840405
-2.70718269568058
6.06785724955302
7.22978753853107
16.4072692353707
8.64346837226348
5.49084717374106
11.527931801285
5.98057358029869
0.596337427635697
0.630434667332252
1.26952503535034
-0.0818449906443841
2.91260328717313
11.1859352217056
1.17091781751827
-0.994701990910358
-0.332509585082748
-3.99741303683646
12.1684712046488
1.79611544901565
-3.98449487491659
-3.00450812893161
1.6646542574825
-4.15242836104801
-11.5477824657983
-14.4441319650363
2.014547575417
0.451262535530868
3.0746584074168
6.85584863270136
5.81030370033296
9.53366822426838
3.27734292767833
-9.52749757420218
12.18305165189
4.85465885662292
-2.67214285074166
-4.57697162608931
-4.74089807520816
-4.36373629414989
5.65261885044684
-4.10293740194574
1.02331868743087
1.39559050086364
-2.55459496671838
-4.7595484478013
0.432479024228059
-13.4634043446196
-4.69935049250001
-6.79981287203176
-4.08163698108847
-11.865294589869
-13.8610909285057
-6.65416465477553
-5.93039143893779
-1.66629187913731
1.18909573367787
-5.69367638537757
5.73881288338476
-7.80531070301477
1.83950569065515
10.0649493535292
10.4973951473598
7.79710195042397
1.3768079792425
1.98896323149996
-1.40563772366426
1.13590318757984
14.1522644302149
10.9401267921405
8.68853504622039
9.85746430233596
-2.49629836698112
6.87897620474977
4.90064222232387
4.90672718173974
15.6668760507635
10.6095420479968
0.514990486173629
0.521370839644492
-0.278671634691232
-0.248077586351236
6.66684270303507
6.1808735177312
-2.41239240176537
-3.37234626353195
-14.3168340452054
2.26069524025943
-1.65463040946938
-2.58900158381518
1.37931948936845
-3.3584869873424
-9.48418551622535
-0.20638569302284
-6.46182786169366
-11.6217151911099
12.4316710632503
-1.78172160950124
5.79947361729731
0.0733463329006527
8.98995318022439
-3.50315611974355
-6.09046061876427
-12.5271976756041
3.60823592851408
-4.89182009976285
4.94474123382116
6.48917924496439
1.03505176030877
2.59906672037958
-9.18048013041289
8.33646604526083
5.11935098021022
6.56283664809541
-8.40262514517388
-3.06481962152623
-4.41909146112919
-8.66323284117696
-8.21131885787465
-10.4804398152124
-16.1802488987437
-8.86461616715703
-12.2228873875175
-11.5691013693915
-8.00936631531633
-9.54327478065333
-6.19474476568395
-2.64651584140043
-9.93151500778853
-3.71121321938998
-3.19662302668594
-6.88203426909177
16.9942353619134
12.4509282164481
11.3088827496185
3.42272643557531
0.0406130204209898
-5.97905504505368
6.97497135842683
-0.199404141537333
16.0966823540349
-1.70820253982557
2.64932185568522
4.27985324908626
5.55413637823541
-5.48989179804451
7.77070515590774
13.9792052962693
0.508804660837953
0.563149214258888
-1.29049961161982
0.506871895776631
7.62591486571056
5.81979404161975
-4.51535600584866
6.31410786279092
-5.90546072735458
8.53009769656034
-1.44538457202911
9.0251663798383
-6.36432872755423
-6.37448871179328
-9.11471185606864
-9.64286414686379
-10.3291551614763
-6.25065148469242
1.78061665155466
10.9887937164341
-3.45083898352632
-6.0556035149445
-14.8060550068756
-2.73188634257993
-8.55024081756732
-10.6989099656365
3.94121166948974
3.36101290454955
-6.43786019522006
0.863211389611483
3.61558490255335
8.66814498385081
-4.24348670550857
13.7121136736288
-14.4156167222042
12.521840465494
-15.7733057098575
-9.11285592942916
-6.12178529990969
-13.2279608233637
-16.8848438653248
-15.6967515581867
-19.6133955877297
-16.7549115621554
-18.6702454024435
-10.786661727744
2.25064854279109
-3.08580303439406
-4.083775740842
-9.17520783149297
1.33802414992647
0.88338972001182
4.03805243145282
0.175535422344031
3.34150446231996
11.5905875478894
12.3204828983785
11.8021267690391
14.5045150774194
10.6155192868821
0.747964456430732
-7.1023169406498
1.9203439446509
-7.05645261998292
-13.7072495866238
-0.691756640116489
-3.89435771475516
-6.86529466846829
-5.57456079512187
8.69126207856399
0.596737961857225
0.519028768466187
-5.33993070008827
1.85704648289016
-5.39762233606004
0.0966335612761387
3.2934484848042
1.72946143547793
6.932283687799
-4.63022803119162
8.9975023171903
-0.621582435951749
-0.763963856632171
-4.35998883084028
-5.17458173226422
-11.4294199285511
-1.5379838476667
4.30933881998714
-4.88163654842374
5.51848240361091
-13.1234562639048
-12.3002044329517
1.01720884990437
-8.74483773588456
-7.54590111261075
-8.71249579862958
-0.121455485231379
-1.25415178359269
9.98038893945717
0.657293326625107
9.08440722441987
15.1219246860867
4.28369260374867
16.7956948111469
2.54964025543742
22.8908444110696
-7.4401574903364
-8.26183398588461
-5.82628785129734
-8.59792224694296
-21.2365341729132
-27.9015073193223
-11.0960904438853
-10.6943155521946
-6.33584524777561
-12.2402923243807
-4.71562182190806
-8.37460643175102
-12.5712343551439
5.39519327666772
-3.84116522184329
11.8163011177185
0.681598005914258
12.5149165300358
2.80423228089354
16.1169898638264
10.4475706074104
4.5950364158264
-3.99438534517287
15.1654135025029
2.35874919750452
1.79086445096651
0.380772635845192
2.17423670143747
-6.41127094295392
4.18724624665716
3.76289878014984
-9.07407242243613
-9.50050749291269
3.75037974317061
0.472661234288079
0.493219269438566
-5.93800524690242
8.2717972136428
5.28306195390757
-0.45069173553128
1.2551734879077
9.22979420171853
13.3421286209584
0.651352524336368
17.0044161004017
14.7304806461533
4.04984541033704
-5.66064453475757
-1.1185999727348
-8.33576969305843
-7.15901624479071
0.733385705558683
1.43721999066648
-13.4659281809779
6.96533983893637
2.09270174935531
1.22733959657082
-2.4863838882355
-1.68140335354348
-15.0628395412561
-0.596184457686274
2.16279722434724
-5.83840916097524
3.12764724359479
14.8685068219931
-4.66432677450143
-10.2604825762713
21.7363726286369
16.3269797805787
22.6730314703619
1.04573112746405
-1.91404853901738
-23.9039223953333
-14.9377958994129
-14.070574613039
-7.44742405591056
-7.59641905139691
-20.1033071594128
-12.3893885490621
-11.8781215498022
2.07146223443122
-8.72942559266218
-11.9082276155679
-4.7107377233315
-7.06880142101706
2.64657489573832
-7.01926595990033
-3.37869131184397
-9.47411958392953
-5.94972086123609
8.43844317231931
5.24936784622951
7.13330006087216
3.4223251285482
5.28836491113816
-6.70363233925049
3.20611592257173
-19.5898504039682
-7.46998392983352
-6.61046375062868
2.91803924240704
-15.537768703692
8.6747727585203
-4.71061632840673
0.402303492275933
0.778158352889864
-10.3947615388044
3.83942479859128
1.20549382440036
16.8886203089542
-2.71823569182301
9.10145187694829
4.99589889130849
-2.54189283569567
17.8533476368509
-10.6733342716775
2.6189839047411
-9.34259792187256
-7.31621219717622
2.40223354917954
1.52160321889735
-11.8133918585162
-2.42088909504994
1.97182073841799
-4.50361208744717
-7.82774704687779
-11.0529528949577
-14.9278612752105
-11.814702505523
-19.5007976980345
-1.13535319686365
2.68858148731913
6.277858154983
11.6520682329113
-0.246478658122208
7.32302244502631
20.2365614682877
14.4009686272387
17.7002212318345
5.47482184353747
-1.56641104829937
-4.71548525275955
-6.71524236950636
-15.1920391268056
-17.6248702412956
-5.9991603219647
-2.74233647054366
-10.4718032881861
-23.5552335117469
-15.1592918850051
-3.08002428856297
-1.00223935903631
5.99895952500387
-15.0515792387864
-1.84266333478515
4.89527360960354
-5.97960309959302
-22.5030111595386
-10.1784218945713
2.52764732229827
8.9359277036634
0.197104286648591
-10.7233989035572
13.5280442061436
-4.16596602397302
-18.1399977531299
-9.47901363865225
-5.16759100696379
-11.1871221195252
-6.44486658088037
-11.1723807190688
-4.67483914689334
-0.330510692375854
-10.0017625136514
0.436275792708395
0.398824099112262
-0.487134468053775
-10.1035157939358
2.52003073686124
-1.55844519265367
-9.39739656417226
14.0876667404953
-1.20757913094466
-15.4393330497453
2.9062963278412
-12.0759031808244
-2.34895021987005
3.79528664170066
-3.41821118431028
-5.74302256022429
10.862757033919
10.0885593707636
1.75070375271087
-9.66394524934975
-3.03058630488407
-8.77145990139083
-13.1159376580288
-17.0945063999664
-11.9575943264662
-19.4823556637517
-5.52381667645435
2.30667324794219
-9.34737072203219
-19.8280031657744
7.38128902497311
-3.27833231491081
5.53382681861236
0.41253958305366
-1.88223721087998
3.44008788738084
-5.05512933043434
-3.33706148373652
-3.17043538797662
-14.4443243975476
5.78519949210111
0.703153367130784
-4.40277818017753
-5.2721893574383
-13.1263750120928
-10.0557562147377
-1.10641283935676
1.00816378425189
-15.3045497789182
-2.38372625090581
-8.08558725329883
-7.20253752782816
-9.43568034913238
-16.1363746104737
-11.144748777999
4.11867901314868
-1.50004821798824
-6.68706725967482
0.274635792955372
6.00884510079451
9.85769307338163
-7.70729458994834
-6.70760266825306
-0.879442330344226
-6.93538840475544
-6.69639768325857
-2.15907229636845
-6.9962197311897
1.06115792224198
-5.39465194547857
0.316008304115886
0.67778623737166
-2.18451941737845
-8.30846356181221
4.96635497892498
-5.68147401725112
-2.62996177022427
6.49644156421703
4.18901835004162
-11.0029557453076
-1.21453967254522
-7.95313362809535
-3.64188107357106
5.92510056853433
8.16567540406465
-3.97604044465739
9.10030876062557
-0.0114552140448685
-3.52330755413301
-4.41007032914922
-10.9641945434628
-4.7643906266034
2.05203301318567
-10.3793405690209
-3.07588194345858
-18.6719134352921
-0.0142475596282759
-16.4183226932029
-6.04011897025029
10.8542869577685
7.13022654243265
-0.947937444006222
-5.54339388060964
-1.63896573111916
-1.07476240101827
-15.8830111243456
2.41660094114357
-7.93936623097261
-8.37299373523024
-12.6479090212927
5.54932727781181
-7.93824664610385
-7.10051649304734
5.69939364025025
-4.34173147360643
9.40840303747161
0.460795186809668
10.2417874832268
12.6234643887678
-0.913232775889924
8.5084127341833
-5.29600147118426
-15.0172510347818
-3.1702239146754
4.14184352279575
-15.2596563800286
0.79188052909393
2.29977407222715
9.28582468373306
-0.273990600240793
-6.55816308799298
1.26255886458311
2.56140142310569
-2.54351960106585
2.53655551869338
2.90174736421727
-7.03973912894566
-0.237421096308045
4.22186640453817
-8.73033803362783
0.473424582538163
0.595358368639074
-3.22041714138128
3.32082326407128
5.49381931040164
-7.46217823502857
-8.25060939812683
9.97326050322409
17.0440541440697
-16.8461085301598
7.15545305790768
-6.56046069202003
-8.11196425063697
-1.54940881023903
-16.1369425287662
-9.0027400895741
8.65381750512456
-6.67518382684183
3.9494825812152
-8.08200015480608
-6.27843456753977
-11.9328993028093
-2.11521387010165
-6.58352333406641
-10.4724336654619
-16.9826990974902
-15.0943127136645
-7.23606134780607
-5.51272907840746
4.09479986670036
18.523771746071
10.1130419055561
6.88632536146662
-5.44050878271843
-6.33970263621856
-4.41489603525109
-11.1707206336016
1.56646045807023
-7.34466275606578
-3.99529191680157
-0.771060230551993
-13.9986113878246
-19.0680569459172
10.9994451800046
4.710032878392
-5.02558929756759
-2.44621839225067
2.26563828543517
-6.55857734051686
9.35195082313726
15.620220989292
-5.61238217861142
-10.1636471596857
-10.1696123023529
-3.11678554184181
-11.5847467293655
-1.71759911901259
0.552501861502848
4.4899036617122
6.48300168740612
0.157236534114873
-13.6917364157252
0.509167376426266
2.27298708293998
0.503090224290032
-5.63903881692823
-3.60811405703242
-11.7514150002162
-0.0823679109786521
-9.94845707636246
0.406044455528724
0.618157328935303
-9.97080524075281
6.5439214804675
11.4500588055259
4.16847635618657
-1.71257714086525
14.1553711138606
11.9187498242599
-4.37937466228314
3.75722154354771
-12.5060426594285
-0.610724387163309
-1.80220109173277
4.34811062213859
-9.85225235658173
8.52007231249821
-13.7995774024451
-3.82196598363287
-10.0053248116596
-4.57070864375138
-9.30595678649533
-4.97225614819048
-16.6627059023791
-0.937133787180674
-18.2667516379787
-10.2664141471741
-2.4648031073602
-3.48612512623123
-7.79770811793608
17.5430790114418
1.58782020869923
-14.8460225431215
-9.39625132502711
-16.8429035249524
7.83509292509429
-6.6519234670252
4.29356478386144
-4.39812225188917
-25.7216895428578
-14.4085180910135
4.11771125494245
-12.7144597369167
-15.1322100619906
0.253481461549279
-2.61726077875219
1.23305776581372
2.48422903458939
-6.66573641473564
8.12507782190592
11.9573819812097
-1.40946268259332
1.47495011387571
-3.95957142151589
3.78924701525168
-7.50174347099771
8.60961767684826
1.59080233734818
1.57781789203008
5.16903518611543
12.4708687790248
-3.50454855442585
4.13861093795245
9.71391566445358
-3.9835738553334
-7.03558751409377
-14.7890179900491
-8.73546198508638
-6.8802585267909
0.0836313371441067
0.421094846486506
0.630411411364512
-11.1347265142763
6.89304582926271
4.30766644034548
-3.51046221281832
-0.614552650766766
5.21435479368038
3.74154220318975
11.1880473662243
-8.57952686220598
-23.8530293980761
-9.10259076973488
-7.99323196393644
-8.6406437902421
-3.37914522395257
4.0790233040112
-13.4227042142398
1.62784975693709
-2.173027996622
2.17434571699683
-7.37795931136175
-10.4234164108376
-15.1019873733401
-16.2909921831754
-15.0510368874152
-10.6423482116725
-13.2901588712491
-16.2555807501365
-14.9992872750272
-1.55045837751975
0.415696948407786
-7.9404054517378
-1.54751375868876
-10.299431935085
-17.8974025290071
-12.4689953014591
-2.72634965056716
-4.00985183427577
-14.8161857258838
-0.492210248757335
2.88567732923574
-0.475047846231624
0.711920252203808
-3.87333025938605
-2.79722532201637
4.55793956393894
9.78923353360689
6.12093665900475
-13.8960801194801
1.20602113882581
10.1012015096929
-10.6060430420141
-16.8740980568546
-3.16176059458322
-5.40980312906711
-1.35837732849466
10.2026089666391
3.09802745576476
6.71196012092223
15.3921671696404
-8.23462537344321
4.00497004136151
3.52502152922384
9.70089475429375
-11.9747125822918
-5.78978678575183
-13.4688192997443
-10.81411908064
-10.1323189457696
0.601561930445108
0.517374318843278
-3.81655166866375
6.48569813842929
-4.65386520874686
-3.62402752108772
0.811637348227629
7.2923341337275
-0.562696289702724
8.01666143523829
-11.2854278042821
-19.603529289655
-2.09766019043038
-7.74381137066035
-2.83164937735717
4.24794588139377
11.3522553759884
-3.69301612632239
-2.79014453311576
-9.99752138405793
0.0400713779761762
-10.2451931467606
-14.2030559001112
-13.1086507371094
-14.9261709879448
-19.1110779962425
-9.7689824713911
-17.5380632792426
-16.1499177972312
-23.2382342291247
-2.82292880530734
-6.80693109986805
-5.45088095015291
2.67643992703315
-2.76359264680211
4.46987034496538
-1.09294645382984
-4.3428357107462
-2.3540898616396
-4.99267062674576
-6.04599777358393
-11.5196026454119
1.67442116074221
3.47066863253274
4.77960021181091
-12.9360188028972
8.34852065176656
10.8300954669604
1.66786698106776
-4.79945072933764
-6.73506277880167
13.2117900310233
-7.81964963446273
4.5624116281941
0.162102705039441
-0.837365763624266
0.353503639962472
5.43974333810512
20.4664484274501
6.0673492916011
0.850188938644794
-0.123389049967506
-4.19808518369785
12.6263964441994
0.823036548180834
-11.9457848010546
-0.115592827120112
-13.504003538109
3.72333231256709
-13.0955447324867
0.38440722856485
0.528659910104254
-0.737890334618239
1.09941999630344
-1.36551429285949
1.36327155265888
5.29052383872536
-7.52656871734334
-2.51029078226036
3.1560451319092
-0.868802733412822
-3.34708564192258
-1.81195434445858
6.98602190379098
6.17689372938278
6.01574758007271
4.97713996690527
5.8068734514287
1.95931375098754
3.04999607045426
-7.38829074620133
-5.23716666011606
3.34892281594274
-17.9618954423746
-14.3396922350288
-22.1207504553235
-10.5952697336876
-15.7266907699037
-9.76295522264884
-7.81698939772584
1.56533244338082
5.01824833738306
-1.1625138014169
11.6391980013115
15.7754321570273
10.5112445936778
5.29645700329084
5.06686774832278
15.6056363340847
-1.76341374065007
8.40963088715236
-0.980828401072247
3.80201772165532
6.18943528970146
4.40660029636608
-26.593851662991
-0.0552679329146542
-3.05123033201255
-3.5177046981964
-8.75797515613375
12.0665358781873
9.3004337823927
-12.1032826917847
-5.1708248525608
-5.15786061589195
1.17793169875438
-10.4524401242226
-1.14139235436051
14.2174425878941
3.6852851571648
-5.94869176077782
5.6215386675061
2.11884494209505
12.4451724010373
-0.952397993729429
-16.7728322840651
-11.1996401345304
-15.7449403844122
0.566979446824682
-10.5505943324825
0.834325659334658
0.826329269670278
2.76669731055828
-6.7805051990246
-0.831530119690265
8.00185345935702
2.92836126859756
-5.03407502334087
-1.99344102874536
3.64144866818678
-6.91072925532656
-17.5066900746949
-4.87216944256187
-10.7049086121766
-7.99101057876835
6.0117857119174
-16.8867161197776
1.6863332687589
1.52044807330821
-4.92057267905979
-1.44662621678103
-7.57397072534148
-8.73067781819442
-17.0702211645091
-3.84802340792423
-16.5946448182592
-17.8576455039125
-25.4798502875669
-17.5454990989123
-10.303894484264
-1.27570207480468
0.112811699805414
-3.23848737907007
9.86143658722112
2.74746840398132
-3.66317126657364
8.67360030527009
7.42533854181459
5.26798353910221
10.0166253794258
1.26080812508466
0.69591240356506
3.68849752427884
10.7654595891518
4.89756634503454
1.47791810198409
17.72078968433
11.432988997273
-6.12168296400124
-14.6009882977702
-8.22302586355338
4.60557942885315
-12.0319410056308
-1.52999997914438
-6.20326015221243
-8.47589801207947
-7.29151313755038
1.64334091759387
-0.405019792073114
2.11739313907261
2.68905756980265
2.27329522747418
-6.23740091548853
0.158369233924484
2.54940174416096
-13.6791509496222
-12.8335827275329
-9.12492971945831
-3.648851468875
-8.02760432477734
0.52675646977551
0.526959915991877
12.5788130368777
5.02617429877732
-0.297587643138523
14.7739719148806
2.55837236321313
-2.31296992412083
1.7661232273745
-0.33629586912657
-8.86982540380048
-23.4721126976424
-4.15628749714122
21.4428978109892
-9.53019565684224
7.98276498791919
-0.756090818939232
-6.22845022459245
3.58007427858984
-3.69738986780835
-12.3878638966368
3.7110509650937
-6.79918876780525
-7.11643632479622
-7.12885448593242
-17.4233305491187
-12.3563279611913
-10.850166298775
-6.46030275094906
3.43047928476071
-3.13561607605638
7.60731601936498
10.1701762520718
10.0059403465969
7.72217311384157
0.322367479974117
-0.332087065057136
12.5502643789019
-4.6215872883184
3.26962487967864
6.57821496071569
-11.5698633972565
14.6611787627113
8.75046099567216
-5.46888524792711
2.02556144322892
-11.9377920824603
1.78932327603365
-0.179505786175836
-5.22577500975129
8.83942840757023
-0.0865051705168026
-4.07304504333307
5.41371548329675
-4.11229600341441
-3.58326974494863
5.76144316071827
1.12733249248966
7.32727302908668
13.2784768465154
8.65477239652596
3.72063995074192
7.42739086190298
-3.41510272799363
-5.64662595059577
-20.4391469275621
-4.38648674863204
-5.20445792477094
-4.08329175564658
-2.81661451635648
0.39112373860924
0.456870636509433
9.76389088984138
1.43140003954979
3.17672053200987
2.89999138800418
-2.2521050778916
-16.1531932552695
5.00230354246384
-0.71749510227621
3.22855395610062
-9.85777282600601
1.00412897562013
-0.169461468478865
15.711702009104
11.8064550368356
7.31344559141928
7.93789597668003
-7.16587021586184
-11.6257019529488
-0.217280359027511
-2.98048909355263
-11.9704285007515
-10.6678182755103
-22.2619259746638
-5.15993207974786
-20.0346360496906
-0.352098857469798
-5.06935027185842
5.71517246042597
2.91320145411461
4.38511827556269
8.35376107005191
6.80630003651339
1.47958931978736
8.87746563347489
9.36147025006985
-2.35206665571346
2.00381148832313
3.82199956677968
1.5204899852889
-0.562504078833184
2.00761124698909
4.12422632592819
-10.048913255613
-7.91102235825645
-2.37587545397742
6.86850814016284
1.68815072850619
17.3629473342538
-1.53232966647098
-2.61307781577731
5.69900989525017
-2.6902151694419
2.18862674926688
2.98395315988725
-8.25089432667319
1.95771073689783
16.99353867256
-1.96296800857684
8.51447991306504
-1.95802387141712
11.0932643495332
-1.82117378809966
-9.19192619161851
-3.82054161260204
-9.98149272678416
4.78523731861962
1.86146113117065
0.141528236307928
0.399670422185348
0.50258477227229
2.57216660425393
-3.08408678685891
4.20842373636218
0.544401222578908
1.19181369571884
-5.50793199329212
-5.166600424571
-5.44539456797294
6.65722774401487
-16.7481340749619
-3.0839287471341
-0.772913272173695
-1.28408757121974
-9.8522959267481
-11.0617433334684
3.08657507100531
3.0645127510831
-9.12906632324743
-8.39084595922604
-0.0129860530815099
-5.67606583820143
0.312411041906873
-13.0927750856047
-11.3842774466404
-13.5899832293611
4.83455606374196
7.72769121556319
-8.9350820990558
-3.94605707063807
4.20039298716082
-4.4158401440815
18.4726171638683
3.75333667336071
0.818772535672065
2.31608479031621
13.304203761069
11.4680448237765
0.283395797558702
8.50941728063255
1.98014939355763
-2.3287853917482
2.2066446194072
1.79603503787548
-8.03371991670931
3.04276266586693
-3.81234151906082
-6.56332988305505
-1.52592435017604
-2.04413770220025
-6.88950119619375
-13.1710167896543
-15.7841993569762
3.2247823333382
-11.1114646843033
6.75711730061022
10.3079843102571
13.0222007512069
10.1195547719565
-2.44947426239531
-3.43468581952355
3.36812518639742
0.45553180191871
-13.976809075231
-6.2624400146481
-4.17042556193753
-4.98266701262387
-2.02520548246641
1.60589465339155
0.522386799757713
0.382453864345142
-6.38573556999014
-2.27843631850225
-4.81384747562959
0.109983901067397
4.12665860030647
7.35618583699839
5.99577837787178
-5.60451650714778
-0.595956373899494
-5.83861615485983
-6.68512518371066
2.09556059876675
10.2315652189443
6.1882970002954
-5.99744886447777
6.95536251905194
2.55374984777041
-6.87872844753709
-3.20504978063912
-4.05511033833135
-7.60644606348972
-24.7538430575131
-14.0621359759198
-12.2811138113333
-10.2714320329756
-9.18310180030625
-3.02870687712898
7.94469756946603
-3.59307484554441
-0.4578159807638
6.47271549472442
1.39961748441571
10.0297441008376
10.5158087143757
0.247969843554079
-5.56775424801159
-7.07368322178104
-2.67810786972391
5.21832288494658
-3.284740783128
-3.2948870271744
10.1540535509883
-5.3191321580237
-5.09529613596789
-2.37479196002422
6.372424136064
-1.88753531905771
-16.2112246413289
-0.643277404065847
-12.6781798552389
1.76469075597151
-2.55462144731827
-10.8093074573254
-0.661727880794151
-3.36116329632699
12.011321052892
23.4395914233236
3.8295629062753
-12.7126028118639
3.76873512065232
-15.8372369557054
-3.86137924702571
-13.5723343859761
-5.68776345052833
-7.96465859018975
-11.075012887504
-1.13394859130291
1.87868140592909
0.568255802045238
0.482756648743644
-9.90394147528215
2.56726119362798
9.37795414853019
1.23048509913741
10.1258931028827
-1.88052277286214
2.84952376429756
9.86936313547131
10.9870418907094
-13.7046465447578
-12.9995193558668
-13.0545098073227
3.39730866453877
-3.95104558044345
3.68505017618125
8.33982966345802
-1.24112264551041
2.17932569164573
2.96735621604172
-3.29572594114272
-0.357813463559799
-9.53423313066652
-17.4404914331263
-5.20916841731503
8.59606012652144
1.97014726120597
-14.6778223527149
3.69243939158232
-0.910834550979947
-4.58763939438584
-9.94515495081033
6.98010589977064
3.26519841003859
-1.24633339902073
-6.94763539651907
0.584897988669
-8.26978765380743
-8.88025323766792
-9.33827157923125
-10.3332867496539
-2.9508247661234
-13.7373060474104
-18.4326208907754
-0.887428066096226
-5.57906119350429
-5.11469083403984
5.50714387401368
3.20242177266276
-0.44943785987107
2.92351448793156
-8.15878984369831
7.05222018592686
-11.9497618480165
-3.93725229091042
16.9748695792933
-2.38062647034071
7.17504585222376
-3.10950645257446
8.33870142121706
-16.6517686260754
-5.07382580643893
-4.14817974420813
-5.90485982715113
-2.92194050239719
-5.86056804419909
-13.2557025348208
-6.67689222957341
-2.22695152480049
0.417427932434748
0.566321545825609
-9.44172927455683
-0.30303322376866
7.52641390228018
-3.86943104623912
-0.895175726868305
1.05805090895858
-2.05488601115787
-10.6482874311688
10.3840450272811
-9.61069957722582
-14.8689214287256
-12.4935669959989
2.1047794645373
-13.7733816530608
-6.31858957033638
5.9119420069061
-8.05861409246866
3.0581090059277
11.3447959488741
6.58684311935678
-4.06183297841031
-7.39597300550762
-19.3403676175391
9.04839391736707
5.24976195178495
-2.54384556145343
5.70136314223071
4.65742192136003
-7.85697301673063
-13.0593513313998
10.0698320977677
3.65888494148501
7.21053634385427
-3.93967070374062
1.60982024010704
-1.15612853775784
-3.67984519461765
-15.4376123230122
-7.46859797565719
-10.6371956824055
-21.9962265943669
-7.98970855018274
-5.84584548505506
-13.3407491542573
-1.08625808891843
-7.39549744226129
-10.7226650749713
-9.65998366113919
-1.8876997320296
-10.0953336640598
-9.08351844470931
5.87131902678183
1.79083438881208
10.1816170872221
-2.41257142105124
10.8820950831636
-1.82813608049104
0.089504359244629
-4.2361300766201
-6.01097094295824
-13.4096023220233
-14.1078601888417
-4.49344835069587
-12.5278257511602
-9.4073487614619
-11.832235970408
2.20314008928392
-3.85251596271073
0.395195327809998
0.286593349040266
2.31912061730516
-3.01020767760802
-7.83658148304539
1.67655981227534
8.03889765296026
3.20753484985412
-0.0986226697422589
-11.0655075301049
16.3814604435441
-7.42749659934749
-1.25490457614851
1.26652668811179
-5.65635350902957
-8.19779550277461
-2.17346651045257
6.51617894403863
-0.189974223191152
4.6288110789685
0.676892858342427
8.24786828936904
1.46932086739321
-23.7291742284023
-3.60609589277799
-5.65010861303632
4.16210587631613
-7.55959658605119
-12.4589487666437
-16.6220260237812
-4.12789369906388
9.24268969444329
10.4656258677336
-5.72695855031389
-1.05442926120617
15.8108529225608
-5.14041808833889
10.0944730826645
-5.69626768802234
-18.9553382303605
-22.6792416024428
-6.52444892962169
-10.7495859270236
-5.874493844542
-21.9860465226482
-10.1133041998664
-13.0820650087985
-1.87674572864661
-14.2309574579711
-3.83860823013568
-14.0042468713838
3.08326944239871
0.0713715527899581
4.90246999702897
-0.934004501158378
10.3495911888719
11.4468396403268
13.1737067120255
8.25701301192691
4.95428255444399
8.25467039227544
-3.68902470448033
4.38557660735343
-0.837064618022927
-3.52702637982693
-2.27857332670573
-1.92775468063669
-6.43954420231507
1.78253380498717
2.1306502029112
0.494488851100199
0.387797691876803
-0.216200792258281
-7.65117163693814
-18.6266155021595
-5.07040506408826
6.65722702141852
5.29859589916256
-1.49357120531364
-1.2486649614638
-7.35070672401793
7.72935064659937
1.18066559041168
12.2258712145294
-9.89654490033616
-18.6878502836144
-5.84411807276478
11.2644840422727
4.54504188017146
-1.74766455982686
-3.76804918228176
4.74140021899708
-10.0981792218277
-8.81654753982454
-6.42394349203791
-7.81430581243484
-13.461644567713
-7.11939345555203
14.6153430431551
-2.23082940185789
2.0798618858509
8.42035613927994
12.1310455792606
6.71748870555084
8.05992261924753
-5.0042502061785
-4.41110461009704
4.97005388585554
-10.2025195805781
-23.9775770860423
-23.8273991897216
-21.2882195722162
-15.5546391083303
-8.91190116884359
-22.1390648803906
-11.0399609973092
-11.1861652265937
-21.0066483628306
-4.88566189785412
-13.4488005656188
-6.52599037287941
3.64808018798355
4.05482836036556
10.7138552489918
0.991151997751704
10.5788784719967
1.88863558544807
-3.27465274572002
5.44054992039774
-8.74300061385168
10.3245374196997
3.39940249360232
-7.80909763929222
0.328479203308503
1.69763453744928
-4.19133352018229
-11.6298739663443
-4.73152644685047
-3.01635835786644
2.71076374516668
0.210944726676379
0.452435945046414
4.21193303942713
-0.175742815599308
-7.85354659419324
-4.36343123489601
6.03027615354854
4.63539304075211
9.60729837839951
-1.21218880645206
2.17541911694075
-7.95470861422943
7.80540410603931
0.851594221281646
-2.00928543328319
-16.2610265463719
-17.6168063849148
14.0159817306533
7.95161144082359
-4.25423829313731
-8.26537685430246
-17.3540035683024
-1.83082113005712
-5.07269238281241
-11.12691808261
3.26360588823784
9.56045761028625
6.9392589211352
13.1864885124936
17.7105604127446
-0.0457811817412251
9.28702096507553
2.11986127182449
11.2387217695328
-2.65348293231441
-5.84192483663846
-15.0556618062811
1.59077834202617
-11.0951392192858
-28.3124187266738
-16.28595302823
-8.40444929886958
-21.6260423110419
0.829053612488197
-8.45718282358907
3.83618610870174
-14.9130466036621
-10.3790984688694
-12.5814061257218
-0.636883458166933
-5.4910892189498
10.8082563946024
17.2637640147648
9.62309511810533
3.20445216744607
0.374260332375374
3.54381948841232
11.3644746209652
0.486915843184073
-5.48138384198796
-6.22706960048969
-15.5614798543998
-6.89422754538954
-7.99809350341714
-16.3088112643206
-11.2195958994479
-9.86122843097177
-6.40016171024349
-9.0824082611858
6.07539458284204
0.582835039871376
0.812414074830661
0.175548577854347
5.23729049069061
-11.8779041831063
-5.13773931931027
10.1007855776948
-3.09296919435128
8.50481396593781
-5.48685580735331
-0.417937134396398
-4.74902490394233
-6.26145609447361
-8.36853354006965
2.12038883610021
-10.8387970291916
-2.92723341266771
-9.79610902826278
-4.57817922492771
-10.067886623987
8.76893099170639
-0.33981817093792
0.211985562948383
-5.10126385772422
-4.13085384657942
-13.1315055259795
2.7778310332915
11.0944704842927
17.707589483547
4.04686291684667
-6.13257935006011
4.93071389490829
2.45182587712599
-5.61492572138032
4.41552242353182
-5.08126761824503
-6.29601238542634
7.28505357932175
-3.35227922919429
4.77179305014919
12.4386019574064
3.52743397849377
12.9544940342222
-3.48497377734757
-1.76028952709375
0.644538326156126
-8.43703140466106
0.581948275959626
2.53830224199286
8.17896859674873
6.2703633000673
7.72457833063079
-2.35891722839094
20.8478048450407
11.9426135589729
3.90646732936164
3.16072288290969
5.8216007472482
10.4883292914183
7.44555038449451
6.14869340542687
0.0853481927098922
6.86429712596564
1.98538916575554
-0.508337513828375
-3.76235364132584
1.82268610769379
-7.60862190504217
0.60946757158681
2.60585815451551
0.58060117476462
0.28204826302295
-2.19656569868114
3.23567138774175
-7.2603440126286
-0.963822491258522
2.19937465361721
-0.801892410239515
-3.55575329478539
15.5946906733443
10.3786704176041
-12.6211474257429
-3.09471002975176
0.027342729125667
3.30614900848934
-6.64320575675201
0.534649707100658
-11.3817443599885
-9.64841818210586
-7.08022168915661
-1.78403578576586
15.1114479011026
2.15059694870008
5.76993627610507
7.49332735639308
9.25980726433576
-2.44648266075782
18.1888082820203
10.6595752635282
-1.63551370486986
13.2115245845846
7.79111205134303
1.38950117572925
4.87774749209058
3.45065449806933
5.86982632522757
20.1846280337473
-1.63757325316759
20.7654111580783
12.1370996084193
17.0150048504989
0.761738652546505
4.47063548114874
0.158283937705531
-1.10744231158588
5.00911831132698
5.13319203818207
-4.31843628313441
8.31528022777814
18.9188814367534
4.67233517651538
-3.88430411823398
14.4642510565579
12.8593775845243
-2.79244506149164
11.6725624312612
-2.34321900027105
16.8555896782642
1.34797218135467
-0.140747460255325
3.38283910764714
-12.210084293309
-0.396110084362169
-3.12370781697132
6.61368193833588
6.31788993904916
6.1335334193717
-13.7578487524787
2.79010178918191
2.48756678048121
0.378067129214498
0.621688196044347
-1.03112102998891
-12.7794020978583
-8.50196091617813
7.57043300050584
-2.02378430167813
3.36527623235585
-11.9294432246488
1.28227378981954
1.03902501548388
11.983773090492
-0.565226242069259
14.515740862024
8.27373711725653
-10.3635564952494
-0.97264820573445
-3.56767070022658
-10.3420071760928
-0.130751795953188
10.958406109149
-7.29436539521573
5.27766664948979
-0.759370843134209
-12.6982359151885
-0.253195602315316
-5.69395120791052
12.4917335549928
11.0884658403526
8.90045834313342
6.86540472606366
-5.12686639258814
-7.40949388236913
-1.66435825553418
3.27170690074874
6.51584107930038
15.9038210354022
6.80698325717062
13.2761856636292
1.90723402089267
6.72004544109064
1.50626241304562
16.3905389123112
3.20261886216194
9.4038920660574
-3.07807628923618
24.4047232436364
6.87142556076275
-5.51723064096342
3.36529114032824
10.8940268666814
4.55694156761379
5.83407665018224
-1.40837586580511
3.3964122389878
3.41949476046288
-1.20162126082924
-0.0920917156686683
-0.0416717378773008
-7.50979928048035
-9.45525040615622
0.922471991035951
1.68954132643768
-2.60938926046449
-4.19807854114192
5.79039769899583
4.62702765421298
0.745251343616875
12.5492552551082
-5.59407328454602
0.431575751802865
0.474482079418921
2.48906401428753
-2.80538946146706
3.31510118679136
8.39615846590657
1.48639572191784
10.58572838765
-11.0320636972558
-5.83908167658553
3.41323766853564
0.563466525583871
7.49631390451589
-2.63615653321921
-3.01522201221406
4.13868424358672
-4.413269061
-8.31938986893785
7.20727860126508
-7.54743177566207
-6.7582660711565
-8.21895844183645
-6.49838226689663
-7.26476280553869
-14.6342554667954
-4.20229216595344
-8.08010819393261
6.94223108851448
5.65744268598814
5.02792991531328
15.5093322103794
9.35854724550612
3.85365295332414
-0.268747226163175
1.45619615532063
10.4894529340107
16.9267632925791
-3.00871140560183
18.7349314020091
-5.95752654379661
-4.61987357105014
-1.03867486223605
9.3165131200118
16.8978567270789
3.04571399849034
17.6307013816272
14.6667798956612
5.81912741238593
7.66807794956825
6.03836030828253
-4.14308251726834
7.08824394245155
0.170672880733738
3.68739965216837
4.29165284459729
12.6746077942885
9.78540442091433
-2.40935515577514
-9.86355590460895
-1.20610220842724
7.45958887371076
0.520186907781922
6.17833433948678
5.05501045206494
-10.7899995386474
-5.05456608856243
0.940415017821518
-11.7335593049177
3.65519124770626
-9.6250658655478
0.544072186507492
0.414165816397822
-6.03709553477523
-5.29368137295242
-1.54271502349031
10.1689400080941
0.780054581650927
8.56336484286316
-0.361918630075435
-9.14563619185018
4.30166316554671
-7.62055191551348
2.00900674755091
8.32602392637205
8.89882283520788
-2.77175246039642
-7.04923618857158
-1.54343759125327
-6.2838046929686
-9.04355682773451
1.85712161132544
15.6691315416883
-7.14026245427204
-12.3053859304351
-19.2362787221525
-7.42055361973565
5.52201328763946
0.967005596505226
-1.16048884524802
7.06508345251351
-3.0867002095911
10.1125683095784
-1.40999065395828
0.82381342535022
12.79581506854
8.68149107404261
4.47166380197919
14.9476988214282
6.96173738732494
5.73450087849497
6.01140799493013
-6.286291958096
7.66775138256124
4.43910513837111
-2.07245172016651
-4.45082740769034
-4.04498378365547
5.13536785575275
-1.16040639781557
-3.79471461527071
-0.856291301386839
-18.2658450274886
-7.90187500011197
-0.655894433155224
2.04682926307808
-3.41995561674429
-1.41238884682071
-6.05095229940916
-5.13823658995328
-4.70111449159737
-7.60739130667819
-8.53365566779077
-1.2629589801485
-4.66588186860165
-1.07545862977819
-4.65017977506939
-23.2925816363566
-4.08568499720107
-10.5639607905383
-15.5089278582808
0.410345983275158
0.600927640945534
6.17419432775339
-2.21086001002126
-8.54375148013879
-4.60967771883198
4.49448720414885
6.41305840162562
-6.17389768386263
6.0351813622904
5.68176717276854
6.59730183773292
-11.4409562261119
0.300336928548355
6.62180138669451
-9.99778779793716
2.19772469387152
11.5984648273691
9.18968537609225
-7.77644452545288
-1.92599408886792
2.60230822053474
-2.73397040108967
-3.80788456423114
1.45847876517854
-4.55107992525773
-11.8279154149199
-6.55752542751327
-9.13280668914018
-13.2121448206833
-17.6641632779769
-1.96000353981768
11.0957589038417
6.0638346348003
-1.11063681395119
10.7147114916602
13.1831169714915
4.11692892930432
-0.846004333859646
16.906999813114
19.2366785112859
10.0774556094871
13.8772400737444
11.7988103890192
2.4216213136072
-2.44763847307537
1.22750357109894
0.373974524465979
-0.35998666924188
8.12105566122397
-1.85845314943424
1.38179276295358
-4.72863527509726
7.925847858886
3.84722449498958
-1.59873098582773
-11.7160400362034
6.35001259421805
-13.1864022615146
-17.6659231299373
-23.3876791289008
0.452744318522228
-7.19401658242142
-5.62224487789808
1.17745620533996
2.83991357986076
-18.5475213659712
-8.86255680565801
-6.31103808142971
-8.86923443968611
0.373844211852061
0.420191292699789
-3.44429653459401
5.10728782384873
-6.61330659279892
-2.24185798241213
-3.73128728868153
7.6373903304256
-15.3356988390255
-2.35629783342485
6.56325331484742
-0.840090422896543
-1.82827916372336
13.7529830171244
4.67074092789083
-0.487360758250743
-5.43337595527287
-6.39357855589388
4.35138276588159
1.13150000091266
-1.4574902759972
4.17275541915609
-9.31881968847692
-4.94823582276221
-9.75853555840945
-10.1593939606851
-5.09236686315692
-11.9348442647734
-9.43712662404586
-16.9581051423276
-10.2093370726276
5.45319720274385
4.69124231246347
2.76147074099221
0.172695630399242
11.4114346466275
22.4480872661102
9.45678758970572
2.98700630102275
-0.395655050509556
0.486243041636762
-0.753962161396916
4.08365004534428
6.1696814917397
-6.29389899856315
-5.91471559519366
-12.0060211234439
-10.1615542690316
-14.9641117571486
-0.370149977057425
-4.45266698460024
6.03841073705456
4.88348135634554
7.10541632346611
-1.1740430041547
0.83694198409685
-11.7915076049957
16.353312447995
-2.34095967749189
-4.02705072439459
-3.68209444686325
-3.50634074390339
-0.300098412680836
4.48677240907245
4.93800184978945
2.11576443323555
-0.42065415396498
-8.88002827349536
-8.88555856986175
-5.26916868889895
0.569948705034662
0.493086928924106
-3.49968332514603
4.19518437165024
2.14610526578932
0.140410256470045
-0.337426187253928
-1.09107338950775
1.59055578700344
0.696802323604818
1.83306521813549
-2.79762345394744
-12.5189620006082
5.34868414814433
11.6167511321474
10.5377590604659
-7.53267911601017
8.98902847367143
1.36009474587923
-5.73393225467937
-5.54736474798074
0.83507506675487
-4.02154694376166
7.50192905360484
5.65817739879625
6.12750961777227
-1.20521201765347
1.47940313538719
-7.87228331174432
-2.04548872222956
-2.29320639946739
-5.63424074638641
-2.89640252214967
-0.251684798958908
6.10651849310061
-10.8554328501888
-6.24187783959768
7.26393965141218
3.35107299526292
5.85032606001219
9.26267299803483
5.96522280825801
4.51858567296984
-2.2815110093354
2.52339808981463
1.28278719519807
-4.63917673881001
-3.5538080915183
17.2096082529094
8.35218896897217
-1.80049796687673
-7.35511348970246
0.00484947805365277
-0.161499741433442
-16.8974912442287
-12.828009230551
2.81969505398048
-0.94734467542003
-4.69525352489505
-6.55774783280465
-13.7406527591282
-12.6197680515375
-3.01700352934412
3.72290191418816
-9.92619217786853
-4.87566338042042
11.4087185397347
7.40602158192657
-10.6211294772484
-10.6723263349755
0.575803684363501
0.456036331999182
5.66540527331936
-3.01335237924682
4.38009293912424
-2.13593774867008
2.87776232021234
5.98120378485009
-3.12908764732736
5.76539299311074
-3.2414450911249
2.89443798750953
-7.17793349047034
10.8602432037884
1.83865458958633
3.04278284818453
16.4907081841866
-2.17620405842472
-4.65029226734445
-9.02370602294276
16.2740065852939
14.2384964661998
-4.19539691843023
-0.395787050627596
1.31620565679357
-3.91712879763176
5.86714623509251
10.1402950072393
9.53576186793195
3.85893659704876
12.5039481206642
6.96278842700627
-13.2826823730788
-1.87092507818343
-0.703190339325251
-2.86993140894451
3.71539816794097
7.36007070197318
0.925305277959237
19.393752787633
-2.21717066269759
-1.32379664813631
-12.2115242209948
-14.0968698766584
-7.49223323557188
-1.05420211579642
5.8370591264624
8.76822470429269
7.22034851627351
1.95344556245449
-3.55998964275554
8.86598498066574
12.9320472839995
-8.74291334994508
8.70928616116626
-1.46921395040976
9.17521084165256
0.0250349951885525
-3.18258400838927
-5.5239291917975
-8.07266662532911
-7.45375373253558
-5.76973361431008
11.2494937193117
12.2503374081519
10.3675998691785
-4.03899641433248
-6.11080915709242
-11.1219098837363
-1.24552968194044
0.429478368577374
0.665785552383094
-2.80372527597785
2.07444443261151
1.22159281010473
0.988579903434693
8.18814496021707
-4.64461784906551
-4.83131245729927
-9.84142463517665
-8.81732832676416
-2.23620589729413
-0.144299502106971
2.44471902023738
-9.92288667887314
-0.775130387090825
-6.46734287497806
2.71215282250088
-3.95025842682568
2.7039759576834
10.0128865722098
10.121134355857
6.61502145392313
2.89033861775439
-4.68537350185238
9.81756300845183
3.74974114174806
-1.51167157542513
-0.284536285912617
0.667686836344694
-10.9943300658768
-0.166298420083358
-7.50078690372289
6.33410090248
-3.36448900523129
-6.01635268212547
-5.10733334996873
5.3779191606025
-5.33628083108795
-3.86187310172659
0.0103703494806395
-1.54561962719518
-0.941521639813321
0.622989705872556
0.944799529170842
8.3167630504313
-0.0409630606484463
0.383538374246483
8.65667994307836
0.939566569112216
-1.17224350340747
-9.64723072996004
-3.1957198445745
9.46836797197041
2.22127056460274
-10.3518459231934
-15.6095324383202
-14.7596930725027
0.601894437538748
8.54314692311514
-20.298214242906
-16.6692741217181
-12.0812783914399
5.19334458560493
12.3653268234004
5.3179368287649
-12.1496484597023
-20.0494534466753
-0.540792485450939
-7.4623983920379
0.749375303057339
0.4863380324406
-2.54773551032186
4.00393278931299
-0.793332365554441
6.38829554052541
-4.48497279108976
-0.539388658848234
6.03301215292908
-3.38401435877064
1.70561109189842
1.3618123721522
4.50432145108535
-0.850994978677542
1.19213469737493
-3.68357520032327
9.89613091388851
-10.6393563511164
-2.18893369984067
5.33927257005289
7.50659764480049
13.4825492111436
3.25673501745766
3.43467908499155
-0.0175078447306353
-0.238955655572386
7.73799809300588
3.74817576539081
2.74787242607778
11.9046670677465
1.53965356021175
8.5518809939495
-14.9341728452441
-7.10490545244679
-0.626420864953976
15.730383255869
6.50065764659344
-2.03985858475926
-1.97650947363324
6.98554488978009
2.58085391025155
8.53639178908678
3.65202082824435
15.5748433102784
-0.717564472053098
0.0132194974183096
-10.0313882442296
-2.47501481358563
-4.41389590129612
-1.14335525726293
-9.16013603908148
-5.19660963234763
-1.96798404830719
5.56887031945829
-1.95162422678573
-6.86045123483035
-9.04460365607401
-6.69324421988483
-5.36886290280111
4.55976806802088
-4.02769360552373
-6.82590697903978
0.147234105814493
-2.98570665708895
20.6056889329169
8.58479349392083
-8.21495334161215
2.26229137206451
-5.11300995224987
2.71283650853281
0.472866030156693
0.513564243926471
3.27985174487621
6.30381802258072
5.63108212417737
10.0192065913879
9.05235395810266
-1.19496089419358
7.02919783832959
-5.20625917409914
0.563021150327474
8.89058846125713
-2.76153445548687
3.51164200528065
1.81798078351089
8.47408850175806
-0.613198324102684
2.86437116939276
5.02181045239501
-4.29317720380028
0.826378578866971
5.36211685000591
-0.964671614340878
1.58124170813833
1.79999124014794
1.5660347696711
1.17146959782983
5.20677093458568
3.76770278644888
5.2549758069278
0.968234509862615
-9.54043665793263
-9.58578370847305
1.0123439503591
3.02466941726757
9.6409972623289
3.28724132002042
2.47057408922343
-1.05218251560809
4.22883458581103
17.7031774926449
8.75091019287207
16.437433052998
1.26170934307273
-3.45606427845984
-1.72414773075798
-1.94782488120982
-0.604391030711173
-2.32474954039721
-9.87449247872613
-3.60723648436836
-1.53958902034471
-9.26159402516095
1.67022936644598
-2.05522317304249
-7.07234188811862
-0.723465156960326
-12.4284270984152
-5.86202480780759
10.2089339617974
0.275625751819993
2.15564601275566
-4.74820356163557
-3.83699192720448
5.32948307364752
-5.38166174129313
-9.42586152034784
-2.4573853159555
-13.2300949876758
1.59937685291776
0.460153773453628
0.494959382574275
-2.48574434645818
5.3078882192912
-5.58175341827999
3.34592463969771
9.00995539779752
1.42534487156374
4.19051095810481
-11.6918525575088
-3.07559726088801
2.83064935669496
1.83655505502642
-13.6452575866896
3.01582027680073
2.8600396366523
-0.479996365460647
6.02981817020987
-2.03385556252146
-2.34609073999865
1.70983385692269
-4.64187132382026
-15.3892544893904
-10.6941144307468
-4.16776222929819
-1.88382104952223
3.37492977782314
-1.63046988695513
-11.3367360662992
-8.43862538231712
14.5866958033466
9.10197898632182
2.72334424210462
-0.414633376349987
2.31977224416519
2.18028730429271
15.8817340379975
13.7923480858144
4.60544735829025
2.43112135728783
4.54262702283004
6.40931826016026
3.77766081342591
-2.11666479827146
-10.4239180033223
-8.21530610819613
-1.37335090834488
-2.83498301912835
-2.31549342490401
1.79418381049284
4.22026729291517
-6.85376914931363
-7.54079125577767
-8.22115587140775
-1.05002559221272
-8.2443218744039
-7.17730020310701
5.30975710698934
-3.9491311412876
2.90847031021212
1.15830562010556
-1.86266664904024
-3.99334617679453
0.511762121911743
-0.31599186991997
7.09551799189333
-5.59740187544583
-7.16758613366634
-9.59761403288543
-3.93998645647219
0.584781207520589
0.541876864493621
0.0740255185902006
-6.08776480319705
-8.87687997311088
3.9007963554162
14.3927644760787
0.574521167860428
-6.29462156550677
-10.1212262584526
-5.84214702812118
2.51217366999704
5.72846282104805
11.8871881415488
9.18825783284299
-0.657505859125068
3.5887723561031
3.97707292447715
7.98475234317171
0.998654257172841
6.54063030726459
2.09439920668254
4.71165581423377
-0.197952815615484
10.5244991769115
-1.62885630957395
-12.0126751852204
3.06002117808958
0.692836854070733
6.64139547149537
1.94025023189398
-6.69228642959886
1.40351973067866
-6.02985953688743
-3.27604553199448
-5.09585271853772
4.61652437704404
1.70662554394959
-1.00169980562908
4.74319357749652
-7.28241511027073
5.12683141109596
15.4984521976367
-6.79890438449042
5.13549290348326
1.34240263083244
2.75787326183496
-6.0495480002087
-7.25397035493444
1.9491572900912
-4.24449005069462
-11.0822496916974
0.378652745028883
4.9131757702616
4.62163720536857
5.6047175091738
-7.58709393063084
-9.07327582412055
-9.68064674513851
-2.65525474689392
0.999912728028117
10.6562503519455
-4.57371763569974
5.78002602201239
-3.70990878622345
-5.81954585663009
2.16756256754406
-4.05357658125179
-12.2106213721385
-0.0886676996717336
0.536907097083309
0.525328621541209
3.84038538851306
8.88792830982265
0.0816077742149043
-1.99943126261017
-3.09362457630027
-2.83773848975211
-1.1315377646039
1.63741070243175
-1.82179445323318
0.87418154267717
7.91252026733755
6.28198614619041
2.18841085922384
-5.3475632183762
1.00735196365612
7.10352205043079
13.6703159111318
2.46943043566886
-4.6786309469856
1.85869533025994
2.58322946820378
-8.90702473270753
-0.962943444125097
10.4981350572873
10.4443426548696
0.754614309249609
-7.62728529130756
7.43018737137263
9.72834566232349
11.6365001133444
-3.62119399646809
5.28046886332556
7.8416747371052
9.98294952233224
0.408940272461182
-10.3353704844646
10.0332034106836
3.34299276809269
6.35372048073303
6.4574187952392
2.43930379621321
3.5770837269372
-4.90023318370583
-3.4656847129004
2.56470427761486
-8.86147483103554
-5.14820711106031
-3.59124538328855
-2.16443966022644
-9.8489058286467
0.70498432961019
2.97764175128711
-0.368637021120745
-1.49129339269197
-10.7135362404448
5.19146456960212
2.00294746326171
10.0227071005729
-2.12299183062548
11.2498860499059
10.0163897440068
2.67734504756149
6.70691340866957
-4.05468373680208
-7.13949477464751
-7.74062059704579
3.36160472987079
-8.47372800018737
0.552670478496915
0.545702795778296
4.34286366525598
-0.0440351974457626
-0.296854072279871
0.518938252021388
0.0487575928569531
-8.84284073392735
-2.36766531696826
-5.62644825296639
2.23443307382624
-8.38741724082442
6.02460996358675
3.19605728281234
3.13831798097408
-0.42471323233469
-6.68403302648003
5.43238988664833
10.0826488117407
1.60281974026274
0.0161895954400415
1.63899399574167
4.2455706995895
1.60867381213904
-5.16656028646206
1.31904796621713
-0.832844550605702
2.30157868268629
-12.2048520081483
4.92515632480588
2.76406119233387
8.7165718845921
2.86187209343768
-3.85298646901573
3.66847052132365
2.81667584524348
-0.527589148415468
-8.54233026847664
-5.96331742395805
6.3551707747304
12.6551568032799
5.80638700485961
0.617188376117825
-1.9385335676501
8.122355436861
7.54271276924888
4.16465663677018
10.9731954737701
6.58026293448344
15.6973993549009
7.97964375882297
-2.20946905214146
8.60370798156199
0.533767794272942
-6.87527442790289
-3.51919865985101
-9.09231456079614
-5.83485046671915
8.40203280514109
5.97956092226681
-5.64995684001414
1.33972216196707
13.4043601107509
-0.805339857508409
5.03402192485646
12.0583751040443
-4.74880255167547
7.64455926032303
-3.71271716372841
-2.32415769473724
0.618927218324769
0.249637596397377
7.57636666394637
1.76391429593822
-5.56114355842102
-2.82481039269766
-5.11799706140256
-17.9736188142591
-2.07407951398433
-1.58053788321292
-3.91700187992233
-3.8155107692815
-8.95642974458842
-5.66234051510018
13.0215938127992
-3.80064309362573
-8.08484294250348
-0.83232822520609
-0.63346520399437
-2.11116720983629
5.96107853737246
3.32623386636438
13.0862158870377
8.8538314673606
-1.21379065867544
-4.6444928265156
-5.24062020112721
1.9933886413226
8.43964823497451
11.0190413063467
5.28784641053954
-1.55868964730785
-3.63628412670722
5.25181940588649
4.48999010655896
0.721800805090763
3.69755323764374
-0.389343200805696
-4.42759130774091
-7.38388154433163
-8.77269865872785
-7.95198493937307
-5.92772971070508
-6.76531799555044
-2.67701772846283
-7.68347654609804
-3.36636459430203
-5.89558183286098
-12.1593034141826
-9.24286105168561
-7.96765968111168
-16.7147547028198
-10.9436928135589
-5.30796404858138
-4.88062299729539
-3.90261698281803
-8.88252741223133
-3.08043247449254
-7.33960855869736
11.4637138488672
-5.88496879914772
-3.75988327456486
12.6442444952715
-0.793728443864453
6.27781979794122
0.194701226732419
-5.41831290023021
0.479243661478772
-2.58158771920868
-3.08247094136604
0.614621026176691
0.481324334971753
-2.48941650550671
-1.14202133478805
-1.47037217999366
5.16599922419855
11.9313593020286
-9.65236661889223
-4.0254877767977
-2.83793486975412
2.1616072261971
3.85211327224283
2.9297547654823
-1.96094499141451
1.25601166806101
-5.53587842643344
6.90004846869492
9.64448355944097
1.53266479192731
2.82318847761237
3.70442450953778
8.77236704861752
-1.56352215635667
-0.580154778689547
5.20456143630735
5.30365502339571
4.04808862264617
1.28031105058518
4.36405547070206
1.40562668140074
-9.1373527198288
9.35152741093563
4.98627140778434
-10.0590745230072
-5.46325815881641
-8.30104005392506
-3.29783346760182
1.31797229456577
-10.5051336123744
-2.07531571356346
2.67263430244691
2.21983989391828
6.22270255953562
-0.635032561548804
1.40718726645951
-1.58354628253812
4.88228111530208
4.03599515753659
2.15849576704657
2.6446762154001
9.09257253565418
1.29524822365244
-0.306163034340755
-4.1455338678222
-8.10902045558414
1.35651691850036
-2.15521188529348
-2.31781909791226
-8.89168764998144
-0.72183288755012
-14.7514350109514
-12.5732931066575
-0.673742374806335
-1.68589876212036
1.87063411565532
-0.088713385826162
-0.720956099372463
-4.09879095257627
2.13616456352507
-3.39757026677919
0.297266897478194
0.44112524016766
0.404219410076104
0.523835165987493
0.459811495463138
0.482031196887704
0.479616688780997
0.39135615755866
0.48099412390364
0.513027035443539
0.502659200694526
0.578346012550263
0.348096486177499
0.587718468466054
0.643640680710681
0.340257767090756
0.402220738085364
0.428997726258097
0.506462026655764
0.632769009572572
0.379941829836571
0.428413088863852
0.541818177424558
0.618554242185772
0.532916742574159
0.484024796415608
0.278355302900152
0.652116608737807
0.516959423656732
0.405298777197554
0.612593776441419
0.173899516343906
0.369177429318052
0.458945347594776
0.660295801136835
0.65590004912515
0.626679880479699
0.379758760537479
0.401351359617857
0.590093938591875
0.174592319324412
0.378895261612627
0.387666150064789
0.537729177713263
0.427630931733864
0.440187740917264
0.735654272848997
0.277348731073555
0.605691144548685
0.676002503401043
0.407170007067178
0.240880265958992
0.709995663182056
0.464238858058054
0.197601825917452
0.420844962192538
0.452466841290119
0.68076599901241
0.326680397883341
0.462014961341259
0.767972942894172
0.473693657600759
0.236252466338113
0.470100260985194
0.372869155916352
0.383035786317147
0.556905758456415
0.44040575746008
0.525537883016666
0.319917502707145
0.353495415683356
