30.0666521309814
0.523919987831973
0.920626841973007
0.419083910925576
0.707528248214507
0.830736675807462
0.812906102376015
0.490910667988272
0.391254942679583
0.916956304689785
0.836901149584742
0.669262033182592
0.598491525105572
0.402828227441738
0.671352159138301
0.703213181256098
0.215648009836343
0.848283006314404
0.628675237741913
0.118755890538074
0.365296516090321
0.841657051327867
0.0550453626037396
0.11883952574647
0.838144448265127
0.89469960104155
0.131492834440356
0.168557817795995
0.468120993820579
0.0594594125762431
0.198617144596346
0.307251603696245
0.120557593407274
0.455905668489482
0.18353332854131
0.304095953632269
0.765642383702309
0.448033924516582
0.397791759821094
0.387481227561871
0.922037014355349
0.118477891395325
0.766327387385244
0.817467366015443
0.0277457300489279
0.805250452065225
0.840797361674812
0.564226145157043
0.572273226672306
0.162950923284658
0.506683711925029
0.545705794359572
0.023158405054019
0.856497335275324
0.276863289588518
0.750373657236056
0.386040559493322
0.577766207164883
0.877868049423895
0.879847859487216
0.544883095426953
0.492989680474602
0.0824393320074379
0.367578521239225
0.259889338106104
0.308649017450077
0.0460002203354606
0.589135959424342
0.242087913077335
0.405221879046162
0.928441184172557
0.0851082219984999
80.9364395762007
-19.9221022940046
-119.34890054766
-99.4691284713772
-99.1025074077368
-119.508170752048
-99.2473061386815
-79.8864610020922
-99.5081409123833
0.0761120724722559
20.3262481388743
-79.074160085633
-39.3098723905669
-119.80089340688
0.862876696222486
-59.0671400604662
0.816782740874515
-139.725645141744
-159.948378282824
20.6115516436591
80.4449385183249
-39.3483969720497
-19.4525789702402
40.0443781990233
60.4852838736286
-39.5206728878341
-179.902211632798
-19.6640383270293
-59.2437488744413
-119.688758474756
40.129036708248
40.8377359139419
-19.7291718059737
-79.9436998034373
-39.8480401879586
-39.6268162303859
-39.6573465440458
-19.6616171396736
-59.6825415645993
40.5936076199302
-39.1354340521008
-39.4478000957097
-19.6348995854932
-79.5276878839674
40.4814539542622
-79.8235276800084
-19.4506780083663
-39.4265558407044
140.324292208957
-59.8678712549657
-39.7953674589709
-59.5719529467548
-19.3289636471704
-19.8500657188038
-19.4990453216919
-159.153849122126
-119.959006622017
60.3212481769528
0.127769401017332
20.8634250402695
20.9692202241717
120.468912216262
160.113337029574
120.207389144627
160.422252342629
120.82033671545
-19.8929977767894
-179.332580704125
0.828514562390392
0.382116260434866
-59.7735488492631
80.756458691151
0.637041332302168
-19.1320805823993
20.8805632566192
-39.672645115356
40.1252759484663
20.3556701046039
-19.9146280295445
-19.1528729154583
40.58123767417
0.196797090363418
100.167557450946
20.3389541240855
0.382713959506006
20.3424981281738
60.8668448865114
-39.8103126075663
0.781893362869994
-39.9621198661008
-39.4029579272882
-19.2016274302322
0.316675728678717
20.4529938965122
-59.7125876575475
-39.8754742419736
60.2853497346267
-39.3006173788693
-19.4072421413026
40.6811519118164
100.527427021716
-19.9835575557573
0.135345350635276
-59.5409518182586
-19.1208465421552
-59.0586219182313
-99.8278401777889
-139.580418227636
-39.6183096365993
-139.449119635574
40.0806335241618
0.775783049062305
-39.2636635373743
-19.3564242867624
-59.7286517079943
-139.175472014066
-119.279552111525
60.4592723747978
-19.04478313492
-79.3670071607059
-59.4625308968923
20.8528828840058
-59.1055377392875
40.176591637833
-19.6006978599925
-119.961995728262
-59.7018616735468
40.0491261440435
-59.2010449254095
20.4076142716674
-59.1055232647278
180.832547383896
0.633241795982002
40.3015199285077
100.668124856659
40.2503968322339
40.4216774721081
-119.558584632556
0.755300350977125
0.110702231672662
20.539410366115
60.1319525779783
-139.891397479285
-39.3787976301743
20.6676013321524
-139.492856036434
40.5527221596629
-59.8836985836811
-39.5453472665157
40.0806169364927
20.5082885703238
-79.3297177991922
40.2484936545582
-199.460200244316
40.3896385145453
-99.9848949309873
-39.4922197483868
60.859130124624
-59.9846589872874
20.940108277619
-19.1870437667941
-19.4661701001701
0.892810574475199
20.0297593527051
40.9961823397607
20.9662600858105
0.755985973650084
80.84431763553
80.0838675430823
0.633654207169073
20.6166292736916
0.676211493083656
80.962878183665
20.9958694932836
20.6221679020603
120.295637525849
-39.5103243845187
0.367841261623283
20.2935944199034
-79.8459419210277
60.4908084828109
120.876911892685
100.419174466878
-79.8183183372823
40.8918648333577
-19.1424815711776
0.959442229732502
100.44153490415
20.9884238283089
-159.185105109653
-79.6457610328924
-59.4646274016946
0.563669870349194
20.3287055530877
-19.2126561209433
-119.385450959068
40.8619035506283
40.1045178505262
40.8226828249903
-39.741084930034
-59.7568989636501
60.5132726780314
-79.936757714451
80.5225357444153
20.8704667185215
-39.2224904667511
-39.2680754954809
-119.813762377903
0.215156249458433
0.0949819594235641
100.000789408524
160.160486167008
-39.6790080926152
-39.0255683318671
120.684130755911
60.6398120695717
0.260671077193621
0.854461537981365
120.063775836008
40.880111775549
-19.4984943165292
20.4123201569851
40.0314872045442
-139.875760374646
-59.6392577260334
-99.6920551796046
-99.9491206605534
-39.9853860808177
-79.3137194613278
80.562438213081
-39.2451139782647
-39.5375175495594
80.5485367602581
-19.5419977645872
60.3307750950509
0.782175923212264
-79.8723092464169
-19.0861114444081
0.237181805080141
-19.5588642390713
0.109917613974083
-119.302208124095
60.8442391698224
-39.2415452982796
100.31333005216
40.2231639487417
-139.976492418029
40.6647749264936
40.1876785335611
-79.9771696877575
20.1175231261689
-59.6482433457173
0.570676652746712
-159.582518555917
-79.1594600503916
0.668364342855185
-159.082721448777
-19.1021707393602
40.2930461067002
-39.4289197278455
-79.8275176752077
-79.3674748547798
-59.810978875293
-19.5351034620151
-19.9919292941898
-59.9672864949948
40.0356878107208
40.6037163121081
-19.9841919961229
-59.7399411540686
60.7688253755445
60.0741213495481
0.3383866034088
140.731334248037
100.367899723629
-39.7901444197873
-79.6764522008929
-39.4634042993611
0.473724250087484
0.232995736527133
-59.4615894431234
40.4706458810753
0.560317907740561
-39.2493490200655
0.900313889214207
60.440781620773
100.942434894559
20.0027156332508
120.437499953326
100.013774853362
20.8349034923799
60.5680935555073
60.1587526802413
-59.8392768196776
-59.35389837965
-19.7358774587383
20.6573852172809
40.0950895753131
-39.1720973184632
20.5213358530534
20.1369516287528
60.7477582532592
140.696602249594
20.995890668803
80.5792808900984
60.9277548055116
-79.6663566087434
40.9089607789495
-39.4583738375177
-99.7706382510444
0.13381120375773
0.500698667342348
-59.2679837786788
40.8783859538898
20.9106474435373
-39.5838619783297
-59.0054254992942
0.932922401463884
40.6983488092792
100.143510111518
40.4503435735692
-79.112366910788
-39.5766101528379
-39.5243962492717
-99.0259139188443
-59.8491861555834
0.0850550972972783
120.263943897578
40.7605570452814
-19.392379904208
-59.0716086777657
20.1735517128919
-79.4291543638975
-99.8268288961131
-39.6902138301101
40.5423713207182
0.693489592878734
120.84856580192
-79.0753829173857
-119.379481262871
0.52674596331574
-39.6201273940684
40.9695555854071
40.8871724524026
60.4681696106175
-79.0581779367523
-79.0755886496375
60.6638202233318
0.574124067725523
0.552431228646242
20.7750451575123
-39.6447215090395
-99.6834500059718
-39.6882079219447
-19.7500510628158
-59.7222274744366
40.5139263705758
40.4660724858276
-19.0998667152516
-59.2750156118756
-119.044821138283
0.391419025278964
-79.7786830124852
-79.7483049944736
-79.8742348612509
-39.468862429217
-39.8690216455903
20.4248677886705
0.590595070068559
-19.2816281729692
-39.0024713222994
-59.8176715314365
100.866917869619
20.5107418035963
100.486675200959
0.462756277655863
-139.057278275874
20.8487233796205
20.735227560497
-79.765635538565
-39.8399470729596
-59.5155851594402
-79.218901721201
20.0553121850368
-99.6090233729754
-19.9883013017067
-59.7902390088231
60.946232948543
-99.0909841864889
-39.8206824939509
0.0673081477136463
-59.5145535911257
-139.932731565809
-19.8641220503561
-59.8383832170099
-19.1000667604654
0.232875072823447
-79.9425093083178
40.2288178258174
20.6618389070768
80.2725572692227
-19.3721999317329
60.3880265954914
60.4276739999263
-99.3356934566332
-79.3725362404038
0.206027534904308
0.295002244524156
-119.318237880723
-59.8066969021099
0.0954133189172239
60.7842669888205
100.519812966312
20.9857272488164
0.0908810296132856
-99.563165989689
40.9381257891811
0.472839014722467
0.410820157294476
0.00657444984553535
-59.5062824639283
40.1954486817815
-39.5722918236256
-39.2983267916188
-19.3600690732204
-79.5867419297959
-79.0467104170561
-39.2335909678175
-39.7854685665637
-19.9244222706793
-59.6319371778825
20.9640071229347
100.007643701272
20.8311566359793
-79.9886452676763
-39.7934351780577
-39.870849466087
120.347122588253
-179.913534182834
-19.879636680287
60.8730658093513
0.104509327619112
60.4485860119715
-99.228409818538
-59.5736212776806
-39.0293474662902
-39.0363518931062
20.7945405882435
-59.4879077997364
-39.2198084596094
40.3409712551258
-39.2770485494558
20.0936530755128
0.0221736759822306
60.8227686348259
-19.1409189031581
-79.1132352219773
0.633526525008691
20.1928476198494
40.9519443193352
0.553540520857652
0.379977581152389
0.587521509446972
80.7508756387514
-79.6660967825857
-79.6771652244481
60.1782590968469
0.982572726303189
60.1374426857877
-39.5077447744462
80.3637249371261
-39.3737310332629
60.6669757237739
-59.2035667794647
20.9601536015709
20.4941730224802
-79.2875995557734
20.6278030393914
-79.047084424691
-19.7816125416912
80.9539890505785
120.415839354439
-119.264661932364
140.794814341086
40.8640277247567
-39.1118379458521
-99.7933793890455
-139.599737835414
0.510544538145043
0.0527155331377063
60.7367723769625
-19.4015526561742
-59.1774930617605
0.447815468428239
0.083070873379981
40.3167177287812
40.590976710387
40.7246782365738
-19.8665680411022
-99.5480585826682
100.329286743068
20.9873917343565
20.719904111038
20.0904257514689
-139.766241075711
0.303240669263715
60.1282578065719
0.300113459122727
-39.4532487537469
20.4881994037609
-59.2892455661358
-19.3212354914375
60.0797343818265
-39.6529857138675
20.6166916943324
0.509504791419914
-19.1566502860674
100.584935509548
-179.238712034938
-99.4413882729953
-99.7609740906212
-39.7297446456678
-119.074272988106
-119.058850711674
60.5850613962854
-39.9395523628857
-19.7718479673223
0.941248691983049
-99.7746454814149
0.221974589192556
60.6836999670608
60.5501114938222
-39.2616454839365
-39.4732856884004
-119.101402439096
-239.266696248793
-59.0304715630088
-59.2671377405365
-59.4600233852648
-39.3613800727746
-199.537624622264
-119.923306121019
-19.4716107045684
-79.4716109631111
-99.3595422736866
40.687173548295
-19.3125872163973
-39.3956440756027
-19.6338968713158
-59.2812454852048
60.1095059841936
120.915316458397
-39.4936678791725
20.4733733824363
-19.6721596357821
-179.95467755371
-19.1394248251677
-99.5204696607825
0.788490536196389
0.911178083728123
-39.015927000871
20.2960805502947
20.9141066029376
100.474542466707
0.292625976901988
180.632291360239
-19.7350460999997
0.680116687431621
-19.1095240021676
-99.6070706743263
-119.540192233537
40.9686675329201
-219.240395246824
-179.452983925529
40.0185957964582
-39.5987774741209
-79.4959646146074
60.4220047106093
0.868848235787965
-59.6917517847312
140.07532310789
80.1099750984978
-39.5440781782932
-19.8697678118759
60.435384697861
80.8120446529413
100.932457083407
140.716030293714
40.2519967799823
40.7661804392289
20.2375091359733
-99.6416161305872
120.343058268347
20.7323410350567
-39.8246633282184
40.4137277049928
0.481821533884556
40.0134153788012
0.779193394695497
200.472292482245
120.173314424357
60.9424454327379
-39.4652347963425
-159.584786751029
-139.512965690436
-259.297612392298
-39.8799093333188
-139.043472431589
-119.923463939418
-139.249471257469
-19.7224303011027
0.810084995611348
-139.826685838481
-159.551302294767
-19.167993504777
180.384943859285
40.1486950736801
-39.0824996291015
-59.2324680233207
-179.124505943468
20.3425916241905
40.5921135780778
100.415475259292
0.830473577469377
-19.6683708542126
-59.1031420263666
-19.6783422746549
-119.233018754751
0.746074414260383
0.750308165455375
80.0729961834936
-119.138673696055
-79.1679362185662
-19.8836506570529
-59.1939577705352
0.432431722818535
-179.127500546452
-99.566317629818
0.664826803776215
-99.9722642427336
20.3728936165596
0.0820680662368147
-79.8833138731717
40.070712551202
80.4919613688039
-39.24080971578
120.324749654378
160.133021029265
100.797425498457
200.839986121346
-79.3011301488886
40.0838976582378
0.738290316769053
120.109121164226
120.591687105634
40.242053118356
80.5963988441369
40.3105654152826
80.4552223606671
0.0392875304262077
20.0875590210887
80.4004418961259
20.2139367251017
40.2920615909513
-39.4949870538191
60.1610841682821
-79.4688747121707
-99.1377904267253
140.770036751255
-59.2148379115318
-79.8641123953248
40.0233161923371
60.0434818227067
20.2130111508838
80.2081367564498
-19.4774144956489
40.898467526406
-79.5370240620437
-79.8887032566387
40.6831804892135
20.2480265196652
60.8677709678573
0.399235831412284
-39.7513421815375
60.4408884680171
20.43605485963
60.7139300006774
20.1331940900213
0.552177351518132
-19.7555361160326
-39.9557464908046
80.3579880895101
0.983581119109346
0.457164943129555
40.4127019810379
-79.8736542870405
-19.8906248556879
-79.0223103599484
0.57406745717717
0.219403314811959
-19.6827663026888
-39.1964834597964
-19.0907979351608
140.810127776908
-79.2651369434267
40.4360077594316
-39.6412956460365
-39.3286470289544
-79.3233195445257
-79.5571199945403
40.0348244803174
-19.2839780036271
40.9495078860944
40.8809780824942
100.650710095562
-39.3158955169202
20.7626483629667
-99.0157365091809
140.951328033114
80.5654592019264
-19.3013707670823
80.9886776986778
40.4395306788358
-39.2333649001501
-19.6468501283213
0.778564857465526
40.043314391179
-99.4825858807029
-119.331142571021
-79.8669488675494
-19.3880620909273
0.0905801785374081
160.176424973224
120.881812198197
0.617961089533253
120.841649257235
-59.813908948205
-39.2885993752394
80.0780816986806
60.4579341516938
80.9392528718656
20.2776743537993
-79.1696547443157
0.0275247817551758
0.683639157314261
-99.1546511574657
0.282605038958437
20.945081544074
40.0999270884682
-39.2555027590937
-39.1161115254265
-19.6294761352291
-79.5353980605651
100.469539019652
-19.7941284279097
-19.2341285250299
20.203751410549
140.398617660568
60.7594498228311
-59.3291244429407
0.34714872197074
100.531734326128
120.633040117375
60.6480700235445
-19.4087220868876
-19.6181407611279
0.365732892637595
-99.1209303808126
0.182440699681012
0.0423008671451203
-59.2721767094601
80.2160524603403
0.320624233507843
40.8288546145279
-59.0644281837837
20.1202564958257
-19.7658976391958
80.1334883742124
60.8495727479269
-39.8511027630187
-99.2994233596806
40.7178302107726
160.688832106101
20.2475839756641
20.5571730761338
0.340316083082428
260.157863688169
60.9250919829208
120.584543230293
160.049450410742
180.374321775456
100.198045123605
40.1033733946463
-139.5154025016
0.547922247298743
-59.3621254578559
40.3824234613531
-99.4062520809238
0.877271871271418
-179.772173492827
-19.4457382518844
-199.59082821068
60.6259915041713
100.78622166986
0.983169312994846
40.1756623035721
0.110599246092335
-99.3890187551071
-19.4418002324346
60.2859233731415
40.9891486045978
80.62079524346
-19.1050599107363
-39.2750313653421
-99.7995654588517
-19.9639635794427
-19.1063549577033
-99.6288085718631
-179.026052364892
-59.6946586482368
-59.3307751878556
-59.6758154226658
120.136963162893
40.5534192065577
0.483341871775067
-19.6311079026159
100.414654934359
120.592498853379
-19.3504275602781
140.528024238843
-79.3695901338026
120.263745598412
-59.0097753272419
20.7883851498914
-39.2583117052388
-19.4244635913684
100.612349516983
-19.8547313229197
0.201411748529747
0.433957300321432
-79.7162025315147
60.5962081043674
-19.3991808534228
0.209813219096944
-59.1901211332525
-99.6902063680067
60.1736082104966
-179.500276119012
-159.570087669194
-119.269097476478
60.8274922004342
-19.8886163864358
240.979049957705
0.466657819009654
80.5446803680721
-79.1575696073135
100.269659568843
-39.6378891865041
-139.989219817815
0.358929477476941
-179.956609122512
-39.8427389914049
-19.6754019524621
-79.9793195282727
0.186307155620675
-79.6924902976282
20.1462553327804
140.182403230219
20.4894059357894
140.34187722569
-19.7022191086665
-119.829058063116
0.220811975844782
40.5732439053314
80.5246070010797
100.280060605181
80.0311922124617
0.564031234924784
220.049686257315
160.726961663812
100.652045793529
180.295157675625
80.0270114030417
120.264741866581
-199.786912210046
-39.6216316193992
60.0778448064165
-39.7963763334209
-99.5118495241638
-39.8965799751692
20.6552539908446
-159.103299943891
-59.3423814054412
20.265477656554
80.5088571204891
-119.111208313136
80.0693694529428
80.0383703000205
20.062677006064
40.8463581732802
20.0260043113798
-39.089173779879
120.631814059267
-39.503505068036
80.1035593687097
0.318524698047895
20.5706521854336
20.6608184169972
0.780387349031123
0.691562587898049
0.559602229483986
-39.4513618451818
-59.2502698618108
0.108226388031355
-99.2571896980963
-79.2024348346395
120.032354874809
-19.1908387358394
0.427870327762143
40.5002355044874
80.0385354764366
80.9200206147799
40.0224106319331
100.946376700544
100.150927644188
80.0349936931968
80.3670221799505
40.2074929447933
0.247795078104843
-79.2476648045068
-79.740202919581
60.3218740962635
20.7193417906153
-99.9012476047656
40.1127514979295
0.136011063644347
20.6847045609277
-39.8524279760766
60.6440195228471
120.297792221584
60.6866539477249
40.7800064499432
140.128003903503
140.768216206823
100.864930406497
100.096799280063
-19.7340353491352
100.00159114271
120.331968798568
200.747354613195
80.7594873238874
80.8667797424165
20.0785717918549
220.467586206449
200.709657851589
320.750572508846
200.96288226821
-19.4151622768097
60.5188455010395
120.089378750767
0.27808226567744
20.2692972066384
80.3944200424354
-39.9371717503387
100.996461338445
-79.3327297825881
-139.579272551177
-59.7018907744315
100.734620138109
-59.0278837549949
60.7645031058462
100.986054766231
80.8850826021114
80.9626192814041
-39.3638423180485
-39.6810718519989
80.2106258473884
0.414757303395518
0.325880655176961
0.523238876470739
-79.5794630995434
-59.8115060355479
0.809964943309524
-19.2610774680049
-19.1856309890643
0.170080990972579
-59.8646602002625
100.392493582575
160.029528123382
140.93272077424
120.855566139127
140.150230551141
80.971682021404
-19.1649355996932
180.613298569496
-79.0610006242334
-39.9872054237776
0.766891542756625
-19.4707203197855
-119.485296801206
0.453334998136512
40.2536107233262
40.6790058046899
60.6354146983792
100.109503155648
-39.9755214641724
20.6774557839558
140.58857185847
80.9640248264305
60.9988883650336
40.7509855916876
80.4193587624409
20.3266840492081
80.8984014325428
20.4806439243903
140.575431936909
20.9701437656155
20.2176800887467
-59.2314271436318
60.1646665595242
-59.24129721891
0.0883938538347664
100.520350794968
0.735334818371513
20.2987458285424
280.58419203725
280.689730124096
200.994913699948
260.353648440078
60.81326129527
-79.9904566229822
40.5905814289772
-59.217585982225
40.4145492924526
80.8304171816302
0.487863336620308
-39.8048413558209
40.8337193182238
20.3065420216738
-219.715390402121
-79.4491126626123
-119.561218217481
-119.520560529069
20.8015133510476
0.862197024415963
20.8628309567376
-59.6553966191539
20.6908835804537
0.0496308612063877
0.164827467327523
-59.2988986426984
-79.2753364885543
-59.1439932197596
-99.3207131836677
0.842545957839732
60.2119324572832
40.8194564198616
40.5099886635978
20.2074794230015
-39.7025620032464
60.8243072112923
60.800707490444
80.5239190225627
80.3712731764026
40.3303508525255
-79.7843317840281
20.499799953198
-19.7434585365264
-19.3214047627953
-59.021603224869
-39.2123646991183
120.315636811301
140.218925695058
40.8441246668886
200.500126973646
140.868365250572
60.6604069443696
100.604612762243
120.868769246825
20.6805195413353
60.656992112519
-59.2834447655668
20.7034177342574
20.5979290018607
-99.6690428384629
180.55318311866
20.3693055402824
120.441930314691
240.593062308894
80.9091557441632
160.122645960134
-19.1773008976471
-39.657453207233
140.155558330109
-59.4539854027242
-19.5020250458225
220.704104510877
40.2989332629802
100.01715959376
140.912912946014
80.2853673727516
180.927313069417
80.8223555824815
40.6397999702488
140.757080820226
60.7113728787368
140.722054809997
-79.9329114804678
0.0344894112866427
60.0809091316491
-39.7917459279907
-59.8124088371392
60.1951483284434
40.040282316255
-79.3710141910112
-59.4668821237882
60.1769010741066
20.1517606397737
0.190651370845356
0.752517120490455
0.652886445208686
-79.6278168204194
-79.9101841149584
120.042449288936
-19.295021402869
-19.1701259632906
-19.1089873013632
0.699133296036578
-79.1312721183839
-39.2090275856465
80.7584300007806
0.740857309802138
40.0116560254966
-39.0139154225503
-99.3394111775291
-119.339923971078
-39.5405092198307
-79.9195472342793
80.2293832920462
-139.504778066911
-139.05022324521
20.8638173533416
-139.436066097535
-19.0584083517821
60.3349167098385
140.777974993741
-39.29755487572
20.5026583967296
60.1689651304718
40.6988989397129
140.281805825301
-39.3565299782831
200.745250114795
160.355144741599
60.9132977770983
120.022141136974
140.080453279625
40.4127479191715
40.6115537638911
160.506020267937
20.9911282001859
100.369528211195
20.9715555025161
160.100363947435
160.979472321106
100.057836667334
40.0137239777136
20.6565799591875
240.677470084079
200.767492723464
20.1042656870599
120.825550063478
120.916342402896
20.1232786848974
80.2482353855151
120.010094794831
140.881143029594
100.292929880024
40.6202746574185
-19.9642538378034
0.176678789593154
60.0885378088252
40.3822790046032
140.44741235386
20.2979156799594
-19.1465082874901
20.6376767190581
0.625342979547689
0.818987269944996
0.953965823095654
-19.2981988586383
20.5588077742778
20.4441037889424
80.871789101705
-59.3664258136493
-19.3818959277296
-19.2770558359547
-79.5968719439519
80.6767494457129
60.0667989119639
-59.786858193981
60.1381024920092
20.8145428439026
-39.4555678144554
-79.7733707676474
-139.019477628162
40.5599863113029
-99.5879888262293
-19.8146709077039
40.0932277592895
120.655314690953
120.232454435869
60.7591339888272
-139.003322560353
160.809651344387
0.195957697204335
-19.792830004339
-59.4004741415181
-39.6854475462008
-39.0317059791826
-39.7774322193284
-119.883272804435
20.6257986682542
-39.9450937756374
-99.1383161825644
-59.407385724691
-19.7786193308626
-39.4245116097997
0.48014224127995
-119.440519517015
-19.7595540110678
-79.035332455775
-119.291461974965
-79.5306870711904
-79.5325177659403
-59.5766004291159
60.734086050466
-39.8219768862684
120.379369903802
-19.7316638137953
-59.9513695846944
20.1159369676444
200.653228945366
0.122435957686122
-39.6365050985941
60.0863525351166
20.5184298087446
-19.1587576346002
100.210738855636
120.599150740832
0.348513080747836
20.1730788630065
60.5299457386863
140.432291347545
100.715340917182
60.6138541830209
80.1196294057314
40.2513097745728
0.945883360718956
0.307837789626409
-19.9200463876728
-39.1388561294275
120.872743143642
40.1960758562669
-39.3500374111896
-19.0089816306934
-59.2560712236414
40.7633129649011
20.0470627503814
0.758469314807598
80.4350576321421
-39.0118727692861
-159.10069287154
-19.0014027707395
-39.3953684181616
-179.491804671786
80.548238537224
-79.4165982765276
100.551610241546
-19.9870439424353
20.4051631209154
-19.5331039469899
-79.2646679638229
-179.587061391304
100.407332988417
-79.3981360504003
40.8806748287391
-39.1224556878933
20.5314795916325
100.926970117711
-179.868859306463
20.8664203647036
60.7615956715636
80.2098788089904
-19.1340102184107
-19.4162621641568
-119.665158597241
-79.038510159595
-79.5044733933689
-179.04042795759
-159.202916536966
-59.1825884322906
-139.576302925568
-119.125830255448
-79.764410590668
-79.6244454456877
-59.0839728301936
-59.9834881665217
-159.175080642845
40.3961156736585
-39.7422370430386
-79.2285207583023
220.100704594143
120.656825232215
180.488046159071
0.142244869074688
0.235087768457234
0.246907203903461
80.1063921386469
40.6032158817811
180.037555745497
-39.2330512234568
60.4506368880723
60.4039701096621
80.4432974935188
40.7989944267113
160.32277592497
140.618970546612
0.846011929565795
0.572016928573954
-39.7146853474704
20.7861249481345
40.3311480287686
40.2502392596553
-139.414664079061
20.0256727628113
-19.5417927865904
140.482364805962
-59.3144372503771
120.480146130601
-19.6387360197491
-119.610079531001
-159.66582206355
-19.7953653946005
-119.684510588007
-59.5926582965854
-19.3720066130103
60.0722875410744
0.439719817488562
-39.0238584871408
-139.960575347873
-59.5764035443563
-99.2617655320066
-139.426424280433
120.240800208804
40.0275574657417
-99.2252621706878
60.3621937388731
80.834451570911
120.196377308404
0.802376621503221
160.025552882561
-59.0991367042505
120.325123769266
-179.116332656124
-79.3942706058164
-79.7368547409564
-139.783397490139
-179.90873774151
-239.876802307693
-259.80236923821
-199.329492633131
-219.410208286359
-119.904049215655
-119.172835572879
-99.8966696333395
-39.9007016872416
-59.8056142753511
0.661338445283889
-39.9509188435082
-19.7622810100953
-39.478223364672
120.881116391119
160.85014082514
80.1327427056217
40.5163215922916
0.0111593538495924
60.5669356181669
-39.8620397223981
-99.8892651876484
-59.5943830819635
-119.682257352667
-119.198077014117
-59.9093310034817
0.400152922461231
40.0483558341724
-59.4909095538862
100.866869485155
0.74959771005707
0.718210318316211
0.939965084498084
-39.7772919173699
-79.8908604127789
20.9690997280937
-39.717115788536
20.1590574879226
40.1407717901933
-39.8490490568119
40.697421070638
-39.8613141094181
60.1975815520693
-39.637198680884
-99.6765641803974
-99.5327605958642
-39.9363386115238
-39.851533460879
-39.2793061263787
80.6290437881664
-159.626028584528
-119.418902522834
0.985880246126726
-119.515705274021
-159.066404280803
-119.47536045866
40.8976943398766
-79.4593033445497
220.782900093695
20.1179325955137
160.030833446539
80.3627023224882
80.0613498129845
160.263508678512
120.681176670179
160.789190778374
-139.160584190865
-139.857984678409
-79.561811349833
-19.6542899057591
-139.46934129999
-299.232410863811
-79.5252075631903
-39.716392047868
-59.4600751761369
-99.0500003237444
-39.9691225976289
-139.979137275263
-139.615539278944
-19.3201623405805
-19.3062500523323
120.216394072727
-79.7999141951125
80.4190085063798
80.4627055194129
160.340564926818
220.737855537686
20.4561133080401
20.6885365983021
120.313595057485
0.741817330201059
60.944084939504
40.2294064390601
-59.5916663284359
20.7165013824509
0.650355832307554
20.8980042959085
-139.088854847354
-119.674575925426
120.870989984498
0.904098666820556
0.22047947354683
-99.2683912065035
40.8118833802471
60.5635957074363
-39.8443671429805
-119.554231330238
140.269621153557
120.574841465015
-39.9876647304162
140.677779234752
160.318416334047
40.3097249784043
-79.3046788106208
-39.5232070742888
-139.490427213098
-79.3579076606397
-79.5000196437132
-59.8561335980495
-79.4449915158306
0.737668425799129
0.212975734182862
-19.366155759754
-79.7305987906015
-19.9768475475421
-119.499796942068
-19.3182242819912
-39.30370084357
-159.251216817879
-39.2377754061104
140.216008313175
20.1464310767855
-99.6861084377564
240.442655289971
180.79376792152
200.809224008516
-79.630817779936
-39.9493411722306
-259.964193622838
-179.416937454617
-199.017951993779
-59.5773278895892
-99.3691468196632
-179.742970568775
-119.165372232341
-99.5685543535257
20.7045893340166
-79.1728336473061
-99.1593371416476
-59.9023257973195
-59.8011519737664
-139.230626181942
-59.8201003308052
-19.2100303008001
-59.7515361708429
-159.358520347441
60.2350910553347
100.347685455697
60.1555970905488
-19.2683524329195
60.6164894112416
-59.8090408026514
80.8766069635791
-179.263444547159
0.645334254101016
-79.9526034045422
40.0194200569874
-139.726217497573
20.4043458101358
-19.5467888076788
0.96418608487135
0.131111527160967
-159.788706371095
60.5178886981764
60.3093943367711
180.752323899402
-99.1676690348672
80.2144842501634
60.1630416449943
-19.6897267844044
200.20552319096
-59.6646733230501
-39.7719608551879
-99.1752681905555
-159.79057308163
100.366565456676
20.9794203367014
-99.6813668366526
-19.0540455495104
60.7431947001805
0.833405625840996
-19.6484031972073
-159.736981801803
-79.8936883436679
-139.476176950063
-159.340713370682
-79.6180815719052
-79.7292928175014
20.4569162446651
60.0763789288989
40.5513194043748
100.448321088032
180.670407662642
80.102493582613
200.384397756885
100.825925512521
-19.1294165102434
20.7432215010311
-39.6775029243601
-199.70257570646
-139.515333077942
-99.935575957543
-79.2843595804669
-119.030133993417
-279.767235421435
-199.453031397137
-99.5283344958743
-39.4503260716966
60.0685903253286
-179.099039468379
-79.4467266146992
0.741128326245018
-59.4002596058252
-139.407652873012
-119.065759582864
80.1797010114748
60.3384135205782
-19.6112556137255
-139.669919532406
140.245464270215
-59.169599877677
-79.8006820201142
-119.448097859787
-19.4635400080097
-39.0234786656759
-79.0030073259502
-79.7019144944482
-19.1685392090669
-19.4931654737957
-99.1689055855772
0.540302242509592
0.808902047084231
-59.0994590963588
-159.459318506758
60.7975315361396
-19.3973364485602
-79.5203218074225
40.6687653480106
40.53454008949
-59.7213766216109
20.8325259592856
-59.5863135797337
-39.036804896203
-19.5247142058767
-59.7688181702243
0.419827312568785
60.8600735418808
40.4320803425672
20.6949656579305
-119.399023347054
-39.5596446913715
-99.0116183496997
-79.833112147875
-119.029858287138
-119.121329640251
-179.883538966686
-39.3037983855428
40.596058916146
-119.925993567091
-199.160594869032
80.1871442142003
-19.6045698101181
120.488115387061
20.8771053766798
40.4307040334313
0.904799166994991
-19.6845016466404
-19.1313777529316
-19.0332768152495
-39.8054096450842
140.202333173234
80.2712335980076
20.5954462715
-39.0019661224361
-179.785757604556
-119.732931631206
-139.730283971304
20.9420023770768
-199.424952733581
-79.761778788466
-99.8256884889524
40.1174621618159
-159.863857976289
-159.002489522655
-39.6464232773413
120.93388245339
40.0288695558102
-59.0579179011006
0.256544473881924
120.39678681447
60.7234266084733
-139.621924657146
-59.4794795130931
0.434542778695281
20.499948230595
-39.2441612712489
-59.020072954134
-39.9698423607302
0.281062415445433
-99.0653169244996
0.747442031432415
0.248682183074182
-59.2356714573378
-139.968369045103
40.3804799933293
-79.2809631904131
0.227307232291039
60.3722489514591
80.9401348062285
-19.9930760399569
-19.8766129967785
-59.2252807538445
-79.9370355248093
160.880619907921
20.2915031729347
0.322471352782188
20.2082466338225
0.272213479908544
0.356329823200042
-99.1086014456124
-119.529510664774
-19.7447633348783
0.0381424863050199
-99.9326994997921
-79.3305514783371
-259.389623582303
0.245313920330105
-179.648519794393
-99.6189708833336
0.70506897186732
20.0016247022464
80.6376927685296
20.1047775333308
60.6605618486844
20.0381342548981
-199.7471382338
60.4075736612979
20.4773855732533
-39.0653228326708
-99.2883837377808
0.135835719640625
-79.7495441998122
-19.5231881189724
80.8501505311579
-79.671990444214
20.4740906072857
-79.3457946831877
40.2692859634022
200.45132686216
-99.5012327750372
40.5703936930953
-19.2122055905199
-139.948577541105
-59.7787146857274
120.336596155242
-199.974028457999
40.9903440560934
40.0575790466729
60.5660921853491
0.727372579753876
20.2948062108404
0.255628347222924
-59.7490768183288
-79.7473687969703
80.6131987871134
20.1083136224425
-19.4850456148128
40.26223696048
40.2862384148336
-39.1342954881443
0.412864156305278
0.974627770035029
-59.1034876051716
80.6227754080636
60.6552599406568
-39.9751706349653
-119.693087604055
100.76049686684
200.677768742711
-119.148809904642
0.724107470664066
-39.0260926334539
-179.204025495638
40.540896734454
-119.360170818504
-59.4981088536779
20.2830679300194
-79.0203838543794
120.723131654333
-79.2251892292681
-79.8566138920965
-79.7118929996698
0.460920684909382
-39.2293359476053
-139.578412208045
-99.8160968021356
-159.277950607424
-39.4401110196474
-119.864348264568
40.5933160667973
220.754914258443
80.2375098727163
80.5813169051504
-79.1853412561039
0.132699865967083
-39.2261396620601
-199.333759268244
60.8751777402645
-79.8003404541945
-19.3737947707267
40.1362991245864
-59.7491548170948
-219.427635809717
80.4791885231293
60.4978227725684
-59.0557324078575
-39.4895824342472
40.4493353200925
0.283468940052444
160.60569530887
160.012297712477
-59.4142241063137
-59.6850139075697
-99.7332620866564
60.2595483066318
-79.3983160495839
80.8486519388046
-19.0852889807705
-79.0952142392715
60.1258406644401
60.9933873203189
-119.423367332567
0.862735248745935
40.2245181734668
-19.5834028452933
-19.1710878857743
-59.4373960732355
-159.22167705355
0.012376008913634
-99.9749105394535
0.164008792989293
0.70023081118268
-119.156569562703
60.548895971818
40.4673409396482
100.427896657357
-39.3082438236387
160.920634684373
60.8606151996896
-19.3365952052375
-19.5342220652267
-79.2809559686948
-79.5008710116718
0.121413767844849
40.5242573661729
-39.651914420714
-19.2581045238908
-179.979427985146
-59.5023526607377
-99.0654973728942
-19.9856160104251
-79.587975448997
-59.0677029326145
-119.296139486878
-39.6884417693244
-219.745710335293
-179.162208439433
-39.9214962616559
-59.6946026025545
-79.4766581569905
200.120276953058
100.436361395967
-139.238525994746
-139.484753936027
-159.228504627336
60.5587956920711
-79.1026191196645
0.00116363101152928
-19.0364120608191
-299.810661034589
-199.559808387166
100.12656602552
-139.227627282336
-279.126601242359
-119.519270005079
20.1366439872418
-79.0483165493955
20.5763248111677
-159.091774972639
100.522042711505
100.33564089453
-39.9147202388197
20.7214371271027
-99.3407471066648
40.1949093242532
-79.3417830852128
60.350835541368
0.207744402239101
0.424422798449996
60.1960140080028
80.0083601487828
-59.1167913386384
20.0702269208613
60.1216861769413
-39.5346458129028
-19.3216182038353
-99.7995771704363
-119.808507144582
-59.4181255212955
20.9895878652866
0.299815575760256
0.503039146017468
-139.000492273259
80.7184194354428
20.0627197455958
60.6321239566714
40.2205836588271
60.3236531178117
80.3603744900403
60.0031491894081
-99.4286027202931
-299.14859799037
-99.6142892176826
-19.4355168709432
-79.906955851607
-99.9354920900006
80.6557719365899
-99.6788404610787
40.4114906069108
-79.3662162417853
20.2550868883913
-79.3929341830577
-79.2714782675993
-159.148095046875
-219.061520354958
-159.662206779988
-139.323789879709
-159.347646829463
-119.350910934597
-119.82153638408
-19.2069407669332
40.2105862110587
-19.5198830734858
-39.210880361735
-19.9903796564677
-159.362207378801
-179.326925891485
-19.5912285188891
-59.5431021454509
-179.709093402346
0.689512464730029
0.0230664753359093
-39.3481453300168
-99.8039121552805
-59.1733967299922
-19.1600094675528
-39.9672069003757
100.77847122269
0.704760397930514
-79.025657834933
-19.6706164994575
140.22594876715
-159.629439549618
-119.535124341414
-99.2884473711323
-179.285375802566
-59.4696002307949
40.9612576517884
80.377940549968
60.4982067648676
240.877372834529
-139.430674885694
40.0797904441625
60.6860375223715
60.0379234218289
-139.90258525248
-79.3072738513295
-79.9325349037367
-139.79793975607
-99.2370552081316
0.34432882202263
0.0126327254108529
-39.4529355712855
20.8720046771367
-19.8812274336591
0.539356957049591
-59.8613655036223
60.6093089063162
40.952686379527
20.8458328848069
-59.3763521948612
-179.868874257716
-39.8705763297882
-19.8252464836047
20.4441136362999
100.200948224558
100.488320719718
0.340694794907868
20.2262600674247
-99.8747107683735
-79.3697478444625
-159.526818256009
-139.938367872744
-59.9242478266303
-99.2818410830747
-219.309265373207
-79.8672706011452
-159.998267568094
-179.006928222859
-159.896498596497
-99.1801089810808
-99.3615785181921
-39.7085483599134
20.2405484927812
-19.2432646031764
60.4722019196933
-19.7420492663878
0.102646540902228
-39.9623274931838
-19.4308688685453
-59.7174657407404
-79.1212056000124
-59.065254347681
0.639609538403377
-19.9143758865105
-159.54670937284
40.7489177036599
40.8590994020307
-59.0668374024774
-39.5733509632256
-99.6554088293277
140.979175457319
-119.726113642708
40.5680657023031
0.265759570308816
-39.6894633722257
0.356288499761263
40.928965446729
200.831799785136
60.9731513381139
-19.5062858472792
60.340334807453
-79.8613941137554
180.664651822975
0.671407750435691
-79.1478429993367
0.962147650803395
-139.152844132416
-19.6775477844187
-119.572861760244
0.455999342085163
0.617004715776465
0.725963918529203
-19.6880844958855
40.8744610685735
60.1477635845258
0.564426694045267
-59.8452584029383
60.7274234012492
0.860193811601633
40.8362741987307
-139.614249414167
-59.8810047066155
20.3031807639701
0.88538541013439
20.0362957266685
40.9608498216191
80.8974432946648
80.6476421513018
-39.3967666374912
-99.0110173866624
-99.2957257958939
-39.7863603880019
-159.432826434999
-179.75818568815
-199.189088266171
-99.3810998268261
-239.638719663642
-159.973434681546
0.477668885715545
-79.5620308994811
40.405884686052
-19.5727809079691
100.219905366095
160.44834708427
140.694038616652
20.388261208029
80.7057361788051
200.012656163589
0.408311303856493
80.683111585047
80.3810633667906
20.3015372624022
120.543357148026
-19.3842913086852
-279.312464298502
0.394702973990277
-19.1023984375446
-39.1576614272292
-119.01545019217
120.428443299705
160.248542510511
-179.22631444353
0.690088592535723
-19.693257772037
0.802965721178325
-79.0666228076374
120.722525526462
140.793127529406
40.8593229387458
40.5317823959526
60.0079174133029
40.7636013559644
200.816655842332
0.439723793010643
-119.019061117927
-99.0910302569861
-159.755569830392
-39.5561173354144
-79.8315085103098
0.512949875547739
0.725548977323639
120.668166278951
-99.187807851196
80.1165902868107
40.5086072016305
0.897436877152245
-19.553872315697
-39.9681118140264
40.7638873516447
20.4502559226023
-159.031961564967
-39.2466165375527
-99.3284615033324
-59.2776002334422
20.3150084455686
-159.635806693672
0.15164078883106
60.0539750674805
20.0917237328699
40.1282886233384
-99.3678698150138
-99.0421304395799
-159.502424171619
-19.2870462482606
-159.445199709913
-139.322194197165
-199.29979524466
-79.0841835756297
-59.2088751858937
0.28153454098522
-19.6852635342471
100.614139586478
120.371262117196
40.830676889562
60.8673730468894
120.880265119753
140.706603861995
20.7434341399357
100.532677084881
40.071935517464
20.4217325709236
20.7660967388399
80.6213367554005
20.7687870213469
-19.9894953432722
200.544555608292
100.748786916531
-99.7418758679447
-59.7426486496412
-39.0464735670955
-39.6664752157461
-219.095417128616
20.6263168662402
-39.1920096492122
-99.4832893091044
-99.2993772925264
0.00719262587955427
-39.131563918354
-39.476280211502
60.7181171460228
-19.0831831850351
0.955328813582923
40.6127927642808
-39.586343119605
-179.583803654914
-199.299493112979
-79.6226589649526
-119.215084884259
-79.554127855463
0.716232007274966
0.613014896392045
160.777218758928
0.770395100267208
-19.9006502772975
140.01102475767
40.7931783992141
0.610180527004694
0.578382060539404
80.7649461614782
-39.3207392861568
-179.347756483162
-59.4717125175762
220.518826020353
-119.424239184859
40.9317178611464
40.9293871718253
-79.7773111707208
120.810390989095
40.3151781554775
-79.3718966385345
40.5044305350787
-79.6325451937511
0.776804021701459
-99.4362114372585
-179.843145445577
-99.6010873531407
-39.1963992761265
-79.5750995282493
40.5650016939471
-119.728732491582
140.71711380979
120.237448578484
-39.8205557649817
40.5277896313648
-19.7145884299454
0.973404530021298
80.7976596300974
-59.4210887643083
60.2623686408407
0.298751336642205
-79.9172106459053
80.1938951321651
80.947738460346
-79.40341554625
0.0113894958932264
-139.080215495886
60.5295749515781
-19.702498531673
20.394715843378
100.355002325581
-19.7660319406432
-39.4415450901147
0.418266480014367
-19.149538552021
0.84389992166885
60.3396511387098
60.2752858041536
80.4803418661592
160.28768343968
160.859451747408
60.964382103545
120.959118866133
40.9187660465026
-99.0498218479004
-199.396236320962
-39.0669988308705
-19.7854467971956
-139.207836317747
-39.371028778834
0.010195502095967
0.229796669801949
60.6829234799319
-19.7754802426059
20.2964638232668
40.342443393468
-19.9653961812365
-199.899640825252
-19.3901177122591
-59.0484016229252
0.521113089255081
-59.8020611702403
-39.3481974952871
0.0150096346046098
0.240966024046145
100.125345443845
60.037268904767
-19.6127712158696
-19.8253721126711
-59.4264436616529
-59.4552633635867
-59.4381535627823
-139.121750298394
-79.2628068584424
-139.751173929779
-59.8964372307812
-219.855706762568
0.358644444448018
-19.076464798494
40.2260514631542
0.223423712171098
40.9313711714755
100.308941682691
100.097640793577
20.5697898056689
0.0151945827503113
60.9543272375155
20.2953933687727
-19.9460213802974
80.3216560333479
-19.9004764492211
0.211418745383128
100.636222232803
0.50185427944497
-119.266804961946
-99.3447792484151
-39.9425675366775
60.7068104311714
0.440905705118126
240.123375881547
0.175773127207265
-39.3627535679599
40.518458482949
0.457329433849551
-19.2743870081229
0.390412369660311
-19.4101076750866
40.5502677213099
120.048121389637
20.2805302495636
80.1920397048386
100.571310456854
120.40619594118
40.1011200412978
-99.4790337369232
-19.8080600258466
-79.4869521993144
40.8365022374531
-39.6023864203981
0.983309096005222
0.661455152590766
0.748381323084162
60.2818586686229
-79.0263779089414
80.7696596106735
60.1303062724383
80.411821754793
-79.7180678484304
-39.298327108848
-19.3095344107763
120.204869530211
-159.661655428768
-19.4814613151658
-19.2380141516556
-19.6775565464908
-19.554447361502
-39.1579542388281
20.2191729059481
40.2770550432941
-19.6383252835359
-99.6391065149569
-59.8369134978557
-139.455596328312
0.829574430904998
-79.2085084753647
-119.471300908201
-119.909747803529
40.7720265238553
140.016105959377
-59.8141384019756
20.8446594887529
80.5157469872425
20.4908787896646
300.94039386017
60.0621848363575
20.7282508932297
-39.6212365897001
0.702051469296038
140.73862129566
-19.8864454963088
60.8565858260922
0.967616872957976
-79.9454140807687
-59.3762449007413
0.0360988043903916
-79.2479000057124
0.320352490692102
-119.622865555363
40.7748664947661
0.13612636355645
60.014044081096
-139.728980453853
-139.571887627684
-159.483069193975
120.599514648273
-79.2637511202641
60.8386171096168
120.90152106192
80.2372048604105
120.253724343746
0.299826505572945
0.213432024060936
40.3722385582758
-39.4634904475926
-119.241788115811
-99.4158297315568
0.959491358094127
-79.0808064213006
-119.00153706721
0.842113859857754
0.0262469273334921
0.717188137606791
0.750175953887236
-59.524106448051
20.602820898234
-19.4474720980002
20.4273667560866
40.6417031865225
80.6930728954556
-79.4432118286898
60.6832371197515
-59.2745153510138
-39.7311789263554
60.0625403476772
100.503869813058
80.4235408206989
-39.1843523690135
60.9464517378917
20.1844234960127
0.982278729576088
20.8576314781673
0.918243467007358
-79.1927714371185
-179.686546199394
-119.731053072627
-119.83396965885
-99.2432896288256
0.829214762669125
40.3653970709801
40.9674903292042
-19.3317267936897
-79.5567805681693
100.000085118405
0.576813125460653
40.6990779906544
60.8075617871771
20.3471959520535
-59.3280265852718
-79.294488413851
-19.1928897560328
60.0210676380477
-59.8430823081359
-99.1148784175726
100.830875329479
-119.831734715198
-59.5028546368284
-79.4448391320734
60.9747585213558
-39.0419926082688
-99.6642227347229
20.1691508532969
-159.701403960832
-19.526772990523
0.479729928917294
0.0172091120050553
20.9535005635644
20.7733188108579
100.9603737657
220.381291187266
40.5138224769504
-99.8043012355885
120.611790098872
-179.095992697393
-99.4107018089526
-139.913034843787
-99.3285071399444
-39.9749518788144
-119.259373345145
-139.136890226628
0.985028003923603
0.563386792006411
0.266730137648445
-99.8728275461555
-19.4960310198848
100.64656149974
40.5971857166204
80.6922166748821
20.8638451226437
40.8108657817547
60.4307334123034
60.3627765308302
-139.494448882574
-79.6912556777097
-119.301745011725
40.562962224862
40.8024927773105
60.7238630040374
180.410806893158
-19.5059397108585
20.1476901506333
-59.2424637609578
-19.4584491200966
80.7765780406171
-139.832069026571
-199.989800011897
-99.6808105019294
60.6878924160911
60.5325938559027
-119.422794482302
120.390820183356
-59.694184590609
-59.5590765811409
40.4941263115514
120.2494454102
60.6852061997347
20.9025819127609
20.9465676892217
80.9067389065822
-39.0888453093185
-19.0964697628826
-99.6135390983101
-59.3762836227018
20.6298408972376
-159.079099185979
-199.303557869862
0.350024160099181
-19.9991014807206
-79.3708108579231
80.9208442009857
60.4930616361714
40.2631618599945
100.537423503802
-39.2378216710249
100.659029250172
-79.92453680291
-79.0743410084184
120.827412456903
-59.3747507987681
140.123035813482
-59.5442516516392
80.1707044746197
-119.223132638775
-119.351025394419
20.0359924597329
-159.697156795632
-79.5491924538294
-59.96862025934
-159.999878119764
-99.3545608912252
-19.9911110139899
0.263633295771975
0.563272892285585
-59.4098365196951
-79.3056259180831
120.444407447627
0.939752950679086
0.321620935244468
-19.3681598812762
20.6354188388229
-179.070003998221
160.504338694174
-79.3613040069187
-139.287239352969
-199.848161670431
40.5002391888548
-79.9123375325011
0.825769854251966
160.352583854893
-59.958661510834
-59.8799754856535
0.760242186739077
40.0396261476582
-19.088000034223
-19.6370380341279
-139.364994209019
-39.4860811850814
60.300606914202
-59.1313256458965
-19.050674043727
100.770249916028
-119.235114766006
-159.636708104942
140.745008721532
0.405449488119757
100.164425753957
-139.19422012744
60.5460237994138
-59.8063958108267
-59.4037728862801
-179.962452342485
-79.6384782680036
-99.8128694781188
-139.992046988569
-99.6167097370963
-139.309704577571
-139.613410227591
40.6173295335863
-39.6753014121545
-119.695713713418
-119.588647485723
-19.532994363728
-79.8567739288558
-59.7319220034616
140.51095136968
0.267467523537007
80.6543050444238
40.6355593592162
120.852068053153
-19.7897823397305
40.7423750734809
-19.9289162414825
-79.1292434707912
-159.681006833764
-139.118960411058
-39.4852161043448
-119.185300139553
-119.071164449197
-119.795447765425
-19.7841628174885
-39.8569798296164
0.296002204034817
0.766018017099518
60.8547651025343
-79.8795861363486
-19.1827069791682
0.217057805894697
80.5778316828294
40.4851218566549
-19.4796369628794
-79.6442121052181
80.2982616678006
-99.5609888890239
-39.3463346736242
-19.6274248676432
-19.0455382271122
-59.2327410893117
40.007285611928
180.365669957503
40.3321024068478
40.6227057863092
0.411447278649405
40.9504743679918
20.6549556834392
-179.07072033059
0.338752152291235
-119.777370836648
20.947438241379
-79.1536606221284
-119.0116457367
-59.9655856620277
-59.2420414600799
60.619669106627
120.676932916889
20.6781403545811
-39.0426017001986
40.5958688572949
-39.0271677367527
120.926345499206
-79.0222675355916
-199.170390979584
-199.279749096221
-159.691611029721
-139.4725467197
-99.0125996154318
-299.802344173049
-59.1020575654367
-139.860166082577
-79.616101166472
-59.561637610157
-19.7648291467537
-159.816351892411
0.83386081102153
-59.9588441137193
0.00116455162699935
0.216656582490131
80.277061280142
100.172054938582
40.3017728493282
140.238943104666
0.992054240203473
80.9565419981626
-59.4877920301997
20.7390165664765
-59.019815492988
0.869729249408898
60.6233494293107
-79.1753238928508
-79.1826640272352
-19.1360618352317
40.1306799484276
0.0546318623168828
0.234868492919736
0.930739542999859
-99.0271391565812
-219.243577530739
60.5489717289111
40.9749261697332
80.0108897745637
80.5880121074482
-119.645000860965
-19.5147376561716
0.385703401974219
-59.7611789069622
120.168143815362
-19.4218913272963
-119.883172976969
0.169616636806325
80.1708761869441
60.7634195571253
-99.0546267170689
-59.4759676651597
20.7923619878961
-19.1780988889399
-139.60881285854
60.3104111913014
-59.9919430267924
-59.2515178864644
-99.2606521421253
100.541663291897
40.3263437303644
-39.6268086892389
60.5633104886353
200.330030060783
40.6431625056871
120.125232455589
-19.1620033291404
-79.3424124312123
40.5970481663555
-199.690533109615
-299.495132264825
-259.203916299542
-159.706927207762
-159.213556444076
-119.202667442378
-159.619667415606
-139.733840134652
-39.099828951705
-239.163620676851
0.67848198803177
-179.881707571411
-59.0141443122672
20.0921175062397
-59.8911310760301
160.641882333408
-19.3299571862498
120.287137900804
-59.6240215253042
-119.538173914495
40.8901956076391
-99.9310848618551
100.63921805321
-19.9303720942733
-119.881222310834
80.5012844619551
40.4187128310347
-19.8682299435749
-119.158156017163
-19.7675633053099
-39.1919206398682
60.5264062353261
0.089611965780507
0.326487004727826
-19.3176239173418
-59.6732737011684
-39.7362525366903
-19.4335361282793
120.267521031083
0.309636827858455
160.078200964342
-99.6869627431369
0.343050066902862
-59.1941600146293
100.198914996034
-39.5515572087292
60.3955031735156
-99.5483301058783
-179.387185673775
140.71307029939
120.810725753543
-19.7129864013929
-99.4681964538571
-199.147411820666
-19.1356673512048
40.2916615663555
-59.0641943841621
20.4478183430641
180.297311525313
140.534848195375
140.982701050885
140.856864687298
0.932997010546465
80.7198085265269
-39.8615691891748
20.2056049740826
20.9852065746591
0.5264808371168
-139.263333468692
120.762149340075
-119.36192948519
-179.666475689591
-179.268109624579
-39.096100061195
-199.057844938188
0.938353436256293
-139.323165602168
40.0450906261286
-119.426306327503
-99.143069205451
-139.787114845645
-19.3332557721154
-39.2362606033633
120.40499330978
180.120228113639
180.684936676741
100.48972645741
-99.9969718875118
80.2391625515529
20.286993497835
20.6063019559611
-79.4897760663909
-59.5713761038951
-219.736537866269
-79.7135545619764
-39.3819548014428
-119.470357719982
-59.6094878715943
-99.8192501621368
-59.4532588423599
-39.2944069446376
40.5068873342159
0.831562861853995
0.705365447469744
-39.3635343054261
-19.8886798134703
-59.8093905119071
20.4594604802812
100.647715485301
-39.1812897814512
40.5600310991327
-39.4138162608615
40.886671026779
-39.3587287536491
-39.6527454684595
-99.5065220292754
-39.2093408022687
-79.1538228745418
40.0702608788527
-59.3915790884381
20.0874033080621
-99.0002984767005
100.714446901247
80.8123711611753
-39.8503273238425
-19.3331115712787
0.396442583896857
-119.721616155484
80.5313536964521
260.855256581688
220.928548807635
60.6052721228118
-59.7394773417877
80.8707373122607
80.5946117880229
-19.1172579136911
0.910930788155
-119.356085615346
-159.10391883756
40.7870876226936
-79.3491575472933
-59.9996584572785
100.048560526444
0.210261368950796
120.984436743462
-59.7651940764877
-59.9157890160454
-79.8812438347047
-159.973460173293
-19.8666943014277
20.2024650541049
80.077110834329
120.748017415043
60.738127832781
-99.504716892329
220.740860188921
100.577191561668
-19.9654733997191
-39.0233979203442
40.1319924718325
100.306500293335
20.2729353189563
80.5827428078052
20.2324732283996
60.6620235113939
20.0940052193618
-19.9307539261032
0.815923746568131
80.7418518524416
-139.180298909516
40.9978014085333
-59.1025553346601
0.911878644156448
0.198547706102384
-59.7021361781609
0.296897054837686
-19.9149175210009
20.675281270682
40.5970783585658
-39.0074643344857
20.7727960339905
180.291318176627
140.974385101581
-119.70807330609
80.7913076511564
-79.5100788798239
20.8764033761865
-79.1102302241002
120.294430693967
-19.0057837419282
-79.9603977218036
-39.7468795104064
60.9107049719033
160.438888215587
60.8040352967024
40.700638622406
80.5287629502527
80.3760553883711
40.7537792116457
200.770175558487
120.431817772205
-39.2013401104142
180.174873971075
80.7354823892203
20.8644082291362
60.8493623488022
80.4421676888815
20.7452645698561
40.0812746307635
40.4791930804292
260.261542909758
240.473465197421
180.599736109891
80.0922247603197
20.0247405593158
-19.6511578603351
-19.9039156760885
40.120155130031
100.623092877115
-79.4984211252533
120.032526785174
240.229550319383
80.3253347846328
20.7564268179239
160.985699348165
120.172499866616
20.7062896154571
140.895001069484
0.674999673321835
200.911708639754
-59.4071067448964
0.282522449457218
-19.3026699625113
-79.2798341581757
-19.6816550980152
-19.0211554433363
80.0546454760221
80.9528058189997
-59.3901429071204
-159.254741557056
40.1249832520276
-79.5061709705662
0.958947466123699
0.925678980497164
20.5273816635547
-179.035766053628
-59.8742213377555
60.5486705488521
0.796771525460919
100.455598643022
-159.388249162099
20.5156099017013
40.1761766988973
160.993475361101
100.421898680627
80.0699730445564
60.2220265012835
-119.052073643137
-19.1775666290636
0.498631867997403
-119.401142867799
0.536411958428573
100.544754803488
-19.4217419577561
60.7491980637495
-19.1962542358137
-79.5081225558422
-139.773374363872
-119.844290482507
20.3066557099461
20.6354935057658
120.775791741253
120.022792870652
-39.5723774584845
-59.6761540809439
-59.5052433526995
20.0165720652352
220.497112458182
180.487292494409
140.426865915557
140.290544615092
-39.5243542126046
80.0871069649588
0.957573676791178
160.365256827019
-139.891626993975
40.6187116226549
-59.789247886325
180.783535684297
60.2701474990715
-59.387833745912
-19.0832718444602
180.829066271091
80.8821868034033
80.1570068138269
-39.4053546978133
-19.5374174085579
20.0761098951602
-19.6413429406929
-39.7182682748967
60.2094782311092
-159.664421450602
-59.6132277190569
40.2617787726663
100.254343228776
40.2408963623031
0.452557969200754
0.924948332169109
20.5254550790712
0.135408035841124
140.780881585363
-159.283548409477
0.26344847582255
0.646862318530385
0.189171961844437
-99.4554244531393
80.8457492477692
80.1886358769997
60.6459579213782
80.9163264440464
-19.1151094317483
-79.3576949452091
0.844807891171449
-59.6063072497289
240.082599378171
40.7757465753572
80.4481359456626
120.721054453476
0.984732864716278
-119.032960147016
160.75696900595
-39.3971969911404
20.3791495588946
-79.914815664543
40.6255772833746
20.5718056267545
-79.1994015601553
-19.2488129198999
-159.833883446286
80.6979940689759
0.565007119093977
40.6612620127556
120.819297290569
40.8559568337568
-99.8828160321954
80.1532317824105
0.268618057165043
0.787151290486548
160.002789337517
-59.5947444454129
140.392940598201
-119.223177391113
-59.9341090763121
0.176524629370753
100.732877434233
160.012362886897
60.2608801262211
220.667072982874
260.42384117695
100.969319431324
120.571915989333
100.066140016211
20.1761595130287
40.1938317390512
-59.4790587774193
-79.389109323632
0.984131850512739
-19.5522133472278
60.1972643875652
0.787346847007598
-59.9119135175414
0.479629925862412
120.835237528826
80.2174564686351
40.4724985641945
60.2593971746914
-59.1295637783574
-19.2973353936281
0.827968011170285
-99.6842622902028
20.4959502556299
-159.223977447158
0.669028584911093
0.355259674305537
-39.5140527048559
-19.6996494576017
20.2578877978615
120.192056658377
40.2500144804021
40.1470224405246
-19.1228007961945
-39.1783053479445
100.915156538358
-179.533081386242
120.592630771863
100.044465334621
140.190830997455
-39.7402382120011
0.428492484807045
0.13979854429622
-99.2297288099393
-79.8064744841922
40.2522351779147
140.94648212838
-79.9898045394738
-119.746934528923
-199.170522804174
-19.6804267164741
20.8144274209649
40.5475256826418
-79.6356804321511
80.2237359324541
40.3596679997041
100.469528577818
40.6356905048452
60.7213590466816
140.144312901235
60.5334608848637
100.925520061067
200.626562975679
180.238310162899
100.286476922941
80.7878782432606
-79.8602046370703
40.3649321618764
80.4520260261031
40.8800829456543
-19.5402825071789
0.416650767420045
20.6317804423081
20.0399146563534
-39.1526401709102
0.754098602566501
-159.104072011597
-39.9066506190988
40.4878216895687
40.1560301761821
0.988754568108789
-59.1161841992741
-19.588185285138
0.786017039224916
-19.4855893386049
-79.4814989170594
0.674386360373489
-39.0783772455447
-39.7575799100935
40.8780945037223
-39.763212555547
-239.697379537485
-39.6273981476944
-119.108405558988
-199.890139732793
0.110126364283667
0.617692685187414
20.3488944466445
-59.7689096666553
-59.2443985407024
-39.2631032312131
60.9641601916944
80.0855124035386
-99.9374585798072
60.6035550060079
40.0778483064627
-59.7798250378501
-79.8794357646231
0.238593818011331
160.854239039027
-19.6177092442418
40.292207167416
20.2463621058796
120.104269670706
-139.373884654028
-79.8535740115549
-39.1392140739131
0.491039442319746
-19.9237143988023
-19.3095272318156
-59.0926800869238
-79.2817244225087
-59.7782551538798
-19.3810600444281
-79.3163683447224
-199.728691021874
-79.7555213407565
60.6338872435785
40.3190602407685
-19.0398503276383
120.268529091473
120.883615405029
60.6225854387523
60.689252415763
140.03177832893
220.531766351557
80.1308268594009
140.039797105723
160.095153482876
0.694939656439459
-59.0089261223028
60.0706672717772
-39.1434844774859
-59.9651182279549
-19.71627774483
20.3629696067861
20.8607715887243
-59.3819432674328
20.9832370045634
-39.9313782815963
-159.335838399517
-159.31236306157
20.2564749629858
-139.057920526688
-179.741563564684
-219.799374995351
60.7145303976918
0.45421558650218
-39.8374856615079
60.5613016231708
20.2529787778855
-179.006314702919
-99.0047618041666
-59.7506208985778
-179.144229291631
0.249556703545217
0.64672212150699
-19.244770585411
-39.860160121047
-119.347767246857
-79.9782383636243
-59.0079480473984
80.0056792039903
-179.914994920248
-19.62071412667
40.1178284344069
-99.122771651223
-59.3716418247562
80.7431688180395
80.851599620556
0.421484683053421
40.2227359302353
-99.4893928099968
40.2149692047997
0.420479377073093
-19.0656870738069
100.067037533407
-79.6344888045711
-19.9096952075636
-59.0589654601142
-99.9230606202549
-39.9288508453252
-139.823918791399
-79.3174628980662
-119.791083688018
-159.188157301495
80.4571566013258
60.6997154253785
100.162823959511
-59.2021589904984
40.8729959931298
120.789200387738
20.2905772716371
-19.2833839876716
-19.143492775847
40.5766188729114
20.083873983965
80.9757054208066
80.8118749568191
-59.2539960760445
-99.1038198250347
-159.844782530613
-99.7436343439653
-159.362568206875
-19.3772759862034
-59.59382869113
0.378894469187543
-19.6509762348069
-39.727388069119
0.342168159533472
-59.2914779328314
-199.637329189924
140.441849150507
60.9325365103532
-39.6426526424071
-59.232362074892
-39.5835761422471
40.8064467043194
20.7871421524822
60.0356287129531
40.9642626754406
-39.2355046361487
-99.1580111939898
-99.0948863023351
-39.170702467657
0.153183357682617
0.387357324705383
-39.0167463720292
-39.4154724082956
0.749848836485818
40.6355851326768
-79.1765991834148
20.1725308195794
20.2794981211513
-19.3152255580341
80.9351661134401
-39.1156088059078
-39.5445424627167
40.0305623579937
140.431643447066
100.431088414214
-119.554914247094
60.7995564180642
120.963396702866
-59.8021866583818
-59.4852734983936
-59.1335444794684
-39.8223012615591
120.334486128261
100.24649543882
40.594413946235
-19.6475303066402
-39.6256131906298
-19.4429370469859
20.1843366753429
-119.94804754897
-59.0667076561786
-59.169654244552
40.7037440936737
20.4172626888395
-119.322595224974
60.0742959615101
120.454299692246
-19.4606148053681
40.6486318960268
100.945394586648
60.6475442764628
-19.5016919945148
-39.1948456177851
0.173977048561468
-59.0313816153566
-79.3470275232218
-39.3162858231928
60.8451967788134
-39.535470492663
-39.8627498177261
0.767653541375481
-39.1553776591636
40.1098120842761
-99.4954379897444
-99.6336708785795
0.395119737236413
20.0558120401048
100.893817585316
-39.2727386828897
-199.886798451323
-59.0914673454927
20.437791899873
0.842732350257918
-99.4243280395265
-19.8483534876309
80.5725419942663
0.972903548131249
-139.099296596285
-99.0151814372258
0.362032688034312
0.1356420830151
80.7065813558871
-59.3926616482993
120.437206696641
0.593691622333381
40.9507847712885
0.242670192759022
-39.7822216717865
0.623186303063264
0.194981779902193
60.7338023343924
-19.0185804530619
100.634768545132
-19.3037278907305
20.7207930727875
120.775000745429
-59.6855565224383
-59.191976595546
-19.8310954400793
240.198586589548
240.974778311439
0.568212419351084
-19.9778563811197
20.3881261951777
40.5312480839289
60.302529734051
80.5126253902704
140.309961754812
-19.9322850820659
20.1127719893562
160.322955133457
-39.468085826833
0.209991852673411
0.814442661333729
20.5883230086837
-59.9180667058202
20.9818809019791
-39.5473386050203
180.197428190193
-19.137421996431
0.980623867100292
-139.0880291181
-219.785081886769
-59.2191924529251
-79.9120805040154
60.3518803245677
20.1347832458824
80.4468183693103
-19.1587853427536
-19.2904766111811
40.7531127350606
100.441659575675
-39.8500575822081
100.988023116826
-59.9926878501552
140.076077036918
0.246782002296293
20.1082445168444
-79.1933036476672
-119.429041710713
-59.8603587802923
0.882360223720809
80.9116886438051
140.642267318256
180.939467757294
-39.884184866857
-99.70774588782
-99.0017583035706
20.629735556732
0.464075811348588
0.452079460923289
-99.5062062304573
-39.8565192099556
-59.3624269284574
0.682604115413795
140.3274539015
-39.0430274868885
40.4115222782653
-119.758807914617
-99.5806910667625
-99.2546273037464
-19.244216341282
40.856812326691
-119.753880929626
0.529561120931234
-59.021287928818
-59.8095322581181
-39.4724194790343
80.5637869045857
100.473142353849
120.990531656918
180.248638071248
40.5820947528395
-19.0056622077053
100.040346324464
20.5585760314816
-19.3694835475087
40.1044671067175
0.499454737217874
-119.030189768253
40.1566222831606
-19.6730436532847
100.225756352492
20.7958731396518
-99.1254843838897
-99.4576508810515
40.5996758941758
-79.6881121480337
20.1387272585659
60.2835025804434
0.264524495500361
-59.9233821253648
60.1969576019465
-39.850134826842
60.0267570689026
-19.9445676836663
60.9227957030118
140.905962556548
0.666201397149074
20.2390801811528
-99.605376486589
-59.4644777646482
100.837195236781
20.0230346485238
-139.110112373062
-79.0761393230584
-119.374118646376
40.6695626231359
140.213420233471
-199.065118643793
-39.3502277619675
0.653681685130735
40.7909257405794
180.402702317917
100.481746017827
-119.474155072086
-199.414766759717
-19.2639001437196
-119.658641255968
0.252290656950063
0.607125855658481
-19.2037462946245
-39.8889706968108
0.47428395611847
80.2976393164738
-79.3899618389351
0.187811543227539
80.057677393992
-59.994022267868
60.0303597184726
0.498473899253725
80.2442663479884
20.9635700090757
40.0667360462842
20.7417042501322
140.765457248675
-19.0653732874323
80.2147728534658
80.9129735229853
140.424293281246
220.110387727929
100.829071848885
140.142397066542
-39.7254173131689
20.1233226512214
140.469470077514
60.7183141706932
60.0548779781222
140.77763742821
80.364139489267
140.420436549138
-139.832911006435
-99.5126926337774
20.5854246319251
120.901479780141
40.6048609520179
-19.3012320236977
-39.8419851437306
40.3975218954378
0.159010474053289
60.9577006391833
0.362603556036802
60.9673395593208
-59.3543741864822
20.7877820466066
-19.2805531170663
-19.2614709465972
-59.4532571330344
-19.9668492442694
-59.7693584640175
-19.7702591837261
-59.80475971517
60.6837080523937
-59.9883682120505
-79.371064460778
-39.3969684414103
-39.4668289039215
-39.1163218151139
20.8694359469696
0.525190350150169
-19.2979807736488
0.299649404952298
0.600289501893755
200.518749232484
120.247046174462
-79.7233475714679
60.6832678405551
-79.9678995941097
0.00594511044666035
0.426431707259597
0.716848366044871
20.0091879115188
20.2517833796653
60.567967797577
140.31259897529
80.2272241725649
60.7965556209238
60.2218041475432
-39.0489632796407
40.3253737964324
60.738896498364
-19.7713731026485
60.6002709388649
-59.2392224081137
60.043935710962
60.8657084920448
20.4934851735432
40.4536623705399
-39.1665502394318
-59.3685393086998
20.9123776621651
0.186249865322424
0.87947930800425
100.951967581769
120.069376943189
20.7402034734905
120.658094664528
60.9350789730315
120.968681612405
80.8649204697311
20.5096429731582
-39.1684103477595
80.015277038899
0.0496887153519339
80.187342218113
-79.9861629369194
40.1001463808015
-39.1611148866632
20.2068989119649
120.21294308391
100.86641970782
180.706618069152
40.1171442670216
-19.9847416898237
40.8895902899446
40.0357131141139
-19.4820180957259
120.232879652822
-79.1882405040755
-19.0570054875497
0.892582556091625
-79.4292779661634
100.436889388782
-19.029377325498
-79.6319357889317
20.0276640621047
-119.421596272268
-59.1875688161655
140.314019964161
120.608919689142
20.8394278943009
-59.2485769511485
80.3281557834604
20.0602356866447
-59.7902254637652
-79.8013469643452
-19.5452517847748
-79.6991996471152
60.7719834906728
0.937222538724179
0.988179196208604
0.484645772904528
0.717192424470618
-39.4198512932095
40.8394706611223
100.047585787571
60.7818809502419
80.0020301074328
-19.4554770579638
20.5540696517275
20.3078868654345
60.9145415342994
-79.1668506828729
20.4143267333133
-19.3036587519803
-39.50968445312
120.851014993289
20.2378731719784
0.407007570049533
-39.3104681731967
-59.7838247642204
-219.570234862303
-119.947559197409
-39.1916643297441
-19.1117132858179
-19.0938319507828
-19.8881869148555
-59.1534177347353
-79.073678636975
80.9936697357561
0.729838064205325
0.422047152512533
0.877911974483851
-19.5048014751893
-39.9477072481059
120.078513813449
160.492039029617
60.3778965425416
40.7637061170547
80.4790851899973
120.642070560094
20.2140092530547
0.594908957439308
-119.485886500563
-139.70862858985
0.217441884104261
-39.7608793741147
60.780145632072
-19.5123671485544
20.4418566813858
-99.4433606163038
-59.6549455354932
-59.9174138275374
-39.509915654913
-159.35861250317
-119.348111038485
80.7455290030973
-39.300102547687
0.871250000249006
-39.5167448596843
-19.904309237267
-39.7237652606016
-39.1672183298439
-59.3213646478954
100.554354937707
-59.0954495667138
20.369490300511
-99.8845710815855
-59.6078622195946
0.810946974951072
0.773733891101568
0.159064105642699
-99.3085236032943
-119.39525773943
80.4145918558647
80.3622653162153
-19.1818200435622
20.7204330949578
-59.9000795704794
0.598639858925324
60.628740123382
60.9859143064292
100.148200273518
60.8263990661573
40.4066196220538
60.8055959565372
-59.1240761618924
100.474812217941
-19.3829900589016
60.424030316577
100.822026831451
80.257746708366
20.2565929498848
160.923822157455
60.4787835254441
-39.9909296587796
60.6488292937318
60.6460064742272
120.10480197113
60.9279040565843
-19.3160083301179
0.104557764101727
-39.0765031946707
60.2095090796493
-59.2532060092381
0.731064609412876
80.1227211370375
40.1184463569346
120.894679498884
-59.4684486377742
120.840851137781
80.4257796513176
-99.4243818210746
20.4336034432265
0.57712853550629
20.9048999639469
-59.2285933486502
-39.7091218664568
40.0817106324585
-39.3533226019301
-139.508273158675
-39.4187971336326
40.682441660869
40.563347374898
40.4736883190021
0.0741228983631572
-79.5911786294443
-119.239942892347
-79.8434186509782
-39.6543037900904
160.966626682985
-19.1528170899964
40.4317517005611
0.8935724283197
-19.0279078168665
60.2553044071452
-19.0803310391809
-119.454087229652
0.576289518123929
0.639464151239705
0.855679342183119
-39.0109249549553
-59.0981607527806
0.106950221298149
-79.276654044845
40.9001929358382
-19.8973519902576
40.5879666365534
20.1132781159354
20.898956266543
20.4192968250753
120.645905851253
60.8291019546025
-19.031377655694
-19.2819185562161
60.7744811678741
100.394708472668
160.732586001316
40.9271733992071
20.0298976949627
20.5075597634259
60.3526178056599
-139.069324274837
-39.5175907376902
120.355765258457
80.3115947920789
20.2607072735339
-19.0100514496535
80.4601127806976
20.3535238670988
140.514010118033
20.8554575098846
80.46921972191
100.589191932746
120.671712859452
0.377779474806061
-59.5499511597203
20.4888037319429
-19.6071155674958
80.01663277136
20.0154312603001
80.0463054624406
80.0294864682936
-59.2740237378792
-59.7157017231204
-19.940449355086
-119.130643653015
-39.5875853247621
-59.5095242121824
-99.4833976899468
-139.136156456248
-19.7555530475058
80.4858975369654
0.510976087077623
-59.9723877227617
-59.7798928248681
60.8257920889127
0.424393251287327
60.2999729732688
0.202531236362333
100.641511583219
120.309200148282
-39.3926979066743
80.4311512135438
-39.2548967121631
-159.643203875907
-99.0761088411502
40.1210859072766
-99.7550020471007
0.437708553828865
0.837598795305856
0.492345268808648
-79.4646932522561
20.9212620783869
0.415601106505008
0.913286633690063
-139.462755008951
-39.2665906760775
-79.9890151493106
0.645572154845659
-79.286378749337
80.2017124257052
40.7178616250808
40.8789525878476
-99.1001633267087
-59.4551443509075
0.765196202961576
40.0408741009905
-19.5690145937527
-79.9837510245638
-39.4990575223493
40.5847471737352
40.5877544334151
20.3109358727873
60.1532806092995
-59.4663248474286
60.2520970137534
-59.1023723243494
40.8966739068809
0.0196868560337293
100.578092630642
0.821963376061802
-19.3407143417713
60.8093748401626
0.362753779804407
-39.3549789709174
-139.289720249256
0.463384253256095
80.6397971661766
120.081971257423
80.3239415088464
40.1945200768785
40.4300749741793
40.7577967765999
-19.9779046455421
-19.7949953690322
100.460899886447
60.6513600501415
120.218050485335
20.7875488031029
-79.0005632235546
60.7324664671115
-19.0188791841792
-39.0310701510999
-39.8043466505964
-119.848620133878
-39.154261842747
100.980947439154
0.454146849003457
-79.8353348808496
40.3591382581668
140.671155091409
-59.2427767648371
20.7571576127205
60.4091275730619
-79.4566455931547
100.492439608137
0.0958772877133427
-59.4615307296431
0.0936236490291408
0.607392650499099
40.5767998475903
20.7049199722446
-39.4897579389709
0.590679894860955
-79.3443360708929
-139.405594352039
-59.9535591123377
-39.6106857667612
-79.1411042875646
-59.289175808568
0.8843933670883
0.455930874842764
100.213413160716
20.1339729546339
-59.2526071879825
20.0814597709016
20.645959799829
0.819454731651035
20.2966767456594
100.178472606147
160.3296870564
80.1505526642578
0.770179237280367
20.7728371866734
-39.613931769181
80.0021511585808
120.786426581884
180.372124073547
80.453716327209
20.5278576969549
-19.6516375161271
60.6657413392855
40.9989905250749
20.3999291554073
60.9109945934217
80.746013925015
-19.4591979829117
-79.8136103420063
-59.8999752913985
-39.6630248271928
-59.7703397830963
-19.5403507770089
-19.3367642008078
-59.6243118023077
-59.6703075789291
-99.6036484507802
-79.3203853360086
-139.573276554045
-99.8623986371442
-219.955353348893
-79.7124499569478
-59.415182091613
-39.9556606241657
-19.6931372843489
-59.5506273196621
-79.1510869961936
-39.2742606761906
120.022003159966
-79.2773790136034
-19.2318748378444
140.012417273059
0.224912917327082
80.494552791415
20.2512985490763
-19.1565597445899
20.4835813128688
20.663588491643
-39.57791574431
0.578987881096782
0.10055906827827
-79.3628716620858
-39.4488367270092
-59.4212308388031
-19.7071320376065
60.7064523553698
-119.288753359302
-79.5369893620628
-39.9205649238489
60.5847955846543
0.942415122828777
0.387141604351953
-39.6664376920082
-19.9779149693717
-119.993277209592
40.8277537181456
20.5321419514588
0.318806771545994
0.412931158845836
0.730516767413924
80.7485814821561
60.6478200615264
40.997591316383
0.321287159065562
0.714520341206999
0.917524479807412
40.9724956286665
60.1243685939467
100.073562899344
0.771811739918846
140.03452937161
120.775403668253
-79.374343618554
-59.0868654709122
-119.880476033149
-79.9152499963001
40.6452490855017
-39.1353910743229
60.0780649329407
40.7607666698653
40.8254884268947
100.299206741869
20.288572625067
40.3353399274006
40.9625228623142
120.265092543776
80.529482116554
60.2438487709817
20.6023052808825
100.152654358623
40.740794072361
20.9624919957943
-19.2660658495537
0.653990117407929
-19.015281277264
-59.1354537063209
-19.8502550960337
-39.3085765958166
20.8190742773459
-119.25832980401
-79.5883244419324
0.0521205778223788
0.904243155001836
-19.1829698953588
-19.8121057181142
-39.452297966314
-79.5291164735917
40.5559327469439
-99.9153004452478
0.275913987445712
0.718867362146116
0.848507628299134
0.510042259779219
0.00970536721404014
0.0436075668426777
0.699599856436343
0.528518973107513
0.767510008581233
0.266136418958007
0.944174580373529
0.849887724806434
0.599388155558824
0.654104840957042
0.55417113185567
0.143419124784036
0.608800660727876
0.334321681920807
0.15581799575903
0.509107085712446
0.70857193791121
0.850475521205628
0.785014968784762
0.261773935594811
0.860721054033046
0.751391226462912
0.483455631042737
0.459066036210015
0.209970334369713
0.760858285020008
0.641214301925538
0.348046825035584
0.674255812806271
0.397047670022661
0.955716563334314
0.724926057169848
0.177490219513632
0.685774921930429
0.898741031157562
0.767488180279529
0.214933408534061
0.46933710830185
0.40527535045357
0.201473284926077
0.0818808274395459
0.330699240843469
0.551268680560752
0.803003642898019
0.635494865464983
0.836413974720159
0.631096280744457
0.663179843450634
0.487900474205644
0.172869457426019
0.743987208526209
0.0445549129175195
0.210195305994127
0.438496083939057
0.701112598279532
0.570426980831419
0.0640262599773342
0.0817034307407274
0.680473027246737
0.247794409358665
0.743211256251895
0.385622429655355
0.352716721872846
0.56734814930993
0.0807667366240292
0.814712264047079
0.469631230750558
