-0.744914289235269
0.282737573797088
0.0280809778617878
0.957254469545617
0.755241970424027
0.615613132979922
0.892102622637472
0.0809651928760156
0.895463496072626
0.853081041890638
0.593408352071892
0.737391419063537
0.369496498132321
0.0464948106723218
0.289664164392952
0.354769066875235
0.88070218943668
0.207153985202566
0.332973711253286
0.55327319865077
0.313945766640835
0.75598999829942
0.949899535463609
0.952640151303045
0.981304493278589
0.706988062170516
0.605195201364952
0.583568026055076
0.569748468786006
0.479133543320413
0.256994984158017
0.422090791081173
0.513894107535529
0.749544075791643
0.266155147587095
0.0881486412617316
0.626605310649565
0.446737009531755
0.504535583199148
0.772396898593236
0.898315993964436
0.276889692293561
0.0625936923985816
0.92518390163627
0.844651481646297
0.580350719957469
0.875902877922607
0.394225385110001
0.267650899580521
0.696591425644732
0.361119049616967
0.763382931097503
0.331706207710378
0.373146027771191
0.152911847372823
0.856140713981722
0.363522945388976
0.290866126254142
0.944293266407095
0.384004042541102
0.885616035974166
0.393386913862736
0.345329805582409
0.102062317859063
0.812890864483487
0.138676699973823
0.286339629971796
0.0637380672388013
0.984398527998684
0.0402859279439461
0.213532135908441
0.482263378916505
-0.00166933504495709
-0.553703121825873
-0.793418415540259
-0.339239244955024
-0.656131479267072
-1.40009042097234
0.242463882977584
0.31451936852478
-0.297506514143465
0.315965573394406
0.387314597092295
-1.19040990613975
-0.978966140623218
-1.12140738666563
-0.525815098659875
-0.468796757053051
-0.780985086661728
-0.296860621002197
-1.67477050536535
-0.829692815656757
0.0119036287498345
0.0969249684955442
0.173331939371491
-0.147736382246861
-0.172864040093758
0.267546335250017
-1.84412407631861
0.694694896010002
-0.275336678916317
-0.69924123086918
0.243105370487228
0.203302208649515
0.468222444230074
-0.540668160480131
0.178741947701153
-0.173352258207286
0.235420583388282
0.49171033822206
-0.0131345553122983
0.991996213789692
0.472588267588059
-0.0500713879338534
-0.163059752768996
-1.1016810927376
0.876892092546592
-1.05923095860699
0.0377543007233531
-0.834865285845287
0.60966872812437
-1.04922951826024
-0.0180695327606558
0.247391445453365
0.134185316588798
1.20328129375414
0.377010929659894
-0.287532403882389
-0.11870379241472
1.25373870457652
0.525910300350793
0.562528515003693
-0.946982640061861
0.942882006746658
0.553179116443876
0.381063203909204
1.66207760499626
0.779216890391947
-0.470337253284684
-0.407210165218601
0.392013034294098
0.716912133948531
-0.71736705034027
0.672850280967449
0.396733028717059
0.763276727116018
1.37629679189841
0.463463526784229
-0.391721755977168
0.610981874998287
0.133381151777906
-0.309380896304396
0.863873153447736
-0.220395671762414
0.684474912398091
-0.677036239048342
0.425116004191181
0.19462517117057
1.68902242275759
0.471583085215161
0.0536510657132852
-1.27414728183372
0.567406793720404
-0.51138459794586
-0.35910700497132
0.0691152885669201
-1.12696166474736
-0.0931289671301418
0.40714465660181
0.401587630631566
-0.109224914323113
0.869918190942705
0.337088395283624
-0.135265587441693
1.01196718310018
0.39851609721716
-0.145114006537924
0.195973895834256
0.410502619152497
-0.925143082441586
-0.710020392393897
-1.10178809040605
-0.343930987723478
-0.757059655974077
-0.327015738659418
-0.0551996649288632
0.130045301349203
-0.439209053699091
0.0637110994091382
-0.0162975266827735
0.153134922627329
-1.06043181278041
0.580623893111459
0.530176067898697
-0.189065161233701
-0.0156859475340443
0.919093566799203
-0.309995800964514
-0.186768710573172
0.397267134493255
-0.840329081583572
0.496206340519899
0.237161023140372
1.85077461020569
1.13998765477813
0.522114290406503
0.949390157068415
0.180087917158068
0.710877104619243
-0.630181066893652
0.384530072699552
0.716883283455546
0.239972919489594
0.808584852312082
0.507650902751479
-0.654163262604842
0.421055992203071
-1.44889902879802
0.187943642512224
-0.545583057141793
-0.66987216379475
0.801458874232938
-0.372636423769587
-0.93019127572709
0.0694606098248621
-2.07309165845112
0.371984840235712
-1.14143045339518
-0.592340925729296
0.0890825985117926
0.185902185874654
-0.0530287245377314
-0.642798458631386
-0.267677818226993
0.39195360123591
0.83733660924828
0.47125557515945
-0.657958592712153
0.791458716538351
0.752376733738689
0.484693434353096
0.899021612231155
0.450664061093459
0.892644814645559
0.432938264848156
0.840725896279319
-0.345077892024462
0.344370452856687
0.0341323683975904
-0.176093608211066
0.771637696240271
-0.888761106876932
0.0781527959384578
0.519443153398774
0.213112005922556
-0.0553984486988996
0.162699616469039
-0.57096013651232
-0.358174073343136
0.419993691119199
0.136763358897129
-1.36682063905487
-0.582696925294572
-1.52186520603907
0.16047220518069
0.087876045939844
-0.751780176720865
-1.0766450939884
1.4981017725714
0.387568436710299
-0.0252253314059214
-0.123347695932435
-0.15040769364944
0.151918467070632
0.095726472446326
1.27032941374632
0.578800286837373
0.509878785837138
0.601358347446591
-0.854897868285007
0.731796429242103
0.365711242551292
0.342090484282411
2.16131907043631
0.161632537893496
-0.268603314695176
1.48068964933612
0.208377208893817
0.312600673429737
-0.255382567628023
0.203648185779096
0.923547177459368
-0.0802273196745029
-0.0246670959620539
0.0705720659587047
-1.10624933800946
-0.689777476096645
-0.461234327376358
-0.961378996295173
-0.613069387993802
-0.678527073042186
0.000673608764186706
-1.06036128084005
-1.05340499698224
0.735319155751417
-0.323961332631003
0.730022938608396
-0.80381109427193
0.203644086008204
-1.52120874846443
-0.131313669305762
-0.173218601910012
-0.155820906559083
-1.11428153429891
0.780274162220388
-0.741200406350325
0.894219636237585
0.636805455554828
-0.935232061993773
0.907952275724153
0.0426101738728628
-1.6702444380594
-0.219426936286869
-1.00727322787669
0.810501069996074
-1.0822371463193
-0.544964960994612
1.13236238993699
-0.808691707910776
-1.05745515416501
-0.0347606419477824
-0.427007778829347
-0.280318088013932
-1.09821470841539
-1.11132476404441
0.0660434285148195
0.224741974596413
0.161266542729871
1.25166581408485
0.178061643007663
-0.34538773076701
-0.166803638140912
1.00793448985572
-0.105834723730505
0.641968550934194
2.19345828764388
1.39698407704563
-0.5416790902604
0.21173048777025
-0.243714644960261
0.886857323816363
0.186295894403756
-1.48392070799913
-0.134519463603578
0.75259807826104
0.0928181473140143
0.659848386295792
0.0680618401046131
1.30304971839779
0.959438225263674
0.955889872067819
1.06632292049761
-1.68073854652995
-0.247494354124824
0.553730368308738
-0.0618117080555429
-0.701469070598755
-0.0173347573959559
0.198971033668982
-1.03854724567446
0.216120635782753
-0.460695393123422
0.783254567263937
0.800103359676734
0.826322161527272
0.508528194643479
0.739314733561697
0.724707764441023
-0.675838953181059
0.297730737942778
-0.856211272835623
-1.78959405490021
0.364002668958419
0.836593621458636
0.545576059387254
1.30137576626616
-0.607289576960596
-0.543247290973531
0.0661878089465315
0.0845795345561339
0.0385477238135618
0.913777510062119
0.926049781956632
0.168183632465887
-0.734518245658588
-1.14888053281436
-0.486895179172364
-0.149683615525199
0.00155022726860748
-0.0481221113795517
0.971004353666741
-0.949377858056182
-1.12604993386294
-0.933849589085638
-0.561619247430873
-1.58271185669753
-0.27122190089565
0.444182322791401
-0.133982002172466
1.86447007075739
-0.346665296964616
-0.262738930525994
0.47192238743285
-0.380380415696178
1.24695620983002
0.707618317955761
0.457422432550782
-0.239708429787555
-0.202345256863015
-0.120873693939326
0.610980758288449
0.664039326389221
0.195418888332525
-0.225383627575554
-0.16450872548795
0.628510475233616
-0.416882975375509
-0.214525321674863
0.725756062466731
1.16668263055562
-0.669674305759273
-1.78491571279969
-1.59589013202399
-0.452066592618323
-0.942333906218636
-0.913886137381899
-1.13940511241618
-0.711595250735302
-1.06985759563459
0.293175730733286
-0.18620916510046
-0.671375393723206
0.657734541736831
-0.694859266992271
1.43304483593223
0.145654013160566
0.857866357186714
0.182928883348953
-0.409324853609971
0.235973755265161
0.583285081034249
-0.692452905981554
-1.29534289287022
-1.21134929948537
-0.204061385949283
-0.214731081262864
-0.972569968894282
0.473140282375681
0.397159595888492
0.84830403971745
-1.33646964199899
-0.000623670314749136
0.691574443159019
-0.729190379492346
-0.599142204283337
0.355668798496854
0.368223067225573
0.173808740631061
0.135472717863319
-1.52717469693197
-0.548933848288297
0.261536954308838
1.27327068406891
-0.118240864488781
0.118867899467228
0.551884952278683
-0.81784268766678
-0.0113351071089994
-0.819910677129331
0.16017653301591
-0.00976029285099561
0.124689989059798
0.202754989377202
1.12487034118449
0.975656002358357
-0.168189656512944
0.457950878622318
-0.0687240875267331
0.373692537112075
-0.658175548295172
0.465156039594716
0.831823469431308
-1.03768394480468
1.15001302261696
-0.493479757199909
-0.576577008098017
-0.967498908715322
-0.926814246164295
0.133914168443153
-0.325652319430709
-0.882925691415051
-0.314629364205982
-1.17958184059886
0.730908913717875
0.2484179473551
0.58154999063117
-0.587000719403964
-0.952057347543655
-1.1238093398427
0.183093953463095
-1.18944700091931
-0.688127298596548
-0.0934240702599936
-0.533916128146707
0.156498143659805
-0.451686418169952
-0.46474509516812
-0.0918970565129206
-0.745070337579211
0.536672578441568
-1.16914686810896
-0.332664474900353
0.319736030730386
-0.0601912937164655
-0.223260325881241
-0.470270232002098
0.142052076186355
-0.261962674044236
0.189623318361587
0.308675887668421
0.376421444326074
0.0240244505426515
-0.118417912775627
-1.07698671018513
-0.745209081475007
0.797632019096197
-0.216461457032062
0.38841443489041
0.602916495641984
0.0796455716472249
0.210706990893563
-0.00750885219627045
0.173626451555244
-0.901350407410738
-0.566049533066966
0.400471119149494
0.284665977512124
0.160211749960385
-0.798398284863614
0.139804502148497
-0.665543184284251
-0.644479384658467
1.34872761641199
-0.557913552921198
-0.960300270910415
0.975111270631701
0.701163039600869
0.375099145319734
-0.875453647140322
-1.15324300526558
0.551301738171446
0.475213639983327
-0.308002866034623
0.580743026389108
-0.825091664230213
0.132654060239914
-0.207355587149311
0.0941960503633554
1.36619870811883
0.461011079253226
0.321118251867156
-1.33505692698684
0.0519969618136437
0.395461290940163
-0.57598162856562
1.07879877800121
-1.71441693637089
0.650185853814824
0.113660577556698
0.0273988382273668
-0.202355458516892
0.113760139683146
-0.17591265948225
-0.770878128518744
0.386434603495969
-0.249763285058125
0.658137025586494
0.354364097948667
-0.750555863723009
1.14326858923585
-2.14367979685601
-1.33867514860862
-1.91122525826204
-0.993190779245245
-0.921936900065896
-2.01660122154345
1.24221418214569
0.605342396416802
0.539156530566166
1.25817077482284
0.546876788762527
-0.855462087585165
-0.104677409276228
0.573587738586356
-0.899620912398419
-0.653841839489821
-1.0392434972651
-2.1282089988093
0.0519148321426788
-0.659603145576417
-0.50829347640411
0.318750661064554
-1.44709081417788
-0.238548223433202
0.755198351160627
-0.0368931503016509
-0.493855606289527
1.31263976633314
-0.502458553028173
-0.156123006703622
-0.678717167482736
-1.72379648105574
0.8149452207217
0.76948716667792
0.146231423250167
0.99083012351916
-0.155186792058442
-2.02781880750256
-0.323260143819508
-1.08787429190431
0.392135143316061
0.363841377063019
-0.0343231402051424
0.97369915270026
-0.254444172445953
0.459281805006688
-0.579036898626153
1.40906421494975
-0.602685161462992
-0.0342457746363913
-0.131382025181613
-0.75185123809135
-0.934655949608227
-0.42159244838201
-1.14443960404231
-0.838144098461962
0.643955506432586
-0.13590129993709
-0.0303477721513868
0.520725877189941
0.356849892977834
-0.489426708620174
1.62483853136862
0.656145536531228
-0.115354812701646
-0.0666543200455955
0.259578366313412
0.25166545912773
0.884710389012911
0.152474749628402
1.41184177257654
0.107129318595858
1.02381219430134
-0.32870126409939
0.916186186777838
0.60363448514824
-0.578997651779411
0.286964695060817
-0.724296396882491
0.754956375257056
0.958801142350062
1.81272176122444
0.50692835283449
1.21951864017584
-1.55033411568356
-1.83248106870925
-2.59466666575396
-1.90607456287656
-1.36142257207886
-1.36113269885839
-1.02399854278367
-0.0649931963841006
-0.86208640887055
-1.15435750966013
-0.250724589136202
-1.57590029367804
-0.0542648582226166
2.55954461600666
0.982673027286346
0.00038080525528611
0.0473953800018638
-1.38008014256197
-0.215392992177491
0.548966247488367
0.855414074082528
1.18877280144068
-0.506850142088107
0.515598584532105
-0.395902649343943
-0.203276304706705
0.619627792893057
0.735542359205744
-0.329802610499562
-0.34117309446704
-1.78091840407847
-0.032400220880558
-1.07383024439337
-0.838924212470612
-1.35678419678704
-1.89074452912031
0.177985891359015
-0.385005198520588
0.610391872518665
0.0907538134239008
0.177822680079566
0.0862826166422938
0.191921500257619
-1.00909202948715
0.744616552427685
1.2144877187711
0.718033462900388
1.06497341271062
-1.36040412206687
-0.310361610899644
-1.76858784833116
0.922117308133956
0.940678319175678
-0.253103947656985
0.17571878482175
-0.0917950208021991
0.891164133364043
0.855278566754755
0.648302806542778
0.878367594877706
0.569748232426272
0.050401195559213
-0.228448913396067
0.625334443675424
-0.988374466549916
-0.609362829974009
1.53415320530296
0.682184731288476
-0.623399913495466
-0.277234988108181
-0.239273129985128
0.472820187194413
0.736499478236814
0.375376420682123
0.0702028223360019
0.0288212127361017
-0.0519533572372776
-0.739510198728949
0.841102549372953
-0.13023781842601
0.459937332494026
-0.274658798272441
0.249209816494602
1.48472214375338
0.380315438130846
-0.172524040892523
0.517269298589173
0.134450484533364
0.0235484450553476
-0.369737222422509
0.818675001339822
0.871434618142817
0.494068875276332
-0.514053603853409
-0.165829589310301
-1.02082105662644
0.700079608361122
0.128330898189054
-1.32576526152645
0.0897780952590015
-0.375908929503467
1.01729735814509
-1.66231224918918
0.866763284904617
-0.832273209407
-0.419268094755293
-0.688322241984895
0.752752977338518
1.48916330193276
0.0277699393469116
-0.00350967232230309
1.37527334888097
0.763481183809061
-0.321374372914246
0.38768622020837
-1.16010413974441
1.74982578966822
0.950861900885572
0.134275440437139
0.975790351261014
0.431773770866439
-0.201718902816041
0.163015421110568
-0.558047304080605
0.377866698660933
-1.25696266147936
-2.39191511770135
-1.84629026546077
-1.67121926529725
-1.01695093020929
-0.225946089349305
0.963856455539374
0.566234699081246
1.021531910432
-0.419682662899288
0.825788037722101
-0.601325259969226
-0.389888834230303
0.543752341953097
0.0577080126927943
-1.15575805910815
0.825230746640234
0.65773678162734
-0.0776365652045838
0.113925073571426
1.02535056568645
0.365375626965741
-0.405350995387265
0.836646341491189
0.165509266725539
-0.433397809167844
0.264820119409342
-1.14891485339918
-0.149689598299222
0.682399130981321
2.14615807924912
1.12333817567288
-0.420296771159938
-0.128604801471248
0.376122450052428
0.987686606951283
1.39289494912802
0.0924316067323204
-0.378965847642154
-0.376840312819582
-0.36624781214078
0.651145828024452
0.419948768027491
-0.449746916461161
1.66804879017393
-0.444706747773976
1.15758242629865
0.339823169046368
-0.156581965614807
0.279958063965853
0.569321265445682
0.0483720967418956
-0.402289053109136
-0.337584060875973
0.413438215975957
1.15604789993201
0.793599090276645
0.393714809038082
0.496175973593195
2.72639798974228
0.45527820428589
0.826298765247464
0.976221607130237
0.688974689592196
0.334926860291207
-1.33657927550367
-0.844170946137928
-0.970912021006091
-0.0188542566420754
-0.274266945217214
-0.721869133847613
0.549605075252719
-1.47155511925584
0.705139976341742
-1.57276913346701
0.448184907220547
1.30187030184641
-0.391260504510443
0.5603948398482
0.542280435911139
-0.479604366602857
0.72011284224793
1.52628919224924
0.851132923285287
0.376901420211781
0.0398612579605924
-0.0983291723413761
0.530775903765155
1.6657711498808
0.431545884521877
-0.718855552667238
-1.55059411005871
-0.947109797896754
-0.319081247609778
-0.032957430125835
0.363371599431113
0.383597872470058
-0.31603094858614
-1.31605701978443
2.34877275533256
2.50639058474577
0.0711099839785773
0.478959642256989
-0.659786582549917
0.929331326202763
-0.588900190926019
0.832703868695006
0.491824741144674
-0.0555252781106508
0.508893475039628
-0.971688158082212
0.231954254485023
0.86396477545648
-0.700324520667653
1.47425870008246
0.85762436226692
0.353670609479173
-0.29103879072666
-0.498334664686194
0.566701042023304
-0.968326658795373
-1.08344838092195
-0.503651363567361
0.397750928015814
-0.154466489987679
1.41813368557285
-0.312230274311627
0.468634920051428
-0.385717565001405
-0.0850152996568095
-0.314111320630407
-1.55697815670636
-0.0462035369307378
-1.61878803563131
-0.738577342240478
-1.08923591199893
-0.658208259735941
-0.317071089443159
-0.0755337875767517
-0.0345294813156682
0.900140054699719
0.34690087939617
-0.557237112280813
-0.439392565485948
-1.27313455589326
-0.145598211028771
0.171223160381736
0.339811323867693
0.61459784940531
-0.0111756048461197
-0.462159473741842
1.59745552393046
1.45415485366444
1.14772194395674
0.612649187944613
1.00018745132749
0.554953964223206
-0.203523180235136
-0.175369670286707
1.62461654499489
0.691472060498502
-0.732751774578225
-0.935703725482578
0.094165211136013
-0.857191925112622
-1.05385810916282
0.632924164773789
0.640081810246676
-0.497190960429379
1.37023973909395
1.33235832307323
0.0863779260973874
0.544265732062337
0.0944268597649765
-1.83396527880919
1.44935476853049
-0.364556739173474
1.47100794041896
0.272465171018926
0.638495814054511
0.0923516780752394
0.0508389580639261
0.0618575396279066
-0.00851426991687715
0.896754712120638
-0.619599514460023
0.0756583304108987
-1.95566338924864
-0.601638960524482
1.11718915605141
-0.175057967974342
0.70173879772221
-0.687151921218869
-0.0490998526271609
1.205240413256
1.20726997722825
2.61536555891945
0.956161964992786
1.48652682536024
1.05985011648061
0.442265569941127
0.399006541578834
-0.353789526381562
-0.784744183902125
0.726770102566359
-0.582824522637692
-1.05967726881783
0.0207367926848782
0.20992673046778
-0.187301318950457
-0.116260797071109
1.16582552603933
-0.367281889663895
0.26397505885531
0.286592409508802
0.28797294623453
0.417738599209384
0.147895468420756
1.17771801039273
-0.620553475225167
0.801836981488399
1.00157966674519
2.89977004388361
0.483670708535304
0.520731737890711
-0.0645467615193073
2.09479776732013
1.71782148404999
3.76820196424552
1.59878911743228
1.69117988139073
1.38211700339057
0.67674868830841
-0.337052663397319
-0.259554077636353
-0.501551323021787
-0.489248331690243
0.0655363320224304
-1.24904374992863
0.0136679278689307
-0.580717755593268
-0.392348091746153
-1.0533389938392
-0.452413941891953
-0.667849770663419
0.966880102724984
1.25369883307344
-0.453839993549513
-0.195622914465693
1.51537758295834
-0.669593944726461
0.784517756170854
0.859362284501265
-0.653416761252354
1.05435134596707
0.118613074167185
0.00541866451114975
0.296407925831913
0.7640397243217
0.104827674971426
2.11000156587267
0.752733945133053
1.82217886395195
0.409281293835869
2.21074211082843
1.1343777589541
-0.114551158198386
1.44840566134445
-0.494927667918228
0.035124497803893
0.491692550542122
0.0842220832094578
-0.852665815418182
-0.466433844005858
1.59881744140486
-0.704095008983381
-0.151900195797199
-0.122491582856773
-1.08199937809736
0.293561826868784
1.25762618060772
1.5323684251287
2.03767802538499
0.644544814838757
0.504878351207199
0.23357405614161
2.40282820093701
1.49196571475754
2.70191003739929
-0.291917216874609
0.225006178659334
0.472255524368326
0.880860209734316
0.955165649435488
1.13673686243748
2.14211341089361
1.6331634627001
0.728682969039679
2.96776647016192
1.60812020676785
1.85839832230326
1.93667045861752
2.08930381189012
0.490948572806793
0.828173441593453
-0.135925098826405
1.75862740194233
1.84013295832177
-0.116917861757252
-0.632811966264589
-0.241981421648231
1.05226013153785
-2.64664766217876
-0.778118642182634
0.0745285409541965
-1.14708879686228
-0.107216029316354
0.0528561321339818
-0.0364967513731962
-0.366331863290814
0.208561201659204
0.100768264850272
0.818546051349651
-0.80765063717665
-0.891856257046865
-0.645145020540864
-0.989201465363982
0.0894189917226894
-0.0259101062532931
-0.0790432122724762
-0.558747311649138
0.826551876257141
-0.23497265123326
-0.523571522141909
0.0453245269675346
0.242374409275693
1.52272683299258
0.591457178866165
-0.561185392375139
0.714170431455711
-0.164371012329623
0.892466397174566
-0.335981387552896
-0.338933097429197
0.493684886374252
0.964588109491433
0.38350837169258
2.38904907100375
1.57797069652506
1.09247997405496
1.30588940210923
0.412407754369357
-0.516025134222762
0.584619858634278
-0.821708582791518
0.436658715643594
0.00832899698727368
-1.5340594437734
1.47168557127203
0.749920602154187
1.33071776783363
1.61028729616
0.546271212361099
1.30837618159627
0.463596639037089
0.486912291589793
1.2738257642999
0.701426315800858
0.398426696871581
1.41972758938774
2.07998026498685
0.735583011980629
0.815613346243303
0.480067153404791
0.685528554433754
0.776586521872419
1.25317516627755
1.48620168684119
-1.64627654230568
1.12387144975453
0.420754101175657
-0.00995488055330623
0.265316968100669
-1.4401959379319
0.121722327372479
0.957058015788576
0.478707996396082
0.116376958186194
-0.368658933617147
0.744017933488401
0.550053200020768
0.488167711356957
0.39765876837634
-0.346170810146669
-0.880484053671647
-0.685323478474692
-0.0172633114848327
0.272776334929594
-0.0820167619923383
0.908044785764155
-1.68718808231342
-1.25072386226689
0.446130026616488
-1.51936900185302
-0.95318815730143
-0.215217063617051
-0.398390567092304
-1.56021207032647
-0.181818072121222
0.154517272980655
-0.432072514662637
-0.724098644914133
-1.30189381337279
-1.2263211399021
0.745280305988369
-1.47011288928916
1.04416267116421
1.88314624343199
0.722131420215228
-1.06006185209527
0.302222993718107
-1.19012788273935
0.0408151498026588
1.50698429922922
-0.561868023318951
1.53401255780512
0.634472437845922
-0.139793221301271
0.955114086095078
0.869982476087257
0.558717020839993
0.459781733011098
1.64968917750802
-0.0738821138745963
0.575635169881832
-0.774532693898321
1.21848597692852
1.6716519215979
0.626255449588617
0.407162849942013
0.305189130863488
2.93159505166127
1.85969813239067
0.87169970718694
0.23738164632481
1.72222895753741
0.0735629433058315
-0.0204800134998067
0.673171524976097
1.05094365544347
1.25558010640263
-0.249559161025581
-0.768121747633179
0.291399276211733
0.28500502349668
0.01565882446395
0.960713014293809
0.502807537976292
0.271029976323798
1.19629059204291
0.203046979712708
0.485891037703785
0.0661829813493227
-0.441959515364994
0.253221300719932
0.219368371841163
-0.0182471490038326
0.166581742235226
-0.846017623264525
0.111920547342374
-0.384950529870418
0.91138931692601
0.369699016407889
-0.740203043891952
-0.560645842314734
-0.698492847307587
-0.396258635614793
-1.021718109789
-0.935510887607224
-0.9596972520853
-2.3553393127688
0.251899617209723
1.52146093014588
0.930729498012905
0.440752979527203
0.305127889632968
-0.814396281636084
1.30805487375383
-0.309830230088683
-0.413002476597455
-0.411961359668187
-1.56344949401136
-1.14360444938017
-0.0819893369465871
-1.89673489144851
-0.336818119623398
-0.576947497887791
-0.884603515082022
-1.04729472325866
-0.554740217298807
-0.622750521717807
-0.325898696657495
-0.400454623177003
-0.605706283690848
-2.25300708215747
-1.93084691927485
-0.678648718926374
0.121886055052949
0.342758907192863
0.625901278868528
-0.127709487717
0.72474941954601
-0.34545954949961
-0.00670384937034357
1.48676053858738
1.51698525818746
0.0841421853428491
-0.091481596948205
0.485416427066056
0.0786203267687708
0.0828147981272352
1.25282069842157
1.54663138138987
0.768976763643404
-0.335606020070039
-0.171005732594431
0.489622345285536
0.289522683912648
0.0500334452867028
1.48344561608315
0.434136301624601
0.474502153306554
0.29202780921193
0.337716734752112
-0.525751301492709
1.10880460522593
0.532010521088729
-1.47877841662824
0.013682510564631
-0.754027577085805
-0.748404191212062
-0.562043475961287
-0.650810608521516
-0.325545375754201
-0.631623746999698
-0.946203557675052
0.94638254429171
-0.856345106062617
-0.816191705950689
0.779179953530317
-0.485560245307355
0.373906488900612
-0.3544284875419
0.869318354463624
0.178226437117371
-1.3988132424335
-0.678859032282513
0.439181588824001
-0.112157144515432
-0.0327946711634114
0.89319895601577
-0.27892263293521
1.2430699522183
-1.49969009854439
0.0273539613522888
-0.370541464456197
1.11081662342833
-0.326716893935522
-0.359063643667328
-0.525849364161152
-0.970295127459619
-0.245477953921344
-1.39023128596266
-0.459453463857989
-0.471268706962565
-0.936904880786816
-0.535794275899664
-0.585709368617324
-0.883405815406663
-1.74904439862653
-0.61449617645676
-1.20251699228378
1.07461329075335
-0.130909012229859
0.121109915995651
2.22943630922192
1.31038832811792
1.68496624332363
0.983031758690061
0.310863187817001
0.336154810166302
1.09752300338229
0.214005924379596
2.69964086291402
0.462394828437035
0.991510877089175
0.241774103420193
0.880291906776727
0.179437306716358
0.503076307729147
1.56112509885262
0.37298837292962
0.713029791018043
0.0965375671295501
-0.634570026278335
1.03453297459354
0.581727640501292
-0.325210389903822
-0.291762926378141
-0.387436941203365
0.722224232413303
0.462336035191168
0.89622694605404
-0.357295115497725
-0.912965304838079
-1.18326212068187
-1.03142619750323
-1.21321920993781
0.363112220740705
-0.671516969925859
0.473239294188902
0.329952418464147
-0.998659816771664
-1.35707092296533
0.548576819162912
-0.540655133916232
-1.11289778307966
0.626335004642896
0.242191162605331
-1.67303671157109
0.453168900451787
0.336100426734523
1.39888418614255
-0.820308452381864
0.990028452078995
-1.16174579720546
1.04430675203127
-1.52394044801785
-1.37753418677927
-0.695053717702176
-2.19925626780086
-1.33998505264677
-1.44330515581652
-1.83796399371028
-2.12586536361585
-2.03069451752386
-1.47160384370375
-0.46737871485311
-0.616610560788163
-0.971593943976779
0.488532072919497
-0.379276690275345
-0.650511337657257
-0.20849105142122
-0.063075581304622
0.792011611809665
1.68628413148178
1.6106875760433
0.860044317330136
0.59247521318742
0.753527642803105
-0.843227985555757
0.153733495880002
0.00277557983856519
-0.536900963168084
-1.19795367554888
-0.38443535585771
-0.686762742884497
-1.03658365239516
-0.0241702413635125
0.727981118376103
0.769684272695495
0.636998529361638
-0.705536419490126
-0.436736616063396
-0.583527303374927
0.680342140455746
-0.0463326268357452
-1.32886871496326
-0.129547680346094
-0.923331625790305
0.739310227699007
-0.515663050587008
0.26565144692184
-0.0116160084356167
-0.379284252416208
-1.65538487422812
-0.762808686292038
0.490957725676443
-0.0448539529322871
0.710499041350007
-0.682134127228122
-1.97494317153178
-0.249127970058718
-0.217023214182334
-0.342896941987915
-1.08745620179393
-0.427487522200982
-0.187590532811235
1.60450413086292
0.656010075214228
1.75989026578418
1.73740374980202
0.717339010027158
0.533457320284923
0.514988099891014
2.59591581877412
-0.422383155627201
-1.30122986550563
-0.084477329912554
-0.100410066024911
-1.97760713100794
-3.20179473880602
-1.31908013878462
-1.40349658789782
-1.24901447402867
-1.44263323059866
-1.12809206023871
-0.481154052656323
-1.07216276423239
0.340223398538564
-0.00454880330925461
1.84649903520142
0.959840292157714
0.780996697988094
0.803472420496606
0.678331301688243
1.2289892978535
0.586650493628833
0.74429345022751
2.33768207013498
0.101943985401241
0.283709886634896
1.3480906482641
0.596858294327427
0.20576681179387
-0.251480984293809
0.119991982224433
-0.212261167287909
-1.48299816641969
0.00863282492910694
0.63718155736408
0.11245079594795
-0.541989788414565
0.440732171277114
0.702566469525353
-0.30122248240494
-0.234568831752872
-0.489078570245871
0.969665069003775
0.324875628855975
2.32919506448944
0.746323377719852
0.66057702293302
0.0712721186218917
0.140834804396526
-1.5766332529576
-0.459400496669898
0.0176524283831179
-0.298124051882194
-1.10857806141583
-0.210570506281963
-0.325137566198972
-0.691277426495714
-1.91054840896331
0.341268601786719
-1.47471955215359
-1.00401652850347
-0.267223843977652
-0.874227138757552
1.16903982055044
1.54450244435535
-0.521923963619086
-0.917145411156064
1.56380320207058
1.55486993716709
2.28351518558727
-0.500366662665237
-1.76630249930967
-2.93009715204031
-1.83549975933802
-1.10104332540329
-0.699576240105615
-1.16124635099031
-1.69944397077096
-1.30543521174855
-1.66107734853168
0.693111779996696
-1.05330098494586
-0.983746753276273
-1.33865739403639
-0.640818213821933
-0.943850884622945
0.789819924781534
1.28973373585865
-0.925209012147254
-0.243689867455822
0.686532557507856
0.653607227281686
1.4606392834178
0.728588502331635
0.12332436068716
-0.525451536762716
1.05723721917229
-1.85043827416136
-0.58259950212535
-1.15773164874309
0.475146491110181
-1.93593276170686
0.0780878484733776
0.246402099710695
0.928848114213058
0.24116107487877
-1.44529745640276
0.326183023606658
0.140796455539982
1.55913992835178
-0.181115578492331
-0.596421795092277
0.512834285600478
-0.201937137277536
1.41593244933119
-0.641424796631495
-1.01065380441494
-0.90914631343845
-1.63908745102108
0.189200552340707
-0.77470194801269
-1.1136729460361
-1.14607445441343
0.461751290111501
-0.275669329514021
-1.16400100662928
-1.8154967311149
-1.49775540241674
-1.44185086480218
-1.20425879539929
-0.0544313556849842
0.422029241086582
0.195760550529146
1.04798479878422
0.148360817462572
0.946846990936486
1.38022830190314
0.703414524194362
2.58756159652536
0.241098093592745
-0.611814739012016
-0.511064348788362
-0.872750935025793
-1.71605014352544
-1.95006478246377
-0.0864470672912591
-1.02156435091038
-0.308255146038054
-2.47689233153564
-1.58911017914234
0.463287315457251
-0.507981021806967
0.729868380266571
-1.87064519538413
-0.818484462943284
-0.763341868661045
-0.388006191122979
-1.00354661225428
-0.875729647261285
1.13349824433063
-0.340536381542593
0.000286831609724036
-1.57036128401275
2.40326111178315
-0.43690443101905
-1.32621822310438
-0.84956620588273
-0.446969640222814
-1.0202009049909
-0.411620848548665
0.130764834941194
-1.28039997566509
-1.07971504200548
-0.613861135609864
0.837455676086261
0.210858649141094
0.306217992271247
-0.959333850350555
-0.312014347771692
-0.235895199233557
-0.61316491457841
0.110797484646305
-0.11779358163325
-1.3238842335382
0.057988238662847
-0.880791241161616
-0.936876984096735
0.509232536442874
-1.38204258160008
0.166970620636066
0.610224386358717
1.53320097388658
0.493176199592853
-0.99663118964934
0.159603621224587
-0.67054092745438
-1.49389355242193
-1.9489167726911
-2.24246916087818
-2.60799820050762
-1.81126109743339
-0.857528931341334
-1.10291933810028
-1.47170852908578
0.190606142158688
0.0383722299069908
1.3185301674033
-0.88844702285747
-0.22680262579384
-0.444736040164712
-1.47483706487828
0.782557918796659
-0.423115808267362
-1.15659157060576
0.755142921212486
-0.638694459663404
0.324289379119688
-1.10660285827958
-0.135264266541272
-0.719659328162819
-0.684404575044423
-0.143256659908203
-1.94279021377307
-0.43282349572795
0.116898207478149
0.258135185811175
-0.930379770432019
-1.04989734393708
-1.33394344426723
-0.0236949176900923
0.650959225520522
-0.949403308531505
0.390258579909068
0.848975475311429
0.0428368229181328
-1.26093391495749
-1.13824379632042
-0.0796278611648745
0.412512581116962
-0.724709033827879
-0.430055404373474
0.17994091384074
-0.993710284332738
-0.010796039942132
0.300922473129384
0.996306488018488
-0.429964965098044
-1.41130855655081
1.29275855732509
-1.4142373647789
-0.212631851415106
0.0650951232130746
0.0485433935665029
-0.600748079762737
-0.149257836612547
-0.00667063834795184
-0.814630189648904
0.739677818374104
-0.620064817356977
0.0984619502934352
0.399496817165874
-0.155129332363875
-0.561234984019098
-0.618033415777583
-0.824668099877544
-0.998456009217645
0.0615976693603784
-0.487616526583412
-0.785525334758915
-1.95791362873924
-0.302363397739115
-2.37454362303021
-1.06062880288551
1.02654266818609
0.912151227710793
0.913554192471396
-0.531568465089421
0.416261641544435
0.370720818073464
-1.92635065382262
-0.0768468164025545
0.370732293091971
-0.900999579025988
-0.151913078348492
1.08518987803448
0.191260162394609
-0.53360408626138
0.453905626243095
0.594786497828997
0.651826215405501
-0.575118334471154
-0.407564070844183
0.0149285469189737
0.599577954986107
0.375735452487671
0.798581125017713
-1.05114545320977
-0.837278441570189
0.585030420536445
-0.752377330102124
0.142408316234899
0.214516752238486
1.39299578257659
0.601943634974387
0.459697855191123
-0.318550982080323
0.388490629075327
-1.56015956032526
0.233513494212175
-0.323051095014292
-1.49773861457963
-0.0933246614084189
-0.165520428676832
-1.42224407227978
0.274745282090162
0.631084058995441
-0.397840674133891
0.678616958734212
0.315720406669583
-0.753179742130348
-0.667307138407713
-0.112236642414093
0.950864079217265
-0.788090679232371
-0.57643748561457
-1.36518549570397
-1.74080291045763
-0.211131595437145
-1.94356074363254
-0.992817152664762
0.539901519185627
-0.836159336767342
-0.648684125256163
-1.29512115676662
-1.03382023403653
-0.509522147725347
-0.260595711940826
-0.980551737366427
-1.27646519575387
-1.66066233183551
-2.3769624544331
-0.780886965517413
-1.37664521925377
0.547279727911556
1.4102902249646
1.33504457357638
-0.318090197948507
-0.882907933010814
-1.87430098802833
-0.478992825821838
-1.85891206937021
-0.0701375065738374
-0.95269791615687
-0.504996777247744
-0.160775681121754
-0.384427604749916
-2.70006919459378
0.645270967684461
0.243733696592402
-1.14679657149308
-0.766896813696484
0.877457709802492
-0.288031601310527
1.03357253041983
1.95628177203506
-1.24757197664333
-0.276076514520532
-1.24781858726233
0.142487733659801
-0.827379096541261
-0.255906596948063
-1.05493736512925
0.208974146173868
0.339407110742689
0.899701207022804
-1.61570860075618
0.00768831192277059
-1.72270636206651
-0.169319986293702
-0.256027208475717
-0.02951527929829
-1.445854228733
-0.611242199923189
-2.14955512232372
0.445846342114094
0.00819417969632119
-0.972041210132282
0.837264176635997
0.800430670157095
0.546764458655369
-0.0344066874089172
1.28319205995487
0.594298264614659
0.061334502123621
-0.731483468369856
-0.0291338127007932
-0.94299968759774
-0.32312904140755
-0.117529495678946
-1.96690629655165
0.10245270851047
-1.2479170927607
-0.881203613148481
-0.483674842685232
-0.15582506090917
-0.687502156094953
-0.493604975766497
-1.65443724752212
-0.0724817420222889
-1.56074490012779
-0.747930681606423
-0.281251173335334
-0.947648726981131
-1.20913134593985
1.42551663628799
0.721057330901998
-1.55539299880557
-1.23277214393311
-1.1150383797314
0.830129935758757
-0.394543071737505
0.745246456828608
-0.336486381735574
-1.67135761107367
-1.8774850789585
0.44242824097953
0.273344482813634
-1.79270556739759
-0.264816650158164
-0.210634652247739
0.502638707189317
0.664312629479742
-0.908521721217554
1.31548035717856
1.7736958753717
-0.109216627151366
0.563093869678065
-0.205160641249513
0.902170461608247
-0.861653341455318
0.499091236954074
0.62607077828993
-0.0282199534404766
1.66654635922952
1.73254763306838
-0.435308765526436
-0.961691341942735
1.43865285137287
-0.497965988106509
0.306084663284941
-1.7663201753661
-0.59398313782402
-0.465641497005742
-0.323650692519744
0.209657773740925
0.482604052955595
-0.748106099870579
1.05605242167125
0.731650341080453
0.126445725262044
-0.281116400441844
0.628539939657231
0.0232993099638475
-0.0795902444289672
-0.255274267305287
-2.63107325174433
-1.2765555310142
0.143784572721143
-0.470141037279947
-1.15534983810899
0.202478451924097
-0.816551641902726
0.269847131705653
0.170134754721083
0.791374754088435
-0.45075090845593
0.177500095421333
-1.32066401374959
-1.92662497502429
-2.42425395566919
-1.70109400813196
-1.26281482742879
-1.46429691649626
-1.52656200326736
-0.782427313008092
1.0275242876314
-0.548142847983803
-0.810823021867021
-1.75482822260675
-2.07549382650437
-0.795330025164117
0.585358988379039
0.319789303319201
-1.91061953306967
-0.641315638228794
0.517472591230383
0.363852456079511
-0.578382021625703
0.524589209761637
-1.04283921077527
-0.459882572498606
0.776169558369276
-0.267682499510661
-0.455913780347971
0.283386804650075
0.703427852938949
-0.476647519780144
-1.76032244007092
-1.43256204348478
-0.942635326081087
-0.409925177880995
0.471070360040938
0.597899134414694
1.30292268214949
2.3817478726436
-0.295009616430019
-0.450750186223751
1.13467157740784
0.945336361550503
-1.77941046408206
-1.04626530960326
-1.27279625242375
-1.58009375360514
-0.930218532626101
0.0241286013337763
0.262450792302446
-0.659869463036751
0.927709357487285
-0.522836976618632
-0.31338765586702
-0.12444996639408
0.759487241515858
-0.86859673011216
0.315027477545046
-1.09173883178832
-2.09258622110423
-0.000159013826467713
-0.0595651492254578
-0.622736083610469
-0.0533060200620207
0.991290232368526
0.49812934073055
0.490163376901296
-0.898505910336021
-0.587774954769127
-0.881344559891363
-1.22315811138793
-0.992682539349172
-1.74621585049014
-1.55142635590129
-1.67604131056818
-1.63455916292966
-1.39823474942401
-1.62214509034104
-0.521136601197919
0.0299217768763565
-0.630409226997036
0.909522373113025
-0.37677516073843
0.55799918518682
-0.602747454805242
0.170741556450815
-0.325575003119239
-0.280217834361517
-0.988996220693693
-1.88488609644596
-0.311666789449993
-0.393968589129074
0.815585582243394
-0.820736310993028
0.430685422666842
1.40408131494352
-0.303014799541532
-0.82761018405986
-1.3257846669121
1.43977545262137
-0.590639727127619
0.752647188623015
-0.152086947434904
-0.291263403790767
0.628022868932684
0.381152963801864
1.53198345044588
1.52317318824222
1.08014198320335
-0.345589493767241
-1.3646355989503
1.0602362861869
-0.426695070991716
-1.67453753644873
0.536821002537143
-1.79652505148377
0.168130089360839
-1.21258941462784
0.591871813108458
0.817926746693749
-0.373415104873664
-0.382617760409769
0.153319353669478
0.0418661853803833
-0.0288211690053262
-0.0188456894824834
-0.351950354770905
0.330496875778326
0.493690339133655
-0.167495642590225
0.54327652864193
0.0237410758122926
-0.13140085656321
0.183897653712506
0.302501032248732
0.250115997341564
0.655823226759787
0.150009640207647
-0.887636263546543
-0.89175684908874
0.100167845357789
-2.49395634167168
-1.69618620866684
-2.8476157517597
-1.7206445982226
-1.75349282583292
-1.26397426775772
-0.705726914859274
0.402118126078304
0.859838354974194
-1.12104105333098
0.391095824837466
1.19283520595994
0.244543988915642
-0.287069586916903
-0.381523392805125
0.0181500099259325
0.573117477896924
0.105974005243758
-0.308602407010106
-0.47368367765244
0.329227825625666
-0.00596106780021216
-3.33033557112898
-0.381666147506799
-0.34994767424458
-0.525833567508231
-1.16342539341961
0.890893243078637
1.77332128958474
-0.752003356018109
0.324289034417274
-0.847989515468476
-0.356877011457745
-0.862750201615437
0.720763777732315
1.31385813249579
1.36002558550249
0.576845978320794
0.664363119660339
0.505719289058391
1.76103052050846
0.722818764068645
-1.47459961567157
-1.12805398325086
-1.92435391975307
0.151494228330007
-0.661915709686534
0.542052441743844
0.402259569329039
0.18230446618398
-0.666857039325727
0.640121050118887
0.0755473061784581
-0.0448920313328896
-0.235208042494442
0.584667354575953
0.155658716562581
0.325356779733846
-2.24812849068999
1.37298659806035
-0.879761887726387
-1.0379002187501
-0.685725887343503
-1.1468672632374
0.989739983544645
1.20303748804393
1.45967610328655
-0.878242493213012
0.136040381827555
-0.205657844653421
-2.84101047563244
-0.116583311124057
-0.590145962501688
-0.875840989013104
-2.55684061815907
-2.630422197517
-0.887845843247518
0.601920755459038
0.465189263053588
0.421899393683298
0.373787425444852
0.0666647915082187
0.170506468036981
1.56759979366027
0.788644073624087
1.02711718848542
1.24966614714932
0.932911082826778
0.0214138252956688
0.444216121384279
-0.671959405963867
0.417023480196094
-1.29752145078602
1.95840557647574
1.1205477271093
-0.167780352691146
-1.83670976425795
-1.38200907352482
0.604137515677113
-1.07559515873073
0.933538784201127
-0.827133997764922
0.00671967485235775
-0.663936813140938
0.724709677197225
-0.210451591267051
0.610306266574094
1.4861373070831
0.167359749200022
-0.0469868308922909
-0.236861036121527
0.0680862751707942
-1.21473115998922
-0.674764915009943
-1.46589152568056
-1.56232364715366
-0.677822002702829
0.501555698114455
0.161501809752166
0.22112197649888
0.585436371805287
-0.726184221049365
1.0033200602568
-0.143294510793111
-0.592010742479441
0.759732863252113
-0.749509145739924
-0.91180907509998
-1.46363109874998
-0.831442073170782
1.95100659356378
-1.26171859430124
0.774668791375672
0.165306506931728
-1.39185180246487
0.90808002933001
-0.0179445778302321
-1.3650085422965
-0.00200081077953024
0.635389361563231
-0.985005504397074
-0.461430209554428
-0.943775234154026
-0.392749702847264
-0.354732311292259
-0.849625397158645
0.223130073549399
-0.797231220708423
0.386108775500109
-0.141132019758731
0.161082631792443
-0.0489784890315918
-0.313587302952812
-0.594281788075797
0.729147790644503
-0.230878230751688
0.937894780436211
0.936235551460533
-0.279903317376831
1.23201990117075
0.559442127981235
-0.160424742672435
-0.322332606176409
-1.66607695155194
0.0695210657196483
-0.976880292221633
0.119415906303499
0.479988616977212
0.563424406907621
-0.522374934930224
1.03666141268106
-1.02515027386043
-0.4663051283062
1.37822856120634
0.371527884825819
0.4436948845001
3.16831998569282
1.19889252781395
-0.160210795199474
0.466570911102041
-0.662886023793317
-0.564741848949968
-2.88930850062607
-0.596447882968134
-0.376288485297238
-0.194423226173578
-0.876012444449686
0.329273216403536
0.0279734432257344
0.647391824118902
-0.135021375624352
-0.573962650350178
0.489359852852038
-0.221989318893369
-1.20794165023867
-0.319475433031157
-1.07183027161244
0.180033096577135
0.739357867805528
-0.653839878366067
-0.156889131905952
1.05685035965094
1.2509586085625
0.828409239804429
0.267358209770665
-0.0952705303265686
0.151274193754263
-0.482807928336648
-0.260593708171091
-0.674254876568438
-1.32888122416427
-1.9569790364232
-0.746066380972086
-2.3038721646397
0.238733789013763
0.471072318115361
0.654992974264878
0.14533198911379
1.40510169978699
1.15025046428179
1.00478254208598
1.65858685209033
1.36197147836289
1.28628608338707
-0.103184781556369
-0.105588527579328
0.833714606167322
-1.2542581805351
-0.394434677969977
0.0482951188874011
0.459505803147447
-1.13868460796792
-0.510696377254129
0.546747392089657
0.555711264497162
-0.351684744322588
0.752399149189891
-0.224500852456732
-0.53793235089907
0.367944459747253
-0.568305699990798
-0.392724867585627
0.221866398218581
-0.224028310412502
-0.16439147769499
0.818622260669012
1.63834452711478
0.275211092055863
-0.793484257610354
1.59287253065322
-0.252481793990776
-0.765653955830124
-0.607042632301294
-0.442063018990539
-0.301851531743815
-1.06229072519763
0.133156314847528
0.661580963221578
0.0716828727725846
0.0918801850202145
0.620012990932986
-0.467943132473103
0.00225371645494959
-0.440179368024665
-0.191201292361557
-0.947702404677088
-0.493091506574032
1.01795444350557
-1.4164334171165
0.278112139598664
0.549351174636564
-0.118753795650413
-0.723928142566202
-1.13627198914741
0.199419718451009
0.96306779412664
-0.66413214771489
-0.661032491542009
1.03322088592044
-0.881115776792887
0.808430061182462
-0.958940438648173
-1.06650417801867
-1.88097431330979
0.445982785869475
1.04473238780437
-1.07750666931935
-0.036573409615151
-0.678185541164166
-1.16612169251886
2.28278380183794
0.639205686894623
-0.206530621508921
-0.0760738282694554
0.998710614704257
0.207304419423483
-0.124771859023127
0.619828456753466
-0.498870186127285
-1.11794440720399
0.205108360042404
0.732423405106245
-1.28031770390954
1.5588560924496
0.524112835874829
-0.124768567066039
-0.543080579243182
0.579782105389074
-0.72574517241378
-1.56563618738921
-1.04912631958975
0.217573592183075
-0.320604847358992
0.670830967617113
1.28645440909449
1.24499837090643
0.984805331961153
0.0507383900217823
-0.486166653658322
0.0122586233045813
-0.366631024403479
-1.55799557264583
-0.553672572466896
-0.188691432826776
-0.294337259875603
-0.966855762142024
-0.0517597163619025
0.99101313585822
0.0676469606842771
-1.14784652713764
1.21107562750421
-0.412494113748062
0.168737236238457
-0.117918864585416
0.596075169687091
0.511193006039576
0.0827975442991998
0.511597694959728
-1.91434431457161
0.282895397172615
0.289654780936233
0.320223970727351
0.622717095839454
-0.154971589435606
0.669789794176115
0.473566150870579
0.151594104156592
0.393257724781776
-0.501434562519528
-0.629204395560096
-2.44143874304321
-0.0424022542491798
-1.91932959955833
-1.98952073301064
0.437977753171512
-0.765644830093927
1.57765136330589
0.956584761058788
0.960878462183858
0.915400040710469
0.340692845604507
0.471937259206131
0.596363829343089
0.0269865252099037
-0.929772614230435
-0.750865688289075
0.749355056620923
0.74318951814314
-0.303152308380929
-0.314817102087499
1.11602848167233
0.791989386639512
-0.582654690221775
0.119379390137951
1.1873727511641
0.452169036331361
-1.10402972775834
0.00911977818294835
-1.0284034863155
0.464117547024818
-0.388012427148277
-1.05054799309787
-0.428745333121845
-0.336889462997896
0.150838221735245
3.22233335304696
1.2191526559964
-1.49025338341914
1.68376423752558
-2.34911474727044
-1.25917293912039
-1.3479948987219
-0.229245757541776
-0.491247314029906
-0.862794495922024
-0.359249507473045
-0.964363671521166
0.0409504388383586
0.837851094073069
-2.53355851937366
0.351306116863814
1.19156503039454
-0.100425062606671
0.371223902172315
-0.625717455629635
-0.268382224767827
1.79029052429416
0.675524843164091
-1.15132093671011
-1.75713590560731
-1.09883359371457
1.03632448405949
-0.271864282797351
0.304297588046397
0.686621181013642
0.0325868196384539
0.749653316090199
0.252099633214149
0.948638349664409
0.500388436790816
-1.19732257824212
-0.831922617591043
-0.95841786310453
0.169888293941708
0.10554180408975
-0.999316189466231
0.975460860940407
-0.962629687188453
-0.314514760132089
-0.764405919062409
-0.147346589829037
0.740842657332587
0.0221937554381254
0.592425492168054
0.495244251719727
-0.792838886277812
-1.06303900263767
-0.389234225645348
-0.663439011933125
-0.206661671677297
-1.82993015464159
-2.32720926259274
0.00769556925894926
-1.12248290740208
-0.566153867987962
0.611462289911786
0.388966513315105
-0.0610004747022333
1.09358821853043
-0.64977977891138
1.38429928938691
-1.08040960049248
-0.0225098288764657
1.39221981438624
-0.643086365892416
1.34568995659784
-0.482384826544446
1.64752869386733
-2.29883063709903
-0.409654810535672
-0.703216890843882
-0.806586520918845
-1.3276653444602
-0.258927204832217
-1.57522526383708
-0.476989699223343
-0.484020579565451
0.753100781373089
0.613868653924153
-1.55851407229548
0.307553278272303
1.45724854360204
0.140014256963683
0.111281403084488
-0.171647123355139
-0.141473221944304
-0.528654831243018
1.48535535744809
-0.638427293343036
-1.01599979173791
-2.12837454756898
-0.488011044955261
-1.25019355840219
-1.13160555322047
0.0337763742013716
-1.18563389709265
0.551763611210616
0.187654160723365
0.359464608588834
-1.10638326949144
-1.05811024540547
-1.27941333196301
0.981683767268756
-0.0901924062961849
-0.914550205931328
1.58505888476524
0.468999516803838
-1.21418507487199
-0.327798127183845
0.388556405903397
-0.514624790987952
1.54286894746212
-0.0411024523127527
1.64399964218645
-0.260829582258275
-0.417344601608939
-2.58085025036045
-0.578509701576785
-1.39313449052032
-1.93921678632021
-1.80421538925841
-1.73083109140881
-1.4265263254436
-0.106190555381225
-1.20336348419489
-1.24992470706108
-1.27940337461425
-0.462920518173598
-0.52381382615212
-1.36236489673201
1.23332158423298
0.212800984537071
0.323924215837463
0.773567409199213
0.905060713053571
-0.578689824744397
0.767030534540174
-1.17073305586253
-0.662263035719517
-2.31233487051876
-1.12235901363333
-0.527815457387994
-1.60546585849725
-0.721447264952486
-1.78113875819294
0.341649897361004
-0.19637986000447
0.804297454912133
0.63821161834388
-0.630467452602548
0.0789947385783921
-0.0645394751348731
0.973995507597328
1.14154020943336
-0.151511968167199
-1.0858695784348
-1.0510377362647
2.03918312399774
-0.642100862872636
-0.146694207083921
-0.396640317078056
-0.99000382029164
-0.232524442908417
-0.247433265431267
0.373708398884058
0.0402027568265443
0.325698429965425
0.757956449901627
1.00627005944678
0.717352681507498
-2.01559167500801
-0.302395722310643
-1.93013987170468
0.132712119673855
0.140169585637263
-0.68164527648976
-0.989833354390628
-0.0880401660044525
0.515618517229823
-0.0730284274781972
-0.944246057598905
-0.228712151016361
1.11484132624723
0.0331438734198868
1.96307791528335
-1.62110771129073
-2.59581571755449
-1.26703118563933
-1.21682903255289
-1.01414432968145
-0.726726225581101
-1.78862853970478
-2.15683114475077
-0.107551116135938
-0.304242505569171
-0.0800790685122205
-0.0675968142224998
-1.94065888803356
-0.164268440638905
-0.0377421459594091
0.491736134328905
-0.731185456332005
1.90021839484052
2.90961259646577
0.107450531880912
0.493459358017636
0.341655460488718
1.05038381404435
0.170995575818997
1.16774289009924
-0.548106915570183
-1.42384263523676
0.690608996693196
-0.360740558475849
-0.618434478050265
0.0516807638253472
0.446962579832516
0.603790603893771
0.432956416164196
-0.765311450419419
-1.41016736441483
-2.62939997612869
-0.00582006585194877
0.702322614893316
0.144483721217724
-1.04373975539527
-0.117588223249253
-0.587398018217966
1.19904404648205
-0.977477220478534
0.885538174434089
0.0433323870450111
-3.09947063244161
0.0468171388443896
1.38776648181111
1.10531675578354
0.117950202502236
-0.434315360413743
0.968579722349992
-0.926792250630971
-0.666189579768514
1.25225801859012
-0.0558667747887434
-1.53234154631242
-1.18874602858513
2.5767157628897
0.357965650912903
-0.485153192801968
-0.0276859079390691
1.00718733249342
0.0501379038677123
-0.0917820216075333
-0.449782522352441
-0.0498768603726142
0.215326898748824
-1.21473933693452
-2.18183051001214
-1.87977676421916
-1.61922469152345
-0.863985252409156
-0.437455887590336
-0.375203516914512
-0.270168219899438
-0.0505031618592124
-1.33142280854122
-0.905747696015711
-1.3065397091028
-1.43778180066333
0.283693205420614
0.294108163031349
0.819878378076972
-0.243874815548651
1.15504209300338
0.369457698438171
-0.834695673807701
0.272646322879425
-0.754193919867096
1.49537978192604
-0.493733383125408
-1.09503883861968
0.41507217178953
0.074878891687166
-0.707296122111344
0.00702989959426198
-0.24891337473829
-0.349700465038575
0.92002785879636
0.540187470962766
0.693465013974902
-0.770960464376615
-0.056526028438248
-1.47709243602079
-1.19644163375203
1.60469682891221
1.10896507889555
-0.30401916567592
-0.551597991892706
0.050520809475852
-1.25239373375142
-0.0802849019071223
-0.134460888620448
-0.0317738108212262
-2.09920545172663
-1.87775215061159
1.88878871629964
1.14694351188039
-1.5847076944714
-0.566321934381603
-1.3574809180292
-0.0614323787360855
0.0662523273997372
-0.856039928687888
-0.914117598441007
1.31881741787132
1.52346171352735
1.51815897857703
1.38209273358838
-0.328687240614666
0.0511776640945313
-1.51387800350793
0.216636874062895
0.354382739792605
0.566397443046926
-0.800679986698937
1.09362327490648
-0.898818868985923
-1.9903739413565
-0.989092021045658
-0.518332587741888
-2.56456049859291
-0.173983505662657
-0.760178838300495
0.323653611450639
-0.842087152604708
0.16953268482581
-2.127101970152
-0.526442053222437
-0.328387630237244
0.546725504866559
1.94105701000727
1.4952541090294
-0.0547644638814272
-0.349897246929066
-0.00587640197859612
0.72568541885036
0.942341444698084
-0.18986559256195
-0.560842147016105
-1.711915958954
-1.04970762390208
-0.225329099007046
-2.03080842127075
-0.14977648585168
-0.735242561879741
-1.74688138253702
-0.919501539094586
0.513072347827615
0.945536193846224
0.504280237272942
-0.50843600937639
0.676092636378643
-2.3946626645181
-0.227970156943218
1.61702292014505
0.400593943543842
-0.226851081189492
-1.52861289527296
0.558727295403218
-0.567460052254811
-0.885220194455217
-1.623571010184
-1.45974843540456
-0.808620505659666
0.382671176640124
-1.12522677835098
0.0892635421803052
-1.2418363702643
0.961964562297801
1.73580785192099
1.2737431326801
-0.799875356661945
0.0879761679051521
-1.23844269674877
0.161938993647262
0.771613549190271
2.34410859976111
0.758226248221394
0.191992972292953
0.992561289061971
0.399275589019482
-0.970390934074219
0.524243625521854
0.290674379806661
-1.06914524703052
-0.191566963998659
0.00412086032930886
0.104350112775336
0.607364695137362
-0.603102979080654
1.52360140936163
-0.871551620395501
-1.20941801376577
0.18965960975551
-1.28526048922112
-0.662997460461616
-0.0904764459763175
0.862856150101075
0.493678002847864
0.699742286333134
0.100945177195066
2.0010409770787
0.898485620419758
0.9942499648613
-0.0121052989384956
-0.0590554840514002
1.31351607695956
0.496633069817023
0.395106508065266
0.844555808322406
1.20812003918897
-0.264766293663082
-0.530704501379413
-0.297452610121454
-0.187248973257117
-0.245351992521959
0.193759996215681
-0.425753979900475
0.870323375008866
0.589537968393041
-1.03649596534734
1.12507412820821
-0.844461271878558
-0.357649770271604
0.187960264064398
0.448153056610275
0.245300740294838
0.421908188670392
1.41779608636824
0.0572382382465786
-0.0783115566854748
-0.915635430216451
-0.0354395837580661
-1.27430159266639
0.557747341037751
0.361127579138942
-0.310471550610384
-0.739207310935819
-0.0851196393174766
1.25379289025995
-0.046585203295095
0.440163245395478
-0.137578940288242
0.694822613432375
-0.188191879475859
1.37060321039158
1.35000119037815
-0.00660768953761565
2.39257494685453
1.37721743353384
0.686273586836576
0.672598171539766
1.99904884449482
1.32318503857975
1.88254485022617
-0.165775100951666
1.4989740789149
1.68149297471989
2.34147536729609
-0.133805454983595
0.0304959296726424
-0.838089705628217
0.405530995387489
0.770918660151856
1.0162354200812
-0.180023008033285
1.09622880353954
2.69210262742721
1.11588275217958
-0.467637154821867
0.947101248235265
0.917446637281846
-0.611883291064294
0.93327728292222
-0.0165434696059146
1.38336628859075
-0.794659883964937
-0.863499975996208
-0.432548096229931
-1.06804004886067
0.39223618958528
0.428320075075775
1.06918755794511
0.176226408044727
0.0270799264661944
-0.31259816640356
-0.163634800608592
-0.381532919500466
0.406614246556267
0.595947206575006
-0.947242294451449
-1.05470470688835
-1.10311413359953
0.268699481142121
-0.149875731753114
-0.010685724581919
-1.02703211284938
0.113190475896944
0.549407350299908
1.13919653675297
-0.11633858563738
1.05005723407714
0.500792643223417
-1.18462048775727
-0.709042591700569
-0.196778275664249
-0.44420749390407
1.15253529893051
0.964273110563468
-1.54460997681392
1.60506473931889
0.00616631216266245
-1.43698110368154
-0.640218011809074
-0.983082105736489
2.21908857914146
0.670516426916477
1.16257773312303
0.237590942820005
0.121783353894127
-0.826204459418471
-0.541586083045039
0.997101434566428
0.738691694601273
0.978973253941225
1.78329352287622
1.10666578472616
0.481069572928898
0.203099595205838
0.458088498431097
1.68911684867165
-0.307019859680996
1.36389558051334
0.391889577602634
3.19133782411986
1.05530578994833
-0.791894036554896
0.771754838559701
1.4283750854238
0.103141622889441
1.40716751759213
0.226983305084376
0.523928730345173
0.0186184235448417
0.0911653917750705
-1.03649032346026
-0.0266601620998455
-1.08055331386957
-0.0469091521418636
0.42117532703189
0.718238321390116
0.0876547812547927
-0.843086806244831
0.110354040148344
0.0185961891518782
0.318433084172694
0.580079126610002
-0.0592097361540018
0.344835117406113
0.721301552148946
-0.531625395082531
-0.0564060654792179
-0.851222059943726
0.209354481116658
0.636897642137315
1.40765081318479
-0.313525961533249
-0.775955766092782
-0.314304769934858
-0.655246620540908
0.510549000650446
0.106220283914303
-0.449898449563141
0.495652031258784
-0.523814645083796
-0.922848703934928
1.37295781113136
-1.01930040232949
-0.12619419901735
-0.66789633889963
-0.305148285781399
-0.703747185740104
-0.775568412119463
-0.263483982818466
-1.46250056863507
0.0834612645488733
0.562725901494661
0.511456929005396
1.75890230898425
0.72329869272014
0.711355118515964
0.591419429497017
-0.276558723569362
0.893935571492283
1.14684393903048
-1.15819612394738
1.74882283914119
0.38485173561233
-0.627874690071437
0.453157774538528
1.37818168761902
2.0134832940705
0.713693425382549
1.0372858776348
1.15770817642564
1.51201528825469
0.105100833163515
1.99433220676959
-0.286721771731622
1.52750145803612
0.805812701740752
1.14314094704784
0.183980985318602
0.991668263048899
0.122316447511344
-0.407143912162475
-1.04311631082885
0.13735595199187
0.98541671358509
0.961946426958865
-0.220223856380834
0.473889382797032
-1.39805247855905
-1.25776661621399
-0.472833650319555
0.051049009886111
0.239996927334975
-1.69899880632081
0.783176254020088
0.82525452625619
-1.22962853258335
0.3703184512452
-0.492348346709925
0.944978511644055
0.607682407914821
1.41474000536877
-0.699283697582816
-1.19775918477818
0.766362638082773
-0.772987019162528
0.224814735303551
-0.550587330157505
0.473056614983019
-0.783084541799328
0.33331912372958
-0.894821334031497
-0.879922187685788
-0.922741522664088
0.354738829504988
2.37579664716347
-1.34420124731824
-1.45286066346183
-2.24194087786924
-1.07966051409744
-0.317128305232651
0.134696608756627
-0.546709522662713
1.58228041247515
-0.0863441169064766
0.3174528661031
-0.807918572749992
-0.26094201558149
1.58864995542457
1.38605782567064
0.00900776155580568
1.45635692442922
0.254377800897517
0.169063324006311
1.04997217271794
-0.0938491786466638
0.277780737898217
1.04788127445566
-0.57779395837424
-1.05358871678903
-0.838115181033538
-0.148013035918881
-0.0679340061070963
0.395594751709905
-0.376001078252985
-2.38935431796629
-0.154097081673067
0.0740842966174176
-0.0535977147534918
-1.38429195602789
-1.50698674803127
0.361230657986788
0.376195781125352
-0.771439349361466
-1.94801735339367
-0.761024298791876
0.304402839031381
-0.655697661581611
-0.0765378393584622
0.596864907856699
-1.9953039968535
-0.992400684448838
-1.44705566912354
-1.76813645188279
0.940825688387159
0.297297955467242
-0.211607987136029
0.948024956574287
-1.28137669649286
-1.50459404865575
0.603319793133931
0.896764626078479
-0.0701912700446016
0.232060646867978
-0.296242606277126
-0.0786582359801348
-2.12772875270043
-0.715898521935383
0.38880622452653
-1.15141890460088
0.569355011438196
1.10288851287192
0.0919937943278293
-1.22530803436572
-0.85593324345483
-0.105015778929608
0.341969866326133
-0.194035809011794
-0.113244952109589
-0.84619912494892
-1.36402738527518
-0.651057289312536
0.365030147688705
-0.823657586521603
-2.80576001855741
-0.369049410437584
1.44811823012237
0.474943021235307
0.482984023530454
0.946278869938111
1.07976875074071
0.79389123997627
1.07120673767758
2.99142651811141
2.50308879816438
0.568326086240992
1.07996375466836
0.00860400916930609
-0.00620633528271347
-0.658949440222897
-0.351130141118121
-0.235971626213681
-1.03896141521367
0.0695591832759823
-1.55955583904195
-0.722443079006881
-0.54471575558952
-0.194313541781686
-0.181915937981814
0.682562295782993
-2.46955181492556
-0.0088509836839184
-1.01502480467766
-0.911995265965077
-2.85615823058596
0.284598328038169
-0.175570057711352
0.0578806493765197
0.0827736861881079
-0.355757898317969
-1.76678506814323
-1.39131016631004
-0.878823248438809
-1.67026930432405
0.534073726147663
0.600729119439067
-0.873527795670441
0.960186923130205
-1.05013965288156
-0.74013107177863
-0.672690396229399
1.15962388601639
-1.81536671343621
-0.103076783126202
0.806165827243445
-0.304404250098106
-0.733095916646018
1.61563848545598
0.994814778605256
0.0226005924261231
0.336857387265148
0.033046706757722
0.602224606441437
-0.32184497285515
0.036818692673885
0.542965602072452
-1.30176059906199
0.0411915252506774
-0.438717284487492
-1.14986010994388
-0.426328203663108
-1.11911152353724
-0.231933735874647
-0.543427522501477
-0.681493258846011
1.44525138336122
1.30042651167452
1.31627770350479
-0.0536333803540911
0.00910075638292113
1.66293144216543
-0.253729651739063
-0.201283178746482
-0.217621466733721
0.768505762569218
0.491427682026436
0.937142039903236
0.318522610158938
-0.0565041560550029
-0.0224685327402546
0.0666735418579138
-0.331529506674661
-1.42725786044382
1.10146424863574
-0.497176389580329
0.135613622480312
0.0509989848733257
0.179698950349894
-0.373576747915262
0.0667087052024243
-0.386439929085144
1.36012152397578
0.724417052145141
0.0152263639987536
-0.530060630098252
-1.10780697876674
-0.395074950441614
0.2434362581187
0.491913436949931
-0.911136543329876
-0.221206875316992
-1.36761709241663
-0.189555319787044
-0.851149394575133
0.314606312794774
0.519898990288236
-0.392440135113973
0.902038166582326
-0.991583838555043
-0.36586499114236
-0.400576648089778
0.387691259998281
0.393431835764776
0.162459331868599
0.117787136783617
-0.907177144227903
-1.47956184050487
0.659814524454521
0.892306256854741
1.94876760643617
-0.658183471250926
0.634488692696078
0.689102280808648
-0.177158019455021
-0.499633901875416
-0.0595099797324941
-0.454822443468375
-0.137493347956907
1.3351249858773
0.447531215651067
-0.0688781350513603
-0.501609833709205
-0.306041221088355
0.385522396135837
-0.550965199384843
-0.351100247516433
-0.499749579860766
-0.191962154738594
0.0983001077867597
-1.61494896841978
-1.00355032086948
0.190324598265567
-0.628999740015343
1.16795268340649
-0.379963809863033
-0.0989379377268406
-0.394759154237287
0.164511669108758
-0.623258343268018
-0.0140204693148164
-0.0703822141662632
0.822830743621302
1.08396009198442
1.47635442936173
-0.448938503581402
0.37487631720206
0.0218221203295799
0.399249917896447
-1.07382554433964
0.150458911123213
0.106599946381219
0.306904627668314
0.236743305996461
0.14250781696992
-0.923362693971075
-1.86262546914392
-0.36369024548094
0.613118290250936
-1.02794677671905
-0.68147922523408
1.36353084182374
0.113795516504313
-1.17367078147923
-1.21812942815052
0.52330477706587
0.726756797666656
0.422627097204718
0.707779460905649
0.0447266406011992
-0.149482551506451
0.889108187752488
1.1685325568366
-0.61666106344423
-0.367805076876371
-1.52277681174939
0.766802259756665
-0.215734746764022
0.988018606884643
-0.190175898864993
1.15035266033297
1.79789278967749
0.215292716667697
-1.05801499403379
0.0390541155795964
1.87018230472405
1.1560986094032
-2.16039042013742
-0.419837251576168
-0.229350046106851
-0.173516127748232
0.255627709989722
0.614916353141566
1.99161604669165
0.340541274295423
0.670078086316858
-0.40785958087005
-0.609199372180055
0.305764659498798
0.224999363931592
0.755810291377246
0.967483183832996
1.40615085572534
-0.0800745665542145
0.855354100821534
0.0418454338974029
0.11866316447509
-0.879189386149905
-1.04774093291863
-0.896240781723863
-0.605815823407782
0.857945622762191
0.543352821005801
0.195931516661699
-0.0895384667555086
-0.0681069269326538
0.859967979217988
0.626090373667501
-0.218812655379848
-0.01020561491733
-0.702619461230062
1.23562718202362
-0.342826411117137
-0.42695311428337
-0.704094552685109
-0.920648639166137
-0.615097666339212
-1.1278531671318
1.20785172548535
2.18072478459186
1.92755922939248
0.553513858431048
-0.315299069304658
-0.434837297841865
0.689823674922143
0.513076405520547
0.412258706337202
-0.200037755890863
-0.136409280624842
0.0815181465218544
-0.564411643883284
1.81828132330122
-0.559576300534937
-0.540059059193697
-0.728139566602293
-0.897210297490569
0.163700004799413
-0.517702659240996
-0.320986537661679
-1.13361595172529
-0.0385098520079514
-1.63097292042281
0.940223671927932
0.251740127650051
0.201639805319081
1.76943394761528
1.33721127833608
1.62375717276015
0.138822872151694
-0.071686115635068
0.987379051841204
0.66073657703252
0.00206070107401463
-0.586831968268884
0.273867457898348
-0.657053299218241
-0.419718532020518
-0.945192299032079
0.268156165801573
-0.563077156617424
0.148759607558954
-0.382569087317127
0.635042729359184
-0.817201680206622
0.564994189907278
0.399599591609691
-0.30051959736628
-0.152090200720377
-0.362341430077926
-0.0200317125354361
1.25146704470026
0.946857949436972
1.06004488296171
0.998185483864395
0.639691179236533
0.100610569060914
-0.944911866510805
-0.838609984854105
0.245566678880579
-0.192420640897593
-0.808727259752756
-0.752045392454811
-1.43437808005619
-0.240229010630822
0.981046290015216
-1.68773334193845
-2.42129721155966
-0.326182078101811
1.5209347134049
1.46280609710163
0.942526539188957
-0.659208698135932
-2.38557362889961
0.205817263506467
-1.00626901102309
0.34561629315011
0.996153218708579
-1.19591525864104
0.552191249750111
0.648749781832818
-0.442149639223198
-1.27278704878252
0.598132241357459
1.38516738250093
0.383118394842668
0.495507790106099
0.582690786595405
0.762379272575379
-0.114765345459965
-0.178131462166606
-0.802424517733265
0.38049959881392
-1.17439474597345
0.395892274312305
0.87337007415644
0.446280578186102
1.23931333947857
0.416377801655461
1.42674028526496
0.203043244849026
-0.469125927841558
0.910798245632746
0.63783029203059
0.52119978338553
0.734682126012221
0.0621254717040927
1.07994049736171
-1.63563829875987
-0.363202239692813
0.0328891785114001
1.93898536894281
1.35110219400706
0.809688351243925
0.185536877743996
1.01152400457368
1.07894767543559
1.22171012723953
1.11527545219593
0.301077601190093
0.571671783362809
-0.905242685659367
-0.733824793520579
0.229569280999197
-0.398098503733747
1.01480187183321
-0.105859936897387
-0.615588571881749
-0.280156866065423
-0.320857656959769
-0.527817885279238
-0.452967849155264
0.215260889135734
-0.996468556498877
-0.31990759636568
1.13321268093324
-0.82839793802505
-0.930644644696957
0.811188734185103
-0.299740221415265
0.772012862672659
1.38235671440464
-0.683333066922405
-0.213774866776966
-0.251364617344975
-0.436489152071017
0.227248871530097
0.687978704407801
0.147876433051943
0.512945514533733
0.993196914304626
0.558099143753571
1.17272855475055
0.580611971787266
0.390069920319742
-0.263677357587767
0.813709687543209
1.65190245612661
0.11805027241238
-0.532551420355595
0.249488489450255
1.54291039980583
0.33389118866826
-0.73765825291445
-0.667487232963392
-0.721522379012676
-0.0353756226679369
1.0427728393264
-0.671999409936138
0.375944763983695
-0.360327111690584
0.403841306378124
0.587825594979211
0.254073515984139
0.282685354203916
0.871085135232332
0.845602929132526
-0.372294870729488
-0.515529388687351
0.723542872813598
0.574858567373135
1.58696632955084
0.253938906716043
0.52066549313629
-0.173490462389404
-0.239287246431678
2.09578864714124
0.755027630348193
1.358064840413
-0.319521576116132
0.21054617739817
-0.368292796576137
0.0314945003501327
0.615600684636012
-0.528222082269308
-1.14135695612874
0.058562512554261
-0.288219486428001
-0.435039994287764
-0.583244347547126
-0.0916112194288021
-0.551592589957853
0.145921954247193
-1.44898114199244
-0.470596460641025
0.783162711461117
0.511419290333409
-1.17851109165312
0.314859619662782
0.731845788018212
-0.036200451683856
0.167203936157421
-0.172791153730047
0.629380405062928
-1.46182278108077
-0.0317036016696263
0.89812044219192
0.135661837563944
-0.619854105594391
0.196298238114628
-0.381515645021515
0.830270329087705
1.47336082088206
0.047854764757494
0.54806122675292
-0.170506147213902
0.359923741955121
0.862998039161732
-0.357285264535277
-0.998430118837761
0.94397258119241
-0.0235429993974037
-0.768269093123556
0.866234902271741
1.13766791198473
-0.450320745702542
0.152408631795776
0.207327116538797
-0.776904984265239
0.256035733387766
-0.460777211630632
0.343072479621651
1.31542174815364
-0.575954864433546
-0.655284923242172
-0.240131189038337
1.25071849478717
0.406214381726198
1.33910877704287
0.707779275897037
0.0266215095327312
0.677034451496949
2.34364621796515
2.04575036226817
1.13392413023701
0.947590919683555
1.06259867333415
0.781911063134983
1.04869794911464
0.388256262334627
-1.23883998063124
-0.00922485708654402
1.01982629891649
0.891713044912973
-0.0687662615011468
0.696081463335618
1.05460416145474
-0.179467888360732
-0.484928980263438
-1.34606487640984
0.18880511208977
-1.79439620438394
-1.27434986295146
-0.150997531690136
0.124027713727339
0.306348101223069
0.956101174788057
-0.421980775648233
-0.0833678067341428
-0.275194491033026
-0.552914771998163
0.459003971752049
-1.30107219832596
-0.955306382962206
-0.457508161858094
-1.13470454828263
0.852287359688174
0.147539321862954
0.553673147826222
-1.39266071655603
-0.789885441084443
0.805327831961105
1.15425916478843
0.020487999296514
-0.243768940855619
-1.60961502813498
0.365698854085216
0.256937390771412
-0.150310535360182
0.822493973497538
0.815356551444336
0.564451710731704
0.936256665151487
0.401067815426094
1.23149491204336
0.848389720014294
1.8897274546712
0.648487710819238
-0.224760762425107
-0.510282714461455
0.316489782811846
-0.0692510384937323
-0.912083863260096
0.527006247996088
-0.0867963389050057
0.898376133988305
0.244243035048984
-0.209674638337566
0.326776232805146
-0.317436744436329
1.11738460840018
-0.197627604883738
0.190646437002085
0.507192860426298
0.582962300274099
1.2418755023572
-0.709236647315402
1.08593124317879
0.653581838605113
-0.872381193019929
0.356800122355971
0.192171211081496
1.48523806816413
-0.202122223556109
0.904070802267724
1.17810904456772
0.202587226316868
-1.13655501931141
0.089553061170242
-0.965089712726341
0.329164879628224
0.463409042339186
-1.07892793486802
-0.485280198443199
-1.15675021403429
-0.761229093950723
-0.0157858277831677
0.688843849477056
-0.849847209692873
0.223428868780421
-0.00584470272761767
-0.623301754054788
0.0788413598180253
-0.801512032677504
-0.729951065124779
-0.144278043977987
0.482884284518992
0.224029515955555
-0.152742062819003
0.83466572227531
0.153065849566778
0.33892208923403
-0.730119504920995
-0.173945475673016
0.480226278953182
-0.0706593196817247
0.805986225072367
0.636519327267481
0.770530838885868
-0.646112479312926
-0.868268112732569
0.0884030347633873
-0.0266328939380959
0.295194103059414
1.90915872517081
0.591474179520263
0.420890432838772
0.691612378488672
0.65329030213722
-0.711779703078484
0.172934565185353
0.409792741915592
1.2498342734581
-0.182791952870267
-0.530786648741328
0.5809487620768
0.934307548520541
1.61825030011614
0.11476256833022
0.587918102294952
0.975882067567053
0.706351718581772
-0.0215211277341164
-1.19818719495082
0.618273494176488
0.542606106590188
1.14053256378005
1.37271937258779
1.20506839876726
0.562167857364473
0.256708931366283
-0.521822555884433
0.389712516312651
-1.3231391782566
0.487602335273871
-0.265460607128661
0.335876490149837
-0.574482647448717
0.886666853659602
0.983983556161606
0.65808696736889
-0.303938066341489
-1.64840479707927
0.195807361109509
0.334383912937639
1.44070993992814
0.559482932096564
1.31778735394988
1.33922211285959
0.227045745840427
0.567079560066566
-0.0960262250102856
-0.672665758996772
-0.195806782205268
0.507109833691499
-1.22204414297502
0.10907978161297
0.00307968362202637
-0.00413648497079672
-0.55156673832494
0.0399522784522129
0.388854391308848
0.0116105027202393
-0.760042736929318
0.380003328371024
-1.01382252080556
-0.556838523511724
0.0452171709448264
1.3370887663844
0.239862347296526
0.612016294300491
-0.452333943078968
-0.0110318613720254
0.526692836851406
0.36285108419191
-0.652471313119103
-0.95065181032071
0.199811589695379
0.513504189877751
0.392414457215615
0.277159879416261
-0.241477621156691
-0.33928010542993
0.433355191087822
-1.52999138384525
1.04097499022271
-0.12594906942486
0.45433053805345
0.771663711478825
0.55256091992185
0.784869571119515
0.465665758747658
-0.678029797181467
-0.721967030214146
-0.312221345013815
0.447810061448577
0.494798976444619
0.766947709059915
0.460000818098839
0.0241633803698744
0.405111693042392
1.29199250709163
1.00116510465457
1.70959056427936
0.244354081733294
1.73973696207576
-0.199785990994239
-0.202515882921109
0.58710038212865
-0.27114441425162
-1.16866421492598
-0.745545936547112
-1.55223419236806
-1.13614046724671
0.672091521116079
0.049994556591422
-0.532374639941866
0.261010293774679
0.616869384525949
-0.0178855904537741
0.641674830450117
2.16967754138253
-0.0391314715730036
0.921544961222317
-0.742141462860322
0.0183762368807159
0.145290736778591
0.132573556650226
0.508868336551503
0.404566849713577
-0.786365384119722
-0.618314765322697
-0.632476255433122
-1.97949496334823
0.315454876587463
-0.796485744770108
0.0651022450514316
-0.738760583520887
-0.288161509425385
-0.0334742230445774
0.779721888919865
0.729664963753134
-0.479296144246779
-0.921251484009746
-0.105755127021607
-0.200061750135273
1.41305755995558
0.142331664918403
1.46628121240742
0.330720781818078
-0.528028383472125
-0.208208201342851
0.174591429109045
-0.550044779684876
1.10519918530873
1.05793513299452
1.33969469233099
0.0696989404107579
-0.730185599378808
1.27348627622343
0.412434408491154
0.498110215453246
0.877141367620469
1.14334300119703
-0.0298713172545969
-0.0261539945416658
-0.0102062490579061
0.452968574049616
-0.454449567167307
-0.460070761741189
-0.982492917443347
-0.701711812729784
-0.284113333987058
-0.84303839875694
-1.01491858170044
-1.33581407524362
-0.790570315741095
-2.2314916635921
-1.03339319217422
-0.690233950268541
-0.651076735770661
-0.27213205462533
-1.13255901112785
-0.865476210997413
-0.352938516756539
0.592993551602472
-0.268926701612224
-0.00285539561597509
2.18645949707797
-0.0337774656302229
-0.282988889863694
-0.284932484467018
0.3618297094938
0.644521875693225
0.549829333220496
0.180504601103212
0.896208702972254
0.456925483218013
0.298696585698077
0.670485157913634
0.896652464467323
1.06219587300829
0.960370959765112
-0.253543802610663
-0.263072048639999
0.177666181634806
0.595238969084201
-0.155634860555848
0.134708894003933
-0.0104411458245308
0.279891243501427
0.334137397752414
1.25718274875089
1.06086058853423
-0.163440977517039
0.193357014853802
0.188795981458092
0.69723325456717
0.196056106154639
0.227934464436561
0.577579175381955
-0.420419540955238
0.341004087930431
0.577089332740817
-0.245384754400711
-0.152513360907201
-1.8454731968392
0.188786342933291
-0.139864594171691
-1.48116359814865
-1.07731466546231
-0.916517601407915
-0.725776796042345
-0.55041694185574
-1.08636679548376
-0.900964994176058
-0.391312389773364
-0.524109129955623
0.654184419799709
-0.185026568819302
-0.552022619432029
-0.238608165905679
0.591724392188808
0.107524624320215
0.469296638809418
0.102928296017404
1.0747380407155
0.203341521840807
-0.318140620374559
-1.13433779831097
-1.55179227164759
-0.952957465923977
-0.539577927645391
-1.11823610419728
-0.842002578285381
-1.06854692241935
-1.76911301742883
-1.98169119892227
-0.450308886925801
0.241917566020855
-0.393564635985812
0.086184481726821
-0.458158750901168
0.00874706953565291
-0.360416229354777
-0.352201045742155
0.0474800190344501
0.880088948433911
0.0331764420664608
0.0925743953313404
0.664289722283367
0.672658527604104
0.978186285383054
0.0588514748927442
0.614262556968238
0.545019691706692
0.287963609118275
0.0183558614496294
0.590667696582153
0.103777991521066
0.433497460448694
0.0936035246446161
0.944692513950726
0.78758219518984
0.792175127683808
0.980206657477083
0.102102344304901
0.0241879088588185
0.434334318389359
0.29287726750319
0.776823437081115
0.471240747067694
0.719486219658263
0.892616460618089
0.791703973471371
0.145544970700314
0.233088128184281
0.703386074579194
0.377575951399532
0.0261040646507148
0.815409341926852
0.0923118830902849
0.790201588109653
0.484779390529876
0.66786871585505
0.658694005473534
0.556122391248792
0.982320402873127
0.35356546768399
0.875706469773726
0.0854240131401898
0.297827917900606
0.156632782652117
0.58208036232461
0.593078052192233
0.482059300721283
0.0267386331780624
0.306149532833275
0.995443897292507
0.162214176558632
0.294946758531505
0.160284829035307
0.0677367254323287
0.380109405981132
0.251237066875734
0.4080602013033
0.860822707558651
0.552509743506938
0.809768804106244
0.183197073554547
0.672647542279563
0.196292105632287
0.431727951845416
0.487041558194939
0.699524596092612
0.525205991609413
0.847112470675613
