-133.463896017255,-40.622299959023,-155.730695395157,-284.513475347692,-65.3352225719697,75.5715323653451,-122.689104545586,-34.0286958909709,-602.604610612105,-314.920640590389
0.36646564448306,0.647494721720956,0.527407938917801,0.667228372314414,0.651411131514746,0.388650669246714,0.939363146222903,0.586612451138895,0.381540721252544,0.479712327444029
0.407586331286795,0.603359053257957,0.6232491640081,0.47999491247671,0.570136673952521,0.751475206857041,0.745013956489649,0.404515259629392,0.376581567731782,0.663615660400292
0.340309363758073,0.690695407831417,0.385046093268897,0.499174647933184,0.23622919491814,0.199399040604744,0.635261749589835,0.448248029121672,0.413504197126885,0.580521495426201
0.800070884439582,0.435773562118205,0.38922313721776,0.425520657245665,0.587200021027169,0.400811857972521,0.436700563258583,0.430249878343652,0.371339664719626,0.574523943604188
0.372199234256303,0.579450598797599,0.727704845285331,0.496592810629591,0.667878560829948,0.545049811637258,0.577857400692467,0.323706249622184,0.377483576496144,0.486535990764929
0.231181159734579,0.681176781639449,0.651423304272956,0.768481388030762,0.34762667001257,0.388761271007377,0.64177993784522,0.198306897799706,0.492461956089294,0.614864346632315
0.667019155703164,0.478561122224118,0.779511897173389,0.686084465181681,0.364313673425564,0.432694515129912,0.243556364304303,0.481888705075606,0.440509559071599,0.501857174844146
0.415006865979921,0.395154174149958,0.641824793406284,-2.81701125492377,0.726415287149748,0.625856964735373,0.646174948634372,0.337369900790517,0.494227993363031,0.56613348971838
0.376881022701755,0.508164686437847,0.513436511676701,-3.12613213543593,0.437027502893711,0.683201899599182,0.394203154791053,0.476608822727053,0.454321253691292,0.760357430772204
0.577791067177006,0.498273393805333,0.319552892681173,-2.84483323989014,0.566600498786663,0.356188540479527,0.477214997825957,0.353680370853176,0.372568460996496,0.463759192333975
0.565606613865044,0.614697630238286,0.423551355657888,0.263586735224207,0.471611317246421,0.420055669862497,0.576250339317587,0.568257338838181,0.509660137136025,0.489554398068909
0.407307501555626,0.365781587921729,0.459961484823821,0.596795240484659,0.510537453351457,0.668304083496973,0.415831135303933,0.574259176365052,0.547601154921606,0.621573697571538
0.271481633735592,0.525955220477257,0.80544862843155,0.419677064619356,0.340182661082194,0.610431458106688,0.567356814268251,0.408389322129261,0.414999665374353,0.416143645044356
0.396326454707277,0.707092187787385,0.416934405932414,0.265615639523736,0.508122924941857,0.606124678833437,0.630941495533302,0.313145845120816,0.648122750975467,0.366039614032928
0.570755762141858,0.458120762267233,0.750419589070437,0.627987097578338,0.657637263604564,0.694034651022099,0.632744861242655,0.466843940598935,0.523559845873306,0.349509836261407
0.525428052763244,0.424121867037694,0.623943149784002,0.510427747950336,0.38371153969523,0.378978236215286,0.58545553011718,0.643340549955773,0.496222945754416,0.318636646620567
0.380823648438599,0.444233618342332,0.388286960188536,0.501205148356612,0.493758904369752,0.338189076651202,0.611925706947925,0.477351011170119,0.654577796549199,0.525657251107641
0.679453804069011,0.752853668397473,0.716205743221576,0.414685036545185,0.825892517413342,0.497069061969296,0.506004694112279,0.4875577943493,0.720255298538824,0.317207958388266
0.73955639028463,0.511055272268308,0.464576065665812,0.482172438025349,0.445086193223417,0.576978233266651,0.387021572991317,0.424805663565869,0.577854275885517,0.725227185483161
0.440023709063849,0.614734941016867,0.396605910822851,0.398009801352664,0.498554765778435,0.821375392918388,0.465739596221913,0.518485151606907,0.581402944338561,0.350864054605145
0.310157787482018,0.560801687618812,0.532128883197766,0.455783461791509,0.282431288261065,0.534798270332438,0.420090659147557,0.494835338416865,0.477832607168397,0.514352835267366
0.631687651804771,0.521301678841168,0.415375363583646,0.599743428344689,0.516514553194831,0.45155270123405,0.476810390081997,0.579928414733428,0.154144619332858,0.635254869526941
0.631312414790174,0.618327934882336,0.279544923406868,0.369217370607448,0.570006559697569,0.492069261144731,0.583473206303364,0.410190452912467,0.202667397516754,0.709872241623573
0.358585828315605,0.620237901430934,0.78870154441989,0.30139656112319,0.563539134731705,0.718142533448838,0.424922939136662,0.450728314065892,0.623498011229384,0.681838999162363
0.44834051530027,0.259729903888444,0.511425421118098,0.40567475657188,0.455299716199435,0.531719330862763,0.324600220303077,0.537706670072722,0.196822866669477,0.464339254478061
0.820766357102139,0.351408359601677,0.389129116713546,0.443010084617715,0.40655336180742,0.469288279379728,0.660080132597585,0.525792590172175,0.252699498665645,0.364328426654935
0.472278512295344,0.492805407741802,0.404983967484141,0.607078962696323,0.385180088980283,0.453580508301777,0.285337709786596,0.62081980602421,0.690827499635506,0.423191237330532
0.418298217719243,0.366941189605603,0.496271757143936,0.409194137930932,0.394993910898072,0.528282113004485,0.403807568664833,0.696086492975743,0.631367840273463,0.752902878555904
0.387018939608443,0.377490349552062,0.730901818383064,0.365180808441911,0.743630394722053,0.353146343996853,0.528134020050763,0.52815789214514,0.600183479042947,0.49340647583592
0.350727249936534,0.295033773601839,0.509830639827815,0.344811417460613,0.537195695282504,0.502048645941589,0.317941886649808,0.577808492409465,0.788007849359638,0.530039095571774
0.477488263502219,0.207942442383805,0.684238582167582,0.54211829879126,0.774282719806769,0.637688740964694,0.495900765956593,0.300429348084107,0.454167227918657,0.414095155709073
0.50358653275097,0.292909214071894,0.367777221156911,0.531795704418015,0.470856981896764,0.554036123313253,0.47343421397091,0.595118105054888,0.468255718736844,0.306485222180879
0.486725503221347,0.461823439604026,0.558727705440683,0.382369247748431,0.315865987619543,0.564482743492752,0.53445538325195,0.545169586636048,0.396183410888861,0.292711312250124
0.436271057958833,0.517113950543889,0.228355821840235,0.586015568200786,0.773794581882865,0.407589697956496,0.484056223470639,0.561307442995833,0.347970401040456,0.526029399284963
0.238935154333757,0.481671744904521,0.71528908395609,0.382533446683725,0.485442809001073,0.589308353073081,0.415165831099377,0.531749637766498,0.526018367533712,0.446252461733449
0.645199974199198,0.382312952138222,0.726443609142819,-2.34343973843984,0.290947931706651,-0.196187069986682,0.664971042865752,0.328390000805959,0.297477605590105,-3.91002870209285
0.34827186620568,0.562143804481109,0.535691814885106,-6.25446573242643,0.462434983560114,0.359231032831153,0.652630887446858,0.537524190386887,0.661399814753464,0.612873935624597
0.540683812136355,-4.54657714486095,-4.87213447730761,-3.38794159920165,0.00071383813749013,-0.159189748338287,0.64667392096587,1.54291409325599,-6.14455503624285,0.329436283565347
0.440687996583317,0.510645990304815,-4.44540774222286,-0.487621994944995,0.53111771939228,-0.904946867196142,0.427884461303019,-8.81129161605501,0.654682023228266,0.101581319742677
0.649521899635224,0.396736697348382,0.549226106431783,-0.000575758772436075,0.285996807853939,-0.0488390647913274,0.51379871740799,0.328166456293478,0.272208699390306,0.0961343795920087
0.547614531992105,0.481028227552022,0.270720608520837,0.016084013708056,0.375436661082661,0.428771029760648,0.572343063258721,0.710298196870041,0.493512098135979,0.431720250864194
0.561782342510111,0.604767625801365,0.12236266568005,-0.208302852941318,0.666375770761027,0.490482110393673,0.342969702248219,0.508923772526167,0.255296476722268,0.472074707588123
0.640976938175968,0.698838354711204,0.0460723748221109,0.081367129432585,0.459119779453524,0.277121014791343,0.478895485500508,0.37112395247053,0.306620926700229,0.353600303857462
0.617357417658176,0.697766464435321,0.515531370223314,0.565289189177752,0.625313359823338,0.663424132836829,0.573450348972241,0.531653477305571,0.397266980110136,0.522043589949932
0.742620984068017,0.786895754023938,0.366845172810654,0.263010822955488,0.422011644921387,0.380611818966289,0.708276751269005,0.506098827168864,0.555515156004304,0.390987728619405
0.794425381530135,0.391102512778906,0.595606180774752,0.608746136589802,0.585846489973287,0.362825439993428,0.472560877709208,0.519353500298797,0.663851112842037,0.509446203634667
0.404197916037062,0.311528540836498,0.667098633336093,0.551699777640062,0.389652280507311,0.184271022168355,0.459222920922294,0.560342802067643,0.596006100997373,0.438054709239843
0.346063470117359,0.552326318922839,0.368176546046499,0.640300277736596,0.560449152688091,0.668569958393089,0.508497185174447,0.33645568189368,0.426207719208778,0.378765568193078
0.675642056512359,0.436957536084376,0.581120865574835,0.522769575578911,0.533443709374069,0.484709040733074,0.700669205929309,0.469955043133045,0.501836830249338,0.485501294949593
0.510083442550011,0.419096809513376,0.521674155707123,0.628479380518655,0.650065695425411,0.444119345179502,0.412250745068239,0.401677897166996,0.286407104984361,0.498397273790571
0.376361301461154,0.607708145798354,0.400547046095665,0.397217532324451,0.53210499471893,0.549330146034306,0.428543734864233,0.448698686443508,0.539665740629288,0.497660210862468
0.627770176632323,0.495560150153289,0.618923349585799,0.474781692972639,0.737281058033328,0.644584569968198,0.482497143591141,0.418528899683025,0.643483236693559,0.754477996088187
0.39676323762671,0.546897172144484,0.364844823293801,0.433008212075167,0.525585558117196,0.493093581818239,0.333076114735568,0.204573297631722,0.495900545120113,0.576876572700541
0.533610117435981,0.589797899406396,0.426557663789391,0.637322246577335,0.396169803233199,0.753702866840362,0.563451643964666,0.521824237308306,0.472010659737931,0.489147890335968
0.23208624284028,0.583210176208631,0.39413656595744,0.310009914942931,0.691198412028624,0.559668357635261,0.545273152616724,0.451316278076745,0.692140094392816,0.583971012658772
0.603113910438745,0.425537608175031,0.42677353881586,0.509931376353473,0.313178425708431,0.578679319633417,0.374739787128143,0.626747181528269,0.416073810354339,0.708244591211906
0.518926963393255,0.711788931916969,0.445185684857773,0.644583828908892,0.384995862811396,0.611549708345077,0.583252248338866,0.431324431804854,0.330038749256376,0.445595617212688
0.522419142864671,0.739279407482263,0.317873183053201,0.529021173182352,0.612138786898616,0.533966217352468,0.455027047923765,0.673886742099725,0.59826160405918,0.535587902279676
0.392941548153295,0.487441552465553,0.53455669409485,0.74036353856857,0.460051314458079,0.562741997749626,0.442102010782121,0.637355609658562,0.441281917934572,0.446476464416667
0.51567819130009,0.497719829882056,0.373615428651167,0.651012606811857,0.455026979645826,0.263520996958304,0.536171751148161,0.274017010136538,0.400803559180064,0.742270390200443
0.487676131252789,0.386295879630097,0.516761254196161,0.645247896398695,0.410434254670021,0.570194279622396,0.549451920338245,0.542833738671208,0.503509969567548,0.520645000757104
0.383200385561174,0.423576559172583,-0.127498818999183,0.544874414719548,0.52930992904822,0.465918578637023,0.545279370777558,0.397027554272406,0.372999012065356,0.54457724045575
0.723776482699882,0.416010406081416,0.54689054884915,0.346045949988705,-6.58983075732309,0.669813146282116,1.20296462689954,0.471321621309466,0.409440737124153,0.254937430011513
0.0359003809005038,0.473914115367127,6.34580245082493,-3.16606466738893,0.595355238449669,0.366118133449783,0.60668426336176,-7.95781134125655,0.404042511269402,0.574640476476072
-0.108720182783825,0.42471304480572,6.31520978598796,-19.5331807734992,0.406592987373315,0.636968386770919,0.507359412121658,-8.24261527435552,0.221120680436875,0.408098263112462
0.382340189583218,0.574688049264736,-8.6997237286036,-27.402444799809,-17.5281583373022,-0.175103707131117,0.583967489206571,2.94801220840174,0.455034402772662,-9.49776650368519
0.29496634693446,0.514006928022865,-8.60501525720594,-26.5474143961614,-34.8022277565265,-1.16515649627715,0.5732641572364,6.00474405200036,0.0347954533725535,-2.17045147517138
0.49742157814009,0.602191716014875,0.0451208264430008,-26.6590851077722,-16.9644946264298,-0.115612555784347,0.469404498169453,4.53654477458619,-0.0782651789445447,-3.17254429463023
0.39767487090234,0.539989071033602,0.0560147677634755,-16.133035832976,0.714518299090405,0.577558983436326,0.611060305212935,2.30324487660915,0.01210461194406,-1.95942445209357
2.92323484074517,0.592142955045882,-1.61132507496658,-5.24750464154404,0.549939581135443,0.329548323731434,0.373133282696768,0.336954123773647,0.600170390570163,0.530855623387678
0.605966975570507,0.434770335296513,0.278315502515028,-2.80405964797984,0.649297095536694,0.446329142562157,0.352394639225184,0.516955912481843,0.441871523352307,0.398198008631069
0.413374590546802,0.424923533530515,0.245415588985577,0.0420721566115912,0.3938148335195,0.266779251799969,0.377829101342709,0.604486680819341,0.530139561468673,0.659989782280186
0.283738268438941,-1.1108241373247,-6.29131072215691,8.61997140951179,0.503290909046412,0.570379616531962,0.464114423492022,0.389820698475007,0.437182851074017,0.361662317756351
0.570646165475632,-1.22155001516882,-6.174984976789,14.2229939516503,0.318411756930138,-0.02351036663665,0.262966450538111,0.390282007818872,0.650259274192744,0.67352240313913
0.5332380190596,-1.11508561042595,0.398740020768556,1.42222200048317,-17.1752350720449,-1.17200302014879,0.589490920569527,3.11169539297531,0.618327458800932,-8.2569255686321
0.418282366451124,-2.32777460194636,8.97532462807471,-49.2364230976796,-17.2342664854785,53.615680296707,-0.461275071620955,3.31120258504767,0.630405098080953,-7.92768188826196
0.444166247995746,-0.923608330277747,29.7137247088122,-35.5748184837403,-0.256645662614571,35.2615568043845,-0.190790484715536,0.520724641617549,-1.68926865720333,0.550335313619804
0.368426606450473,-1.70249598689688,21.293106734086,9.14221506801917,0.069480880551286,-13.3588439702764,0.480488414482076,0.455305861452525,-3.23468546565031,0.781013252425042
0.570046805618457,-0.590367307203203,-0.0212152393089106,6.45375783699012,0.432434812562436,-2.84971288182265,0.625622639792324,0.543134378638338,-3.12430945723479,0.5983122174388
0.389664535122491,0.671148709584319,0.612270883116319,0.529266003615098,0.417578636504317,0.473607722143027,0.586819715054908,0.709105448521579,0.578140708408268,0.415943868247925
0.430294753446792,0.669014118504424,0.414774463739088,0.341328407938923,0.463036445965546,0.550292735322987,0.418917407561026,0.829689622325664,0.471874571474226,0.396058483010223
0.500044953149478,0.401618836378383,0.377135556868074,0.487081274174251,0.560626808966289,0.473916010736068,0.290448859356258,0.334072644887154,0.925227214624369,0.623491086032739
0.34263540804315,0.535531997867739,0.373839745010001,0.366194996866534,0.768110999015741,0.410718838452275,0.457280078264506,0.565865834147098,0.609336238658594,0.677246748962984
0.683915443149786,0.292019569661868,0.433628456286253,0.527235151839664,0.474136105687904,0.277562094678052,0.582322680676342,0.504025265127797,0.524724210581349,0.301420245102605
0.379116571377697,0.533570922092148,0.605497086057035,0.525822774564209,0.583069878007513,0.695081656196556,0.37568741872209,0.475535418353954,0.669124502337479,0.420900297939481
0.495346202544882,0.310679382650821,0.592783201089613,0.547786810624398,0.566258988290837,0.391817870605265,0.514135592218908,0.474924969417502,0.650314371870249,0.703829542819673
0.654358178354686,0.516932146866257,0.408086241440232,0.74644438901649,0.535209807183186,0.352081290667444,0.511466949040173,0.475381374792591,0.485285383042622,0.483514346176617
0.489563603417488,0.520268094141421,0.350890746050748,0.385400476246618,0.632026004325714,0.535016552232702,0.725290000960846,0.368169727079808,0.620199761196371,0.41229512511327
0.637947618655174,0.356399139440663,0.505576584346518,0.701374294710512,0.677969896285491,0.412128778379122,0.510154483017788,0.707478984415976,0.602155543614822,0.616410038156883
0.476398610967211,0.195078535913419,-0.0695937874517944,19.0211185664576,0.478329527264082,-7.1354336064712,0.562565957014979,0.670909872463852,0.668474155875292,0.715648941066436
0.157714937433911,0.166864388965206,-23.9480944389969,44.2642425259444,4.37117984805782,-7.13038104793199,-7.41614835806454,-8.24693811787144,0.0163959932707942,0.129398560667216
-0.0963933548787532,0.267803157278825,-18.1669308896476,46.0552851493812,3.8292939083035,-12.3424988423477,-14.6401258416149,24.6911719298529,-0.0980415664727627,-6.61047072421929
-0.615121575782675,-0.133831817963922,-28.0517498437241,12.4403204535165,-12.9798251525599,-36.7023681772557,-7.5170466470699,11.3195678918081,0.586717678213483,-8.47944962674075
-0.724785675232767,-0.596465591282812,-30.714489564569,4.28477156974781,-33.8725582601418,-20.5009345102211,-0.957837400448513,2.53992437327574,-4.0234908174991,-5.46441739046925
-1.72702906345586,-1.32239928452239,-32.4065832084345,-6.32473754984483,-48.9667560620061,-5.19343177615693,-6.41828731783517,54.358877591948,-9.71099157366147,-27.8787751241886
-2.74954958984311,-5.47554395847789,-21.0567707206123,-28.7817547708215,-37.8311201686399,-2.64694483272721,-10.2345128715176,69.4249014135659,-9.89059776250846,-69.6271235601643
-2.01635486621915,-0.440467043599586,0.700515646621371,-18.5243110271587,-13.539906976806,-1.11433875023736,-9.33885594327358,59.4817629278216,-4.62853885361303,-37.2198832132318
-5.58588460354059,-0.470272997543214,17.3085252232921,-2.44554823157895,-21.3083353323907,-0.166456225081712,-4.88424142285376,43.5277022524507,-0.606717576288582,-4.02953268474952
-8.14004255142367,-0.642827459426563,32.3528411313122,-1.07000544146228,-16.2817247074422,-0.0121105722258239,-0.469542311310659,33.4071552194306,-0.617850567993636,-1.07945206741936
-6.05226171591606,-0.542090384531283,34.0496669986017,-12.2095740396419,2.70829863808833,2.04927068541142,-0.261447239916486,30.8669126438483,-0.388145007677139,-27.8891877293575
-7.28920582055724,-0.846583084401715,25.7343863571472,-13.9865086855915,-1.67655959652529,3.63434562334676,0.335939147401023,19.5826242699684,0.120452779627894,-14.9329161797466
-16.3797667486939,-3.45807059604063,-3.3954791236675,12.96944484252,-6.85553832407977,-5.78433113411225,0.344395488070104,10.0782490868301,-2.18213837291481,-5.06499664195725
-15.1025422065456,-6.95577491932941,-32.3993034047471,40.556302473808,-22.7483697344335,-9.31830127519904,-0.0056111114428478,7.71076102147227,-13.0723749973339,8.57284778489618
-29.2805847609227,-9.40718593087638,-65.5050108694148,17.5584026311269,-22.8614967839476,54.2289504807954,-0.802252459156587,-1.81244362725725,-31.3484398647444,17.9904877994394
-16.4327111261587,7.06708497208542,-21.8429428047283,37.8006927158395,-2.3347942721561,28.9353429503058,-0.902393662791955,-8.83920773812336,-33.9537555505594,18.0588359745224
-4.32780407119477,24.510534204248,-18.4390460087562,50.5468364520944,-2.00575186229297,-21.8666594245828,0.221477097401965,-8.52058700704588,-20.3004853317231,-14.067467281487
4.40635757885311,12.3088479341098,-40.3287244917777,4.91676200500529,-2.25561500588424,-4.95276534321251,0.205274724601808,-8.50453021904582,-4.17326040612851,-7.17730671278077
0.547762403591537,0.136922863431582,-28.0948773005123,26.1936383003456,-4.29326433323789,-1.15388420296001,0.584765528114721,0.286981696905667,-0.788606975487145,0.379426460058074
0.51386912861383,0.373127209730607,-10.5222883206665,32.1337905324512,-1.81862814320124,0.539929812879463,0.435899948035465,-3.24283434034305,-1.32836486801363,-7.40307567224172
0.792566957111339,0.549357364869247,0.617078905847839,0.952445677872257,0.734330556629257,0.307261192781664,0.690339780534606,0.650492349148593,0.465497039594004,-7.0515361725124
0.432999201313521,0.115062916055426,0.505350974578333,0.0725612152302299,0.582295661564935,0.277061922352925,0.762372378840311,0.438514911815256,0.366503680102296,8.02816161357428
0.50779448239267,0.692871919252434,0.651867208559337,0.582667107752292,0.346733282028435,0.411406793880145,0.221052899522317,0.563389190002811,0.518602478434391,0.362555366307032
0.648201349876543,0.410850572193101,0.725709927829197,0.425861664134755,0.676595353065996,0.625282787942685,0.436662903679535,0.475990376807864,0.556923691117787,0.44581513432015
0.495423068771242,0.526261908901021,0.458537332803462,0.545517228895606,0.490756196245495,0.457130326758243,0.480270033987962,0.418826499191686,0.545868617758235,0.41006719662926
0.54159842706979,0.555062880420857,0.419806377765519,0.756173502234053,0.225690907187508,0.55965757189076,0.484084672520238,0.595562522637407,0.173895797930361,0.27703312249322
0.57971676395055,0.600813668579744,0.353164632380004,0.508200610959355,0.444803159648506,0.616542584042848,0.466666047338099,0.602863430955602,0.511882787626601,0.604987312342346
-1.56772989825206,0.882336301730017,-2.86394818280184,-1.08782368025929,17.0488601944626,-2.27585659777968,0.448279995647439,0.366139127028192,-7.60443351485431,0.455163676126856
-3.30883276089962,-0.170968537655698,1.19071309351512,28.8226739034289,20.4039663527057,-18.6276645570247,-0.601929763618563,-0.328079837330901,0.45554439649348,-0.0686461409199931
-3.86919738458227,-0.964726161058278,-12.5058442776434,9.20504606396138,33.7298874336364,-18.324760777665,-8.91374934797114,-7.76308773919696,0.856713831833076,-3.61110202916957
-5.593745858031,-0.421015893675098,7.67152056392505,23.2226350382107,7.06201674473471,-36.5015356776088,-16.2763690524356,34.6452201550653,-16.8140157891348,-24.4907304478866
-8.93381218264684,-2.2817821295683,-8.28002915058199,46.6028329178344,-0.991341994366423,-53.3060324203024,-11.1726557646992,-40.2638025481371,-51.3317795770287,-6.06522972792684
-12.0095592605619,-7.27490153568911,-12.326719640759,39.0601334389064,-7.00999512081689,-33.9045896626356,-5.59793046690864,-5.13970115405491,-4.79675362043781,-8.22231031043617
-12.8271769756257,-8.80608976911371,-19.4926533657752,26.9003204367173,-13.9900908730603,-25.4733013448096,-9.36536832852528,54.5263728254685,56.7066873185844,-51.0237290380189
-14.7347902632908,-16.4294334770016,34.8388735907019,-26.9283787390235,-16.0854312374422,-13.9744906881301,-26.3784046309699,32.0041737516028,-10.8431159317984,-67.6473226974065
-15.2356907929123,-8.20110402179797,-42.5880032454058,-24.2612574916264,19.2186984535205,-10.0373520289949,-30.1827123576823,38.029263193121,85.8359998606254,-31.8626594012635
-8.00564289119322,-1.53462681112173,-46.5581256107611,-10.688884756191,34.2510706344237,-0.29329889648637,-8.75416551704509,37.160093670283,42.7801455516257,-39.4504856231964
-9.42778337469763,-1.43736849704087,-5.21259694892048,-10.2276138760781,26.414328535631,1.17923200947175,-5.28631464746121,11.7595745531899,-33.0329565556571,-23.7967232067252
0.244075005242728,-1.73161167070931,10.1616816581214,-9.51431862366614,-7.29043728403275,-27.9759672842929,-2.65801240213591,6.91927366308216,-26.178619072193,25.3332744068496
-16.4086473487923,-0.710296997264462,18.1976166942621,-15.8381717055471,-66.2851372711331,14.4157846480541,8.03110705835995,28.8334722631041,-12.728114774685,36.8448487421286
-3.89660104338438,-1.65375756398262,12.1234296138752,36.205584680299,-57.8320610235908,-28.8901849214494,-10.1530010180191,17.0912108646739,5.16165127428101,-22.779152539017
-37.3526990794175,-7.98694285907703,-33.1020759359257,79.6137064582835,-72.6008636187141,-31.6942569501222,-1.05131350874122,7.21221666048879,-34.1661842546725,-45.9896508878823
-31.6792645363062,-14.0461263861453,-5.98734164119767,20.6713773926978,-35.8146629878165,-9.86627939706256,10.8084303255836,-21.5522982294993,-54.2250291812511,-36.4297533823719
-21.4598241229592,-1.55651088732415,17.4798037712405,-3.88491046633247,-0.975906479776198,1.08582098486757,-8.50700110795429,-17.7759150681581,-73.1039071862745,-18.3149276371241
-15.0443122919769,17.2010812675218,25.9847535902966,12.1025174551825,-6.00990668131468,18.4700130717974,-3.91571017196616,-8.33787867298151,-79.2380699343944,-7.16277303501896
2.33236916863371,8.09932354707605,-13.3624461171634,56.0213190353004,-3.1267812228257,-2.52374862629566,-0.539273101074886,-13.009351995739,-53.1315644876883,-11.4468592569165
-23.613481025876,-22.1800242094671,2.83700457629948,97.0968678195842,-5.62507492652957,-11.5754947436967,-0.624898904135795,-6.09814201414198,-37.2023103075882,6.89251281759856
-3.29670123264391,-20.3588094530691,-8.47897772822443,75.5771177166864,-2.89741851019479,-1.98768726786807,-0.566605892137312,-2.32933405532507,-19.6990681527706,-3.54093108181949
0.50173967433211,-0.826496915731718,0.444633944812136,9.77643053516974,0.472931028790908,-0.000399019817393986,0.375021233804084,-0.913247013097773,-4.09973261582985e-05,-7.80878155491204
0.428932784914587,-0.994638198407079,0.372793889097594,-6.77225818387501,0.529771609524126,0.0061088072936593,0.650042576910277,-3.34982702900795,-0.317371322157728,16.8307074126446
0.464671564514343,0.372238456560309,0.636270105551169,0.558238248170008,0.666037265880612,0.40522220614958,0.755515705070136,0.526207961268338,0.689452292561394,0.369558996671118
0.405483417424417,0.637189437331316,0.405531294691015,0.394305361416707,0.629472855391152,0.581940003467454,0.648815463599336,0.501575480269862,0.574917712306334,0.506976454683379
0.445209973669711,0.261970455248003,0.716379808864559,0.446638735784988,0.498320470165471,0.299956757233999,0.350983872718068,0.559227479811216,0.482866412462054,0.440371505243555
0.280905425435309,0.68101776587958,0.636459403080729,0.613004602579285,0.571020718888042,0.487500908415105,0.333573795910625,0.607438928386413,0.438343999478192,0.476121383259797
0.397469204709493,0.492701407591317,-5.0755464758444,-1.64945452684498,0.744811323526962,0.362938831628674,-1.95748231990448,0.685027117062383,0.363703482890547,0.417925971196242
-1.99660482493754,0.164844457569284,3.69514418168393,8.07971643287986,6.49344635013212,-6.65665402454271,10.7875833884526,-0.119334548931749,7.420035250048,0.0824167894381402
-7.05281643810522,-4.59996779526156,41.808285917749,-21.2805048948722,10.7576643418744,-25.4435051383946,-1.43627131783803,-19.1059154451776,-4.41958101106715,-0.479648398355179
-5.37342672228866,-27.1561035589613,-2.99862340921809,15.4410397901865,23.4444856467704,-6.60485578069282,-25.2545672030987,-15.4154412415145,-14.9728415811367,-31.6870215328797
-9.67158421151967,-30.9925784696963,-8.061754807226,23.1202529920727,6.65179048834973,-7.1355538063332,-21.1156590444674,9.4422477779094,-38.2216851786475,-31.0938392423464
-13.2051461045479,-46.2574445295218,15.7214045776503,-10.6562830420579,-1.53701438082616,11.1895894475589,11.4643682121091,-22.7881557094671,-43.1323124425613,-43.3311381007514
-13.715806455619,-31.5899733368595,42.0250100045111,-50.7652675232181,-9.21177420300846,34.7685698102479,-4.42541430694424,34.6996133055333,17.4522488577642,-26.9978207753977
-3.17305934857516,-17.3630320651708,54.7351609912031,-6.95374358614768,-58.4209673310194,1.9197326804173,-25.8606346989466,21.9316130467172,-6.82397805125041,33.9697738553139
-4.247220390094,-17.9727305931635,36.3774637293373,-53.7350044347112,8.41057542406157,6.91325005776997,12.0764179821932,16.2105760168854,9.22668113143624,49.8694012140847
6.65540405895357,-14.3356278315337,-28.0705762932338,-44.9296282040386,33.1089087108703,-31.0704706833511,15.5229725686194,-69.971621877258,24.115121194308,52.1974490923792
21.1422012699837,14.2772098969998,-46.1907572237578,-64.7155576170989,-21.4886009909225,10.4362085153208,20.7085743461117,26.1704085900902,12.4493323031325,-38.787000291513
38.0160535603819,16.2065625350469,-25.9039020224168,-31.4607902903479,-3.66464465095785,-25.3800421744297,23.5893862799076,35.8547026081956,-82.7426426116901,-55.5586568147058
3.20940860164444,-3.63304895127895,20.7895966084481,0.387558658045847,-2.93851809963258,-15.3972554573924,-16.654774398691,15.9802484290475,-65.4510282744679,26.5448913372152
-2.58979730150213,-1.51963345542466,45.1873319811974,30.3017462642912,-2.5752763667131,-9.91494746438778,24.9858860254068,24.2226292640809,-2.04909228715668,-3.25487589743762
-8.02771510480017,3.57188936068282,36.4445415959075,-0.862515592290722,28.2772672128287,-8.4056984429193,-0.34918270685693,-1.11935753468512,29.7255422585644,35.8816546291698
10.8523291397925,-21.1752326641427,-27.0005889558282,5.91162879194906,44.5977356566806,35.1937115368778,-22.6741529681996,-6.65343936683932,17.1677898178975,-36.7937660789423
-0.531412995029838,-24.8889060086653,11.8515143904771,43.5304576158615,14.8850089433192,-68.883563955189,-14.7501597833409,-30.9869127185536,41.7292698625862,-16.4666642119535
-11.6105125028132,-9.23240020468147,22.8622022190473,56.0311305076886,-30.6870718709047,-9.47281417932666,-16.3919935454695,-30.9796947998477,45.2438634014419,-59.8180091263037
-9.37087900336357,3.7781649925392,11.5608087516106,-33.1579257148787,-35.4865317390796,39.9335515037546,-19.8226683670251,-18.4870971725047,37.3679458775132,-29.1066080844204
29.2280791804582,-12.1669627210256,-48.6906329522526,-34.6030988915936,-17.7366689583077,-6.4362226926543,-13.4897432712763,-21.3474615086591,20.8626292342005,-33.5769447770173
-0.439183184611658,-23.2637902813033,-17.3166085029506,16.9619752324463,-16.3176272103956,-8.78660213289523,-6.48088379508759,-31.874403200843,-33.882442341787,10.744706689923
1.44332463844878,-24.8513473621344,-22.1897694194633,-7.76551597088328,-8.28900606455847,-8.36629179835242,-1.43712314101648,11.4961055380588,-14.6359559045285,12.2721928677062
-4.3937430483305,-6.43799693636857,-56.5344118880093,-34.3685718936078,-3.95584546717147,4.33249044364169,0.60601318721211,26.6123863129775,-0.872502435383569,-19.4246276321936
-4.23258837250919,-1.52694670187094,0.456368169821387,-13.5633560290555,0.06264562556753,0.354254625505223,0.479628975541926,-8.04708700238141,-2.1892551767029,15.8907718463747
0.398284298293014,0.644156503780039,0.489647382286239,0.488245833055988,-3.99294299108141,0.566234768697742,0.495509658538919,1.17773264824291,0.474245296167655,-25.1616763201487
0.318899121101565,0.609790917746151,0.405186953037098,0.586978207001438,0.492856297540173,0.463466301918575,0.505542537043434,0.458832352047192,0.496155731930907,0.496502033856285
0.713245721401999,0.58428084063056,0.464966718078149,0.554635714277445,0.605367356357178,0.548324608374432,0.620075546280781,0.721210104412207,0.510914720684086,0.629251975655068
0.362875754721192,0.449200284385176,-0.486095851186919,0.281810609861938,0.628831747364912,0.528281665389852,0.366022183051028,0.3087419010188,0.601708655773054,0.434321706397824
0.285344497731525,0.574411823782922,-10.7651453894272,-3.40445921055116,0.535752640419253,0.310036642916367,-2.1064522288802,0.550499484153604,0.413299037592722,0.091989904663556
-1.61895934141405,-3.67802501593783,26.8498040468634,8.17655492763492,-23.9956498357028,-5.21885955408131,-5.51108247554389,-0.216390259991648,-1.83040464701936,-0.959411585828911
-7.68501539145827,0.105417625765717,6.92569663302717,-12.7499076962956,5.70125891035115,-36.3527199898536,-0.457268540252988,-30.7657124992138,-14.1457372917763,-9.58138475246439
-15.4062735500356,-21.9807838997952,-26.0032213609981,4.60676623563264,-6.47104558801706,-29.8830105567058,4.75167595906183,6.9393362755124,-55.9468005873284,-51.393578402715
-10.3376403967115,-42.3668858396687,15.4161856490894,35.4472481422553,1.49931518293969,-37.2458070908787,-23.5881160821966,27.5142793888375,-79.7070539153064,-36.2738516382607
-13.4534405640401,-35.7608372683781,-54.2026142227505,22.4904099917764,27.788609587678,-20.0077758691724,5.71219760738464,37.6765146825375,61.5088839294126,-35.878154398289
-14.25043080885,-23.1164622197575,0.951437197715124,102.883886249546,-8.26792808218898,-3.57975012346171,-16.551399870685,7.63384816923898,13.5030392770507,-51.1079707941195
-22.6572304946472,14.1839845827025,-17.7982349680416,12.7279521846163,-15.8654566222194,-4.00011099078936,4.95049040518502,-27.7090043340131,2.68885581577391,-0.0467611098846692
7.87690087706147,22.5545955771401,-51.1078630554174,-15.365458968683,-15.5113814382774,10.7970535121068,21.6154635843961,-16.2632929841939,-1.02787973001382,48.8035486597031
7.76473738085632,23.9434324018121,-92.5392337577523,-57.3902740312271,-71.6780203714517,24.6776498853506,31.7545175564535,-68.7462271627709,2.59150585554691,77.9375611098373
20.8603834363156,45.3430798667109,-60.0432438822412,-4.77381245394517,23.9151755251566,7.20542916361244,7.11636869708144,-7.76107000065146,1.31010927680946,17.5516864627278
21.0676171763035,3.27800298904734,-0.542759757442465,22.4197867623987,55.2952969862663,-8.91529882943903,7.24452142233704,29.3733866722682,-57.2140090923216,-36.5687645544689
30.0198026837468,-15.9807073602425,11.7742698903172,-102.6930989436,43.715253036512,-27.8509840899742,30.2205028252798,-2.38642979222007,2.82877238385858,65.3050644272854
-7.80316725803618,-7.29382533872455,52.33191137802,-33.0844945150411,-46.6904567496964,-77.9452846983379,-21.3973998988921,14.3202121503951,5.04302471656242,-28.3256507087203
17.4351120566926,-1.41278541580097,15.8135685169174,-10.1904421172987,-34.6109825336162,41.7782590108998,-30.2029316232232,64.961704383511,-70.2960845333989,-3.10766105478642
41.4595586973171,-9.23007666803171,-6.57447439824844,-13.8876454531087,-14.0132399999561,54.9201956792918,-31.6676405899809,-23.3908792156022,-23.0648896618979,-5.98372518508394
9.63907668539203,-43.9993828338048,44.7412028656858,-27.6846788853204,43.4220760182067,9.80795477625067,-16.4488945569775,-45.4509032126081,-73.1154887158586,-32.6588728864416
6.73694524089851,-2.43415334521678,14.2590017542029,73.2014320443802,13.8101952621879,-21.093333849711,-9.97615977991277,-42.3883923335867,75.6583780480751,15.7927495550342
-11.6694663603667,34.4582037524987,27.5110714002098,-1.24672502744824,-45.1947805428556,-23.5499889545847,-30.4010376154505,-13.3821024262481,-67.0861493880493,-18.0451781740283
15.472567158777,9.663849495231,-7.56033052479098,11.264257368038,-76.4058834710998,-13.5630118093503,-22.68773438276,-43.1281328115544,8.78460373770841,-27.446699891427
3.12434560319113,0.367282566326283,17.0801202752423,56.7605185033398,-9.88084516222764,12.9033670754502,-28.3304439976428,-5.04090043462584,-68.6595470030541,-63.2805122767079
-1.20413137195412,4.0101264984958,-38.5466665854584,17.5034710018559,29.1438227061977,-22.8817591601333,-13.9385287756008,38.2274220228022,-5.11765567411003,-0.742605155741573
-4.65746007468898,-11.6890326155206,-54.6164193420973,19.1405830125388,-34.1778722791779,-9.53481119205771,0.414487397338108,48.2563584768251,-21.2466780443932,32.3514644201636
-2.69404029984018,-1.35781859329085,-6.47082274449954,-13.2625288161442,-10.9911631146492,0.602401297085652,0.266566614725849,2.85154307215585,-9.2939881818651,29.5243282745125
0.428811603862905,0.522054728887487,0.413228866374672,0.445674721555082,-9.77604376718181,0.425949686512458,0.51033540789862,3.34163041454276,0.368409510765265,-51.5765964242164
0.540163700855713,0.534096846552801,0.665811332465877,0.536193060589139,0.599396131513746,0.444949823011553,0.402288787734503,0.700128522135047,0.427459479363263,0.42119953280756
0.354853219532239,0.562939772619997,0.285576338694707,0.251608364349708,0.2850975498686,0.502071095734163,0.559169875739437,0.426393097529044,0.671556075202682,0.276281248539087
0.451056932352364,0.405990703772257,-3.50833553141502,0.162631784643304,0.405474277698275,0.815110503013101,2.62428828424527,0.532601215136067,0.524265329450411,0.365259632474433
-1.48629689619403,-1.12572122250841,4.5828872287925,-11.5777222768026,-1.71883535434472,0.51872214970541,-10.5112829648377,0.166180425332396,0.364345639784788,0.212019418739324
-1.0151130312298,12.1126582641336,-1.66767828377134,36.3675134600345,-9.86065090981198,-19.4680669435793,-11.2772865253572,-4.91062133588483,7.3831247624525,-3.64489063306637
-8.68580891648459,23.0082289475752,5.18768279418233,24.8903855844807,-18.5865001175189,-59.906997459946,-5.57427670832556,-41.4135176877303,-16.4364597364444,-14.3135606793762
-9.26667922171037,-15.0321253180453,-14.9239896702146,30.6225460048042,-4.55571259249571,-47.54818898176,-9.12889046411399,48.284965200382,-53.0527579866878,-37.4205329478419
-11.4912894644741,-17.7912192204957,16.3722383540946,2.83387613208868,-40.1857992826841,-36.1412678046725,-29.8302352510237,44.0123074224829,40.9913330738914,1.79650045207136
-35.4535260012227,-9.23374302179174,11.0382326990805,-15.6058322872143,-16.4132256299369,-45.771445207561,-49.4849492985494,14.4336236503026,-23.0365005540601,27.1205702734033
-20.8655296511382,-24.2042409307941,-11.1387734293225,2.74090885925001,-0.113511257861348,5.35684112027776,4.48720629631747,58.8198727898504,-3.61653254201366,13.494250601612
-10.8316101696779,-6.43896654292114,-10.3458311080989,-29.8731718187999,-24.2527877284275,21.7918341678507,2.14216691355451,10.8215979223885,91.032142608434,-11.3443409820223
22.1852133960099,2.64306191352463,-48.9345915449713,-20.5974285233679,15.2027824970309,-27.4195628772066,-19.043380260018,46.4224733894341,-12.4456937768316,4.31689679953953
9.88301144368051,31.7457001706701,-101.456967399194,11.7097824658794,-15.6731316185225,10.5993418755832,-18.2438635933081,-18.9718723026153,3.03990696030125,13.5798590610926
7.10427089477883,-5.39356233107101,-8.90213558765513,10.3431841226487,38.7135151387489,57.0060563624017,-13.2213049283643,-25.7412112917797,-11.3945397916442,-3.09794907484059
15.3307640494977,-47.375114304892,-5.477484877421,15.2531369191688,51.6743415745826,4.73293286530327,34.4301589802004,-22.4555639776529,-23.3284641624363,40.1591460426353
39.3161371956094,-33.5989183459813,38.3273016619335,-74.1611809182006,0.93747007300028,-45.6503979976314,7.25097821286069,-2.76554925545479,-10.1866906652234,-84.4644651851212
50.8051134055438,-8.14349274990464,18.2569888660709,-47.0532445661146,-19.6332194150138,-91.5185698739445,-35.4067439194693,-8.29226114257187,-7.1563738423915,29.4129781155169
3.39384409159292,-1.39351821224166,-36.7656560595297,2.52166098270424,48.7729585593837,72.7195087256639,-23.1381185286429,35.8332107053198,3.48418883223996,-12.6306207798794
11.2363955950677,-22.9158603599055,41.420550005602,-8.61954365131298,-20.3389295771626,35.1140957338186,0.924272404865766,-38.133208352504,87.6775192953876,-20.7485034738125
16.584856234644,-49.9016082533849,43.2338597999146,4.69646495509113,-62.9691515841334,58.1129731045441,-4.18288247179484,-75.4466557333951,-50.387205328141,8.36285151794683
-19.2051138322764,-9.25229933421914,-57.309150601833,6.43994481946815,-10.1242732864938,48.2034924971909,-13.8681816558158,-35.0334665016916,6.36236267467878,48.0396409213234
-1.58208846057313,36.9265336581578,-34.7457281087764,-14.0726100779466,-45.9867908038105,20.1474059949493,-0.899476081916107,-3.97412955532082,5.65258655031141,35.20366432167
-9.86345047512893,34.8576306228324,74.5982043912184,-27.0684785416445,-39.9110537785416,43.8004470518785,-6.75272700170602,-14.2457421565153,-14.4874254026532,28.2250445181555
-28.7658512210169,1.0157908791044,38.548569218736,39.448415650789,-7.8336782973046,-0.305235806723937,-44.2394687457563,-7.11613370251569,-3.04530613038906,-9.48450005179557
-21.194526190775,-13.7684819200049,7.58789314471508,46.5985432476592,-2.43372860335497,-36.4497754244852,-11.0680847802844,32.2606109847419,-13.1561562237289,-43.0050015963494
-5.7765467180247,-8.17977588679398,-57.5235847879857,14.2498998443401,-68.4126569377954,-14.408654229226,0.566466878821268,43.7494204725293,-52.0816253911015,-30.3159333843477
-3.15255104039425,-5.95261273032932,-12.998510421615,-13.2983941351005,-25.7388097502365,-0.697255479800324,0.278374892533269,-8.83287376897568,-15.5830689375606,-31.7442344291488
0.762877055807448,0.455923487230705,0.517629796016796,0.434843696269449,-2.29200546074247,0.425086531978151,0.458318097438317,13.0040749574184,-0.156811151197678,-9.00497224890542
0.660097237984795,0.40605496230014,0.493863277400471,0.614942495118623,0.508717943485746,0.737628302834407,0.62443280620248,0.557088883659712,0.514138721020989,0.584944145264116
0.388265935566815,0.225779762773263,-2.78792177222689,0.861351740935198,0.414941265934594,0.528255661661667,8.40642055896259,0.590059734384829,0.334468439316793,0.530418750290081
0.64734037610012,0.49262939670832,-5.49996752594745,0.295097868923524,-1.02010221101077,0.619524225558282,6.39497363604278,0.784655073707948,0.458240314680143,0.624654060861869
0.277886581755126,-2.76972673982254,29.5686749836192,-27.1102679301649,-3.45113571041617,-0.928685910890239,41.3032032510673,-1.74061156516809,-8.58830201807438,-0.185302833110552
1.89635523179241,19.249269910165,12.424795271155,46.9766382317489,-5.74860405800995,-18.9795456169561,-9.45844109046034,-2.52960012031063,23.0515040881996,-4.53041955420121
-9.22500568585104,-1.77009024786266,50.4776074423069,-32.0463657668837,21.9673539858248,11.9303484467062,-19.6313666335909,-10.7792932333818,-31.7171927582863,-32.5518674042294
-25.7595260968947,-40.1027563458457,23.0959975656876,13.2625834845262,47.2371642162704,14.8484542354852,5.0220045995607,7.02997007513621,4.11156046231655,-43.2231687553198
2.63713876712155,-21.447159339959,12.7190106997799,-2.44314466307626,28.9568426818086,17.5755889923,-55.8137793292536,-16.9163538967449,25.9386636284645,-20.2932543136844
-12.2593501115299,34.8163483384409,24.2602983902829,-57.4284845017711,-36.3432249929956,30.2218713541372,10.1605874995875,11.5966184460173,28.7951088181884,-47.7799272812969
-6.22161749136415,-2.2820243944696,-13.2726062678087,-26.4375601347121,9.77028541592943,-10.0514061926057,27.6523772066,4.86186561546956,5.10730042070258,-25.6505837269915
-13.7843659762562,-7.09166601185901,18.4188642911266,-9.81701954914858,-2.98441463406422,21.7164047492495,5.12418181805999,-8.03891894328003,-6.9085883933348,0.471039774384758
-6.26498822998139,-0.953937687403607,-48.9863168797721,-2.91748517681036,42.057823442834,39.9548222258068,-26.9668910850774,35.3610952676628,14.3020535338042,-26.0032888800387
-17.9890273400673,-13.501705365045,-53.7274898819788,-38.7839822530472,-34.7007043060068,2.49312968973471,20.5184823221998,5.2974024383542,-31.4172361898228,11.1990054090119
-4.83941569188189,-4.03388344577447,-14.0542763232365,-33.9982108819569,19.1444926826795,-14.3382964640931,7.00426581646874,-19.9169871022573,15.7880757674965,68.5033155899342
11.8599412484818,-27.1569991679896,-17.4500513565447,12.7326375225304,-19.782682794432,-10.4768684774836,29.372893838565,26.7533176767648,-12.0101487324544,-42.2647572720654
5.42820645888829,-2.42275516599258,24.4616735964305,-38.0001040780947,21.9293532243543,-26.2802751546054,3.9432646009118,-46.2162962635067,-32.5232403215239,50.9483926716195
24.2701611571458,-7.48148254607536,40.9305861073844,-25.1946261543663,39.6834713913824,-19.6429303149205,-8.07962601391818,28.618693634232,-50.8554646318081,-35.9472860229595
8.64388783274862,17.6676521464779,-34.1614461189782,-15.5093146452991,29.3367714041755,-37.0844427078284,54.8562892985966,34.9715331842435,30.9361161021192,4.92977563324695
5.65443272168119,-7.88863721300949,38.1468314758429,-12.2813359687084,43.8127449179476,-99.7211892789306,12.7581817243697,-40.7634759166423,-26.1174766877167,40.593616434725
13.6422152112659,-43.4424941256187,33.7175592790319,11.2341195270918,-44.6441865202363,17.687641823568,27.1451299115598,-42.6782553662602,-36.4196929142493,24.7772749790768
11.8521372993762,-17.7482028837128,29.7577505119558,25.0337240810659,-27.4286702707607,0.218644042617073,-23.7118691987124,-0.0261590580859675,-11.2104634619592,-34.6427278654242
-18.8042142436203,27.0438272358385,-20.5326440469839,-9.35005055846696,-31.1241706742818,-25.7128948768582,25.1083176747486,-19.5989584971808,22.059370310743,-50.979769490261
9.61530428449269,-15.6734392393082,-6.35381821329046,22.0868013384461,-16.7602243897265,0.901455581740024,37.2710427210273,17.0910022468019,1.09514652030009,12.1053204407489
-15.5462821642982,-24.8025213592818,-49.6380761558877,-36.7259518924811,25.8107164745394,-5.34335870087136,-15.7566808929435,-35.0159623067636,-37.0390510725636,58.8994311201046
-23.5316122858955,-42.2853956967846,-24.968097539918,55.243388958271,3.6269835472901,-7.80612542138242,-19.2085050695361,-6.6848199765716,25.8378345529141,4.47653123508095
-11.8509431106988,-20.1606009319566,-63.5989904436912,-19.8590034552642,-49.8924339477845,22.3075485945622,-0.133587559764518,25.7296016400225,-27.8725325621998,-6.88854309900497
-0.591604671864197,-17.6888984323424,-8.45631331993324,-2.55021806970421,-5.0217570173132,-17.7441538041438,0.572366051010001,1.02909324378789,-26.5643825022461,31.4001494780128
0.472507698838026,0.48647502411544,0.297475027847198,0.680942362887141,-0.892772974062042,0.407090500349068,0.440013119215171,6.57029668544458,-0.447454944045148,-4.46326136838062
0.265234441945173,0.498034473059185,0.32816722049774,0.31284926916161,0.650153983447996,0.350992074716313,0.336036811590259,0.307625673310408,0.355634588234141,0.513562479163599
0.36322731946975,0.638415458134709,-5.82609012175531,0.562018396437249,0.243587318066029,0.39932000997098,16.7001451950712,0.607761624247161,0.593989404505471,0.580386260417663
0.338013266731851,0.389619687372034,3.47789796188047,0.176854850606846,-2.13844912864686,-0.036708153930435,33.573736339088,-1.92846021459802,0.28632661170338,0.55182434686959
-14.2130765568948,-6.04621601341473,44.2168026612654,-17.0746300314096,-18.1543480549744,-22.6632718160328,18.7102027718926,-2.6662596648337,-11.6371274405088,-0.964792742316467
-27.4681767665006,-26.2177392450313,48.9882743636856,-9.48515495684546,-6.02754089870693,-17.8051677921644,-3.82974182871426,-11.725197154536,1.61935967793747,-10.3822227770837
-46.4860853959747,8.53264431481511,-20.1185137372788,10.3483669496885,-9.73570444726719,29.487833604989,-30.7156498290034,31.7151440668812,-76.062234791468,-39.7886183704023
-14.6402349585508,11.5665023675474,-74.5360122708259,-41.791143007585,-8.66886336966807,14.8222192011846,11.4774429817774,23.5833319855552,-0.71614275297576,-17.5964680450643
5.94273197054008,-22.9976514377367,10.3588202310332,33.3262855332964,-8.30117330758911,-25.7945036556593,-1.68326668993087,-7.67531280512462,8.20223132032381,-44.1663558289847
-38.296086037008,-24.0927234931912,1.87229960090393,-23.7837973668266,-14.8766042839243,14.6901068982919,-13.8997576427796,41.8008353262113,39.4405420882663,40.7006808940857
-10.0002336245647,5.95372738008535,36.6982037566891,35.7832602944976,-33.4162038782227,18.2221561646074,-28.2424977562411,-6.50740938885354,3.45017581472406,-31.9877956003894
-13.601348619559,8.14528003399152,-26.1430252227217,-61.6599967642335,-45.966142833459,22.5026874204913,13.9519132481598,0.837260603973353,17.120032140083,57.8233755600318
20.1328320256524,-19.9361631268161,-74.6146701346895,9.72313308042468,10.9775765236775,-4.36884287893851,35.1748342089257,14.3933033261656,-16.9333310678451,14.8723870685038
3.67301903184518,6.81320115351819,2.5232851121194,-33.5848774851251,33.8424289296999,15.0476391229583,-4.30839482620663,-46.1846404254341,48.8975559468561,5.39665016080493
24.129509931584,-2.22058303356071,-42.9212298010182,38.3633087740207,39.3219536849701,26.8332242470413,5.7596392653431,-24.0605479073781,-42.0273770404283,29.6302277549016
-5.65747050854008,-1.59954469225044,-28.3151664620397,41.0375055616431,11.6152463813189,50.3623788179884,6.48050965460571,22.2287101749681,-5.75529670376118,-0.284439353134755
26.2253743541504,3.58778215504886,-3.99034542812298,-3.06615969085869,-8.23275869407898,20.2488908277141,-7.34351700690851,-4.3258422029734,-12.7707016119105,-61.3413204563238
15.3680940143853,5.47939956543172,9.97275365532657,-0.291913053613708,-5.81585808995056,-36.4165861950478,30.787516254408,-10.3164492151623,-54.1916776420403,37.8922696878734
4.85056073592269,-5.8386482847853,-10.815157720292,18.5860655033867,1.98423078036234,-37.952403251508,58.7478515320291,-38.1710850469566,10.7134742463434,18.0776045448828
-14.9306580636624,-15.4210807996722,-29.1897183438736,-26.2561311213697,-11.7390700105083,-23.8685886029391,7.03309023737372,-40.738116801565,75.8450545411118,-29.0565122438419
-12.1627727711911,3.18653487711761,18.9573673029987,-55.2644766065872,-24.8880790925996,76.276626680482,3.15801346144759,3.37134563051283,17.0303688363929,-40.7496395361588
20.0054487071579,-23.9359844262807,-15.5333722311243,5.91834753136622,-16.0436448344279,21.9613901015466,31.546327960984,28.2856179494467,-7.36034122440513,-46.1793976566944
8.79390258067194,5.54313848767567,26.8867774948651,13.4563644856255,-18.2218969553522,20.8096821954652,-7.91487627526802,28.8559031033935,-16.7387384360737,2.54165662695799
45.8898963072675,-39.3765433009971,45.0670753699716,-9.43498407396969,0.250127797453756,-9.98588549997784,24.8871803930173,7.13343767930024,-42.0405628745775,-11.8074201114292
13.9942679755107,17.728965685195,-40.8420066119531,8.68998504042042,62.3728798941861,6.94764106358966,-28.8101542183492,-22.8510109584267,-7.124928646225,-45.1869171028022
-29.2983007984554,-35.6725076108232,9.07620417523583,-27.5252512669394,-10.5463758347785,0.981946488037453,-30.6004675619743,-15.1126083658887,34.4561881726789,-51.986342974373
-17.6536599328678,-31.0994227590815,-61.1924897061961,47.7705608069715,-23.1333950866426,16.6224117033512,-0.884114267604776,24.4565074306439,-47.4477662367697,-0.0567096661073101
-1.12973063612565,-16.3440985446861,-13.2670525511147,-2.05350549542255,-3.26994469172668,-18.5031474686907,0.423537005587483,-3.7724425500611,-44.030196457853,9.61489879240452
0.387570650783211,0.575131869703431,0.399201207625572,0.581588974113895,0.528779204658508,0.427636359064767,0.526759759141907,0.591414652563627,-0.562703014187632,-13.7180437244366
0.723087454071502,0.582676215014025,0.295441810452714,0.598577708342498,0.359323545987413,0.372140508970056,0.366857248239197,0.422522151750767,0.456958493156101,0.442852268869803
0.172612946321505,0.484730765420473,-3.74287282949881,0.428405506128687,-22.2084812868833,-1.36033817075949,9.91078645536146,0.475719175893384,0.60498700978586,0.242478012446936
-0.0576506333589526,0.359733751601281,1.77960354150299,0.366610142892335,-39.0397389257315,-1.41155603808196,28.4190970375217,-0.741910473395235,0.685920642986523,0.0298178919431892
-23.6708501251904,-15.8872734071183,56.7448417648231,-31.3317345950224,-58.0042956916851,-27.699293024186,5.99178065060098,-3.55789802509123,14.3830788845827,-1.87991121578749
-35.7121482159949,-16.6176515584627,24.5721325108044,8.01888511218291,-22.133088922373,-33.1154038037763,28.4266690818259,-20.6788136599064,4.14583165577893,3.40310201004176
-20.2830757362984,-38.8297869995619,39.8252662566616,27.8467662757609,-3.94072568272084,-24.6134023709234,-22.2974843684751,33.2142623761394,-10.66267643694,-40.0350123982859
19.9253305783444,10.0407372146735,24.978205477462,75.2457111078135,-26.5234753057519,33.2614984722036,-26.8260152628639,21.8098000468973,-77.1950284806472,29.583272543017
13.8516080272408,-1.89487134073154,-30.0267398060304,-52.9538436098573,-34.7661636041738,12.7933036888619,-8.41601981098581,2.75123005229967,-31.8535248122338,6.89383210912594
3.77505683361125,-11.5564924886769,3.65185780124562,29.4636650132292,7.7806023896518,1.27300803315411,-49.2425989444233,19.6580993594025,20.0556716345636,-12.9438566845148
-8.82355804543697,-8.50228740055781,35.4378134724396,-25.4039276026806,-3.24833712326611,-30.2738939244216,-1.67313410760768,32.6045452267638,-8.06590233710727,-11.1217061456842
-15.543342183366,3.63035465270788,1.59354768103337,-34.6168152624418,0.873530344614757,42.7600844562327,3.81881912620791,0.809970119061537,19.9466055277486,3.14100728136956
30.4904482289419,-2.98350876435282,-32.3778215629047,-18.0729218393629,12.8727937747997,-1.62773074103055,9.91953493252659,-11.1947064122425,73.4545126587425,26.2793569186648
-44.9021454396006,-25.6694003356746,-45.939963664039,-48.6567081883328,-15.8200874638046,-6.99078374655924,-3.22775915395113,26.379158529459,-44.0552059697205,29.3695965631004
15.4432784243588,-32.2341566460985,21.3121023688341,-12.1840026529759,99.9478833035772,-46.8491210096283,34.7054010329148,-39.0847832755304,-17.5829675723326,-8.68658653981514
30.2741109740769,-26.5328540780951,-43.3401769809467,-26.4296850855593,6.29847718968849,39.893302756415,21.4951786733958,-54.2399099503546,1.80097335139073,-22.1439789272564
3.41861335121281,-65.5527816792033,49.1127397811267,-18.6775784070612,-26.347123233498,19.4740836168356,25.1971810690946,3.06052225489993,24.9763568718396,59.9095868234244
1.65171407314155,-21.6943153829048,-31.0418587745318,6.69413347828848,42.625346174225,8.1719085380095,14.6225542975609,-9.65485747992784,9.13975744448437,8.96869269499501
31.4920311240752,-27.6118980337284,12.6610956784319,-64.0121877450893,-28.919615413234,-30.6739201346847,-18.5979631310497,-16.00287092048,38.5263051665754,0.746247226917988
33.3273345882116,-8.27514875293116,69.4714582873717,-36.0431062656339,-39.5235961220754,-67.5648444471192,16.8544283785756,-61.8337749410776,25.5729010170352,22.7143389476296
27.5871480431774,47.4173197011546,5.83661123552761,3.62930805182707,-1.45873344248815,-31.7073571395302,48.9139076795076,-2.19612258139138,6.5807111419543,10.339622320089
70.2735147641089,15.4484656427458,-3.32460777365152,-63.3913146980144,-25.4322494605453,1.19199941969503,3.04230370787403,0.790745515011744,-5.25461796496165,-63.7173593728534
-2.30729852009918,11.5517956749009,23.4781315963165,-12.8986402730037,-33.4911044591214,-17.6457120750686,-33.0589521386084,-22.4389813131048,8.59959460538106,-3.31538058751635
-16.4239367545251,-21.1606560621535,4.04108536467448,-3.76094726520799,-44.8617437409707,47.4123728200959,34.2236783862333,-8.97071956881573,-5.25181242896843,28.8739536159778
57.0858925105345,-19.1833377935098,-63.6105840755147,-8.75595235643123,-16.1837218333176,1.8615581361216,-35.4447753261493,-20.7666042899176,-12.6090775093363,-56.0873837174959
2.04523340168075,-1.44924173567054,-0.952081741169219,4.26668872153405,-46.9188431207318,29.5554943578541,-30.9670162328318,-0.784088369934859,-36.9030105751023,12.3410245196092
-28.633311795053,-36.2020440360858,-59.8442103429414,23.920742342375,-56.1119660523302,32.2625007438682,-0.478213302381466,-17.9807916461916,-45.8291864516593,57.7144296504656
-14.7792561081027,-5.26340653179552,-24.0391291178734,24.0664083625373,-15.492201701272,-8.95884861183858,0.417396907279533,-1.32227030155488,-22.2241669398832,1.31616296717608
0.316465979365992,0.372014506051091,0.453293510006291,0.402182383915127,0.291102329118586,0.666719735389273,0.786697972889792,4.93334513983511,-0.821362104796415,-30.6722447171959
0.600520746970818,0.503114942933841,0.52878068562856,0.687296119614025,0.83379673703828,0.654561801372007,0.676593858723984,0.337367392315245,0.632443604953468,0.44408661927362
0.155531237019288,0.517806852571484,-1.01196105224117,0.708212671568728,-22.2516295071984,-1.32749341364834,3.62818090655123,0.653794156048265,0.628104839229004,0.227305386909175
-0.0327109513436973,-8.09650145131304,-17.2319506030561,0.199450525960054,-60.9803499048247,-3.5530207079878,8.56266811803212,0.105392468895984,0.205188012095249,0.0955897008434616
-17.7059892348422,-27.3930132961819,29.7732878782465,5.37495323632353,-57.0985390446887,-26.6222191439895,-39.7579359105804,-5.16839776868574,-8.9688386955214,-3.89401398413006
1.32823408721542,1.81233880271354,-82.4769925764369,-28.391730812556,3.20128458370346,-26.1892629806893,-36.6839932008781,0.500558817327035,-22.0779641493699,-10.1630888621024
-13.7224986941893,-25.2030647263974,-15.8047417584767,-33.5974048389292,8.51460693701792,-31.7283724649973,-29.1637387749935,-17.9259253949822,3.95112585961783,60.7235058757439
-7.95810067174923,-3.10441094754639,-12.6164098233391,4.18268554576811,3.6158155748161,15.8865711699225,25.0953754209029,8.63054668687341,36.4329262463127,-20.1319410073622
0.115149303616195,-27.9791147865921,47.0495557277027,-45.2573518725882,-22.8020473283709,30.9130661755164,28.4048212634629,9.04540083035812,-8.79228605313753,24.1505092176745
-3.27100344107574,7.06904032272048,7.84919755097201,-17.8660121332904,6.95098422130467,28.8469924318929,-52.2545731433389,2.04860459426848,-6.0945545975711,-6.36086224144575
-10.3005209816577,14.4033402270588,-2.76048362923139,-31.9394614126397,-15.5044156798078,12.9613383299203,-20.5362958352162,7.18989016515328,46.5196582495778,-23.8998119902498
5.69688958507299,-22.3948977505856,6.58749818714766,-41.0454265369447,-29.6679277502551,13.5974503758801,-18.3287153268286,5.89931250277411,-18.7442382487595,-0.282800059272692
26.0502925305915,7.40327700876379,-44.3982967310741,-21.6504206202603,-19.3416458500088,64.0843086310057,-42.5730876126222,-26.20085024111,-18.3539678568592,5.35892416234104
-21.6882882158235,-25.1965096306167,-12.6663801628792,34.6654796110024,0.48954567007755,24.0364800633702,11.2340294159715,-0.327113704717923,15.2665354371499,15.3948100630169
-3.07413631946852,-43.5087797912497,-27.120998586397,-5.78200473099863,27.9480821143697,54.0105610245709,13.6348316553162,-18.375656372265,1.70943114946182,3.14356980345006
20.0054375237818,-19.8413704958164,-20.0364474767437,27.0302609608373,3.58198877457065,-8.97402112223919,-24.4091281860645,2.94924307486908,47.56923701015,-0.187852653243936
1.9180570737228,2.50414333410285,77.9726756152665,38.4032413710818,11.0638387202244,-6.50593407119366,-40.8029300942828,-38.8316313254621,-13.2204184090561,5.40117516269818
5.56201958479624,-1.97629521242991,-15.2088465851583,-16.7083339163801,30.6260604473645,13.8570477587962,5.61778768568721,-20.1053840221264,33.8293604191904,2.12114218225731
52.6185302654554,-32.5518204293743,-1.98092457730348,-20.6064945508804,-11.3191681033317,-6.86020203941479,70.209398668127,4.79511146088725,12.2031232254882,48.4175123736491
4.51873567238702,-21.1220378817255,-30.3913072384591,10.8438908193987,-15.3106460185971,-27.2421398867143,-24.5940437125244,-31.5490842240983,16.9428149928687,-8.88560288752425
2.40547726716104,-8.28982859344238,-4.198101812163,-39.8183846610415,-42.2929978179754,48.931230777064,28.9031799851971,7.52902515566508,6.80822072996311,51.542759469142
4.58162017510897,8.61283063701003,49.2727774048213,32.9956464457582,-8.14725760296423,-2.05933454042178,43.4347577136495,-21.1833438349815,-23.5453226971517,-55.6775892717528
20.5991710340685,7.56667839740115,28.937111116491,11.7384633480357,-21.2008153584667,31.1111397488453,-2.53212382771182,5.5654548042385,-34.1946588335137,7.58896434226544
5.1806374779965,-1.68795773823491,5.39045679200588,-4.90413033589056,-10.4130889300593,-9.67846351845938,13.8499529311051,-15.4741569026552,-13.7609554507052,-13.0855979247562
31.8254657628761,5.35765527663539,-3.80810183095572,73.8662239238569,19.1532640294298,-6.31839221759488,-26.933858468194,-9.34064823988586,78.7225371433199,-16.3208647249013
-23.0807478187061,-17.5174116357768,-39.7928898596176,-40.7146482067837,12.8014932658639,10.7642433190099,-39.3813323521064,-11.4226368392429,-2.95479529453929,-29.6528330133304
-11.049399571458,-29.139284240724,-44.4848444624864,-9.15024494454965,-37.8242050118915,-26.0830635411662,-2.49505662133133,31.4695994291428,-52.7595057990218,-25.7348648417745
-26.0304682757935,-8.66914622952479,-4.31325429236967,7.85162406354718,-9.52336944284603,-11.8807056327204,0.510424787248152,14.621430171987,-27.8192569039859,4.44997376292728
0.324661106466998,0.468337069413735,0.539589803811575,0.321325874268291,-0.730058967372911,0.481177886958578,0.446120835768347,3.83205515705589,-1.8437849756639,-28.7823564351445
0.308560051870594,0.415507931006719,0.450997163019266,0.362583311915676,0.352463010148212,0.442917264628775,0.537406739118116,0.468867747417613,0.508646841222686,0.210591864749513
0.445492827370364,0.54501175681292,-0.984201216678851,0.520261544739069,-5.5998232124795,-0.0458254130973393,2.78613008963905,0.618069040181956,-1.78520633200809,-1.79157913146925
-3.58240743628537,-16.6369481235977,7.42272765475759,0.281577295933362,-18.8315223295457,-19.0071158381493,-0.663569987702818,0.00822868588740116,-4.46213837720709,-4.07664095475125
-38.9621380852155,-24.4895358366992,46.740814437504,19.8552259368476,-42.4611289261877,30.5823442593236,-1.67705620442064,-9.84380861412097,-0.139289986389496,-28.9549407318776
9.64877591939297,14.0645952788531,-21.9476627543412,-10.0389780172811,-17.8302824686369,2.46879544721912,-25.164798537661,-11.7229480068997,-12.1266797865512,-22.2224651437445
-35.5836310283586,-31.8991479089164,-8.31237651828929,43.1526225504259,-48.9915885885064,-14.2670994446336,-11.813748540465,-1.12438123184326,24.1791374717756,2.81555401864915
8.56729433873011,-26.8398903260944,-41.4211054538352,24.0820365217062,-11.616967349003,-0.900465340587909,-27.6724917527283,-40.1129118409863,16.8541532613516,24.4590968544884
-8.84756833715992,-15.081778866817,47.0312450687191,32.963034329918,-17.2646835902133,0.0882765889843881,0.453486567058951,14.9250016080368,-65.3069222337442,3.57017599636277
-23.9764439404555,-18.975697221299,-31.5443488998456,-11.4564556870052,-72.4907391332546,26.6790118159325,-3.61096279725777,7.1888193731263,9.27208015521591,25.1771651949436
-1.91502577899565,1.13051801952881,-28.7878092440767,34.7990721686436,21.6999978235202,9.9549393936662,6.43870262956882,43.7846470238253,-15.6242583979257,22.3020184822766
-9.42728956704473,21.9088284872164,26.6288916867088,-38.0543341236556,5.02619786841688,14.3251357018728,-4.91036124379932,15.9532702418663,-1.08924348312868,-21.9676571330902
-17.1699711161684,-0.584435070279217,18.0934239535669,-17.9486359240509,39.293462217105,-11.163368116053,-29.5455716268279,20.6026348800224,59.2962470881525,2.57166419512174
-0.362108736293548,1.86360681771249,-69.3818105811743,43.5215985963197,28.9284669753753,5.86581089725083,33.6950237371935,-64.8949285128332,-5.69208034317405,56.7920415447509
-13.5740818038191,-19.8542739809439,-32.3869638921728,-22.7824173886051,56.9413165437333,-17.68900467545,7.62225513970777,-25.7003974175452,43.6484156948131,-27.6811670364718
19.391027409426,15.7501452088659,27.9117786066143,-7.20226951412386,61.2700891397413,12.6009116434613,38.1717692241256,-17.9648587171365,8.44343058043774,12.1114450048417
60.4981035847069,-0.208000078398021,-18.7915264997746,-6.89451142619221,6.39730734109002,34.277228161545,-14.0127722967033,17.2391935695223,26.3385993683604,-43.5882194547927
-1.24556250105389,37.1384975160714,27.9710920529229,-1.94393340162937,-5.63442885913011,-18.7907225431085,4.32643028324024,-6.38873331980278,-35.9301395951225,-8.69991189998532
0.214043265319277,-23.8045871875252,36.3189100820246,-9.26407948520205,-8.70123692329245,-56.3521452702823,31.103135076186,32.2033693670871,15.3247165592141,-40.6616312380933
-4.68181817949969,-19.6870576201459,60.2964732160634,-65.772166412706,61.2758388179174,-28.2229376627533,57.0914423168767,-17.130681952369,22.072179703826,-4.01638025191998
4.24190100049418,-2.62848640731541,6.66844243000846,-14.1642401832363,38.5749453858096,-3.91549169911656,10.3739108160991,65.0734676491612,49.7438711183799,-40.6059592867656
28.3414035621104,6.28083134560541,-10.2916187293325,-9.21718678036213,-16.6352418765939,-3.68294479169257,8.81663188158025,9.02306174851605,12.5555356644299,-31.3002527800478
-2.81467528457952,-48.2556693954992,6.4160326457316,-28.9883881238556,-59.5627012527686,-26.1761886216086,58.7776321894087,7.34605737416934,18.839913352022,-3.55057422811711
1.12225021304355,-10.8363813279521,0.648513263563362,44.4062879718904,-27.5212075144761,42.8562905560772,-0.048232884684306,65.5949663872461,4.94647004265291,-51.3866467491276
36.5884560092591,1.02799785639949,-14.7634413318938,-65.3041494969183,-31.1881781588655,37.0892425041897,-32.85979945548,-12.5742553946874,30.8148253850606,-9.98325970107739
-18.946412916404,-27.1324337187177,-15.1108706636226,0.492970537448232,-34.8022456996774,20.3928903504929,-29.8872584374862,-37.2855779903539,-34.6804305759961,-18.1541101589004
-8.8770040753406,-30.9364184270674,-24.1966196665283,-24.1352460440568,-33.4189226770401,4.59892328122623,-5.39833159179852,15.5934994470006,-49.5313392340239,48.2621114753387
-23.6538794396001,-16.4764195196261,-3.55947545239915,-44.7379162142678,-16.510753976178,-17.7405420836283,0.446405005322849,-0.182081608388632,-31.3966287665755,-27.2470400809196
-1.51405481273153,-0.0645438692488803,0.163897237429203,0.428714336275312,-3.96121091329748,0.470538809189262,0.244366245070463,2.15168274160769,-4.21156620965372,-27.766478083429
0.446646103169391,0.388040787348429,0.404603710811796,0.441398892658523,0.672973085505617,0.577139598708346,0.541079675627832,0.423315898818939,0.216876680660838,0.697429537911017
0.0407721975273275,0.402570482305732,-1.99364045736695,0.585543010108649,-11.4692109719129,-0.273166171970442,2.71313958747331,0.523635752320467,-4.42753688811146,-3.8868297969257
-3.92462436626598,-16.607174194168,13.602897665612,0.629451999875792,-39.95053493601,-21.0634578730816,17.3481637922057,-0.338956538772205,-23.0019703917908,-9.03494027642293
-20.5521704430265,-10.5955200881522,12.7720748846992,22.6557498339763,-69.6631300644437,36.2518429344988,5.50779118218866,-18.6031041560742,30.8235041143495,-35.2001689077649
14.0526733624221,-39.4983253350473,13.7405019645236,-9.75341592840512,-40.4962772244419,11.1892610923819,-38.3878118614662,-25.6560237093577,-32.8306677336397,-21.9308319599672
10.3183915741557,25.7288633581168,54.1331374728309,-17.534766492476,-7.62689202565105,-43.3001294205711,-14.6111616828035,-9.54778354318602,-8.10392709407193,-15.2462714862337
20.742605962146,-1.82558184154015,28.9668377879605,10.3369718758427,3.81027397285132,11.6290656622905,-1.82180101909449,28.9398544262858,89.3773897368955,16.4802784543468
26.328808500769,-3.09562096303443,-39.1167214763066,-32.6209813227518,-15.7875995648505,-1.38903606365032,-51.2312708917471,7.24952143405802,-9.32798596190569,4.27098878804327
16.3112627398422,-5.59782966713656,-7.04536430495681,14.4534845848326,-6.61912712361664,-42.1997315265759,-4.23947293664756,-18.1886421362752,16.0638664171952,11.8197638573693
-8.63354543922244,-22.3979939314359,61.4928461675449,-18.1236102854703,-31.0642991658685,6.70177856233086,-21.5167162469624,-27.1569147676949,-33.4002386450921,-22.3024368570018
9.40380348246375,-8.60143148633543,-42.6731537781874,-16.3489211823525,-28.4686981979825,41.8042748911801,-42.9231186489042,37.4358140464388,34.0677506500256,25.7975978898484
-10.5642684656205,1.94638445356516,-70.6012204545684,-0.172858960901623,-28.1047690176743,6.22328521509465,32.8402725349266,53.8830896480289,35.4570178095486,-51.3197764548795
-45.6882165291251,13.11023434841,33.2031729192416,-21.2300776220969,2.00025834633531,-11.2789178524707,-7.75607962247529,-28.7977026620106,2.70305408415807,-44.3581033631878
-28.9830981470421,33.5057459097573,-22.5437550938437,-4.39190064311481,-23.7440341395876,-33.289122481218,-16.9349963127402,-53.9901439777599,0.626760686493397,36.8083192456537
9.43705803070139,26.5119189628888,6.02690102435826,0.877274280123329,-20.0300489070108,2.87189843130484,-23.3131924550744,-45.3160637018242,-43.5534577879415,36.8127267271862
-27.2671510528475,16.9365505492906,-0.341830355408071,-15.9609799061144,2.28258096609437,-69.9026069881598,-4.73947421672674,-64.3195356310807,45.1073236142711,5.67371164696614
-80.4575404126539,-22.8187652329456,-5.69907199263875,-10.361132348634,35.2286006484176,-9.79116851697212,-8.32131743233184,-19.3693260044337,77.0065668162538,-1.37638337162435
-70.4489799918858,2.54884505010401,22.8950842327507,-33.462559896724,-13.5393389241055,0.35167201058049,-25.4427906508137,-6.77803996457071,-6.44759072842661,1.92004956156066
-39.9540848747201,24.5241586651856,-6.56107573572979,-36.6079603205724,36.7745551915898,-18.5730939976724,22.5716426901867,0.442365323267508,-32.9942351994234,-25.4933274640063
-16.7509142080465,11.9597796476539,46.7263719352979,24.370252055917,-5.57039068210354,48.902920803568,-2.76301011359386,-51.8623020480629,-28.4233838204188,-3.56995463532527
6.84690009301144,33.1831681039487,25.3163805573825,10.3971318773761,-2.00275754086225,16.7403200112677,9.34666694560647,46.6667957104703,-45.1500275493405,-24.5665959609221
-34.902275645817,6.03646094987584,-16.9869918856518,-16.544002357377,-40.9072879763511,11.989524864783,9.61607443577047,-31.4945494848686,-10.2249349878048,0.0192782412228599
6.6430773570849,-28.3069389041958,7.84166538885704,26.9629401491614,41.2915434800478,9.12687421765512,15.1715561551812,16.7627333638917,7.44780660739414,9.56610522129058
22.0807372544959,-8.63672386443148,-12.793044694598,-7.58188080638622,-1.47890240370427,-37.7058339365534,-24.960736131959,-28.816781436727,21.9450420682578,-5.01353772168909
-24.8137353072283,-11.5827399306533,1.37344955799332,50.8632458920578,-3.75663061217861,-14.3793315063108,-56.7451262817905,-40.6083470961107,17.0062648003249,-44.5095165369122
-16.5026810605551,-41.644622449152,-27.6148957492251,50.6510351601379,-73.9761253193649,5.72850021847446,-9.51304317888727,7.87556625014646,1.58344734964797,27.6570695249039
-20.9064740181789,-7.77845695541489,-5.63521146880794,-38.1806788586747,-35.5385399939077,-22.4288059316251,0.38983903597107,-36.4541346901242,-42.2726187889959,15.8570695070674
-4.00087310334634,-0.789519498966698,-0.851218848483899,0.00664001875126832,-5.62691915953114,0.426740977813164,0.47081411579299,11.6807204587868,-5.59892957216415,-17.5909121585679
0.571000827775678,0.572176972407099,0.429132689727863,0.502785422958603,0.648658937497516,0.625330747231883,0.337566176749981,0.335817523760833,0.393319400163324,0.654894649041133
-0.289035824392267,0.507808862367321,-3.35370909932401,0.558251149464376,-6.45554514563063,0.220284134253767,3.23130376638211,0.353850628289068,-2.05865875839525,-1.58793816851061
-10.9016753741205,-16.9828336572201,-26.938923199577,0.464722914757725,-43.5163194706052,-20.0586006355397,-5.43953173448334,0.568717908475376,-28.0638568843622,-6.31932059842607
-6.5966277916884,13.7233069606831,-3.81327985067742,-40.0858752746225,-80.4700483314205,-12.7920230583529,29.9666243694019,-16.0683966035811,11.4732150715939,-16.2016365235628
-26.1483429522222,-19.7687171497516,8.36500654197689,-38.1005513151795,-36.4718332381577,-15.3704163549387,-17.1855639445631,-29.0708946509847,21.1137939461373,-16.5516496426234
1.41638710327986,-30.1587090963568,24.6691242140939,-25.3357959514617,10.3422085584002,-16.41366287584,-39.1927452889029,25.2872959125617,28.2338283516407,-21.6266241238131
-36.2975787323445,-52.32101429428,-6.21559675478074,27.9733488242793,-49.9209125281142,-22.3022229436389,7.64924267760606,1.69054131362007,-0.152070118142603,8.6528622849341
7.05909843044616,1.97620453027785,-31.6344603042988,-4.94987641871471,-48.7980361350945,9.2933583180552,-23.6337399567298,-74.6806781536209,-16.6163626024909,114.917151502421
27.078753288685,10.2921237267119,21.7905926665127,-11.9593415281701,-53.2159109283034,-59.5563399625221,14.6648493744359,33.347474537077,11.3905120148247,-17.2069194434001
-9.05845160561443,-7.21195240451069,14.5095893422614,4.62265477829687,-37.3786247544022,6.40555419049912,-15.6816570392967,7.52130683615925,-19.2492515910418,21.1487699751065
6.03832633468056,15.2933367527483,-40.9230708721751,-2.81884652780467,-47.7325780364528,-4.18476504220716,1.99214308792087,-10.5467380693547,32.7445424837971,2.7552897749159
8.67667603555265,25.7085624601639,-59.1669639915733,57.7810118768859,-67.7011767437225,-21.2504355445815,-6.60498018380228,-16.0107647522051,-71.4795552363994,9.61771237670741
-35.6423632479477,33.3425985947721,-2.03883704354104,21.0323585162073,-3.26216337056823,34.8008970986865,-42.9520055201039,-27.6999672057207,43.4743077227188,16.7380798403214
-45.6442105789833,40.8656863078322,-41.8002692940657,27.1723449677556,-4.77224964662534,23.1827604541756,-9.40171131508622,7.45174515383783,55.3581590464119,14.8059899541718
-88.7320603822043,-13.0902872079937,-21.438509845839,-1.85814262911059,-43.7953014703578,-5.74044437145193,61.6500294797316,-2.82506068795821,9.52376991972745,-7.42158609241885
-97.3692035457534,30.6819789523615,35.5708711242365,4.94425506351111,-6.56080757568275,43.3061516177389,5.17577250376093,7.83862775063772,6.66129747299419,48.9513844138842
-90.7342157696246,34.1784921418748,17.5039141818282,11.7512601366063,-23.2441545499096,-1.77988021473546,-8.35253019854148,-11.7416887869852,-42.1508382178243,-57.0805791006218
-32.1477402746996,33.4685911154617,-44.153957780481,-88.8498407185113,17.359477759542,-45.4038478896686,11.6711715199215,-6.35602364077183,25.651166252635,21.4332734177111
-40.8244327472231,11.1785070849277,19.8108915731964,-24.4494616940742,10.2342687958996,-47.2642605030978,11.7422227869005,9.26089885378157,24.9386619742273,2.88204541559238
-36.0149010643483,1.22182762119262,-14.6448531943835,-38.8986479090942,10.1463064742793,58.8201000419021,15.3946823429406,-32.199222840684,-36.9780999140314,16.7616263854642
-17.9705541617284,-14.0000042102116,-8.145067255635,-7.74847943610937,9.64044682066547,-53.8394255660097,7.39728377679369,-13.141114821994,-23.0431527453758,-4.59005905960232
8.3880664327063,-27.5038213963495,-4.00196629151789,24.8505702725696,-3.97980241826737,-12.9000708153398,-18.0854710636965,28.8897800808168,8.8883142460744,4.40349305941051
27.2058310850435,17.3047356785795,-33.0174998197898,-33.5251398152414,-22.7811220030607,40.7697191046805,5.84244932636488,-0.469282388792774,15.1380518253704,-29.3318312047946
1.29513454444932,-1.17767248130279,-4.67251213245944,-9.80518453416135,-28.1093409444367,8.88290851719772,2.59388238636844,-24.8114236870973,-24.7065666226319,3.69429499365613
-5.97265992435296,-4.47990366639496,11.1841525852481,-9.17250681894597,21.2417584955593,28.1999668786252,-70.0050393051823,27.3729063452672,28.7366991765317,-47.5069162332722
-24.1982037778212,-35.3131340380155,-40.7475747623877,18.660257709989,-33.4669301875374,12.3349762487773,-6.9206697715276,35.7866996695201,-4.01269856986611,-10.8573230795182
-19.4739473751811,-8.55260848747734,-2.80002432776931,-28.5733722643204,-48.6075301008722,-15.4093675177604,-0.269874623874757,-26.9056947372263,-51.7483635256588,25.1559483857491
-4.41412193602375,0.114389198307901,-0.0488298987178866,-1.40284200343908,-10.9522467719496,0.518971432912031,0.396174030281923,15.2280443312644,-3.4010684609432,6.97084288454328
0.415731345137164,0.425789697320583,0.41268789708891,0.67694690478278,0.492652096828573,0.554612444315556,0.0872239512605324,0.135191727926739,0.545014408768922,0.418630047229469
-0.974471423624398,0.102300165388611,9.58505457001808,0.306718145705457,-16.4859177605094,0.628916246359973,-1.71492452792515,0.361388555678957,0.573978064793476,0.436932814818297
-7.80537911500596,-8.33606750330591,-45.129283753372,0.653793531882397,-26.7544470900417,-25.863255576886,-1.16951042626461,0.522364829069054,-12.8151703001429,-4.93889710723661
-1.33163368194523,32.1333487327963,10.4980465224624,-6.82336277018977,-54.118794384422,-11.5891383211565,-7.2767578260611,-8.11737307951355,-21.9742705923874,-14.0764465503511
9.6717901850197,2.36842598503078,-19.456024793636,41.5213697412977,26.0612970711167,-54.9870308455696,-19.9290380610154,-29.9866825781558,8.80037165683034,11.9481674482587
-6.13176593937349,18.7134791296528,19.1748226612819,-3.89043216248538,2.21783343293456,24.0865937296026,-39.2293872502338,12.0771827463977,-34.8174841908583,-31.5608280114142
-1.70315665087783,5.02985463495142,31.2455150595788,21.3896435562565,-20.8259911941089,-5.69059343227993,41.960213683125,-14.2413046210772,-17.163120890214,22.7721179935028
12.5728621063385,-10.8419444815103,-4.05587238347051,11.7489659877499,0.215848386532207,-18.2507357432739,-42.455559648568,-18.4520715612168,18.3654268200129,26.4807701402497
14.3246939039564,8.79755745453308,-15.5774667806123,-17.6623726480834,-39.5736368037098,11.9382428644189,-17.3788772390918,45.0840322382094,-28.6439481497689,14.2389499768204
3.22924624457024,-8.69094525114633,-15.9759911139296,0.749806962553662,22.705109886763,-32.3161770505129,-38.0443574920297,4.91601475701013,-16.2871722270212,32.212059125094
-37.6950736896078,24.4148206375327,3.88533037110403,19.7861369685071,42.3420515957092,23.978586170801,-12.0227964031955,19.1515799441205,-62.1334828876653,-13.9791457211447
-7.63681849265814,33.5097229027968,25.3458477183759,16.4218016500491,-24.2538572305528,-1.56943250507158,-16.174496127145,53.5146959862749,-55.6220947775362,-37.933008204411
-10.8223940982086,19.1675496851827,-12.8725275806071,-26.8013409659043,-2.43717592134623,-10.231218939708,-1.13038356284209,14.4992601843811,29.5717006211765,25.2137493807783
-80.3418249180433,12.8141844937427,-25.1194459734616,1.79696179836009,-24.614083536731,-52.127548362923,34.4329734332496,-74.1436307113779,20.2208617173933,21.3787049037362
-55.7901553166093,12.1986171656206,12.7017785842943,32.3916385499315,-32.4319496736782,-3.15606315710728,17.3236249977618,-13.5872655378808,-12.91808677638,-25.0087564990175
-43.4770376588846,29.2032930237388,-35.3333652078815,-15.2790652645337,88.8315108070495,-43.9872468623981,53.4770377355578,-33.2871902269905,14.0878454553158,0.0801134801117918
-23.2487500017142,-6.67766484587637,29.1525613237899,-24.7739814437404,16.1906548512922,37.7423161745441,-52.6848496679849,-6.04643633415786,13.1024810914395,4.86441082309275
-38.8828416183234,-40.5213542891261,17.5579110062385,26.2079816965038,0.466157004996824,-11.7548569369037,-9.01311438361517,36.0456402961893,-10.9621992023672,2.65364752539946
13.9430146580787,-36.3481370337128,41.097945298423,-11.727815848942,14.3699849177994,13.3916764108005,6.05286556028289,-20.0569881879249,-10.4624601500572,6.26170766364501
-19.9340141558049,37.393187884135,10.1181878882957,-3.79066351500341,23.2311587558002,-27.1161498837551,32.0001763988454,-32.648792825778,-22.866503257092,-48.8221011499414
-20.9510587363821,3.32065512919872,0.693816973116949,32.3606057349732,47.9843341368684,-19.4738104132883,25.794447630267,31.9209564450813,-24.5394778105903,-47.5825881822235
-0.654890721823069,13.4355963142912,-65.7567255871051,-49.0834498349699,-38.2409054685713,17.2481321465535,30.0120532522912,-43.1594207709196,30.4273649370621,38.5779342281842
4.39297818581743,-22.950720852887,-12.1073229413176,79.5028725864276,-36.9985554262463,-19.0051592019959,22.6712232415968,53.6873834517827,-41.763272365798,-34.5349934283802
-15.8625883222305,10.3060019857396,10.4664889981564,-30.5111423316011,43.9756163594057,40.9176373887304,-11.236405292387,-39.057533233977,50.7517319450785,-49.3733015693871
3.62431074475558,-18.0980049319765,-4.52827766756921,4.7249588813713,-41.5607023758695,-0.172183297965993,-42.0643425470313,-7.38319611519635,-20.6475584316123,50.6961477284867
-22.547385959884,-44.1765567242356,-30.0836023419253,-31.1941839510123,2.24264239708795,9.86086291107398,-1.26021222721414,3.99560414403638,-13.4457833102654,4.70590574749844
-8.07158736968534,-8.91088667686966,-11.5034360575735,-6.86585744914149,-31.0126953661134,14.8791812889693,-0.111605607401721,18.0217797848834,-40.2436141741249,-7.87196393222694
-0.110605491220298,0.535831162779718,0.337813981700227,-0.84102968551419,-0.107144974561028,0.346527742901243,0.434900137212456,-0.536013692620566,-1.78909854609053,-7.82660517911339
0.471082096303431,0.39691392950515,0.590611232850135,0.637644397897322,0.29856552633536,0.320670616119017,0.518530276976662,0.395069734262029,0.506311747506864,0.619683842038947
-0.42052989262635,0.0837703272614241,39.0767496590067,0.569879875396152,-28.7435650860847,0.494582506064514,-6.04701096594605,0.658511292839638,0.721034120405288,0.846301706811137
-17.1583995626398,-5.36088015799284,-50.4552800507979,-0.457527383516512,-20.605204053005,-18.2831798519458,-15.9219073586853,0.37950067673274,-10.7013397004358,-11.9828293150156
-22.876436730571,-5.96029816335908,-56.9821393748453,-8.16095379702388,-41.911017908881,13.2883166190343,-10.486488783507,-5.4185269922359,-46.7732004408956,-16.6271453743662
-28.6929360925319,-0.650003137527535,40.6480745818577,4.36813832544482,-26.0698057619452,-4.73527088427223,30.6318990598286,-42.0817417571474,-24.0040095789301,-6.73345819934071
5.42730675037,34.265327064928,-22.3108680942699,-2.48513259859713,-14.2403373406273,-7.29285589162377,-49.5629323431777,-56.8800059298816,46.5357693915591,-48.6212921789375
35.6204719320995,-30.3982300574754,8.39719443440539,-11.5207433268188,-11.8113334104445,12.7905502637611,-13.0313746991727,3.07730503189912,-2.33487290469381,10.3050163378127
3.35530120454134,-18.047205359449,-24.4139978062689,-19.6438692197742,-56.7776241678306,18.385205169084,-16.2173504656417,13.0655864469889,-6.66910507207803,79.2994040075759
3.32581237624288,2.43817655023197,0.918646103508416,44.0446550682514,-22.1773516679423,-4.52474550537306,-18.0841708494455,-2.91841755412212,-0.439501117173365,-14.4535732789486
3.12907378889944,-8.03819919752022,-41.8643197130043,8.77407199155277,-11.4509332088514,-62.0491203737033,-7.09548491747131,41.496643439278,-4.84397299321487,-33.7273808076369
-9.98017317000106,20.490919047786,-38.6768444286067,24.4481946668612,-26.5469398355496,-85.4195607744238,-32.2124097348694,8.63027079291322,68.0166328353569,8.81472876848158
-7.0927285001427,11.5846348365268,-33.8442855573899,7.99169828692994,32.7182500886825,-2.77566942648775,-48.8325333821314,16.7349228854606,-11.2224831945552,0.87917670879872
-21.6391308368114,-1.81558402422331,-28.1988661877792,-8.41041493785716,54.7206583536448,6.53850715156197,5.11964261528714,1.94093337611027,-21.1494254739863,-31.2060568972069
-20.1365275750773,35.599698251523,-52.4777609895263,38.9817042872424,11.8103205317631,-58.6438603254323,-39.4464028066284,14.7873401690448,3.11734158664829,-12.488114850543
-38.4889155373207,-22.9518483947881,17.1969810712995,-14.1577473377153,30.1215813021216,28.3577052350284,-58.9380363985666,8.76902292622107,34.9372091900818,24.382183912247
-15.2428085591275,25.7245598171628,-55.396766693016,-3.26081592654212,-21.1311871641984,-27.7008949983872,2.83957615498986,-36.8049179929885,20.5101533289287,58.4702710237595
0.971824646823202,10.4839885394911,15.0822521346025,13.3928843901071,4.07846147853151,-84.8118159152055,28.2568992428501,-21.0587334071679,13.7877192561029,6.87926264895292
-16.9028380943862,-11.894797988891,4.92638626805502,15.387829556783,74.2926185163416,3.98637150328387,-25.7389661506864,11.3575271064338,-7.47082151865486,-41.3660447943489
-34.7326749052283,-22.2961905308365,30.3010521866002,8.37011383484631,-29.7790682397431,-4.02179218116696,14.5566672513791,-8.59142273679725,24.2617296473334,42.2860326812103
-10.7415689492487,-18.9004661492884,-5.67470674590465,11.7036822610291,5.45422114188874,-49.8175476208648,-16.3154129488684,-12.9062561567967,20.7678811272775,8.13135617726814
-34.5164020580479,15.5213405582925,-0.268914794453211,2.71875434105997,-32.574129858147,7.29146752422472,9.88768952780665,-20.4712883718831,-40.6789177520884,-21.2450680266305
-16.9921221853471,31.6527754498584,-15.7175570189792,12.3921652733168,-4.12171023822951,27.2995421106686,30.1759962950969,-40.2596462193527,-8.3824599624949,-40.3885167490731
-27.7414673208523,-32.9139164310142,20.5627607237775,-11.5613200443763,7.29986890308389,-20.3034632655415,3.34990417463297,13.4488204185117,-18.379729903543,9.38715673231397
-10.3689897988028,30.4687020220494,-45.7887891558827,0.19595080663901,5.64118443550059,-12.9036050038896,-28.0504016590455,33.5267585324016,-27.4050511091716,-17.5928674504767
-41.1038496458927,-44.8609827090183,-26.5625620997119,-3.52730212047364,-25.7510386574907,-10.9017117079757,-34.0229952623226,-39.4680943312815,93.2554888879344,-5.52808968570424
-22.9386054045375,-44.9318206977472,-31.4223257557969,-28.5635552042387,-33.5363138308794,4.34013728497894,-1.90727231618709,-19.735742080003,-24.1998497940471,-35.5797300575571
-4.46860837895641,-5.56242640379238,-21.3817457787019,-19.5418849192524,-35.2473021233038,-1.76790526264579,0.422058373528514,-14.9591103928818,-18.6783225667935,36.4695554351306
-0.518372553818282,0.455411169619685,0.478493182430532,0.36306129248904,-1.02146536950394,0.0660064470991826,0.427543303005213,3.54812466399665,-2.01436609058395,-2.56416509818371
0.632601067415611,0.273487225664293,0.626569592252425,0.588050719129656,0.632203230719917,0.501807469598783,0.48558870694406,0.525983052083407,0.402667533759267,0.392499122466674
0.655867400320781,0.1984905643433,-2.68685331838503,0.30945642880045,-6.24252085054195,0.521124392180618,6.3187583182934,0.431619456692771,0.471887350911832,0.371802825216433
-21.5469387563773,-7.65266308820716,-20.465308558275,-1.51064021409986,-51.5890719069925,-6.8751574060549,2.91446659617925,-3.51240982671354,-10.7308314018219,-10.1094950283236
-13.306357328232,-36.2992711065113,-24.3163102350663,14.4535341703231,-54.8441024471649,-51.6852370801355,17.9236230536328,-8.37262845288694,-39.8894288332935,-17.9088360626478
19.8973082911806,-46.7158578379605,-36.6127660087672,-5.08783838627839,-17.1410140519883,27.6473953173991,-10.3231212139405,-21.9579963864476,30.2395545312622,-89.4712782753246
-0.650755522943648,-22.412072816757,52.0822768857056,-3.97061398499748,65.473746754432,-30.1128166461658,-31.3070004249665,-94.3326759788059,-20.0288441562972,12.9624062545903
12.2616852463887,-36.7103658637438,12.0818994215572,-5.55504633471872,-30.0157067501913,-19.0744546239497,-4.73602040078726,38.0228234835618,34.6938388389769,29.9587857948099
31.3957582837866,-23.496442207456,-60.9331996696764,26.8563714836454,-2.23010602142377,-12.758691253986,6.66863155454889,18.9423540871597,-17.9155944634565,10.4638759036268
15.6346092830755,-14.4887030401844,68.385110438553,-7.77076319265758,1.87070256900674,26.6158231996817,-18.7639515920327,-3.66821637852996,6.50576038321192,64.2247735417029
12.6976619757298,-32.0671344547028,-6.03962145798003,17.6099529529776,-19.3102429675755,-30.0225731764081,-68.5024645852427,-2.60045877901646,9.97752665229094,-16.5111670078953
24.4437238076379,28.0358543706898,21.5152282707943,-26.2640621717085,18.409699963856,-29.7223104588979,-63.5388688307956,44.2119192751844,-26.5387702896235,-34.6414940892454
15.7045644687638,-9.42989096570853,68.8186436579535,12.4506436731092,-14.6022807964428,-7.98653332030445,62.0423148878455,1.17720813374661,-6.26588372009505,53.1805439932943
-17.337575805743,2.01625813170549,2.68722398534351,27.242132910678,-0.322385602450686,-30.9975693503803,-0.938006636140258,27.6827596461869,4.50707070675351,36.9552872466084
-0.948138345717835,18.9279297689144,3.74987173407269,1.92331591137028,28.0414430821413,-44.9515709979419,15.6189009150414,0.798019536465389,-31.8982883172249,-27.4967624014054
27.8962859306063,11.4378835240429,27.9011870634295,-10.9600496923842,50.0144103389576,-5.48423787575436,-1.38375145762074,-41.508600620597,5.47576354220188,3.72932233094482
-23.9279796596443,-0.584772610227517,21.2957185955255,-59.2885338118844,1.51559678405484,-6.30697975295804,31.4978739823084,86.9893332277144,-26.9878279526195,-2.37531208888813
12.7532012355571,-1.47810992593552,-11.2999845611135,25.8038908207008,-1.43738259829586,12.0080862271092,-26.1373938157134,9.56491510811202,-31.0550594249393,25.031501988258
-13.0344443803147,-41.9155634703186,16.0991377819388,-19.4997980965769,20.5612922709745,-5.59581947156397,-0.589395556173622,-6.47238543443313,5.96029024429118,25.0054386934524
-8.93743960550855,17.7113233003222,-8.20656193457449,18.499245135926,-16.3190366901627,37.6424015789938,0.482171120706389,-20.8653283950568,-12.8818258019521,-26.1890534329357
-6.10854492650842,-23.7227292564304,-8.36819665580014,-57.3289601544001,-2.42101670188739,-38.4911958299179,36.9541243504171,-0.267749730897695,-1.9061021484913,10.9264448589525
-25.1164815869023,-42.1741885248312,25.6358836130834,-24.4968769040669,-9.70050082639617,47.0384069487153,6.83389961789238,-7.44253934038718,0.547093854799983,19.8855805028363
-44.8481985084685,6.73530242937176,21.9339987132617,55.4841310096074,28.1350204961998,-68.6447469433024,20.794332576302,-20.4782199146184,59.1422491186328,-38.814076644453
-13.6285272924501,-11.7487967073839,3.09325012254988,42.4167626191709,5.29819108226033,12.0147557409246,-7.37718219148091,-21.294011080249,-42.5832050179768,-21.0254391603642
-6.77989326948055,32.7861570080148,5.3252851600646,4.88574404273091,51.5124884970151,-3.8847136537241,-42.3847647962715,-28.8774427980562,6.21790988753103,-13.1087113606401
-34.8631060640877,-1.12033022165104,-17.5894586963387,-54.8387008535167,1.50127446061175,5.19670483462981,-20.1863886923606,25.1436234692468,0.915493371530707,-38.8744554876959
-8.44750341721988,-19.9850636248242,4.98951147801923,-53.1585433038911,-50.0925446000545,1.98053142557325,-2.3553497845804,17.4776962621301,-30.0319026993364,45.0972110412045
-5.24162646108947,-3.42134550720251,-0.61391862733385,-1.85569436944353,-44.698603719701,-16.2601742872845,0.198316062893156,7.72695045459946,-11.0368628679754,7.82268362204815
-1.14120934694148,-0.701484982399284,0.421455750652362,0.355128335481764,-0.717195623448633,-0.474589008034789,0.247183706857229,5.69890864368429,-1.07992734414131,-24.6163472398051
0.639678031310517,0.319732350861087,0.571501403610397,0.593880034740594,0.629830955279777,0.455353293829734,0.342657422381124,0.404381714875309,0.662261881568298,0.425439969439315
0.536948086833936,0.271315427468686,-4.10030882601549,0.588954592932473,-2.09852200026271,0.496688367971197,3.32992958079339,0.48587370408868,0.547306942102705,0.21725480048745
-18.4283419785112,-4.83990242965628,-43.6588450342323,-4.69830332701032,-24.7486203565954,-9.67223382582437,27.1130877712341,-7.01369858583393,-8.82160902836693,-4.45773396031214
-26.8027032491093,-38.29381409127,-30.4019425080002,10.9634177876213,-33.47138458353,-55.6937305079052,19.8748679932475,-8.01943585247119,-33.4746380393931,-14.8032841794204
7.97156611389561,18.8924980921961,-37.9620807799487,-49.6586191662058,-65.0746577794661,0.687939099706559,-28.0110492412316,-7.02464612927944,-23.7032153883044,-76.0075683863326
-8.2604421750807,1.74992118724836,30.5176106881956,12.1653424895527,-9.02275480039256,44.9982777813026,-8.9219613964189,-96.9104193738294,-6.28607573206133,-73.520027449161
-25.5225758135927,19.6052616647354,-11.8115302647327,-16.5379059303436,-15.6077279052244,9.76031489782617,10.8841057290537,-2.37506610967092,-0.800130328969198,-12.9265128805587
-3.39772076805315,17.7459284895386,-22.4963657437828,24.7049702523458,20.1754029027459,-70.7406904055439,-37.804530189538,-6.91434148593651,-17.4176815412214,-15.2984211687071
22.1863647209697,27.5644098501654,-8.26974791423188,1.02341375971726,-19.5708874170726,84.927987852141,-50.1629361423389,-1.85647332425007,-32.62134023925,-24.1031382778073
19.8706951521852,-1.71672347668453,-9.51837135116531,21.808909745076,-29.3732848543299,-33.6596930618222,-74.9896403019282,20.0054238931844,5.89627040496696,-33.2807651859629
27.8239265325158,-16.2886475170841,-12.1077651780403,13.4711895399729,-27.3213686193707,-22.8989206847633,-43.1925505059174,-18.9309438639022,-69.0349835010039,-13.5514857140171
8.62692007967124,-7.66680779162349,-125.289248202895,-14.666365447701,17.9856915936797,-57.048062419437,20.6811361917364,56.6628402258762,38.6637809908353,16.4759014613135
0.668799448545977,43.8716680058087,50.8286904651766,42.8173588494354,-34.5242249788268,17.5389434864863,-32.9582738383689,19.69818385043,-63.7802775516354,-9.61096270966629
-14.8193393826661,-15.6398932037885,-50.6093495907415,-24.3828944762472,41.236417728313,-30.4543167425085,30.1400423280477,-21.9425836365891,-20.8675404209561,20.1626852690299
-1.47433235989048,-10.7341912328218,15.9211918446904,19.593110603505,-0.367732086675517,29.9746790698548,-16.7280629302509,-27.3419451633386,18.2383318628056,6.60126624221286
-7.18124738502586,-0.939528798212315,-15.0348431846692,-17.9469352392981,-2.11495335750032,-36.7273684634075,-9.26047699017369,-13.6660580256805,-3.27259043622161,-29.2648837998367
-13.4502829733175,-3.31065903167156,-38.0425778277984,-14.4704198104842,38.7071228689829,-13.4372189620782,6.02010660653629,23.7622051347385,-30.8453206046969,13.8666783627079
3.8522495153945,-20.3904725876638,-3.20023212548427,27.0053650286547,-25.7407584073568,-26.2803362200048,3.69668288873217,9.63363422579522,15.8068665203246,-14.177569973483
19.2529411223844,-12.0390974437573,60.2567073737545,18.2061698013051,-32.6831605819546,50.4405923253137,13.1593947830474,3.66565657355415,-7.43082319673957,-10.6766725614441
-2.04929360339546,39.880577021221,-19.4185305428202,8.21926139016971,-22.0909179603464,-24.6686970725837,5.66445711174923,7.65575770583263,-60.4136932506677,-44.6198253456134
-7.65264007527046,24.0381806112803,-85.0582654955482,29.4077379768559,-40.7040458180767,-6.62725253554155,-20.2041783595808,-15.1829961286047,-9.45365715158275,-36.7230158248505
-20.9981257846,-35.3554267575061,3.63799428217761,-27.6554527117957,5.90293294978939,-8.84539214463927,56.1692220521659,3.69572574203678,-4.29664708896658,18.5184352399363
-15.394008027586,3.23335948225364,-4.31588133364235,-48.1363685375363,17.1264161827821,68.4477817029502,-4.96354137939172,-46.2508769834898,103.880989411157,21.168764693981
-15.744438977857,30.0705910786071,51.9154521240236,-20.8872866187524,2.22903436219686,-20.1320682457432,-21.2800687968743,-38.4452909895311,-52.4626817178296,-19.0790336051941
-14.6168592618725,10.8893148795747,17.2352511221846,37.8803564732591,-38.5887875923024,26.0535843181611,-28.1204431610097,-23.8598771220481,26.7095379524972,-35.6649297539919
-10.0697627733108,-11.3360546243701,25.7910141460436,33.7385296878752,-23.9366009179098,-39.4635154180242,-0.952698953753779,8.24823874153991,3.46220748404867,82.351562093894
-1.98760755970708,-3.37438856479688,-1.91323640381612,19.2904242092977,-30.3355811320931,-15.2987778526652,0.310304195367022,45.2893675388529,-4.62212909708254,-21.7440927414104
-0.876654146462707,-3.11416209262178,0.599794159937973,-0.814558632463766,0.509215118578589,-4.31436536356766,0.619071979928626,0.403946821650243,-0.601514293811249,20.9699771736387
0.482863789271147,0.411799369730606,0.651418313875484,0.40401250135135,0.536830850653721,0.701252138284218,0.55559707318955,0.403797690673751,0.573881239336755,0.711826670669246
0.088507789281844,0.628912002664778,0.373873531298282,-2.86224820319349,0.365020681940763,-4.3258798572653,2.81926945832723,0.424269347823721,0.554258618385484,0.28629573626833
-8.88030993536157,0.498981907556758,-34.5112854606973,-5.95334482603177,-4.50380777021742,-13.1541877787617,22.5321774724548,-3.60654924890608,-6.26221487226635,-2.58752975573494
-42.9061437081703,-16.5532164284441,27.1409121444168,8.95041779013854,-25.6273611008612,-21.4714785724606,32.6117380573176,-3.80714937367779,-4.2540613294395,-24.3710022979552
-14.2105675250544,-0.774081573479163,-2.53855750198131,22.5746347591783,-13.9953270923612,-23.9032424920578,2.13043145353742,-9.52267122427265,-24.9657180598236,-77.0890469936348
11.5154758237401,19.1801893571529,2.60327320164115,-46.7172835288858,-19.1169506634492,-15.7389888139605,23.2229684467433,-63.2303740042366,41.2234785727131,26.6032383930349
26.5586569070971,30.121561279341,-3.41367108503006,-15.7746400409465,0.122781436509289,23.5846532329901,-4.5736557191171,-26.7721882354897,-34.0924537358239,43.2480104254078
20.9655233185683,-7.81302993446215,-31.8944837901896,6.14688135172895,6.35610797134801,29.5246419132851,-42.6034665188757,-13.846486269838,22.1245787948609,-14.2811497705288
18.149102462481,-30.0477440028062,26.1868483685769,13.0741198188111,-13.3897634377734,-41.9586936123942,-0.541475334485787,6.55169056960772,33.7835512303277,10.7010996041708
-2.39893336512253,-28.7399955057951,46.0624402265858,-31.08925113011,35.5038093919982,19.2820902084456,-4.16270334901589,17.8149568079724,34.6902519290754,-17.7188566014967
0.229227492371784,-15.4693082320888,2.60471385204614,65.7616389811014,-46.942020511698,-65.4649007242514,-6.51748538168141,-11.4330361324983,17.9770349881166,37.8515849368975
21.5016051609722,-9.26234205026582,-41.3759499619772,20.8318363124459,21.3602494905753,-55.2998309590301,-34.7161318255435,6.3853227449339,39.595425742304,-4.56483627021267
-13.3691661777881,-22.9793218705851,-8.89098341752468,-35.4613049789755,-0.977192357926776,19.5469270254884,-65.1173019866174,-9.20566277599459,15.1702723262161,15.2767394527388
-11.2361077364128,-31.9999834390952,4.89687227245219,-31.1119287994433,15.0519574447022,-20.9209969960513,-4.98907626480932,-12.9854058175906,1.16439678224212,52.1211238209947
-23.6615474350929,-9.73757731150391,24.5141590865832,-52.0548224177703,61.3661279525638,14.2908931755259,-14.6809071868691,-12.3083798458972,-19.3212954906275,-28.5402806867432
-23.0417876950812,-32.9877264099037,-11.7078668787252,8.20165272370743,-0.179196481144435,27.18382613944,-17.372713872084,17.6400133548329,7.9291510714037,-7.77468046211445
3.56455451121681,-11.875193832417,31.6395925695755,41.8269705483823,17.3532273680014,-35.1680044889334,26.6576584865106,34.83645242046,-15.0300851686644,10.501178972226
-6.1968661705054,0.225671638434883,-21.3015048461058,44.9591879119123,-24.9461924468511,-13.9065385939832,13.9082362653767,-9.66639559331592,-52.7718262196538,-56.0906894348002
7.99692801705695,-2.11555836991081,-27.4916969733414,17.1678889398631,21.5163053785892,5.69087172766292,2.1544254972505,0.207693390925916,-29.2200685947363,37.7357257322494
5.89523767306129,22.612935393278,-47.2157022657991,0.00318768061388219,19.3644503813071,-5.38467569621191,-21.045689240516,-73.242709845587,12.5983744544003,16.8805070658474
-32.7820313221388,-2.13974208921518,55.3601143461811,-14.5537816312499,-32.4271678300929,-7.78704792628032,18.152589572751,-45.6844833883837,-1.8051734144228,28.2193546168243
-15.0815083424131,-32.0277427045521,66.1496997504112,36.3874986453623,-17.0044151035507,3.86031846779744,33.7926194118372,-27.4304867868625,-32.1469599533525,-33.7052549983912
-9.3205656326013,4.13995213705786,-56.4057304706052,0.732989302037804,20.8561601856483,35.5701932524916,13.6408074292422,-20.1929792337162,40.1926295213481,5.24472253558915
-4.28409646823706,14.4303036989574,-13.1988592369814,47.5622791573336,6.70437662377294,-57.3457020338615,0.127469473588364,-44.2223773959952,9.36853267787016,-18.910215607805
-19.4025080101114,-18.318124833096,45.5731774123806,-6.60490185809549,-24.9482062910566,-8.14630672529161,-31.9835473231372,-46.0740308826254,39.5604849876045,-11.1001354915692
-11.4019680535958,-13.4223480181639,-18.4600486034914,-0.959958677465673,-9.10153064211459,-23.0440355676417,-8.12010110553509,1.77674020310765,26.8691227426916,-21.4624940409954
-1.81426334056681,-5.67749131763904,-1.87951906879922,26.2212924102947,-7.45416513136543,-8.15051727556752,0.740366501748613,70.3245729163224,-2.03281767891341,-44.7201714986422
-0.224136951799112,-1.31643678164756,0.818826877023828,-0.207858909974786,-0.640038066398734,-1.74001343424454,0.486562094416381,0.373518594346114,-0.255490002784069,10.8822464027157
0.309056359055543,0.454933485412078,0.758887804490041,0.516757614846494,0.395784295542847,0.398583208694728,0.46223476997558,0.585414384604598,0.173428422656868,0.606088203834276
0.232378009968811,0.335749489281201,-1.20192096518604,-5.87912576466592,0.413755962412366,-9.10840167815425,5.29855452752654,0.532853886762686,0.672355407867484,-0.191154284192754
-20.5968302323828,0.644685343903771,-7.35188582301985,-6.01031684088918,-7.20324323728534,-32.5761770246291,15.0619783890174,0.236434390018962,-1.4429393070274,-0.338601761971744
-32.0321006134745,1.88757173931223,0.299266295170661,26.9307437827779,-14.3712274224546,-7.96283615806633,-1.52225681896935,-0.0767612862984491,-19.3572842860307,-34.2435920211989
-1.86334506422431,-10.2070928135894,-43.2582854897771,-44.2857959426704,35.5238039018606,31.7216722843349,27.3841410113199,-4.86285557094073,-21.7099004725977,-52.1224463297498
