1.3748233068597
0.489532913857679
0.579909009029522
0.593645475274781
0.346470785803415
0.339989228488584
0.525216530466548
0.663469904427045
0.630665387335723
0.352915917756919
0.281975062960062
0.782264604746229
0.47337457633203
0.684989826137784
0.474952866107029
0.742859892579227
0.399202154657037
0.426211008702334
0.583918105462788
0.541597289470641
0.569541435397788
0.536169094729166
0.339494554353412
0.300048030756282
0.524944544712758
0.638807328968814
0.523271146210498
0.441828505285461
0.54773228460411
0.655835184201717
0.231120262191331
0.474985127937104
0.447151296976681
0.593833855532643
0.345644331899834
0.518354877198432
0.698652665773145
0.429337751698066
0.538908160885048
0.469295587145328
0.375567216143158
0.293248459251791
0.601689048499445
0.617345799723879
0.485652806370466
0.320110963448275
0.571373246649024
0.392271443947709
0.613876374593257
0.505018438791877
0.363297696503139
0.205051364639477
0.360067554483322
0.462497837695392
0.465561487251187
0.68992919603488
0.375115661665125
0.583684273051869
0.559361347401416
0.705803134987772
0.476520439357378
0.497406304072816
0.572589072296323
0.544248746016316
0.280804598883219
0.428469479785906
0.59460803450667
0.656946852167736
0.868902249618457
0.37555590749584
0.712303247303431
0.514475122114036
3.40872512435087
-4.44074780673876
-7.41559951968952
-6.40181404617571
-6.94337714695453
-9.26283511771588
-3.34088528074784
-5.90325909473633
-8.87767757007084
-5.0341953704038
0.937940450227392
-11.480266957542
-7.42550927435429
-13.7554553809479
-5.84135532330574
-10.5699492697552
-10.3603844069472
-13.9608429607034
-14.1798089079348
-4.54831755178088
1.53026301959962
-0.763845232820754
4.07446537701137
0.848407632710372
1.47039966243191
-1.58642055099492
-11.3171219807594
4.45038243948369
-1.35976220961298
-7.45437152773483
2.77832095905773
3.13841172190098
-3.42130635023679
-6.06507845402109
0.978366809417525
-1.52763370334598
1.74956889182085
-3.58004271253612
-7.67129153220589
4.13728909521983
-6.84728863790971
-4.33663998199948
-9.86595708320619
-8.92714268144971
-1.11992128295886
-12.6840217747112
-8.28557326064441
-9.91805007576214
6.69664923224366
-7.20655173764646
-0.614511443657144
-3.34728136840585
-0.160480784989725
1.53511313847835
3.24233147798398
-8.08128363343744
-4.35573495222055
8.70369601550335
2.12190260618343
5.5839384451595
-2.56452448744486
6.36593471242675
3.05758609625024
7.98689281488246
10.0428219533367
4.18999599353291
-5.43291723765434
-13.7195249573424
0.565674774206801
0.670110726326829
-6.09505147944868
8.95875169633397
2.39991342968987
0.453876924210871
3.83474323385719
-1.49620650911876
-0.79822634013266
2.15442983750504
-4.17843780157939
-3.28238375774336
0.44884115114967
-0.209142030449665
9.31483754143003
-1.56238892610975
2.18274045285898
-0.833009757096697
4.32658646623384
-2.18990448910455
-2.51764399404067
-12.0979587496081
-3.76591212125287
-1.94201658089475
-4.13085929588245
3.04284973004308
-8.06939278987086
-3.52908927661259
8.81768304563704
-1.87118009200482
0.665960881734753
2.97034077034228
8.64287288385088
-4.04200465049392
1.16082767226343
-2.30827262033044
-2.22028392794677
-6.19555938325941
-4.37208121382414
-15.0714148460097
-6.16409762038175
-9.52859564814115
-0.809013714066516
-2.55157123306679
-4.22439190340476
-2.12213027835206
-4.39612550178793
-5.16770426445404
-4.4143381183185
4.47307955812671
-1.47048070894631
-10.0746484622832
-0.553706718195802
0.642047347840759
-6.42934157848281
-0.208859430995912
2.8299594243109
-7.98032005230047
-5.12005308336804
8.15848642083525
-5.97693574194959
1.59256111571112
-1.20242869171505
17.3351074289326
-0.345349571332656
3.33191792737381
3.60819869350733
-0.403685688867045
-2.38219908463768
-12.0709731913265
0.22844238276494
0.361814029251651
2.9847586005278
9.30294091397441
-3.12076037010085
-8.56129014394952
2.60761036608211
-13.9464654355805
2.28554963925252
-5.01630440391322
-11.496621369484
5.04834922852788
2.97834269795305
-9.17705483544682
2.99446612815748
-19.891904119895
3.27943767134447
-5.25510988322006
-2.37195044519399
6.18093272469844
-5.64828975725406
1.76759142189059
-6.53092779315137
0.316950549943404
0.481886126604199
4.80825892355392
5.50509242936919
0.54467388393794
4.60258132281538
8.49775136309777
9.9506735228269
-1.43942142128923
4.32520541514247
0.955978047885614
3.34786808765738
1.23415710974331
2.06214853052157
7.68442898881047
-0.420031614852791
6.18408968967663
3.59419855503486
-5.21195985268199
3.29708961975843
6.47061180591154
4.87036608980092
-4.39975611873531
6.20135443185823
-2.96308757657446
4.50342277581859
6.84790183346551
3.33116850803059
-7.84414424193884
-5.41575163369303
-10.4330305664734
0.14563702031017
-2.35433401096682
-2.75075633857594
-9.12278843597683
5.57120239993115
2.65377738218888
1.43934328977049
-1.07268086318289
-1.63427638838236
7.69973520647871
-0.479623701853205
17.5472274049099
5.43587982075388
-3.5569972727457
0.764024435848115
-13.4202641494199
0.478307690792479
0.430181908202157
7.35882524231304
14.9190031289503
-0.172110495654678
-1.55750939160002
6.61465066402937
1.35506078096983
0.765573935016247
-2.04061616778917
1.31493119540912
0.840400800949528
-7.49238691582678
0.427020549160636
6.76419690449067
-13.9956295306723
-2.24663788342945
-5.97831963255169
-7.48548080614075
-4.06223661491789
-6.29139969505739
2.58597995728392
-7.86168630494241
-9.34227399830059
7.15106267516929
-0.709481602663147
6.43125654378213
-4.72314137136336
-2.62384664075863
-5.38208037533637
-5.31683934757591
-3.48919582467025
3.38958172057356
-13.882414663864
-0.147524649990545
-3.01251749189685
5.77367819487957
0.569209240937236
-15.0958170513713
0.591120615635193
-3.41210418328344
-9.7366452330646
-5.04980087977439
-8.78956512657808
-2.16337820271963
-12.6704722611126
-1.57466823999075
1.79812651615131
-10.8802844790619
-2.86186039074579
4.86166912250316
0.0241818642277339
-2.47799353010384
-6.87403033709265
-6.41223065855215
-3.60247284871508
-1.288751179804
-0.626612794725675
5.63223811786313
5.64161482784914
-3.9567262815146
1.71863198069577
9.09410135343892
5.77750359568576
-0.537090871586062
13.5779848928548
5.6171346272425
-4.2007252624029
-2.12869202982625
-3.40077772987337
0.563868485381074
0.687079440531426
-5.4053702527933
-0.751270972580643
0.367026103882664
1.58574920550624
0.614419128603189
3.25828998632503
10.6285560953747
4.17987388530302
8.69840507251164
13.4711951873585
-7.15877659378549
6.5656120705897
5.56741184659481
-5.15761332610951
0.00869694517299262
-3.54366712330411
1.36163397182174
-0.81834787712188
-1.3775094426415
-1.57296179631467
9.40060297454255
11.42089445867
15.0773740538698
0.2637743188425
13.7708420770512
7.15370164665824
-6.52286755223291
7.08504768170146
-7.10190600882158
-12.014085745319
0.878544779453545
4.30821746341959
0.5721273272895
5.03935997662591
-3.94658701898214
-7.57118852439335
-0.959864884910746
-3.58849165297289
0.822928408881194
10.2317251658362
0.496318182794199
-8.19898580262341
-5.67784831309483
-9.45464136962814
-4.29033878914419
-4.33887890064905
-1.83302292541573
8.16749681991608
3.28259404657805
-11.7353070587169
-9.57660916405066
-6.24022271028363
-6.91992086489807
-14.0603821187801
-5.63784457377059
3.3623938111173
3.52358221402941
15.1730071914979
-6.02100598641007
-7.55304020582071
2.73906626094397
-3.11034255218051
9.33219978187799
0.655979983236644
1.58134188789153
-9.86901750310927
-4.47969362825702
-1.47872855318568
0.678387867183744
0.484187362323634
1.85477800633623
-0.662119314593175
-5.96157169430399
2.41695541846153
-2.97368216915849
-7.51651136890471
6.5670676190891
3.35452758020635
-10.4758177662018
-7.29131922682461
-10.645479967666
0.433609246323932
-1.29925974601699
-0.838355730236195
-2.75583617151868
-5.90209987750563
-7.57284045268454
2.88011162345485
5.0775393441602
-3.11087117642177
1.08235881680858
-0.298386140386766
11.6094238762403
-1.46272958525004
11.9576587385519
3.06660223566983
-10.2020262506074
1.66494980482176
-1.80924694799213
-12.2072135985878
-7.18810808176221
-9.57028467085868
-11.0120024555365
-1.90030213160562
-8.03477293785215
1.29971494029862
-1.51714322764784
6.87550590290462
-7.41100775217441
-0.276767619203984
-1.49685914284961
-7.16787292913838
-9.60247797363919
-5.91151199694997
-5.23263250179339
-4.12721784159377
-2.79602095598752
-9.1282511944963
2.18899084531167
0.961978934393217
11.6136863906162
-3.44106508282546
6.48233009564697
1.25708620722074
-8.59028461085517
-6.3379929940343
-1.46643876085729
3.90904066019778
-5.40421739342913
-3.3222994810604
-2.18900414155499
6.87515097637119
11.3091662142831
2.64974105984024
3.73271970372951
-10.1314413923804
4.93797065375836
-3.45304246021658
0.590459519726327
0.362674513629196
-7.31831655881404
2.47038178394521
-3.14806613393423
-5.36845243191043
-1.56094812052506
-4.26372722918469
-2.62095567824588
-2.86264160771559
-5.08416513379384
-0.447362408231928
-13.0157076300751
4.40298455805635
5.24229095165837
1.1345491841953
-4.50210642487445
-2.14236639870921
-3.26120455750058
3.22482043372701
-8.126406807776
-6.06261718319568
0.677540811178099
5.3139281635957
4.00682323002024
-8.88715918344825
-6.71172641119771
-4.47380052915463
-7.85288263934791
6.42605677081801
-7.94703003555987
-3.17028479332078
0.344964100472454
3.46641354951064
-3.29173655586419
-5.46457945176215
-0.22404238302367
-1.56676378720239
-7.16776885557524
-2.82058675722815
0.844539662962519
2.18574641826368
-5.12118096846859
-2.81292011046593
-6.40719333370167
1.27150702454996
-4.19213970569049
-0.623129473771875
1.97624911321119
-4.10848621401096
2.74195409254132
-7.74541467432321
2.22428167453091
-6.63610463181206
-2.21842351260835
-3.13327079696355
2.87643663045117
-0.472861099608703
-2.96733978794456
3.37746604130684
-4.87119253257683
-1.85506548523305
9.50706936419699
4.68620807992742
-8.84279439732535
7.07904363656335
7.5088743251413
-6.85880174595956
-6.91458005559331
-6.87036947427519
0.394920104625208
0.674540500202454
-0.72604060956825
3.61898775530423
-3.82067064764772
-5.45627452086014
-0.65404312251545
-0.230875195153763
4.91679038669916
0.92260438834056
-2.99335909135242
-13.6835951076553
2.94815889210771
6.78605606207256
2.07659193249456
7.79993117230671
-8.2188108690803
0.661953771214409
0.880867355396151
6.86906219945766
-2.53018837191462
2.35434092509175
-8.56101721923697
-7.77143879216186
3.98205603155576
-10.7766443141344
0.139533758990509
2.42495128004426
-7.25803365638805
5.73565536725701
-17.148281530438
-11.5849485206877
-11.0210674599137
-0.880484211930306
-12.4870033328658
-9.35342934905953
6.89471843931424
2.79425868745463
1.71053205979855
4.79981545053921
-2.64654952948751
2.29653936222207
-1.52337580706811
4.95543100033316
-1.74787532057324
-0.499244657071602
-11.1987296403442
-15.6342973546995
-2.46169026723352
-5.04832333581903
-5.67583622529473
-2.66672711353282
-16.1275860729878
-6.5999822353153
-3.79851721724909
-4.1842967837883
-7.83671404491822
5.10619931362963
-4.13930157740623
-5.04870192164891
-7.76322547807962
-9.9086831697604
1.82168643609212
12.3358786878806
-8.38161630346073
1.90987993863495
-1.78205790320203
-20.2384743689886
-2.20819663582747
-11.0461660585753
0.497093843627428
0.337039046719357
0.856378408183511
1.2384086315351
3.88596405355563
6.12734113718874
0.300878529244211
8.87709658829693
-9.77014695167789
-5.88520803820657
-6.01970051944457
-15.0418909815855
-12.9621014904362
0.435656322858007
-20.7752661049903
-13.7336105860908
4.07341957657582
-7.19190572767112
-7.21266674747355
6.86431049967018
3.49717617952325
-8.11169706434931
17.0294899275488
8.93853781077053
-4.36512845663542
-2.19190090839616
10.0392693883496
3.75726151963255
5.0857230907389
8.34049821879527
8.48407511226397
0.856559873610848
8.2690956179023
-2.63227936016462
6.36797850064645
5.40406564544304
-1.66747001264735
3.97835914017961
-5.53630749375788
-1.51254625221343
-0.649268275097666
13.9810290081274
6.94879995451249
3.56546993204711
-5.37047821642213
-12.0447299482993
-19.1019749617065
-22.4714241013802
-7.9341837066616
-2.73141912150266
-10.305935350874
-8.32759019577683
1.28984402693988
2.68713662751671
-1.67771636003986
-8.98144749524866
-5.15413040891277
16.441874178681
3.17404271421099
2.44008382215216
-2.56621233365314
-13.7601690951567
2.48677998481746
6.15970679429935
3.92588996353992
-3.6620342118275
-1.01844294797181
-0.201006749461657
4.98216084096744
-7.24028903767517
0.635270343625802
0.442400203090796
-2.77975000228588
-8.82604392766809
-12.115157105739
-10.7895021509655
-7.49393283293348
-1.38315748930013
-13.138642965791
-11.2163772499073
-4.56391699607367
-2.50607962937856
2.22531256363975
-6.35458667678031
-8.36155963978034
7.75883243245094
7.40263711213796
-4.70240526882446
5.0301414990396
10.4409209791781
3.12889685516438
11.0632757684655
-14.7635348903832
7.61552494478489
-4.76539596942966
6.44505593896833
15.8691239887004
4.29254825934441
4.49079460586098
1.97801916963125
11.9914674555461
5.66570655923228
-0.178988296967562
8.20650939620518
-0.564910202653579
4.17189843987889
-3.78888384615935
9.46818794402776
-4.74319531417168
-7.94027977997516
7.79127390556979
-2.71788804469646
-7.83563218947013
3.51568171265201
-1.19997624940336
2.411959133593
10.6024836590621
3.13472793899994
-1.17563550729578
-0.611978093570826
-5.15586916269763
0.801203528387773
6.5305411433931
5.55551793206634
3.34955929148497
2.87777342247807
3.4595282366873
-0.0898534635508383
11.0423036232113
4.455296784414
-0.343251846011689
-5.48537002597701
-1.4879744226935
-1.98526670609543
-2.7481740095971
2.30187920677613
4.73162071540363
-3.96180639771301
0.398397292802053
-7.40482096360571
0.473695907760876
0.580278670423813
-10.1619082545708
-2.88216436261191
-5.39495219989099
6.47477153132392
-11.9309927933546
2.49281649143523
-8.52428859115713
-8.37125389455714
-6.92015931877019
-1.09842488942616
5.38971344727474
0.406297233057572
0.307399235132745
9.58923432971598
7.39410328297379
-5.55387639934637
2.44098512690618
-9.84604522804902
12.1705615165781
6.88220675969252
4.71428560260155
7.15093928671486
0.174871429584655
-5.32697216566074
0.332693040806086
-5.79879567535481
-1.03828966783442
-5.81696253919605
-17.4689411029585
-15.5107058772029
-5.56107552547379
-1.43694276733006
13.6954100125619
2.24248368057964
-2.37255289082007
13.1710179319586
-5.83076259365155
0.774014176235825
5.02280129600212
1.04898395381074
6.52247933750185
1.72839438123741
-7.32725402296551
7.90639799319896
3.77030777438436
-3.34497365875595
-3.51522413436857
-0.434059834588983
-4.12054797928184
-9.13475936073621
0.0675301570641215
1.7529567466608
-4.08763779328028
7.1336340326548
-6.57423767536663
-4.30529528702386
13.6741826367064
14.8963057035167
7.86086514914893
-0.682634048160484
-1.11953744389364
6.26269877938298
11.0867546178589
7.49102547935254
-0.96014360506114
-4.60698286035453
-2.60956194827773
-10.7424949238201
0.48995903230058
0.544908900164222
-6.16509564632051
13.8231575971679
-2.43678514984421
2.60317443508538
0.0557717077554354
1.00947813978893
-1.08163639272538
6.81711890326627
2.94504137877408
-4.92383549399995
-4.39032022690287
4.24498021454963
8.69012710427463
2.70073679285964
0.994282071078454
-1.50699219043276
21.1006495690456
3.81804681051408
12.1453626598514
8.72822446146528
7.79929537348201
7.78761141664122
-2.24767725501756
-14.4193884855328
-2.97580980685177
-0.0884131325248394
2.14977792261373
-10.061574918257
-2.08115829279884
-15.192495699705
7.61403567638758
-11.4898997326155
4.62875194426705
11.2728853201994
1.91232264147574
-0.281380503753975
1.44381294497205
-3.86092378805967
3.72474451917216
8.08680797392832
7.16559371756538
7.44614590571608
3.34321805017937
0.909466043165757
0.975185644223406
7.40221428815972
6.51558694344883
-0.218048102090851
-10.0551086322508
-2.35445088759691
-5.81982372319514
-4.03222508182197
4.66203972391534
-5.18085190610352
-7.03936823109146
-3.4393532008002
12.433686573183
10.9538560534601
-0.494361644950664
8.38521179392369
-3.90811727067703
11.8397135181584
-1.95342348303892
4.1369237955921
2.19341824964435
-0.189968914061798
10.502121095777
-4.64333258396508
0.563286904125758
0.390277427289707
-7.34378982798806
10.9950000283669
0.363839926140338
0.892614676441293
-6.64235464731346
-5.65603482035411
-2.30653771194535
-11.643362111475
-11.7430160504009
-8.07996877725975
2.52813695306688
-4.4486013991335
13.4203378593627
1.34180035629871
7.40256741760625
-7.57120236420118
3.22137544275587
-3.55897808311125
-16.3589460803155
-3.0476854237504
-13.0961297658811
-6.73386453758146
-4.15495076801848
-8.26562795627673
1.31636308666217
-2.38494248244792
2.94519713525872
11.7505263888943
0.506344757752737
-0.369277852910997
0.324568016149942
-10.8899583268381
-2.24262575551352
2.24035570712056
3.26466685174436
11.7871322057323
2.82075750530263
2.90035103894652
18.9368729101112
20.2295034947073
12.7669257156646
12.2178957365611
7.68773678926304
12.4515579101221
-4.76411311653028
-1.72354939755364
5.73162680870928
6.87109898554565
-2.67230430890749
-4.61428809535433
-1.03336953856471
-4.78322235875463
-4.02288595432685
2.54494830657354
2.39775987802366
-10.3851387252617
3.86673038695805
10.6315985643137
-1.53096729071221
-0.62560859203695
-0.263043474276745
-1.23431275860329
15.6751054136615
-2.49837452579924
11.5647962895885
-0.100553599641135
1.98039934040168
3.11352415876915
0.415487645223719
0.424175174748274
0.504159854963575
5.66693652070492
-7.65676714500509
-1.14050543592664
-16.8685488442388
-5.39596579555843
8.77497110617519
0.478717332193295
3.67502304303288
1.06545251938993
5.54862821802884
10.4448667194954
2.65478687856114
14.9365527461828
10.1919401916556
4.53070265349417
9.1727350835916
7.01513732570348
2.77951068348264
-1.08823405129839
-1.19157846285439
7.13014269702425
-0.720014974126102
-5.33424657109785
1.75495282615948
-1.43104169273407
-3.57336717501661
3.94090306835859
4.40697259450226
5.73329678224955
12.3970406554382
7.31297132957707
13.4023946227447
10.7393130183097
9.19721837224808
8.66405826652533
-1.72262623936289
8.1825525483925
9.21726829912821
18.5857911696315
9.0897414948262
6.90353725879459
0.792104761729103
20.7334113104943
19.7083443808525
32.2809239032107
13.7153282538385
10.1417979944861
15.2524938963596
8.07066122993605
-2.00094988017559
-0.0538185362648232
-6.11227790897609
-3.88403809970983
0.828002946899411
-12.9018106734522
-3.8629069814858
-4.15248152113074
4.35278246951623
0.367058298282009
2.49464771783075
4.21285686293483
10.7809513674751
7.57332430305062
-6.47046659773516
-0.929738055942137
13.2974398718865
-1.87874565440688
0.390808583487412
0.440460982177624
-6.22309726927902
2.07051041291886
-4.75488992048551
-4.0474829647005
0.54233844992212
0.726676270954539
-5.47220158518786
13.7208242708595
12.5094950940503
17.0432086553997
7.34071521635554
14.3901565710276
4.12309174086987
4.12503788373881
18.0671429634839
-5.8350175606532
-2.6209275583526
-0.155888011777897
-2.86933308232017
-5.11022085438556
0.136931165169056
6.60827312799075
7.97826185160125
3.00305353572232
7.03901082246601
-4.81788172237827
5.55542263150873
17.2893429487287
9.27475573535877
12.6267867417109
2.57717784243637
4.29968005720161
3.93488839535831
11.49772748159
6.44522189072408
18.5224267282557
0.0319641437663282
-1.13038077725033
1.12592670773733
10.7663812031408
1.60369028843608
7.48347820818778
12.1911634990178
7.00678105768611
1.75143927839925
23.0378167243738
22.3702601420141
25.202284597348
24.4609989614095
12.5688360526486
-1.8560659180316
10.0141782964515
2.26339693088841
2.37617823219914
10.6257617402407
-0.0949381520262561
-2.61988417434939
-2.20714663572869
2.77856513019994
-24.6685472469772
-6.75423181968559
-6.12236795976799
-4.23591624653086
-0.418283828449178
-0.525769001950219
6.95838193984633
-7.99446571381784
-1.39193339557763
0.556089373177411
0.501815656094681
-5.04725336452669
-7.61511099075669
-9.06458770757881
-7.8686713871175
-0.520721086766786
5.34969466147788
-3.92320626964113
7.19048521898728
4.87985484697549
-8.8075919642793
1.44700958036869
2.44776762857199
0.420712561710154
12.2018305541151
6.93139653380832
-12.2030101874679
-5.37300214752116
0.0729825261404514
4.31138026231819
2.23118574573088
-3.85719271091554
5.27472486687276
5.29740473076662
-0.170410418779122
22.7044788187491
18.7347262822597
11.2804097241596
9.19210231514945
12.8638675728758
-9.17536976551781
3.01117681429891
-7.38373813850583
2.9105912940719
4.13819979115976
-5.07874335557639
12.1592586563845
-0.685784954534761
11.4775854761737
16.7119314342677
7.8999676495871
10.6257447256222
2.17034889149909
3.49180402096877
19.4685497072817
6.03429783101944
7.55628796748154
21.5337025300468
9.66727294401715
8.91547946896359
9.60506842553442
14.7133142294787
20.3054249943364
5.16715097961924
9.32038403123868
13.1012532447855
-0.203992436353915
13.4294039678059
-0.0777124454817429
-3.11341751195652
7.49731073369079
3.41460940490034
-3.68151629486636
0.831064390303039
0.794944833275321
-2.22750123236486
-0.0293557871854432
7.54500536286063
1.8475828349962
0.630483477461006
0.614797187851283
-2.74455086107092
-5.41112822144099
-12.0742323336492
-0.167498538836433
5.95496386077379
-2.97712388683182
1.79088682918288
-7.26091519773423
-14.8688723442692
1.60086149238855
-3.14540842937443
-3.60180363916979
-3.87944616386299
-8.77227518211226
-13.2837729814308
-13.9460018679652
1.46084259238913
-3.87217168192815
1.07991289526473
-13.4850256777482
-14.2426264194648
-3.55836994265313
-11.733978738972
3.42414692854925
8.88083123640064
8.02507116676708
-2.01854137382882
3.68806325494528
2.70272000424008
1.41645387630793
12.5760337852003
-4.57203207937781
16.5413852623654
5.78595887722162
5.95588797652832
14.2399805350671
14.2099635952791
7.64738539092394
2.6146425166333
12.5839101023501
2.37083112599802
6.88784302231125
1.54748234108087
10.1092681055673
16.1438489660103
9.74210920599126
3.79896392380625
5.92471372354757
25.7536023374262
18.8022408081965
6.89145764618316
8.42393841710297
19.73344456366
6.54446423029624
4.96869895017356
9.2819013335829
9.57755289578066
10.9995849164053
0.605391577760049
-0.493453852196055
-1.53477837763474
10.1978691924703
4.35011447383184
11.0872860751734
8.24975757305047
4.83853069105508
7.34594028421779
4.01458505901175
0.320308090947847
0.798157331717973
-1.31342202590084
-1.1271704524637
1.98754070301995
6.34979868553647
1.02614550719935
-5.80887887403389
-1.67185135369425
-6.66332835420017
10.8493905183438
4.56906744407804
-6.70998547344136
-0.401106074049337
-1.30076422366028
-6.38522882000946
-9.51323733939597
-15.8249621242641
-3.02511530505668
-5.36751331894367
1.90877622894383
12.1523061317993
7.86344209313295
7.60796262820701
6.36225860395898
-11.4522403935845
11.5229608445391
3.12284414139575
1.62890948905107
-10.5508782653024
-8.75843686649915
-5.34466909398013
4.70404527242231
-9.45455795124304
2.51379403281517
-4.55282228014129
-3.95517391208799
-4.11612983252481
-3.60402672135061
-6.60525685233538
-2.2294610376404
-7.50019726975564
-3.74426923772031
-16.5627995470304
-17.3049834038713
-8.4147431346463
-8.10547597674767
-0.0747275977206596
4.60005978369565
-3.43842156538589
3.23230432636948
-6.18002296094204
1.35081540891598
10.8987496349625
16.9151380148774
2.78192377129985
-5.13088403560395
-0.940820984671871
-0.357610204523072
1.29256213122658
14.689293591887
14.5319808432445
11.2069025133323
7.28057475078288
0.411321054964672
7.37385514895348
6.52376669479832
3.85488630536729
11.9341784705272
8.63080315633384
0.507929535106974
0.788470463727535
1.29396814492208
-1.43480743394021
8.89125133567306
8.67092762329117
-0.839889603432394
-3.10353384347334
-6.99847643759838
-0.212751543956559
-4.78244271010989
-1.73411722291075
4.49906715685915
0.344769278715154
-13.5520035076295
-1.03370005067736
-5.97382964700219
-10.1746476657416
10.0250154618992
-6.27879400831385
9.3214289530812
0.522385121647238
6.65033000963983
-3.02967966221008
-10.3962959681778
-14.1191092156499
1.44699540126943
-6.46496909370923
3.42056990376554
-3.07296216816097
2.69164455284524
7.8753191554359
-12.7608912591056
3.52237077729897
11.0952901639882
10.4708368040052
-6.45118295935066
-1.11146424081411
-3.78808036216764
-6.58379875409834
-3.9857665379362
-13.9866121051773
-14.6409413174723
-9.01069219658877
-13.2177929808652
-9.91244513044173
-6.65112632476089
-9.45903818399103
-9.94465574808568
-5.12073002744336
-11.298774170175
-5.3126969304908
-6.63084400824263
-1.77395371042161
21.553960899664
12.1668012948842
18.0881724645035
5.7836167724356
0.992499923433361
-3.44914616597181
6.26679323743237
5.25375662675676
16.7937829112624
-4.88635419744995
4.4149678995239
0.654542244562443
2.16346429556056
-3.14260532799792
12.2332221326349
9.45433940678435
0.599358121778287
0.451347927131865
-1.27264053454784
2.92409598403542
6.77961364695081
9.2855363276823
-6.59519714319334
2.00606798919265
-3.17719858437681
8.11181093967505
-9.53863580432602
7.08291764470773
-3.64246299783343
-11.9594986504201
-13.1221054261204
-9.46401423195953
-12.283789362909
-3.72579109787312
-4.83461826899079
9.64367450943481
0.00777065300090243
-5.47555201595141
-12.2256799499638
-0.95803581831279
-11.8800933995606
-12.3736173302635
1.30790710120814
-0.0890753573984346
-6.03672473551079
4.22051425412589
5.25574061493939
11.8518439712426
-1.98346294983193
14.4050720117974
-12.3872927236795
16.1132814332798
-17.5618933995663
-6.69433596777412
-7.2269388439531
-13.1092023039869
-13.1613911031381
-17.4962960589076
-22.3403361214184
-16.4692140292684
-19.1455652718692
-7.77884612318863
-1.27122687268084
-4.78041807105352
-6.28120280928193
-5.57779661281085
1.04291453811921
-7.43901802435669
-0.85145133324717
-2.674443182302
3.55780145180437
16.5940808920779
11.4699620649618
6.90031107853742
9.83261636943738
3.09607560906196
-5.447120776823
-3.92196690057106
-0.0467798471906546
-9.62270672203613
-14.2616929028883
-2.08912911752154
-0.701876884478641
-7.11661550995062
-2.06626005613858
4.53756633839085
0.613487854283911
0.620383732511056
-0.305750462676945
-1.07054042245563
-6.66035622874409
4.73759984282721
4.61907218133746
-2.43378392734365
5.64508242361737
0.970206468166989
2.47957542817587
-0.317559537005295
5.54515938742109
-0.159525383479571
-8.2026152450241
-10.642968137914
-3.89084903758942
4.94313452788376
-8.84735657543895
11.3284254960557
-15.5009082762274
-12.5603636125529
0.1030721352309
-5.46882537033006
-10.1645185624374
-11.2526092144147
-0.589416834126573
-5.17007425375141
15.1668041630529
-0.0367241954857976
14.4674068077145
10.0970803392664
7.02610260344618
9.8872172551792
12.2487457378383
22.0098919073147
-8.35640791210034
-7.55480967535433
-6.88048083577524
-4.98087988885694
-17.9124828507887
-31.5047335427677
-16.8043228187235
-13.1217399210618
-8.15641157583603
-12.3053897250296
-8.59330174965033
-9.53960727554258
-11.8263783725146
2.96326379310808
2.9620286040685
13.628606802304
1.20464298182291
11.8875690357766
1.77624890471317
11.2597277499241
15.8725187968017
6.88769419936257
0.932838610441294
17.7618214775124
-1.28401737344923
1.62572394027471
5.59597637263185
3.2613910506456
-0.14802784296872
1.28650861703613
0.178010585504264
-11.4866942727714
-11.4820589283704
5.90874825946142
0.491726839213261
0.521499740531194
-8.14708169155105
9.928736265194
8.46106858597217
4.05697654961221
-0.279566095559451
5.43854395575022
12.8626841311234
0.479369122069614
11.6022631760418
10.9053265683324
3.3845953052162
-6.25737434883972
-1.11725864145358
-10.0995600506329
-7.18888649330118
-0.671517116799366
-3.14768804191246
-8.30136486957647
-2.72351514323399
2.36866431465996
-2.48876318049758
-6.77656162680817
-0.327902619647221
-13.5501282438684
-1.71751782628327
-1.2328848020556
-4.66441242134045
2.8815660521151
13.2612902681013
-2.5872855599149
-11.1637051515463
22.7877876985457
16.4237077576325
24.2389237108616
-0.417701216030471
-5.62299087833552
-26.1799747668066
-16.5608396504046
-11.8237162570818
-3.91521786966759
-8.19614300305495
-17.9278676554286
-11.7603629156621
-11.0915705270638
-0.327430589657198
-9.48814055898678
-12.2090371594802
-7.25141955086394
-6.05280749510294
-2.32554683514118
-1.98519209127341
-3.62481949868899
-4.73897720717468
-6.71501388220051
7.94310439177351
5.62484029023312
8.45793430599993
1.33842124422939
4.64318751082118
-7.80990789335107
4.53347350708142
-18.6107665364233
-4.01076620802683
-11.6120742938737
2.92283966474134
-12.0711776828325
0.927646895502214
-3.34438357170075
0.405093989082708
0.602455091812964
-13.3234537448285
6.15114661619783
2.85317219423163
16.3978905207239
-0.411086219098471
4.61622022988918
2.87302727997137
-5.16817255069191
16.9421965291094
-6.62880247391271
-6.65998701071616
-13.2932752752149
-16.9259091296651
3.27968553266816
3.56042608151126
-10.017517054083
-6.30093208091111
4.5256633670643
-6.28580106300408
-10.6858432139204
-14.3487605349278
-11.8367525835344
-11.4094649209391
-14.5547133027183
-1.70782848508941
-0.587547168840623
7.62916538968246
7.98223829714121
9.01945185693251
7.02734539023345
17.9348816434423
13.1917556314041
16.0653573333221
5.51965375334683
-2.7970813616569
-2.0993947872116
-9.08160955429378
-18.6660735633749
-15.9720775999322
-7.2398965687248
-5.93198291013108
-7.45836475188386
-21.5577894090984
-13.7061055260311
-4.1359416910193
-0.67629267783854
8.43009340149322
-20.5780208687976
-4.93377005321001
0.731242860646044
-6.18379527756721
-19.6012972978695
-5.39219927641726
4.06826538193476
5.8634105641588
-2.26336427016178
-11.7913349376207
15.6475893630161
-4.24205881281958
-19.0947038306224
-10.4681020396686
-1.37021391677057
-9.38919139521363
-9.58080634935807
-8.45750044979123
-2.92056094992628
-5.61947557165931
-9.97518015833974
0.491420048302132
0.652981249459093
-0.948574562829968
-12.9941992290722
2.11656622320863
-0.618331371524569
-5.85068735552442
7.86340317075994
-0.555414118828362
-13.4896273243778
-1.93966004105208
-9.38029324167621
-5.7675809878321
1.23280900428807
-12.2987502017631
0.682960128586752
7.48146887375413
5.9299348170755
1.61790431253724
-10.6442796023398
-2.74336135849251
-10.9513580673687
-13.3516655860078
-21.21678611989
-15.110457334889
-22.8248048990076
-10.1725294389122
-2.39198048326953
-6.78008921592491
-21.9800679018929
11.7540623799054
1.42661374462218
10.5171666265485
-4.39489365540718
-4.6949824202016
-0.668559897955154
-8.46102651353771
-1.86913207374707
-3.93764107507203
-8.12765190914577
9.05231222787519
-1.03292155090931
-2.87954140692062
-3.94001148161779
-12.2516137379396
-12.3113389341579
-5.89483114563971
-0.870518790927243
-17.3142076416178
-7.48688481437531
-6.62310720466068
-3.11209919965519
-14.2217729715366
-13.9777888792227
-11.9051938567388
2.85203506068385
-1.75503723974623
-6.4027375390435
-0.0939887942528387
4.72822727859486
4.88466726207786
-14.60036276308
-7.34040515947696
0.562170010810105
-4.01929844113252
-8.04566937460666
-6.24420088809707
1.27940185621541
-4.66580710953995
-8.29700995315491
0.570612355281205
0.427449010114326
-1.36866677239216
-13.5404751648383
10.1418820992952
-5.10911221085664
-4.3967375305845
5.45932601242069
0.989315462871953
-9.49499673315433
-1.44971894913075
-2.74632197149752
-7.52951113894153
4.89901466628563
1.07309121275853
0.0677691717871658
9.35405245971318
-4.17818721492683
-2.11174290444482
-3.49292978242492
-12.0904158155816
-4.5591263039862
-4.03353050643192
-11.0235534193312
-6.32766346008738
-22.8979981626594
1.53811379700305
-16.2704291904542
-9.10214996867575
6.89323226816289
5.65087263041166
-0.0885792695425236
-2.78883365161808
2.3321137715342
6.54362922316803
-14.6721007490944
4.41668313035091
-0.608064145304182
-5.85729495927206
-10.3092248958067
7.44782707522501
-7.3601618123199
-6.72834968845486
5.9256198719308
-4.97335046323761
3.60201760568128
-3.0008180499422
5.29297820326361
12.8218271597516
-5.25320414146967
6.52271506485386
0.0307122917385346
-14.7268033859809
-7.8117333386172
6.88786527877645
-15.198692296804
-0.638961345515936
1.0814209699457
9.43429098949181
2.97714899783897
-0.331068739294271
-0.302012703515844
3.68134035782743
-4.35417836055625
5.15272972529043
1.87833052550019
-5.49564335987113
3.79854336781501
-4.31286537931599
-9.44551243633258
0.455224173339035
0.534444400272121
-1.88852535530289
5.77607658200055
4.49185200707691
-6.64778534221117
-10.3631286983186
2.73903225655248
13.829644323054
-15.9091519150814
4.02566280680803
-1.24894966990401
-12.1429260183191
-0.400499681035982
-16.6512817512263
-7.56038778037798
7.16594782460873
-5.46730142902324
4.08721232342971
-7.46719970606323
-4.62642918797832
-7.76433723414138
-2.67423957530362
-3.9264717111247
-9.62076659264956
-15.6340076348217
-16.2534939561853
-4.77236706909632
-8.33553447868537
1.77897285114959
15.9233455952474
6.85702936844745
6.60977015533364
-5.51144502165206
-6.22672005046896
-0.547472323443958
-10.8531235480873
3.82377146165611
-10.2845403860934
-5.1437764396663
-2.61149358738116
-10.2845024821341
-20.5813384559238
13.3344297701132
5.11623880396566
-0.390106981376609
-4.77804557553103
1.73615512402407
-6.56532279501083
11.0723599336901
18.0778400555912
-12.6080481331094
-9.46233154960857
-12.4746751652986
-0.569126190313578
-10.099783722504
-2.13893027899033
-5.04404401437995
-1.51782331183492
7.81870873601254
1.32622556610322
-13.4071908623202
0.428617475646608
-1.5206792775065
2.06094711078691
-4.12281661316863
-2.63816025058199
-9.23741950401398
-2.20941279845289
-11.5207709065501
0.446079187889123
0.602744308204856
-7.798335517212
6.0035386488143
9.29958259124637
5.37868891332539
-1.52829148953806
13.0894030337036
5.35716795278064
-3.96148525014917
0.000144057145352861
-3.19144726510673
-7.54590880475236
0.571679358136183
3.32840094799069
-8.46374035740351
7.29509025246118
-14.622351354086
-2.01664408484889
-7.42734719898762
-3.76575705376884
-6.49244626982901
-3.24372022378361
-14.3241524030481
-5.89172861058994
-16.8219108953932
-13.4086172002024
-4.71704479679158
-5.06069553263753
-7.39800714450955
19.3284124800753
6.94067754519607
-11.5211661176041
-12.3267856758753
-14.6084801399815
1.42317945635292
-12.5389063416458
3.41694739466584
-1.21650118729256
-19.7023877680976
-17.8357505929171
7.49069821430409
-11.0502963377409
-16.3741296830452
-3.15572305505439
7.75450932116971
-0.267572805189904
4.82687639635185
-9.5470780965443
11.8550788929382
14.469051961295
-0.955641297937632
-3.44892945991742
-7.54604400771839
4.62433356337625
-7.22063564307862
7.64704667471215
2.12429836284702
2.15347603350847
6.27156047592694
15.2990283012891
-7.06482078132577
2.01517578861424
14.9106901976049
-2.31120112664168
-4.35234580371326
-9.59680278452577
-5.81191709072402
-7.86233168992439
1.94445176464837
0.479670087315567
0.329820767486132
-10.2878906833269
7.63670781815973
2.64378832053417
1.67810113399532
-1.8639381484144
6.53621064460532
1.23175568266555
10.800844102253
-9.92994610041039
-25.6581521344863
-15.6792428020091
-7.38628808721111
-12.774132921173
-5.09043462349779
3.96499856542964
-12.2944337913409
2.6516381458335
-0.670660302637887
2.58532740073179
-7.28796995519412
-6.10367486800639
-14.7448697964966
-17.808508843386
-17.4263591968622
-17.3684655297495
-14.2514461811625
-13.281227111269
-14.5932779829951
-1.92299092571579
3.0385107092445
-1.37528461093134
-1.75011518127271
-6.36424686459696
-16.7124674532423
-13.4930815422619
-1.7583162083482
-6.22368743821097
-14.6417072735067
-2.01812176750712
5.19904368857439
-0.654936575176673
-2.47043380860754
-0.058438447671471
1.4125576731105
-1.00281156792889
12.3448255243164
0.874667113303682
-10.5941748534145
3.39206436331737
12.9152588892208
-11.6910195942998
-16.6075680920713
-5.01905208727618
-12.2738939491181
-3.862493170961
11.4474292550024
0.922347924112693
9.42339014676511
19.2681843625745
-7.40814365781817
4.82376549892496
7.9826920077884
10.6728922627863
-14.8737884242163
-12.5846841160401
-9.59384401537278
-14.3265780596346
-11.2010251835792
0.71727653941833
0.538220409853586
-6.670798279874
2.8232707266187
-1.5680784181894
0.0685017557114284
0.942265199542522
9.2783774854582
-2.11323198654631
8.45710308323733
-8.77369027302877
-17.0463091339621
-6.27878427724693
-7.10649107470308
-4.7070587173214
1.70136291088136
10.5568435227043
-5.71725469090265
1.34245886854196
-4.56264510983139
0.579368801863976
-13.8748360912436
-14.6941535070781
-13.3670064816779
-13.8392128908418
-19.7296121899781
-8.29670441953322
-13.6316717007361
-18.4804118877773
-18.2536809998014
-3.3570009493533
-9.09956938308584
-1.82855019134398
3.8913726275702
-0.431600566233505
7.47186080041161
-3.20727171843245
-0.792263117374136
-3.91900334895817
-9.25342875722676
-9.92876134913819
-12.6753172414819
-3.60615991358311
-1.18815864128633
-0.247581761922815
-14.2588460618622
1.22347690918004
10.2062026758249
-0.517788076402188
-6.37300289442445
-9.16722615314095
12.6441896520109
-11.0397523723613
-0.30767171324213
1.70538089191085
-1.69849738242002
6.69429467409594
2.59229366866885
20.2578373217208
9.36264966527038
2.37753044880991
0.964718126406974
-8.76099722239967
14.8230709699126
1.78269985555758
-10.9123628520262
-2.89518055192611
-11.1739901224883
2.80875556552523
-14.4297813938185
0.200464323758473
0.540795891307914
-3.43598566141656
0.181353879568651
-0.360054016845347
4.89937138842437
2.22623295175927
-2.35962906568322
-3.01371584176642
3.83202688725021
-1.60850574160011
-4.6372369011377
0.104082472541679
3.20810646375959
4.87698113578348
5.30790023946643
6.75613964821742
4.58565257463016
3.90556598576637
6.03337385533732
-7.8756647404222
-5.15121641219179
-2.49988682491785
-15.4351823677872
-14.977513372637
-21.683153235642
-11.1610466828234
-15.4047030857908
-11.5944958320371
-3.43197820204555
2.12794855516846
4.43961390388584
-8.6328298737114
9.40248062645516
16.1720823743255
7.91721335279497
1.0522686102778
3.88052868919141
13.4666507950835
0.354404866370977
6.50423381072645
-0.350405162650286
2.76471594269032
3.60039606450191
3.80754443655813
-30.9468587900606
-4.19946684115243
-2.77917545924435
-6.35877267727653
-8.69857918764527
10.0466007543299
12.9483351100126
-14.1152022627711
-4.66699015208485
-5.79713582585689
-1.81283083070823
-10.3340339904013
3.73615789093721
14.4796519676474
7.56312090737463
1.40699093094772
11.6135520504927
6.1088977443291
15.8765585341825
2.89687915295538
-16.8497395750158
-11.351307772823
-14.029522595529
-1.54653008013282
-8.25217483746969
0.564346858844494
0.41149470969726
6.85187322587078
-6.91891305729249
2.41486509109564
10.1420000929146
-2.27288151575866
2.13145853924633
-0.199652198343622
5.00586193713965
-2.52771982088809
-18.6847759210182
-2.99625315050959
-11.9464350754658
-6.94133528074178
1.46906923884294
-16.6502311415605
-4.66658078102534
4.9336653015586
0.170144169537854
-0.607279494483803
-6.45953696775663
-13.3101159282411
-20.9608358726562
-5.90631216102993
-11.7547861774284
-16.2065904280828
-22.3205748846633
-16.760891974248
-10.970096011928
0.478255484207844
-0.288300851962295
-1.20175183853073
5.24837275523623
-0.0677176146832913
-2.35242481831367
6.07670289600695
9.18649084082049
4.55038374348334
10.9319325158427
5.66129030575169
2.19532416374684
1.79653130228215
10.6167417620942
7.1478801912333
-5.64967869713553
19.4292318476162
12.523477475201
-6.28978380429748
-12.3674300715991
-7.98118287022327
5.73628393777167
-19.8558378658865
-0.737091756790074
-6.39117273661575
-9.69285551913864
-4.46825757042803
-1.14007846877994
0.757364876099415
5.96068229696418
9.91934043924918
-0.764230857150134
-5.4140319951682
1.75096417271248
4.71192515494034
-14.5025323836754
-14.2439674133543
-6.64440514638293
-7.92439981288172
-9.15210630277919
0.475943958256245
0.411255783373723
15.3543103496869
4.52030834268926
1.27249232729355
14.8647131272105
2.1796381001929
3.31974989766401
3.54196229911057
2.36447431899419
-4.34860441183222
-19.5756403988764
-9.63746458864626
18.9875914894288
-11.0362709787727
10.323651023907
-1.4168476910316
-13.151522655869
4.11901436581786
3.95455055376744
-13.7120084734626
2.28208590585015
-3.6845105160718
-5.87669149036692
-3.93871290256122
-15.4048979320959
-9.5043672336223
-5.05273230215594
-8.00815676255401
3.22083225116929
-6.94795172898409
6.44524044332711
8.99082978917557
3.92635040162954
5.67936183639096
1.41228436989965
-4.28110846187251
4.9934524901315
-6.99096772544233
2.74365090873837
6.01235580662668
-11.2088505992495
6.08697784861008
7.97789883663653
-5.41532574943627
-3.90544954611687
-12.6504272367921
6.37211540827692
-5.83022919361833
-1.84836935511619
12.9859584524969
0.584929011503944
-6.63604343991157
2.69411488176752
-3.03070588489301
-4.73242160001163
8.95945559646036
5.60378958012644
4.82972609309895
16.6550849309305
12.9076572744367
3.05748577521138
10.3690291207329
-0.104633485067865
-9.47006331664998
-21.0055274295136
-3.39102494207456
-3.2095939919071
-4.23064290089442
-7.07482672327587
0.355690132537421
0.360008773243139
8.89938852755181
-0.824227764215022
4.12749058201339
5.44502388163571
-2.62673060806252
-14.2398505722046
-1.86540142375625
-4.73897037273387
5.77868701801082
-7.12702963133945
-2.11674767789732
-3.48154063392175
11.6042804370579
15.0120193689046
9.08609820484258
2.15530528295264
-6.47687220104439
-2.55064161401436
-1.40976058469464
-5.16511455016561
-10.7485928886364
-11.9159799936099
-18.8387683215932
-6.13455185019904
-21.923550812821
-4.94218519782232
-0.529612184207155
7.49176640409638
4.03625069067978
7.63243561528523
14.5243527473075
9.79670969723266
6.47155215941294
5.60373168025564
3.62943193560315
-7.22288996334254
-2.27812463407245
1.25255518889914
-7.64939701349317
-2.19222256572314
2.15429760773693
1.04502662105901
-8.05670517716578
-8.73105767699527
-1.09623118725988
6.03502457145784
1.17020057800028
12.4257583217682
-0.695558283157249
-1.47843122463752
1.04902962617983
-4.73418582477562
-5.99239776289615
3.79346534636937
-3.52483184032669
2.38182041470042
16.0099637762517
3.86601679911856
8.01829914026599
2.83327706481525
15.6849436967308
2.81596432079929
-8.03336462905384
-6.6757855720791
-7.26427608503232
7.063815072249
-3.15793563545279
-3.01633561463898
0.47700555128922
0.450068218140311
5.30886135728358
-4.96238951416206
2.09475760324959
2.51453777491195
5.7342200796161
-3.04392444153221
-2.84744093796961
-4.40453087055692
7.64756161789816
-16.240942367227
-0.969117188558058
-2.42597554431366
-3.60567836801119
-8.69345181710282
-7.07992023775857
-2.49101746096529
3.59491675081359
-7.90280342680942
-12.6984979655587
-0.535094522870678
-10.6537342723047
3.48547948354358
-12.2056257973112
-10.4134794195554
-14.4766849190589
4.60337645167967
12.8113879169746
-5.80893281319934
-2.6570537875286
-2.1448774431548
-3.75350960697486
18.3750367547397
4.69577087492724
1.6906156122089
0.264092529114546
6.71606643780842
7.0001658812771
-1.39466247451175
8.21062274112489
0.523047610548657
-4.36828858904557
0.348184242137082
0.872380894815079
-9.05850859715601
5.64112779522147
-7.38259384209654
-5.00212948750947
-4.34784010898425
4.9766168723226
-8.77799009035846
-13.8135195670025
-19.4756274333906
5.72343049714819
-4.92519881690818
8.9336912421765
10.6577277661267
7.83791954087932
11.7592878615833
0.567405345160386
-0.98955332006293
2.94604341131474
-0.807150773356822
-12.2604238160442
-6.67759244211334
-3.43056856083441
-3.72789465993764
-10.6471016605882
-1.86908121682869
0.500173944168195
0.410403632236649
-2.78805372247761
-1.10061407333381
-5.62738338966953
-3.06787914678125
2.03340606108968
8.26060176446429
4.44762186545486
-3.49543015180572
4.12989610833372
-5.01216614649939
-1.91468466416145
2.98125268164397
9.89890964541616
8.38302747679989
-3.57867382400994
3.5548013481008
4.6599502413297
-2.84206407034537
-2.94170197321438
-5.35182851945097
-5.63794331142597
-24.813607754413
-8.0716170844541
-20.8258637449577
-14.275880421583
-3.97191769898667
0.161485181398381
8.10006734328044
-1.72475570247786
0.39674717518834
5.98305556633631
-0.466620650632198
5.0263865140059
6.87285976387177
-3.67989320728091
-4.44628543089304
-7.39467440895673
-1.90931209912076
6.57586742102169
-4.62875210906969
-6.61119065501294
8.40198544487653
-5.34331972197646
-5.84705093906913
0.343916925616221
4.93412913973313
-0.0349376916004855
-8.01223047093373
4.76970054360636
-12.5022806355709
-0.228214219161582
-1.76982886543579
-7.43012781561462
3.15208228992917
-6.24393151345607
0.713813952366593
28.701005416721
8.15217814164301
-10.3347467705768
4.49473024066108
-12.59652399782
-9.15190522455632
-17.3801077472532
-7.85672654924152
-7.65187348151769
-11.8971992716261
-8.10319038005478
-2.82722751795969
0.405007530919292
0.262297509929032
-9.90406598061308
-1.4830203725933
10.5958540622949
1.83389014301299
10.3187011955763
0.468459509953796
-0.709365556186743
13.2099262029647
10.8500759848018
-12.9200112563387
-13.168602919736
-13.3151277644854
-0.655569690365065
-0.599955574239009
4.47515569099993
8.33159572406035
2.48278619749282
-0.141188635862405
-0.0809711216147104
-3.56763808339339
0.539802928987749
-10.0725830898932
-15.0423044465808
-11.3851974895725
3.38794192197913
2.37527307261936
-11.9874342993969
6.30832218829292
-5.52044406455093
-3.78207523351333
-8.81167203321354
6.07805187196273
9.76258250699981
4.68227006102154
-4.88418473268876
7.6430703187208
-3.09996696777988
-5.80936843183257
-5.10749022617495
-5.90847082811766
-4.37131013361672
-13.1104392653299
-18.7080395261392
-0.287632630803704
-6.64633989301576
-8.55104428806233
4.02366188255122
1.37668751595485
0.183894520603801
5.26401101031713
-5.55189385426323
11.1044286666191
-9.87385770555202
-4.88458841923969
12.899284066017
-2.1001291818794
8.24481023424426
-3.1313349652047
9.66039398178397
-17.5888508634736
-5.01678398307101
-4.28074434693379
-9.65272574803137
-8.92979298623393
-5.02194118343207
-14.2357321260602
-6.262033991044
-5.97742035291766
0.498835081863585
0.370534423263852
-9.88070289744371
-2.41714921115636
9.17597752371817
-3.24612936082819
0.238700301698219
4.69308426845
-0.439600935958122
-10.8992794917144
8.59530885462052
-8.63360241315867
-15.352499844676
-14.6844115879467
-5.07468020738416
-14.0168732502346
-8.89786028577509
4.56670131585589
-8.09842555498344
-0.308240132729498
6.04356105233069
7.83528441680658
-5.83312619390355
-4.74786578107403
-15.4141053323592
5.65671185314657
3.6374161525441
-7.97966185803406
7.47415815016764
9.28061329313129
-10.030848317472
-14.0057612771211
9.36276796352211
0.830909169349927
13.4783868592852
-1.05950951071556
0.965288529380053
-0.386722403966324
-6.27736172224731
-19.8679024184257
-6.88614081702833
-15.0838245455612
-18.4686308783225
-11.982543391337
-10.8075008020696
-13.7980733926234
-2.71139381904313
-6.52383353395618
-13.2886637191579
-10.320676778686
-1.75870270473187
-8.69605904252976
-5.07312120722339
6.20333482426219
1.92906087770807
7.87037829989168
0.142386227964053
13.0370137559012
1.02923531338046
2.09979729486511
-6.63199871253138
-2.47251981276539
-15.6329655829496
-15.1446166840703
-5.36889437367608
-12.8063860029784
-9.01924933029769
-13.4420782387832
0.876767807609894
-7.02181594093797
0.576401435146323
0.421117315069119
3.27777612441646
-2.56414907669146
-7.07319720830821
2.66172458269276
11.0407047659145
1.89719052306936
-7.0971497223709
-0.264167987111122
11.9690904753134
-7.55841017427579
-2.60596658283288
-1.50597134479604
-7.65966660931745
-4.21874689393978
1.761050989726
6.59992673579093
-1.01283089837905
3.1780217092294
0.472390942861302
4.30521563485271
-0.181619025163537
-23.5700397373749
0.657941000273054
-7.8948763867836
2.90911670351746
-4.11739651985607
-9.83727041484529
-16.9859836807089
-5.3745198553313
7.54510901693933
6.89260862216228
-5.97600842872117
-5.29166467776243
11.6157510317903
-4.18561621515891
15.2222706226366
-10.7167805811597
-23.0361125999386
-17.1052317261503
-9.64248509016346
-12.1807016313508
-5.63605955110314
-26.4279107135898
-10.0516588117429
-9.88106308108162
-3.53146040226697
-12.2326493846266
-3.35176268828065
-16.3517455773959
3.03767666116774
-2.3099487291123
2.38825231069107
-2.65617174855565
11.4309130584064
15.8002428048087
5.34253192937839
7.24505086738582
2.84203971517718
7.26961918900959
-3.72664839847207
8.08497593070125
0.122885097006019
-0.655890460120231
-0.481047809988572
-4.12372524319514
-2.92525661223002
-1.34580545264527
0.458042330007577
0.393861568186894
0.474221302976438
-2.04460310387765
-8.4341662139282
-21.1174533965652
-2.70686940175268
8.51644754766439
4.81701839933885
-4.65656919897919
-1.12559410639296
-4.11304217212942
8.01584090219688
-4.60393262300858
9.64683319397259
-10.0295172958415
-21.600648148945
-2.69640069930445
10.0711428843776
4.97493581145927
-4.10781483235729
-6.40181288212001
3.04011634362563
-9.62696914307992
-6.62268538627296
-1.05219077011425
-0.70582080338767
-8.34148585138682
-8.95753996874181
19.4732891937316
-0.56133014169661
-1.53818944639819
3.98739824513147
10.4680676912197
12.1033784714962
7.76914043487118
-7.29360076010953
-5.86228368215223
2.50108618866026
-10.9400305204206
-23.0719752223801
-18.1504439199529
-22.927839879074
-15.0689776086658
-7.52057098036872
-13.298692633218
-9.97235425248208
-10.1979280210305
-22.9515915007979
-5.6648845128741
-11.7535518089969
-9.41792224493961
3.52205749755428
-0.225854705730116
11.6681953586293
-4.00304421884767
8.84190758574895
0.258654308435515
-1.55308870363253
9.66904527472574
-8.49436697290587
11.9899818244748
-0.249292180604746
-6.58190156296678
2.45365098081734
3.1666320976466
-2.60568452516171
-4.6580821261713
1.19574583766574
-0.21045019627977
3.41378615281799
0.530031730224216
0.33356789644802
0.248028695159352
-3.82041023681029
-10.4194593055817
-5.04992859263588
7.01092681391339
3.67385496340517
3.81814875662887
-2.81997085337972
3.68654027322483
-5.20181402522643
8.89221668036594
-1.29685521428664
-4.36438537453891
-19.9124910788367
-19.9409735707285
14.4240755693707
11.7203011918025
-7.9416383427337
-5.26876398173684
-16.2109179381561
-8.80389734772395
-2.74705201056058
-8.4655229516914
-1.62625776909701
11.8613069640616
13.7400484651307
17.6575663909121
17.792216647205
-1.06403329643481
8.1353888690473
0.0506289952929199
9.72982772670536
2.09495248516391
-1.9640299420373
-8.38089804093393
5.84832665103885
-10.6379824720127
-22.8972471284149
-16.6866576577198
-8.64915762521727
-26.5592099494901
-1.15066338906389
-10.1433934885409
4.41185551777562
-13.0633603940554
-4.66611684151884
-13.9960954936942
-2.26150492056292
-4.17587906627039
11.0662201629783
20.6892139143968
12.8599092037681
5.77978342417696
-0.370020471784275
4.30454608731897
8.17215363040511
2.90289203776222
-4.54269647094974
-10.9925918373896
-17.9466482596384
-8.40076480306396
-4.58035630367249
-14.9955212039451
-9.35914196384052
-9.77263027264195
-7.76683422936231
-9.45756498741178
4.44323028753386
0.324850468482036
0.588304637915023
1.56858900501778
3.59738783350656
-12.9235822150262
-5.91315727260876
13.1610756147799
-4.76081809636076
4.28350509567354
-6.65410269885665
2.35754354375915
-1.72643976358962
-7.28515435956035
-10.5260881837678
-5.4078848119714
-15.6335420167351
-0.517511408309788
-5.85134208917398
-3.95042085521292
-8.78345121685809
2.98572041193294
0.161158020569954
2.43046948354213
-2.9528539791907
-0.575744917920027
-15.6392429077371
-0.437943707952527
13.7160672391035
23.0664710758522
3.62829253833022
2.72797588074985
8.02584651484564
8.77091316980859
-0.312857798424284
3.44641300389887
-0.683071360368841
-9.56953126338612
8.7156283143587
-0.590939441906209
1.6036853280677
11.6975919428555
-4.3221378434501
11.4686777226221
-4.71814520257854
-6.78518088824372
-1.20754686666953
-10.8148333038425
-0.509990828339425
2.27213047183959
9.18259726632217
7.89585114244711
5.16286759811286
-3.79529649712069
18.6148794895131
11.3453207108504
2.38651827926305
-0.76388341776733
-0.0144240415496608
11.6335034304631
1.73767777512158
2.02571474716159
0.851449044053995
6.92038126903701
0.319817337627389
-1.45148941436363
-5.11999417247253
2.7590954244384
-11.6157457292183
-1.33675590779266
-3.36314252159889
0.404666555785837
0.808212455345765
-2.76535507702648
0.908252649385668
-10.9470335583164
0.244973405481559
2.93105610244483
-0.0523779900916216
-7.32135191279092
14.341497290735
9.47524326716353
-11.3619866061403
-2.46045163878382
-1.51014354253566
2.60468112666096
-8.49495663667637
1.95607549892443
-4.89997797625814
-6.06450074292219
-2.79936128557978
-0.242291979086664
14.672281219517
5.714263644604
10.1800961748829
6.56089224340765
3.09370022811164
-5.8261534209346
15.7945940205781
8.93354165926514
-2.89430469766354
11.3575545504904
5.99116879467539
2.56651220208218
3.97676535189855
5.25127525561857
8.35915369374767
17.1571050226735
1.46388574944899
22.5549071090608
13.7860032811271
15.6925417529871
1.46665799167455
6.94197530299927
2.63703952193411
2.71653075698951
7.7954275356936
8.87897994484358
-2.74804083528617
9.9561497817471
19.8420767187668
8.14473976204874
-3.40549956757332
12.4803976143246
9.51546212021555
-6.34806098411982
12.0085670379036
-2.29224470513172
19.0918567456431
-1.5942442801061
-5.36527472957308
-0.174830821334025
-7.35201748723367
0.0304250185109404
-4.64286730106341
9.39448923582505
12.330694063689
4.62400007787324
-13.8211144229737
4.60169889465734
-1.91187662390332
0.637861586496815
0.591801214840228
1.13975358591909
-13.9210027689181
-10.311335701091
5.02859256231096
-1.00944743606185
6.86601469661939
-19.1957632352381
-0.930481898934447
3.22154778240272
9.6942755285811
2.95598680667758
11.1413339747001
9.78016150520595
-10.2754282447922
0.743973082600874
-2.04121651777675
-8.63930494171776
2.78084944126318
9.66694139692884
-5.13625424572946
8.88611138095985
-0.0331060156357205
-9.45394807960898
-0.143002431776866
-10.7015152763171
12.1363091646817
12.6386432088905
12.0043349468233
5.61181348100629
-0.154710835036858
-5.15648447879531
-1.07339888057126
3.75011666652894
13.306954534491
12.9212327611437
6.44056641347177
11.6202424583084
-3.524190888871
7.9506569089915
2.76815234101765
18.9293381221401
2.7074661292446
12.5090613403994
-3.21323872440804
19.7476350694276
10.9167241104566
-12.370304327093
10.3543163161636
15.1416439521047
8.20826715238379
11.4548993116682
0.312778359722277
6.09002869559111
3.97806705339888
3.03324874812752
1.0231701432621
1.23613603194999
-4.99973869582912
-3.70871680153963
7.58958804511586
5.7281106152919
-0.629175001084462
-1.55064726537835
-0.596180954798103
4.54739848193891
-2.5025879093275
13.196831866604
-9.36378330248652
0.537532145205954
0.446107248489238
-0.867565921578063
-3.30295891801735
1.47272506418824
9.01726882842507
-0.207564881972719
9.71812052054036
-11.7842653964416
-11.0246503167038
-0.767311172936987
-0.686851090644865
12.6587292885508
-1.15729603853041
-3.97519242944639
5.50644015226344
-5.29326275890689
-10.9537594330524
9.37304730475001
-6.03372582177572
1.74530105718271
-5.3856663947513
-2.06652170957565
-4.26285239736626
-11.4284808716576
-3.29868182365113
-12.0053905178011
4.28091853205768
4.58726155532729
8.10963618944191
16.887170767283
10.1090327295894
3.13993395371812
6.03913135801085
6.75605830172748
10.0680856842319
17.2805358343628
1.90013522951327
18.8137004372102
-5.31138343062935
-6.30112785380029
-1.94429249783823
8.9564986069752
18.6242899265449
6.16259206758014
13.7399431742307
14.4001003602388
10.8034116115018
7.75256590591206
12.5578428725637
-1.07673111711998
7.63003515429299
1.01168942792805
6.56971259468943
4.17624750123001
8.50553411523119
7.21731565604835
-3.93677889342915
-10.2964992877835
-1.66675964519825
10.2849682018925
4.72796055763453
4.6309764636194
6.24939013076546
-12.1946229732574
-6.63299708467946
-2.1422873125178
-11.5161434211977
2.03849905991794
-12.8895874385172
0.728640463064362
0.675704959607272
-4.44333211290062
-4.19121242109216
-5.01213137408191
5.36701849463583
2.17567925012407
4.2600061054272
-3.95041494187581
-6.21358789746236
3.47536083234909
-7.56470570584042
3.37277725586748
7.4376655429514
10.2672080587191
-4.79045387187232
0.732649337835233
1.64934904628036
-6.60855318923314
-9.21292822908405
0.275645381014374
15.0897386807129
-8.6110345643311
-10.5787368111281
-13.0204285491893
-8.35918557545762
2.46645308688218
1.81738251431467
-1.86669958410857
3.89694909290209
-5.47411080226343
12.6827987270196
0.475436047263393
0.890590351466551
13.6881876618112
8.48986847935704
-0.159341538445424
16.8599925632607
12.2065996004337
4.08074905658408
8.3722894463313
-6.81399743362007
5.79671725800975
4.5788735662335
1.75688726238675
-5.71677049662051
-4.90059775426338
3.01892571715141
-3.47892834508409
-0.572267506674487
-0.148359780753133
-15.8695300328938
-4.7974125193822
2.60167610134892
2.60242175959279
-5.4378645261514
-7.76778643417415
-1.89401045427668
-3.55972116927523
-1.00475830067679
-11.5119398607033
-7.22543925310517
3.60125778994326
-4.34765992499957
-1.02243807906248
-2.35304175550501
-23.7727333919336
-6.72249831093058
-10.0063779375423
-17.5972633349779
0.612235611411342
0.349121356834137
4.84333568723739
-3.00388734490065
-7.0052256385242
-4.33668739259425
5.70135661081018
9.6303657836137
-9.21240881526223
4.06501601623114
2.56606997214109
0.263905508126297
-14.0072036456161
0.00989746474778546
10.7054628262004
-4.85464870116602
0.233184556866592
8.90353564768579
8.67102567689738
-10.9309843249933
-6.76287512529036
-0.253140589603076
-1.38989867682634
-0.463009434901813
1.24486371957613
-10.0381526115848
-10.7051320801465
-3.26646675582369
-3.47953537728319
-10.3921529706517
-21.5355664281292
-0.567769194585706
7.45108184588368
9.70271546141704
-3.01997962531496
9.27479364015596
11.2604413558924
0.0591470508780883
6.75904529666247
19.5592287059256
23.8255017578128
10.8154937540814
16.3779156711402
15.7397660196501
2.53899299059683
-7.458994174658
3.06889973322943
4.93778339005793
-1.14284680872474
8.41269050128149
-1.80250835330332
-1.09804821859976
-3.80666017320818
5.46579373459826
-1.92258067312935
-5.0259115855386
-12.3486823906036
2.59994402037666
-15.381381367598
-15.4159327291103
-22.3126147227324
6.30361291053411
-0.705717746643189
-3.31989239054104
1.73019593039152
2.24981452368566
-14.9526901998197
-8.38704495223098
-5.92067660843321
-11.8066429495994
0.405616884622766
0.53739784878207
-5.56593645852197
4.44350199374383
-6.89980679871007
-1.92642001303631
-1.42259814817548
7.7062667852407
-13.8376471108576
-3.19116658866768
6.96090729979655
0.192938057584248
-5.09690119221906
15.1906744309066
5.95271745442467
-2.72296185284601
0.00813379341314651
-0.896538077700241
4.29840721355369
1.28575580043112
0.82138492572982
7.28847881392799
-10.4984263632165
-6.74341675570768
-5.5267633450804
-6.78797545744624
-2.84622467338124
-7.16924373657168
-4.24363539139152
-9.47351014778741
-11.9295724559772
11.2027128626442
8.78104340627918
5.5835683741206
-6.3612132992473
6.77701100942708
22.6795122555674
3.5798770846952
0.168780552453164
1.43296988224736
0.88808875625929
3.29985203251002
10.5853596200506
6.00125291999825
-1.5381652547999
-4.35466897444134
-9.56705260389517
-11.0359982720793
-17.9750624962483
-1.48161155634674
-5.44414798449583
2.74338632430374
0.178990443519296
0.761891798595127
-1.56586788970447
-0.437887831040774
-10.373699480194
16.5970741329091
1.52542834276391
-0.980145133704592
-3.10524878339272
-3.37692278192626
-1.78982936018578
2.50018666871005
1.38086126444067
0.568239856904033
-3.45427677525813
-10.0457118012965
-8.57820277512587
-4.74454447464878
0.401364074191718
0.50670234054071
-1.74687517615423
2.1311154812067
-0.320962987188808
3.05842736418379
-0.66723663800841
2.6914996171456
2.58880351790769
0.191132981919439
-2.25118397196605
-5.55885989190279
-11.1429118287034
8.62498453000518
11.1152737737856
11.3445735115267
-4.05617437111907
7.79222169063095
7.95847386413384
-5.18614673155827
-3.64893556562829
-1.24993870928163
-1.96607090570443
5.7725814242981
10.6055162351457
5.42783318229304
-7.18647246755854
-0.505609073578604
-4.47737622639307
1.20587908449836
-4.68257441413522
2.507676072778
0.143043280592885
-1.89891441922962
4.10280759068803
-13.9269079047707
-0.304966847876007
10.0742592063577
2.48774647857102
6.60336230183978
10.0270165110463
0.0395727688703511
4.2117259813146
-2.01683761202883
-0.483717115524405
-0.166580708870105
-9.47139759426613
0.328301374180831
11.6263424856988
6.55825815514588
-1.78920800766854
-0.155191436195586
0.835159345088535
4.82752886359466
-8.25504349086617
-4.42175385311094
2.41529471137213
5.21528724029479
6.01857558940894
-4.25880719909787
-12.5898903218486
-13.5737785169425
2.95312266561244
3.51716402069114
-13.4560759615436
-4.67917326670582
12.0896405565019
0.207660188776444
-10.7365948454911
-12.4257230936244
0.72721240081798
0.439445281173674
8.98444866220793
-0.605860864696961
8.25032819588311
-2.49520993652629
7.29609329230792
5.24561959368083
0.463322183598616
4.449880662938
-8.70370260240549
1.7932454476054
-1.37038806746308
10.8045696600277
-2.33377507678952
7.24855224377973
17.2249604598094
-0.770953793696419
-0.359672736008
-6.99823683933543
18.8897017930645
15.5475982104286
-0.774901997983338
-3.60861514964904
-0.346038617191009
1.02180251927001
9.33059952394481
10.89289358039
10.9616100990198
1.41828567349543
5.17138850366998
7.05768549491463
-10.7308904120689
-2.46552119493384
4.5786824857096
-1.4821697458827
4.13758311660564
7.43763939130629
-1.98575103367166
15.215093418604
-1.60901624838024
-1.52678298313279
-11.6882481868341
-12.3336952094984
-6.72778259442503
-0.559256171847462
9.64171436909755
10.2636130282395
11.8315026161645
10.3500499607229
4.90711795600921
3.6061882439224
9.39732984472608
-7.28772037264796
6.93741192743703
-3.07439065642099
12.793755203296
3.77424631520414
-1.23325860334561
-6.43605122561895
-7.95457270638811
-8.84250311093547
-4.53358688726258
9.45556480632626
17.8039235814574
14.8853080754179
-1.74424253155916
-5.02921584204696
-6.13798296497264
-0.0173300694367207
0.541849895189673
0.48072002460015
-2.26908797568342
-0.2095806499063
1.08349386208811
-2.53738765525926
11.5063476806361
-3.45619849976369
-1.64756144688822
-11.4009456596537
-7.94176692768368
-3.19319000817997
2.17834457322647
3.32785570959259
-7.85507446705954
1.14356666715876
-8.20200659755284
2.42411243872712
0.746507088659816
6.41140156693905
12.853396882003
13.1665793792416
11.7668151983087
3.51613618882232
-2.83386132458637
10.8844086631182
3.00663969906294
-0.372649444204509
1.78682499254202
-0.492662509886921
-8.88946008829004
5.61274010331368
-5.67145307716699
1.83185023824495
-3.185190337097
-3.28165692802468
-7.31914236867974
3.64177000163779
-8.1113338648144
-3.12101710859224
-0.432873209711284
-4.71429438826436
0.365561959262002
2.72161190343588
2.06601787444693
8.37131426352856
0.543210313388719
5.17438087598105
11.3004194410345
0.921918182877316
-3.81020079738217
-11.6384650636339
-8.6777680905801
7.55406776581177
-0.174966931992956
-7.1700182106499
-13.9055681351678
-14.7375642556707
3.52468839616017
8.1719441533998
-21.1270830004474
-15.7933736505622
-6.48176529808016
4.35410766625731
13.3398943621566
2.40247839697836
-11.2354917177043
-19.6567637528596
-2.48095103148965
-8.00276063842816
0.60299477499068
0.653617729558573
-4.15277762902749
0.882779874315882
-2.13150859890987
3.2934311935787
-2.86541188775796
2.7300753957224
6.46326956289643
-6.31963192574839
2.81027812047502
3.20303163303406
3.27497665520759
-2.75475256098673
1.22431705716435
-2.97961405705348
6.69083153002823
-7.77858335580952
2.18069489637341
11.0363005299733
4.89673806859845
15.2637285959505
5.34202521689451
13.2861377091467
3.73355003783113
0.972766290348837
14.1646310235695
5.81159466740634
10.666426044779
9.1591383752919
4.39247811299578
9.82622167039263
-13.4170088965669
-3.93035991821183
1.51998488097305
13.6949952835166
6.92499511406344
-2.35410012899262
-4.67311155920944
7.99916645792645
5.82125703292187
10.0879523003847
7.13610693328023
10.1498224636634
0.370459783004298
0.748822281541444
-8.3816203123375
-2.93251451060827
-8.16566978339545
-1.29453689615846
-9.22259568030601
-9.49869676357977
-3.78583400277015
3.7203817879928
-6.26069760495074
-7.68258275500809
-4.10657974775257
-6.76750566968003
-6.14411904179591
7.59360595641914
-4.11761087425099
-9.25911039738135
-1.76325948096437
-3.65588399677417
16.560606722513
7.64794949987544
-10.0685559208539
-0.961058825845149
-4.60279062754609
1.73152802445013
0.498785559084688
0.51228063323997
1.31029037514767
6.12308539196541
8.87083580915517
8.99976452532666
12.1572249862572
4.36888561559437
6.64575290147296
-4.17558799894393
1.51298479568744
8.62318556476023
-2.9219217248042
0.387950576493757
-3.76224211338858
12.0631243940917
3.13387163211088
0.895193922475785
2.14446460355932
-3.78091031524272
-1.85542585994169
7.82879582001748
-0.89277100663585
4.95749424250895
3.06365695287887
7.36797161524589
0.153371590947633
6.91872600944512
4.94701714760815
7.75580377185107
3.2778060299847
-5.38082539032467
-10.1005664727941
4.05140048585012
-0.670072519744383
9.02319634352901
3.53993019559344
0.312822999378158
-0.367822045854053
4.26018995959934
15.2662828631078
9.41416303352031
12.2467838641978
2.43845000628583
-0.319732603121276
-0.610887397463297
0.296401026383836
-1.0593215774596
-0.629783456457229
-7.33506900126099
-4.00036427262766
-0.981853595319168
-6.01578832845968
-0.347567929070772
-0.445370736566655
-3.48539648650132
-2.28194994779412
-9.17315733502809
-5.88267391113424
13.8571316026299
5.01140966936762
-2.32094699392941
-2.30926304386399
-3.67598657326546
1.65683425669983
-5.15331252361328
-9.56254540589177
-1.21478583360199
-12.2083066365088
1.31266029587788
0.453811788795164
0.431215328097768
-1.68896684798719
2.07238462835796
-5.43207125219305
6.17227354110659
12.3707153882883
0.567411130516793
5.56375574957453
-4.06171202451637
0.441728979705636
4.70796413697979
3.37688152260219
-7.46429398058922
2.9108775992679
3.19018772809572
-0.757084239835128
7.93124292861024
3.96149848662208
-1.8913035284662
1.73459600501306
-6.56139868163792
-15.41663356279
-10.0073258296623
-2.22072924014116
-2.38930740831623
3.00682577433994
-5.36031748876317
-7.56257897043495
-11.5646882330872
10.9381217437145
4.84982758182573
7.42422647563768
2.83876279379183
-0.0997668562880445
-0.49344926304815
18.1099708916242
14.8738524299614
5.98404908638323
4.59279631310824
6.00763607568223
10.021911070084
4.79557562172457
1.36330493522692
-9.49629837393354
-8.27374006989611
3.48526232553953
1.82654381274577
0.698642454138616
3.13020133157213
7.66917747122623
-4.24845653026217
-3.05290602861764
-6.50200826448939
-2.3809198558615
-12.6635116994765
-8.93703330325532
6.48054696659159
-3.18406813319725
2.38752392945972
4.83620694292832
-1.47907036048344
-2.93985649340008
-5.41494968796572
-2.81434669589747
4.19196048769751
-5.59896564928827
-6.92931960027332
-8.74658652578451
-3.11403297391193
0.389883602521767
0.314020260997419
-0.87276997629972
-9.81214104727351
-9.34132025762448
6.3843964426277
14.2719047182041
-0.976233325250564
-3.89914230779123
-12.3714376003061
-6.37390681235765
2.4246976572119
2.60087354542456
7.68688974932668
7.78744749088729
1.30065558122795
2.13169915053127
-0.854985233540989
9.61610090723834
-0.566441571177567
8.78920190691239
3.00005462714225
3.00807330342636
3.03067486366545
7.67450146065127
2.92199336251033
-7.07629264795729
4.13012731459383
3.84845032611023
9.19844609370749
3.76951406728632
-4.88037768962523
-1.41780644481373
-10.4739488522502
1.18642589603416
-0.962125401527397
3.82320763751412
3.45111136405718
0.358595211103791
5.90543478448528
-5.43009452852072
5.66860805517551
8.2864730830546
-7.26279486104301
5.79188055212018
2.51284699853765
1.44902000487231
-2.24637360619393
-5.62851213331506
3.30590785942647
-3.37409728542588
-9.97436809349378
-1.27239500838987
-1.55808310929129
3.68633423065125
7.20198317931539
-4.54412262037609
-7.68341572938859
-7.35661888887897
-2.18730334509424
1.13681932821708
14.1928242816903
-6.90150767834705
3.24195103446049
-2.11541033507004
-3.91584198439831
1.46299166758868
-3.81932441591148
-10.1410187111414
2.23472149860675
0.451295554470843
0.55950126283249
1.75695205291362
6.62384699050289
1.77377564797597
-1.80823614918199
-3.3439733467535
-2.67951185720638
0.660990070798749
1.83430719113987
-0.478934290309399
0.437426921208924
6.17120763354577
3.13535779922494
0.525754387814435
-2.26317234782231
1.57843677938397
4.87132140087053
10.6209719479029
0.366056562176742
0.0315639357307479
-0.174257215588172
5.86305426212107
-11.2544499080102
-3.24202164306248
12.2158429574113
5.80985620147165
3.36087279701855
-3.75574405043921
9.42228119808999
10.8138523959369
16.6036301499323
3.23848451782056
7.2961752225023
9.48935350680812
9.38702945427214
1.47316946893514
-10.9395969185056
8.14869128874227
0.353025269382531
11.1563275459794
8.00807715785161
5.07922328596667
4.1409306132236
-2.87446298558205
-1.15813074213253
-0.440245423278287
-8.97580679885546
-4.00609406986904
-3.86203357444353
-4.82937342105805
-10.5749629416629
0.0928723070880173
3.77784857967898
1.62816809161451
-3.1994429139571
-8.66052435002505
6.64588444110369
-3.97332188773084
12.9887550709893
-0.600350912890065
15.7413133344308
8.12577756499743
-1.87041976367936
5.85330512459811
-3.02227578733672
-11.6692476715518
-8.61301734360842
4.6014064119885
-9.01421990239422
0.732637265354581
0.675391141863315
1.92068462744323
-4.54503894486303
1.96787605395138
0.353547252265069
1.65889736272991
-7.59521388722916
-3.93661634743315
-9.42337046917913
-0.245714359002506
-4.4518663812219
8.88078192322053
1.26017869920965
5.18123478853152
3.11576321808451
-3.01956956404115
5.47918826621951
10.5754006515321
1.38543784930368
-5.79989812318933
-0.827949911205468
5.41413227151458
2.84727603205232
-1.17392716003708
4.83567629185264
-0.230085307396667
1.73352070702613
-13.1207022759774
2.05449334375054
2.08803209054537
7.88273492495035
3.59883606410978
0.47110412509025
6.61612965903105
2.90059664433636
-2.45340606131007
-4.60000870234789
-3.76579994119008
6.37406284334074
15.8697010574276
5.70037289304254
0.361160081625045
3.463370426463
8.88655056399293
7.68153260756032
2.98164191362741
13.5594056973747
3.71088306751586
11.3474189002661
5.6555161389064
-5.82482267690192
7.75798079465703
-1.86256962051731
-5.08288561826925
-3.87421020370156
-13.5764213048281
-9.62088940400201
8.71140852760345
3.90218721145546
-10.3620449516019
1.20521812888982
14.2241504640101
-4.40920274246784
3.60963777171314
11.9526098465593
-4.85248962568074
8.51479496500085
-3.85352554497454
-4.07113038217124
0.471002710822945
0.659666533879139
5.60899530528097
3.38364374820657
-6.38382243761605
-3.48184596691962
-4.34660441673236
-16.2123637774606
-0.799233521789876
-3.02962941360029
-3.04508696506237
-4.14005297517363
-6.0205311511695
-5.58470306476096
7.37716883658613
-2.04833803347213
-7.95223484648754
-1.0042849428974
1.37247794339231
1.53395896607541
8.24705091787056
9.60872881388557
13.553858978527
5.05808165617853
-4.44080893664271
-3.41956389651769
-7.52109416276161
0.0226844226768574
8.66598287914627
12.0516282283102
5.24655160142289
-3.15534001001767
-5.63082238553617
2.88377578765415
6.25199183610418
1.70530339916063
5.06809669615428
2.18178009385578
-1.85254192303478
-4.60671994066654
-7.57278736241285
-7.97143173973798
-7.51370158611422
-4.40118178744838
-0.69996889460971
-7.60133943225355
-6.57341223798569
-10.1250901372871
-16.9241482077566
-11.3584048197277
-8.42084521904635
-18.7438460170782
-7.74552831339868
-7.73893200013844
-7.44308262838922
-6.9941597226358
-11.127078777906
-7.73977300110239
-6.03105048479253
6.65911814641542
-7.80942175625806
-7.79529539523882
15.6485074648949
2.14781295881835
6.21489908169013
-0.980580632450499
-7.20580376592154
4.40437395498307
-2.28222386430468
-1.13733244805335
0.746678434729748
0.522379861665936
-1.73672759297401
-2.28961699708649
-0.760897766387678
0.948544718682952
9.60771878773742
-9.11762107470519
-6.94907762488882
-3.27128358704513
5.65483007873871
4.02876484642249
0.259623937920654
-4.05930101309809
-1.51495956725318
-4.68546447476612
10.2261492997736
7.49006776565387
2.06843595282165
1.62084898239414
2.4953927913693
7.78523655440471
2.88728951835509
5.00668795383648
4.32090208976963
2.69840254721957
0.666789832794932
2.37852090727588
3.07168297250403
-2.77167216749138
-7.97787055275857
10.3276089853375
8.61892758720339
-6.21313993864803
-7.47948918089955
-9.85576922003048
-7.00540003659833
1.94554207166664
-8.50843363618037
-3.79287678237662
-0.526077075067071
-0.188638764831645
5.13848089053851
-1.85238579931312
-0.402192262375304
-0.521858977501023
4.38828199582361
2.12744752429577
1.69817366979491
1.51547283253407
9.10983977962731
4.46686278807034
-2.98673202902764
-4.26076057838451
-7.25479478185599
-0.467754934436792
-1.79133701363136
1.24854935079525
-5.37460660182716
1.67745748091219
-9.8509541059
-11.1741227796004
3.78109711611201
-1.93970302460024
-0.0453848937010751
-0.49515943682348
0.103324537249548
-3.41449130720623
3.0970859151561
-1.74821381949582
0.628803216460643
0.285285019960715
0.598615703099951
0.416196699335816
0.388544945904738
0.570206517053986
0.427806740871048
0.538601254221617
0.629141177577021
0.418070624729785
0.557626829376962
0.500918284812022
0.295588305840904
0.333961613464732
0.457349858155257
0.201646516443532
0.59364869507505
0.445463030785106
0.532744982613228
0.507182641004493
0.370406230068455
0.626618484458412
0.527223562122996
0.594620060104326
0.489262999980065
0.60314465283301
0.661730136659428
0.563408535162285
0.296727231958069
0.631014867336132
0.100152753363095
0.656226813442045
0.655857077924898
0.378698850640225
0.61481789003613
0.371920968906438
0.561490307373878
0.562134202843461
0.493063061615368
0.469985264559386
0.442160624187819
0.508109707867179
0.584258339994982
0.387998608559957
0.284085780459213
0.36349780978989
0.606033853491596
0.49659304115096
0.412977551141341
0.409990177990397
0.484350959090644
0.671894741455058
0.646352897180511
0.406112897773778
0.438573430893713
0.45438183104151
0.804601484323779
0.474231006618233
0.328956374953325
0.638403094575249
0.603975724711766
0.443273971647638
0.521630897894353
0.696135757462273
0.332816312289302
0.321972679956459
0.367450068245569
0.45331191980237
0.575354651700434
0.695095645960999
0.397492307391376
