0.485514593050614,0.085041846528864,0.389901290397781,0.20727189629356,0.41771562437008,-0.395768972515808,-0.0190982316885475,0.278333995695649,-0.0796314582643853,0.141483596355063
-0.000284309613700751,-0.149690254972563,-0.0856874776320744,0.103145978119836,-0.0124605717482045,-0.224441838507898,-0.0766736622507138,-0.0108858011357275,-0.11486407391024,0.0681681862140831
0.106807766857099,-0.171863673685499,-0.000249693354463343,-0.105695603742662,0.0857066378987102,-0.0110193838959381,-0.146876420707165,-0.00132090464987883,-0.247563026844829,-0.10206443513094
-0.0722756905711882,-0.101829116629348,0.234295573103562,-0.0797378938955044,0.273174010357524,-0.103638145075104,0.0327259802933132,0.143857338770894,-0.285465819573559,0.0497533526032191
0.0604098000434352,-0.297765827654641,-0.139906223197231,-0.0861166583917871,-0.0301623382750256,-0.329441010779907,0.12773134087809,0.277898870653774,-0.158482575502744,0.193573861421069
-0.206628553815535,0.0934684000259996,-0.227914026598791,0.220323977976652,0.0130960294718705,-0.0762273632516834,-0.116027354312032,0.0372872790548005,-0.0986966660456855,-0.0864692716145815
0.245979357416188,-0.0408738866999425,0.148219162056259,0.250725637781302,0.0926498809663353,-0.0946689252539669,-0.200229045393506,0.149249963782469,-0.489652402529272,-0.347717859677108
-0.105187739334004,-0.224741248895409,-0.147314199211955,0.0266548549451193,0.307477838969129,-0.457976062176863,0.00365616472098433,-0.134963193169136,-0.0690481272970887,-0.204278663712982
-0.242437236606262,-0.0429395730644711,-0.0656566388035624,-0.226319339465546,-0.122304343867207,0.200744456942286,-0.0512632194841783,0.0391666818254301,0.249632815735933,0.086248633331516
-0.074865419572561,0.199929623710136,-0.465575151969955,-0.0456111230080476,0.294109917434472,-0.0503336046621961,0.02877046232905,-0.12922149322334,-0.131071718586209,0.450038408408455
0.0412599365846259,0.227096628535609,0.122315237773699,0.123581563242789,0.259820466372863,0.202582542535419,0.124632204884082,0.335922863316287,0.0412914876018844,0.0124839134947558
-0.166623311468442,0.0961774630057329,0.258104972727652,0.00280506340185025,-0.00637214052915568,-0.045306585792258,0.285025710327621,-0.294865733058598,-0.096833009530804,-0.00993898282972123
-0.135279215074,-0.170167121841291,0.100007921777837,0.0753558584916919,-0.323243680522885,-0.0866291136922974,-0.184723017005707,0.287085886357693,0.142885672634939,0.132034355230923
0.0939940387367053,-0.0932919070190184,0.326880089084215,-0.242081694288425,-0.33686781285921,-0.0840978013680828,-0.134858848573991,-0.273574253160017,0.160772542720615,-0.171981804123835
-0.326680079666651,-0.0515506129407297,-0.354718636830746,-0.0404954574355352,0.112608111696121,0.131311050306928,0.129413831515198,-0.00530102034062186,-0.134689913370714,-0.101676031725268
-0.212108173019637,-0.269188093886778,-0.00994691733809937,-0.0761559033184894,0.397984227066079,0.0492719865572811,0.16031188824999,0.0477155127744086,-0.143601366307313,-0.130393745368156
-0.151378331973985,0.110661921163346,-0.162483958674958,0.0843969414299042,-0.223142403046648,0.00703778821653229,0.151472719295238,-0.210792608343935,-0.194880739250333,-0.00611778234382457
0.195858698110088,0.314113655265908,0.0742298082229486,-0.165886594633977,0.322085508280492,-0.242475942556954,-0.117345838279542,0.00418117872189003,-0.0319397378430312,-0.0943752529594014
-0.297280137759716,-0.258095321617232,0.263826615916342,-0.037065576526452,-0.0189479538725005,-0.180117857030258,0.278934030677161,-0.2289339305347,0.145652371269627,-0.0670334605111216
0.189589608724523,-0.17522945128572,0.168708559372475,0.16871387748623,0.170294306772152,-0.0312556306034254,-0.132735946456332,0.017152352455897,-0.00826506046316935,0.0356890603366993
0.0747260142099253,0.187479560397579,0.101452286387704,0.106768355016264,-0.116446978194255,0.00652434154031799,-0.103892578977263,0.0327734145307566,0.00560555863103053,-0.0623413657074082
-0.106765533122109,0.154490315536943,0.22842252923315,0.10028467761112,-0.0567451143689977,-0.262647615777493,-0.0563660187535086,0.234943733454624,-0.0540960244617155,-0.00885090764850386
-0.0544181145691241,-0.26759178143413,0.223302517306608,-0.109560270884002,-0.214553662590367,-0.0648301605793548,-0.188456294042299,-0.226214325098176,0.167272687390486,-0.136386117071094
0.184048879106045,-0.182788224895087,0.366288134931088,-0.0633387585220897,-0.101544861101184,-0.213892879387824,-0.0402373074757202,0.162533010165752,-0.147628878733842,0.0844530788782465
0.0394236305559014,0.229791519501966,0.183245441117066,-0.0768358529627793,0.133118643505961,-0.253524645277913,0.167705646414186,-0.306979585841651,-0.100966771284082,-0.252213109914758
-0.25438664348892,0.11661858749917,-0.0115157803472218,0.00159757024593463,0.0721435137500935,-0.00866167258824753,0.152413634392456,0.177308175579191,-0.0373758488207618,0.0281327703640627
-0.0451504128341038,-0.0110273456179364,0.0434415793136237,0.0366675097149274,0.198801034279296,0.0140700886363037,0.0431407551822297,0.0710356689038534,-0.208103600029657,-0.0914723081649742
-0.0352895018988216,-0.0846480623740099,0.122845505633663,0.203470125994649,-0.270828565690282,-0.0328146540565172,-0.213060919501577,-0.0692649479222695,-0.245780578140414,0.145812181025072
-0.0461085221442831,0.223603452179252,0.0743938016413082,0.0249557472844958,-0.175012166336193,0.264057780504399,0.151023791553655,0.106428385223892,0.15886108329523,0.0447237431502393
-0.0910583960744949,-0.157300426968735,0.00363271273995818,0.117221629884911,-0.0831931762283009,-0.0525988859746631,-0.141593091033932,-0.227407300335151,-0.190094824155949,0.0645272387978183
0.130233332921466,0.0729216877353007,-0.0919080404839932,-0.0308382737448989,-0.156257349339865,0.438780420780159,0.0182913942392425,0.170970310455999,0.00953481156989278,-0.0937659371623561
-0.0133201700118893,-0.04316119968824,0.388233318067654,-0.132793614865797,0.11819153055946,-0.108865257225167,0.000337481562512265,-0.293284831528659,-0.118421735228543,-0.136561685821362
-0.191222883745729,0.242026451771588,0.0143215385155353,0.0339496286028365,0.25223382544338,0.00817113467723623,0.386814926192581,-0.225619302846353,-0.0298590468946744,-0.0116036446561925
-0.0557197157001066,-0.226099180966119,-0.332387288424312,-0.0540173207833029,-0.0245698681953137,-0.0676121187714498,-0.049426954685774,-2.84084058534917e-05,-0.0795185489160202,0.482572627911139
0.0571376024390662,0.157448919832464,0.013820570647108,0.00498806440832171,-0.150995465933123,0.19104027563519,-0.115119055852936,0.129775000410644,-0.103512635619493,0.102647056823645
-0.205505641374961,0.190196536970195,0.232354715411705,-0.0197433130420543,0.221688740851448,0.105150121811076,-0.00759223162343313,-0.226570443648667,-0.296798615297704,0.126148152711404
0.113835342084101,0.343020881081657,-0.0224702691900924,0.227966347072584,-0.0309812863461873,0.153240162469084,0.102523844207071,0.375615709751577,-0.118964556663062,0.328577055302826
-0.194908728484763,-0.0291235607317058,-0.033154000736623,0.175342900647309,-0.000781515718515902,0.100737835039937,0.178434537841796,0.0710258214560919,-0.0400624472319682,0.131145928545332
0.161751150010496,0.334037789318832,-0.0859492578476217,0.174117556257587,0.0292485899180065,-0.131941843618305,0.0340937389074547,0.142141279079592,0.0256813205730366,0.17122211568313
-0.340511117924098,0.134599883908381,0.174194669536361,0.0703990495553087,0.113725695838004,0.165960555763309,-0.145269977158381,0.0598325516273226,-0.300172783668498,-0.0288254805507097
-0.057844760612256,-0.345270220907384,-0.0536532446399486,-0.13283549020026,-0.0129742991866658,-0.212955523237146,0.21026919910077,-0.0247177577958299,-0.0315429347891806,0.114652137548897
0.167479362901501,-0.0555432767224997,-0.0527317717827132,0.0307766924310587,0.252981708185046,-0.0118931879675916,-0.148515392626015,0.189619569384267,-0.139353823905151,0.0247749394899922
-0.196534163474277,-0.104579401870813,-0.0296999187432859,0.133344549494605,-0.23926620939916,0.331632482377188,-0.324576151135746,-0.348985925204071,-0.138735777924038,0.0342004260515579
0.167105435336287,-0.0657233713861902,0.425908123113164,-0.134387679900868,0.0581461863684884,-0.460239450389837,-0.0130790825011726,-0.25508116968686,-0.103541838730551,-0.196660336874244
0.140011722247004,-0.229327839540528,-0.280048738988055,-0.339673891716986,-0.00602871119790608,-0.0103617807199047,-0.220646290240303,-0.0941564032181254,-0.186083955017891,-0.303650003044484
0.0120052225857781,-0.0591615969234249,0.047738076859317,0.174576156006677,-0.0760286183994762,0.0655547873420542,-0.0544609455454407,-0.0623306936796063,-0.13247044645571,-0.194110374078999
0.227751351658565,0.124133941431407,-0.166860733051069,-0.139939701325821,0.0564713464066083,0.297356511069869,-0.178039884155055,-0.014609480519,-0.210634932911993,-0.0631683344932357
-0.0901662574175354,0.298216481066352,-0.0570476696181119,-0.20759735517304,0.0220577114427264,0.00405210164490258,-0.286570271649214,0.115084963155828,-0.00104300805787164,-0.0813773184442263
-0.0596423769190351,-0.0169252883754261,-0.0249740346302144,0.107056370922471,0.0225758584561704,-0.0449053368292215,-0.0150114200988886,-0.195498007866667,-0.178806437115984,0.088169647123756
0.0281551381113966,-0.0910193467174052,0.251554284676203,-0.0420712522479407,-0.16952595026007,-0.0996503253859127,-0.133959633996666,-0.0039283658460618,0.189892581837474,-0.0533039786264364
0.236818946055839,0.0477217931337592,0.26827173298485,0.172538991931726,-0.087999738254791,-0.0885441759188776,-0.205594321471285,0.0421939344794933,0.0417139519369036,0.128344065206929
-0.281784562264795,0.143710364090914,-0.0256658510837253,-0.20422414457704,0.150275622796844,0.0030532731975787,-0.0839259675172521,0.131664286018254,0.0815447990479319,-0.0594172009419374
-0.28522469884026,-0.1367702511083,0.0350638293197957,0.240171076139814,-0.028934919144242,-0.0787927245349363,0.0223816674801398,0.284943487398628,0.0300144222590717,-0.12144517600459
0.411748256309163,0.0781869481104735,0.072839605783119,-0.0076672178748029,0.144108820024588,0.217024300522515,-0.254264296394942,-0.416028677676776,0.131444214741752,0.0691118279328691
-0.273951995035413,0.0468474109759036,-0.0406370266737385,0.213036404303631,-0.0699413515353571,0.0127873149359755,0.0022175208411585,0.00536849954352591,0.0208391605676014,0.180678739374693
-0.420725947491705,-0.299974445261535,0.0855629870813438,0.00151496744894055,-0.100923954320417,-0.290159760347287,-0.0130408263463206,-0.104618479209057,-0.0114915230706534,0.248020203454874
-0.155296062142151,0.156350948900123,-0.31618901779523,0.0965811424534687,-0.220283575387176,0.178554958749601,-0.225760733873481,-0.514581844348693,0.0346811896280283,-0.245490828900109
-0.0957748388310889,-0.297332788355665,0.0668910238458139,0.251837279834365,-0.0755388620740008,0.215269699366472,0.141788541536124,-0.247564970784699,-0.111690640523003,0.0649442997792817
0.251074040456986,0.394466038431038,-0.369216331134908,-0.013655296836631,0.300905062417674,0.072589532314525,0.186232213011025,0.0763896280725064,-0.132353250581132,-0.24199154682524
0.0268109567155182,0.163057579355879,0.069570164655903,0.141274183083571,-0.0246719793296479,-0.00137621940119358,0.0435971484359015,0.256663386037313,0.174114748814609,-0.0274372230970973
-0.289560312404342,0.103150024147156,0.15610402658307,-0.136142029979497,-0.0767559419821464,0.221127480697657,0.172464563637734,0.0663721383258803,0.303986443544957,0.0096329516293701
0.136763017134405,-0.249343313341391,0.106572409103344,-0.0488706790884495,0.283662668706532,-0.0849524059759192,0.241834687677295,-0.0452401761950251,0.147432656850839,0.0769991925497765
0.0126144253129319,0.0593578889355151,-0.0473970893195069,0.294764000895739,0.252835468373289,-0.142239389388489,0.0974147838530645,-0.0853994576238957,0.0852031152724642,-0.122769722123392
0.0630322458208195,0.0610286733708846,-0.124750723439774,0.0684956248111419,-0.0851203215950285,0.180544086333103,-0.143509026843993,-0.104524751122981,-0.120546356624569,0.262127865549248
-0.232294126488424,-0.192906741143121,0.0513543952974277,-0.14737795825335,0.300534416606812,0.203649021469979,-0.0709254765118801,0.0865046522156067,-0.299562313224115,-0.012796262606954
-0.127762445018456,-0.090353146008844,0.0261328496695586,-0.224806719262933,-0.127671958676845,-0.0514268173436312,-0.185642180303252,0.0513090859771949,0.00762070985085261,-0.0867577307390409
0.0888358046949523,0.238273442074928,-0.253235789962068,0.34266509765981,0.261247099760714,0.356087917846445,0.132552554140366,-0.219208601203782,0.154129939121036,-0.130568159290014
0.17031069761767,-0.123735909259999,0.170169271678556,0.0185527591149712,-0.1489483361612,0.0441062189156558,0.156760996128545,-0.0355511572331526,-0.172153128878776,0.105273549207339
0.0189511844290441,0.419041939641387,0.112176252286143,0.196312090182541,0.0468199641492607,0.133250819362573,0.218169458691799,-0.0602003685262289,0.160567337950805,-0.0860638099026443
-0.11946666510101,-0.20258441106043,-0.347063069500529,0.0926997222423073,-0.238931404979027,0.0889676463403828,-0.13516065753,-0.032160838726079,-0.0278351647472534,0.31530106172511
0.0609169447535669,-0.072357739761909,-0.298679524634617,-0.173595171740461,0.208944751565693,0.0718764105345427,-0.185089596360098,0.00245105293761158,0.34005374584024,0.210627777425184
0.0718505309022813,-0.126308030912648,0.110564516876941,0.226176364786502,-0.318806189642463,-0.0939768307301798,-0.111011417956093,0.0242866232523631,0.125637124138928,0.197198414651766
-0.0886622115489773,0.0140220246909095,-0.0766663354726284,0.0363753977338152,0.14370835158944,-0.14895985532768,-0.347780923156721,0.375467869287534,-0.12899519330449,-0.0328677153745198
-0.0616377009444382,-0.302394328654987,-0.332415639545088,0.153342224034922,0.0414333087699017,-0.187681564584134,0.244593121356333,-0.0489110214825873,-0.147317253245773,0.0414468715655487
-0.252523039427413,-0.0077430917336728,-0.0516010036235318,-0.0667090032478388,0.0756278726267196,0.0479831606980585,-0.00500952775314023,-0.249884296418594,-0.00546234056921505,-0.0621345316984134
-0.112457435776223,-0.271970574022942,0.205065522568745,-0.0597219975240591,-0.101220494118287,-0.00844353406582433,-0.316177616338469,0.117155197955046,-0.0636707168541831,0.0798374421059851
-0.478401111184935,0.117644023851499,-0.0751568956169575,-0.350765986715849,0.00638755520289693,0.264095893305953,-0.207388038653214,-0.150647297747789,0.42407371073913,-0.111408966071852
0.196483717509367,-0.22340448585304,0.24493029207564,0.0448431776116354,-0.0359222600081542,-0.081961372849097,0.188107696786147,0.0171523401024978,-0.162276965004107,-0.397970339457192
-0.0917939788630746,-0.0284906115884754,-0.282399153258425,0.265391158325283,0.0717492916660296,0.0383363957527657,0.229787889940863,0.400162922480872,-0.296154529470453,-0.0285366255056377
0.068703459395403,-0.12983671937693,0.112192079926643,-0.220874191476937,-0.173003997541752,0.0234440211632425,-0.0898846989878373,0.00636777400875166,-0.103736970080227,-0.0961417278146831
0.282779313877608,-0.0624212520116258,-0.139887860792889,-0.0938306373128937,0.314309577241541,0.367616389614476,-0.0848528507120343,0.292971744011587,0.173887860611525,-0.273837867606487
0.0199887731945006,0.0664157992894396,0.118774647329125,0.321819574876401,-0.129249585263956,0.0503262984932989,0.0857771713551777,0.161431920215914,-0.136785264298547,0.347747811401121
0.115715160556776,-0.104617665176405,0.00813056388939057,0.0845548205476799,-0.201399743010482,0.0404647522884248,0.116456959431059,-0.047729615616339,-0.0198047540656401,0.00012722914551675
-0.178497488548803,0.0311134433424474,0.250172710730052,-0.00629078132080834,-0.0412709346820328,-0.0572691379822116,0.09105168334775,-0.195869162958103,0.261792892921689,-0.124251520645769
-0.00719244855224747,-0.0833985073945347,0.122930260839761,0.147084843931621,-0.212748038733022,-0.0841948967178729,0.0654773857880009,-0.035742795463184,-0.0835575508849943,0.115051657179171
0.0617003845542066,-0.262617968937988,-0.00133913820628849,0.110798199645437,-0.0523848293350303,-0.297394311265284,0.00427549218087312,-0.00528121825401466,-0.0985526671327051,0.229929070370351
0.0640223350623072,0.141263909903914,-0.226976115833032,0.0803092095613382,0.0718812769800792,0.0406390294772309,0.0867270434936184,-0.113536199454714,-0.118616720662743,-0.0922116207396421
0.195345611726447,0.0382940602401616,0.170576702489722,-0.0160150343775911,-0.236838192191515,-0.0947785719990033,0.1913484230352,-0.00912249078745726,0.0965086239799243,0.0904421231331356
0.174178754351296,0.0228344066378128,-0.231280318134024,-0.39005591513382,-0.072742933053845,0.379894039590737,-0.112234818862105,-0.0856712118371006,-0.340025447054997,-0.0628822382151435
0.156575585539849,0.149852295574272,0.22133840264268,0.0305438616858356,0.0854587073053362,-0.0775707718471991,-0.232579011820613,-0.0126584065718924,-0.372071335428316,0.435083337790289
-0.0548636005847698,0.114514838583011,0.120698932505128,0.130852051662094,-0.198592550105609,0.075457473982372,0.025295664140577,0.0723268117738038,-0.266130187549559,-0.205647531200933
0.0191672599840813,-0.345705551747385,0.325320435977287,-0.268022610129463,0.0298800322181146,-0.171318441185113,-0.0827376899154836,-0.077177371780507,0.123893749446354,0.12876537383733
-0.141489127065301,0.22582180746112,0.249313272703214,-0.128023843086659,0.060348848428099,-0.0040305322553391,-0.264623443364932,0.0532558034736384,0.0327422326999123,-0.209736809179759
-0.156271755944376,-0.12180669672297,0.00706892152316246,0.0148215740446628,-0.0218257983994682,0.151085271831729,0.0227682878285007,0.202547568175159,0.00472087552051989,-0.233630099829127
0.133347804153647,-0.127979198968814,-0.0836479791445798,-0.177916987625953,-0.32758795083724,-0.0122678452875284,-0.0918728904322736,0.07452551430112,0.0326106082158562,0.0921095878647447
0.166594431736389,0.177420695425005,0.0478488597679788,-0.185481391879794,0.0359367509269935,-0.147842305709065,-0.0129411338375364,-0.109334874974024,0.0900545302629051,0.0303821113207817
0.173649255929002,-0.0271437677074839,0.209890631053066,0.125779333435862,-0.0324082774126672,0.234375426637843,-0.189802141364452,0.0773253872917719,-0.0818081803331755,0.146745057059213
0.334413883519542,0.217892197744144,-0.203019627488338,-0.101673990549154,0.103118676436083,0.102026535575943,0.0608588900487184,-0.0454268916548484,-0.21367477887352,0.145736112574668
-0.216419296691173,0.0708410116946442,-0.318398759822882,-0.109855839913057,-0.145926618410805,0.157980949228734,0.175781199097629,0.299028427532517,-0.328197917888187,0.0641570270214646
-0.0659002042351271,0.239001211404113,0.00812421273296,-0.190403451347877,-0.148836036191143,0.407710227599209,-0.211570312389329,0.0395885811698308,0.263632376452644,-0.0528454249687896
0.228258848821818,0.249179529703866,-0.0878614857014388,0.13525628238687,0.336327954309766,-0.00548383883412429,0.255127875767754,0.15718641889318,-0.149029865961026,-0.203816273099391
-0.220894044019154,-0.25633714073399,0.00775558531078873,-0.184193395864908,0.185169464046997,-0.184315285932001,0.115226359763458,-0.163597976494334,-0.141435111403931,0.0462789757429133
0.111758643797338,-0.190049226701817,0.438225153108791,0.0750706799357538,0.0855349837264503,0.149491751034185,-0.108298114301512,-0.155654882343382,-0.0680164682110484,-0.000361498008767308
-0.0288257841930343,0.152049089855573,-0.104810889231759,-0.15928635846131,-0.140388488910389,0.0396343472845551,-0.116327183579817,0.184272512736516,0.071437173246624,-0.216103604938159
0.0182784102738957,-0.107637769951527,0.311797016140025,0.0113109583400343,0.180944566333333,-0.14262450530168,0.118920351738366,0.254141219076442,-0.334956482030691,0.0467105912765198
-0.221618630432755,0.128831549313461,0.305198068731558,0.232063762254882,-0.155751528603215,-0.165900555357895,0.133597770472118,0.17689919252967,0.0749777229314888,0.0808832896489688
-0.254513589681785,-0.0653473048244045,-0.0699887611626275,0.0201060268528823,0.0224059396791537,0.125894174148689,0.0480777477182821,-0.0875446869257449,0.0592036523762945,-0.00926090059598869
0.0382310137942971,-0.186401805426512,-0.0208448301736742,0.0636205050583312,0.0123457306601617,0.0751393467000079,-0.0483094933990013,0.0566629032713259,-0.210347028262155,-0.0229185594965114
-0.0707856840127481,0.149516397140647,0.0399761507134462,-0.0932187561022161,0.200901499325606,-0.0544572314733501,0.213632627209928,-0.196796724316664,-0.14743960833258,-0.296003781062066
-0.176746616307764,-0.186467549386511,0.0269131120466264,0.0836149555030403,-0.0336440778623645,-0.243704429569825,0.12752538667109,0.0778140366918324,-0.00168113701146295,-0.260018873535938
0.0768515094354508,-0.211578045392084,-0.109997226805806,0.19688844393464,0.0800003137332217,0.0676825904916248,-0.0821107462947964,0.0154329998299593,0.268260307572656,0.173170582693716
-0.0464098308367432,0.0443745370775265,-0.11602367231691,-0.249703599927167,0.0275612158851548,-0.0573032446204674,0.314024858270329,-0.0551450149374642,0.260686929280036,0.192404364282086
-0.222220828417209,-0.31792655077416,0.30835547799495,0.163113812397697,0.253764730936939,0.0130950853421969,0.193873227991505,0.325439088954639,0.193810484369133,-0.0196963553736951
0.0585198257157358,-0.085833901982308,0.192149807616218,-0.358050218347391,0.296933565387785,0.095366109326629,-0.285790576501985,0.0586256477795473,-0.332278201361649,0.268611195122917
-0.0531556091310324,0.293737698621172,-0.127432451126603,0.0352254912048511,-0.121913296201453,0.0270908907989145,-0.0042946059027337,0.0956551842865334,0.0759552428662227,0.220260517089076
0.27273675824167,0.0728203031057146,0.0197794947078009,-0.306979899554199,0.367969160273672,0.00827385628704138,-0.233831165994995,0.134609896229133,0.210654638953694,0.103587482933701
0.115788750045044,0.0381242322115404,0.271768506732734,-0.00651885386279518,-0.123627199243778,0.0628180254894106,-0.0311201757250803,-0.100473392171426,0.145938386272837,-0.194567690297376
-0.267682784222011,0.0244857919681991,0.245986634012719,-0.1839392227757,-0.243164776287745,0.235134060283201,-0.17053078595021,-0.115383287332888,0.143103935779654,0.0377528234743218
0.183756392972559,0.186371003745052,0.114686569620078,-0.0229392268399206,0.0189147766286466,0.052901449132113,0.211143629157329,-0.226001315915276,0.0504105593056036,-0.0692811620040347
0.0622128172342018,0.11510106074399,-0.0738863417512534,0.1029204515378,-0.00170070532505482,0.037566520434303,0.00962410521237399,-0.0186557002402009,-0.0311467769390438,0.140421767803414
0.266895093674774,0.0805473372494729,-0.216911177914839,-0.189237709521766,0.14259062777606,-0.178015133859909,0.220596007584812,0.0124459426028024,-0.21860899548489,-0.0513481555627984
0.0185819589100952,0.282179914432298,0.0220994477383544,0.0390467796629785,0.0688784671888769,0.0610697325598442,0.138345679627184,-0.299316922255422,0.0695133227968044,-0.248237360757171
0.147932904087118,0.00925323629336903,0.21263764647052,0.0510086592047841,-0.0483821279037474,-0.206689047418328,0.233308700580767,-0.152112238127816,0.0919872855672623,-0.196524887165946
-0.293452742642487,0.310818761191265,0.0106119193748827,-0.246266471731426,0.256629086344888,-0.0997391075389718,0.27481986219825,0.050970295572162,-0.141208792547391,0.0390220643204064
0.192785790742093,-0.198891064513726,-0.0176113014271721,0.0573253260501176,0.200064112877147,-0.176119110846917,-0.233581984114538,0.0254449240693969,0.234025804420624,0.0863683200436411
0.0305073663240324,-0.063627353655759,0.142519703433727,-0.0783900008761969,0.167700382213733,-0.0255660733605378,0.0200087144232769,0.253401870329107,0.26294479122263,0.188068448983025
0.0924731288884163,-0.0208428814328081,0.0304095635016134,-0.134321633560069,0.132901629728086,0.0673954255594778,0.156413956938375,0.0863150959463062,0.312212270914995,-0.169234930593256
-0.231226439796477,0.0798073747981267,0.197213523247531,0.112560305906782,0.383315336446604,-0.0570453926449953,-0.241361743864543,-0.0926424323008898,0.219788081919757,-0.0395910763155321
-0.0278482204484614,-0.119617993672966,-0.018364797296241,0.447840425651887,0.225039756349263,0.0324675849147478,0.495964722984883,0.0214496456451488,0.0745991610185512,-0.380498026532083
0.00266126383441053,0.15714100549258,0.00138490575260352,0.0997629460879763,-0.197805705741893,-0.18332107578327,-0.0884063579337578,0.112047867448035,0.134607289591878,-0.193562652349454
0.0796300698051873,0.305034589119312,-0.293402453822473,-0.269404599299964,-0.407700265685572,0.282458604316028,-0.182211367972693,0.410436196884636,0.0347507750760821,-0.0294664746336177
-0.285033740438504,-0.256147717644751,-0.0231277638984592,-0.375187399059048,0.107451168455904,-0.352149642199973,0.314420635515932,0.163667842425397,-0.179158948403718,-0.0773117670205693
0.183869952601984,-0.107145494875732,-0.140757032847267,-0.0971405048539194,-0.0904595708575264,0.163232701911897,-0.178988674975597,-0.0835880090635512,-0.0109648682308201,0.0217104965811128
-0.0782446229865693,0.17478035713826,0.119499982017828,0.235251443561895,-0.252495211898821,0.0858868236980138,-0.264749102117597,-0.0888364665635841,0.213731391737933,-0.110321044930412
-0.157237691264115,0.103245840781422,0.0556583418180827,-0.0435999553746746,-0.00489135401607153,0.250515855133863,0.232047257969104,-0.0521305932931067,-0.274537373918054,0.199947198202979
0.0363473883410721,-0.0626540792028002,-0.267271537613355,-0.204047047576423,0.114233272594844,0.0301619621623545,0.0880775611861128,0.0127860668990462,0.160379826975263,-0.147310664613196
-0.138422576974111,-0.136500648066232,-0.131795262606596,0.181277728447866,0.0611922707854554,-0.0349618409919359,0.0878176273086476,-0.0267056333312482,0.133834977778085,-0.220104492575084
0.387938506542181,-0.110747534726596,0.130942958837811,0.0641033249676431,0.172354361186253,0.289746201817921,-0.0114397409375811,0.334607888594447,0.175904471316498,0.0152371357826839
0.0241282566939337,-0.21424863205999,0.0801447025246334,0.295286693020787,-0.116115788437758,0.0548666482963227,-0.178495292983561,0.174662080661596,0.0551078876330274,0.152069106220543
-0.119609924097659,-0.0429717415469834,-0.0918985815802807,0.168119068691662,0.297265754052207,-0.354389855731358,-0.17350144757177,0.133938075479739,0.051980760613429,-0.2845805640812
0.0610582955943474,0.00267537154060977,0.210751969748388,-0.0865016121600493,0.163831609039474,-0.0987162620164988,0.148442874248137,0.0727221593798295,0.0717685194025985,0.0474866731921083
0.264919102915647,0.375522304512669,-0.201333789467149,0.127848807278211,0.0479165998959025,-0.196985433459001,-0.389210060995343,0.0545431741272648,-0.0402808121738585,0.11501815689265
0.032073108506566,0.398059207367959,-0.145383610215944,0.172446072409631,-0.019660081947838,-0.0279691815955172,0.0266443877282603,0.213100523389008,-0.331345925912026,0.0676170228436678
0.188226700486096,-0.00500030492851254,-0.350004683639555,-0.1231351041124,-0.103979222232863,0.00955645378743584,-0.244531364699025,-0.142599814896828,-0.248684022070102,0.0736637212623288
0.0425199501295241,0.227446753828806,-0.20041215532304,-0.131812574932637,0.17401192897539,-0.307345126649262,0.159324659675075,0.0732786082683916,0.110445072448389,-0.241361970235505
0.229988725698649,0.208843108867029,0.417362626150332,0.171985140665505,-0.129816304108257,-0.135575276564142,0.0441746491830505,0.174707158676988,0.0358727012317814,-0.00937038978736683
0.20858986782641,0.252127036727889,0.0215171668866526,-0.0656133053648075,0.0768654725844818,0.103880776227792,-0.10723213187599,-0.0866241069959853,-0.027769040084866,-0.241405322691765
0.128835534775471,0.324610831273848,-0.0213758507590141,-0.224156797320856,-0.124374417883595,0.206121694065809,-0.0691046874862944,-0.086453473759586,-0.00976292749938646,-0.0808451185324497
0.185300620484658,-0.304056552642472,0.274688955026263,-0.254365537806285,0.00573974609841948,-0.108799761742279,0.138866690828064,-0.0682397507024724,0.0911994527249857,0.0760178878648286
-0.193044154458524,0.122597514840552,0.112762850186106,0.0131388478887127,-0.091138729498982,-0.171024474693192,0.0335181366629215,-0.353420326521829,-0.259190937992251,-0.37365255145139
-0.13104434220937,-0.100398202743081,0.0235567040728611,-0.336863939512938,0.227015770325033,-0.0864035559892241,0.270291445576123,0.0343858763729389,0.106246084197448,-0.176087282765218
0.0366089052244763,-0.167368334776099,0.161967665047356,-0.0497468084023761,0.265558787674753,-0.00915612346044471,0.0161554581831475,-0.0880722471219882,0.191328457699242,-0.0806343545042787
-0.0719580104155551,0.136794560200697,-0.153656320707991,0.153161239311388,0.101654084340383,0.00953840462406823,0.0224393194389745,-0.079145155135189,0.216001988200214,-0.174844928848058
0.0327437376892815,0.0221360563028695,-0.336177496136166,-0.0555307469111357,0.190905675627757,-0.0935728220516148,-0.231258012001318,0.224565455701122,0.0379923435139002,-0.217731594143441
0.18400649326826,-0.196131128873198,0.00214550845350998,0.0086849057858656,0.223788354183385,0.367627504859382,0.0624341462517475,0.154287236334267,-0.172575977971889,0.10243227143648
-0.12948375014081,-0.0319857462246375,0.150950239791141,0.0594359819053323,-0.0453534945976467,0.223181581058677,-0.208708930803865,0.221305756361673,0.135241817907878,-0.10184000590143
0.120367716050093,0.217697696474815,0.142400037926567,-0.206776495339245,-0.238370765532512,0.129054028337871,-0.143326125908534,-0.258082424553362,-0.075877020911237,-0.0805447418574813
-0.0571527936947066,0.180423771519539,-0.0718346854083083,-0.285160640894125,-0.203778384700834,-0.242755639218549,0.180422297509847,-0.0366108903171305,0.0294814012156801,0.336568566049353
0.106174856716865,-0.199330735267921,0.163150381796479,-0.0523961191293278,-0.0658055483070244,-0.0771067353381728,-0.490453280437432,-0.0317064817072917,-0.174766905582745,0.0678339351417815
0.0937356400026531,0.00640660817667177,-0.225599752469418,0.0935739076611068,-0.21083018939718,0.159441971252239,0.016708809691692,0.189025976556419,0.142151655290005,0.0180805928317871
-0.214389620202045,-0.0754948244314442,0.0854678074944313,0.0203542986528935,0.0658313436332164,-0.0636801969005296,0.104932646124892,0.18230511449547,0.140104290131043,-0.0839167927691095
-0.167594913105292,0.00534726510148048,0.136360723936994,-0.0432932538431441,-0.117248658946967,0.0585413353327804,0.157580160975572,-0.252562747122869,-0.121944308610958,0.0190049195375803
0.0740669755362678,-0.0495958169187289,0.275534794983626,-0.0717330611628051,-0.109871206500641,0.070206440181895,-0.121585143483032,0.155711111793637,-0.121687167327438,0.180087997288008
-0.179959818063321,0.285986996146742,-0.324513811172335,-0.139659707188498,0.0077543944983681,-0.125021950900384,-0.0318160501501032,-0.136795704247135,-0.215845822565454,0.227112962404581
-0.0768786976467253,-0.0226676800360077,0.0108152785914064,-0.0323401991371733,-0.0913667942564992,-0.228528855824477,-0.0760241741720214,0.140598698188795,0.0879727637103003,0.138805957894167
-0.017816190366409,-0.0761708197831173,-0.0542505187626698,-0.343015072759091,-0.154072815311492,0.376330971586919,-0.332682917003892,-0.16077344738784,-0.0574787377464429,0.164576565825338
0.264055908847968,0.042459529547964,0.0231839644044396,-0.000110079052250911,-0.389510867834577,-0.12513162243516,0.0404134686071006,-0.0918410583264327,-0.0734591989229705,0.110968425044789
0.153199689731001,0.110863575151181,-0.122453464435611,0.0716046175361974,0.129863309052911,0.223220777722515,0.141114402027667,0.0179300818731783,-0.00254161937564243,0.198766825388882
-0.241558810306733,-0.0230204436683707,0.40912127075203,-0.383481722883164,0.0508292085868034,0.0827782572806938,-0.176570027659661,0.244735039710963,-0.239750222962073,0.10252317791271
-0.189265777211026,0.00725713756936192,-0.11269700801617,-0.301353885405836,0.213218016110449,-0.0458684742641653,0.0731418686707901,0.0140365264655362,-0.0895415915182734,0.0877842731422537
0.141174018536662,-0.249073810640038,0.00756757283317859,0.0029012734251626,-0.0329346508428061,0.0609876744067765,-0.0985102468084588,0.0348747332293298,-0.0176414831064429,-0.288360225370799
-0.00307437470333026,-0.0226433561401286,0.0875678732241358,0.316296354768569,0.238199689421899,0.194647601855723,-0.0798976314485794,0.0819764225106234,-0.176630005878563,-0.0627595167851063
0.0311778576676549,0.0221981638796327,-0.206819961123863,0.22674364567808,-0.241533562528621,-0.0988789931549013,0.149103514975399,-0.0660300440113467,0.0157818851507346,-0.185332495673862
0.0789622486808267,0.0623681432850098,0.0758997890347187,-0.135951849657682,0.163256348889385,0.0106234718297493,0.09313716544696,0.188584850415107,-0.00429349512591717,0.123614637759123
0.0372250883132303,0.0164513844519986,-0.338897591957871,0.152129707237729,0.0857743576741732,-0.111129468024912,0.129469551588441,-0.225077996805593,0.195066640431738,-0.0410911385135532
0.227434215001348,0.153236655521063,0.0803800280941722,-0.022970230255448,-0.0923437545937565,-0.0726997763903716,0.120814546675885,0.177614372932359,-0.17849148932603,-0.00987259591863452
-0.165267091627022,-0.0478520959914516,-0.147415663413968,-0.0559800021953368,0.110941866384794,0.0489535367790958,0.0197902689337824,-0.2059183854951,0.356763073950568,0.0571815651896951
-0.0435687854388313,0.129076826584804,-0.0179510921284289,-0.0591131589761015,0.0627648990684511,0.325975194154372,-0.143585745217345,-0.360007895851096,0.0424696997744191,0.14027759892913
-0.00876867649500713,-0.138003358771698,-0.0195764092059005,-0.275551409976424,-0.191282200753151,-0.0302754422942977,-0.231147749707413,-0.152710910694203,-0.0140940695624823,-0.237280207290543
-0.150443458010729,-0.214457147002059,-0.0609295489845262,-0.133782223679939,0.337709684100237,0.192100000993749,0.0900076564237695,-0.0531125972853676,-0.159745642429668,-0.00231554037559256
-0.0934848957980298,-0.237896592578751,-0.164434779478809,-0.250707441878967,0.224552876533758,0.218666805410058,-0.0731688180179656,-0.0169488317393673,-0.233040458830328,0.215210623000428
-0.0738690595771813,-0.0862432484130146,0.0438796737414179,0.169094630608355,0.174337992208845,-0.0486389524327328,-0.414627469886211,-0.139089595996484,0.088004653900779,0.186084278713641
0.155732763140746,-0.404030980596616,-0.0359503650369418,-0.332650947342866,-0.136508771848747,-0.0171473288962701,-0.263899106628324,0.276676206325689,0.112191182239317,0.110226106118972
-0.137777066390474,-0.206003932540852,0.146266341140717,-0.0609091255014454,0.130065129263159,-0.0653099010951065,0.313896777388111,0.330356672141327,0.212627173012967,0.33044810018822
0.057280562928148,-0.0804736817676443,0.0917586212978206,-0.163766361976002,0.271558978269409,-0.291310647272843,0.545764676923153,-0.0820918857512098,-0.226607993192401,-0.0992908689519561
0.237173160994622,-0.0349848622909218,-0.0729537370751618,-0.359121378175149,0.148711349582115,-0.0868889986143106,-0.165664978277951,0.0656734469338286,0.0848357790627119,0.371441147978826
-0.219846653437913,-0.0309025391227821,0.152469304035001,0.0871137348160323,-0.0923026227068287,-0.0214180093171365,-0.185411065528767,0.295897484016827,0.0976964831926248,0.00405584010620046
-0.0017145301201265,0.0291543862766093,0.0785087542940855,0.0930973750606821,-0.0565641127540668,0.0373174085388251,-0.0235776844117406,-0.00111403943045559,0.173892137895687,-0.340353368344998
-0.129254549545992,0.139381576237916,-0.00134641897110287,0.0569403602239167,0.0630611629003987,0.166107564239359,-0.239251165921573,-0.117209744643677,0.162944432109428,-0.19314993483421
-0.0348302369781229,0.00302629386742211,-0.102744052498353,0.219657329287718,0.00485489832066658,0.0136089551972036,-0.0557342126956856,0.0725142298150637,0.0917728282548861,0.117911842051906
-0.175941692876025,-0.150960557329294,0.048567280939192,0.296718660978969,0.126695008941625,0.379320343655364,0.165278135543456,-0.0365539295074583,-0.265821677836924,0.230976791616473
0.070189877202474,0.064967557542045,0.191736685390321,0.081264654124997,0.421579312084744,-0.02926164663097,-0.0612300753728327,0.388537383476476,0.0519749904865447,-0.129725341914347
0.0771528227939178,-0.0778303759177418,-0.0788740533401506,-0.0581301951011964,-0.388043223368704,0.0169192209985976,-0.0773252302833817,0.129699876085851,-0.0864721212919023,-0.0978140975832988
0.136185906547401,-0.0482318558305825,0.263584136174253,-0.165730360235849,0.0266286407913512,0.0640803473485894,-0.149782826964474,0.169502645215391,-0.0877928878336043,0.18868825742211
0.149939139345145,-0.234976624665039,-0.239733302029053,-0.0411905616829169,0.127663907482228,0.0528031216111723,-0.0391672892107807,-0.246196811035742,0.0954331073147918,0.204363376952716
0.067412857392965,-0.0209036276324764,0.223773853363564,-0.156663338191138,-0.0882295535099023,0.0125953758231097,0.0575275852114921,-0.156054784776724,-0.0518893296993918,0.00422020951697939
0.0676220719014512,0.405567063103672,0.111710930562626,0.118522398018178,0.0946117015236029,0.0812371997232148,-0.30496562124008,0.0484481808639054,0.0284608849164414,0.138996534264677
-0.309271868631992,-0.0335143418902546,0.0814685176362068,0.119594165269466,0.0267126821073961,0.156949478133211,0.0197691580931038,0.202830364528559,0.0181713125625476,0.105371741141514
-0.0248071672839343,0.0431792345013509,-0.0846088972992344,-0.157347739584599,0.0224840211817747,0.0683433052198202,0.220388757180268,0.116141851485433,-0.361770338565598,-0.0584328445269846
-0.0643847577976748,0.369943832926306,-0.0135262137717214,-0.0240772364988012,-0.0697089319052294,-0.176329663171585,0.0914549431935338,0.305770327564028,0.162604050014994,0.165687349822108
0.00174648613413031,0.0270042662064562,-0.114935777340668,0.0538351679976128,-0.0303680470698773,-0.158339666355799,0.231259268501414,0.0556774105400499,-0.0543017119645816,-0.136009108506927
0.0902875781888915,-0.09321717323479,0.260890728616907,0.152510094688336,0.00279415941191509,-0.222957781623477,0.0676697493547185,-0.21974631319653,-0.014207294722181,-0.19249657580695
0.161856237804993,0.0384247091928445,0.0612641556792467,-0.248090603898522,0.147472551494515,-0.0464072945204334,0.0768845862889041,-0.00766348700599354,0.176384309749037,-0.205459786254659
-0.0467236489847242,0.141295925938787,-0.224850368336501,0.111954731789438,0.0179063231575348,0.130010408274864,-0.0750571961750847,0.11403088418246,0.0240341298162933,-0.0268250382735649
-0.117720151500974,0.0591222462844613,-0.186362967287289,0.20979697655467,-0.114208490529978,-0.336987376879308,0.180704342463835,0.0232895379697337,0.280214547701343,0.00528326292341439
-0.0392096817433804,0.209635381827348,-0.0160973851436299,-0.0548392893286102,0.166123311130998,-0.0391057385754058,0.0276072118477332,-0.102889780526162,-0.261629578232478,0.123043368677584
0.201384832689569,-0.0240405493994979,0.128770858208549,-0.109844484971615,-0.320841275899954,0.146673606263802,-0.21697587241659,0.16650090211424,-0.108130027756183,0.0398022530533965
-0.171497414340567,0.127882159494034,-0.346440384510372,0.104127704235311,-0.205541163331451,-0.089939514642671,-0.242271555890945,-0.197486547899691,0.114784237609638,-0.125947861980442
0.370078808895907,-0.131098376930289,-0.159757357512226,0.00910962903819477,-0.123054835578051,-0.116256463481768,-0.0493175239088063,0.299476793909631,0.137329485718002,-0.0978328880764856
0.0446067498126706,0.37318674725627,0.0885614810158272,-0.116629037334817,-0.157254468550846,-0.219238964746055,-0.110743157023407,0.0610569740896017,-0.104169728067612,0.227983205407834
0.047298960726945,0.023244768933518,-0.202908061110501,0.0966069610289246,-0.139336740559578,-0.187740120102165,0.155776124008405,0.175384876244511,-0.344857116513883,0.179874149901883
-0.0240405939799521,-0.0948539203129425,0.173228360783263,0.0041838242218732,0.143196201522179,0.132630071521352,0.166867152180472,0.084478530006142,-0.226392533280493,-0.307838444165885
-0.0436040018927953,-0.228093564815552,0.060939117077789,-0.0546226788387342,-0.144977884237414,-0.241509767116535,-0.22035205104031,0.0676320798881447,0.231033866677878,0.0963309961199461
-0.367833466789789,0.0118842917762779,-0.178434217500564,0.0879257017119312,0.0129217125917975,0.0666467474149722,-0.113970819872763,0.047328539821135,-0.114351564174608,0.192230378667793
-0.13156135910403,0.0228222138817353,0.060415297447952,-0.176571406516705,-0.152524972133361,0.160597311245038,-0.0610120976258484,-0.176428246072737,0.15364849357392,0.242154961377642
0.100848432627349,-0.0425282583047206,0.0489398546668911,-0.281216716681731,-0.144282133465992,0.312958063294676,-0.312981432644448,0.0372926989857922,-0.0682245873566886,-0.104998657334063
-0.305581335425631,0.19376165853654,-0.067287483207666,0.0942381953847427,-0.040942379244323,-0.0142854572704296,0.0139000307945358,0.0194629989279549,-0.180796292492265,-0.0444786443781633
0.334369408232301,0.0475730448907039,-0.190635368522109,-0.00507236015294175,-0.417579350711925,-0.0679269635999997,-0.14426148566731,0.288000651884527,-0.296028776389608,0.292054922372249
-0.121927456718627,0.0968489504346965,0.0454747012824651,-0.134586623414611,-0.162974880739058,-0.098525235846305,-0.0805650604875166,0.112015290188935,0.0804715714541625,-0.0182775848472965
-0.0805741836296618,-0.0900156277309671,-0.0876649510940316,-0.00949545071705704,-0.324242177236169,0.370466383753328,0.0176390320647863,0.30874286154654,-0.0424863493621736,-0.196798820920776
-0.0637468675668403,0.0676655371774005,0.0751342542498708,0.0445435126318661,0.384691414293654,-0.0983208620666053,0.0266792543353713,-0.0104425464238663,0.0773648607841346,0.0618008084990753
0.0386103867154545,0.149951184072026,-0.18919043748504,-0.270430233939447,0.131741557740841,0.350021305676653,0.000190750404912365,0.312703848517443,0.139173063668592,-0.0554261903708549
-0.342400360666318,0.386053098024884,0.187854293922075,-0.127413420010564,0.159539151304597,0.0648992684603269,-0.0977820558431274,-0.045861998598558,-0.172181520503099,-0.129179590810821
0.477610113350302,-0.268563630500605,0.110665589907662,0.059657118904946,-0.323131105182898,0.103344056764502,0.034926936301927,-0.0859829818811694,-0.0597846784310678,0.0538677311189433
0.0212438030188785,0.0893420874690223,-0.284815404351846,-0.244042790500672,0.17100730717587,-0.21376575961096,0.293342252325989,-0.0741054712339028,0.0645745674733898,-0.0601641884012687
-0.0552294297634748,0.384055556573384,0.139007521360281,-0.050782387326908,-0.0512420214431257,0.138285492217089,-0.0235337122285451,-0.164568428125571,0.022233061341376,-0.281649589342741
0.138742571128693,-0.0396105502125525,0.21032853211657,-0.053529302874566,-0.0472814649970144,0.24309176949154,-0.175255924628463,-0.00933334800027235,0.00369330992320404,0.104509219582964
0.190857665204679,-0.0178178678761329,0.0435316615094204,-0.14230469811799,-0.313711997158324,0.0664000117454824,0.00709799745839149,-0.159144370987945,0.0754662111589554,0.0619501580376695
-0.156693632521592,0.154120003194815,-0.162959580598993,0.128765911685375,-0.305957002509449,-0.149363039721697,0.206399326525521,0.028033786568025,-0.0460498167702576,-0.348481827609041
-0.341646350480243,0.0291985884689086,-0.0244876466136125,0.339184216421754,-0.0661275808052767,-0.0502523149060139,-0.0903888445774224,-0.151192114498638,0.0017607575394343,-0.0344420458509126
0.139257709197261,0.124439718035414,0.035770560389854,0.038138107448396,0.279831657550826,0.0371472638161832,-0.0926051437017817,-0.215095171767424,-0.223703396485718,-0.0728136949263401
0.0569303000411674,-0.16981269954137,0.171857233124809,0.00970587527241055,0.0449828198868837,0.0532284064668316,-0.29792329361029,-0.134960499119851,0.134113633819487,-0.0469463347773416
0.0346772161122727,-0.194479600733505,0.25063516254117,0.13889282757275,-0.0261944317862881,0.20080830894259,-0.0502026668817315,-0.0764812932338794,0.0905708560922382,0.207197690444057
0.165512026620732,-0.151576238331464,-0.163044423534987,-0.21325603384689,-0.00874318352495858,0.134656203688169,-0.184800081976146,0.0502506407753774,0.230999933440565,-0.136623394508973
-0.0559225900063397,-0.210907278426337,0.234440548493691,0.191074172499638,-0.221414326360336,0.279877024049212,-0.0123242153491459,0.25966449609641,-0.090769339480198,-0.146449814741299
-0.170804699638495,0.0148483588528758,0.0762956578198744,-0.289962641524801,0.0485702399818376,-0.227479913792461,-0.213763934493598,0.0487450574970923,-0.209628419706643,-0.194733096491462
-0.0645279341841492,0.101152837948871,-0.145612143363238,0.0169117341348024,-0.233739516728949,-0.0745650459562504,0.0816047947799358,0.243039921604417,-0.107767455057319,0.0208173043040198
-0.1733295628278,-0.0121817257911928,0.216884818942451,-0.0561414150768944,-0.28545763461197,0.279829334257563,-0.0662191630216867,-0.0300505336425585,0.299480282905913,0.0459202197644478
-0.192951368245313,-0.121744401372831,0.033513260029504,-0.315831495826802,0.022407634579606,-0.390877904934622,0.213915958419895,-0.11853407649138,-0.295912819437118,-0.0577194976821306
-0.0546938580552943,0.135650154093765,0.023387733071558,0.00632014190234287,0.120985811625667,-0.050768888737571,-0.0771330171499889,0.18910774133985,-0.0596313131437309,-0.210959770716209
-0.0152676764703855,-0.0851106328538734,0.0500535761753971,-0.00491333982092927,-0.112537824596194,-0.167200099425131,-0.0261277017183806,-0.0110045063068009,-0.0672998122334005,-0.156279728287655
-0.3473339671896,0.233944170921973,-0.217011653318924,0.166384360498833,-0.0904026202253296,-0.0824251358777306,0.098552338854468,0.0652955240198029,-0.0572821076987376,0.081879373500524
0.164130011174319,-0.203165716103855,-0.00253821193536165,0.0713861887125709,0.0822240814148402,-0.111532845527493,-0.228573769054886,0.0575140197848896,-0.0542478898575716,0.0468106052342155
-0.279573282509622,0.0140031908505236,0.10918095473424,0.0294927318064802,0.191275784615854,0.114618654830503,0.180133606194793,0.123891641305852,-0.145089537345867,0.256006495794166
0.122748158234605,-0.0232344205666665,-0.181802898083415,-0.0294250171305187,-0.15533548078119,-0.0968572868530285,0.0528457738101204,0.107781928640941,-0.138011774726601,0.132976263681373
0.160996472606027,0.149029882007044,0.12687603132568,-0.243854193302425,0.154206705778738,0.0737514735289773,-0.219028148140549,-0.251981663435863,-0.113056172779114,0.219943274542111
0.150420422689259,0.221418680632519,-0.194590870661671,-0.0949234946910265,0.0578400493760026,-0.152711131821553,0.0828498111292927,-0.0824020707920074,0.0550746017053271,-0.151613747232468
-0.0585649411973929,-0.000274770277316394,0.0737878123285408,0.0979579980892657,-0.139263729805247,-0.0164920048535637,0.0038181491959643,0.0721066754388992,-0.0749741660896125,0.0115104954854844
0.201295021011064,0.0523391460732523,0.0242649131641617,0.04606578334628,0.118576472121446,-0.000234313151304194,-0.18232741906817,-0.210802227755204,0.290537080110103,0.0246696716135058
0.18739034320914,-0.247241831481706,0.0855495931507557,-0.195022972396082,0.299433792473978,-0.0135440137018999,0.00980268707321714,-0.0409356647434489,0.290609364044857,0.111491250739014
-0.265219456050759,-0.305402049363141,-0.1465176292966,-0.0242490057306511,0.0252680504139947,-0.147478766002478,-0.0858388587619707,0.00105744907051198,-3.54821594320098e-05,0.0865857402522789
0.164745834839278,0.0658599601790919,0.00304871325743228,0.0794028996306619,-0.10543878772775,0.0573450805786878,-0.261062716281819,-0.0881827005480876,-0.021915502708843,-0.0363845964079083
0.0481470559495889,-0.184201842395828,-0.165267846661667,0.130668456267314,0.254448958808348,0.0464988327573246,0.028429654812948,0.174186003562541,-0.0678400575983771,-0.103484871407453
-0.013034811434218,0.124599561653605,-0.0121368415357433,-0.171654306053858,0.126337135434316,0.0255729082459052,0.236157193018925,0.157481612131863,0.194695107203719,-0.278605996657395
0.0464648118070598,-0.156574818370934,0.126857229488756,0.108668280361272,-0.378936811496693,0.250009668928894,0.0996705300764435,0.0587101039701167,-0.132471245360373,0.0725793023022405
0.094573372077356,-0.0592106228530441,-0.0538700307510945,0.045119531502503,-0.124696355235207,-0.228251514978414,0.0350010066707705,-0.0139347776295857,-0.12157486070883,0.127542764773345
0.177364864559342,-0.0637708843452845,0.108526553453541,-0.0106885538325025,0.257237393444656,0.220295453646505,0.032791350702119,-0.11393611357265,-0.157554016433848,-0.0196134805067331
-0.246829811141482,-0.415432556492954,0.114939549842744,0.00935407063417635,-0.0604720832168636,0.0241553427699353,0.401981381491277,-0.0795357908331116,0.00222368444600303,-0.129888175501991
-0.0371332249536628,-0.0853841126059676,0.0104785146320077,-0.36236786518275,-0.334725708773652,0.0488292383225197,-0.317625203230583,-0.211620763449842,0.151323366266727,0.259533418147524
0.0436928263246424,-0.0892880208006581,0.293945756456426,-0.0159245328709269,0.201619463861704,0.15811439743638,0.119101709836711,0.265945795212321,0.133040258714444,0.14160550572107
0.046364634062659,0.276647222774068,-0.130957693337552,0.0910787447328914,-0.26451768410147,-0.151922830011724,0.195980200706389,0.0980366540440864,0.290103659349431,-0.0593398836276679
0.237752307560373,-0.0601757862693182,-0.0159004517156059,-0.245380697405076,-0.29423919250181,-0.135748476963137,-0.151524708732232,-0.156186913425186,0.0434970354699666,0.14980977757642
0.0452112491283768,-0.0237931882850205,-0.164943806790783,0.0525986999668067,0.0374428093195588,-0.195464577331876,0.10609302515675,0.0232635395980934,0.266914752098334,0.13826769487474
-0.0235574546530397,-0.0666859012556451,0.127555535114556,-0.225074790024211,0.22920056927941,-0.00842110998444698,-0.0229427514840388,-0.0133989266727802,-0.0240794025047385,-0.022213506886156
0.261693384015241,-0.225532308405015,-0.0391744170924376,0.19835992984722,0.204095736756781,0.142833926242094,0.206628877289144,-0.107657341138031,0.237420108126786,0.142793365134899
0.0137254441019138,0.207988670693704,-0.159285318933584,0.311603723770237,-0.0577920582619903,-0.235524368149113,-0.12125918150453,0.00943895547827668,-0.146619458556751,-0.118385728356726
-0.0176247822014425,0.0215186735261886,-0.264372769197261,0.0318313804879578,0.194261053264748,0.310937755020237,-0.127743072443727,-0.25544704198117,0.101136393884182,0.0968561564182967
-0.16026972216062,-0.0658977013525763,0.0890667587922172,-0.175592418574221,0.124012693122771,0.00773260404790799,0.209240101032597,0.200787543043929,0.272886364552413,0.033375657466567
-0.00106523601815345,-0.0831919622696121,-0.0137138443124988,-0.132695956805826,0.13829104617482,0.107584514686369,0.240469060805102,0.0497128958933695,0.09153575398121,-0.0392127954928351
-0.000373419457471424,-0.326279790821418,0.220818848483312,0.00442720643799672,0.134149098385915,-0.144271656981801,-0.0944404795018177,0.0632305776250686,-0.0577023365010202,0.295449142959303
0.000758484525849099,-0.250096274647781,0.0360087519048318,0.00326650724745247,-0.228589788362671,0.17128989043035,0.303959968537704,-0.0414512053536186,0.00438292864031542,-0.41577601306528
-0.179023178110071,-0.0839300604774602,0.0460384443209864,0.0624848088258571,0.224477157403243,6.31210496977341e-05,-0.0726141337695161,-0.193495351680421,0.0698741145425276,-0.269205792149814
0.0118359886210982,0.0938459190618575,-0.0340232072075095,0.152079519348976,-0.177661582982282,-0.0437599190517671,-0.23313424320449,0.0750030787340137,-0.374075562311836,-0.2043046258733
-0.287087135377653,-0.230002120826342,0.336724983463857,0.171376967669758,0.139128872256649,0.211685567628335,0.207712011596289,0.00927168820253996,0.207859620824449,-0.0389378907496757
-0.220390147833187,0.129599239131056,0.0610463670339171,-0.0314826700475488,0.0508120971052742,0.0544910362230441,0.0934187373107324,-0.0405175850765312,-0.0528503078451079,-0.0532172695768511
-0.108275468772347,-0.117545183826138,-0.28335232240966,-0.128005849107194,-0.236201155446789,0.0881789811264581,-0.209855239911942,0.15405135192472,-0.0300738327609101,-0.0121591460825237
0.269356896473935,0.160469711948427,-0.0181822300131559,0.107822330630826,0.165129621235661,0.203094095442179,-0.110000764171401,0.0131081625905754,-0.109970293842105,0.156673897017974
0.347764047317448,0.0387312942213782,-0.0704051514518861,0.0839944959296506,0.142720954308908,-0.377622574690763,0.237580179963809,0.118917667095407,0.206373339058582,0.283550333703201
-0.261942209808434,0.381154754589581,0.342839308952332,-0.204307137970681,0.458387903171629,-0.158626685587513,-0.022620647095334,-0.0200422700170319,0.074069319840856,-0.392595480586386
0.253233233615367,-0.0436280760698207,0.157672160979472,-0.268739641806886,-0.271465283016084,0.0234366462254226,-0.0353787492868972,-0.0993330659685276,0.12873130000634,0.132039292035862
-0.321169804989602,0.147869860668288,-0.0789700683688046,-0.0120334876497718,0.222561588110677,-0.0596994652830138,-0.0295001666931822,0.061457768511854,0.0105768115324991,0.157277226926786
-0.448148440261272,-0.0130531515466185,-0.136318113005924,-0.0428784506488732,0.177399648324265,-0.0127599654722534,-0.107919540566918,-0.00977738603852768,0.180013811683349,0.246072580502882
0.0684919736969246,0.224660794404653,0.0455185972079968,0.00522430667499287,-0.0308736322595582,0.17550530074335,0.169729258599006,-0.124125680486367,0.128719438450512,0.112508648266634
-0.039590185483427,0.170213443742969,0.345143759231492,0.102357867109824,0.0378455899237231,0.180190235972223,-0.0600549595409904,0.212261508141501,-0.103887830501303,-0.0684209034020314
-0.150779014480557,0.0839558284986823,0.108916508322023,-0.00752709960598248,-0.0585160565729309,0.00924742822026823,-0.166329495015492,-0.0548350954474168,-0.0453608216887772,-0.273995444278333
-0.204180633361385,-0.00523714398891884,-0.0210334789674716,0.134032561345644,0.210721412942618,0.00489047501344828,0.0943628431914361,-0.279611517812056,0.287482177310572,-0.0355279918910667
0.0522434793883424,-0.278071506601498,-0.104308247768334,0.0295886891127898,-0.180878942839166,-0.0478859788956297,0.0269089313243698,0.110491739507524,0.126428086329581,-0.237605431528919
-0.233990974999425,0.115025908704634,-0.0740383557762872,0.240095515976146,-0.189064394899359,-0.120622432396844,0.300827331342328,0.0597422120604685,-0.094560766791663,-0.252547461810171
0.181616439131218,0.0463322800368039,-0.013888938131356,0.117384103703079,-0.253073680729094,0.257985505110259,-0.108291705585051,0.0155456014720764,0.161765196012272,-0.135411293813124
-0.408269765871,-0.0677325829771439,-0.00733156004050608,0.0556185980713789,0.127471959918168,-0.0451185965330782,0.0820598820171359,-0.0708035042262658,0.297002807283908,-0.000347099126003214
-0.191671694015386,0.0642181974254067,0.0902138297624228,0.132661971639662,-0.178841150353717,0.146200901444257,-0.0386286371178645,0.0157722592478913,-0.00127038054775774,-0.0375467672377662
0.0922319827601907,0.0759623771830557,0.180437371721504,0.346959673232077,0.0163569378840931,0.388035961813934,-0.0361578090982222,0.281199244842877,0.0417009958175914,-0.0141334170456665
-0.0141817476136575,0.215478015983896,0.0389371082704783,-0.153929024261655,0.158965108199952,-0.0868478037134239,0.200145934292863,0.160207237835569,-0.0315193663111427,0.231984017136277
0.0816175509836969,0.248416331739635,-0.192917499652678,-0.137343843087437,-0.0238784178840792,0.122746410573199,0.273049289367666,0.140175227497391,0.1208971935611,0.165971529017401
0.0440488608749925,0.0436885318331708,0.104102477546849,0.0715804283177769,-0.0417037986045351,-0.0167126027575137,-0.111718381503347,0.0798635838004495,0.0729294412930646,0.109034100273416
-0.40896349773199,-0.234693376940732,0.0048350290847928,-0.0978283486061249,-0.0273562687402837,-0.0683106115419176,0.0184129453836408,0.0602928377453927,-0.091827841818375,-0.293468267305699
-0.069911020879685,-0.117443005886242,0.129722871325428,0.0341373679035611,0.0779959888886998,-0.318429343275043,-0.14897104811386,0.205857666259977,-0.0613473274805762,-0.0804562929377353
0.203084242577288,0.0137162561203676,-0.074516439746746,0.160467104584497,-0.4352261494921,-0.0758503405798406,0.30143317208763,-0.158527952632487,-0.301985326953482,0.106387746506336
-0.00954069312656847,-0.0596542915586751,0.00706496710781819,0.344138527370069,0.0626111588950656,0.0329628087868301,0.23245418422778,0.00522221345783915,0.312552048949563,0.133031585369912
-0.240501821093447,-0.0805474775014461,-0.00924412470227748,-0.0196622686171042,0.355171847809458,-0.092943715821183,0.273401141892464,0.0469577090642496,0.0110721595930857,-0.213359932067785
-0.314961342591933,-0.0429835293538726,-0.0123814201483379,-0.241736022768386,-0.177479602557172,-0.0339685275603102,-0.248340811901911,0.168750863071681,0.0972769825235002,0.233983450509938
0.0376493102350107,0.137749900039955,0.0196535687530239,0.133529409514057,0.129987898742785,-0.0272268355735759,-0.29367839649422,-0.0897542356462514,0.0348354652962174,0.0387454588423276
-0.183061127281531,-0.25238636100362,0.226848953480272,0.270569235994209,0.0716049371043231,-0.189438681969889,0.0201191921445867,-0.0839564288643633,0.0224374839348967,0.0241562575545403
0.273183943644781,0.0231325386045986,0.0729092354368788,-0.0456900500540131,0.0920096995849517,0.100084583599471,-0.0391397821946579,-0.125868396412369,0.244295559305185,-0.0966428399712138
0.0173463266935517,0.325718843739257,-0.0997674316014491,-0.168156693558139,0.137824308511706,-0.232779116170233,0.102103636355279,-0.216447255389448,0.0140882072029857,0.164234552118605
-0.334863075641626,-0.236014532618064,-0.0187114515868781,0.0224333423635069,-0.070240708797079,-0.211296119282021,0.239499350594844,-0.225461855272037,0.0165095538716382,-0.240923568452819
-0.128761156154547,-0.180788950996353,0.234298153990425,0.10367813140473,0.0946172575205461,-0.0338713983549901,-0.0628940951579655,0.0243430989853274,-0.0625325236315435,-0.0976525714783247
-0.046666167719347,0.320466524602713,0.302833554721245,0.175777347326154,-0.209898396470475,0.192338137880657,0.242772432265218,0.21439232747218,0.0895223328289829,0.0521911880581491
0.0151630578075742,0.141618540408602,0.0910275801416951,0.0455511026863775,0.164571475304973,-0.235255828271784,-0.01159241946555,0.111053320396786,-0.0781209163650983,-0.0409021523201517
-0.179552721964661,0.339457718854068,-0.102917131364389,-0.134284582750616,-0.224999450859131,-0.153897519681086,-0.0594828477589478,0.128303181830567,-0.123422933425307,0.0800554205927582
-0.0191806097321116,0.0115081906394517,-0.112494048976427,-0.165463527687,-0.33143638788442,0.150368165417004,0.113367333249554,-0.0113713174505946,-0.205624097366642,0.158665666050809
-0.110025782508945,0.12325019488706,0.189710360508889,-0.112571393819558,-0.25960457301867,-0.089268614604244,0.00758344533057307,-0.38841446054721,-0.157588472841749,-0.0516792951284761
-0.0666905624324007,-0.0934423163196123,0.0115213201640158,-0.050923161921114,0.252917594864206,-0.169961471739232,0.0214941523214995,0.00587275968000375,0.0825196420332513,0.225444998725471
0.130028733241333,-0.0128570493999336,0.342206519628397,0.00486430920288626,0.137233643398307,0.0627304797054113,-0.0814180565339548,0.27084736403305,0.144281093083713,-0.287577502186743
0.194054706723634,-0.0514180157870232,-0.310997264301366,0.184023932539978,0.0331783677454117,0.171811515020195,0.00314222962426329,0.263479865232717,0.365680783978024,-0.13499286093144
0.108044770562207,-0.0184356003096066,-0.175706422245147,-0.256906068729127,0.094670230739974,0.127336923850188,-0.283957895288802,0.103902210968475,-0.0652364641022352,0.189178714902428
-0.00851420893517645,-0.109634804198059,-0.229668327863382,0.0551227989156118,0.202735375346318,-0.217612360718486,-0.0584968221125306,-0.17834873941088,-0.0875712993814421,-0.174088669294578
0.052004954293734,0.0986734995526103,0.238265398577206,0.0182571819607451,0.134494837005429,-0.315079610187915,0.0866360912943158,-0.261937677023769,-0.00360221254610691,0.147990794808557
0.0162102849561047,-0.164796190109606,0.00781125032723311,0.132980757405674,0.0773413829476599,-0.0629356997825176,-0.331575168012137,0.115673704191758,0.0143630450730405,0.133451894399707
-0.348552090229366,-0.113104433911682,-0.145730612780026,-0.19988369829596,0.199655512478066,0.266055370840733,-0.137014225821031,-0.0152541446784201,-0.225596616689493,0.182480412738751
0.0689153820398805,0.0577674554454376,-0.00507472622898433,-0.125680277464215,-0.0857282012747797,-0.185691514786046,0.137183949192404,0.220371554949861,-0.21569498932259,0.06912636144896
-0.118626260088913,0.0727816085093885,-0.0235848161936334,0.243614341561705,0.12019056502646,-0.095845629148727,0.0886712899733341,0.0310826137635217,0.160597227826332,0.0275228657001409
-0.196633648762416,-0.0223045872914277,-0.0223175906273029,-0.0283094150884513,-0.318510975863746,-0.0911354196584344,0.0147591612761209,0.111294047988253,0.0377462488152171,-0.0580292269092619
0.131291294710209,0.0480094481168635,0.29136068677148,-0.111750097111177,-0.119228506039511,-0.106444556698132,-0.101915278029733,0.188033933309172,0.178811069649361,-0.19467718424757
0.235235588091528,-0.134507219334606,0.121671574111877,-0.262806486689864,-0.0530515164261627,0.122649454895828,-0.0562660218583238,0.307617793240392,-0.00952307836821735,0.303684341069897
0.0700433575963825,0.0132634351976797,-0.0389280444382277,0.0527860870645048,0.111816031805688,0.0501523887079565,-0.259803023381871,0.115750882973578,-0.238094406368328,0.0980551787583056
-0.104863448775322,-0.129631691068151,-0.208490201496511,-0.141969895286333,-0.331067082364223,0.159794860356395,-0.173736895784283,-0.299048008829113,0.0748517824245987,0.0975621163930093
0.0317621538763617,-0.128553030105162,0.19491215750279,0.175826347646501,0.244802022467388,0.146677603749647,-0.072971096060828,-0.276285457891759,0.0118618818008077,-0.0848403749847328
0.00768449639199805,-0.133225671055842,-0.0524256017753047,0.452103084505396,-0.00339207284721866,-0.0691356101368575,0.0480886953962819,0.202325569083395,-0.140896075123749,0.0959310246961612
0.278935063110832,0.0889683119401354,-0.0632467137031205,0.177410240306544,0.0290279559033933,-0.0147326789366822,-0.0212978093635199,0.0947575509096546,0.319662437366525,0.182032091770901
-0.0332971177707861,0.0493214008248661,0.216226329472234,0.339882527725836,-0.249533784040878,-0.0155932315903694,0.138336351849174,-0.0371974881012716,0.37536225406512,-0.169426235390722
0.21355507522107,-0.142151255653705,0.0527418696909167,0.242065890004356,0.119097475672321,-0.0842598144045738,0.201495645972683,-0.0437320181966445,-0.122433309748246,-0.0284454333406502
0.165608901117039,0.00371538522746723,-0.0805004456928994,-0.146346172735877,-0.0101796504670069,-0.125680156066993,0.12194751416814,-0.218653411548887,0.259206899749948,0.0892906554251814
0.0474312535749296,-0.198981849402441,-0.0965353171641162,-0.108805315150153,-0.0647418680306394,0.0270101988110953,-0.021380678926219,0.272072308789902,-0.066929963307738,0.221787485342578
-0.0993579263267446,0.126730472583298,-0.207915204697411,0.189387609099337,-0.0851492008704683,0.0760083126869148,0.173293080282699,-0.0426314318649777,-0.0645840125166078,-0.0265445100233325
0.25746578400552,-0.0097403987831197,0.0374491382437832,0.232565389779092,0.114640504000069,0.0302670859377309,-0.164285975816407,-0.223694635064106,-0.0356887885026825,-0.0836101362839693
0.0732982428713881,-0.0365112342160606,-0.0753612265998248,0.265577686632242,-0.0306390522403364,-0.192567221058034,-0.0447246290510818,0.10149575435298,-0.0422019396064853,-0.0164026570199054
-0.0311656969201822,0.0542677895394579,0.160220549251192,0.245901427713951,0.216925360110723,0.149980071052383,0.0706552779137363,-0.0332102637346265,0.0870739871320933,-0.0451507994531834
0.154408817996673,-0.183057968072203,-0.100724786255542,-0.0014494101198071,-0.184219033419563,-0.146707610247377,-0.0038314047091035,0.0525483596510327,0.028196177548351,0.192373181292148
-0.40663427090405,-0.0825330112048284,0.0223125036113408,0.175317534574452,-0.036052025061731,0.0669803943111679,0.0728520536852382,0.243575527883079,-0.178827658750724,0.024440958773314
-0.0971883094753092,0.23802402228118,-0.409409412990909,0.213918496640064,-0.235519505119433,-0.17629369482873,-0.0159414066603929,-0.0793586541708143,0.284869727441158,0.04772266826955
-0.285464855091972,-0.216599021996118,-0.22690940642731,-0.242657372081364,-0.11463584648143,-0.116477918066908,-0.10594035708493,-0.17366176598415,-0.248229105612015,-0.326443502889285
0.149981581451349,0.0337598182291282,0.040449013859212,0.0561912429442099,-0.0971493411591594,-0.116998642100135,0.180936522149566,-0.152348946068224,0.244115763480516,0.0869018953836954
0.147262495564325,-0.246874072177589,0.238831385901625,0.0888709127584022,0.0687667213402303,-0.0673837379520148,-0.302925009628218,0.0676721392341779,0.0938058185225216,0.0778736799314335
-0.0624380564938568,0.0300758408836685,0.172707776733114,-0.155574027256859,-0.00552034124045624,-0.0311527903802823,-0.158864694064972,-0.0399980228339776,-0.329045434879306,0.18353163650318
-0.285920613918515,-0.102870636499452,-0.323499304271138,-0.135265381599793,0.0862016445712429,0.0950690916742716,0.30378872270521,-0.347814203333303,-0.0360464945640562,0.0229040792686502
0.283764091871182,-0.372139269867533,0.0160482393727167,0.200286373327413,0.0671275517313706,0.0161699433934039,-0.0268114573989796,0.194650431603839,-0.279890453702382,-0.126251184764869
-0.152207308349713,0.084683446625312,0.377599017933979,0.198248407672358,0.253706999955405,-0.0278622446236355,-0.112510715853087,-0.127084147145337,-0.0043172805328125,-0.289861340343249
0.31960402845969,-0.0821148413355456,0.0100067548559337,0.217032349681198,-0.0178584357846718,0.385080293072387,-0.152436470182323,-0.0688205311174985,0.00971628321154837,0.284888305416143
0.0936601239275231,0.179291409892807,0.194887102763194,0.170960380739154,0.0264689422887902,0.138128533392289,0.0540027854960584,0.235048113964424,-0.0107038079530959,-0.0118922211817201
-0.130237156718826,-0.194510681118379,-0.106118611282009,0.254824084441125,-0.167512364300147,0.0513350054132638,-0.177811599176272,0.238569481810206,-0.0545106919223902,-0.128807353526374
0.111537144140137,-0.190777290610515,-0.0785080758230947,0.0423982956639934,0.0458779734278014,-0.126451905541349,0.234777759925745,0.0255724320889376,-0.287488142272576,-0.144176067313245
0.445520490203713,-0.21403057527546,-0.137064179561648,-0.104160722915333,0.215824844923209,-0.0813595321399802,0.0208180958994958,-0.120966538277756,-0.0316084837335639,0.266207710462709
-0.136772887511795,-0.0402281958612096,-0.152049100805873,-0.372396157125678,0.0624961245866627,-0.0619611845452562,0.0687435931227584,0.0161942341148794,0.229134851663636,0.124728052358219
-0.0161356661123471,-0.0404449786945072,0.0521656642481291,0.354995824219898,0.190001632668109,0.22816625817893,0.101129734104082,-0.0526381217032768,-0.137227001515571,-0.0533176236637608
0.32641120855684,-0.404267859248012,-0.160884165076912,0.0356419293357345,0.040672493094979,-0.0880512887851064,0.00833837415673415,-0.16589834057171,-0.204875788133384,0.00469179633242716
-0.0814160961530864,0.243130679432647,0.131321581686299,0.0750782150225584,0.0490872839257073,-0.232662467369442,0.259153922755488,0.199103475681071,-0.303198845416933,-0.0833054695480227
-0.147861919150955,0.0268015330303654,-0.200807486334921,-0.0805730435740132,0.036078298038472,0.141044741773542,0.0201494731508832,-0.0422770813020347,-0.003725551446359,-0.00604897014765734
0.0912731092250888,0.348749078142641,0.0357325076320888,0.150828879585415,0.284360471608605,-0.186977085475433,-0.237383768738309,-0.0129278708311447,0.0818667024890974,0.0337292757473058
-0.0683236484656939,-0.399286558222152,-0.162280230638825,-0.225773165671376,0.344521116380829,-0.0641944721574995,-0.105270868666498,-0.190885684718616,0.208442436288309,0.0323659346404341
-0.315762471605533,0.103301797930465,-0.076597441244379,0.175764633446178,0.0234832570314311,0.0107687951516502,-0.132917914195821,0.186974958207356,-0.231881647808551,0.00545253226600412
0.201394723215296,-0.297385977957633,0.220968940329569,0.0398452871542166,0.243829620770528,0.0466000177257715,0.200139542357011,0.043188391429724,0.0100468484377797,-0.0453444588603624
-0.1150480566206,0.0542168642757075,-0.339571959315985,0.21519753856774,-0.225201377917413,-0.0576169284222368,-0.370555982976527,-0.0630338967360753,0.0878011353404009,-0.040291546183033
0.011399046679758,0.100705266846072,-0.122854795649724,-0.295738340200715,0.442751653985015,0.367928346567575,0.0749774503107555,-0.0564833622902186,0.153002605745954,-0.208296238160855
0.148803679786706,-0.107737296175119,0.0828257416132162,-0.0921413402474655,-0.0461733420930216,-0.0403981988859855,-0.144913967023693,0.245874444694935,-0.0798194081029071,-0.0585424554633451
-0.188902144469941,-0.0438502254485443,0.0430672744340214,-0.143816398902803,0.0938115654382486,0.00678974602891826,0.150745809060927,0.276668893978456,0.172011299191369,0.0225164061618903
0.190219146800644,0.401628094944111,-0.145270882713077,-0.258145559020303,-0.344349871862897,-0.136450969380702,-0.00206642608632914,0.124618729427781,0.225839893971544,-0.0294770556705384
-0.231834153256162,-0.179886496535882,-0.0638408747798714,0.0285309157841982,-0.0801423283038946,-0.0715001475519891,0.405199481164116,0.20810947078294,0.0942828684102364,0.0842952212221545
0.219285527056546,0.257821777715543,-0.0349875317878496,-0.320660402530688,0.119511223906966,-0.247463061586156,0.114043927024435,0.0216680295943332,0.0600584565840429,0.155219219537895
0.14471602604759,0.0040484699692223,-0.0270608338495239,-0.281866405795097,0.0790628822795054,-0.1344587655264,0.203150222419959,-0.0247761595026932,0.074466435955031,0.111207160670392
0.0127371584206295,-0.122951335617236,0.0704840953549246,-0.16884361486337,0.398011647574986,-0.282311792434355,0.094467978168761,0.268946874762234,0.00754099990144234,-0.24623280664608
0.259243682905035,0.0759425789491149,0.0195445532354033,0.269920732190991,0.0575923839913014,0.266852908561667,0.01101012284221,-0.170025228024313,0.0224412431818523,-0.0227675285428608
0.0766387326831779,0.034570431334302,0.15126964842186,0.122275386216678,0.0959960757773654,0.0397050590797896,0.114688683792052,-0.337879965045008,-0.102626747145307,0.0372110572575823
-0.0954007909875054,0.142942399638017,-0.105718143533711,0.0481491167576053,-0.107416676403199,0.0152377360245305,-0.0925905657668148,-0.277885510920709,0.224262225838527,-0.0242743276734017
-0.155788985474868,-0.177184373177403,0.373198439860824,-0.426851011937358,0.13621617597608,0.232785400096202,0.273875688680687,0.291744218879355,0.15588779892228,-0.0130247919638247
-0.196588094072733,-0.0328260466663844,-0.231074975851307,-0.239565029655554,0.347285638586958,-0.37768739890074,0.178097176953005,-0.1768570097671,0.0910480838215903,-0.0774635761422703
0.225027351382164,0.148019452028537,-0.0902502854846488,0.170679578440989,0.0349513875177607,-0.157209369710349,0.0860532349288217,-0.0435470310740236,-0.102037549743363,-0.00435941409133066
0.202592155774139,-0.0495563394838591,0.304101478166765,0.506988519490622,-0.31155851028205,0.0477103897032674,0.171076781635296,-0.0318854711445748,-0.213242877300053,0.124360166557691
-0.140295476578494,0.0104143931551621,0.0569813057722948,0.0909393893014939,-0.257558325594535,0.236920461329431,0.177539687343914,0.124053581778084,-0.185199729374207,-0.0408715753444277
-0.0257755646086908,-0.0632921345102952,-0.231604743435628,0.344896468751769,-0.125571369302857,0.0195730606813099,-0.0519100481240382,-0.175813764890859,-0.0358762391976556,-0.204853158353832
-0.0994877460950901,-0.347075215405357,-0.205414273214208,0.00497827879523003,0.041526425747951,0.17656297124888,-0.00731197128463923,-0.0436687439695303,0.108440275790262,-0.023648719165381
0.201599378271882,0.0807193944063565,-0.0503805288978511,-0.176983319000978,0.121712383653795,-0.0651869095793217,0.0382330726321677,-0.017611250400742,0.225840299185041,0.164894124070268
-0.344381437507953,0.195083843736993,0.0628430366185683,-0.0172715335744512,0.194371383521633,0.0646378301721666,-0.152151804818562,0.121960368406059,-0.150505060070775,0.11216353240445
-0.225335542290558,-0.0382958498978955,-0.169504082746049,0.20448417745817,0.210792967989876,0.142232712459513,0.0796086230877776,-0.016634643394626,-0.0684745319260364,-0.0520435895337738
-0.0606092879687966,-0.0358330499929886,-0.128428679208008,-0.401259101702205,0.257136445435917,-0.091265227117004,0.0109434094662598,-0.128999488454344,0.153359729424668,0.0479203013554769
-0.191843411344079,-0.0492111045396374,-0.0348524530755987,0.145464730864472,-0.247037208220239,-0.025249273411055,0.103415664647835,0.156700787758855,0.334626086839739,0.145191975119441
-0.110519243894564,-0.163108948944295,0.129003175379518,-0.242401683908884,-0.259005481506438,0.140758793603885,-0.0649797955873919,-0.068777748650493,-0.0678253127405178,0.306280649182204
0.00447568289502999,0.115430499876166,0.0889228660722885,-0.20591587638587,-0.0295693977448671,0.210625609984271,0.269216778984849,-0.180869984735497,0.0685361702780808,0.389649101505117
0.148343390177818,0.0469503964099303,0.343930770989998,0.290385308194393,0.218541864979078,0.295272827040569,0.00999077887612063,0.177960308944129,-0.0646396974443488,-0.0730075673185682
0.176123037984588,-0.00855313505661983,0.146311566773199,0.0739690313711075,0.0201624685379922,-0.348216356085722,0.0548545159765395,-0.00587801559192531,0.0700545507010667,0.14461348848209
-0.00902536793594226,0.0417049819197681,0.236387368512495,-0.0200214573418347,-0.173417764016185,0.215664296661654,-0.0551978865840114,0.0246003668894676,0.127694824774813,-0.14660662126382
0.101625206143509,-0.242353523468709,0.197594091364066,0.12188572311273,-0.0759112917470723,-0.0128296356163335,-0.0862341995992097,0.0472142728218544,0.00128650313230589,-0.0395446725909848
0.000201625380255799,0.183617971880371,0.211173719487121,-0.245427422107432,0.00461990518431755,0.319926727163582,0.181747621765547,0.11783252841209,0.123770845571767,-0.0914838742799187
0.0244854598023581,-0.018595353663158,0.0969641807673286,-0.27719473122294,0.307368041367714,0.192733642067155,0.119804560297338,0.233361339937476,0.0467579140965206,-0.0519880241539497
0.0235667927120174,0.12110281848552,-0.0204934498218979,-0.0929681381371066,-0.101578472471255,0.130768891877092,0.337664929993998,0.0832422808524038,-0.0221932542807699,0.259161784816984
0.0748666855333659,-0.008767547320623,0.104019455061662,-0.127407431058063,-0.12460525827169,-0.244115650129182,-0.188406730214187,-0.0506994389244979,0.241100309265072,0.0379243011736607
0.0472237045246883,0.0347494113228271,-0.024607424750183,-0.0943082120031866,0.00264474727830725,0.210355804855906,0.174356235387844,0.326850862068159,-0.282044278429183,0.0630402366894404
0.0722067326210588,0.0176749519763768,-0.242127668426651,0.120664546857352,-0.223507669689406,-0.00779447698184957,0.134520000250054,0.120215206743394,-0.0704619698636599,-0.0538852959628647
0.145025986804774,-0.144154321692218,-0.0489946138753381,0.381570245591218,0.156470061879512,0.060542189905295,-0.0725344958592739,-0.185873997440751,-0.485115571099621,0.219684016839672
0.0877039759083977,-0.172890573459152,-0.183412165014928,-0.177856779075076,-0.097613796161297,0.1030402038469,-0.040080908428512,0.138914120860128,0.0536179215133815,0.426342353907194
0.313602393061094,0.0213272485792903,0.135161795126479,0.235079838840489,0.0542695532540299,0.0551085708232863,0.174669143020819,-0.162116152073432,-0.384647419459982,0.0133077756033236
-0.0586410529438666,0.125819773742696,-0.0837774260963917,-0.203452621153435,0.162728083148169,-0.12995528328908,-0.0855696827442853,0.0114429030150816,0.144026303792659,0.103293614189542
0.21821839577396,0.0229205991271639,-0.180518463939522,-0.268981010183227,-0.142884260034483,0.0509390413782063,-0.153485342591142,-0.156247718124542,0.219295606881995,-0.0283232629391137
0.108006637303344,0.0212117660771177,-0.0847565042080548,-0.00350132078773339,-0.409971232815482,0.209720037311247,-0.118926871200803,-0.310986149177663,-0.123229801420039,0.0508851771212815
-0.0451791610259795,0.116214716558742,0.0092196858902718,0.113830299041838,0.152601357823933,0.0175065583623144,-0.192583878544382,0.00638454017828749,0.418372678390378,0.148517376031683
0.0633884269870422,-0.118479749582871,-0.345263492061615,-0.310089323552221,0.0629624285998943,-0.115660823987,0.392783958671833,0.153774899708769,-0.222415291779394,0.133839628165291
0.172356601831496,0.107127116912679,0.0114343139202556,-0.158561321703392,-0.000817508536933098,-0.191220219364033,0.337723340992404,0.193873662940983,0.15605953334485,-0.0475792870965407
-0.402800602320328,-0.143865242157612,-0.154951139196359,-0.114022813908595,-0.234238482922122,-0.239927984960793,0.254523635289346,-0.080541675337853,-0.0976963319400384,0.133609056500023
-0.0796351194710863,0.148561156228619,-0.00962949092354202,0.463221001087024,0.195074966787132,0.162836884483971,0.195466045303133,0.0427067425149271,0.0450597210839872,-0.147857139325366
-0.114684644623627,-0.111845594729929,-0.250824072991368,0.0689308405809445,0.173488817107948,0.217461485009526,-0.351214350103139,-0.124093222232838,0.308435929885561,-0.0313340647694822
-0.101058946018347,0.255792007397647,-0.0688969134615897,0.418135834521183,0.173444820436096,-0.0608240649234407,0.0750434650935592,0.112412153742669,0.0558009576744048,-0.0593673149043395
-0.0360786761023723,-0.118666811721721,0.0722304413731215,-0.339234769319882,-0.0321391831897204,-0.213555157395849,0.0246937889405851,0.191072364380912,0.239051853155009,-0.151032086704546
-0.0210075181019463,0.281672780737963,0.138637644647582,-0.2116438487068,-0.28821596791494,0.332399496177304,0.263295636841564,0.106603716366555,0.246154469756295,0.119397403768219
-0.226455423782132,-0.0939980734478326,0.131662786511257,0.129278911001633,0.208354704278656,0.0578998753379123,-0.200666862999991,0.341573280312134,0.29078431345725,-0.215518537451773
0.171250589524931,-0.0368324463428913,0.0646651365267928,-0.00295249365927053,-0.20289382529202,-0.0539028385169536,0.167976544275014,-0.392109733497729,-0.123724229000909,-0.113622408960569
-0.0528116910248458,0.188081890884284,-0.0582206722099325,0.240543995676266,-0.170704604526549,0.294008681685569,-0.232437297553984,0.321872848532763,0.0269608460386234,0.254678908887533
0.0857176432946373,-0.0265831032112211,0.127134373307446,0.328261371012909,0.0704886317749819,0.0430957885981489,-0.435800510349566,0.294444501458983,-0.176421336953548,0.331386941537557
0.0215089595769741,0.236862833105013,-0.031837412752544,0.0718504406315402,-0.0421300114676888,0.173849413790256,0.32630634696797,0.364482469202784,0.229736892519843,0.0627679155383841
-0.039036005797234,0.119851209345217,-0.0959089897974386,-0.36803925041612,0.16602705199171,-0.103873514612748,-0.135806645532457,0.16980880999621,0.300282150096885,-0.331291422076494
0.0308978686964867,-0.178358945933408,-0.164010197048993,-0.0586712462119634,0.010440335970906,0.080010401283727,-0.0503310345642237,-0.134715932405748,0.260751857780895,-0.199709527810207
0.0371702834205356,-0.0479378124135867,-0.189123516217715,0.130774883053763,0.134364459568259,0.169421453891992,-0.0557939491193744,-0.198457159991409,0.352686090142422,0.0133189586100207
0.0816885487589089,-0.121307564582349,0.330319254576519,0.165841341407722,-0.303418890621214,-0.0318236798361331,-0.141255338357823,0.0661762840578732,0.0715077612484682,-0.0439847064314597
-0.118047638550501,0.325068643169555,-0.038746811625114,0.0821495234551464,-0.119854971446937,-0.0561491003326514,0.246990387197136,0.0694603979832281,-0.0101348896555648,0.0657981937644661
0.153590103813503,-0.00294371941429634,0.0570059294263903,-0.259264083117304,-0.0179575761772098,-0.325598248396357,0.0322534357792793,-0.525129777169127,-0.0928762768457607,-0.0523863049214353
0.329884733569649,0.0980419776674317,-0.196143474217093,0.185862768555125,-0.0500137692601439,0.067626690930542,0.162662101387974,-0.102656467338914,0.141721078059979,0.127431926333132
-0.218073559450436,-0.023757417144651,-0.21504637405694,0.109942104209227,-0.437881282908163,0.138680858701125,0.0853728828979372,-0.136169124154828,0.0709349151755057,-0.122428789521828
0.00460093382961758,-0.0614631252585879,0.143786861581451,0.0111569908791458,-0.194584174458438,0.245341060351685,-0.213242597284955,0.0949848480253711,0.132426003302678,-0.0672428840974394
0.0492060340984219,-0.0803409477090743,-0.0182857022216207,0.100107622847882,-0.00581749191567828,-0.0112966988843784,-0.104188636448939,0.112652811635437,-0.0727110476409838,0.0603597590395306
-0.140369261321247,-0.258379812692479,-0.0901334830769501,-0.0568690517998286,-0.0158900538351861,0.193555211873717,-0.379214520361756,0.330693202372976,0.0799586827896841,-0.125612575969184
-0.229393944390386,-0.224619640586976,-0.0224706883292612,-0.356108309923111,0.170679018037459,-0.180011326816353,0.211741677920779,-0.0133149159649007,0.10392136113671,0.174106240677972
-0.0636632389265449,-0.363589431989217,0.1711099865952,-0.0714686488508521,-0.113969689821965,-0.00855489905725761,-0.198066142025459,-0.237827033976421,-0.145729889661272,0.101058499432605
-0.0371273723818443,0.260276148413326,0.224304102180066,0.170627483097907,0.224832722457785,-0.154273114428086,-0.00853544359297976,0.0451201953248319,0.336899937830345,-0.0105748730750445
0.109063667416546,-0.217532795223253,0.142812543262892,-0.204611157106369,-0.110973054837668,0.0307594626022002,0.141789245498955,-0.0163426984220804,-0.237820375520906,0.0988233522105612
0.183908969853685,0.120668912015833,-0.136386997794042,0.00131074677866609,-0.366600672660902,0.232294692082707,0.0910197799209157,0.136127841289957,0.131608805191082,0.248269149927077
0.322894802799595,-0.128514736345751,0.126854999774467,0.184536882115969,0.0484780324568265,0.26097660428609,0.170646359020912,0.00100552766513725,-0.107512074483308,-0.105370546431242
0.119169079919234,-0.0715647943445758,0.101484393105658,-0.0704113273473339,0.203862371774565,0.213754448776154,0.0173259250473311,0.0706366515740305,0.079849977902407,-0.168781479780789
0.0480752889901928,0.0629664312234219,-0.113752618028758,-0.0435457384516904,-0.00625248511413039,0.0602427866768135,-0.0201821066407165,0.217032267080584,-0.259334528960926,0.0114369357278103
-0.33259508206879,-0.0652382287460119,-0.0470773317008902,0.453594117770763,0.0894382273699269,0.0401966401796826,-0.0232949217073984,0.234093206485771,0.255880380180352,-0.134659213312198
-0.0405697640470847,-0.113209760334592,0.0141041441315675,0.129573828935973,0.0790534629110613,-0.147519011806634,0.25121987692352,0.188610942586437,0.0522811250942118,0.0692692160792381
0.0344677057701343,-0.0673332235089346,-0.0778048557557442,-0.176401382184052,0.0488641061668227,0.12539248221159,-0.0128432108002835,0.0287604672121363,0.030313851124278,-0.38197221351863
-0.0154769178417035,0.225617416074553,-0.204867955706674,0.129488545785379,-0.0186531828574913,0.184762951955101,0.103412107835639,-0.181707550293062,0.131881278596733,-0.247661219601831
0.0162249458143271,0.156679995306626,0.0150677977342555,-0.00464875378848806,0.160830397757293,0.0754876524229454,0.0739169971366318,-0.0684385434545582,0.0705397739973737,0.184926987458831
0.0232149058884623,-0.146022436522972,-0.107936600156042,-0.114486278450468,0.152587564100157,-0.198283198918555,0.201305762190358,-0.00244347165625961,0.210640869677466,0.0647409822681787
0.258259377074746,-0.0442356635923582,0.0227825716376804,0.0907586814061341,0.0250197716770177,-0.0548688535259068,0.116373043516845,-0.226326842195373,-0.342323058402649,0.355513941835438
-0.198383319113233,0.0098916982303908,-0.337968677072551,0.131009925452036,-0.0594076776544018,0.171391139412462,0.309074211141636,-0.12156189239987,0.0691758179507189,0.109954972164885
-0.330590330727608,-0.0433855879695631,-0.0101895494049323,-0.172734746156981,-0.122037670815046,0.17487579562239,0.354455708337311,-0.00184716701182983,0.150648579118564,0.240670015261535
0.131084404365234,0.124014966314008,0.0970608874938733,0.142258544923157,-0.0194863967626966,0.0481805068341376,-0.0777799185070828,0.0698527040893109,-0.0743630986378579,-0.282490350332086
-0.154956685814027,0.0969023612532931,0.0444914091076953,0.0885668881079869,0.0660836848048907,0.156060855679565,-0.078489168069084,0.108463973286045,0.0695290602787296,-0.258808746236411
-0.00560463919507475,-0.258491189989197,0.209093336770896,0.0738107652285522,-0.042532494618344,-0.046545204633558,0.116786423275734,0.13277743243072,-0.0207028010624716,-0.176751757838002
0.0435665174118811,0.31343243674967,0.532219116318983,-0.401872827341242,-0.101243024605911,0.106077412167804,0.052397815602599,0.148417029139818,-0.148264092574051,-0.174667496810385
-0.0169218611339822,0.117470548921739,-0.247694927707157,0.197340678449924,0.116848140900073,-0.0724414046968256,0.171828788153546,-0.0670412010582415,0.454060873103106,-0.0937507160982148
0.149879922751193,0.108876794119734,0.0251402391827186,0.00205451864489267,0.00200598254355158,0.260104475813317,-0.0722316540213434,-0.137253482678347,-0.0462224296060356,-0.0250220157751305
-0.101750573498982,0.0889887754551946,0.0941444086468652,0.14673261098907,0.181398295410517,-0.174561077262601,0.087982220224587,0.113103116172207,0.121014705370783,0.193456503519082
0.114141706103854,0.273836186083778,-0.243600684849491,0.0653617011094494,0.181922003133481,0.0034655680458248,0.243012252206393,-0.0604263832971243,-0.0922913484553971,-0.0283188266177029
-0.105397347249362,-0.215035843492008,0.0107617663280542,0.100883255320277,-0.198930026878312,0.153879403799596,-0.136475904687613,0.0405762455323782,0.07901438615299,0.0721054371847461
0.0530539624779457,0.0899090572735341,0.0696146105804759,0.070357148579367,-0.0243485951977947,-0.132797971033507,-0.13793899761031,-0.315808228248999,-0.155728199610899,0.0988889744322309
-0.101907774832,-0.442252423218205,0.00246867171476814,0.152942564449753,0.0117804454406889,0.211111808058558,0.199229300410652,0.0965953440172799,0.333993097493692,-0.107476371025128
-0.375979802127347,-0.169103775972061,0.179892224296198,-0.199592914067867,0.109305784091532,-0.00596021465136087,0.135041131615964,0.0222539111251586,-0.232376139489105,-0.12786488550358
0.046771430104521,0.307327752300968,0.14186338610179,-0.29262854451034,-0.0895724433952909,-0.13667948619721,-0.0263198811607199,-0.298386083557466,0.0335963463585688,-0.0274410584057884
0.168860272298094,-0.158436357484265,0.0395761420262655,0.127693308295339,-0.0291634367391187,0.0621538622550089,-0.166435269538911,0.0637837322750685,-0.123085982053674,-0.170794498510078
-0.288850847800238,-0.242794198535929,-0.0885776380584991,-0.220205094577107,0.048769204754324,0.00611107585891526,0.1007458886809,-0.127552526611456,-0.303749926210335,0.365833080476471
0.176368453176651,0.188384014286829,0.0400495524763739,-0.0695792951276905,-0.0263228849155916,0.0673160548877398,-0.1850122179434,0.28824054951753,0.191176097701146,0.0978055887154657
-0.130427995279327,0.129808703972421,0.0181231582756196,0.063706513636833,-0.216868991042361,-0.239745977500312,0.00966951430535576,0.308049659404228,0.0165571064272161,0.17192252644638
-0.182273805801065,-0.034405170492129,-0.00448244511818903,-0.0669097992786129,-0.0629114356345798,0.00417959333440834,0.260886504270801,0.0360182877882064,-0.188178779444214,0.0685281828394255
0.0930075318075617,0.163460923546225,-0.179474292317757,-0.29840198163323,-0.329546567380742,0.0164714204539448,-0.101142151602523,-0.162964689604177,0.165858179833669,-0.0616289767981979
0.0223064358389538,0.13862003699822,0.0966868624566897,-0.0415176227453958,-0.240547549843836,0.113227045641693,0.357117430098401,-0.0233085797782442,0.314525224137395,0.0742370542458359
0.130946607984149,-0.11258342049763,-0.168549191795931,-0.22526944830111,-0.0935777630762215,-0.150580680784501,-0.260011571875327,-0.0233450143801152,-0.0872089860601116,-0.0436945756436089
-0.280875110422577,0.0329325059836011,-0.423550384822875,-0.0514838861486343,0.088584621605867,-0.0956591956328204,0.0710459984786944,0.0367158066994331,-0.142361616975183,0.201288940102491
0.102725914009625,0.225693904588997,0.011053385206531,0.189525639609735,0.153161500947021,-0.252549713096938,-0.111519436083694,-0.040086238387582,-0.127144908721811,0.0271807363011948
0.0069087240971677,-0.138153744861402,-0.131814376680808,-0.0735151256746792,0.0848431310096788,-0.186147979041609,0.218171111744799,0.244145567969826,0.0753653563970123,0.268096068085995
0.0116528974662741,-0.249688707289408,0.0595289860233589,-0.00107839758698924,0.18678622946505,0.0815184116251963,0.270339327355001,0.0123978314799555,-0.27403984430211,-0.0154750203453067
0.091857561874441,-0.135522086990038,0.109508471247332,-0.083012076513798,-0.116926747346524,-0.116015602740098,0.109807697861836,0.144960649766535,0.31413063089247,0.299830429421349
-0.310181725860364,-0.213451704252629,0.115219824283338,0.168449520277953,-0.130079240282184,-0.123573396536807,-0.270052210101097,0.303488306316749,0.0214027378749268,0.0343853201613848
0.115781966024656,-0.0734716066106852,-0.0343385621637988,0.0163085584724319,0.326479828131874,0.114233400574262,0.191191534824675,-0.0366685893044447,-0.177013799584682,-0.0519750432570592
0.0482008580807639,-0.16530374993844,0.346979162262863,-0.00199577443328758,0.124439431883821,-0.144597622509749,0.00798563661049708,0.0930415951949151,-0.0762954546366136,0.0248550369881601
0.134741646714411,-0.0635120581575163,-0.0792147825081346,-0.0490445952532741,-0.246762561449513,-0.42406702462683,-0.0778216382123537,-0.0210462922444779,-0.152484492803711,0.109469992429344
-0.417851732350648,0.277142868312346,0.028382347341463,0.00401743725698569,-0.240855571952176,-0.132845159658741,0.321055713538972,0.125261345620422,0.334878673086689,0.0658050945967274
-0.0228389486982376,0.132441706632164,0.138604321429692,-0.035908593835985,0.184473998199407,-0.0301464777825949,-0.0298382544890217,-0.161507468322189,-0.342627859422267,0.0786663030789255
0.115860991608887,-0.010635666347915,0.162240686636235,0.0188245268232368,-0.148089501646108,-0.191419435443641,0.298414218565451,0.0204023356216545,0.130724492124426,0.227160650600725
0.0197797353218787,0.0147695741199277,-0.0647744901127138,0.0821067963787398,-0.00343200605960512,-0.0649014815823707,0.266240147382118,-0.0390490909826716,0.121049781260752,-0.165592432870351
-0.0616820520602847,0.193843348078079,0.0796269300543625,-0.144953883744072,0.0453265708735683,-0.282507692351122,0.0678162871174663,0.0487570095869162,-0.273615963811969,0.068877387934235
-0.0613761369536298,-0.116273421755826,0.143419195882932,0.159778225157541,-0.222539963686943,-0.0565352178291191,0.0417752952081441,0.104370754011632,-0.110666449179822,0.0657729844497736
-0.0121847974804402,0.0854515058249463,0.029550731866587,0.122900089933385,-0.0702734124485852,0.260691990406704,0.00356710116348047,0.157236927796899,0.140969050076724,-0.18471213441627
0.353442684554957,-0.166991105063855,0.0142599446942204,0.456596119570186,0.225577382403382,0.185388030520123,0.0162650273729421,-0.0716048496120424,-0.172902082709513,0.126426677473079
0.0537940349527263,-0.239925400015937,-0.235597148700852,0.00956069288798627,0.113123700091163,0.226170785111822,-0.0583266975252477,-0.27231771875729,0.260671291622811,0.0703138917708515
-0.0433895021337834,-0.0325126894553441,-0.201120778730535,0.110441741907947,-0.0441527277358627,0.0467954796627013,0.000757095850942463,0.123794260339734,0.0635628145543242,-0.0166441343736411
0.261187355731942,-0.121609693930066,-0.0871617353961441,0.0672444795861667,0.230744856370791,0.224659606287193,0.0778320728429711,-0.136687310193171,-0.286907470719156,0.370159174365792
-0.0558392850037165,-0.212886852309046,-0.15741153176708,0.0600437212114488,0.14671516398408,0.0857351819682191,0.16002603725179,-0.164677607955894,-0.0865615485079678,-0.0695473131274191
0.0723971530782273,-0.036571599117243,-0.106991188222862,0.452257132918563,-0.176992179600703,0.228479884744777,-0.0572762841060496,0.317993082602167,0.0185872869037302,-0.215952021084884
0.156608403041144,0.0710332470681371,0.0586186405930121,-0.00163828250072977,-0.217924458467595,-0.109929528293314,0.0900356091043003,-0.154572024718572,-0.349590349361993,-0.222699689540065
0.0293335557833699,-0.148900610986835,0.277257418313561,-0.0210817246814317,0.168950509020662,0.140630482111479,-0.0201944275823984,0.0425575040062088,-0.12792207077971,-0.227470061715566
0.0934841615915872,0.136468689059828,0.152356949839653,-0.0631050821910345,-0.0546995405953212,-0.072173240040355,-0.0667215886783669,0.0187445408633795,0.160352645723514,0.0818594762781243
-0.040502058478988,-0.0420220536905608,-0.0311127525051376,0.114858025918987,-0.05763865513229,-0.015747796827543,-0.258437354264316,0.0053734753921397,0.0213565337783254,-0.141698261736304
0.0209257933013217,0.122249530333698,0.173061563077446,0.148202138969569,0.14958368130015,-0.172094926876483,0.00938133374475432,-0.0266776777743658,0.0615855243769641,0.120146836298979
-0.260086701288359,-0.0122955426671563,0.05838101440031,0.178997692086396,0.209524137627208,-0.23177871425378,-0.247087932936653,0.00712690844955226,0.0839952337157337,0.0997192628988503
-0.125643435364328,0.131586557198257,0.245658787821755,-0.311398081826813,0.217690696308763,0.00810846329945095,0.0227906406442951,0.200457349342544,0.0211013416454522,-0.141981426280155
0.0305370937569365,0.151420522222948,-0.0426411440326891,0.00712783108099856,0.089383478226275,-0.198307195994653,-0.169714905677491,0.0841121745880162,0.0832539786884211,0.0067039758761571
-0.214987115888727,-0.256116791601051,-0.00278945643506661,-0.154151614853884,-0.0619350751553942,-0.171584539446152,0.0273381444273759,0.316714586071632,0.0235570230201441,0.177991571570584
0.154410462425429,0.302539491129053,-0.0461662548850056,0.131165950109932,-0.35231968363197,-0.0835082774785345,-0.0777123027181026,-0.108706186834149,-0.00690824707520177,0.0477127417135051
0.0662614087943187,0.109038954480002,-0.0620128831586172,0.127219395175399,-0.0976341961219824,-0.141311402180325,-0.175340638215928,-0.173735321146538,0.0686455808949233,0.216197205173982
0.140042286791188,-0.0295616031473393,0.0451088057329272,0.0738083914666605,0.433302888672769,0.156655476401486,0.0889121967503869,0.458179226797412,0.30576808896203,0.0884921639612927
-0.0493748883831084,0.0157947487193444,-0.175227859995722,0.273982526873454,0.185264459134805,0.212391603880655,-0.0345433800286773,0.309287145671807,0.100153535384169,0.229716187983653
0.062676366672941,0.170873785845254,0.085863765198654,0.0951930972354357,-0.179074797580783,-0.0604390534543214,-0.159294091467315,-0.0879124330729667,0.199814925671583,-0.0192206329462131
-0.120203182463343,0.00739731535776615,0.339707321193177,0.295449868883488,0.224020545850549,-0.0398530016703249,-0.24471514541401,-0.170549412779098,0.016936225727633,-0.0881265094988229
-0.295590459866696,-0.206522195752485,0.344597725782562,0.110580359142177,-0.142255563339933,0.0115297448251187,0.0337937977833132,0.0837610683503994,0.0316399297121875,-0.111278200871121
-0.0614514651206501,0.216954614436501,-0.0988889874283418,0.0602793392643301,0.216719126006638,-0.0788261349544114,-0.0997912539842531,-0.0817385977500514,-0.0329057341891549,0.175996975312965
0.158014575407586,-0.0357191075151565,-0.0859768617566122,-0.00952597848290362,0.156844956596598,-0.144849843248232,0.27587714735788,-0.195550307297695,0.148389105090335,-0.00633493626556805
-0.0705862486465569,0.189034148954903,-0.221507570393377,-0.424553470744165,0.2103779936947,-0.00977635568848134,0.0636652877930151,0.0916043962243096,-0.26317158996955,0.0232550495968495
-0.231578188982615,0.221537540225899,-0.0518641907325261,0.0779744109112698,-0.235953843808344,0.0946054033805781,-0.0253485575029373,0.0371858415433703,0.0390284704096608,-0.134472811314232
-0.0836682852049147,-0.0419145219574939,0.0893380758733599,0.335641539744092,-0.00746818528597168,0.0195439099859839,-0.0512008885561639,-0.0653343247223338,0.250740082649726,-0.00135114280347614
-0.358000518545026,-0.248684344483199,-0.215581319012862,-0.258756850093206,-0.195210723661433,-0.0362885690074866,-0.0606788014296763,0.177430452437038,-0.398715511681912,0.0712027460951047
0.156835662870954,0.0641887186980747,-0.155836256560842,0.118011886778978,-0.196117317477197,-0.212936050534437,-0.298717453306412,0.167072476667636,0.222748664806885,-0.191456191829235
-0.137689264283303,0.228168903855841,0.273429154982039,-0.380092471820483,0.160120768010329,-0.183831057678054,-0.149535906217663,-0.292116444927171,0.290187067539508,0.087666254856714
0.00339588225053548,0.256417683032884,0.276428878708466,-0.129640199149229,0.091845791556989,0.0467680940762046,0.363501959833949,-0.223810350317775,-0.0103513897598375,0.105554114300545
-0.066355508793707,-0.0179912234150169,0.190951914310533,0.0801857546289837,-0.0224758279517047,0.211390403651685,-0.104516802741584,0.229994920387581,0.33269788463982,-0.152266117240924
0.175798601564614,0.0444787781995008,0.133117755566497,-0.0518104450865845,-0.079182372615972,-0.0881135552273682,-0.175848628669545,-0.402312056202826,-0.0852097274491803,0.0402899514203772
0.253956730440986,0.22725754360588,-0.21000789225415,0.0607578985484011,0.0352383089069664,0.269033611508158,0.0317694289236575,-0.117483736963698,0.170829428629659,-0.126352859777649
0.154509884925112,0.0364240439847699,0.0815333752391718,0.108150419850103,-0.134866763403895,-0.338601288319242,-0.119851273145643,0.163879417514968,-0.241118632313145,0.222314584048258
0.127976667210012,-0.00443727155354426,0.06614562690063,-0.212187123414635,0.192252942017032,0.30864499975127,0.0357182513240073,-0.0012029639077804,-0.169842191861879,0.0358015994388458
0.124881612112541,-0.0971790052115531,-0.172663420559871,-0.136054298674259,-0.261938754213493,0.150194625400693,0.131821044362837,-0.115052313069673,-0.162490004296924,0.138295445462651
-0.0075504286042132,0.073947026282476,-0.365119845002476,-0.120889219245692,0.0433560356860748,0.0970331609374503,-0.0654816232281815,-0.0929162227093282,-0.0362506005606024,0.156136782230494
-0.00385892453525337,-0.179706198665556,0.248210806550316,0.304634737804011,0.352993144382377,0.0118482739116097,-0.193677229587998,0.124427295294043,-0.079527660094577,-0.0664496729747136
0.025391759776711,-0.0750439725870719,-0.0215346995637795,0.176294882227243,-0.0873021323689272,0.0842493619518948,0.100360954161783,0.203998179352705,-0.0241733800867203,-0.108273716779627
0.0711096052593548,0.233058238581619,0.202339486437245,0.182933519708946,-0.0983623289686079,0.0907374965756802,-0.0462039390000423,0.399662735199282,-0.0923619841280445,0.105502917741744
0.271305756588522,-0.230731316674213,0.0284875923255024,0.206983430998535,-0.282068994750252,-0.122836729743402,-0.210206898963381,0.309972782045763,-0.0299638822255595,0.129376164397634
-0.178544669286057,-0.109181119995741,0.0499920192778896,0.0283988792494044,0.146146144868943,-0.163183815002029,0.162170550446132,0.107703265653898,0.134515261433545,-0.0814438778718339
0.0436806793474761,-0.0854527925533664,-0.149632028401652,-0.0252590982033395,0.145976452372231,0.210211760249104,-0.0957401086385495,-0.00375245198723341,0.146875979387369,-0.179264267077305
0.168089385888174,0.011472788386661,-0.0512105752985629,-0.231467035599995,0.130859260352906,-0.171006683966331,0.229342948835148,0.318471431051794,0.0569085303962867,0.130288337349169
0.130476364785313,0.0321657129344867,0.128094914891182,-0.0974589670404319,0.0224780519895884,-0.129594671234561,0.124954766189001,-0.0118134076629897,0.293871282501541,-0.177501989796197
0.0291835617662715,0.106490140866277,-0.031872797126237,0.00189195001157392,0.0116825579440999,-0.273609879056313,0.0912655269061717,0.128821283968127,-0.0951574651708773,0.0378141059017642
