0.310014534719586,0.380687105813517,0.298837242141932,0.0281649594281091,-0.0790231565079606,-0.281218270280666,0.29830550862443,0.642732791241183,0.388708783653876,-0.0322200699891965,0.0535524614485979,0.668686894066874,-0.154486167362813,-0.0420435006518265,-0.338115577196109,-0.187841982742684,-0.364922109501244,0.074623823117834,0.321481492958687,-0.0905040169068907
-0.0130315639908691,0.00323406945459943,-0.00610147555883452,-0.00864642086680176,-0.00647361919890514,-0.0125495783697485,0.00960045866523051,-0.0151896853499454,0.00472360168358064,-0.0215152394960151,0.00136365004425929,-0.00289426426955213,0.00270787262919171,-0.00348105738474598,-0.0140478758953425,-0.0240436745355921,0.00242820795301664,0.0262194888408146,0.00240294821433159,0.00614453867090054
0.00476880250055669,0.00419739043058666,-0.00128113965073968,-0.00245553656360876,-0.00335065192231397,-0.00736960922635974,0.00707297506858498,-0.0095607095088276,-0.00267357338252809,-0.000872629975094424,-0.00640117310275517,-0.0082656945350331,-0.00587255442617152,-0.00592448389346911,-0.0163691301230238,-0.00286463092475128,-0.000996443603734446,-0.0113101200663833,0.0105972317220321,0.00821511119142319
-0.000897703572912689,0.0138489816867933,-0.00848886498428756,-0.00747528707905371,0.0091697241955387,-0.00252769979063031,0.00316169810833961,-0.0109359031081814,-0.00504806605990647,-0.00417181074668574,0.00790338689729722,0.00237101177081589,-0.000424793840604923,0.0186014881314138,0.0107214654378226,-0.00616512879451992,-0.0140400325725279,0.00476228833353659,-0.0125136196282297,0.013369164882561
-0.00113038568239145,0.00342304187729084,0.00724602252767186,-0.0187861537983859,-0.0201124475253517,0.0118792103220777,0.00464416984602621,-0.00230014224122864,-0.00184605067443198,-0.0013086725749398,0.00240539000174729,-0.0071817727647698,-0.000131994990295941,0.00434901940344665,0.00344616184748955,-0.0152718478999083,-0.0136767735009956,-0.0124397518831265,0.0065562041812125,-0.0208047720788051
0.00294374611070839,-0.00889389504266458,-0.00942455534929253,-0.00736576864084719,-0.0111370094394966,-1.93016378528262e-05,0.0093520921512417,-0.00548253381956559,0.0046976945929233,-0.0262704514813387,-0.00575995931632441,-0.00716110110324082,0.00586004080080253,0.0165880508287903,-0.0213235810326922,-0.0104919347702201,0.0131700772153207,0.0230065897935766,0.0160479070022299,-0.0126127163015244
0.0149843634158904,-0.00972145045675496,0.0102270096009737,-0.0023731080730009,-0.0243277404356963,0.0105818675096319,-0.00432415656560565,0.0155438001590733,-0.00620836191518173,-0.0230641714237302,-0.0151794296777077,-0.00749530520444656,-0.0232139715351839,-0.0188894069458154,-0.00792469954915457,0.00535483495118395,-0.0118891739135854,-0.0164954233948284,0.000385033849374011,0.0168236180862386
0.00613222813894592,-0.00379478534738782,-0.00606080728029278,-0.0156791978651139,0.0152181470932787,-0.0188904079037067,0.00428466276253254,0.0100640907653055,0.0207567141898314,0.018021342406078,-0.0143684339464457,0.00606003200003478,-0.0160632985864884,-0.00608736875880653,-0.00639260784474943,0.00950783289381152,0.000555400577517051,0.0118125935121748,0.0128426251121135,0.0204682012513236
0.00325445843106004,0.0128157948237517,0.00168371954281218,0.000905669574747473,0.0268637459274663,0.00955148765458538,0.010675827277477,0.000499430390378192,-0.017452904886086,0.0165483473739359,0.0138371498196213,0.00518203875585748,0.00781902626404555,0.0356556410167343,0.00233579595301474,0.0310422924960413,-0.0115008046478723,-0.0150045809121736,-0.000482130368336693,0.0165378380273103
-0.00984787389132679,0.00956515599353381,0.00221639373310349,0.00250081735129957,0.00188217617229936,0.00420388430378428,-0.00441934987246752,-0.0045216383442121,-0.0267155882411139,0.00204867163094588,-0.00593963011195936,-0.0243624311108064,-0.0116703665250994,-0.000819780659926746,0.00654718634322526,0.0282281844481063,0.00524859884778466,-0.00826459225898282,0.00392426161914579,-0.000246821792823806
-0.0125519066843048,-0.0261515917464035,-0.0025750800525764,0.00207483267419634,0.014678958104593,-0.00662030004602318,-0.00357239859401041,-0.0121182301278881,-0.0241669071782928,0.00789027360636086,0.00340264868966074,0.0133972766822107,-0.00435937097346166,-0.00393734632181347,0.0118248943346197,-0.012586624322738,0.0068179310967762,0.015934735802872,0.0248866506465626,-0.0115513956597123
-0.00152628000029512,-0.000814520879564766,-0.00721534619202454,-0.004271579999162,0.0255863233794104,0.0106431834632123,0.00577906849591048,0.0079811957622412,0.0174303466367035,-0.0270892214792394,-0.0113260780189627,0.00180395097715202,-0.00660297345424143,0.00855149972411261,0.0106321710646939,0.00203514224881189,0.00984654268292423,-0.0211638304789422,0.00494758651044725,-0.00942564489589269
-0.0142745177271759,0.00319247336019416,-0.010918460668875,-0.000451258534059068,-0.0203279649762404,0.00565733138453662,-0.021633445231477,-0.00538737245962679,0.0180734779093895,-0.00404626619392788,0.00709351056860781,-0.00491710083957956,-0.0137902733095374,-0.000458612699137734,0.00093138453713186,-0.00446858513979595,-0.01007834786394,-0.00499402902362838,0.00955333630584015,-0.0111301611830389
-0.0146337352274605,0.000654257634735452,0.00956316268813998,-0.00569904460988231,-0.0116808802012152,-0.00895094036557715,-0.0160978998116582,0.00953336389662616,-0.0123090536544118,-0.00122819285215808,0.00620114490935005,0.0117893890164844,-0.0183461550211458,0.00966229382787386,0.00461539719569036,-0.0241013370143255,0.00239367525789084,0.000509600931007868,0.0174488581829576,0.0024417872403294
-0.0139561509788546,5.3129816172915e-05,0.00839689132085679,-0.0125945979539365,0.000480057570229502,0.00345063562413508,-0.0108403710032569,-1.58531347591679e-05,0.0210302869114114,-0.00492212119074295,0.00889504414757325,0.034952030078347,0.00670108201565948,0.00170196891343165,-0.0011348530532342,0.00817595064056637,-0.00966839520462581,-0.00573351869618572,-0.00646411008816163,0.0217455042863732
0.00318383415484465,0.00199929655932428,-0.00367450953292152,-0.00661831697281763,-0.0131416520920993,-0.00313197467487384,0.0295143486677483,-0.00469629693707455,-0.0139797236672279,0.018046287140748,-0.0216665934604331,0.00264364184379888,-0.0108072199574536,0.00399046688405842,-0.0290729626159633,0.0249285533703843,0.00908230075086246,0.00633308527645698,0.000677758194964378,0.00713045921755809
0.0290407851173277,-0.00602152825217704,0.0192651689373984,0.00655284157902846,0.00183757997002678,0.00940930479174476,-0.00744106249170736,-0.0154823587668139,-0.000148179730468931,-0.0177297637331766,-0.00648953264080267,-0.00570237490656248,-0.0128038654234944,0.00142718584011974,-0.00615387066966352,-0.0281723940184195,0.00246318149182687,0.0123224857595405,-0.00927150288899891,0.0116122018873193
0.0239200657601989,-0.00760096546238337,0.000270152759746906,-0.00312796408465848,-0.00280490474561125,-0.0238237929420806,0.00163564707958349,0.00754525468828095,-0.00335624088966966,0.015205403866245,0.00790939964471193,0.00496571529268441,-0.00711417507648925,-0.0107382654145157,0.0107774146143219,0.0109470906747052,-0.00107318899966388,0.00753663457417434,0.00435081229364707,0.00848818654414812
-0.00974233475640588,-0.00394660911008511,-0.00430469350986997,0.0101888019754327,-8.62601998563473e-05,0.00596388988965599,0.0092890863688733,-0.00644285408237263,0.00294180718585718,-0.0108136242315397,-0.0210615502811916,0.0111365251707615,-0.00314476934231244,0.0162367104036674,-0.00280562808949817,0.0114489846415839,-0.0022606471250544,-0.0348476249230965,0.0255730615727738,-0.0168671005833814
-0.0176990390843471,0.0109315225500431,-0.000679873940438785,-0.00312905411482672,-0.00732730835655171,0.00584368147520471,-0.010396633764099,0.0047395686183279,-0.00618271472228158,0.00552445936214505,0.00302979745918682,-0.009791627506147,-0.0172685812265327,0.00915371694424437,-0.023852600020205,0.00206536956879329,0.0269272267935213,-0.0110862145568029,-0.0129378269022017,-0.0159962555936098
0.00736341536135321,-0.0116247548041037,0.00930962332362147,-0.00170189293457577,0.0027829946501904,-0.0103756459968992,-0.00450169375587209,-0.00463617801294423,0.00497019567935295,0.00521109428030688,-0.0097598340081259,0.00129604252034468,0.00117059712827082,-0.00893486998932156,0.0131694164175142,-0.00141182018651684,-0.00456775591060916,-0.00314333941470389,-0.0147783786752152,0.0111865902669159
-0.0232684803009839,0.0192737066148045,0.00866176761247281,0.00765665668214345,-0.0114151877566005,-0.00580543154359702,-0.0157861531151354,0.00380577035917527,-0.0273160987082533,-0.00207006686165899,-0.000755552608073661,0.00967828702932045,0.00436904057656461,-0.0143208394875981,0.00466096705584518,-0.0046116915021742,0.00470075259129501,-0.0120511845564808,-0.00582788807339767,-0.0159328172944345
-0.00368315333842798,-0.0032144521201656,-0.000868008859281336,-0.00228194804387745,-0.00182769791006326,-0.0125580890187907,0.00227120021278176,0.0123201357705854,-0.00443441566160852,0.0184019793089533,-0.00613810806313822,-0.0125649322434079,-0.0137652055254308,0.0183837416540248,0.00325998635898181,0.0186513897556184,-0.0105299453777099,0.0272973716175591,0.0172073045567243,0.0165961924024836
0.0111677876767009,0.0121561303679346,-0.00817605527074587,-0.00118857707017451,-0.0138143859790922,-0.0144536293605233,-0.0248571503560793,0.0182381761088517,0.00572966620565472,0.00244103110205634,0.0126568652876946,-0.00418341907186056,-0.00807937049688939,-0.00471406978163579,0.0119830428341488,-0.0136954369658512,-0.0030607533814514,-0.00149077227195048,-0.00365359355246026,0.00291939245630639
0.00684860306749401,0.010763686338093,-0.0123173874646026,-0.0144301435670004,0.0206598767917568,0.0213445869283918,-0.000390235478570725,0.00286592250272213,0.0111411611740333,0.00651478226829557,-0.0149026138947499,-0.00173833997608638,-0.00469777031821595,0.00106726823196772,-0.0024142544623771,0.0152318312456691,0.00656079184090972,0.0166393972497074,-0.00304207598527061,0.00903873657035732
-0.000851344856497543,-0.00990672241223403,0.00833896633530638,0.000490930996690236,-0.0198628925495221,-0.0181881715020624,0.00709392889729133,-0.0119840944763358,0.0145988282106566,-6.26170800263281e-05,-0.00104683410413678,0.00148903733413795,-0.0093635820851843,-0.0167805552347248,-0.00104233261529398,0.00888974351634181,0.0283317057767413,0.0132453372634206,0.00944666211154794,0.00560003695652406
0.00325944697074519,0.00401281781404321,0.00315015056190886,-0.00384518940418776,-0.0114038633473544,-0.0112500456790085,0.0064210041873024,0.00309407548598813,0.000352836859279269,-0.000997742866707542,0.0256021398279371,0.00556241605001518,-0.0022619812833489,-0.00756094412884337,0.0111241636776924,0.00231824291637428,0.000493879774455626,-0.000316015827422195,0.0186850614779831,-0.00221851787056823
-0.00604629337353725,0.0126623722340737,0.000707925609466934,0.0177739959673833,-0.0107553132123844,0.0191625292616486,-0.0138620500817307,0.0102750463502465,0.00547438641301992,-0.00634014950020939,-0.0225413655751592,-0.00812995170748593,0.0021576709052995,-0.0120071284586748,0.0116428841311122,0.0158210595925855,0.00420850563376125,-0.00350193722286136,0.00642686264703126,0.00379760572816076
-0.0163611036278964,0.00227377001394739,-0.0115119988499865,-0.0161209450308355,0.0121044865334543,-0.00298955750235872,-0.00476585370124985,-0.00546950818821587,0.000750707151918746,-0.011553562835378,0.0107293647146394,-0.00892914587178453,0.00224667547644074,0.000205731361013609,0.00657122121820651,0.0056510384622002,0.0205803568138829,0.00973619838075633,0.0126917047364528,0.00766118820851737
-0.00883029648403226,-0.0068909597890619,-0.0133481408332204,-0.0159704265572839,0.0210037039368364,-0.0017032212768535,-0.00605530237288474,0.0244195961898617,-0.00620327513783181,-0.0199834111925808,-0.00863099569803838,0.00748896527878231,-0.00646814587487427,-0.00205161820444315,0.00241281943118834,-0.000458699179341319,-0.0076156483541458,-0.0112024381364293,-0.00626557613429655,0.00508674394275799
0.00371024481464139,-0.00107878831590481,-0.0120983509587337,0.0120421110736601,0.0129549855390806,0.0151703761892435,0.011168418556968,-0.00102376333567766,0.0138195136406171,-0.00527423309809607,0.0147749470223261,0.00966220528763432,-0.0109595809350028,0.00224025279579719,0.00244262227325326,0.0188406253948973,0.0116369553356652,-0.00930447900225029,0.00025106001749184,0.00126630324599243
0.00639517077077212,-0.0131370116690178,-0.0157926656014739,0.00399857223736914,-0.00645798912318383,0.00366093819206355,0.00416633016273589,-0.0165935716043043,-0.0239480047911715,5.55868251032807e-05,-0.00356622561755546,0.0159168868327494,-0.00208287906008398,-0.00830970514570983,-0.00137826586551396,-0.00455632134316739,0.0168497800425573,0.00862732964045367,-0.0308049393220907,0.00340962690175751
0.0006623887179004,0.00413840207602886,0.00401227898857298,-0.0160394040781586,0.00947244068879883,-0.000105581108366075,-0.0126295183615702,0.00161972043130856,-0.0157155537688072,-0.0213387960496429,-0.0171029650036965,-0.0196248765104775,-0.0230450984234511,0.0152112688229747,-0.0158154301217836,-0.00705738153718513,-0.0198646628541246,0.003820269443625,-0.0215299251776534,0.0142008014387407
0.0142574122169627,0.00677384553519513,0.0184851680541695,0.000683255898542736,-0.00403678376218617,0.0104322836952439,0.00171343339608346,-0.00793594972589718,-0.0211802502544772,-0.00330313955832594,0.00356973397524153,0.0222657740547004,-0.00757852303912935,0.0246698253426268,-0.00179105777078539,0.00263019803493885,0.0124403523689437,-0.0179812658914473,-0.0215058697313219,0.0186944227440614
0.00666738745896415,0.018704450736248,-0.00968876454307931,0.00242280407047508,0.000698433490817395,-0.0220289512713444,0.00598635964388222,-0.00281561448957211,-0.00994510586612129,-0.0093549459206115,-0.00536117834417661,-0.000962536059386495,0.00183438261850846,-0.00575922752726697,-0.00539606889458315,-0.00445988367634633,-0.0203286031204062,-0.00499844710403378,-0.00165523021476402,-0.000581646332644308
0.0206352106932402,0.00792495311341023,-0.00470857674673063,0.0123997196709934,0.00105404109560659,-0.00656162948065543,0.0184579971424849,0.0106180895852223,0.00924424617080666,0.0115657780908841,0.00377347216963966,0.0123704188089928,0.00545245541513983,-0.0136069835145326,0.0216739456254701,-0.000209924735080486,0.00014745395442435,0.012508873319251,-0.00255653336689373,-0.0141967217290632
-0.000190913163649219,-0.0109572101707647,-0.0177387951514065,-0.0180350928832201,-0.0167892609086215,-0.0216286779002335,0.0130980702414278,0.0156212403979921,0.00808727850112344,-0.0036579217187615,-0.0158470069526373,-0.00105908405498129,-0.000547552259426399,0.0187082267233208,0.0235371817319791,-0.00960300140230032,0.0164822599391856,-0.00844116605715895,0.0249052213068861,0.00380668839397715
-0.0253355748467335,0.0231783838307626,0.0112214616577318,0.00653664997189482,0.0175306808798786,0.0140279274906158,0.0391141822025135,0.0019414373415977,9.60140016791897e-05,-0.0230525687981845,0.0125948386058714,0.015364785189584,-0.00734718492350973,0.0195790062252475,0.00700965865661992,0.0109312011675632,-0.0168758040969089,0.0097059248033173,0.0050170916181142,0.0263320051114772
-0.000806539446237922,-0.0184085789610776,4.30130005260078e-07,0.00638766845275794,0.00401524793840356,0.0145141596956442,0.0105847059201808,0.00413933157025916,0.00880326164536774,0.0239722854409401,-0.0143110190199747,-0.0131467101480048,-0.0158620427721215,0.0108074936050202,0.00457801597370653,-0.00892668242153672,-0.00221922724826789,-0.00439264288081461,-0.0104827268078854,-0.0113223938782713
0.00686273237162077,-0.0137455633835811,-0.0173052191763601,-0.00440499890000883,0.0175515931154186,-0.0150369773021079,-0.0213369300725137,0.000930319886395161,-0.00481630497558602,-0.00787893560698015,-0.000141201322549939,0.00108455274272984,0.00540126575228793,-0.0160167537110161,-0.00835427811607765,-0.00915799312061441,-0.00110072093160737,0.00166514121714199,0.00700791023377626,-0.019939989343349
-0.00317401462608038,0.0252175636893381,-0.00259866696498466,0.00556924755887374,0.013239828891068,0.00836109415483367,0.00499320551444325,0.00814483978474347,0.00172533060022962,-0.00509310617194841,-0.00379376185208866,0.00759132024149411,-0.00551518201186274,-0.00327237179378896,-0.011000036617288,0.00489278458857586,0.00788751278906808,0.00440766418464001,0.0161451261290029,0.00473068221557751
-0.00117678670890252,0.004829843383093,-0.00962629369257858,6.84871349181857e-05,0.00902836758378029,0.015025890299581,0.0155207030859722,-0.0115742394668631,-0.00235237146566783,0.00101785280268759,0.0133117781961149,-0.00369265077808628,-0.00211393483514336,-0.00536230100341859,0.000141279791654755,-0.0191099375638057,-0.00360735194050031,0.0197180666748194,0.0115976300674547,-0.0127249491812154
-0.00254624609548437,0.0095885943046677,-0.0265618248913066,0.00962819956843134,0.011809825146888,0.00430342029420147,0.0205280075439056,0.00177022327956402,0.0198557864013958,0.0129337185324632,0.00351045934743289,-0.00135573992546886,0.00900714802616947,-0.0104590139344679,0.0178777108464205,-0.00270561912775436,-0.00263818422097385,-0.0063912161148946,-8.59098071154243e-05,0.0102095931779496
0.0248594871098337,0.0146825315223543,-0.00878330753163751,0.00590696817436842,-0.0150874925197865,0.0297221535226051,-0.00147704090955895,0.0127930981057347,-0.00142111302811569,0.0216368323366355,0.0330767312473808,-0.0158260313327735,0.00519943533545097,-0.0141651884323315,0.00243023730808375,0.00741201962594691,-0.0102300317108524,-0.00745604565299829,-0.00390926277307112,-0.0151875678266316
0.0052289059183098,0.0167000675973312,-0.000822354850780001,-0.0176972066362666,0.00493682305626686,0.0105678066655046,0.0214108450873716,0.00263084653731547,-0.00720129193855066,0.0129793180552776,0.0256809498583809,-0.0120344497567364,0.00868655481483169,-0.0160719178351249,0.00488693365724138,0.00997613576872092,0.0176586431060824,-0.0164223154476127,-0.00259396281520044,-0.00434291124729946
0.0103401226377884,0.00724001582306162,0.0199823728719316,0.00302814785807369,0.00248950044492206,0.00321972898482428,0.00171195140504826,-0.0137201153989136,-0.0209601785742896,-0.00644138995310676,-0.000175229066750333,-0.00791029413987286,0.0103985037611342,-0.0159781630384059,-0.0260325173290361,-0.0106447419015358,-0.00415210889376714,-0.016945529236104,-0.0106407695174967,0.00518407785919117
-0.017304269711888,0.00178387374100801,-0.00846054429759049,0.0292988177936783,0.00560771109724088,0.0146454531057098,0.000410214266357441,0.0186996427548086,-0.000781078792199579,-0.0105003737419511,-0.0200611757315471,0.00764716135330405,-0.0167065561113164,-0.0236293959385924,-0.0244548435743038,0.0116205318931175,0.00454465958277484,0.0265373857507344,-0.0180501355942711,0.00210259466073124
-0.00774428592531589,-0.0286606881473569,-0.000218062367898945,0.0129618607139562,0.000881948849671041,-0.00443121662289981,-0.0161951122987903,0.00225884189771512,0.015908847186768,0.00543340697144575,0.016230893753769,-0.00884534810182134,-0.00533649364549812,-0.0110330063436541,-0.00504812086279578,0.00297660715420909,-0.0198424773383434,0.00263818753920063,-0.0223640810844618,-0.0136410221893072
-0.00127213901649328,0.0221626758802984,0.0273305183836434,-0.00757370778859512,0.0219462275001997,0.0187681239883391,0.0138159888881646,0.00993770236000597,-0.0159328990954375,-0.00351361427744143,-0.00156270934143585,-0.0203964406839619,-0.00295149366233181,-0.00296282053335701,0.0111527404475008,-0.0227551433244156,-0.00945005841077143,-0.00219755216726523,-0.0161442279855873,0.0172745702325835
0.00694167989095651,0.00397428471744571,-0.00636949883383199,-0.0112931399320464,-0.0116794897181039,0.00368732014360367,-0.0106672164721547,0.00361852606650341,0.0154724090532307,-0.00952310487049582,0.00834422695547135,-0.0241361982875979,-0.0177121355742913,-0.00189827900100469,0.0140054598402481,0.0124162261349682,0.014544549905757,0.00446712102682155,0.000666601889062642,0.0032378539626323
0.0210946637422743,-0.00888611127656874,0.0123986270932013,0.000743645684561796,0.00494383124954392,-0.00629384051505494,3.01171330380476e-05,-0.0200958662407167,0.00570108598808188,0.0187712485357382,-0.0104573632760331,-0.0104664058357392,-0.00204955825330803,-0.0123217222021432,0.00653712025029757,0.00858292107437496,-0.0117799780133215,-0.00211757146665213,-0.0112296998381704,-0.0028873400487558
0.0125543531092681,0.00539307356803204,-0.00351306648505877,0.00572265294437408,0.0188467148286332,0.00131001458233864,0.0054471747204769,0.0133415827046714,0.012054946209137,-0.0299627507407253,-0.00806449709659929,-0.0224373602039268,-0.00720705845106641,0.00339707249019577,-0.00768650112211992,-0.0230569291249978,0.00281865624729648,-0.00623133405098039,-0.0117748602999783,0.0199811909934313
0.00261737837778209,0.0100056753009415,0.0222111379040376,0.0207947362136616,-0.0121421499262301,-0.0167610086362078,0.00803634353903366,-0.00963258929150003,0.00224925557533384,-0.0181309098553888,0.00661204452483555,0.00737851026562879,0.0110246126101589,-0.00466507537768975,-0.00668218229188236,-0.000657555624659358,-0.0219816956779351,-0.000729999622709842,0.0127948169097547,0.0123624556894353
0.00200787596048533,-0.00911428291625509,-0.00795175990084155,-0.0116298261873708,0.00667927496091064,-0.000910234968600224,0.0196634104331111,-0.0135980149476424,-0.00302576029509899,-0.011567860135498,-0.00718433733284154,0.0217203714013957,0.00879632603871139,0.00862705298503707,-0.00630532114173808,0.0167894271071235,-0.0026123155008055,-0.00104729873254681,0.00278086937044995,-0.00229248259748141
-0.0239837814853526,-0.00246088584248339,0.00556749759655006,0.00849508645575289,-0.000613971495093389,-0.014222524896945,0.0190186944241736,-0.0185927318169168,0.00687517658850107,0.033456899432731,-0.0310579074868985,-0.00958656152111092,-0.0066688116097277,-0.00187644433605645,-0.000561030766953611,0.007791344829886,-0.0272285705977893,-0.00513522755567943,0.00188997464823961,0.0245166149517101
-0.010142461300006,0.0275891782517299,-0.0117001191397981,0.00413929301701921,0.0117889276853758,0.0053038893981103,0.0112648721907656,-0.0163427374527459,-0.00388086170856307,-0.00272829985343683,0.00225658210616442,-0.0120226331702464,-0.00568918657616883,-0.000820991791088968,0.0044336407382528,-0.00894804127666801,-0.0242801970865492,-0.00573069084620335,-0.010878932705153,0.0301795232133698
-0.011066821077301,0.0141874606734877,0.00380808096155725,-0.0106886652267963,-0.0168885822044598,0.00821836580737257,-0.000596269890347674,-0.00797443761881073,0.0146387241111444,-0.00125447132740676,-0.0175907944950581,-0.0144218313795098,0.00218659907389055,-0.023897817863817,-0.00677093775295553,0.00332431442536149,-0.00851921302074999,0.00887852584209188,-0.00299535151275949,-0.00956366357845138
0.00338152468924318,-0.00187927290846892,-0.0167212541195705,0.015982365645744,-0.0143751538694628,0.0186950034167841,0.0316498682912261,-0.00507370696248756,0.0122166748420296,0.00429402340869904,0.00208256410288861,-0.00223071299872583,-0.0129876088969712,0.00777131535375269,0.0196337740068991,0.0243463731898015,0.00497969996370363,0.0175962691723019,-0.0086962526047495,-0.0050205569074641
-0.00938656306327868,-0.0134413512054577,-0.00856816839755076,0.0187632014379592,0.00394797153596269,-0.0062931427285619,-0.000427012794287905,-0.0268764574996721,0.0199826492864324,-0.0114586908182808,-0.0134930297457262,0.0225742659233746,0.0020744341561375,-0.00899017909011533,0.0220237942214149,0.00446291558337544,0.00719994481466079,-0.00842730816887159,0.00262002367764386,-0.0131672323525489
0.0022486744374735,-0.00494833978663548,-0.0018645573825554,0.023834600754094,-0.0138576597623496,-0.008216027929525,-0.0204126574266595,0.0167751074779591,0.0147463607972252,0.00157617192051969,-0.00551219813651879,-0.0157392388804115,0.0302991028695423,-0.00242409458100767,0.0196620914313797,0.0137856625395844,-0.0126535134131572,-0.00254895837495457,0.00139596039569345,0.0056393512834718
-0.00759267233467268,0.0133923370372596,0.00542404057272015,0.0158125348991073,-0.0145764495634082,-0.0066159282876807,0.00760393415191838,0.0137467138871529,-0.00849342866375934,0.00738179968754037,0.00348015036707324,0.00105877010168246,0.00057623360028716,-0.00887703543958318,0.0223289334499281,0.00848196552487301,-0.0261971782143895,-0.0292580528356844,0.00343164416466122,-0.0120119743941005
-0.0163302621009169,0.00786842710130666,0.0113691557165105,0.0264736283158194,-0.000171183126613501,0.018342276967665,-0.018875778692065,0.0132404847257533,0.0187747577777939,0.0174132639236465,0.00971023905031758,0.0190279128110568,0.00872735394230512,-0.00831794025713012,0.016173434459187,0.00563197481805925,0.00445852818348567,0.000463374906873251,0.0124187779793175,-0.00124161879923488
-0.00190256833499364,-0.0140150201043366,0.0122163319234907,-0.00485989628588701,-0.0115586315771999,-0.00296309249196481,-0.0116678513377548,0.00296171133858746,-0.00204193085015692,0.0106274864389163,0.0117670412853614,0.0199409180639381,-0.0131491252913574,0.00577826279441816,0.00444197798978127,-0.013137687719379,-0.00932537378328485,-0.000985261686668871,-0.00280942407634076,-0.00154747894461188
0.00972613569668668,-0.0200696618053982,-0.00689614325099696,0.00921460299234537,-0.00219425668117544,0.00416162684939354,-0.0167260381549683,-0.00399396400013833,-0.00309793207647868,-0.00499452940652033,-0.00129454917211434,-0.0155383484919583,-0.0035869260983212,0.0117499786279057,-0.00736656140113689,-0.0108099024509865,0.00181566145521978,-0.010087792599923,0.00494506822262184,-0.0125152331119154
-0.000939224841908715,-0.0119932867240572,0.012428319770092,0.0136918893231668,0.0193124983873208,-0.00709684871749017,3.50305960782268e-05,-0.000394701529659239,0.0183299420815944,0.00361542052319729,-0.00173966783650208,0.00844216653279282,0.000499666251386953,0.0223830649293845,0.020766704349555,-0.000588738808763752,0.0095397749848222,-0.0103790347263469,0.000253921884962645,-0.00621522933724661
-0.00142542106936681,0.0114936167351377,-0.00182947829465987,-0.00776038769802644,0.00731768212509413,-0.00999421587003349,0.00729376053130602,-0.00365412246374328,-0.0152927084171499,0.0090094070937424,0.020730745163759,-0.00606431521392643,0.000612989476613541,-0.00106459523592562,0.0245134339367324,0.00176081985406327,0.0198492553793802,0.00391502086672684,-0.00148944197991906,-0.00546367694408955
-0.0183202522132406,-0.0167788799773033,0.00186150105403301,-0.0057561854955592,0.00519643915475464,0.0263368888163309,-0.0188184824028703,-0.0051061665367113,0.0023067096478977,-4.12080539052381e-05,0.0136670438063741,0.00391158176987805,-0.00810202909482808,-0.00263830238402897,-0.00010624808734214,0.00950517104933487,-0.0121875409677128,-0.0173677883763471,0.0115617517247329,0.0239732493532438
-0.0228855618304908,-0.00932039171922262,-0.00961482351151028,0.00974967555830953,0.00352861559031829,0.0203412976073763,0.0177523709658189,-0.0161342716054781,-0.00126685087180803,0.00129596704637291,-0.0135135874096644,0.00383606377032409,-0.0150902384266393,-0.010103882148255,0.00848946182889037,0.00185992103843794,0.0158965801304965,-0.00754654745431064,0.000930464753794982,0.00145853215532095
-0.0127409552799204,0.012195090914641,-0.00743663038982961,0.0191060653024258,-0.00836961786764234,0.0298326693058256,0.0182808936900029,0.00382021412758901,0.00990400280666543,0.007358107831356,0.000645594365484563,-0.0100069801294232,-0.0106985476796718,0.00603207454525967,0.00204974074238468,0.00923677797118651,0.0125004259175318,-0.00720022062787166,0.00648403116238969,0.022516004630153
0.00417391787343315,-0.00252982608469971,0.0121784101542368,-0.0157473108412283,0.00357746746499127,-0.00111194428704391,0.0028208189083864,-0.00195776792571946,0.00661790014858891,0.00191727014361373,-0.0297746689134743,0.0181238653220679,0.0273500528566207,0.00247115139247828,0.00659209450844266,-0.0190329306323027,0.000787584067457824,-0.0186206797629891,0.00768818790941884,0.0189125554454989
-0.0040914518229693,0.00215422182216069,0.0014160601801284,0.00723729221517648,0.0075907562619739,-0.0201455251119474,0.0178076037473681,-0.0083157296996526,-0.0232131392428679,-0.0322192606247145,-0.0262389009792206,0.0132892241900127,0.00111023406171731,-0.00460514905981517,-0.00309261535971196,0.0137621029077933,-0.00914962210218913,-0.00937268031036734,-0.0107884330798802,0.0171349747392156
0.00032912910145652,0.012295852269154,0.0165947587833142,-0.0039918870017729,-0.00171173222334153,-0.0103076471348648,-0.00953591722045066,-0.0055870952020407,0.00223170854689949,-0.0228309525521063,0.0273640878010237,0.000431319077342268,0.0168334140226041,0.0148327494487056,-0.00351676802434234,-0.0134278713188646,-0.00241770834286487,-0.0065114739402747,-0.0285169458229077,0.0220547438403524
0.00499123750110586,0.00241340233320009,-0.00665801059425747,-0.0076323796707379,-0.00804492618611897,-0.00979615243305804,-0.0145444185187315,0.0120073270864982,-0.00851415683029432,-0.0031931363612799,0.00446464497305165,0.0119892117813965,0.0182484455270015,0.0164423874085441,0.000815444388993406,-0.0153604786176378,-0.00520580607745128,-0.00392738619313439,0.00721997741991422,0.0277117011748153
-0.0104209865336616,-0.0242303809354475,-0.00335741533416245,-0.00484781816093819,-0.00348157064580817,0.00336663664496871,0.0241781157677974,0.0171077531384106,-0.00248613127016632,0.00939923176456531,-0.00113546709464035,0.000378929744708592,0.0243072872892353,-0.0205594908369814,-0.0221786993016795,0.0100008780127598,0.0126733228399925,-0.0290972100912479,-0.0107357080884781,0.0222938991646859
-0.0373655111590461,-0.00409529341023691,-0.0229777043773089,-0.0208902974496691,-0.000381844416692147,-0.0143288267156579,0.0202958418257806,0.00787850053584883,0.0197045689780509,-0.0213026474294213,-0.0185453532043613,0.0131907948920226,-0.0145811877847655,0.00796700032027265,-0.00123134725499628,-0.0105068351758212,-0.0120911883088532,-0.0167088188798312,0.0199902260036807,-0.0138069583225362
0.00145448632472574,-0.00431047624369138,-0.00153962593196145,-0.00925331636596866,0.00810476822764342,-0.00265378312914312,-0.0196705253676028,0.00811823763172031,-0.0231526121584239,-0.0239050187414165,-0.00179080601586636,0.000874145667103264,-0.0112991381848665,-0.00441960712896618,-0.00707454879890227,-0.00316893139912042,0.0129618743522826,0.00452305016045196,0.0148514469306927,-0.00169019114060258
-0.0266903407304336,0.00560675211826612,-0.00946570037414873,-0.00337282534241282,-0.00743917051654351,0.0104977289033615,0.00818484320512978,0.0100600830552211,0.0146275614407339,0.00611166489848445,-0.0211405470246716,0.011861992707179,0.00607685814379349,0.0235772815085737,0.0046988897611878,-0.00203138010959716,-0.0088480700697727,0.0185654063712003,0.0022177888686471,-0.00303557126158594
-0.00835355497057547,-0.00736531684153345,0.0189272015599049,-0.00837585450982069,-0.010090978208071,0.00548399135299652,0.0138250700651487,-0.0163323864403621,0.0150655031917416,0.00265589549866749,-0.0157278169669854,-0.0164490841734547,-0.00452684677854766,0.00304352840884272,0.00447071300323083,-0.0250269761468318,0.0037679352925946,-0.00403779924583503,0.00216232425364259,0.0042179805670104
-0.00331689901544832,0.00139086197318213,0.0113956990776067,-0.0115930694543018,-0.00106867948182359,0.00272685177064022,0.0175619914422102,0.000305780256758484,-0.0242026911566861,0.0120824451063404,-9.16308022342438e-05,0.00683209971983111,0.00329237479960431,0.0282624099668922,-0.00262413968558233,0.0125235033059097,-0.00388899713704463,-0.00972976200289599,-0.000176320249937809,-0.0208005421240934
0.000752264550564821,-0.00569972390022732,-0.00264642223108191,0.00663031642809788,-0.00669870624292529,-0.0163773295726507,-0.0112949605721574,0.00432847957128747,0.0197416281597473,0.00505369546000958,0.011160989370977,-0.0113012794302665,-0.00101239336605195,0.0135944248463894,-0.0026866375326933,0.00336176253233503,0.0105928356717335,-0.0032593732702226,-0.00716719702666838,-0.00335989484205148
0.00817179745619328,0.0173587503222417,-0.0113422364430412,-0.021993723694115,-0.0133769503208569,-0.00147819519015136,0.0204991040190474,0.00530760385351629,0.00900883346729524,-0.0197501242599697,0.00981967051515918,0.0154304819784188,0.00796178374285217,0.00125588267786364,0.0146195418553048,0.00821296579542883,0.0108177359992189,-0.029368121852503,-0.00576215054913481,0.0082847759642116
-0.00554736447556751,-0.00211888522145905,-0.010675539219503,-0.0139047475249992,0.0224189016413206,0.0165433522938029,0.00855357633328749,0.00557627076920826,0.015303261736549,-0.0108895077991837,0.0323201682213889,0.0223901824779363,0.00558903445120219,0.0240497751922474,-0.0139834592230394,0.0100654554064969,0.0138334180400665,-0.0246708154029804,0.00063785219117513,-0.00378964983486224
-0.0038064956022191,0.00939261896546648,0.0261796677050847,0.00841798279048878,0.00148229919014014,-0.0240481141782624,-0.00260211803128734,-0.0239491603984227,-0.00848572987412878,0.0247989532173597,0.00829039010608839,0.000663843312701924,0.014779667392784,-0.0123321664795904,-0.014992011522086,-0.0099980009316457,-0.00291198479683675,-0.0155858394024045,-0.00666943792234611,-0.02485017412495
0.0112494969924072,-0.0091660995167763,-0.0195848090127438,-0.00113547734658081,0.0129992821788097,0.00849751086971466,-0.0106564696818592,0.00489827428014922,0.00270197097806061,0.0173986157914789,-0.00613041270440498,-0.00995958112673746,-0.00928474715156211,-0.00761616004524784,0.020238793351721,-0.022303522491744,-0.00697513057674178,0.0238037275848351,0.00594898997563166,-0.00980821248429383
-0.0233053987981808,-0.0170602377619058,0.0101210391604189,-0.0160183098193694,0.00209514657350202,-0.00401915995968263,0.0107028780609148,0.00143649189445571,-0.0158338412875986,0.00403486905372643,0.00486914601019624,-0.0178708104280113,0.0223929463649823,0.00676690902626483,0.00736294720608555,0.00643920157141608,-0.00216872627036063,0.00450680265055011,0.0288226806408275,0.0119896762109626
-0.0148127838925401,0.00729722119500823,-0.00539382037137163,0.0142406061838908,0.00201785646837851,-0.0152028446191094,0.00202647738074612,-0.000906090192082537,-0.0126905866419398,-0.0112777122740443,-0.00905208115467005,0.00559080496552291,0.00616795268375689,-0.00782874033033154,0.01300387688721,-0.00802127329039653,-0.00185940669179848,0.00395236505550248,0.017784079795819,0.00102771389556654
-0.0151953718177671,0.0118285411876629,-0.00572674865658344,-0.00973555482855574,-0.00142411473334407,0.00524225616750762,-0.00857307505727477,0.0109740348803474,-0.00511049536830981,0.020051518081694,0.011913177045024,-0.0132710849161154,0.0182503914605738,-0.0129513765292685,-0.0040355022966503,0.0029672843802104,-0.0201560100905679,0.017396905180317,-0.0134274205246474,0.0105555646587337
-0.0186545457184252,-0.028077799840892,-0.018975395145289,-0.0092553946675448,0.00833118870172311,-0.0196544298173626,0.0194930599006206,-0.00487333896729524,-0.0186705202109425,-0.0135471208080056,-0.018259866679959,0.0225217948402775,-0.0124551592541928,0.00718266995445426,0.00590314305823462,-0.00778373837927654,0.0227975580894743,-0.00474073038254983,0.00126463634555119,-0.00189162069822475
-0.0180351339866274,0.021081115381265,-0.00441173839871424,0.00641779075881041,0.0128561071644763,-0.00522772144044619,0.00389879968983465,-0.00943084011568906,-0.00646272475955321,0.0075364122500923,0.00295579342055576,-0.0195117760500798,-0.0268143719223399,0.00469811016684894,-0.00199609133413763,0.0197586139179388,-0.000791330592232846,-0.00070615302767217,-0.00545814943892232,0.00302218605861489
-0.0151452924924284,-0.00726155938096517,0.0095124073619779,0.00167141924539407,-0.0157945989551339,0.0116032883218302,0.00438671910219952,0.0233943519361998,0.00429375555169485,0.0116353480182447,0.000875863568696125,0.00334964124737575,0.00420895490123756,-0.00362862816363562,0.0169105475320462,-0.000861754121549604,-0.0103671908509108,-0.00669473035469196,-0.0316568248157693,-0.0218499069547649
0.0200552809500347,-0.00941442438585812,-0.00156924143703587,-0.00900447523837008,0.0148435745852003,-0.00942222130172207,-0.0064483124822228,0.00546335947821501,0.00521258401134591,0.0127812083698554,-0.0146936177525841,-0.0192856105347164,0.00706378136985408,-0.0141705827592974,-0.0280693488759683,0.00439161105307159,-0.0106885691669096,0.00623817459421,-0.0219676833851354,0.00119131258941321
0.00263787565019252,0.0207434191653254,-0.0110485713380695,0.00556783977564464,-0.0063606263267736,-0.0101342981123386,-0.00285213157171192,-0.0204824978135823,0.007831405362699,-0.00745731527852674,-0.0114741550511811,-0.0271819315441539,0.00613982007966768,0.00763553282361568,0.00211939521883457,0.00640542328984289,0.000592483009034034,-0.00671393750910305,0.0110735220778883,-0.000207764177712227
-0.0130692977590124,-0.0052431687032737,-0.00400609344759537,0.0142051927882233,0.00316129325238357,-0.00239761656873787,0.0160990872834422,-0.0210522555257574,0.0268799393226665,-0.0116011164562919,0.0225415078576099,-0.0248069286644811,0.0123559776733392,0.0112188968153694,-0.0035025660554075,0.0199183968942007,-0.0221304898271189,0.0102019531298874,0.0111885929410609,-0.0208789517772358
0.0239518205218622,0.00282803697667569,-0.0135429265850364,0.00556540711304164,-0.0119137470578862,0.00773954180666482,-0.00534848679200872,0.00500303569856944,0.019442410356012,-0.00649996140072161,-0.00653710833980691,-0.0136727089267613,-0.00247075135107914,0.027056096829846,-0.0143728258344139,0.00189867589842094,-0.00448849917201101,0.00852605375484801,-0.020900985461419,0.00304665437046062
-0.0247419834538684,0.0316901561162859,0.00490470835938144,0.0232549529285725,0.0285681040759206,-0.00249507986731384,-0.00907629710860718,0.0125732280744832,-0.00426529097692477,0.0166811410813994,0.0055669328713411,-0.00398153270745085,0.00522296006197929,-0.013270569956869,0.0113061812821202,0.0012206613968789,0.00286330274691805,-0.0256608759609048,-0.00443778563942363,0.000404375277352373
0.00480649763894864,0.0123434734719792,-0.00197607536290354,0.00851198758537091,-0.00331359879029725,-0.00791774520941597,0.0175635978319394,-0.00996808353400212,0.0175973580410534,0.00612162125334896,0.00243505181003404,0.0157623820372422,0.0187209256587791,-0.0229216295576152,0.00949628184939033,-0.0298602256703931,0.018218134312968,0.0224606096749974,0.0331963893898609,0.0279253809726765
-0.0054257311737044,0.0157845161801672,0.0137788993749681,0.00583851496995233,0.00449859909776863,0.00280421821423651,-0.0272191838566935,0.0115294857126169,-0.0168642740630692,0.000518481676234019,-0.00440445850477741,-0.00544983262523178,0.019433259033418,0.00331231064321434,-0.0198168262909489,-0.00155582484825187,0.00319526662059217,-0.010342337909713,0.00229320094950355,-0.00927807579993749
-0.00222074771236831,-0.0213589054774477,-0.00276299762753078,-0.0139008259499813,-0.00316717937017207,-0.00699251652077382,-0.00519680178060096,-0.0249691988339769,0.0046103828418662,-0.0151426178124437,-0.0195980276695079,-0.00159859772259817,-0.00375702196566137,-0.016037487110166,0.00541275308140196,0.00516239417168168,0.00361911668955364,0.00101541943034158,-0.0188160785121599,-0.00738781415265684
-0.0097628233007643,0.0101004095046597,-0.00286805054894478,0.0173634230551515,0.0103465369683096,0.0241253878422036,0.00467056116805952,0.0161448895963417,0.0144079926395077,0.0211941629056601,-0.00541000657071412,-0.00117840862116801,0.0171696784748665,0.00456060377692266,0.015447076287163,-0.00684368677981457,-0.0190860134358216,0.0124963823172369,0.0128586512070146,-0.0115177157979469
0.013739287150758,-0.0076857320922565,0.0136518199180975,0.0145279671205211,-0.0202351878581117,-0.0266786632728423,-0.00792430608035484,0.00822588505832448,0.000291867234141636,0.0161281744599037,-0.000387645253819126,0.0099286925352806,-4.66851349252587e-05,-0.0166752992070317,-0.0149722055626647,-0.00349862969466164,0.00646160760009103,-0.00594647969908734,-0.0330086105284792,0.0110451589044854
0.00939169963283229,-0.0177433450141585,-0.00762965163598631,0.00875395888672744,0.0270851143853133,-0.00131099578863882,-0.00366205837180438,-0.0174790826766794,-0.0310423823972831,-0.0152407922805637,0.0179493287622846,-0.00461039138227274,-0.00879523605347697,-0.00781261883999287,0.00155670166723317,-0.0146899432805435,-0.017670020238658,0.00121916447140411,-0.0102614500094788,0.0121175094776628
0.0170479522664846,0.00302708581213145,0.0041231258798125,0.00635856959422437,-0.00613583619540904,0.00621453521787451,-0.0212604029365486,-0.0092988239952995,-0.0171768430691942,0.0137800661541819,0.00166968168704257,0.00308766797786161,-0.00276625606564005,-0.0264470687499545,0.0263658962584731,0.0043071198824001,-0.0141120151983026,-0.000223804193332489,0.00116723416393711,0.00283615427805943
-0.0135864780433055,0.00420845454620948,-0.0123718494243983,-0.00126930295992016,-0.00591989865154904,0.0143184827968371,0.000904282187711897,-0.0123993570018163,0.00308414855081707,0.00338201273175658,-0.00310057386405174,0.0118005780653415,-0.00165398401536686,0.00605633515086233,-0.00595377521118368,-0.00422912719624665,0.000590034112814022,0.00779843013529753,-0.00143783415983962,-0.0154176422020364
-0.0115159254632335,0.00481993087509397,-0.0109599605888833,0.00626660602313981,0.0136961846397801,0.00123010013284428,0.0145594681571102,-0.0139934514333307,-0.0212890471073223,0.00266189662717466,-0.0151153145564673,0.00976839955473972,0.00424820430400226,0.00160411361224928,0.00125876003626668,0.0160556519249536,-0.015355934881017,0.0280330145229635,-0.00154407800251252,0.00208524242687468
0.00719809516202254,0.00920253900810706,0.0181683456445015,-0.0189785553881862,0.00962600399768135,-0.0167270849208998,-0.00550367885168632,0.00374403500648448,-0.00884006115018033,-0.00924414851421144,0.0202123073801061,0.0104886126591152,-0.0131549934873748,-6.21078519035714e-05,-0.00657112470863375,0.00155454758561866,-0.0100751815207721,0.0105789647574078,0.0167900397791751,-0.00924922430349289
-0.0194465920988882,-0.024723692598965,-0.00366437654247473,-0.0189582794096686,-0.0116777010610321,0.0211927877837999,-0.00783251267896065,0.00253864980003705,-0.0234574762157043,-0.0129101780716477,0.00682036040443828,0.0208464870193361,0.00248913544169986,0.0202280220308358,0.00753751423040834,-0.0173798926793427,0.000350885952351695,0.00412771915628052,0.0160501682761314,-0.0258595479291036
-0.00279021226866328,-0.00650685167127567,-0.00782164772679871,-0.03039764113582,-0.00814904731046432,0.0109436713812331,0.022672748539406,0.0138717530356652,-0.00124801921545635,0.00359315710878522,0.00493567811545356,0.000989464499992015,-0.0161914123638139,-0.0101748502988582,-0.00337505822142005,0.0231877280671773,-0.00376668030502059,-0.0254043547422228,-0.0161728227586153,0.0195155707923025
-0.00832726749252568,-0.00480004107211112,-0.0242107155506633,0.00576089830268898,-0.00346088159645689,-0.0170567772292614,0.0187427092918053,-0.000937435677553824,0.0127290647773607,0.0107095786441329,0.000409375073442016,-0.0216361903955837,-0.0146817564778851,-0.0226999239069511,0.00109414016585048,-0.0062459909399434,0.0223013892633124,-0.000847050365769693,0.0028028648183272,0.00163742731986659
-0.0051407197548319,-0.00376944730591051,-0.00270332377953018,0.00216068095114763,-0.0187912463224935,0.00212115324385258,-0.00356811620753043,0.00861893652171463,-0.00562552139547331,-0.00408692077575261,0.017029524503356,-0.00153321016007525,0.00520853195534866,-0.0153663100037104,-0.0283734121169343,-0.017220447942148,-0.00573778081951117,-0.00903241759974062,0.00243328918875068,-0.00466318754759452
-0.0123194092157365,-0.00345340054522676,-0.0124735553086897,0.0280717349758907,-0.00645349894709046,-0.027585967953505,0.00273267580388027,-0.0228007411732714,0.0109513234782147,0.000994661891301189,0.00262894573350343,-0.0205839673122812,-0.0154626793392031,-0.0127318856342988,-0.0118137410539428,-0.019186166137792,0.0150825703141387,-0.00660691833275783,0.00561694547181576,-0.0271623422244287
0.0364138260309761,0.0101606360984301,-0.00295622367240762,-0.00889650747538533,0.000159404233497118,0.00392804379619325,-0.0140577268657002,0.0224671376165938,-0.00343740785181508,-0.00687372886895811,0.010651724365641,-0.012586484749224,0.0134580132091786,-0.00659767775027725,0.000320812215301037,-0.00474573014590055,-0.0143979964014741,-0.0125794091812768,-0.0040670391549448,0.00250766895496149
0.0304334959648994,-0.00088341079452892,-0.0049876064748818,0.00739476633651495,-0.00930223529267007,0.0110434238523614,0.0105654875159243,0.0244344207464686,-0.00653660181893636,-0.00676153990824664,-0.0116235964874351,-0.00919277265791921,0.0155160953473624,0.0153499408181716,0.00892391926487483,0.000389570038304517,0.00467275638303109,-0.0167384935804615,-0.00338757081754886,0.010809180828248
0.0204956413078177,-0.0224951236124384,0.0223605831287808,0.0272449952044298,-0.00139756526886874,-0.00975463138622177,0.0224639375320405,0.00598142359761651,0.00383470230005441,-0.0221020103057283,-0.00446067726125616,-0.00899624742954085,0.00650874767570874,-0.00948317203472552,-0.00268340129109272,-0.0103456873183569,0.00446067907665084,0.00920961294971126,-0.00245558862892537,-0.0116056283836388
0.0111012054162682,0.00460386559161042,-0.0200719860627431,0.00901366655258426,0.00226182320101036,-0.00802108704194804,-0.0172392023623828,-0.00120938385755256,-0.0115635207073106,0.0156525186659625,0.00932716043930803,0.00443446751628535,0.0121956772655992,0.0151765826656838,-0.000769610834622132,0.0186531325563318,0.00567862977122651,0.0299561356967721,0.00189382703433582,0.0178790431838568
-0.0156896068544711,0.00500680629244764,0.00242741408605436,-0.0157244562567959,-0.00783006590627088,0.0172153039553768,-0.0165727196444498,0.0216624311477771,0.00835712395580605,-0.0173163240966079,0.0151545892851333,0.00301529352949638,-0.0137534498046637,-0.00940115879938597,-0.011994610384373,0.018596146705218,0.00618023961607926,-0.00102560313266207,-0.00465979609299756,-0.00588103468753448
-0.00918530394933925,0.0119029482704167,0.0237232355033474,-0.01145313398767,0.0219009140245605,-0.00745113687408582,0.0085206512734449,-0.00700034506584838,0.0225776184792876,0.000313664491648557,-0.00439532474785414,-0.0177613144356776,0.0176432591321559,0.00176479605644149,-0.00931029982190408,-0.0229745061475862,-0.0108104286897663,0.00490676109136531,0.0101848393159171,-0.00694381983755094
0.00921346857807495,0.0127717075208853,-0.00375747520420565,-0.00669803866390124,0.0128802689042902,-0.0185398512339553,0.00876031003531496,0.00729234592523518,0.0211531127414331,-0.00270167202137183,0.0110108106941321,-0.00829141845129234,-0.0069482769872855,-0.000244917078400179,-0.0162646415450286,0.0124553338830881,0.0139906552058934,0.0011987215446898,-0.0159338556489773,-0.0214118834256489
-0.00528684622526983,0.000681927883070073,0.00256423682662771,-0.01296920209235,-0.0181425985929708,0.0222347010972627,-0.0165492872821724,0.00735751119609304,-0.017550390519876,0.0185015972949845,-0.00252440380527492,0.00491962961011821,0.00548200424853013,0.00948064819821525,0.0190746405068069,0.0150645557072072,0.0226539872430181,-0.000510926510828204,0.0182832817534526,-0.0170296338616403
-0.0147619685605565,0.0209623479869868,0.0109993322337929,0.012862979775215,-0.0046725549110635,0.00330997602063226,-0.00306079364363413,0.00400190026889231,0.00983799473766141,0.00152689066360335,0.000700099118363348,0.0110746718564955,0.00988053726558969,-0.00573756458085491,-0.0186777830992292,0.0113676182680601,0.00815245078540645,0.0165374479206681,-0.010321469718542,-0.0244696211687335
-0.0180684027164228,-0.000116827162571276,-0.00169907587197864,0.0389541951687193,0.0117014260584411,-0.00654344950475489,-0.00210245362528173,0.0167309289789242,0.00318402968265144,0.0106073165088325,0.00264276338419037,0.00446543113257996,-0.01527726000893,0.0217464952004311,-0.00913111029556507,-0.0175599890113269,-0.00986282050339779,-0.00729388341631469,-0.0128710834799081,-0.004450986734392
0.0110127433389334,0.00987485311213712,0.00673877064963612,-0.0108719337499063,-0.00462721939154061,0.0196138109973312,0.00531321670450228,-0.00399434244497729,0.0197075730665156,-0.00962113247457243,0.0246376300344947,-0.0156469657302332,0.0218162486155159,-0.00291469313645611,-0.00567470289164786,-0.000980505278053409,-0.0101396348396796,0.0176776482838476,0.0130482013822894,0.0130653755451888
-0.00331252974406763,0.0163505481415629,-0.00834053064719716,0.0252611276929148,-0.0238508034275569,0.000877098081994729,0.00646811763605377,-0.0268659574626468,-0.00463551793634735,0.00759595125578639,0.0264145977513935,0.00394338589391333,0.0134707884565985,-0.00673374605567509,-0.00953337993474299,-0.00373633253076673,-0.0186680060235837,0.00530407482642682,-0.00660436649717179,0.00288574345567549
0.0102709440272044,0.00657289439028812,-0.0214802132740262,-0.0282713091248128,-0.0188693409634651,0.00166596898057536,-0.00875052482179449,-0.0200721445435409,0.0222214926429688,0.00803282679636729,-0.0132996057361675,-0.00537255098273559,0.00955064971155344,-0.00444692962514908,-0.00148309643064,-0.000998948331410522,0.0256471346659919,-0.000112554117667017,0.0159627628208875,-0.0182554341904741
0.0220210495047084,0.015314787698429,-0.00297332184289803,-0.0205765612400698,0.00521166825382469,0.0138910364829486,-0.00904531569994473,0.0101798240941224,-0.0318311070095926,-0.0250311990231868,0.00390169684162055,-0.0211076412311203,-0.00476734283092485,-0.000703080241978127,0.0304268169551512,-0.0226604421521793,-0.0178300716969206,0.0165128561766991,0.0113454369181123,0.00793360937174481
0.00973373971523945,-0.00194705621888549,0.00117780197140435,0.0019379672117741,0.00153638869662296,-0.0165301774082845,-0.0169863077338354,0.00741512674809672,-0.00727657699489706,0.0132879250520181,0.00213708476546154,0.0274267242439354,-0.00625077749190769,-0.000125195658292025,-0.0156811875554578,-0.00395024117583028,-0.00180248992622917,-0.0127712670504293,-0.0154774634293717,0.00670654900475876
-0.000369610953414664,0.00683728886475209,-0.00415805275242825,-0.00823483811525134,0.0100648333586087,0.0215812895104414,-0.0224842391402316,0.00203569894848706,0.00233228719157243,-0.00718836310672478,-0.00613497724692474,-0.000311894257601981,0.00789963496731759,-0.000556645808473497,-0.00779809066421695,0.0201253807489161,-0.00885397906513489,0.00839695771318936,0.0010653534301017,-0.0190991103973206
0.00463648068144658,0.0161904094274885,-0.000894837697235627,-0.0162570773236202,-0.0189187924356224,0.00563088086007064,0.0271769350212914,-0.00565777639675917,0.0266650001151882,0.00604173272056604,-0.00893441460151837,0.0120857799472962,-0.0182231468700026,-0.0104314205753881,0.00612661434053817,0.00365434122170484,-0.0135825092462038,0.00606476674001075,0.0164485632895104,-0.0178401570550542
0.0137954739936623,-0.0125319909697915,0.0140164339702122,0.00768721820774203,0.00958304328548295,-0.0245995621894681,0.0116377785211394,-0.00455470778066347,-0.00238885463367653,0.00563831796529805,0.00860382684538247,0.003930996373322,0.00574997380964402,0.0231475365672887,0.00630986297885014,0.0103202602945343,0.00255401021777952,0.00977875328553181,-0.000972955165140746,0.00413145311937987
0.0021079457019178,0.010117199495376,0.00758711292605212,-0.0260056038408956,0.00845491422198913,0.013338622561796,-0.00819604136587769,-0.000401095560397084,0.0137241895139207,-0.0151810652935558,0.000988476980345448,-0.0136347973381525,-0.00371889684150243,-0.00653634301247701,0.0191222260951902,0.00861490193095611,-0.0220469232831247,0.00407222023930326,-0.00764988820643568,0.0268094674253819
-0.00871171973239459,0.00817201302437071,0.00168108181698844,-0.00241734263103753,0.00336812903931772,-0.010959129050082,-0.0172343255814459,0.00536145419822114,-0.0115237733609789,0.0143307042321,0.0206332007943838,0.00419564006305187,-0.0164396874703277,-0.0134306744154461,-0.0103321565318335,0.0186493398547763,0.00176524254717933,0.00328412449619857,0.00165050721884574,-0.0063611565133796
-0.00282666655971298,0.00919769416698783,-0.000185881466416306,-0.00139354836310226,0.0172333609617575,-0.0060809965839135,-0.0177451661179359,-0.0162354896084946,-0.00177071607431732,0.00826159378652642,0.0173945416720592,0.0147522930565171,-0.00776039839292007,-0.00791504280291019,0.0168363583217698,0.019512070214987,0.00962712297368283,-0.00282487102027414,-0.0128682411013402,0.0124919368389934
-0.0170676637279453,-0.00989878176767637,0.0219392410948368,-0.00297430249650462,-0.00224455483344632,-0.0100935886679583,0.0200291711351271,-0.000725949279555084,-0.0035900335607215,-0.0032440393096965,-0.00280639463543373,0.0183597459666477,0.00257568873611808,0.0113676114162535,-0.00130490016149796,-0.00201314702932761,-0.0108047973337198,0.00169522219245799,0.00273040541718856,-0.0189124999126009
-0.017689070701288,0.000753352238039526,0.0162244726252301,-0.00761012490374212,0.0149347481567653,0.00453334466570284,-0.0211764262575496,-0.00793694757465592,-0.00324780355691867,-0.00396189483706547,-0.00730664114870468,0.00750018061385468,-0.0342650699690969,0.00318799105161856,-0.00190069636432354,-0.00444840004479204,-0.00116118382941533,-0.0227967235523954,-0.0197022079034337,-0.000865800464919939
0.016807156619413,0.0233682703150797,-0.00879604531222944,-0.00191445241300383,-0.00432312101006867,-0.0220793246540212,-0.0214087975763212,0.0178758570663404,0.0230727782679413,0.0086148226668101,0.0114802391954585,-0.0219819890202279,0.00927129631838293,0.00258671780671751,-0.0149600957458122,-0.0237288347564295,0.00639286560708752,-0.00758555525127886,0.0155218612490636,0.00296256494430557
-0.0175421585427084,-0.030710782935778,0.00111120273947842,0.011967041507244,-0.0145696830428624,-0.022653377810384,-0.00572502152864786,0.0147397803478356,-0.00690531897158583,-0.00142922557872742,-0.0116036541137916,0.031785910717381,-0.0154095605863018,-0.00666452428466107,-0.0175855517397655,-0.00350364231738249,-0.0143230138179884,0.0144048477623313,0.0122555802287173,-0.00487499326133036
-0.00207653479756971,-0.0196910788064303,0.0057645478201972,0.0119226721966821,0.00857288443522128,-0.0134251118646557,0.000862984282491405,0.0193467947038876,0.00985045387532106,0.0269639036652048,0.00120450477632045,-0.0186591829197707,0.000812955360578542,0.0073657895842738,-0.00645657333511894,-0.00470134947240883,-0.027531061772271,0.0099079758030427,-0.0107103115925906,0.00862507701430809
-0.00701636352471676,0.0201267815431304,0.00156778222627419,0.00738234259801479,0.0172475719076334,0.00928899803052646,-0.0040650848153184,0.00729915918897818,-0.00815756314196884,0.0209702024170802,0.00964841348976823,0.000478190540055589,-0.0125985377018004,0.00128964189262604,-0.0118752985009091,0.00690129251818373,-0.029649670180976,-0.00517563022202466,0.0173232994721914,0.0131717591579465
-0.00653855415686432,-0.0345618056958043,0.00310616342609146,-0.0235236638499639,0.00894520863105209,0.00541290355224788,-0.0127589828662957,0.00715928216349754,0.0306707015216493,-0.00838851922375795,-0.00612838754790918,0.0139999773203154,0.00175589902311779,-0.0199980455922876,-0.00628336615227822,0.00119350187689357,-0.00933294901098,0.0166549432701667,0.000974695893205442,-0.00248965786404454
0.00603792232280562,-0.00251031416486975,0.00575749515604667,-0.0117597913167612,0.00301777814641094,-0.0054636461811959,0.0218932160826431,-0.00391056360480329,-0.00950309052830725,0.000696256046837311,-0.0138241883849662,-0.00842075608637652,0.00435523075089992,-0.0275950486639179,-0.00107632473444591,-0.0154191212478061,-0.00378219927537542,-0.0088694580118645,0.0290863746647351,0.0151100542079692
0.00738122526489324,0.00353175258420939,-0.00517774563703036,-0.000267116439683682,-0.00219928362691001,0.00269615733965793,0.0359140895914122,-0.00514534539841463,0.0180379422640533,-0.0189656722488773,-0.00298219737613485,0.00522234658004024,-0.000130544838918622,-0.00170120444888733,0.00231491588420116,0.0157313158150168,-0.00544040386245186,0.0136127941627937,0.0159212121118662,0.0135095985225219
0.0142308107920586,0.0235910762203592,0.00609596384242745,-0.0060780838390021,1.09068746694474e-05,0.0041475272548312,0.0130785590161577,0.0146242912822273,0.0183867864387858,0.00540985035968554,0.00461359020907959,-0.000995722898602609,-0.0105096774192675,-0.0181130238039359,-0.000220914990308778,-0.02299488665088,-0.0021022850333949,0.0248145615309875,-0.0161047888935023,-0.00352164324204715
-0.0126632772039063,0.00584336868506232,0.0136852491896382,-0.0212830530665619,0.0157595017855118,0.00596416161552392,-0.0156973333134883,0.00430366445272935,-0.00713726128066152,-0.0239348782707732,-0.0168837831018167,0.00129648099544047,0.0185430075137106,0.00595709214472945,-0.0195647508094612,0.0141102069875664,0.0332583851943075,0.028286178687234,-0.00446965845000021,0.00419830752993756
0.0154541006138028,-0.00948906023763068,-0.00638615528177923,0.019090542412636,0.00153994011838348,-0.0100689461666196,-0.00170074714754391,-0.0108784243132837,0.00356067411169367,-0.0228798549555771,-0.0285765247147419,0.024486510757139,-0.0152618881130048,-0.0185144209495966,0.00960230875050401,0.00436010027663322,-0.00163271484381402,0.000886314623448208,0.0119530854558997,-0.00733007816778892
0.0011340346687778,-0.0174326920579309,0.00990191288932495,0.00627252368657345,0.011919555608812,-0.00368492094079158,0.00562474754628525,0.0192169843582323,0.016161995498719,-0.0277377964176473,-0.00247874195420915,-0.00587634588383913,0.0239995297997632,0.0012340982503009,0.00658819321610174,0.00290664924776567,0.00959456641280209,0.0211977482129673,0.00427028525611569,0.0177410985320762
0.0266480896128316,-0.00916384019847759,0.0224782888906346,0.0060116194860581,0.0068104075543946,-0.00485657519640753,0.00407623545332213,0.00193286659914408,0.00737905926403807,0.00910914949485461,0.00610412808106576,-0.0028797031304522,0.0348170392437837,-0.017218933620827,-0.00582357335002382,-0.000132009506804769,0.026580949835647,0.0173050340230797,-0.000403719764206072,-0.0149632975415533
-0.0108440795236453,-0.0074905738602427,0.00457097432163209,0.00937085324021144,0.00138791831478518,-0.00810176637318901,-0.0112266347846615,0.01061505452924,0.00300628545204721,-0.000329914043047481,0.0162790579055538,-0.00956734700905933,0.0114875452947494,0.0118757421204304,0.00354877151209416,0.0083790312373726,0.0132287916701477,0.0111607803372499,0.00926135210349292,0.0245974538313091
-0.0151173953302581,0.000449174707337675,0.00624449029050015,0.0130095040791017,-0.00314534952518173,0.0121647324581047,0.00483728555192356,0.00866728914383705,-0.0175313470121054,-0.00783230744606368,-0.00852011074176312,-0.0212942940064375,0.00748282765046507,-0.0121640563163167,0.0162066081939838,-0.0128243207484486,0.0133513893986028,-0.015799778515528,0.00355287909418103,0.00135643160257886
-0.00255435729037601,0.0157965349806014,0.00170376080426621,-0.00553777868312872,0.0228697013646622,-0.0157312987299714,0.0109339011739176,-0.00761468590629959,-0.00498925950287308,-0.0157136952057854,0.018409631721976,-0.0097353034793138,0.00372269700727473,-0.0042529037519529,0.00263915011480825,-0.0268155153150594,0.0129269667943736,-0.0132267049824192,-0.00568578633505313,0.00902114085709949
-0.00646275041625822,-0.000384131193327425,-0.0104089321031681,0.0101560699237129,-0.00128596539476653,-0.0173345397849239,0.00260725642716825,0.0189114810593861,-0.00245015903952344,0.00757462510045435,0.00282095834178251,0.0116609994653083,-0.0214382886714806,0.0123203637112067,0.0019267894547787,0.0143357186744841,0.0127457075557442,0.000863946586406097,-0.00264687955565377,0.0123382374274286
0.0108812302497805,0.00183323289477402,-0.0187816377580955,-0.0181545683373911,-0.0155878575204445,0.0054731315779352,-0.01728820689825,0.0159981884823772,-0.0138240487075329,-0.0153184500594962,-0.0233842293560036,-0.0104774507101243,0.00142544748252031,-0.0134120159128019,0.00593367961792617,0.0106651935413757,0.00296506252434907,-0.00583226872269858,0.0091688446289349,-0.0134862519295996
0.0153549175768876,0.00381905922129703,-0.0256063430690269,0.00391774619691539,0.00256981730836813,0.00283237158407871,0.00737650763199966,0.0188875358769066,-0.0163945511201687,0.0102044180451941,0.0012520489789063,-0.00285810899941528,-0.00512704506131023,-0.00414027163954385,-0.0115736975004581,-0.0174066954399773,-0.0117302377735895,-0.0170344955057575,-0.0184940857547149,-0.0141920159122292
0.0158535396165318,0.000556024689600277,-0.0194167293769384,-0.00108165658796194,0.0114557240524487,-0.00552711538681857,-0.0100634075923869,0.00999828662935525,-0.0173504723113692,0.0169883756540457,-0.0110526007909668,0.0240564953315325,-0.000653447484032354,-0.00783131423331318,0.0108963698489654,-0.0018023108471378,0.00343924894767621,-0.000664609688908767,0.0219070959317562,-0.0168768330511248
-0.00978922902615238,-0.0218203683990975,0.0221596279293615,-0.00502259432220335,0.00378567641474786,0.000226596324898404,-0.00122773032807788,-0.00783378767511636,-0.0210946823036338,-0.00192310478755201,0.00477197771760639,-0.0183541710318863,-0.0108795749220879,0.0123599131461983,0.00928921236522158,0.00191703845328981,0.0127787289815592,-0.000599647992773867,-0.00398974261848532,-0.0152307157515279
0.00679709535172048,0.00691285715940008,-0.00244339548480282,0.0151772904711531,0.0229557239291939,0.0100905378332123,0.0149414274740282,0.00886977748230104,-0.000837364219577733,0.0149193456572136,-0.00344517835390439,0.0101018084578854,0.0173541796988936,-0.0126336394432188,0.00677756209061303,-0.0159309243215329,0.0105499944573942,-0.0216528935361536,0.0110771302315839,-0.0109335754576442
-0.00609021085849102,0.00260890759044714,-0.0262896423200755,-0.00201484496058148,-0.00466013306756588,0.0164994709209088,0.0123613780545436,-0.00518319037475425,0.0247170836316032,-0.0112306954089509,-0.0063585668893458,0.00862220912656331,-0.0112596006927763,-0.00505354709969371,-0.00569321913150335,-0.0239491021795454,-0.00921389670174503,-0.00308679808874326,-0.00144346777042961,-0.00433024336128771
0.0227558245433207,0.0103541875505293,0.00489778299255119,-0.0185600764834739,0.00596575148941759,0.00309370132037295,0.0313747079943365,0.0180904088758356,0.0104386942170154,0.00679356939328452,-0.00977728558028419,-0.00291130804572689,0.0227607812548975,0.00534757363163601,-0.00810662561142487,0.0150293004996459,0.00385285232760727,0.00936905678587008,-0.0146452178687174,-0.0248692028882632
-0.00821780196349732,-0.00953382274024531,-0.0177473084546586,-0.0303468047358928,0.00314293450001598,-0.00504851447054313,-0.00489586075178412,0.0164249848625352,-0.0115651657655272,0.0192440988836073,0.000149018295238487,0.0139093340962765,-0.0188647602197782,0.00457721057228341,-0.00602734755932886,-0.00694416820522983,-0.00680228820382177,0.0127394244375576,-0.0166860926350809,-0.00655786618093594
-0.00474938923652919,-0.00967005462337103,0.016006750243809,0.00397459306570515,-0.0207491644415077,0.00180574160796521,0.0200170456608753,0.0057217752972767,0.012806387976363,0.000848305962315934,-0.00432978984885624,-0.0222946358116856,-0.00466873604141019,-0.0290032118215902,0.0114354003954443,0.0174395433035175,-0.024770518185923,0.000520346988250926,0.00508185606629691,-0.00437569506199145
-0.0037286259366285,0.0130867182600034,0.00786100409893699,0.0189654207282908,0.00468582848145443,-0.00119759539570557,0.00800463645167755,-0.00106418113489385,0.0125747158930063,0.0130986669976519,-0.00101250090629045,0.0104560416795241,0.0113343244307074,0.000948988598127907,0.00521097708008639,0.0159247350507414,0.00108112149555537,0.00369917401793662,-0.00379754969121246,-0.013820365491557
-0.00629071454050337,0.00536916264229952,-0.026738386492757,0.00718856137920916,0.00689903165739956,-0.0169175687654757,-0.0115391672632373,-0.00704323324583443,0.0253003340404324,0.000647003728751767,-0.00672736005886282,-0.00460889350449277,0.0153925722482052,-0.0302845946741746,0.0128281409313001,0.014633745247952,0.0228714233465297,-0.00265199350439119,-0.0187634700262266,-0.00675499194948044
-0.00261550256003522,-0.034952983844092,-0.0101078157089968,-0.0157513744953959,0.012014222433095,0.00406308529492364,0.0047609241298528,-0.00288402996409708,0.0127892876875619,0.0189468899549871,0.0189136541687597,0.00217910054553609,-0.0257382761123599,0.000395807768261351,-0.0197540763404375,0.00900464457970521,0.0108742617979173,-0.0111388460637199,-0.015162540606285,0.00804404900129422
-0.00922655283237554,0.00721854528807781,-0.0134738508775137,0.00549170421135115,-0.0226194417536185,0.00372264951976443,-0.0201284900298466,-0.000984626849584571,-2.2137611753506e-05,0.00445252490045695,0.00122616329748215,-0.0101963419216114,0.00761353435419921,0.0195383315995539,-0.0047474964812902,-0.0148434178747766,9.30753605166645e-05,0.00918357038088309,0.00595456460455282,0.0274286296181586
-0.00388878337582197,0.0101855285060129,0.0210362610525054,0.00639976021779718,0.0154517410820176,-0.00831149233440561,-0.00650101274221926,-0.0174541662711654,0.00575895478365828,-0.00304096936647802,0.0204151185319118,-0.00752466865136324,0.0177345181575678,4.34771172484378e-05,0.0188292464861967,-0.00239982279777716,-0.00471064042193676,-0.00397066516491146,-0.000330152179345264,0.00415153353723074
0.00634671131666522,-0.00394603675847392,0.000713546805117577,0.00560423125380556,0.00291811225723502,0.0144645129760643,0.0153388910461337,0.0183236023136911,0.00779093299194234,0.0125771394568037,0.021317160757166,0.013074713516119,0.00678128770001443,-0.0132956616916749,-0.00351822841985093,0.0165501389460195,0.00209807599058789,0.0250288610992032,-0.0183143152748321,-0.0231633800841295
0.0142977523839103,-0.00383227057687703,-0.0163247288818277,-0.00393504123254949,0.0040294417687057,0.00672751805374921,-0.0206339192938473,-0.0111758706370441,0.00584206244254432,-0.0114753403986972,0.0164334333047993,0.000270591497905265,0.00506555878802305,0.000196716307525127,0.0146999423792447,0.0156054751154056,-0.00695289706629505,0.00983281704865275,0.0130679376975772,-0.00251355249281233
0.0181027571532278,0.0139101568764306,-0.00493893053098317,0.011023518738679,-0.003822714452141,-0.0103241778904253,-0.0277326614950901,0.00600546740653664,-0.00952410270732312,-0.00222824601152523,-0.0260484544043613,0.0174559722734981,0.0149750634340756,0.00558292239381471,-0.0119960994175004,0.0138010183441253,-0.00962116323650687,-0.0177488760867687,-0.0112253626905706,0.0135848679824181
-0.0209853114974186,0.00655391074994283,0.0197947401962084,-0.00907767042978364,0.0151760751133578,0.0151065108913135,-0.0160028157026039,-0.00124958163626995,0.00124020339332989,0.0224907858818404,-0.0379884451632564,-0.0120710534591126,0.0189717262053404,-0.0105123975913474,0.00784858394269904,-0.00206773485125621,-0.00762193252037637,-0.00471794043972413,-0.00349343738372621,-0.00812059749987534
0.00342111475428674,0.00396993875587674,-0.0121491627577289,0.0022273184954283,0.00714431882776427,-0.0115948206772482,0.00612699118191441,0.0310543776384368,-0.00301345818288482,0.0060460430399287,0.0274308719964488,-0.0279971763628792,0.0089542569310557,0.00852275801587466,0.00561438926006445,-0.0120885532503106,-0.0036434079066335,-0.00228318063074003,-0.00100512551632212,0.000680927625053578
0.0259173002669765,-0.000831188827158283,-0.019978571407087,0.0319924384900887,-0.00037143093980057,-0.00737993269837184,-0.00177121724423646,0.00604667376793746,0.0220300855505979,-0.0144530984805122,0.00466895123851217,0.0178953833435717,-0.00486598711321967,-0.0105783855054545,0.00523113676089463,0.00264196713672239,0.0142096902371558,-0.0295371109947817,-0.00860258114138553,-0.0126437437986965
0.011499768124779,-0.00152006450124019,-0.00791023404816494,-0.0074364989420747,-0.0069210569107604,-0.00112949988763649,-0.00486874904328707,0.00152040343116666,0.0252054930111368,-0.00484062705881586,0.00825394100346871,-0.0023204065362853,0.00824888419140723,0.0210881245367428,0.0149115002789582,0.00666227217475583,0.0187171834014134,-0.000287256277336248,-0.00804662293118887,-0.00761724365723056
-0.00633454066430246,-0.00242042373968478,0.0129265206089652,0.00482333317860693,0.0142595433046489,0.00387019124824334,0.0164234470356014,0.000328075864221364,-0.00429484609727999,-0.00978155479698964,-0.0214135213164055,-0.0170879341647647,-0.0128399650308022,-0.00048337440804673,-0.0116951028399689,-0.0214111652954569,-0.0019320869562695,0.00286510373745727,-0.0140400785978054,-0.000419375059838234
0.00946846546592253,0.00247022615832843,-0.00433303658089747,0.00306467467353954,0.0123041196308676,0.0036019152834049,0.00693641642390545,-0.014920551208787,0.00518969938465368,0.00595452435150041,-0.0114072501212561,0.00812860002242622,-0.00319126247828496,-0.0127329679055126,-0.0132932589514363,0.0223461434921461,0.00656889906661597,0.0121533061832772,0.0325355997249421,-0.00245540029300475
0.00960929784713831,-0.0126067138975604,0.0137086949841171,0.0185675982574775,0.0111917430766917,0.00436848013908848,-0.0160575320940499,-0.00473163017390853,0.0035567057490254,-0.0255129393668286,0.0247947833218281,0.0151242806036979,-0.0147342800209687,0.00113485252970826,0.0110567145597418,0.0110464702326903,-0.0239984664694738,0.0185167923821902,0.000113745891633971,-0.0185331879725853
0.00650077935290107,-0.0107621047356897,-0.00487630975688164,-0.0156905858550347,0.00146906101944333,0.0134991586307392,0.00424940617641891,-0.0245128885488713,0.0367701957162674,-0.00346899753757718,0.00263844347296054,0.0121209957401755,0.0210147019667305,0.00890286516484383,0.0108146202571138,-0.00450769694576278,7.27251770489892e-06,-0.0303953967027149,-0.00884003639825482,0.00802750086896543
-0.00573312294098085,0.00734464907649759,0.00721892683669472,0.0178049400935049,0.00283238680798674,0.00709428172058853,0.0194048268498704,-0.00538531900403077,0.0143496201951566,0.00972170471183196,0.00440244990257246,0.00283292420666353,-0.0169896539706371,0.0170376984868234,-0.00366546709494545,-0.0107427286376785,0.00317139961918134,0.000354346863029739,-0.0223112124320754,-0.00467158378099874
0.00895490446377591,0.00260355512110646,-0.0019001505736017,-0.0258770916702953,0.00280039274653541,0.0221741978887127,0.00107383992704101,-0.00828333911380279,0.0128603090350967,0.0198469455774417,-0.00926721407913387,-0.00633584664945706,-0.0147420009544607,-0.0213543985412889,1.40259231478348e-05,-0.00920792175597747,-0.00277325680078702,0.0128240049091171,0.0085684804539431,-0.00825571404504702
0.00866695521707164,0.0229654498037213,-0.0024354483604185,0.0141231024614575,0.00464172755772679,-0.00420373287367293,-0.00908524582364517,-0.0198422770886659,0.0127835309329946,0.00530693164733381,-0.00980294367710675,-0.00242006220951625,0.0326633639031369,0.0129352074447366,-0.00564346169373966,0.0292667514288085,-0.00219236884525926,-0.00392079332020797,0.00945007457024793,0.0115969011555005
-0.00106239702709207,0.00229836011471272,0.00522077839551681,-0.00404382799803161,-0.00328385367208971,-0.00535979381322674,0.0179607618241827,0.0148914828428397,0.0225942802406868,-0.0158249713280846,-0.0261667455571421,-0.00332913736935666,0.00384670981480935,0.00572732971934109,-0.00119228232558792,0.0213504214061222,0.015432244300115,0.0145644456988508,-0.0021342195210662,0.00184417129610611
-0.00694892252808458,0.00554341072115039,0.0196384322632799,-0.0123205541972582,-0.0191761870745969,-0.00740906985063641,-0.0107045250369553,-0.00651566081023094,0.0110466668374733,0.0195934768120517,-0.0115936885146538,0.00212980905923822,-0.004142529173655,0.00545499314367666,0.0065279612845388,-0.0105119956220877,0.0236789601997597,0.0153952253112346,-0.00378989387877306,0.0154093045635355
-0.00743757530533219,-0.00371737965457246,0.0115928465228045,0.00371902200363151,0.00288740742446139,0.00127968529681697,0.000778917358767901,-0.00636515097177575,-0.00882295008644847,0.000327643722529282,0.0132367484416492,-0.00965866667865587,-0.0161427942011604,0.00246549257580366,0.0353934769332673,-0.00121435589897935,0.00533753084267054,-0.0191408984531392,0.0115742007548282,0.0143544699188564
-0.0265063898555941,-0.0101628781742083,0.0114610926524227,-0.00544940120009534,-0.00223594816020382,0.00284941202507903,0.0330236358589544,-0.00974921902971112,-0.0132664317681744,0.00655901826076218,-0.0105002183546664,-0.0104306959532113,-0.00637821206192976,0.00755290882689265,-0.0111949439926782,0.0237573529174814,-0.0133199678037234,0.000299173011757362,-0.00583710508607299,-0.00343456971329086
0.00118082617194822,0.00905627218384353,-0.0130701809793311,-0.00861074620420079,0.0208578568739201,-0.0130507149760475,-0.00466547150089883,-0.0021289074849428,-0.0153892774467325,-0.00620749751340875,-0.0127737513995525,0.0155034048716125,0.0219945288965225,-0.0122928257030218,0.00106976811836415,0.0135925649091928,-0.00935507624248317,-0.00106589929513548,0.00721242373366179,0.00358945124233787
0.00894511226454668,-0.0171350338607456,-0.00593896003057941,0.0209556915658603,0.01922408554428,0.00403819518668443,-0.0250028276691286,-0.00628126084981862,-0.00482604932308719,-0.00337924267295281,-0.00600114795976833,-0.0177401446370359,0.0193711347013122,-0.000878963660260372,0.0255358457949773,-0.00527265405940204,0.0148856690981588,-0.0150907826225206,-0.00829916823946927,0.017397960835086
-0.01006039700647,-0.0129946661119349,0.0128927907672425,-0.0258230267189691,0.0102439442665178,0.0203441028773296,-0.00554093553228072,-0.0220684112424411,-0.00552847880760776,-0.0233924077508358,0.000861629771249649,0.00137559416809156,-0.0194736037811304,-0.00324585784687002,0.0219587386041732,0.0054115418116602,0.0144558248834483,-0.0103214758627764,0.00593731769697433,0.0128108480892959
-0.0207987890496035,0.00142783598384227,-0.001463523342268,-0.00568547045242052,-0.00852408526855264,0.01186251162461,0.00848133744082949,0.00202087614871195,0.0165342286092822,-7.02662939338588e-05,-0.00232268299202022,-0.0108880388826186,-0.013455404916192,-0.0178733154855023,-0.00909866562323218,-0.0129977927094485,-0.00123732285213879,-0.00787097391191696,0.00730333934392069,0.0162828085384189
0.00561241520566788,0.000703515995921594,-0.0292823607036079,-0.0182154427561597,0.00215972010400292,-0.0067456589467724,0.00471922487707332,0.0175864930615032,-0.00855032780739266,-0.0205682223247962,0.000149727012420821,-0.010608224560961,0.0271664727060964,0.00843478165229279,0.00102547718493849,-0.00576848816736098,-0.0153039021455434,0.00606470751005663,-0.0162818694233521,-0.000712052639417172
0.00442609810712675,-0.0126792781674368,-0.00939880220823039,-0.00905342729818786,0.0144459899489308,-0.00348596856364176,0.00194050913704703,0.00144301075291833,0.0157855582741388,-0.0135889427018691,-0.0240417724792648,-0.00745616630025727,-0.0269287720392868,0.0160190953470889,-0.01106710318575,0.0026399553081135,-0.0107693658461822,-0.0139664858318534,0.00573900470957298,-0.0176747581264808
-0.00443329637448005,0.0227908487484766,0.00238515518937817,-0.0128667731241576,-0.00811584833046262,-0.00949166373475288,0.0164160199208892,-0.0147837360506345,0.00413467448846404,-0.0092033931320432,0.000198011204642914,0.0248741207879082,0.0118673470780129,0.0117366573525406,-0.00294341066923142,0.025487508649329,0.00280774794693727,-0.0189708838076719,0.0165694605799059,0.0130829017289298
0.0214345974301616,0.00197756030103637,0.00555872584592122,-0.00884179954638822,-0.0264212635203392,-0.025018500073768,0.00996390510697041,-0.019150493139123,-0.00582596158467176,0.00309691699983537,-0.00351010074488602,0.0210381555486364,0.0121389792826349,-0.0109472679330503,0.000664185854979105,0.00207223794936191,-0.0181042868409106,0.00311918439572097,0.0294321052726256,0.00852941073777308
-0.000326764967591929,0.022992267601641,0.0128841737647277,0.00287494128721503,-0.0165886631281676,-0.0011042867481665,0.00722874007399015,-0.0069827279031958,-0.00883178516733163,-0.0107840087942075,0.0020157220360528,0.0056111708678037,0.0109973778503737,0.0241925285801008,0.0130185146084988,-0.00467562030934877,0.0055451885030215,-0.00908646876436387,0.00967032843063315,0.0284251184182154
-0.0148113440731209,-0.0129209072840931,-0.00421917870254658,0.0281418563872361,0.0286763594956815,0.000882751300395188,0.012839165627191,-0.00867215332764961,-0.0139193454122164,0.0247708504104227,0.00382082840646315,0.0207502487022187,0.00475182935790105,-0.0200275806550569,0.0136878597418086,-0.0076846972273419,0.00642909114449894,-0.0184333243475864,0.0266592790937088,-0.0160147009537387
-0.00555119727265422,-0.0166326335074678,-0.00600943065776801,-0.000839974511396083,0.0205288827848433,0.000253973273065845,0.00213845351845173,0.00800605087618968,-0.000708284762241461,-0.0102915627263859,0.00332011169516479,0.0248066914789594,0.0155092355352362,0.00417838746866864,0.000448880634299534,0.00510774072782516,-0.0107681051357128,0.00402877310592688,-0.0166267886959422,0.00443195096334883
-0.00790978926091962,-0.00425825799111854,0.0236254004378858,-0.0118040075840514,0.00952152124697962,0.00575879116480578,0.00813467998190262,-0.0168571063144754,-0.0048805614036629,0.015566104224313,-0.00619287047173746,-0.0109662411388418,-0.0269654686259717,0.00794888165788367,0.00828989716575944,0.00919999697875112,0.0218332996825016,-0.00169298524550014,0.0103197340685066,-0.0188039031168533
0.00954010214734662,-0.00223666925847949,-0.00402649502350628,-0.00577355948321832,-0.00680076889425251,-0.0265399621241791,0.0209153497501683,-0.0128071617836703,0.0131987737124753,0.00246852019166282,0.00450495522655347,-0.0108547932082599,-0.0170643101086597,-0.000340652835278163,-0.00465296662447498,-0.00470440931540096,0.00823842632195541,0.0179613858244171,0.0152001191451683,-0.0115751890229255
-0.0122478994040493,0.00760233561816602,-0.00488881593116986,-0.0044548071343809,0.00738313714319229,0.0163427316110921,0.0266676409632264,-0.00579548293569046,0.00505369522553697,0.00842991054656303,0.000596879625303913,0.00695467795057991,0.00541914431886509,0.000233432007393277,-0.00414407292064505,0.0170573357919667,-0.0233524231802274,0.00512426617678566,-0.00649073329175019,0.00429505069394385
-0.0059010896549435,0.017749495175098,-0.00959455995865175,-0.0221761186602185,0.0211682407978887,0.00874882680745307,-0.00211678973672852,-0.00484812726369403,-0.0267012748405096,0.0181228358473891,0.00654880011140009,-0.0147776863281589,-0.00132256557974896,-0.0112179111946239,0.0242107831274854,-0.00262948305534672,0.0153913466324059,0.012187274842861,-0.0142535347341777,0.0127572351035371
-0.0167570809234577,-0.00198475875615042,-0.00822122667549637,-0.00399326213425905,-0.0111019872186527,-0.00585399445514657,-0.00318206915267472,-0.0137506392003004,0.0121282462415864,-0.00709368918773713,-0.0166482503552927,0.0211786621909418,5.44368957341482e-05,-0.000114942671230204,0.0235521658288322,0.00926119269644359,-0.00704332717237365,0.0152758129465272,0.00186465091283891,-0.0182765675236599
0.0226209854578147,0.0237532703806868,-0.00944932509806437,0.00408256209711603,-0.00830843745445319,-0.00133646202014776,-0.00828762065985818,0.00235535254093714,-0.00897255968927305,0.0121908675594922,-0.00735526482577002,-0.0122971158384928,0.00437723728206405,0.016390846896447,-0.0080415577414607,-0.00238675623876603,0.00817696539493848,-0.0337419292524191,-0.025872727762485,0.00177843106255097
0.0244885706041622,0.0244099875920856,-0.00362255884306652,0.00780307081619393,0.00945816351376981,0.00165128946365454,0.0160971226761952,-0.00190071820157846,0.00525312315785552,-0.00592304287795988,-0.00342678168433599,0.00384943900918744,-0.0101195138273168,0.00375284992027467,-0.00167827733709809,0.00617851842484353,0.0139536066657912,-0.0101236073722956,0.0194545854893299,0.00811154555648331
-0.0175015129798719,-0.00433842756631869,-0.010946078862789,0.00341756928615267,0.0129270759606929,-0.00304716856047742,0.0199435843879813,-0.000677200561223754,-0.0175887892379991,-0.00833342606652906,0.00670702706508983,-0.0151845835108631,0.00870273227988001,-0.00395487041134617,0.0162152819256887,0.0120937172871245,-0.00704367164591073,0.0207043996513575,-0.00905455853306264,0.00240563591294407
-0.00968623928506942,0.00346172062113121,-0.00794317005178805,0.0167386614666743,-0.00896801655486952,-0.000930929591182451,0.0120464820495809,-0.00348482189499606,0.018772503554247,-0.0128963858106717,0.00975892800549183,0.0192105367674501,-0.0103200678077637,-0.0177778843417659,-0.00388056739656118,0.00179412156795468,-0.0048317170488085,0.00761119056251714,-0.0212380173757891,0.0138111713382857
-0.00594488924419295,-0.00946303735148027,-0.00868226987202903,-0.00599524426088796,0.00603571482668126,0.00740275095718653,0.01035061776755,-0.0213087232260557,0.0298496995084775,0.00764024692293536,-0.00176919754816096,-0.00517701650294229,-0.00752155956317609,-0.00748845868612997,0.0120375861423595,0.000286152797157364,0.00188807443540659,-0.0122018958281469,0.000731217000027543,-0.00674454917196714
-0.0140166581157485,0.0249615280371267,-0.00062624465094987,0.00813687789939794,-0.00494608293053931,0.0117518243642748,-0.00486642430092176,0.0234258998610922,-0.0063124063007699,-0.000488061599525255,0.0111531511708495,-0.0133566445247496,0.0149356517623534,-0.0102679679356554,0.0149972404749088,-0.0128653247435924,0.00902259122912323,0.00799144575879004,-0.00881005342137881,-0.0097499603609009
0.0178489719002394,-0.0035638019995382,0.0188598173487253,0.0272147660117425,0.0046720927650511,-0.0148516157154807,0.012523508035508,-0.0122821431212801,0.00707234282829857,0.022059541302584,-0.00864752256835958,0.0122349326384944,-0.000143445017813916,-0.00821301075107222,-0.00245366094168116,0.013920499676676,0.000295021000055083,0.00153872529451254,-0.0122879211194013,-0.0080199132074622
0.0286655931538099,-0.00148651691582952,-0.00643768651695116,0.00968102032450926,0.0236545744107517,0.00503634809727499,-0.0176171188282705,-0.00028154820319808,0.0140392810626666,0.00304547391327056,0.0104653029387869,-0.0049276719943919,-0.0148300608550843,0.00691948562125167,-0.0137404087282438,0.00774441072745715,0.0106216274520198,0.00531115448197101,0.0166620194819878,-0.00569791918404657
-0.0228022222313036,0.00303891358863548,0.0129933320498851,-0.0137467842217277,0.00758610792454596,-0.0164901913595737,-0.00441773395074776,0.000484028293274524,-0.00450225570516554,0.00273094506368007,-0.00557529221346849,-0.0075136114284257,0.0268064336409413,0.0222359715238006,-0.0074542556995159,0.0283096102054743,0.00553823673748266,-0.000177374905344436,-0.0038267745760849,-0.0161375819428083
-0.00790637785548149,0.000357660863499471,-0.0170549916923344,0.00255434947515627,-0.0108121704657147,0.00582625419370226,-0.0142070865252502,-0.00631224592252343,0.00747781262213607,0.0107182463498292,0.00533284463058659,-0.0086203248985915,0.000885692761038502,0.0109763737765483,0.015692748892109,0.0135543856620129,-0.00945602330392882,0.015629378832935,-0.0047023085289356,-0.0123885595086509
-0.0131277087820163,0.0150045615143779,0.0164210948016382,-0.0106021659631777,-0.0119226721930202,0.0134041749082661,0.00341314582629636,-0.00358126347119803,-0.00168411922472099,0.00799607494046739,-0.0105173947598277,0.0171805965399882,0.00856280250558351,0.0077331602807089,0.018547154476163,0.00937364773985144,0.000807876214191815,0.0243092646910309,0.0087675544167256,0.00935798566465904
0.00547114345084991,-0.0166382132881362,-0.0232541275189141,-0.00445919915718126,-0.00914289400588332,0.0051388625454058,-0.00725898423148145,0.0101152082511328,0.0153005555253202,0.0175523247818318,-0.00245209226826713,-0.00757616440913836,-0.00748763684994292,-0.0151081907587747,-0.00250418450403275,-0.00109548588389709,0.0217247860037141,-0.010078977643775,-0.0246317292241885,0.019056952587827
-0.00803804703387069,0.00174991039338312,-0.00293364051068617,-0.00893537952812129,-0.0226583976728494,0.0209679286123612,0.000357673399695146,-0.0083460087571865,-0.0218540045185338,0.00963795132758421,0.0145937399196076,-0.0058514245062987,-0.0118437563059487,0.00348796651013257,-0.0102311768652474,-0.013058008446174,0.0226858160363908,0.00242120017050603,-0.000807079743411524,0.0290454369609347
-0.00926181234008518,-0.00598205939381602,-0.0257134009798829,0.0117794550795221,-0.00960959453006617,-0.0127817472189352,0.00583387567795117,0.00265371096311203,-0.0296978806045467,0.00582071843119913,0.0101343003713822,-0.00685736117053545,0.0251618895461281,0.0155362676727782,0.00979627894882825,0.00689592436641145,0.00731753335240024,-0.0159305997327789,-0.01805486542645,0.023591555391989
-0.00319634690332311,0.0368421157577197,-0.0262854734841299,-0.0192197069116791,-0.00472880671636353,-0.00954636645276814,0.0134498920028497,0.0136105382152334,-0.00620642992920814,0.00125465757993285,-0.0166959681154482,-0.0178829978048084,0.0161818575642052,-0.00222251502323628,0.0125472751786369,-0.00544155887825325,-0.0168409094146861,-0.0102496019312313,-0.00351010206029952,-0.000726889733403314
-0.0277518797089304,-0.00328176155310464,-0.00299192041120889,-0.00138714220053293,0.00472039429093129,-0.00980273227517286,0.0171498283709731,-0.00831066513796153,-0.0235914562115949,0.017282211424526,-9.21076837892443e-05,0.0130151107866481,0.00105067947212816,0.00224923992918415,-0.0146109456794001,-0.00618040381173919,-0.0185101693669346,0.0138473558722979,-0.0226786528959065,-0.00905646823742922
-0.0025713351304103,0.0131880757445653,-0.00939577461295754,0.0119055358758828,0.00260866196895969,-0.00466718110711458,-0.0165812930650609,0.009772795442407,0.00883371036095746,-0.0212271288553031,0.00682639142570933,-0.00906761374480497,0.00822799619194898,0.0235264123896984,-0.00573466151087071,-0.00284668247070461,-0.00599607610047271,0.00805965880615057,0.00682943847852386,0.0158629505689914
-0.0085653831785879,0.00276322120022182,-0.00469631271907608,-0.0149913685000613,-0.0134199335293911,-0.00451675242758716,0.00938083424582873,-0.0186788089929654,0.0144088226057977,0.00234723743992233,-0.00977368854403497,0.00698880423748851,0.0120821637952421,-0.0017111705922328,0.021553792355817,0.00835014935254167,-0.00874000110278817,-0.00434558987845615,-0.0179664407777249,-0.00301252381436496
-0.00964871828457728,-0.00362440833613614,-0.00502924855647537,0.00552533078955372,0.00920095005952749,0.0045998746095201,0.0103703256110924,0.0155160610909451,-0.020094431799514,0.000795662208564966,-0.00504305932493669,0.00563888230088282,0.00548936936530128,-0.00316359328605942,0.0230964468544672,-0.00240035138069415,0.00160775640828556,-0.00764195341238815,-0.00949704719989999,-0.00182383121977065
-0.00649109564536562,0.007221706645775,0.0104913314814661,0.0166131066606528,0.00718109754119856,0.00204918030049015,-0.0267415068491257,0.00450238166138989,0.00135831519358026,0.0160497186290137,0.00484862363942132,0.0186231097424548,0.00428618856924855,-0.00902229699773129,-0.00352504506743091,-0.0148631349795849,0.00514231715531715,0.012985541693467,-0.0156179017806653,0.0105713207431372
-0.00559716074095065,0.00538180331553161,0.011895135597218,0.0205963156077263,0.00961720632417005,0.00296972955675188,0.0282815663388776,-0.00129144814107998,0.0214265033517085,-0.00906949367949923,-0.00924102343547127,-0.00914764888377159,-0.000962539573336105,0.0179526693507305,-0.0152795155352326,-0.0158999344887416,0.0054531800290988,0.0218518773650922,0.0045507906352732,0.0213045953089736
-0.00932526061205456,-0.00934448571112471,-0.00675709398815629,0.0227134606753312,-0.00888483479238952,-0.0160108007231793,0.0200405920577342,-0.00843081567964644,-0.0123656470426008,-0.0234608296893204,0.00538430243198916,0.0128802278837012,0.00405671832880321,-0.00623928221397567,-0.0194452168636076,-0.010868948073502,0.0047634756002745,-0.000243732899360595,-0.00697375364104127,-0.022080278781958
0.0109662965134668,-0.0106209298551729,0.0137328058353372,-0.0037266054538639,-0.0170169549671352,0.00186319524718328,0.00745375560447147,-0.00810054975367448,0.0168750942145734,0.0169051773632742,0.00708835027325141,0.0138592975498038,-0.00776864070729092,0.00168301088934848,0.00442435597179667,-0.0113777468191027,0.0231621299542898,0.0154175757041552,-0.000941922221715409,-0.0135856356688984
-0.0102437957278738,-0.0170158702798306,0.00741572370661353,-0.00170815134344367,0.00800652881429711,-0.00269628277564098,-0.018996653451175,0.00121891821027819,0.0141328932480634,0.0142730496124885,0.00681165414840485,0.00836464830897358,-0.00325164365097839,-0.0140328102631026,-0.0100345203820779,-0.00149597549376101,0.0132244936991996,0.00495396828710408,0.0195116047633722,0.00991917679744998
-0.0174818712249503,0.00260919402556612,-0.00463168051331888,-0.00508773514244764,0.00862013137199065,0.020761487892703,-0.0124126636837553,0.0025888966019657,-0.0135867433794727,0.00437059120463445,0.00535445901517804,0.0285392241658959,-0.00568389734255972,0.00656828911820258,-0.00792538688869782,-0.0121166285953296,-0.00597492455767285,-0.0166877405102652,-0.00880215824668114,0.0175704729728083
0.014602477370138,0.0243547942770531,0.00403372830639547,0.0111711232098883,0.00427083605615824,-0.000288786659347963,-0.0100366291748865,0.00258124704721545,-0.00707350338679043,0.00523964282081634,0.00520303574855608,-0.010027216236293,0.00287159841427131,0.00866441732763302,-0.0195961817683994,0.00128356559061847,-0.013200514849753,0.00889666518251236,0.0171989085022058,-0.000267714392189539
0.00473470561948029,-0.00407019308082278,-0.00500423335291642,-0.00834996007919594,0.00819107313791958,-0.00229372375753431,0.00763618445244468,0.00481162485886512,0.00886663637452908,-0.0167086122245378,-0.0147943245305493,0.000335380597611227,-0.0146073268359289,0.00528929144186653,0.00547820133421482,0.00187043832653637,0.000588615391861753,0.010041293092606,-0.00966517232223368,0.0012847094942867
-0.0158909459604598,0.00775141078100301,0.00298621095072523,-0.00149543984709023,-0.0001640693327705,-0.00498004500199655,-0.0143810901183933,0.0120776644164215,0.00557822931630506,-0.00853566649663418,0.0208788500026261,-0.0123126955135429,-0.00616902415212196,0.00445257840407103,-0.00424113449289415,-0.0150163909925577,-0.0276730757873564,-0.00337760182552097,0.00347842589205204,-0.0108003707586836
-0.00540380287323747,-0.0224016863454906,-0.000170702459357762,-0.013831071091788,-0.00801309502892973,-0.00363368929095261,0.0306600537107098,-0.0196758120213069,0.0177865915603287,0.0148335092026986,0.00992955586263852,0.0144662785350577,0.00396474417743469,0.0117178384049694,0.018148058064574,-0.00507387520804022,0.020418694181933,0.00527911105640849,0.00350757164200915,0.00476356715791556
-0.0012138512778178,0.0202927905958402,-0.0189849239325255,0.00237357975902281,0.00757202652316833,-0.0332908575718911,0.00572627146895733,0.0243857190961411,0.0122281198014955,-0.012875582671422,0.0024269463458237,0.0265694348375703,0.0104716461664473,-0.0243210587498778,-0.0171022863445145,-0.0261941777636759,0.00762950837621722,-0.00194203102345237,-0.0150568632516238,0.00157430669762174
0.00370821283229911,-0.0104708832516189,-0.0044440483592152,-0.0207418171140935,-0.00274880903691977,0.0231591178271373,-0.00858465302252363,-0.000947312878901563,0.00195429362506565,0.0149140307778339,-0.00852762680482878,-0.00465827143703583,0.00330399245618983,0.00404554419954053,-0.0260300519050322,0.000888475264131225,-0.0028886742928569,-0.0139063751251624,-0.00881479058913399,0.00596242157278496
-0.00307255441042629,0.00137959774804538,0.0322593962431639,0.0209827796801026,0.0222553338948697,0.0329640324656122,0.0194569392600195,-0.00130222465768177,0.0140401885700188,-0.0236015008499978,-0.00581306494098021,0.0083690386941175,0.010818585503018,-0.0114102806795127,0.00436657839763038,0.0226443091667994,0.00769210635003234,-0.00594229823774169,-0.0181092719308033,0.0186277633782203
-0.00574888354097565,-0.0071296688222383,0.00644791117505199,-0.00363471310635659,-0.00309376511721943,0.0108847060211097,-0.00157255689126669,0.0162998461643907,-0.0221558233281161,0.00714882324924978,0.0101587566622012,-0.0222475581660781,-0.0176355957586615,-0.0142181138630935,0.023435067685728,-0.00719953489430502,-0.00389676441645251,-0.021082222800896,-0.0174931035388885,-0.00158155648720838
0.00372090704360334,-0.0205121067605479,-0.0171432964570354,-0.00895065686028865,0.00906814068413335,0.00576537292416609,0.00758992197280684,-0.00294672035578941,0.000776711690257227,0.013608359847037,-0.011126360004085,0.0034676804578774,-0.00172715080719343,0.0061760434987173,0.00233813549488579,-5.68186566401382e-06,0.0141318466180531,0.0118699986106071,0.0106244847971524,-0.000612095698344538
0.0196310633745909,0.000474445924739914,-0.00145808889269123,0.0020050225429591,0.0129207743821783,-0.0171947211406746,0.0218529784721051,0.0189873634866542,0.00995989474238776,-0.00423771396328953,-0.00214076774237894,-0.0184524598940924,-0.00581747354375187,-0.00381416632835406,0.0101017633577393,-0.012778398663932,0.00558303572442109,-0.00475976492015302,-0.00716919286493369,-0.0117766490287694
0.00383895215884208,0.00344192133479352,0.00140944102110588,-0.0012742774333809,-0.0144168351291411,-0.000388993898852199,0.00229272570369529,-0.000709619016235756,0.00831934449511084,-0.00684608816711944,0.0140621126337235,-0.00464336180237592,-0.00783581462721405,-0.0218234998032008,0.00505705057428321,-0.00728717527794181,0.0151176021889029,0.00805266512719519,-0.00633685494292031,-0.00676458370190939
-0.00561698823669093,0.00287975500702296,0.0176444078742129,-0.00502072307726058,0.0117858234443365,0.0157626555290289,0.00908475735844517,0.00199570226384198,0.00640630124217229,0.0148534043691948,0.0247962167439773,-0.00804866303194009,0.0069216681908872,-0.00155991146043478,0.00145858881513846,0.0010736236662957,-0.00253794266961948,-0.00190669493194842,0.00208048096415021,-0.0185309818424393
-0.0136466321950953,-0.0013593950154369,-0.00253681266256478,0.0110421391723455,0.0154985957587422,0.0205869373538093,-0.0040363856976315,-0.0145980008630921,-0.0079898220630224,0.00299351071387832,-0.015715424316468,0.014370144864608,-0.00343604533640944,0.0074910206791912,0.00254584102622614,-0.00610876548282788,-0.000328011473792097,-0.009653372124582,-0.015678888048533,-0.00185228671983451
-0.0300399735223738,-0.00593204790810059,0.00620191300626235,-0.010101597222697,0.006687229645001,-0.00683344069234562,-0.00331957940061383,0.0084802123637175,-0.00381319181754686,0.00351119717135929,-0.00566894557660498,0.0106045084660985,0.0314538228764396,0.00789113839597439,-0.00676468410450057,0.00320701887716363,-0.00778663261746825,0.0165463149891858,-0.000675886368673917,-0.00994964622592244
0.00200469569178357,0.00598711834577957,-0.00498231910082668,-0.0205465060727744,0.0016180580304706,-0.0181265840045949,0.0180841057783291,-0.00894285536308632,-0.00673175647640341,0.0104744456108706,0.00138131955536711,0.0127362435014019,-0.00303159261596825,4.50843327396561e-06,0.00364180039110356,-0.00139972118257422,-0.00932904393253791,-0.00316353628522213,0.00560456313907793,-0.0118241430272129
0.00690522201430292,-0.00798206243178078,0.0218917033729597,0.024224600736084,-0.00125396740648326,0.00311368179118206,-0.0156991234793528,-0.00472832327452876,0.00738000122832909,0.00409647920443944,0.00558008970357995,0.00273613513246266,-0.0167038252626868,-0.0119648822231847,0.00875322146303125,-0.000641795819957133,0.00500384090292732,-0.000654098830499934,-0.00263668227785422,0.00876564455190431
0.00385877051853304,0.0077132403010281,-0.000347367935010097,-0.00106465187196762,0.00682720865629398,-0.0166472314749081,-0.00247478582348372,-0.0193704257313354,-0.00354584283177122,-0.00387199021287252,-0.0185754302985889,0.0107563934365526,-0.00707763905495015,0.0180614527208172,-0.00587343907715864,0.00541834510882592,-0.00118849864998521,-0.00309462101297782,-0.00140808341847868,0.0236614872350189
0.00594863808265507,-0.0130276124800502,-0.00286674867270171,-0.00248834417109219,0.0127041493878625,0.00683558181311258,0.0179227103410327,0.0196328317513258,0.0270161071528217,-0.0133131802609917,0.0106134062947471,0.0123441834950076,0.0021384090450438,0.0217586971921817,0.0160372258933862,-0.00264886877814013,-0.0183771625381595,-0.0180574322010413,-0.00245322632777993,0.00221591904531788
0.00969019175011587,-0.0112331863311865,-0.00141595170575745,0.00814100987462208,-0.00493690186998136,-0.00938771350082259,-0.00209241459466031,0.00275004863538577,-0.0182237197798952,0.00469209170931775,0.0114752299122169,0.00101976114571144,0.0122558638825538,-0.011177416624791,0.00460329605920545,0.00782341863951098,0.0142624886899951,0.00142191236301264,0.0153454376019893,0.008554649109703
0.011451802571011,-0.00303808334766474,0.00910453194172885,-0.00273410196877869,-0.0181141756792751,-3.44302188957243e-05,-0.0054969393401059,-0.0260454895046444,-0.0201938062679226,-0.00296542593184115,0.0130102590803673,0.00890910376263465,-0.00664431607958601,-0.000835327361189541,0.00496373876152413,-0.00225770530256523,0.00356687924834719,0.0133930543076263,-0.000618609935144303,-0.00449741083064258
0.0258136952981342,-0.00840900961992169,-0.0161489958045615,-0.0268158410713069,-0.0207570431847706,0.00590403883169946,-0.0145233144153608,0.00424966737921175,-0.0121012108665152,-0.0256741641373591,-0.00778874579850802,-0.0164248418904057,-0.0238487796082868,0.015795004089431,0.00575409476989029,0.0180311288128594,0.0217645584235057,0.00496003600779158,-0.017362765821459,0.0126449949164413
-0.0075492106925137,0.0222868433856056,-0.0225427808579769,-0.00499453177750998,0.00610342977678582,-0.00276121874298473,0.00738267836457274,-0.00641895185812534,0.00127957653567375,0.0037640346802206,0.0157011571403412,0.0257591396458069,0.000322157809178439,0.0101147099377626,0.00761920823452822,-0.00842121913327594,0.00910338667727975,0.0111501945533557,0.0071162664126324,0.000598742122588191
0.00723704150854539,0.00526830605583376,-0.0129502597650845,0.00733508240444299,-0.0140162717207224,0.00110440645311971,0.00515739151823323,-0.023841821519217,-0.00117850504638852,-0.00386333799387841,-0.00562658355956679,-0.0133057792352082,-6.83300625531508e-05,-0.00164374681046855,0.00828793263312943,-0.0122001178173207,0.00567931746417706,-0.0299392910368874,0.00510860895219806,0.00172335045952051
-0.00230907976180118,-0.019068451979324,0.0111868313338465,-0.0197056013167403,0.0169783617792806,0.00873968423786873,0.000335160965004518,-0.00401220881527779,-0.00129916257573088,0.00535281732772838,0.00739196264481313,-0.00330430735936071,0.00342114555430776,-0.00613574198563756,-0.00874510926389265,0.0123301867682964,-0.0154060872287508,-0.00742602808749904,-0.0135694515591601,-0.00355302927687309
0.00895634496329904,0.0148692854244706,-0.00387214813976306,-0.00472655132082393,-0.0046141588849901,-0.00177560922158907,-0.00693925724950342,0.0124950448669614,-0.00041626788231434,-0.0243634196570774,-0.00894964438514379,-0.0067880253510686,-0.00455131956435609,-0.003954201981607,1.45776689255833e-05,-0.0105645463473023,0.0123523098606932,-0.0200073080307281,-0.0110596319472096,-0.0146548153563697
0.0101801544723631,-0.00729016967113308,-0.0116440924985924,-0.0393791785207448,-0.00519337648617027,0.00293076442316528,0.00972855981589204,-0.00809331370837247,-0.015252007157823,0.011732136747415,0.00336125266549453,-0.0107499890869833,0.0173447417115365,-0.0246091481447936,-0.00208160592365044,-0.0014918524461938,-0.00712219884345487,-0.00626051582609117,0.000683948774122274,-0.00610644101842477
0.000751634581914476,-0.0112233888480473,-0.00184061981982836,0.00585896338989774,0.0168262229187504,0.00606127949755084,-0.00592813736444557,0.0165523045889929,0.0110785382727425,-0.0103202605573197,0.0171972900036747,0.00294254407046889,-0.0186413200697427,0.00392889417250675,-0.0241072779890537,-0.00775426896859149,-0.00634880807094294,-0.000750562257181235,0.0141205169812447,0.0103401811382472
