-0.192636837242266,-0.193352388057721,-0.105180932763216,0.228486486866788,-0.276001517594186,-0.0660262556280397,-0.260704695237876,0.169397994832732,0.298673066238774,-0.197343748760102
0.0932175716434255,-0.0440755280158305,-0.170940299227817,0.287469744113062,-0.270164978734317,0.0952914188754712,-0.187660421811485,0.00212543167968587,-0.132926131085569,-0.196117915802144
0.0301155934467048,-0.0899724549990242,0.377786376339404,-0.105098916949774,0.259998952785477,-0.0490177053046271,0.0877999638294762,0.14433260465178,0.159858703197883,0.196192695280979
-0.153505511879769,-0.104230391180142,0.193913084434515,0.330069907483758,0.281244982758545,0.000579098337785744,0.0224956748753308,-0.483643150856775,-0.0112748279529316,0.15037402825285
-0.0568354531547571,0.143579000111489,-0.0293550781997259,-0.0885340287778916,-0.113030939542403,-0.186921251549377,0.195781998342634,0.402619803583263,-0.141539803694107,0.253145253399389
0.105507511570319,0.0973201745697726,0.0202923945318541,0.259219437274581,-0.300617080405772,-0.0841859874858286,0.075370512090987,-0.215383575737326,-0.227112103261139,0.529103969953917
-0.00663770157919919,0.307993719525013,0.12946141585568,-0.109238049796599,0.152808693485275,0.161064465758117,-0.230949638603449,-0.198436339722288,-0.124879764219432,-0.19775159241414
-0.227732351770794,0.0664521747296362,0.354060982382339,-0.165210177887937,0.14201706019303,-0.357524457412339,-0.0754138208595455,0.0992247592808675,-0.368280533283834,0.0656250881761681
-0.290646084114983,-0.136293196172681,0.339868514736009,-0.151587062851013,-0.019022672607895,-0.0470944904489488,0.0564251230105664,-0.429909731522117,-0.0328218385429708,0.149874939532337
-0.0693609553719779,-0.102895798821989,0.368475324055766,0.0674900043079008,0.573184536626229,0.312307851960103,0.221318387812254,-0.0228145655261617,0.0548089833065231,0.100353032266788
-0.157822318596635,-0.076142853680888,-0.03696730874847,-0.0250906083159512,0.0560500543256452,-0.0888210000053173,0.065930352647189,-0.16224296879892,-0.438977283537188,0.310862301799443
-0.0285399560445897,0.129523157353838,-0.0392399944898247,-0.0974453961348225,-0.179991314685605,0.12274072293648,0.0216507373914385,0.0765938200114528,0.179041858081387,-0.136744112840927
-0.13212963116594,0.166724194732242,0.0289831621215432,0.236307396230083,0.0258618102806737,-0.183422784460088,0.179253217451814,-0.0463858572702093,-0.0312137947416992,-0.34127711646777
0.0888834574231106,-0.2691131946115,0.202777457421405,0.25952807160885,-0.285046830362811,0.294184039222284,-0.35871672659811,-0.105769524082173,-0.00428400171813662,0.133286036128194
0.217573575585214,0.131684364228091,0.111916021939906,-0.0581017476202333,-0.113457170955839,-0.00448300175475987,-0.284627338033175,0.0954894965866155,-0.400416379818356,-0.120610410114
-0.0812107764646382,-0.473634756055424,0.0277423233367236,0.237219529989681,-0.031917451813244,-0.124065345527452,-0.310913881029408,-0.260246413892134,-0.0752718979916027,0.307578437313271
0.0638332043350208,-0.197205196329705,-0.0464545964689477,-0.358566630718035,-0.192583695534394,-0.315287869973429,0.0540435907949548,0.0897915164738144,0.18956091045039,0.414084784732224
0.293085699410145,0.0416949963516661,-0.0109376821216797,0.0724602029740804,0.158152597277925,-0.432187831082159,0.24657743065449,-0.440840896771912,0.176558842196803,-0.127987556645701
-0.068447528290975,-0.147471018801454,-0.262858343098519,0.147867343845028,0.525097850633777,-0.135517914839316,0.0739982181093923,0.00466503353641228,0.16139730897081,-0.277632674131158
-0.0297833474463754,-0.260263443902198,0.214191283267214,0.246436866804102,0.228506810657607,-0.399639564014947,0.11020010166597,0.185802086793418,-0.36834957718741,-0.109646920354381
0.0840346694570669,0.25869190740355,0.325070418551795,-0.361211840411363,0.114311529133114,0.109834435963951,-0.0750764886800493,0.256538396841669,-0.170652527982024,-0.0650286045497108
0.145876570463067,-0.132038813921811,0.101656830139385,-0.323236544436756,-0.234178357417917,-0.240468327068686,-0.0533091521102522,-0.0261242748321639,0.309142933347812,0.0654232732465047
-0.260614562725824,-0.209770803472296,-0.077801800661886,-0.352241412819039,-0.2440410280291,-0.304197785917609,-0.0475396646511339,0.0158503588653912,0.0974280640960734,0.165273443242375
0.279500531298768,0.110763863624537,-0.407156191810265,0.349108032309861,0.36042076533783,0.137055475766655,0.172680736133946,0.315061386830815,0.218324179068354,-0.0524585003387993
0.0709971896944009,-0.322814931121381,-0.103600438616438,-0.0644522429273699,-0.224298979243288,-0.14367672361177,-0.292086410874082,0.404284404059028,0.471339529279442,0.403261910358247
-0.420138906440453,-0.227822201974725,-0.309691933887883,0.291427247417417,-0.130697872758529,-0.394323464344825,0.314796973171649,-0.0397706545139852,-0.0032388937627581,0.0689877181616879
0.248586837829651,-0.104442448944577,-0.0800429949647709,0.223206464603551,-0.0726497954953976,-0.308645590061722,-0.00856373121613809,-0.0521680354871574,0.0615947966702408,-0.00107036165185344
-0.0673409908395955,-0.00529993263777384,-0.420896308045662,0.365690602783652,-0.307473579996155,-0.158231644774323,0.0847971876093772,-0.117584636385017,-0.0181456887350557,0.195157788482686
0.178585104061614,-0.181177941102701,-0.000310271826037195,-0.0827888154529764,0.00176490121158868,0.207299460957475,0.255902640765435,-0.246849474268332,-0.0469380872670694,-0.367447493472602
-0.174595952896471,0.170960798517452,-0.30976414154895,0.0862249608474909,-0.256900865136663,-0.0555158845042029,-0.175357161060146,-0.0900319250566443,0.109669350046513,0.0146345682695593
0.103560023840623,0.131120663172786,0.24188630822554,-0.355455349074496,-0.0295103621562201,-0.336634976477623,0.116214688530395,-0.282477937350624,-0.150724675740559,0.188035543830636
0.148160828289095,-0.106444464738259,0.394574740738455,-0.137483489589254,-0.31879902782676,0.0979448620594481,-0.286779088202719,0.176795465408677,0.153652723421303,0.185830551829076
0.306258612252736,0.352956428475874,-0.00193659062184807,-0.0149047611801045,-0.1871840599692,-0.150365395979605,-0.12576471323866,0.257751877671135,-0.0492242571716263,0.00588370352366024
-0.115183334663836,-0.228047796319485,0.059303655321635,0.021383687683617,0.013791359233824,-0.336732779079596,0.0516837206617747,-0.0303885734073105,-0.0513711708723673,-0.0915073390801941
-0.222358046406655,-0.172446272188499,-0.104928664831115,0.0869677707116488,0.335686838986146,0.149210392976682,-0.135564237287518,0.16063460008076,0.044396661737051,-0.0134465165201247
0.0187373435246657,-0.073693055879377,0.405965835133413,-0.208167881539637,-0.0951902370009987,0.181282486559664,-0.210292750900835,0.0277308698319926,0.26214241687546,-0.430245374758396
-0.208304157638626,0.0210624643642189,-0.218541558315611,-0.0456221956577678,0.0676662413591941,-0.0192550980589401,-0.164878239215795,-0.0946741360558732,-0.0932734292375777,-0.0286994418212913
0.199971131951984,-0.123248203802659,-0.157893716904619,-0.242184648978188,0.512549863181515,-0.224520843538457,-0.190752538386097,-0.472675542862005,0.180359092597254,-0.47450180281092
-0.102548370945505,-0.170368529196224,-0.108384140768429,-0.0953227030078081,-0.235208481763994,-0.0160254444374842,-0.155041643705376,0.236752475267412,0.371893111774556,0.217862281416941
0.0679093430473305,-0.11415519391829,0.0816304361307718,0.203499735550851,0.0895135611681047,0.107621583908888,-0.246264832705666,0.176843433055336,0.456936410750947,-0.217146145513576
-0.22562799408637,-0.0802113337368333,-0.190836149004872,-0.205685168656012,-0.214225355020387,0.0248340629980027,0.311012876319025,0.0837221005019817,0.00746573963447359,0.193616612743284
-0.170290154197632,-0.052128988158801,-0.000209505198917179,0.162081405902963,0.197884970982417,-0.115065361104457,0.153169329654153,0.109708263408495,-0.235145436589397,-0.0500701245715318
-0.220088870623316,0.135132240980014,0.145170277151913,-0.151557961083646,0.243518079374637,-0.133896234683381,-0.0456581580127256,-0.245751999219138,0.0500636786324684,-0.270305852270864
0.0264950597505003,0.258878422144593,-0.254211716208272,-0.305610201933465,0.473349098550501,-0.133854512810661,-0.0994239038217736,0.0475526072217227,-0.0964569265771391,-0.31688181924838
-0.468178821014733,-0.0305451417679375,0.332919136864924,-0.184760949714687,0.308432673289074,-0.0106017261298153,0.23688216809444,0.0305921853887425,-0.0218704345557331,0.282663108497864
-0.0153248841356757,0.103770496492011,0.115928141336833,0.243861818888059,0.232440786192982,-0.242564460835249,0.0461598222228863,0.0191437457811946,0.0199612097206115,-0.177432211931178
0.0130231368825981,0.0887229520523265,0.254348990351824,0.0451974639189007,0.122866322822955,-0.233622553323689,0.0417370038800989,0.00814900504175049,0.151913652415923,-0.072763228793908
0.302265452695471,-0.325458499625658,-0.0137004846804455,-0.169970554743396,-0.14108634781762,-0.202946773195294,-0.226107237482059,0.0879927333419824,-0.160017426999571,-0.0588708980549551
0.213694395581213,-0.118019240346703,0.16481056542362,-0.0108597460666606,-0.164574637915381,0.128753656693047,0.110491269794913,-0.124804705541404,-0.283075573526998,-0.326855801472803
0.0634115970229161,0.0817220699073726,0.03610376065881,0.317003183436402,-0.190832960501296,-0.0776829353575834,0.137932032978659,0.00770302719252006,-0.295455116627432,0.0843916904081293
0.104566219950514,0.394322482440065,0.020000006759182,0.0388174643398889,-0.0409383631232148,-0.203614892427508,-0.226145924790987,0.187935148378023,-0.211529192989819,-0.130603322882709
-0.311335385807361,-0.261261435088351,-0.19700981758568,-0.196409196856134,-0.0675030635501979,-0.089287186598415,-0.0104837725260437,0.0587141161984743,0.0735040696418711,-0.0269898986178114
-0.286985602712026,0.0182940080732797,0.140826282517927,0.280095001082497,0.097331489254245,0.0181005508976837,0.221781603275347,-0.00876984662677436,0.106221548922022,-0.126655235584151
0.0180717772807497,-0.0698510731143661,-0.154129890146667,-0.374575863754028,0.31153534412809,0.544036314722974,-0.102578514808886,0.092248474516607,-0.0039143023714073,-0.0564685002151393
-0.0577828936346687,0.122151475104911,0.0575243188417386,0.135447444146036,0.0808725293276715,-0.0900881870314874,-0.0452665075698644,-0.341894191182792,0.176559855657335,-0.0511300282742814
0.0423267012536953,-0.111054106813813,0.0859056712810352,-0.00942134584751695,-0.117056267584832,0.0601423480899619,0.271238978552176,-0.177025316684776,-0.0741195749651128,0.0369693801238915
-0.208286219277527,0.26179466492583,-0.248268643249494,-0.187752952101698,0.281213129689228,-0.548912135452503,-0.114264245788164,-0.0688999737265678,-0.172968878132462,-0.118131480809414
-0.0267071512161943,0.455765693655903,-0.241872474269808,0.0305161708511455,-0.189569729511316,-0.179777233099597,-0.269604170556507,-0.487117438751816,-0.192275657588716,-0.0168165006883811
-0.073391706370478,-0.255156690805071,0.133071129106944,0.0509825512909773,0.149167580733158,0.253991457388631,-0.0203893174517802,-0.035638693914072,0.346603557766857,0.179259959184652
-0.220317039953606,0.163119221287708,0.327406173097614,0.117861827139388,-0.117110872102423,0.0882005141029405,-0.0800824149245538,0.210344351250339,0.0186986181674163,0.443429899650381
-0.135950792343998,-0.0379899772245302,0.00567405378024742,-0.0931726582809383,-0.27970010914826,-0.173690236273362,0.137464907826959,0.29974210611423,0.212533573471277,0.125616349944665
-0.0143393224175186,0.421252158701467,-0.0976253650440412,-0.0842674171526314,-0.271168237735284,0.0109786021740809,-0.0364443508600028,0.126547131859358,0.110378907653077,-0.0142741428167924
-0.232996767359976,-0.0256379334046107,0.0347210471319057,0.117892548109231,0.270599869756197,0.269719384977019,0.101020677098236,-0.0310724691841141,0.0580126390820832,-0.0364859586162168
-0.0894432599749489,-0.00434645894059747,-0.0480437121280917,0.0995779503732888,0.120055061854927,0.175653859151174,0.225652570220656,-0.14259573961022,0.0113876926249974,0.16989710159497
0.188679039378748,0.41049126014344,-0.334242904875166,0.0411402411548988,-0.210816238517008,-0.171731401031615,0.164885477142245,0.00940606118765311,0.131494609522791,-0.184612875203282
0.246996923015269,0.164887708767369,0.159019924161127,-0.274536797376154,-0.182066599047822,0.110804446750247,0.114793969930861,0.175865934068402,-0.0151293086013657,-0.0869575762280277
0.0600923786949108,-0.0487885904078431,-0.0012155552241039,-0.120314816734608,0.218043989428966,0.284315957382925,-0.0971501400474949,-0.0182029911499732,-0.355475569691356,-0.0569970930747504
-0.0921757233369817,0.083239344716274,0.0281759418571638,0.0752522497474668,-0.212852066261007,-0.18428188674129,-0.0225390698544657,0.122499327281116,-0.323781469198653,-0.129031224572506
-0.0159718204409314,-0.0414017522891586,0.160103667801435,0.146602149962525,0.261120560180271,0.0176504730724107,0.056936533428808,-0.215613919796187,-0.314872466165365,0.281012807484638
0.265476796126636,0.322278215738769,-0.166718007140369,0.0543197508765547,-0.158184830592592,-0.280004994891656,-0.0860079317878656,0.152613701731098,-0.200394734901035,0.0840591335978857
-0.409387835479189,-0.274176591260133,0.126652698673292,0.215544940427023,0.125731917302028,-0.153281659399893,0.209072195755141,-0.252933769200586,-0.229988903731553,-0.259507668914245
-0.258236917124394,-0.225322108002239,-0.0267535503142458,-0.157571079063145,0.0170515751776368,-0.0666048122613303,0.0363669269298952,-0.133227712169744,-0.0491428297156269,0.248372653720243
0.341382314196746,0.193996189396176,-0.0523921378344569,-0.114724212253384,-0.162379683530722,-0.0284187445632658,-0.293353727188971,-0.0190127053795785,0.120892762432678,-0.14727782808553
0.125057975042162,-0.105770637345052,0.425037183862144,-0.324923387713145,0.13808107521481,-0.164318309079724,0.393454743819568,-0.0446689871183188,0.00128200033314453,0.149332034793427
0.332609634881678,-0.251804515004116,-0.286246533413746,-0.21526123956493,-0.102626658228396,0.224226158827519,-0.0801944370855305,-0.287421123885212,0.216371238603194,-0.307714984073954
0.22564652359014,-0.0228495700376795,0.109649963303372,-0.0165592585124302,0.0943836682913235,-0.0756204834965541,-0.212499627054278,0.010129068026304,-0.0744219970956815,0.275595666752249
0.00942399305479548,0.0747666355619131,0.179514253704614,0.102179199042055,0.181464087933008,-0.200161827759812,-0.22178655435231,-0.206248974564117,-0.106447886315896,-0.271481919565026
0.0429827890365892,-0.231758603248275,0.0515928447851229,-0.298643714892045,-0.117819292964212,0.192127494203365,-0.0571345472056324,-0.0678564821442394,0.104422576787117,-0.155869264159712
-0.408669524359363,-0.319858719015221,-0.255871241409174,-0.0180453632281665,-0.19023813572652,-0.17292197074739,0.111793871946273,0.140282929594334,-0.0160904181325625,-0.239930576509069
0.142269290898272,0.0628559968032877,-0.24647035497116,0.00348589530250926,0.129507182226442,0.0350959995921623,-0.369070053764206,-0.08768478695313,-0.0666663112173642,0.288990041544352
0.0823505701893691,0.202532235517064,-0.0805586855970744,0.110579451243737,0.118086323148773,0.421399866220161,0.0781353073445108,0.0240356925415155,-0.337867594849302,0.0884649366820246
0.431146057030167,-0.101403466869211,-0.0689064871449578,-0.560862433334426,-0.124441712751592,0.260059327674893,0.32276882343313,0.251487682683493,-0.18572184525028,-0.299782591945261
0.00688425604162408,0.0361742731584375,-0.0965103406561829,0.247907333762061,-0.236764565849362,0.096319559466677,0.00865362356047756,-0.201390058489427,-0.00354090939784689,-0.0477987709623332
-0.113647451534782,0.198347375169017,-0.0455413252101024,0.29517603728577,-0.389712858669376,-0.0580954259015491,-0.0743603732420531,0.0933051957150169,0.0480064413393578,0.122722846519922
0.267849516777838,0.242492891423307,-0.348818803963091,0.309620159665751,-0.0755355462604951,-0.0793765774606626,0.0432474418647608,0.341403792800056,-0.390070491801585,-0.157194733495104
-0.257483821601975,-0.0847822706789138,0.437819043052565,-0.0916449257836882,-0.141345102723465,0.0319706485885086,0.0174655155066162,-0.0505087109724535,0.134203501149829,-0.257543169856886
0.368348129340715,-0.0230126608243056,-0.217948702902141,0.0275412034576479,0.236588740554553,0.0788541567842694,0.114967399712256,0.0265121754248069,-0.25218335354511,-0.029638086193798
-0.011935397250636,0.0494393899954129,0.363920481227292,0.118732979225315,0.210936897535481,-0.103270009065632,0.104220156373623,-0.00488886383696915,-0.0580568558107464,-0.311717766582859
0.217492348102158,-0.237406567277445,0.00339786477833025,-0.220229348322121,0.274584103232874,0.261853273724646,0.330408437237936,-0.0486146769946649,0.298901452301883,0.240700953358038
0.340296181687443,-0.157432472752779,-0.404037518238873,0.137356481580185,0.0615849231205182,0.289345770576326,-0.104399252736094,0.0712855313718355,0.117971814152592,0.0651302945686696
-0.160451242548144,-0.0413888662565578,0.245124198677191,0.243057458594635,-0.270254783823345,-0.0203148405509566,0.275567295112884,-0.0225006820936408,-0.0275708990368389,0.26912944571209
-0.135919847177888,-0.0605543472674209,-0.0122814524130763,-0.176413282721328,-0.467455059076082,-0.104627054486309,0.100394348624053,0.33983039526217,0.0261595136774816,0.0822778426641625
0.308298001402267,0.00448027078276986,-0.0645143867768424,0.240697903999568,-0.316900688559195,-0.255589369387961,0.234712064178058,0.297975445954931,0.0343631382103148,-0.198424292532855
-0.103496511009005,0.014350226567917,0.0567559382204375,0.0849153479663564,0.0985116537588671,-0.0384483558728408,0.0510882047171272,0.00400438051906544,-0.111328512128393,-0.331660678649725
-0.00453310668847122,-0.136944220827995,-0.0806179734762325,0.298172547859945,0.319546538356601,0.264196181162566,0.126318426227613,-0.151885717657728,-0.0144144807626639,0.0172255237430469
-0.40612744125663,-0.106498981391496,-0.313919101374289,0.0129896360121755,0.208935066488999,-0.211238268646537,-0.0105898061689415,0.0475184479811872,0.262086007614616,-0.0427561142504069
-0.202189157637881,-0.029382569301452,-0.219667584267182,0.304946329665452,-0.319632332231251,-0.210301238277863,0.0469300687941458,0.13678985206431,0.062444032941924,0.103638682590545
0.0346071708639114,0.0806233724231308,-0.0632181111394644,0.192212756086253,0.297729912134288,0.212806634204392,0.195948346399486,-0.365745697409351,-0.0631798247572275,-0.213012393755291
0.383677439059658,-0.212016739476354,0.0294744204393403,0.0275027705318767,0.0740079033724885,0.0178214743762447,0.0930896291971529,0.326951242341473,0.00777462067950651,0.0153244842355611
0.240714743089382,0.102457906920651,-0.250393225521432,-0.0850708382517478,0.00430004685097534,0.159569452656334,-0.205235537005315,-0.0692314309425602,-0.072375850629373,0.0215269841458779
-0.502296534608682,-0.043607896239513,-0.294386842288059,0.203469567946724,-0.373071897096779,0.332326696655265,-0.358267239201368,0.0113755393270718,0.25582135101102,0.2045777372215
-0.0700089009342341,0.169883471526406,-0.28733381705922,-0.046727409148839,0.357735332510503,0.300573721286263,0.107303050952377,0.0157489335506067,-0.140352003630562,0.383764496519419
0.0497681725113471,0.00570929245095946,-0.0946286572193285,-0.0279056434881995,0.156305477807233,0.188134298159453,-0.0648820644890124,0.191911201593337,-0.0324200586136454,-0.0367028004245733
-0.274438059985594,0.186519027526641,0.184657134600272,0.0129763010020378,-0.293660031839665,0.0305997626074862,-0.0103040422460429,-0.075825170493617,-0.133572286836093,-0.102067829193914
-0.243243291744835,0.0341974613097333,-0.0647623176104811,0.126011812366462,0.170278739287929,0.327304157917286,0.330587773516439,0.205912577280509,-0.0966688583622292,-0.155432299835101
0.103072437235111,0.246301013195655,-0.0864869680863496,0.162949128900638,-0.135563754475582,-0.296088461934535,0.0172050600741486,0.16973968424845,0.0160787240753098,0.0983403023099137
0.0768013705535203,-0.197750479214212,-0.128613349664598,0.43549175693199,0.192125188422706,-0.28881389026697,0.283100284839589,-0.431945090320016,0.244861610634103,-0.00158347478206655
-0.0899588097379393,0.170425352353466,0.147488585119416,-0.200424115394457,-0.390010298641447,0.0427813826020839,0.17634287175697,-0.466504302621198,0.118599597401259,0.377555072817961
-0.0563713284457014,-0.0475596999514804,-0.143795393149981,0.0167513139291995,0.0470170320742649,0.273690772234238,-0.341073685653067,-0.144891688420828,-0.0561893856951558,0.175419963024047
0.150854773101219,-0.118444700439064,-0.14064706586273,0.0850820429480948,0.208359248695765,0.0706769854408484,-0.113524794809901,-0.0413155847563596,-0.227322794791268,0.0452537824590975
-0.0326319940510955,0.0935686707086828,-0.0475588442661708,-0.168974513078446,-0.0891831245449212,-0.127307746569895,-0.0501178503640688,0.303179893238625,-0.0725682114020968,0.0374370783098183
0.0912505545929024,-0.283689941854852,0.0307258490676464,-0.0212536499309125,-0.29791948412247,-0.330933583893514,-0.234391781264769,0.256201312113623,0.189229462149013,0.0484621334945988
-0.0969588021020063,-0.146904981569561,-0.161754266960784,-0.172258320389264,0.163702631016026,0.0903911390366653,0.384344649048971,0.350808947337642,-0.0351096349231348,-0.19443186858807
-0.0657875609410692,-0.20092889227962,0.0523618598368459,0.104798986741989,0.228089211095284,0.0665334256791534,-0.0913914918485084,0.19893817411727,-0.0150357764004564,-0.0544911273759184
0.117900386838059,0.132988581285568,0.384573707240108,-0.258150298776001,0.139412611623795,-0.0146308780905054,0.00200193827340092,0.150487244708921,0.125739856392839,-0.217573941480235
0.0101519214992659,-0.206472469582118,-0.0733612863284195,-0.206224962143489,0.147049981830372,0.425418252970957,0.154906151501808,-0.0448294159503089,-0.0924403962036093,0.0390266576061283
-0.103627191100013,0.101384026975369,0.225468768268125,-0.172142348684001,-0.171396483457982,-0.0930803710885586,-0.0750087960078376,0.124479582827351,-0.184853829972247,-0.355377902616883
0.164841420598274,-0.0523557314810306,0.242051206669644,0.0349089867167574,0.169700639158463,-0.352878139574251,-0.248821042201255,-0.148639972646507,-0.144223512803228,-0.137941769414977
-0.229953307192177,-0.266325161479298,0.114964442424196,-0.357178352178772,-0.281765613484854,-0.0512486144702231,0.194780787185986,-0.195420336094584,-0.0754120426995703,-0.129071094574389
-0.0771826075223566,-0.0193592314494909,0.0969238868156326,0.487679537241288,-0.0902544859383564,-0.0300785624383189,0.272751308334262,-0.0201588069014536,-0.111895125629652,-0.0368779827305296
-0.459177635466896,0.0367520783918167,-0.183556214306369,0.1311169207721,-0.126647729990925,0.139825527480391,-0.0648598895624555,-0.104886252976451,0.367086550672405,0.0623784932404419
0.0890245404254769,0.296212898999709,-0.21615761378274,0.0384683249837312,-0.202740810860856,-0.42913458544281,0.343047576562639,-0.136115285406855,0.495893901994554,0.133326412820144
-0.00280266729947181,0.113902603257,-0.406900895108129,0.0109891024718646,-0.0722623554658341,-0.0280022618747394,0.0610667681846382,0.101963827306348,0.037346577594584,0.0824699907338577
0.010980609186606,0.112240257403562,-0.343793630992202,0.131479433591054,-0.115697253908156,0.216442621031416,0.189206715483469,-0.265470971665182,0.0801557229301888,0.111363408643213
0.14619529694105,-0.178819368192572,-0.207388257289384,0.105197952466405,-0.154709442035457,-0.183089762881842,-0.038821274179089,-0.052828461776594,0.358273183503167,-0.144920703587413
0.375377917451755,-0.146101683362989,0.182379987302101,0.105880845462479,-0.0127409697201059,0.124160564398542,0.0147015863634279,-0.0653670404490034,-0.00230677444701577,-0.278607972718592
0.154564542690639,-0.102022585585098,-0.151061269658706,-0.146882853573819,0.26181030260348,0.0033146866857716,0.251385895925027,0.0574738799236494,-0.0118771274053659,0.532656790949755
-0.17358390362881,0.123925320904281,0.0212839327803777,0.000728388956949333,-0.131035991206164,-0.0972561059080925,0.0425508490961976,-0.0612651743228391,-0.2163516809237,0.337937434830223
-0.180885641976346,-0.238035481186707,0.115632699445382,-0.0448398235984403,-0.0485372786864435,-0.0353406783187259,-0.103003481452386,0.151145035187751,-0.0430686723528719,-0.0805928552455112
0.148906806843004,-0.0712213503043517,0.0169546719367657,0.0704846054760693,-0.278450637309127,0.171359249759619,-0.0530947584208093,-0.0572222584651024,-0.280843850626133,0.363292708212454
0.100335926598959,0.105085763814341,-0.31650801502027,0.102043997936958,0.0499884605170618,-0.337549098118193,0.105038582505417,0.20509140682922,0.110651444746386,-0.0524248954626773
0.136248560445162,-0.191425418012202,0.23239838226994,0.118005897498118,0.226010148180378,0.130845581447514,0.0687660004868788,-0.298220659312792,-0.162123788940123,0.0287445905326723
-0.182242821540435,0.215307506272894,0.210630945726032,0.109884977537247,0.0704329063544041,-0.0298089801027124,0.121917858548113,0.0719957257974131,0.0916101605126569,-0.298585520846491
-0.39327819398617,-0.428858242479956,-0.279678837515998,0.0312029273155901,0.0818312592311062,-0.0337518277736468,-0.0717560163723632,0.0737775302083326,0.0314776016305803,-0.419148160786943
0.0596779037011461,0.0363349861154301,0.0942589711336663,-0.129925852917551,0.0679965926326762,0.0530042486808763,0.146975058226875,-0.108620393000493,0.0915731680243916,-0.0659576252497849
-0.196770454159096,-0.178737980034501,0.251293985603204,-0.207973456334818,0.200861557382273,0.308397781711001,0.107792026406173,0.109549101255823,-0.0460772455536394,0.287258786211133
0.141596121947995,0.360187950685391,0.205878978687093,0.282184850562495,-0.213668569817915,0.151945985627841,-0.0511240307046976,-0.0763215814992337,-0.23021299866397,0.00118621236049017
0.070200220949613,-0.250322966942804,0.338085905757741,-0.0342664388332109,-0.208827027761623,0.105528516404332,0.23931337096888,0.223199182081294,-0.112333451277414,0.154393014526057
-0.554383205741228,-0.13422474344106,0.0449804642558362,-0.0565249457311891,-0.00801452322975932,-0.127329525116767,-0.0865986949589455,0.0598929728201574,0.24894415122577,-0.0630703470180563
0.041962545672777,-0.24027971224041,-0.212124465161692,0.0853705016006727,0.134025121581164,0.0047489975383292,-0.0137999157569639,0.059548047932481,0.185067192408607,-0.231756782043866
0.126190626219543,-0.0935806854422269,0.149849518485939,-0.0582042710931285,-0.0753774826774676,0.333141735340954,0.0916020686709864,-0.0227792196109141,0.0707966917492236,-8.61972319191606e-05
0.241349824113798,-0.111753332156574,0.0373436636934857,-0.0627655615529816,0.103944614376724,-0.179846407714914,-0.297510535589134,0.291798655598488,0.226529939417941,0.293509326116909
0.0300104683093671,0.0690066781358541,0.18442508333624,0.220097451866163,0.398916882149017,0.0932547107313252,0.178478095630232,-0.0543523534155922,0.279594894013326,-0.0421746170802745
-0.278238423511808,-0.11037037893512,-0.183908184649968,-0.28921152365532,-0.224461862352243,0.368366694553491,0.160739732954636,-0.337676084910326,-0.253191188810239,-0.0175575111690392
0.0999400889802824,0.145234653495333,0.075762704324888,0.0519723919751949,0.16987580002329,-0.0131106352176627,0.136842869400523,-0.251500034065682,-0.0975649437169809,-0.192313523004587
0.270171329364607,-0.00332609259255143,-0.0544375604870747,-0.396204603493285,-0.144205946509682,-0.156543643199386,-0.336720910177373,0.561957997318323,-0.103756310389511,-0.160069633148145
-0.304298702648654,0.249309861725934,0.0160495665175013,0.110447550334906,-0.275985690707091,0.114380618671304,-0.138733856704366,0.0637459558656342,-0.175910727557435,-0.118765290831495
-0.206181656017242,0.171548588653487,-0.058020185528641,0.00231481460518492,0.254493904193785,-0.276803200805067,0.217700421671405,0.121690510737749,0.0839939589263942,-0.00221667840330083
-0.0745015178071292,-0.0207052638438259,-0.0742568895148037,0.0539415664128138,-0.424065711706084,-0.03878769948188,0.257743535962819,-0.031231149111887,0.018554121726289,0.275628073074285
0.218381384542228,-0.0963215752527076,0.256561567304267,0.213949794384085,-0.0150685354653832,-0.00654970189048369,0.0839985989228553,-0.0305063873989366,-0.0971193115385972,-0.138287102834399
0.203627569965286,-0.347957044148393,0.347201652861547,-0.0719053324608428,0.23861188488316,0.0228308042580803,-0.0665935870469498,-0.379742285798038,-0.0111944005430651,-0.0429832931869619
0.277374756945489,0.24975635789394,-0.200106813341862,0.140314786252634,-0.0807741838718418,-0.0366648306516485,-0.220986022772992,-0.00765362815923747,-0.171299474809962,0.146214926029943
0.0941968732945281,-0.10830007148535,-0.171186351596441,-0.0257655206926328,0.0510521862275288,-0.0845925017584244,0.135238696291523,0.319762110353042,-0.058427323140734,-0.0716519464097234
-0.121864769618062,-0.166127557983181,-0.344074358351665,-0.0297611095951197,0.0444723505202536,-0.0801264426956726,-0.230165477393184,-0.142211629639378,0.0339969277976792,-0.308814758973725
-0.120532838968559,0.185947699970273,0.0797987554327236,0.140644434355299,-0.226738516554956,0.213550631369569,-0.375019662293593,-0.0147569362595608,-0.297080299014593,0.0141522805955282
0.254514979644944,0.0710463333507026,-0.0571814238869342,0.0268538303744333,-0.224319199777752,-0.143650143253458,0.052473930633454,-0.156748879337779,0.00291081663156061,0.245282889328408
-0.0899072370751003,0.0194050163936112,-0.223981811765601,-0.0549634524421164,-0.15475290542613,0.176557612757747,0.26756790643018,-0.00461006458200934,-0.204693029267995,-0.153567187619713
-0.106069552185738,0.176261317878457,-0.0818130514069298,-0.00663662836684527,-0.00560340621816495,-0.249916527397919,-0.0251952399262909,0.236549651082681,0.106315753065713,-0.332165913885706
-0.00537946821526236,0.229873950949022,-0.374567320031798,0.0429728745462827,0.0383119547109579,-0.191221061325643,-0.0661936641893782,-0.00714906271903339,0.10507796541967,-0.0588772133785379
0.321840550570086,-0.228433341782091,-0.118985277267659,-0.102188390316624,-0.0114493188246734,0.172914567249167,-0.0305644370243684,-0.279268799323122,0.190083098313493,-0.0917427305066995
-0.0171135635165975,0.0868117750424506,-0.0556851881291082,-0.282113103215477,-0.0587431015568095,-0.201291100825466,0.107152739134075,-0.075990517964436,-0.0725403882832995,0.0842072215192839
0.360461160792702,-0.0479071917642656,0.107120544545623,0.0374644895112667,-0.0642211610435089,-0.161268274725363,-0.340203155926785,-0.121792259764513,0.115237183819569,-0.161672308971483
0.141467120555926,0.0446159838933741,-0.5321856732551,-0.225195534457,-0.0262452011885815,-0.0820922259328428,0.134556202894654,-0.115611322995741,-0.395343266085238,-0.169640814824206
-0.0139006336475367,-0.198391223806614,-0.2894762755271,0.184902795752721,-0.161549970887104,0.0291421967592478,-0.0410700220029928,0.100662341174827,0.0338308757823652,0.204316658757621
0.163620486468869,0.145261547129726,-0.17264509965718,-0.199963067231693,-0.0597233717504443,-0.134738019173037,0.0756423908649689,0.0761731430473793,0.231545893396515,-0.144481375175257
-0.00592031593778395,0.339572240648661,-0.346110315484612,0.118255828004529,0.14650923900492,-0.382989323151698,-0.0112189595926111,-0.00195025378629153,-0.0526841836608305,0.0754599268888571
0.216584733602022,-0.232038308595041,0.0645884925989122,0.0953916852269114,-0.0154660092332202,-0.333347980310103,0.178572828376631,0.0567043839343031,-0.15094851903608,0.167713710912909
-0.134752388174226,0.161484875099504,-0.152727624271458,0.0848214536290175,0.194704798465311,0.0259078945842593,-0.242146867300845,0.148388913759461,-0.00649193670814822,0.129165081066735
0.113469318132939,0.12236124491043,-0.240090185497722,0.0545053067286058,0.0912129595879947,0.0946022363335179,0.362995945196413,-0.434402661587957,-0.119800639624008,0.361011688316302
-0.283735901704448,0.0420143337190525,-0.0298255082071781,0.129677978229739,0.16591660013969,-0.360541256149966,-0.398471182118373,-0.197936501862357,-0.0107155632209415,0.363272983917773
-0.0531268624738506,0.131614694445482,-0.103434846375359,0.053200273991117,-0.235116268026501,-0.151755088949684,0.130622076010758,0.285012065724915,-0.150589489340092,-0.248353424139184
-0.236846878644148,-0.00128093390733368,0.0736057141989706,-0.100380509814455,-0.131081232105277,-0.064636495025873,-0.0773373356553107,-0.225020810832249,-0.365120240306538,0.0366723589706534
0.127745296918252,-0.205950657804165,0.148449472075184,-0.0335141592345902,0.0751951194678971,0.33064972679768,0.0692031890466442,0.00489443853438549,-0.250566967452579,-0.0040954408799978
0.197532487460025,0.167418651945448,0.30075556964366,-0.000284051611858693,-0.115053556584363,-0.152042304288202,0.176797407745128,0.313602695793532,0.040423175974389,-0.230825355292691
0.237147770467091,-0.330406280862089,0.0491958198434081,-0.476068971724543,0.096603730323261,0.0734599756741702,-0.164795769969935,0.0729571401090447,-0.341101816276942,-0.187027416267974
0.186107460121565,-0.0788378611991182,-0.130978263058376,-0.00767009445320935,-0.0406273418819131,0.10506656640627,0.133679367120225,0.300201687572868,-0.00414303558103834,-0.274046832134628
-0.431378441939685,0.138098397532236,0.0964390136488903,0.330168932095445,0.299866659636971,-0.144719114072917,0.0778990268586358,0.0519875517087598,-0.00520355135838889,-0.257886190752351
-0.0200979573541271,0.284289357393677,0.264661807413319,0.0987485184763877,0.103636900802631,-0.117913704394523,0.202109496053704,0.223388362670244,-0.176517163754189,-0.0260844234178882
-0.337167007278795,0.336314230394629,0.471621548160945,-0.121307657129822,0.255372153817825,0.0467902408661075,-0.176399303272212,-0.275911592538575,-0.125775318759963,-0.277797710806142
-0.0402604751311456,-0.051809833873916,-0.208724011321315,0.0269711158368287,0.0449995045800643,-0.00259079205172748,0.221148654478277,0.419407127249923,0.271126336346382,0.225373127182501
0.24244297331449,0.233561831459684,-0.0212576271018375,0.0374134689165437,0.0472100162481777,0.198412255995376,0.114821454292611,-0.0521463152943875,0.159454989169606,-0.157306162257706
0.0326576080206361,-0.229609892429588,0.467683189778755,0.268509520911535,-0.0133153048729098,0.16462891769868,0.15907240560044,-0.118942328146064,0.11295068933945,0.0370285221680868
-0.413430181743716,-0.0575393566670253,0.201729961239808,-0.180449641766041,-0.0139481041864159,-0.229712525068027,-0.0336170980034705,0.0921526808405365,0.0390250141497607,0.0169883599096638
-0.215410907752492,-0.0583583510852133,0.0662268310751998,-0.0571488677823266,0.132620984406457,-0.0390011566620344,0.035551931815187,-0.00134593576957982,-0.184396519772248,0.035540486461629
0.0186600237419751,0.207846814076228,0.129126911837806,0.0998751133898331,-0.0167275016797597,-0.208749604479559,0.0673829320055488,-0.0475597060694914,-0.10656601373372,0.122085876684007
0.190718481470593,0.192313416531276,0.0634972941226606,0.119908763536554,0.0905048021286101,-0.0210158999900716,-0.0613740863814121,-0.163839296641808,0.0937850330788545,0.0136299211956098
0.0486752477278196,-0.166876892604974,-0.198025846388215,0.332672404508615,0.147312131543609,0.254829925387162,-0.0401646940437708,-0.203777957453999,-0.0518527149098077,0.14341218674862
0.253401403790699,-0.038657748200538,-0.122867965393698,0.0383111861960945,0.154757993142695,-0.31985421802478,0.24516755849279,-0.315538071842533,0.210310627551648,-0.296082182224633
-0.47308136376404,-0.366276985154816,0.159639294018677,0.164889944491758,0.00345620967302772,0.055752846361347,-0.0664423747554921,-0.206872801705371,0.0935738797484436,-0.275770476836283
0.130365005617416,0.167621105795459,-0.0494530755825714,0.117518680422025,-0.365445579122166,-0.133143950639781,-0.041745608450491,-0.122712266333161,0.475143979827011,0.0427137577288477
-0.0063279211225397,0.34555956927905,-0.0739891074300532,0.318847717349081,0.00696077541509863,-0.325637417912948,-0.0479748483502713,-0.0772609030561977,-0.280772153084573,0.0762328129432403
-0.0450910199391224,0.000844845748708489,-0.24687460926951,0.0546860159408885,-0.0746059238960885,-0.022161692357773,-0.0352871038381484,0.0634189741809661,0.218343752126803,-0.0309831339096488
0.00286182610319316,-0.219620306059637,-0.139650885706429,-0.0578628438412595,-0.17530084981527,0.340238041783185,-0.44723687132966,-0.360515651244827,-0.0680059540592717,0.0417638279616802
-0.143250981426259,-0.10457719645034,0.0729316129730911,0.246741449019635,-0.00531964085102664,-0.022691441095374,-0.185704219018838,-0.0602852344979505,-0.20166103370059,-0.190031594117497
0.116783788037756,0.258599011611441,-0.170884412597468,-0.0938116260880539,-0.133577093351843,0.216676760640801,0.21221452880809,0.320042782610073,0.177262960304425,0.185355521962281
0.0754776976402075,-0.248772222069123,0.0918139648537629,-0.0465844844808195,0.186639599395541,0.0582666934854948,0.168148210772164,0.551942287365788,0.0318290033286006,0.140835370567005
-0.14464645221503,-0.140154147841767,-0.463993332400866,-0.432898632617599,0.0716500723777996,-0.368485239939446,0.405709078036682,0.26437166040962,0.0784926799531737,-0.409462970742592
-0.0261329754802637,0.241456258935665,-0.233132928907903,0.157928099503288,-0.221054498785714,0.202698949300996,-0.278466375259187,-0.0781954753344323,0.0394516714583197,-0.126608895307018
-0.0794300688049778,-0.114800724728623,-0.193280229246055,0.196437450632091,-0.340171767203119,0.199203783200225,0.248044025099073,-0.119539476971607,0.0399854090398322,0.132999656515663
0.147398848791554,0.430283577028944,0.0427416156128225,-0.303737289968987,-0.220545203686737,-0.0387053817983463,-0.00500902332796116,0.0950417991262811,-0.177901682866598,-0.0561020557442546
-0.156351021323564,0.0657407320218799,-0.293081902538267,-0.133177566782828,0.0518557507176213,0.113672425346247,0.105889950685831,0.143788686047224,0.0205583713691323,0.0394603159049802
0.339500630546883,-0.0342009377069479,0.0562516608713863,0.158153899649845,-0.0227769118625684,-0.0556895708189889,-0.176207070881328,-0.0480744890303078,0.132607377079166,-0.160548327349583
-0.148767408571783,-0.268319536130359,-0.30272371289555,0.00351463383323976,-0.0630107051823313,0.0558635714019195,-0.00746002820192346,0.0874515042688638,0.198489103734688,-0.149778392014745
-0.425467421440401,-0.2312338792105,0.380671213158968,0.0393437376832647,-0.0220238261357925,0.0781825319898952,-0.0620151850808382,-0.0868986004885493,0.262209575698333,-0.0190887661019812
-0.0656599930866367,-0.127542782270611,-0.0377775596762886,-0.29739985016209,0.0822988519270873,0.0437242098895697,-0.204791033032157,0.145456477121618,0.102484061604599,-0.329497329764821
0.00729341619864392,0.0998594559544252,-0.359970785095598,-0.160957440905219,-0.109017996728106,0.0108542846971877,0.05655832793209,-0.261118350230575,0.0688625357257765,0.123230622512777
-0.0768253673203437,0.1969170216607,-0.00684240041194881,0.383825849584,0.0192184381445439,0.435452129521806,-0.242609172153922,-0.0730309174960218,0.0821745140239322,-0.0761811248016519
0.00965590818907201,-0.236077780447591,-0.0392795547373497,-0.0268859662419758,-0.112325378395335,0.146254577002526,0.0489238349732202,-0.123894789418434,0.101932723642031,0.315410010100728
-0.0685009790054678,0.0373904982872451,0.334262875563452,-0.442965433847885,-0.407813733761646,-0.110825898602058,0.379118634438147,-0.307092918674643,-0.118257915054479,0.303116331911889
0.301498952741363,0.060843286896712,-0.0406403383051286,0.101092051529752,0.181802372901102,-0.132825214843605,-0.0727717797117613,0.476139069974751,-0.0910253168168479,-0.116061561399142
0.00897395258846645,0.127110185944969,0.248625617097588,0.0779829235377532,0.0881132687109306,0.0392143954966374,0.153790238245114,-0.212505794425206,0.0612794171239428,0.078742534798485
-0.200224229848072,-0.073507204301789,-0.0276402816141609,-0.0675917501430988,-0.151834382499273,-0.254842904987959,0.0186225867730038,-0.494058361920003,-0.0157099548323588,-0.127669536697581
0.236923472398749,-0.187316693361027,0.343952501246828,-0.195792748935558,-0.0925431387614123,-0.255348471353395,-0.242788791392572,0.0167579484552851,-0.0571799365293121,0.181379689929312
0.0251279496506317,0.308138959050236,-0.175193638679067,0.0536064352505217,-0.024490662810026,0.0551650904694723,-0.0175308097850674,-0.109686463663585,-0.0827427692900189,-0.228931615206364
0.00736496395356637,0.193057435006416,-0.272899866341758,0.319697761230355,-0.179712496226987,0.0425412605243305,0.270930001255411,-0.143464670858803,-0.0297962779585324,0.15321731000124
0.184673621248736,0.182805618292003,-0.160189378465514,-0.214200220075554,-0.131427724063174,-0.00362155245539621,-0.254408467912733,0.228521848908238,0.0986164528580992,-0.0768521699294382
-0.146530716765726,0.0534138114964132,-0.115143912807215,0.0646916557258028,0.00391843808415924,-0.0578236261237867,-0.293544633334383,-0.0516271664430846,0.000681286875759435,-0.338599323818018
0.216320326526073,-0.0337974325564031,0.236826678054224,0.0374756829827763,-0.0706224672930826,-0.254193779747445,0.159153517083913,-0.230714556385319,-0.0341747762663666,-0.109278667958927
-0.0529642311287195,0.204049822989461,-0.0563686208938449,0.0695617839315323,0.369944488398659,0.236332755279168,-0.0789834947737674,-0.0352572336818847,-0.227685711641478,0.0478210797973732
-0.221932141754523,0.0553614711045822,0.0330395708112553,0.203164649912929,0.0843231670196993,0.454267362490722,0.339548826168986,0.286540136495786,-0.0409963919666339,-0.126469217038824
-0.020114853695271,-0.0442509881493227,-0.133565051028497,-0.0904574287678896,0.128615594600538,0.00383649148882131,-0.218619377971713,-0.172535510895665,0.233019362572481,-0.135818951690178
-0.242213428634709,0.0097087830045854,-0.0394157429078827,0.0440725749326584,0.312871736190293,0.301393140419618,-0.0282674114988883,0.0458473153614358,-0.357968055123342,0.232411385912427
-0.027278263481726,0.357047587984076,-0.231190609807937,-0.00563317495359703,-0.255314562737768,-0.161598482902754,0.323470504357496,0.18665379775784,0.0646431301441363,-0.102647055635764
-0.136658291891078,0.245408746107945,-0.161093250231536,0.309538813971552,0.048380696376382,-0.194449079042081,0.188653205646337,0.208692417738348,-0.0421583319609261,-0.333595194790406
0.255351617182336,0.399776805386959,0.0478477693736772,0.435884978653985,0.0580036050876126,-0.00133183692305905,0.011584193233621,0.193975223510727,0.00203979413611665,0.195845820951402
-0.375486470543231,0.0893904604040362,0.0836690344561564,0.0956167429007743,-0.0808260465176518,-0.351213488607265,-0.0401611744760968,0.20790492459825,-0.21066967232371,0.11577275971436
0.205164330507825,0.206304537759517,-0.113696862176129,-0.0701336563438485,-0.292276856821524,-0.304890065569591,0.0339649166320012,-0.0331152506365289,0.156029893121375,-0.101460118778713
0.490959663599567,0.205936973048061,-0.29139269287721,-0.209571129860952,0.173392407287323,0.16508627566623,0.130847359558482,0.0279163031766217,0.290621110447675,0.155186208888744
0.129597383642476,0.0230185874889587,0.135984084177354,0.325760128752112,-0.105901914033631,0.197593235292627,-0.219474891867327,-0.0169600250231763,0.0644366697205665,-0.0158106785909825
0.0246261791136619,0.25882920543415,0.280535371184445,-0.0779579252668265,0.0484768388522495,-0.0287516401105759,-0.0766348688086115,0.106646681910028,0.241101731695015,-0.0146913180415299
0.103935666272124,-0.452419211360999,-0.158149353641926,-0.360419771728388,0.25507709411783,0.0753611356190469,0.0163340441004433,0.130116219344581,-0.307789796619355,0.0240958386354893
0.142632460302619,0.125391617627665,0.192119473788289,0.278046950713863,0.0211948213374944,-0.0228293325474323,0.15213836946655,0.00106296720401042,-0.182411768006504,-0.0185161934001159
-0.00956558829316806,0.00819758523516861,0.0823916261777919,0.120629014345251,-0.108894934848371,0.134503496018801,-0.036908682866225,0.0209865911445096,0.453681574617559,0.215353498788923
0.0561903633246386,0.127999193813268,-0.0114437707937021,0.0989949918222318,0.06192813765215,0.167970697644495,-0.0886862606903686,-0.281714584134216,0.312861309740825,-0.211829081069541
-0.367378552736599,0.186699929004511,-0.0570844547958225,0.223160262181226,-0.135171647920181,0.135318677521005,0.154479841311878,0.264039392230535,0.108466571135326,-0.355111297840786
-0.120162575184874,-0.0080439578672331,0.093833658572035,-0.00680102053976236,0.20555536882888,-0.0587756178532273,-0.0656661660984728,-0.0869686133596721,0.25291043097667,0.401979738872599
-0.453997880614219,-0.0772271409313438,0.260999465719065,-0.110887470520346,-0.198435504990896,-0.166619364125475,-0.219832085409919,0.0547450018762988,0.316582781380681,0.196082719534485
-0.0162024649045579,-0.231622591957448,0.122685189181337,-0.147221543489235,-0.322679015091416,-0.0831228206650893,0.424684045717814,0.198683869036307,-0.135427584823373,0.272187190901236
0.0250263815955115,0.147619267102064,-0.0977770460697335,0.27821691708146,-0.198386952904148,-0.0223425023536078,-0.0327930584708519,-0.0959816901451261,0.234371349218447,0.00207199215628777
-0.364694534150161,0.398261784833636,-0.267700007521864,-0.207496810016262,-0.111118914714071,-0.120330184905837,0.222565924075509,-0.29974413284804,-0.20706146549986,0.162154828908947
0.331970664571483,-0.252350450873768,-0.130656865295312,-0.294104427392455,0.168070343985908,-0.225443559911903,0.0310958310060147,0.426344937443885,-0.1045040083362,0.300854297421636
-0.0472297046658999,-0.0555877504898026,0.185936884989722,0.091974593609934,-0.41708423378626,-0.182076291158852,0.123131882728322,0.135533685518809,-0.0613743628073344,0.246319399720556
-0.358007767687134,0.37619219115441,-0.0294582358385567,-0.120895911933461,0.02348070402279,0.0285841343687727,-0.0430916757150091,0.00175152140815059,-0.171519637615321,-0.0385510959299694
0.0169634218311127,0.134877056491218,0.0428875731452678,-0.141943784828554,0.0210794023603103,-0.329017036691265,0.0712754844069093,-0.100668924682149,-0.262941429832581,0.218219482501885
0.0347339723318966,-0.198371446139268,-0.292405984680473,-0.181104294759882,-0.071749787966315,-0.00990729883567156,0.138983662972005,-0.138278659715899,-0.0822965698517891,-0.209703175385758
-0.254485317983604,-0.0358906788987153,-0.400579617997668,-0.0855880842770282,-0.400897967995261,0.32706721616093,0.256020535995717,0.188327292816785,0.220279751378589,0.286373359014357
0.367233665911789,0.127978133692374,0.00134741728053032,-0.220556871336987,-0.0910309690693628,0.0903415115695615,-0.103226794325922,-0.347733464137058,-0.0911242082514684,-0.145074621138021
-0.096308417884354,0.0416508508677941,0.292460528925164,-0.16496449171791,-0.0931587152655818,0.142993509091002,-0.245887240951033,0.109086870482261,0.0850183066475199,0.302695813614394
-0.147053401776395,0.168743847303352,-0.0854155891468626,0.0018122485998644,0.259050246666942,-0.0944529608641178,-0.228608605918723,0.201982917347764,-0.525116418913834,-0.0434427069318255
0.00127662774447621,0.474276478660179,0.0388604584304504,0.00506923885166142,-0.119691893060352,-0.0634112428974228,-0.201242140751991,0.00720375163155856,-0.118209023806249,-0.00448496794779497
0.308445452633421,-0.00597047512522886,0.383977794879263,0.0560797574826967,0.234036193602284,0.2734430447948,-0.15871625222682,-0.0719882075369711,-0.0660569209122776,0.0141124838031603
0.256183162534488,0.326047994510142,-0.174438968587017,-0.0757059977899071,0.179052111878684,0.00927770508798997,0.00411736524131614,-0.346770256354259,-0.0698279033664001,0.204803584890056
0.0587288105621134,-0.40527551116351,0.102794003797207,-0.00362167903492695,0.00966944944288778,0.148291451283395,0.170572702141553,0.0554533876634522,-0.23646124679659,0.0481718331153648
-0.0123898625935748,0.0307065196960493,0.135793127369069,0.0365293503121713,-0.247367997078436,-0.147572498818758,-0.186483236252842,0.248637489567692,0.0489280384411929,0.368403114727948
0.308266362480235,0.0627441137987707,-0.0174340344772037,-0.176168932187755,0.071861499283128,-0.0305935032488013,-0.258317564203807,-0.110060672403973,-0.00308991207444677,-0.0736113865918023
0.128024713818533,-0.0501113892611601,-0.114500621838006,0.358958446676276,-0.282305477944358,-0.0894413514293706,-0.273875736748399,0.279982156433043,-0.14901079089436,-0.147452194153419
-0.0937847444981452,0.00733157081924081,0.195724338737151,-0.221068922256642,0.0802807716417616,-0.283136364869886,0.18033715911992,-0.0142745956927272,-0.0870899965628148,0.0461541787696818
0.131719357311311,0.101299950011006,0.348617630671818,-0.0548811318287183,-0.222039178107613,0.236084642691214,-0.23734964858395,0.086840897660505,-0.238503930153291,-0.0485535761303788
-0.0613305152715088,0.0540384691361558,-0.167977531403941,0.108656963339845,0.201786649995417,0.119333455988417,0.177087454381382,-0.0224120834501846,0.381452671189934,0.0654415410870738
0.0446187375938453,0.00908542573937616,0.165172257413213,-0.260802905811737,-0.167193790961946,0.283203963320604,-0.25402389527456,-0.0613963941230239,-0.146958907955263,0.175961667769948
0.533764901446212,-0.0307752774071501,0.216712839719151,0.00630500197082021,-0.162770329762308,0.204615218210929,0.367532614118851,-0.0185238488032511,0.193047778095341,0.180321644168967
-0.280914417912234,0.066657316484592,-0.230227578673038,0.163993370059757,0.102990869756906,-0.00564554045473433,-0.140662505021374,0.219111399916726,0.218675504283943,-0.0435690676250287
0.0612469658109279,0.1394386539609,0.074931826700099,0.270467558438263,-0.0913959693390163,0.153207646441147,-0.359786942343084,-0.254545867570555,0.374220962246176,-0.0739867506414646
0.171763235484717,-0.0912571090214502,0.114379648206377,-0.275730093606335,0.139137196844873,0.168439411955292,0.104686534365847,-0.00718238837807962,0.0284847580022216,0.179057482529405
-0.278469135167158,0.138921055093513,-0.235306529850849,-0.0650883033433138,0.231085750052582,0.292484305201716,0.0619992589683224,-0.234624185901223,0.577787510225869,-0.0336237021967395
-0.0028623252503102,0.110125930579678,0.130375859084215,0.334287496608125,0.236923625961199,0.399803513575278,-0.0235580056225887,-0.240334475686627,-0.0682962367525589,0.000582424454108943
-0.113160450866917,0.0440885937796426,0.130369646574373,-0.0890333440941805,-0.315561262816616,-0.2713342136988,0.317089816756419,0.297022377483314,0.146232394833777,0.193387444121852
0.0898338146044277,0.222021238002158,-0.0462181151072499,0.183979001345216,-0.351908232598979,0.176353285554037,0.293000965445053,0.228319966231294,-0.153170950412472,-0.116871339244145
-0.357213999954072,-0.0718037417801802,-0.0135927439790953,-0.0733012990357348,0.0806719080011725,0.15039058141424,-0.0394007271439564,0.0836720273794371,-0.225593420190435,0.191978620611468
-0.262609007716413,-0.18748648433096,-0.0202757231056648,-0.0677584182326014,0.0616149134111182,0.172381634466248,0.0686413923595584,-0.132756838238891,-4.44307431060054e-05,-0.231794272234718
-0.0475111775777036,-0.0019211796005921,0.0124630181914815,-0.177839752377531,0.108463538429452,-0.102550829331856,-0.295265383163343,0.175034205404891,-0.0094223591830359,0.151563364632424
0.34422641619325,0.118291338612734,-0.264315674617089,0.381993473602787,0.175599634584397,0.357802815612336,-0.0771968000371736,0.039241084468058,0.135218176021586,-0.123475546081717
-0.0858934557596349,-0.0299222585149813,0.121712184941998,0.201037774183,-0.0486162195651879,0.384502672910137,-0.0555462447746856,-0.273846930623199,-0.283607225558501,-0.14639256874593
-0.139049173065637,0.251459322066712,-0.0174705544406724,0.157252168564678,0.142941474376967,0.28332142990575,-0.245848956214174,0.0575823011193845,0.207341449694021,-0.194950392593329
-0.366967172681114,0.384324843658278,-0.176516102960251,0.0539398979054609,-0.322274231680976,0.191489000999623,-0.301632832897515,0.152646412113553,0.0223063062145393,-0.0177795353438899
-0.212724076132228,-0.395207111151728,0.0843955192162282,-0.0177419964705673,-0.120334386048206,0.0536149561122275,0.0492732625346774,-0.175214878339087,0.414102322039051,-0.0852408852327678
0.01987604888502,-0.179818233876147,0.225583840546621,0.0660141942386882,-0.122954841114658,0.00967315537292694,0.0376754737576077,-0.0952938346410477,-0.274428129532946,-0.345777714774508
-0.082807906016836,-0.140345560379764,0.195247812190441,0.0302641905417115,0.186524594532596,0.050029035696906,0.127738892915729,-0.193761921931168,0.204752339201836,0.00816665734977788
-0.0710076919546298,0.0597522437671781,-0.181546121673392,0.144880848836493,-0.0284707171358305,-0.182527151237975,-0.334580960403166,-0.0629504979824082,-0.126909283620985,0.301716081640815
-0.0740671946518507,-0.0460006433545272,0.31716142273955,-0.36813528882883,0.0185465111961709,0.0970049373810094,-0.0622701853991273,-0.266991221625905,-0.0251909357633469,-0.260655099726748
0.226096036763044,-0.198738727579655,0.0314810991901147,-0.217019170411711,-0.132136243375409,-0.254658725055936,-0.133468019097775,0.227623735086773,0.0339205097249061,0.0742573259899373
-0.22224900354105,-0.0291829552990068,-0.135274331664497,0.149789224558729,0.548781152763758,-0.0112170301432934,0.11426110154797,-0.2544159565404,0.224079280071076,-0.0114561344076209
-0.147532443852578,0.0972447178139519,0.0384982837760668,0.19729465764709,-0.148102521867025,-0.124244967560613,-0.12936850238494,0.116583573820717,0.0593652471571246,0.192795650426013
0.14326425109076,-0.0532050839432214,0.166494474717092,-0.069475433121337,0.0485704272268431,-0.0509015859186507,-0.156435010046788,0.0902631762155703,-0.0704650703572412,-0.336794458305867
0.303104577697911,0.0901456627405198,0.262060994422738,-0.198332037672455,0.319664323124152,-0.081165718098126,-0.422208900079468,0.0676871436749338,0.267788818969581,0.151828832461954
-0.0277845146104255,0.0226311843327066,-0.0662743008354123,0.00687100312308525,-0.389472743273375,-0.264567092145262,0.0534407699240581,-0.0659941033828347,0.215453616348834,0.0162723123547209
-0.0353115021748285,-0.0933648469806646,0.230753313481481,-0.089715158058929,0.515737863091525,-0.13462910347247,0.361255199209981,0.0406301594504537,0.249648305198802,-0.38496134212131
0.0416516648122721,0.0112710902670162,-0.308966628929727,0.354196528728873,0.0122623833223538,0.0254176335597542,-0.100501769594692,0.518499321054831,-0.195614669054761,-0.215568431986892
-0.0336620222090352,-0.306945210132389,-0.0853070332557854,0.108010999435467,0.193570917549289,-0.379868604958642,-0.0887503211427077,-0.0569642469568354,0.577671066857908,-0.110107554110055
-0.240695354130745,-0.131314807687394,0.0702938886489571,0.172614617202532,-0.00627595648213093,0.140368807453989,-0.100998045253596,-0.347435906484781,-0.00521463658288688,0.462340156208136
0.5064648913549,0.00849145585723582,-0.0560235425527411,-0.214045377828885,-0.231330937552328,-0.150406008426617,0.119079029017772,0.00810602744178247,0.00647532266885516,0.250613940346913
0.301412375244443,-0.205839437419512,0.0603394183951949,0.0141650396292678,-0.30016683372748,0.153305136952285,-0.140122659836529,-0.168753197073437,-0.367391352503274,0.19420953396878
0.126538801539482,0.43244672763843,0.00587216768081472,-0.00346400667048273,-0.283378766856566,0.398340211125938,-0.255870570391367,0.142038533494942,0.235253815084888,-0.139934435583226
-0.130382666017773,0.0877431879815596,0.329672200761484,-0.167029953589918,-0.420736591963835,0.124437493331338,0.20201681534161,0.193795431052775,-0.185480520744193,0.0596143310816047
-0.0168404906359725,-0.0745945434026229,0.166901050118212,0.00388164133814328,0.0548257027825351,0.358510507315964,0.076339364221443,0.18148395817065,-0.0208159087424529,-0.136229980093401
-0.0736190481229362,-0.226504489854366,-0.00743568013840165,-0.178957487552576,0.187479488008993,-0.164144621839245,0.0822626315712879,-0.209222237806899,0.111828353425413,0.305370029344701
0.0204027961009928,0.0204703090676076,-0.235832432051622,-0.0506408076517673,-0.0128945291803827,0.269381821053452,0.0246661809365055,0.143339817121006,0.300183506437248,-0.193824705931952
-0.0291768114543991,0.0531637497739998,-0.108058059144986,0.120676208722031,0.0661568893226174,-0.463678957126003,0.114408946153955,-0.106426366979007,-0.221146048640816,0.241013207973763
0.123214948235595,0.0804887569449406,-0.0404823483967734,-0.248229999439296,0.406591133421798,0.0255688957043654,-0.0923925066091349,-0.140532698511772,-0.134866627583388,0.0965032896208242
0.480338034572656,0.264582508458393,0.337997598539764,-0.125523172202045,0.1364930276484,0.44603048481401,0.0168472782606617,0.0309324997588306,0.440276243746138,0.0116547450692563
0.128002408531509,-0.115859146732823,-0.210288292539578,-0.0635035103483965,0.342995492155691,0.12505939860869,-0.118834007543118,-0.033113968209354,0.205895602300175,-0.0291276575876811
0.00052516788346656,0.0578779304562458,0.0494942080044358,0.204987815818088,-0.262874256500315,0.119167507941606,0.131750283058389,0.0483160645719503,0.147472500583838,-0.286497825367937
0.346920072866458,0.129026762520238,0.0152739481767904,-0.042895371479156,0.27724268694322,-0.0530254420374818,-0.288972546010998,-0.0570856923401751,0.19288226611255,-0.297287072369356
0.032098608279399,0.243807560158587,0.0525664922627244,-0.112766085821509,0.111688744912394,-0.0113650630808549,-0.309089384575897,0.212943362275961,0.218091785494844,-0.0358547640507932
0.247324470013544,0.0413703841561422,0.43721490213478,-0.153708464573655,0.244024143238688,0.156809267856613,0.26591595954575,-0.190552068404201,0.50460246330152,0.040620915360046
-0.166978536395941,-0.317193236364254,0.161001277841621,0.0372258122017782,-0.0248668381716629,0.0297659288964108,0.157298012806099,-0.0772251310519123,0.32872872534745,0.156044122941281
0.106796128433949,0.215347868650397,0.198801174125125,-0.00777904177695526,0.0549608016005859,-0.0223666246904032,-0.285243660446825,0.133596985660226,-0.491809464619309,0.101818310587566
-0.00786885111218212,-0.0613171901906695,0.261719502980053,0.132127380877703,-0.0557083968612938,0.136214165719215,-0.0257437671912979,0.0905003518055487,0.0846843562145335,0.110649600892181
-0.189257233193571,-0.00928086091078712,0.0769826491017557,0.414819865194467,-0.228719419457996,-0.1079242161218,-0.11154071686611,0.0952541801872038,-0.0952305870831008,0.077652208813751
0.168332155330403,-0.0602171292481654,-0.180228786735824,-0.205397173694666,-0.0472686992969304,-0.213699805591899,0.193154616932422,-0.1316294467619,0.330137109532536,-0.225640351231281
0.125870385553533,0.203734684663701,-0.270568955427976,0.0392626254126254,-0.152384837829656,0.19592046632327,0.0609633676046906,-0.206073674685799,0.203555407208171,0.0712786106361548
-0.178917887153995,-0.350771544948453,0.076313336193576,0.240877683480941,0.249081928794689,0.144028988516147,0.340838873747699,-0.204687392110135,0.0766310933779557,0.11596137947261
0.0316451862431772,-0.193780503130661,-0.107326612238247,0.0106666687973961,-0.178691277781851,-0.0464659689800933,0.13251864385939,0.0442038430598223,0.173637628073068,0.200831971965184
-0.00644328984763733,0.00168084829371486,0.258050773021721,-0.0800495853914122,0.211558559761741,-0.168030463129076,0.204634786853799,-0.038304121208776,0.0707641286886747,0.0379767232533956
-0.347791064770604,0.387141116915587,-0.157538430452308,-0.0710424839748995,-0.0708672502844196,-0.365637178873474,0.12869297897825,-0.188824570250988,0.186785908786591,0.243068559217968
0.00596408960331452,-0.0615297981057124,-0.0448920483156946,-0.0493161171230153,-0.0742804653252546,-0.159164282163875,0.102588366342956,0.129251475136021,0.12849434868259,0.0800234477549417
-0.264266787360974,0.0429474867925218,0.087023056965525,0.0279689870595691,0.0335424738249026,-0.0192345881179466,-0.153212537021961,-0.228279779062695,0.24049515569277,0.0483762868253341
0.276166519420881,-0.10403711737043,0.10608351529935,0.0759173533263231,0.22694722566678,-0.0460118353181658,0.142753258622602,0.142160546976733,-0.19367968459915,-0.298266424581462
0.250715458163316,0.117622227217518,0.168790153614037,-0.008656194880812,0.0474245055220245,0.249679015881533,0.260476257894513,0.0181035179763115,0.0654776314039806,0.0195609684526149
-0.101006472937018,-0.214359109730815,-0.265497208212994,0.241128353733619,-0.0469481032143328,-0.0108809074887498,-0.178200457493852,-0.159335325752721,-0.0746750093060669,-0.128636205843722
0.0955850790051832,0.31777131462668,0.00864068647009721,0.14520513035648,-0.153813753041515,-0.217158727568856,0.143915923561444,0.230223980801191,0.0867804234128973,-0.134096096209646
-0.00108136316724495,0.136553514502818,0.0022674656786973,-0.126551106202511,0.155821019568895,0.101277639337231,0.240504767638396,-0.0888059184333716,-0.0819035258505573,0.22490321027901
0.11837101352439,0.0900486367897126,0.0836643119441392,-0.067448504990506,0.117470409184084,0.2892474646746,-0.304796701855933,0.00857375736582191,0.155285750423284,0.413140982457027
-0.213815373217026,-0.25717877165826,-0.276508185510018,0.423473037118885,0.0362070110795084,-0.306513761412203,-0.172396568786887,0.121318771270526,-0.48900178859091,0.323457420428118
0.149771193322994,0.0653353251786073,-0.0852331537895765,-0.0281655372314409,0.317465617212576,-0.268405782422819,-0.213554966930653,0.0975983181737937,-0.111461136867168,0.142004107968192
0.0152523790519998,0.0305211875069919,0.16746657723703,-0.0781774018309771,0.00677740247352183,-0.153798227701914,-0.0237073181392861,-0.230007542252057,0.313680702775243,0.101994647982113
0.128794213324456,0.416301861126234,0.193853599874855,-0.185465964278571,-0.109443147558159,0.237560138737658,-0.365069469823705,-0.0913863164977092,-0.270471749965053,-0.0501040319393817
0.278334520834327,0.0512590754138531,0.112707954658632,0.0944050416650521,0.0815865767384052,0.328740103503846,0.384117636269418,0.178656954581049,-0.0232346504864802,-0.101227635918933
-0.0107190757738976,0.109453298885782,0.114317487412132,0.121915896830999,0.0710959756862199,-0.396402688223879,0.0477227689012333,-0.0875232870828432,0.0624307329676706,0.352213969412843
-0.199735300486996,0.382340055542139,0.0140013554502652,0.0379616951617066,0.0191371568262748,0.340768372502117,0.525599039765418,-0.0371642329165058,0.157101477568987,0.0623200190385341
-0.406158468642165,0.164755883620099,0.137201162468518,0.0209624582125791,-0.148291348890129,-0.00416905529455186,0.212016749986361,-0.359088974414523,-0.0788039879265196,-0.0687819384805182
-0.118717781473039,0.0899440486407536,-0.0191469417165668,-0.0403501901679462,0.104728227463353,-0.183069582882117,-0.0283861063282453,-0.0764379241464992,0.0535995581778097,0.358033049729279
0.211277851480878,-0.0425420409816059,0.11539620614665,-0.0698275492690766,-0.0945986165740199,0.114051502152826,-0.0916135217442657,-0.177828456551586,0.223278223082418,0.214196485068588
-0.545350854826697,-0.0624102364655515,0.0801842902000423,-0.00267162361423695,0.345686526943532,0.0312699830485844,-0.00211327928591536,-0.190454561221059,0.0683703073332486,-0.24819277272801
0.0336757746982049,-0.223798782839981,-0.10041569466859,0.0534127727285646,0.156938210732367,0.0381314652495512,0.64801961381708,0.299495908234957,-0.121984688062873,0.314314518228894
-0.132763863931125,0.0736675776840088,-0.169314143660918,-0.114015671540451,-0.0832603827084003,-0.167168301007942,0.263908594607281,0.0824975449332969,-0.0793928007424415,-0.0976359296629752
0.219944640457144,0.0358689456029889,-0.30414363853388,-0.273310827700586,-0.369317792747085,0.0543808244253576,-0.271865809856211,0.309864382410117,0.0941672346882003,0.00612867174525007
0.228803050288533,0.302472269572674,-0.0324469250492756,0.199283240445104,0.375964667731248,-0.179712331377955,0.144307144448503,-0.142254748795599,-0.0150348954871906,0.085715122186461
0.172726944389249,-0.0245871280528621,0.0311595421843994,0.0774270431891704,0.0845050494423572,-0.0450032079725474,0.346664915412626,-0.128121020064348,-0.18404975007,0.106922871501126
-0.185918586772578,0.0382384962445828,0.101493340267658,0.00024576714346668,-0.198941476365767,0.230591187576609,-0.288690457525971,-0.212906705551856,-0.0765662286826103,-0.202826617345562
0.125453330430588,0.287397986345154,-0.219747970945612,0.205906605687098,0.0846479037483952,0.263950315371792,0.153307622385141,-0.266867119908379,0.146774066962706,-0.106800954531919
0.0761901032190218,-0.168247276478383,-0.0130977598574009,-0.154608775532208,0.0681537517082997,-0.0774357685702032,-0.418444230129526,-0.0903302486642506,0.0603030067895463,-0.0999132647631923
0.0396193263147273,-0.219366535143972,0.319332193468,0.0856293079126997,-0.113361950045941,0.224842088894499,-0.0775868958608421,-0.0654805155871606,-0.0249149784046782,0.342215329145581
-0.11377208875051,0.104410999086251,-0.103646956146637,0.0435253005628986,0.0436230742474671,0.169656923708028,-0.114427296424269,0.0283278522566314,0.210193831001796,0.0838761399969793
0.00102996269138168,-0.205139277652853,-0.278611879751278,0.136361167063809,0.0582955059109321,-0.140975161074109,-0.190349682538109,0.000361622041497765,0.129098396915954,0.0292319130733314
-0.173937349208706,0.18803127113288,0.218902144476885,-0.00913196131753622,-0.121585486431349,-0.096182544206467,0.000932378166719905,0.0442576444214335,-0.157224183273793,-0.196542301955322
-0.254248377543847,-0.112241191550099,-0.243328811187213,0.311306499938878,0.0382258522198631,0.234298728822617,-0.197530061083686,-0.208918355103963,0.228467815110864,-0.17278762389279
0.401929023278913,-0.234323965442708,-0.0192507792296395,0.0872046786247266,0.0120624804977147,-0.199802464200327,0.0441055408790563,0.119062050269105,0.29530256721299,0.0917624411371974
-0.543468788769976,0.0271937628306448,-0.291881753199842,-0.402709103289018,-0.164265884548285,0.174208790256827,-0.193287392301515,0.0759876467328366,-0.0984512403111879,-0.0379828273747941
0.0281960927990314,0.167437038879516,-0.0178495267726716,-0.260718930868414,-0.204669992571255,0.157490808131938,-0.00487130594007565,-0.162988097455144,0.39388771092951,0.233252556080081
0.279739302899308,0.366758977472129,-0.104547330576674,-0.0744749694024843,-0.191751726351841,0.358230843597934,0.131811474757473,0.00458460484625096,0.00722849406728311,-0.0760677387583973
-0.170791583066341,0.180879776817468,-0.358395075048955,0.426168525882274,0.144007730315911,0.350587679219529,-0.330098045458667,0.388386067832844,-0.0182942208692191,-0.118980233023864
0.115864658527825,-0.374958786175266,-0.171163011045966,0.135912527184092,-0.0664093965287572,0.176032378179994,0.010613564738448,-0.0693208523808478,-0.197092257191763,-0.0834795612332574
-0.0433200465936529,0.318543654716522,-0.202780141579187,0.335064005174689,-0.245066770349559,0.330937531242135,-0.0923003848357003,0.18656230011714,-0.223564274527873,-0.297532890127286
0.0106113666655845,-0.0336596867100279,-0.190365199376161,-0.0535587201244668,0.136532370662004,-0.0552696002602735,-0.121820830870402,0.218998044047686,-0.0692707156080769,-0.00866988676951673
0.0399375276696559,-0.0117455428396339,0.109838150335692,0.359949610280075,0.106144324685319,0.089122427397057,-0.167368479332216,-0.0767194133008025,0.102259687769369,-0.375034406764241
0.181074403865537,-0.240684349236419,0.110833241468,-0.239730310967191,0.028112846510235,0.111346212206863,-0.338945426868029,-0.0506757473944695,-0.173081489678575,0.104894978148319
-0.410266737566553,0.260810448683139,-0.0933572753401193,0.267580905317841,-0.273716277145715,0.0579107277345396,-0.370750771760265,0.306151941241688,-0.048980481045016,0.0784640087492712
-0.104750262800839,-0.338010769801522,0.123700211191281,-0.413537569420972,-0.105176315113021,0.0908960033930626,0.0951631223730815,-0.218621439361133,-0.29974037617714,-0.110252608664163
0.0806477830714153,-0.126432519263501,-0.0383944785061323,0.208014019230784,-0.0760589914090626,0.294701697439644,-0.0344969918378323,0.111476231617075,-0.0650270796620888,0.00243844159233201
-0.0152055247051356,0.273573827471241,-0.057417024101842,0.272484648028617,0.0124413685421179,0.155863001980016,0.0993836714894714,0.177850616230896,-0.0156014475489987,0.251781829068499
-0.00829937072416038,0.217419074047131,-0.244956170891695,0.205270322056157,-0.0354840381470896,-0.155285212968523,-0.0471730402800423,-0.0262036081310495,0.224098233054459,0.284575147459945
-0.101273412150957,-0.000411184454459723,-0.201388593732736,0.193095049989857,0.00989818379347264,-0.578755103955442,-0.161432944362791,0.281565503624532,0.259596265108706,-0.0634341849147183
0.199668605333932,-0.0424804988308403,-0.0335972593183614,-0.0965933632853697,-0.122554535335156,-0.108542057256143,0.0423987054726998,-0.177166715629125,0.170243275693733,-0.101809094131786
0.0301786661294144,0.113855409103746,0.0731687552315208,0.170446768788208,0.187224373631836,-0.111070049986689,-0.0519988977807541,-0.377403900578417,-0.214522804580916,-0.0252455124491575
0.108014823353623,0.166415248347577,-0.352607347117802,-0.228038550415703,-0.194686967957749,0.18218820105444,-0.314747764729438,-0.216296643140886,-0.236475439555312,-0.0139747834350106
0.496009366910521,-0.0471905115480614,-0.0391379572571623,-0.227869948460829,0.35638766760258,-0.315683702324847,-0.113831837674151,0.135215335482909,0.336405969064873,0.102217007830763
0.273448928407975,-0.143189764577436,0.292037640364901,-0.260796759723446,-0.089004925795785,0.0962342142002545,0.0458057122719299,-0.168137495326843,0.0611516868133435,0.0795215871095963
-0.0848114258043565,0.239639684040611,-0.11505865415042,-0.422379341326135,-0.355800341623271,0.332095722767084,-0.0643131227868977,0.0417709026951353,0.0100127420294339,-0.156533742108564
-0.151592947791644,-0.336181940743193,-0.185190541378494,0.014452507575352,-0.253157598127199,-0.205405716093771,0.0594130515294462,0.143086859137685,0.216562791930409,-0.0323779845817612
0.0398978048002033,0.074343060962296,0.0974573169273861,-0.208616018056834,-0.308315817907158,0.109824070543896,-0.165518600812553,0.296543755658816,-0.305397390006165,0.204914269182536
0.171881017911674,0.0466918687436255,0.0689214783557838,0.0983683905228623,-0.124459926298942,-0.122809381682001,-0.151788754731866,0.0211554816524503,0.357009218695814,0.292961754003643
-0.460017710588371,0.0473252037468941,0.294255065983828,0.324597731438396,0.0887362734368151,0.093513395210217,-0.249190514512488,0.157716353210392,0.231614663110687,0.185600433515159
-0.213853610195291,0.464360221989858,0.00562708335325237,0.0599953619502033,0.100574953484621,-0.0891740333092036,-0.0836645843141916,-0.257798059809799,-0.0128355823090287,-0.239505164750333
-0.23840514801568,0.265264800012252,-0.156906449104875,-0.244637676978294,-0.214018229118206,-0.0280106902330133,0.0465659015843996,-0.225173923661009,0.111485599519879,0.0147101217426962
-0.0243128252764367,0.133069678701794,0.173787508130522,0.283094644995253,-0.091556946592038,0.24621290315204,-0.172485272084823,-0.0209507841494362,0.0172498349360783,-0.00438436746104996
-0.143944826357096,0.517965134558994,-0.188842079299291,0.0336911866816711,0.149875101450687,0.0745383226487071,-0.124993682781113,-0.0148438726256662,0.450103046859416,-0.090760166565391
-0.140766435448483,0.106932114132911,0.0850701654550023,0.101537351320974,0.369317104218229,0.0600100568159202,0.0359467538614781,0.0668214078140339,-0.103949810129275,-0.470657918963107
0.225591465492158,0.174010690431824,0.402380542065089,0.0453176715328239,-0.0813465741946964,0.00738128866434715,-0.214113311339035,-0.248508035898064,-0.128295534985334,-0.0922588364215516
0.122928870779037,0.129551144922742,0.220871061359238,-0.117754744945502,-0.0809603430459525,0.142886015849315,-0.0307553799921478,-0.234639484203959,0.156035385927836,-0.174001564849713
0.0146661019287828,-0.0738388924615233,0.294119262754208,-0.0545402341609849,-0.128904183725547,0.0888787012228441,-0.125728135834982,-0.179709551573417,0.276573615015194,-0.490668382162547
0.0960004573219033,0.0695029906428668,0.15660456787969,-0.143695704620948,-0.0180557790625998,0.2709055797831,0.349310236992594,-0.119535858518932,0.0182022373374636,0.20065297069245
0.0827247262032048,-0.0206173559669138,-0.124215691941687,-0.298900135435141,0.00268053126994598,0.0395398407422144,-0.208690813559797,-0.170742090331827,0.14513773041644,-0.103552293666623
-0.0191847660602725,0.0334588482975101,0.0409290114235945,-0.179745272066797,-0.159362271098045,0.148731366748905,-0.00897460209088606,0.112227723659058,-0.268705150202596,-0.40229523226553
0.0132673307932915,0.117748570897818,0.430881297969239,0.143605912835588,0.283653828812767,-0.0896308370330657,-0.246592412277256,-0.288200351583585,0.394389658131218,0.151243130469079
0.0422879057842175,0.0390475287488771,0.236943678799114,-0.126678141869345,-0.241168700872343,-0.247039577984276,-0.372629535351656,0.43106006727014,0.0636336198944507,-0.0294346478243295
-0.0117382829499346,-0.16866357524062,0.0452666232675733,-0.169096536393406,0.0245605621278769,-0.0700380550115882,0.286793570187842,0.211208379474972,-0.111842119354209,-0.0253653164094468
0.122342176233738,-0.345621539536127,-0.01116830481251,0.049548793838617,-0.0893229439520159,-0.0194251165343874,0.17326078554219,-0.00352195868166392,0.321084117653615,0.034070523402992
0.0100794003657642,0.283218024104103,0.331163165209808,-0.149021388174042,0.0869228210360384,-0.0248087873424286,0.015952625717651,0.154027697379826,-0.0808755256335542,0.0769064513960295
-0.0517258905481199,0.372618065320438,-0.365588151785715,0.0185352299978353,0.358601385826014,0.194086767469306,0.0195877158606316,-0.1811945009788,0.110627065518021,0.0926991461800627
0.0885307983453739,-0.114046809582616,-0.0101429693276102,-0.257657055985425,0.00859931699554174,-0.0782597712447714,-0.223527676936558,-0.125130549189422,-0.0529829694446618,0.095301476979373
0.15883011990207,0.234597563772062,0.260090082617663,0.0702217136823659,-0.0416471523970793,-0.0422642232685207,-0.124610364958668,0.0956895727775229,-0.148041239754192,-0.275977134353857
0.148341194301917,-0.185431259656159,-0.223767449079732,0.0138440420886545,-0.165786106689007,-0.317004219433414,0.201822992448702,0.174587808472067,0.160409419463387,0.323214933047899
0.0880958121736903,0.219615776884061,0.133087519414605,-0.0237287341006465,0.323601400920226,-0.241140274362251,0.0611395942127982,0.101328902843102,0.333594784145992,0.237128174439058
-0.222610977646464,0.0692971255967931,-0.283428908320258,0.348816510810731,0.147392800331911,0.311087953014065,0.16794755111962,-0.0433827024619452,-0.0936921026708083,-0.0681092825066257
-0.0616419878878149,-0.177980473223369,0.298338290728188,-0.0931649342844111,0.270598236371298,0.0388146912435975,0.203985532607118,0.0905972754149286,-0.244300013545075,0.128244058006607
0.154656570007381,-0.0281905853600926,0.427796740628148,0.0414397985638797,0.0451871249548724,-0.344514459517912,-0.0783026298011899,0.241196213151327,0.248615960251825,-0.138588769435302
-0.0346240226611852,-0.0733200705094527,0.0972469328680203,0.172989035535924,0.0395241618527647,0.0437737950975374,-0.309255835823498,0.00343627647585865,-0.0862266295689982,-0.244699080996899
-0.0977599536819285,0.0120960401626731,0.128353287844073,0.434023403031466,-0.178605063179472,-0.067276385470089,-0.124014801154948,0.173686512493967,-0.0399897752865374,0.11634038601283
0.0930764233099627,-0.092301265578298,-0.0226380398879486,-0.031048573719116,-0.411923514627332,-0.11586717694121,-0.0102124895384556,-0.0177790553664977,-0.095573844822852,-0.0125916488115544
0.14076458525114,-0.132249609093811,0.0771134066405858,0.322877738533936,-0.161243907634132,-0.310806615271797,-0.0315124066960146,0.103470461484543,0.297222420966652,0.343745971746847
-0.402578273639583,-0.0638398444630786,-0.303668937743894,-0.0958312301082731,-0.271729643992065,-0.210339743448595,0.00484546814004664,0.0378389739352003,0.0942236546292494,-0.226415553644481
0.190867134504508,-0.0796771791824129,-0.386207801521608,-0.302479581052646,0.0300070745476275,0.0881697604853958,0.317150730698421,-0.147367411255201,0.403427210833626,0.139064183858377
-0.0336273188284042,-0.0889496356786751,0.12275837869513,0.279466807710344,-0.378815723467268,-0.0754242461844628,-0.205713389065882,-0.122626392041132,0.221745611027429,-0.119211316081367
-0.235618221591165,0.209524240480893,0.113500662268409,0.242679594294428,-0.309077115976821,0.111934307911581,0.266703761327951,0.124701686023928,0.206403914501018,-0.175107401893465
0.22000089609423,0.141780658538056,0.179400998908031,0.0598316762887833,0.263977145202351,-0.205734579454094,0.12311669988857,-0.0178330481439768,0.108357326534482,-0.347468556095207
-0.0323943514230627,0.02380571613564,0.0864496807286996,0.138912088245177,-0.105690522361246,0.043609197693524,0.0969634137198153,-0.0735229375278426,0.214519731611801,-0.253382830330323
0.270620514952937,-0.290932788104116,-0.395235208274107,-0.0534099611694184,-0.0516132958408986,0.193814390949881,-0.00389729345504294,0.0294089613625275,0.0828980061178767,-0.0608263171368982
0.363667543556177,0.133875489264505,-0.108447119817895,0.0187625475891494,-0.080345808017438,0.351791971716392,-0.19800958905054,0.243443760380511,-0.379702052141394,-0.198440662933982
0.351242760229377,0.235478622340975,-0.0915491751899984,0.178473703486981,-0.124796875909616,-0.371539227457708,0.334995700764424,0.0394362651093279,0.00148858173946221,-0.0157950693763771
0.0721177513990637,0.00873696874429878,-0.19070753135212,0.0473726016965889,0.0831795895856345,0.0294694096338772,-0.0165442879957964,0.0370970650928008,-0.282509942357242,0.0600646597961053
0.00257276272932121,-0.229462347674576,-0.0579673758122313,0.127450465900051,0.267433723956363,0.0438420776683699,-0.248876269403664,0.418014025258059,-0.278767115718519,-0.134508461359209
-0.337668099390882,0.069530364322739,0.603560828618348,-0.10544010866534,0.301821091719655,-0.0490952983497185,-0.102294363788203,-0.0302990126754615,-0.0360727700573631,-0.0434589858973815
0.193694627104766,0.167170259139728,-0.0543531098084102,0.374601803239343,-0.0119497619840683,0.299763520265488,0.0471138442043819,-0.150245095652626,-0.117420303446991,0.0877998078491673
-0.248058730896777,-0.485430070357223,0.0949468302777798,0.00358357369810627,0.0512088539605679,-0.132201468931594,-0.0742934520731894,-0.0967190371533941,-0.115038338972344,-0.135979227935633
-0.421833195810089,0.00356748872368291,-0.189556532494221,-0.338107101982969,0.1592050223594,-0.192178729278682,-0.151871411636443,0.0443998750038001,-0.00647889293780866,-0.184446640317342
-0.0375468295399188,-0.0609972622444602,-0.144431975134844,-0.121640749365098,-0.267709774279464,0.376970306498645,0.0139134481483925,0.377034408210546,0.158174994289466,-0.173941820327709
-0.24441430939341,0.134636618338816,-0.128302006088345,0.183244011369716,0.30350227225601,-0.02618833720779,-0.0154688346318215,0.0670085527457529,0.102891443712593,-0.0911233213310768
-0.13464662840037,0.194380279168511,0.0369964710322792,0.0871875656219729,-0.130570306402443,0.334101853430392,-0.345799555087989,-0.127558917920084,-0.260198763277165,-0.239690734970558
0.0227254683986276,0.426682726444475,0.0081067371447716,0.0309611534675642,0.171542712056372,-0.0269792888506655,-0.0466634226613682,-0.0212245123571316,-0.218155221731158,0.164038947300224
0.0216489827072101,-0.0980533210558283,-0.180543958009674,0.186635229525866,0.072356772858494,0.274476718662346,0.261673622139402,-0.140299192832322,-0.0447356019292507,-0.0533708764040127
-0.100179382408464,-0.206768018640468,0.00493477707367933,-0.00492621091633261,-0.249158392822841,0.0520653560528249,-0.131814507387306,0.019170672638711,-0.0026448693465156,-0.0725875174931669
-0.242957379762104,-0.0306975969064019,0.188226249052638,0.0902249942658304,0.0853118461383893,0.120729869754996,0.0937121872705525,0.151034115369831,0.153852964311254,0.386903871246389
-0.00966710874735536,-0.181814170125386,-0.0782299432940579,-0.0978978498780884,0.130449708232153,-0.0376362485691003,0.0505885007784882,0.0104326764950143,-0.0421575252170825,0.00828656182215083
0.0555303997623455,-0.0883342155421158,0.284230087158736,0.0308098664513593,0.0563261168125589,0.0967630654789214,0.0616670827597348,-0.00625169524762278,0.332157296914964,0.214833076994005
0.345053669287271,0.286215530496702,-0.457260769735744,-0.180557493139301,-0.0201426551837229,0.184974917667705,-0.138281330862638,0.149517381089038,-0.154073156021176,0.231833549410071
0.0758815132205289,0.230720105995428,0.428841293705027,-0.152706278448782,0.142371427445073,-0.0188502740414052,0.240772620403461,0.441008664369934,-0.254498073788139,-0.149182613972476
-0.338817544146571,-0.0123958449611924,0.163470863058352,0.0721969963279203,0.181657099118339,0.0111005032891107,0.0421158141093464,0.0126721976679654,-0.1305248953276,-0.187967509183107
-0.0788255861351231,-0.0626413633564476,0.194544696277961,0.199778262316654,-0.192554200425721,-0.00350865555605314,0.180601652140472,-0.177121745997061,0.341048009216043,-0.119384132824726
0.126677473152461,0.139319164822045,0.161170035449747,-0.13826554330703,0.203414600111754,-0.176341766829764,-0.026669460813414,-0.0112484634811976,0.148942923402637,-0.0561391176659864
-0.0806135125400047,0.0235210538658006,-0.0600817193579713,-0.114027164831376,-0.0741025638872172,-0.0174738214456064,-0.293744055175156,-0.0553928470449254,0.219684170107948,-0.0131396240158834
-0.410069886884003,0.238890535184711,-0.134607501105339,-0.280217986524107,0.064229721619499,0.339141234769495,-0.406978302313257,-0.263257755979158,0.151449801253685,0.157384389459249
0.211366261259619,-0.158372577526336,-0.00846283203745646,-0.13334588256327,-0.275263090898959,0.263790185713799,-0.00935321433364351,-0.0865042054085865,-0.222636383912069,0.126875483306069
-0.0446330370449833,-0.15346522652549,-0.207465749193747,0.0520609856077564,-0.0948666673752251,-0.270347085290489,0.39195706513481,0.312602386703083,-0.223588308717689,-0.0198576725524095
-0.0682412936118247,-0.22316221008242,0.100067567651818,0.191101187077284,-0.235664095941431,-0.0504773923409811,0.0856152979590318,0.352045886591348,-0.11838166804055,-0.0921565946988432
-0.25383710044682,-0.0478046975949292,0.0717026585977508,0.143898887327242,0.33706293829558,0.104344993862115,0.160001393609498,-0.0739154285959386,0.111303215059006,0.0505751436741737
0.0321334634883834,0.223048740187337,0.297050500166374,-0.0302062540651484,-0.189324850455925,-0.180066232384505,-0.0418674640299077,0.253372005625169,0.24542925381522,0.0551144857959796
-0.456285864121062,-0.0662390356756586,-0.0232328453162383,0.093914745115573,-0.345995266076791,0.437001583833738,0.0679225267533226,-0.142438590941285,-0.146878793345242,0.348970545525951
-0.228260806450243,0.437931256601035,-0.0131299542294349,-0.107343250167771,-0.156921288707607,-0.209992430579963,0.0665396662484318,-0.330005156362238,0.0679294607185149,-0.275763944398225
-0.085958325247459,0.0668873650336145,0.0840265395920008,0.00673309234961927,-0.143783783507518,-0.0889075547337602,0.145164549832083,0.0796464404870178,-0.102360347184856,0.312189572930007
0.254171779794402,-0.00433519726873381,0.0628195184038189,0.0625363183622952,-0.0767479391771934,0.262186440125044,-0.0389741286389369,0.108475706993952,0.0307557804892565,-0.114549831452274
-0.280203317889756,-0.0034339698806813,-0.357784366269924,0.108465503468663,0.0909785983825743,0.017453351156894,0.295682961573284,0.466089344207088,0.182883534526392,0.293376896627594
0.262675548903705,0.284926835287655,0.0472378765710326,-0.214516917164136,-0.277461721012278,-0.19180459643493,-0.174398908399774,-0.0495728901551571,0.437679957342036,-0.277354677619349
0.423344830040657,-0.0690899456007117,-0.349978114549939,-0.24008519921175,0.297576113187691,0.117660285042014,-0.282811078714495,0.128929990819917,0.236996028264787,0.0171189188133615
0.0518417211200111,0.128439079173858,0.151969118729277,0.0568801188546498,-0.0671198280518489,0.151889137199788,-0.0670819778073156,-0.0966334505736895,0.123337440606491,0.00798237998529159
-0.329245132515502,0.106411749700598,0.388209870697687,0.0923556206128655,-0.101983422162145,-0.039861449665632,0.180631686379035,0.0224608491426091,0.0511866721953678,0.302674990604006
0.17630351279369,0.0716664234477559,0.0360706085567501,0.0156611346629813,0.171527364224722,0.133686845186087,-0.37279432506313,0.329866335279534,0.0880648799609366,-0.0618797909465619
-0.0849267655405652,0.489665510105687,-0.0257151104035535,0.0369537140901326,-0.341963851780325,-0.149665077294767,-0.165999320599582,0.0818561862054876,0.0241436893883844,-0.0492981051679691
0.0959555657441808,0.145138452181564,-0.34345127268571,0.303503599705709,0.0539851472950212,0.119862292966171,0.0952152244977579,0.10843532226135,-0.0266648300297009,0.0372279455095543
0.166831127032181,0.0307921379103887,0.0236817592575147,0.145559184080548,-0.101286893676519,0.446273716591465,0.162789332255402,0.109345936089514,-0.230582727818676,0.0700067866073213
0.116086941267381,-0.00408660684223483,-0.260829005235494,-0.100290695241757,0.188498865455351,-0.0703754339989359,-0.000145677367118735,0.0803623900917167,-0.123123755430693,0.223354891953027
0.195134667706525,0.270325411282497,0.217065558415549,-0.267810407808687,0.369126023751868,-0.452320573746639,0.361286382925865,0.0046511999464845,0.357735454071893,0.549160532932757
-0.238222395912896,0.0344146012270243,-0.14930763983563,-0.11978756282993,-0.152142391584808,-0.121335915102963,0.125805831177144,0.0945534595403617,0.13668729951587,0.108262721852491
-0.0261148858104851,0.398628774925633,0.135547547095263,-0.040094632050191,0.0817932298927036,0.118748969844267,-0.262222991175932,0.221986664753439,-0.100033239415112,0.369919610873948
0.173320013821131,-0.183451609663974,0.0476576654180211,-0.0552354366012784,-0.106319881323388,0.241803827283044,-0.199319458590437,-0.0638888723980381,-0.0846334913121499,-0.193518056170109
0.25694281840664,-0.0904043848330186,-0.0947853189324323,0.348312085677631,0.122241717007275,0.103745402374819,0.31104384889214,-0.179769973717137,-0.0656033384576747,-0.277893047700518
0.0839730088225398,0.108145190551993,-0.0736158189814778,-0.19166786292488,0.26321496373098,0.158298580316633,-0.179657447212215,-0.0410268562230982,0.23760968708163,-0.0496818342478931
-0.0334594709364352,-0.117362378711567,0.187218662893153,-0.228878653629827,0.410241177192029,0.00455930808529142,-0.209443276997975,0.425443243410564,0.0247770495934633,0.205654883353873
0.240443442001083,0.458427432588329,-0.130719568861299,-0.0195439458755365,0.240352700307566,0.0166687930040088,-0.00664382140194808,-0.0764188739314334,-0.0825436311589908,0.144981905518874
0.275513296550403,-0.0934201106416026,0.140974275865581,-0.0345848646106425,0.0204354769155134,0.215282722764856,-0.0612418123293252,0.14416804044749,-0.0471380708524497,-0.142119725891876
0.406669550540974,0.176112279047791,0.0596996824123078,-0.243930586855241,0.0699132065007722,0.258358606380202,0.126015342763099,0.0153181330516284,0.130994581167959,-0.120831842613837
-0.188688796693773,0.0385698167725307,0.0611572442057923,0.175378840645208,0.00974885790418478,-0.180151412696252,-0.00795133282686276,0.195708871948121,-0.199889143608046,-0.0724268543392508
0.278619640869754,0.0312183568094599,0.000881384765576276,-0.0465624451090757,-0.130658503904584,-0.197938525819656,-0.0776470454698812,0.0226095771696596,0.260457848311583,-0.12374195849407
0.316638561473347,0.302976137771616,0.362139189112032,0.0810824126311212,-0.114729444564533,0.155646040619681,-0.0307038597163818,-0.0126255283664761,-0.106105201350547,0.063821186376081
0.262178090673235,-0.356303789211647,0.185440287941014,0.091137459196084,-0.033215383487313,-0.0726249231218128,-0.0309549113603902,-0.135179640481821,0.388790788338052,0.115390282420468
0.0809229720530249,0.0137808229750969,0.120107778626129,0.0725412470866039,0.0541086707089476,-0.0386777701368634,-0.373048470061876,-0.369111861897073,-0.148153413896564,0.251197646865793
-0.053813614168611,0.117290465641081,-0.151798533749544,-0.0547677432686726,0.102064938487434,0.10731726243506,0.0669597875007913,-0.0461546037758708,-0.0190071283352388,0.0916931601839418
-0.0775162940058104,0.351233355244486,0.146714659442876,0.00555351010539326,-0.148417449088964,-0.357972658542259,0.00756940694557491,0.276493610301125,-0.00389997465272759,-0.00327373307487611
0.0268157396108976,-0.0488243452508783,-0.00552945616290492,0.285226681117781,-0.172124307772934,0.106714865335043,0.0979328048492521,0.0360361205278512,-0.302200915374423,-0.119955517977656
0.0177857186924548,-0.077916720607121,0.043913007298901,0.272901608580875,0.147246988806261,0.158338195392273,-0.274292888829092,0.222443013571169,0.478617136869189,0.219788347017398
-0.248681620306644,-0.241595126765646,0.302145800287084,-0.204533462256176,-0.0657361629949173,0.161492010462428,0.0932830371366088,0.201278762272664,-0.0697183646002439,0.139370954529946
-0.0499925218194911,0.00648583080430509,-0.181398146904459,0.341731920748865,-0.389982460248733,0.0637760299287543,0.00410978956067939,0.518313070420052,0.1069303969569,0.0244984247098393
0.153199530681656,0.161043236119019,0.202502537972352,0.0946158332380895,0.191836725012554,-0.31408899386597,0.0489121537232907,-0.0240467734037834,-0.00731968174101734,0.251658337805641
0.0263877518078139,-0.249678277378678,-0.126197792644024,0.361743878524191,0.0851680704615268,-0.282885594902351,0.0344832042572704,0.274715223690848,0.0208730692639219,0.120729814359108
-0.185076196254338,-0.066352401852898,0.254375291013257,-0.0141035440550244,0.127744016135167,0.125073424822687,0.10750319807046,0.257470573850366,0.00384453806271857,-0.170608667553949
0.0639659512364465,0.369509456168534,0.174675376905751,-0.0451903149927216,-0.343814900137137,0.290634437915733,0.127730460787865,0.242847819473794,0.00467920993024291,0.204515397069565
-0.0685189745331935,-0.209863250855542,0.0052402108343979,0.264115278481105,0.0600998414936192,0.313482627754878,0.154453879155675,-0.280840149940572,0.149694867235168,-0.365708617007211
-0.0549487342159688,-0.322358438240969,-0.0694714846931909,0.138049340473204,-0.205467790811314,0.221165185349428,-0.315457459607331,-0.31761308046774,0.104474520604644,-0.0113142075015577
-0.208778040668333,-0.275481113658057,-0.305577565782317,0.105646281299824,0.219822793949498,0.00913622963993639,0.0464185916057482,-0.0872226986278383,0.302566752250576,0.215107368414689
0.219687600257222,0.106076036564447,0.0221362660366779,-0.1129653042817,-0.14267816845055,0.0239432436616055,0.118384448129355,0.0266496778361153,0.0997017776744613,-0.0405543331042641
-0.232500362420856,-0.186732830655954,0.00295572796988528,-0.194776681114093,-0.19764615742596,0.460005582551253,0.368683797325694,0.196785286381784,0.139235326138567,0.0798146401995547
-0.103977242794027,0.087943631406308,-0.0874118599569782,-0.226856513393642,0.226443155817857,-0.0473158815274897,-0.243279611474859,0.0613529984742509,-0.180576938747996,0.352265478244917
0.0993230683949597,-0.0905366821565611,-0.328454643275523,0.434841891654707,-0.0548529039193692,0.380173878983531,-0.063988802245655,-0.104841719393457,-0.215077484817529,-0.00923676270323067
-0.189757036949472,-0.0292222970757436,0.336890937539341,0.0563112934814155,-0.17774462210993,0.332928672559412,-0.22856029885575,0.190889638255027,0.0952157543675738,-0.1435122847796
-0.0322943559266037,-0.175401528778812,0.465935938390566,0.0217673314157555,0.255168864812898,-0.0442295195264392,0.0917880214631169,-0.203413645269238,-0.164533237900361,-0.00584460287200155
-0.144532824452094,-0.00158946704508443,0.271717017701029,-0.241866035857426,-0.0233881678087261,0.201938604592524,0.0475390601613943,0.31414555572733,0.0158796079858208,0.106834295924267
-0.340399924900926,-0.152083879299802,0.188057628143944,0.0457324952826896,0.451639539680154,0.102170144906318,0.367231144645128,-0.229821135960168,-0.125106303668002,-0.0992743777805633
-0.0338352586183978,0.0429680109175698,-0.164323504075084,-0.444118814017464,0.312436795803058,-0.27402690253103,-0.225535347301078,0.117470145702156,-0.0436534731545364,-0.156864267161981
-0.104505616503227,-0.0454865306367402,0.22985194139784,-0.243154897268383,0.0584469619221677,-0.0116145948846644,0.160097144666775,-0.0790219103704649,0.144707575997218,0.0108019681054497
-0.0169994750932284,0.413482669014738,-0.0176579733526582,0.10255650739898,0.0258926372214868,-0.0987729489398787,0.259842103364745,0.121943775734942,0.228604741905963,-0.0510851498131107
-0.0331170298631365,0.0331814924334864,-0.100735365426704,0.0659124340540422,-0.114719253956394,0.0998488517548933,0.103984561461735,-0.241380226406175,-0.0170704386378582,0.0368472884143672
0.319700294202308,0.422530810382487,-0.252243268620798,0.0295529261734595,0.196040452062434,0.182984063116846,0.333274978858894,-0.0254748226132113,0.169948473394656,-0.273913837385515
0.440982182204144,0.139458003585358,0.103237931013856,0.307368929049023,0.317529170070359,-0.282258130202878,-0.0315241461915837,-0.0379226707344677,-0.0625297917771662,-0.193494957928666
0.0659830161784304,0.170759878231443,-0.26237833692917,-0.231080424640987,0.349513353967048,0.193895508338421,0.012591782548652,0.123474080337101,0.0539476688087323,-0.288232132785372
0.0133098789809258,0.0340257637306974,0.170848478322837,0.0316259137668797,0.0169904202526004,-0.0522944669899336,0.115655244483709,0.3444585723169,-0.143453599088553,-0.0548183823924265
-0.131529827032318,-0.178402210152462,0.176382905545299,-0.0391636533549129,0.102293920060517,-0.236470749287604,0.0819264721583111,-0.136251416941406,0.293209166419731,-0.48795940363026
-0.0701857282363231,-0.0222124725518336,0.0874189919137232,-0.213341490489626,-0.00827700197510752,0.0444973612462808,-0.176141209503111,0.034456532976788,-0.0250953851763124,-0.107645874958481
-0.0548848818866806,-0.222910774761179,-0.0785595201636414,0.176392093658362,-0.168516006744455,-0.0809673025377798,0.370219111085141,0.0137626126234252,-0.0327267462837679,0.253120325994345
-0.00837946236066994,-0.264978258560873,-0.000667136493639031,-0.0293950708860991,0.159331388258738,0.298898736263917,-0.0453221872850334,0.0787772690364357,-0.274445183951812,-0.177210659737208
0.131262231606487,0.336220138639065,-0.249117086253358,0.0577182878476567,-0.207184103605103,0.0143530611576897,-0.109585755735549,0.0045786656562677,-0.29359070499337,-0.381120782728652
0.0446617371781033,-0.0939669725680599,0.133654987125276,-0.0820182254840826,-0.0673847665946323,0.0606336965492255,0.365061346177982,0.0976482308169914,0.148615482797948,0.285217539359684
-0.147867505017589,-0.205794401272816,-0.219463091777401,0.331758702190684,-0.293015392028937,0.034773433664807,-0.144750743207915,0.255350455142045,0.227618366896993,-0.136133536410046
0.112051756993006,-0.05344744754859,-0.141222885415263,-0.177616805152909,-0.111842340473022,-0.260082699672761,0.317313079347862,0.0639456043860988,0.253654330372905,-0.253131089664533
-0.168432857433103,0.13543607890176,0.15552348150544,0.0700587725399826,0.178684506362701,0.0203468910869607,-0.0224837429928429,-0.0183129420184205,0.0986608597479844,0.0309169938472706
-0.193022091034467,0.0174333752739551,-0.108299165303829,-0.101701144020092,-0.161671287649664,-0.266214309473087,0.16306118800597,-0.0877371140291888,0.0242292824855719,-0.0327098340687959
0.106457645355325,-0.218643826834453,-0.112033816829788,-0.265512759988325,0.451610395985207,0.0292465020911881,0.236676211884069,0.120219474468338,-0.167038059571887,0.00457105425080255
-0.0922191091401279,-0.159491598685934,0.0432782358206468,0.00422154928875008,-0.36665506502052,0.150533484081136,0.0598857025966974,0.265755409838344,-0.377119613808457,-0.113078358870045
0.0298854555497555,-0.0998740361780705,-0.176072802143389,-0.16703229033518,-0.282980282420673,-0.120872608243908,0.0212314396239302,0.128526855301572,-0.00438592535225754,-0.239069062130523
0.213688940934385,0.0746015073134582,-0.0577023048147487,0.493191907571921,-0.0677685509439878,0.0689129252851219,0.287282043807506,-0.33334908208716,-0.384945498069406,-0.204421481007582
-0.0254384086383084,0.086551365515034,-0.0816563822129904,-0.12718819693132,0.0508294329260611,0.141132357724112,-0.0163342859485635,-0.125896461125906,0.371686296855719,-0.00267857611001005
-0.0657761102551683,0.236655761010846,0.00301620416884341,-0.0411412024968776,-0.138872946437449,0.0409025156537392,0.153246860117897,-0.402566489430674,0.157694075064401,-0.461873256880161
-0.187668684908889,0.102706453982799,-0.193584634598939,-0.10361947080117,-0.194320203994049,-0.0426219243573917,0.0941016113093933,0.114964572942325,0.0840955566162482,0.319811721599633
0.0301587386650978,0.115745844537877,-0.0883124465300228,0.0401118839733848,-0.0499859823210045,0.0764484500994252,0.0624270154484388,-0.0306463966925477,0.108171115498006,-0.114398023458745
-0.0991377133923087,0.215192209116929,0.159871754664662,0.0893796821246913,0.21273655296974,-0.241764902253978,0.0644630789191213,-0.222863463857622,0.0754211256199872,0.0209112776321574
0.12442464924426,0.30377364463297,0.263648258959407,0.140332293841981,0.135928881274695,0.107980145160966,-0.120078988992301,-0.199350095788981,-0.070169484217474,-0.0794359651951297
-0.116523433478744,-0.146009024837418,0.122008337812985,-0.0186309059443232,0.242337209683386,0.0361915626479034,-0.211577399486841,-0.0871066510069053,0.234535887210689,-0.0621244466972223
-0.154967450559323,0.348016484890248,-0.115554460117156,0.246453436960636,0.219939787464148,-0.0857353756208723,-0.077265004483922,0.277556751866003,-0.157107855050119,0.250439567621548
0.442061027178906,0.0767461772746972,-0.141846903568183,-0.291113624047444,-0.126566376401186,0.0921409201172107,-0.0510038513869579,0.130977842283441,0.0837726460421134,0.382650583327819
0.495051628792205,0.0553461016133705,-0.0215753586407357,-0.145907753122069,0.129864555589021,-0.000449971643732849,-0.147230924103163,-0.0730428360397313,-0.130523599668233,0.0193193836340557
0.110534862246348,0.0378242603255918,0.0401883724416499,-0.141190692376181,-0.148450838357649,-0.0509227505934204,0.187460120134357,-0.0128771014312515,0.228511611310744,0.115399478413144
-0.0330962966199341,0.34343598442295,-0.00884712192847081,-0.0440794369792915,0.155845661449557,0.134457419595526,0.0607525124808712,0.181256945836077,-0.0201388739269309,-0.471373878118648
-0.0237798676762268,0.0912580608560992,-0.464509777157725,0.0886577786288505,-0.103944859688985,-0.271022048725104,-0.128157437448616,0.106097004658895,0.214654535672086,0.447673641743963
0.390080665335986,-0.059643105560749,0.181971906211331,-0.0158515228336747,0.257095856354422,0.35905949487601,-0.0190055522409182,-0.195381217780587,0.106981782918994,0.442265758145057
0.159302283071834,0.289173208143829,-0.146484934279345,0.26419987365323,0.100690453421053,0.100814630607716,-0.209904470695452,0.197334237494205,0.337350235096951,0.297261475846943
-0.0129254260636156,0.237582252586321,0.508157552808546,0.246071008666094,0.324741356369931,0.260935616108449,-0.0406482131161208,0.022507400963328,0.351754625445485,-0.0643510639644652
0.354731380177363,-0.095069618374702,0.15205740400595,0.0521531696402251,0.0131508752878419,0.271397136999091,-0.263817695521691,0.0330098463977894,0.0612296416506274,0.00644303994892222
0.0237088505769279,0.058665408887472,-0.0184331074423451,-0.023519394524364,0.152028573915263,-0.214483494110889,-0.0718277850933932,0.190939496732614,0.169926407183864,0.211739165657353
0.157428737858109,-0.0686784639732609,-0.117128269085878,-0.0733550683854211,-0.341579675448098,-0.0782922766140229,0.244935142802558,0.236467275064414,-0.521005812773005,0.338822710464161
0.258752511620346,0.0042369343397143,-0.074193517040403,0.100692986805617,0.289169631405255,0.270058100959224,-0.0902539393879385,0.457188213135902,0.0914651260310003,-0.275487618713236
-0.0976029619061813,-0.46778743279251,0.201900451948115,0.220473289285155,0.0681599403766142,-0.0774884993021272,-0.163856383388546,0.00429569466329205,0.00914402232189421,0.087091362853365
-0.0450995974448145,-0.0188381906599165,-0.0437942004156265,-0.252332787581382,0.0147776117779737,-0.19567399750232,0.0670410351146377,-0.0551151163092514,-0.449261263722258,-0.00418070743303511
