30.9555083777828
0.183291687064839
0.170796939958349
0.946506955545239
0.582688609069761
0.015191131735708
0.289434074571738
0.315362765015118
0.944148093303748
0.344697109514418
0.792321767757614
0.645296267196088
0.406154043158687
0.560022423640423
0.992967091681434
0.00451547327300994
0.192319252103769
0.132774995962258
0.514092500830967
0.719222952767091
0.359815106012573
0.219165797917424
0.0215964963426832
0.770157334639284
0.103201537569573
0.746206784724269
0.76333624303925
0.83020170473318
0.851522699661407
0.551706372258425
0.725881025564802
0.93068133388886
0.474973258411094
0.294347783863443
0.42302352282558
0.602936450243444
0.433925762054763
0.0782184532754778
0.127562763137682
0.152219016877355
0.849793474959445
0.159826994745904
0.670393958299254
0.76094995083494
0.640079865582261
0.891951710248074
0.813993669650137
0.839897870280024
0.382264914299115
0.27774457278303
0.845410412631741
0.402119263294482
0.817500038974149
0.591239466903225
0.115090251790871
0.267703103892536
0.763881455705379
0.190333569648217
0.469047568491086
0.855038853636912
0.682291927732245
0.954498571694462
0.00030543804362948
0.896952750165475
0.218994419338428
0.500156985574575
0.119948335546171
0.918858754882655
0.0449978843075465
0.512392516793206
0.318786095888368
0.981444968009202
80.18439205301
-19.535295917833
-119.87255537026
-99.6832517859472
-99.8247475241184
-119.829991950174
-99.0662735170456
-79.8305698298633
-99.2285007750651
0.24003510114521
20.0977016408436
-79.5710432681077
-39.5246952207179
-119.160982853683
0.745275308977199
-59.2687802272835
0.168264233072563
-139.481811742041
-159.550778818032
20.4985152055619
80.4868937338153
-39.9894154320031
-19.2280495382093
40.5872726614356
60.4150276086853
-39.0972509794565
-179.914601138321
-19.7249821747253
-59.5880419348365
-119.669272001434
40.354624111103
40.9582686435129
-19.4786349811855
-79.5595411710176
-39.4900079151466
-39.8855628188401
-39.1010805633943
-19.6342960119595
-59.9280166242266
40.4466000885755
-39.7818792826007
-39.1802761115844
-19.6506385077261
-79.4985554515251
40.3667647651871
-79.0784737831403
-19.0588686217796
-39.1553155706126
140.26776048501
-59.2663368499369
-39.2637862315398
-59.1444965070792
-19.7353556245302
-19.3262075099184
-19.8690323969909
-159.829291937578
-119.59959653398
60.7428959224362
0.912828931621078
20.2357835192637
20.0516936642293
120.257893788421
160.734097884833
120.410103727265
160.574153350716
120.139260802866
-19.1305086921616
-179.941515751922
0.390137574168211
0.901670343725521
-59.8759795806682
80.6743719618513
0.781962584654146
-19.3902770931652
20.0805880296347
-39.693422826132
40.8132349420468
20.2661395162188
-19.6061538371264
-19.5233125030287
40.0348979153245
0.808298990017992
100.145084385041
20.2794770786442
0.973016615337215
20.1568903152798
60.703113289355
-39.8741399406039
0.904636828556029
-39.2316177581181
-39.5005199817438
-19.5336967509044
0.608143049962223
20.2308655770768
-59.2148751439239
-39.4523344262289
60.2905359534466
-39.7426026757086
-19.8691365546884
40.2276227075431
100.573712684729
-19.7996934633927
0.796613383820898
-59.8324359799903
-19.6403048610029
-59.3339735007127
-99.3348491831012
-139.936833653314
-39.7826887478798
-139.336547528277
40.1581553635016
0.24878588483805
-39.339649982072
-19.0932580303885
-59.2200544740709
-139.715840510076
-119.469638246749
60.959481183802
-19.0276875628272
-79.8756183698795
-59.4321446882221
20.525162714225
-59.4112943057205
40.295997838032
-19.9694926662254
-119.053727445308
-59.0179727334695
40.2105782044184
-59.7896329978174
20.3870129146793
-59.2212005004491
180.55654939884
0.801919972400988
40.2162340869058
100.732050310271
40.3998396531225
40.4045154313412
-119.842518614918
0.269015694158183
0.530759390058595
20.0015321814876
60.818182748953
-139.424774552618
-39.7428575866879
20.5070103218918
-139.259737217182
40.7962098781213
-59.4472799093831
-39.5903101231616
40.6289098187335
20.7010224719438
-79.4328975217859
40.5449156468325
-199.178552953507
40.2228878129873
-99.6405539829717
-39.2552848990733
60.2158339411141
-59.9410538882257
20.1077464673416
-19.1371951892853
-19.2672854000416
0.701270377740023
20.2307362248603
40.7456697741192
20.4772042118789
0.421612395077148
80.0085950215832
80.5885408053543
0.384125873495726
20.6141962994764
0.772362629183625
80.0787228149392
20.1734367177791
20.4534883290216
120.323663301746
-39.7517922962288
0.949005866280544
20.6365357894418
-79.9391755223545
60.4135719092492
120.567543537278
100.508368703057
-79.4412473331121
40.3809164692868
-19.381122329796
0.694888095430827
100.155336375156
20.505618816414
-159.001859523574
-79.0332947662983
-59.6159068398965
0.502831711130909
20.5267260551563
-19.4915094555746
-119.330904562125
40.3673136314558
40.7957738631126
40.2172225664197
-39.9853205567509
-59.5959533484826
60.5472620732762
-79.3641863658631
80.3174994909693
20.3277840852817
-39.4859870625631
-39.5959401853616
-119.065887249518
0.797237649089053
0.278669424401714
100.614032225606
160.942514738485
-39.7878469779605
-39.419189001499
120.89585208743
60.3368943253728
0.715536263238135
0.611094785230719
120.56064556567
40.0508103146311
-19.6392211187415
20.6444906382799
40.5239603543252
-139.68262165971
-59.070861211296
-99.2835705539654
-99.7868402703718
-39.0027212983155
-79.2076264022107
80.3390792368982
-39.8992427074879
-39.4071179578791
80.8208829448633
-19.4307139705885
60.7404106726141
0.159289660032456
-79.3473466922888
-19.6850303703886
0.005100222743458
-19.9207435907098
0.407153851883763
-119.094016076554
60.7490250303938
-39.6760001571996
100.622651834993
40.3902314814411
-139.867847664071
40.7733582741284
40.0930800887634
-79.0460962272071
20.9381959119265
-59.8285380012631
0.0888236123982864
-159.996297591024
-79.3436623245426
0.676025121621876
-159.150499044453
-19.3554795754408
40.9823902988023
-39.2317091165377
-79.8467777288365
-79.9583079649635
-59.7501384514111
-19.9184053416542
-19.9482099389478
-59.2307877164726
40.4755867701196
40.2117924677946
-19.1793196244522
-59.5348801837609
60.3482117717843
60.501317579752
0.225852110527775
140.991238801502
100.958421715639
-39.6760182766951
-79.0038882461479
-39.8973275680665
0.577883548643383
0.503379733666766
-59.3416436342521
40.4299530476396
0.25591567174984
-39.8722700298494
0.406868291947745
60.44025849776
100.276434547758
20.0659816359523
120.826352100559
100.812411565453
20.36197789202
60.7472582553708
60.984102353659
-59.9018212307479
-59.9139250909829
-19.9617986530656
20.6038970503907
40.5311141698315
-39.7568457175003
20.2695496954398
20.4095516877947
60.0824745616544
140.910742032327
20.7427864371366
80.4890526252638
60.793109148877
-79.5489835500481
40.806763375975
-39.7057233736163
-99.8015382885295
0.396597553145035
0.994392369943377
-59.783587754985
40.2002711221769
20.7841807591412
-39.8720123229344
-59.6930907754153
0.581644434265911
40.6263152684773
100.909079301209
40.6605905053163
-79.7609787594826
-39.736130882054
-39.8483247343554
-99.6384599479196
-59.4428348823808
0.189645975298674
120.192357004305
40.4660670818126
-19.2168609889735
-59.5501128209895
20.2805826666022
-79.7706192627906
-99.7172252764566
-39.4875290801206
40.1419904765279
0.323343332840963
120.244609289265
-79.5723596744348
-119.135757720509
0.541997281259114
-39.6257969235545
40.7229852795846
40.1421149385745
60.8318112248352
-79.7396358621708
-79.5838875893182
60.3643055056002
0.569722832045036
0.062954675262925
20.5534908488901
-39.5104059694502
-99.2140756965718
-39.4114554145219
-19.2498725335445
-59.2092787459898
40.6499952960768
40.698296815738
-19.0934821658552
-59.2656342225411
-119.35822572995
0.504623283537796
-79.6182117423693
-79.4749490915051
-79.2308507229563
-39.3943768996088
-39.897654179768
20.8776308794487
0.698780586932656
-19.2016643032713
-39.9051996341276
-59.3705766575532
100.733233149045
20.4046436140916
100.71478864713
0.974165813516166
-139.262445386074
20.4551995010772
20.1862444975838
-79.3845757372837
-39.9246312604926
-59.5205254752649
-79.3768979272654
20.4100475750185
-99.2361651615915
-19.9400996757503
-59.9825875703327
60.4183633675442
-99.6108361400017
-39.6172830890139
0.612186190562156
-59.4002370385873
-139.099213146363
-19.6628780644722
-59.3285187951751
-19.0628802422284
0.152493253347075
-79.855605966986
40.6263298847695
20.2066006606158
80.6653081144526
-19.8773429811795
60.1644115586118
60.6160351429433
-99.6101289134656
-79.7130619991955
0.083895971372641
0.537107091255663
-119.549121113954
-59.0373358662737
0.477699878937642
60.0400072381218
100.860482577388
20.9788659718925
0.604323365547799
-99.0916522043328
40.7347778730397
0.439684198573474
0.591533352698948
0.203784956678989
-59.6220706636689
40.2004989308163
-39.076488123412
-39.5309309278933
-19.945808040214
-79.3649573191765
-79.4464749192438
-39.6425584365177
-39.0083085678143
-19.8103577976333
-59.5597810501946
20.6429900230825
100.017340732337
20.0492443372875
-79.7892222802863
-39.8202023877156
-39.3821330275575
120.135197009178
-179.233692905392
-19.5838800462446
60.2005390797019
0.482878576813661
60.2044761296333
-99.9934454410726
-59.42597358637
-39.0504534462808
-39.9203932920259
20.9535884744764
-59.9259331620173
-39.9824335796445
40.284040883664
-39.7521371009067
20.9497544399188
0.978547080779549
60.5549452930157
-19.9306203777074
-79.9771907151667
0.337643386444967
20.801912143732
40.925225964641
0.180112901919912
0.551351508657604
0.894475251065359
80.3938282188098
-79.6898737950196
-79.4266108928829
60.7843977363386
0.341795455141082
60.974774115121
-39.2981157587372
80.8798075881301
-39.9847660530816
60.1700996411345
-59.7689809883072
20.510217369141
20.7532108856763
-79.7852853487251
20.7194829104155
-79.7155119828284
-19.1767982176178
80.5264109748896
120.133662013124
-119.407359187671
140.625589898225
40.6634081343469
-39.7661796735218
-99.8134095812576
-139.501324058518
0.98004702663093
0.553237977126023
60.0000874412912
-19.2792363092628
-59.4062796724564
0.465756177094704
0.55946885296197
40.9842589286934
40.5147590009231
40.6180794867994
-19.8992349371362
-99.7405306760333
100.303351921129
20.5734614409517
20.2706149131908
20.1993582309954
-139.106939471767
0.931608649596512
60.8182748630093
0.100786127851791
-39.9819935469845
20.4029035334222
-59.9038058141824
-19.8691158443583
60.2785834970673
-39.4292485793399
20.4871790235587
0.311566554471966
-19.0820617780094
100.386212891016
-179.013920090158
-99.6317888847687
-99.9570261330857
-39.9680715484728
-119.231498097871
-119.309280381931
60.5151363343401
-39.0495224902992
-19.1943997141882
0.217348600644513
-99.0227709377714
0.152620126873018
60.4160421654268
60.1858638829324
-39.7073319412992
-39.1908209842709
-119.309146935309
-239.580931602632
-59.393656467479
-59.3837813881646
-59.9259695637988
-39.9688795331603
-199.148663187588
-119.287535645073
-19.6904188499165
-79.2750482192392
-99.1729145965847
40.2884309998479
-19.4498620339305
-39.6100912303543
-19.2393440220807
-59.4500283559342
60.6888623772543
120.529412664626
-39.8524836113864
20.0445622867898
-19.4601754243933
-179.188822463686
-19.2719921790388
-99.5321904637261
0.477583381594677
0.618380823602061
-39.7572213833443
20.595278373236
20.6614084700249
100.346741881991
0.415372411748038
180.280670214501
-19.2750357426778
0.547277671838629
-19.4348670551493
-99.3756453032358
-119.953475139516
40.390014937061
-219.924457815251
-179.018502914466
40.0163762536791
-39.4670934602017
-79.7258747437798
60.1635279593532
0.15051803195179
-59.8567089436736
140.749384949949
80.8448678606825
-39.1489911556979
-19.2010964859241
60.9857416038642
80.8741654834719
100.682490444617
140.546529863123
40.6766501940676
40.8272513257378
20.0484454359001
-99.8185407877683
120.049155893366
20.8943758900725
-39.0385049803131
40.9666946903632
0.464309502704545
40.5746283105195
0.358291496127137
200.052927009439
120.493383882579
60.0483768012001
-39.4769218526143
-159.263766845449
-139.234778041085
-259.774276157699
-39.5013304625191
-139.433551107949
-119.751351917318
-139.820944266183
-19.5134004581196
0.858140844996896
-139.117713001233
-159.148807219133
-19.4932500093287
180.72124648758
40.2790738942351
-39.685376060793
-59.9399431579077
-179.883229379741
20.4700866547895
40.961266151503
100.08271162059
0.526728802199244
-19.7356314448601
-59.9001180605334
-19.9285535709875
-119.654147672521
0.747913131469541
0.584464339430031
80.0764388723608
-119.718503758399
-79.1277803913718
-19.7306469812967
-59.7480553341074
0.0169091979599045
-179.184706791005
-99.5989857708656
0.945180827187841
-99.717511664555
20.7953886526283
0.862871550114903
-79.6383834312043
40.5769228699001
80.530867631837
-39.3268073360791
120.907158439321
160.909565545206
100.437726593248
200.361870357664
-79.862234869208
40.0779966236278
0.910302565774401
120.329250620825
120.028331955981
40.6248624924083
80.948490011919
40.9093124557839
80.1032659753298
0.0781751434968925
20.1266996451079
80.3265368168546
20.5570919855924
40.628642664995
-39.7509497111401
60.39264886869
-79.1975232102917
-99.5563377095265
140.80715241801
-59.2511205390372
-79.5211927302293
40.7375122107063
60.5045232548254
20.1245674406123
80.2581777194121
-19.793957657213
40.3800980657785
-79.4495424975002
-79.2436771094816
40.7388299566063
20.11083820966
60.1018000140883
0.917040243799519
-39.9699525448753
60.2007106882477
20.3093430627262
60.4184804166609
20.0207259941748
0.618437334947572
-19.0967649120652
-39.0081381824162
80.1386747844068
0.100192717716084
0.996229253572324
40.659632990447
-79.9302694697023
-19.0070515405218
-79.5353486890527
0.222502488926619
0.138483967218285
-19.9446501144152
-39.4438997322774
-19.9916101116419
140.829001342361
-79.8434215826929
40.3116823952811
-39.6933355097499
-39.2973713200271
-79.8180081113202
-79.3113097608853
40.5228521614117
-19.3144477943789
40.7953021869639
40.4729273963546
100.983282175566
-39.083453332349
20.58265095974
-99.8026268602734
140.978704227502
80.8072728874998
-19.3865115813745
80.9239390642418
40.867845947906
-39.7760860821505
-19.3279382317776
0.883697257410773
40.9790637315517
-99.8017802178456
-119.332418316471
-79.6006955450525
-19.5497341195495
0.659574707060102
160.329480130879
120.452375833855
0.453294610855693
120.9463963913
-59.2567320856189
-39.4732716422837
80.1447248461402
60.9543836147392
80.1839614965949
20.1006259249613
-79.8520888585834
0.979871480788304
0.791594619881593
-99.9936597706593
0.455390674842334
20.5400424151317
40.1174359190764
-39.6136514870691
-39.9208380980222
-19.5083408073162
-79.6648902765728
100.903854456782
-19.9231083468466
-19.2112598503148
20.9813418773388
140.441421656702
60.834848256241
-59.4468400157381
0.665862557319457
100.832332304575
120.939297229766
60.5826683184193
-19.4399255086622
-19.022752407273
0.958330620326549
-99.1131288286334
0.857967102778793
0.367732856589008
-59.2711004663072
80.9636081345568
0.530124559534798
40.7181094434071
-59.1286758570329
20.9564355524296
-19.9327493827084
80.4503581218003
60.8710461539563
-39.7969547111071
-99.171189422009
40.5570406743802
160.804756522265
20.4014494676305
20.4519861879472
0.975873880073522
260.369892071669
60.7236268427581
120.688132441526
160.409227080544
180.376767825928
100.713905571662
40.3079199398254
-139.517691486929
0.400107671946685
-59.7583248586567
40.6541615470956
-99.3223413047434
0.628270002269289
-179.519178892345
-19.7900198232646
-199.106754017597
60.5657401444629
100.236380200315
0.77992504617248
40.7134728597293
0.271498108032134
-99.8746003472206
-19.4825481074089
60.4170959794994
40.7371279278076
80.6757478954982
-19.5709395539336
-39.4864598303832
-99.8650479223746
-19.918431857164
-19.7183661191389
-99.134577863336
-179.650865288815
-59.9058281486347
-59.3716816474439
-59.7761406542414
120.656135699946
40.6589391366199
0.905644778830087
-19.1207977175782
100.899273380971
120.664279752183
-19.78760164111
140.470388069131
-79.5586444200944
120.086442927221
-59.6075716335612
20.1478010592446
-39.6306981842448
-19.1387599226087
100.548148439582
-19.5756731193097
0.0514235777531695
0.814163793307279
-79.5207883679413
60.4680818044915
-19.5954120900546
0.981511258702298
-59.374716000373
-99.4223385489236
60.4234136969683
-179.823146790618
-159.149070856424
-119.583374292215
60.4024426455825
-19.2230915252509
240.894723758401
0.25306001744471
80.1502876314373
-79.3470502235213
100.855999079753
-39.043312550991
-139.069820081395
0.192614099695788
-179.929441312648
-39.2949241926888
-19.8797349596271
-79.1596560103408
0.701416475286891
-79.0379364666026
20.0645647419123
140.259005906275
20.6963078436981
140.122693633163
-19.1799300410064
-119.038509393928
0.620809084475269
40.0591172747295
80.0628473179144
100.674151033155
80.7999849526196
0.937856275727214
220.5502361024
160.170995597786
100.840736208923
180.664257465683
80.870041642331
120.00699993777
-199.202606467389
-39.5364859183807
60.0772707673703
-39.044710193678
-99.487982864546
-39.1662504492955
20.6871181571548
-159.399698192535
-59.868734104786
20.7432216909784
80.0417418816883
-119.386236785286
80.3427700538045
80.2644400886012
20.8201649512169
40.9013511089731
20.187866325261
-39.255331055005
120.345942615139
-39.8014661445707
80.469622712533
0.598714785654408
20.2740431632345
20.1168415712066
0.258354049925684
0.23010386747955
0.00583598033401245
-39.1638258613186
-59.7574368645669
0.386150360084727
-99.3142970037217
-79.423534743168
120.23389854321
-19.0426917803834
0.837507702243308
40.3812910574376
80.2989809354953
80.1462785767844
40.0076496126536
100.931278470213
100.975118356529
80.7272149529397
80.9440156327701
40.6864112042851
0.575921998876609
-79.5759354638038
-79.2285895112518
60.2657079167971
20.9735117692529
-99.1048591689597
40.480229999916
0.432670474881476
20.9577853949808
-39.6749225724979
60.8464504480839
120.84794651289
60.2677600147464
40.8192509065839
140.374789221493
140.270452926341
100.722288330441
100.197083037661
-19.0521434792104
100.845904029565
120.232161495805
200.97450748217
80.0988040802678
80.3602158026521
20.9574026933127
220.372493049068
200.497207852635
320.707760170263
200.370680580484
-19.0345740018409
60.9633395478343
120.303863514571
0.940696533992252
20.3688495023301
80.4139414963297
-39.9738321263411
100.763120350808
-79.8439439371317
-139.396205774802
-59.0522220367492
100.24571669426
-59.8582913602331
60.8166139975487
100.622118712614
80.659356391361
80.8864859174132
-39.8655725844195
-39.6625320859532
80.0308801110143
0.338919342151485
0.434850507131734
0.110985042542428
-79.9762336079718
-59.9051469305687
0.772092270063148
-19.573661047891
-19.1398374827939
0.810949635521155
-59.3573679580804
100.768784208751
160.987521282909
140.254737086524
120.065818237622
140.871990591513
80.2365336778147
-19.4146748420478
180.930333576699
-79.7253947944422
-39.784132329436
0.287723936700331
-19.2097328745997
-119.161964780016
0.727447340823282
40.9668340812825
40.5591239728058
60.6603388039152
100.505236674992
-39.1214850938026
20.5630930867955
140.326899038483
80.3651679887007
60.9140787252148
40.6642951427017
80.5885424549752
20.0833374021095
80.1485465267611
20.76385938527
140.81816555036
20.5159851013356
20.7038305801027
-59.8575716912601
60.5596212372437
-59.9829584303623
0.762166127878984
100.184117597531
0.633480135193196
20.5678910718251
280.183097952218
280.537074321426
200.223810329042
260.271112087193
60.0310812700292
-79.2616736815018
40.0582456331664
-59.2810331994957
40.9199472568826
80.7242993393483
0.876724532776223
-39.8863379907482
40.9631313125582
20.0932262480125
-219.617863363598
-79.2793344903422
-119.933013479343
-119.051931685526
20.7161663259372
0.994066681267974
20.1301180566109
-59.4791810421422
20.8492969696191
0.0613759242674247
0.832358177919712
-59.6529715336555
-79.2400960973686
-59.6145547027267
-99.8026058361063
0.139276967597382
60.2607261332841
40.8107674021253
40.0869910751452
20.5601574390012
-39.1981715142759
60.3489772236685
60.8406149377663
80.6823242021425
80.8865593455715
40.0975465599447
-79.9355176599684
20.493455287003
-19.1341706230427
-19.7794544414505
-59.3363279692739
-39.8039976831072
120.721901717125
140.708687010543
40.2143278376076
200.584672200321
140.90574914677
60.9144760722197
100.227527929531
120.36645888515
20.3975238668826
60.5428009492986
-59.0256845750874
20.2438274053792
20.4571575583735
-99.4095091261099
180.84657767677
20.116803217841
120.294586066526
240.843936678032
80.554817566229
160.976954471291
-19.5690673102611
-39.7084256699694
140.677306835376
-59.4009246669497
-19.5799722657048
220.768306069369
40.1856657682464
100.481735474052
140.619925944228
80.2366564701352
180.439861911111
80.0240670272105
40.3202753129506
140.987162067927
60.4164960583053
140.756367266804
-79.4768537740282
0.991595228476996
60.1995121063243
-39.3334080587965
-59.9543032041085
60.4798946285914
40.2017018484446
-79.6036262467181
-59.5003478270261
60.0054255877031
20.8201097296593
0.654033047132115
0.0238187545462022
0.0528857066391595
-79.3066786286512
-79.0644851187018
120.673486836377
-19.9617118130439
-19.315908848506
-19.1330532852353
0.582604183613526
-79.1243524220639
-39.5268416619724
80.8707455348198
0.995965470406816
40.2958761450908
-39.3867937885548
-99.656689728297
-119.132964606682
-39.133783974574
-79.4333649038499
80.1238682377831
-139.994862667255
-139.174755713191
20.5192232532867
-139.625854069048
-19.0927063608197
60.9996129070361
140.459585220896
-39.4246713619119
20.8042871353792
60.1224521233562
40.990368764675
140.568962512605
-39.7900085103386
200.894146648809
160.593699140966
60.5936524509737
120.256461927863
140.660324173842
40.57291815833
40.4383119077236
160.919400953779
20.8374265539501
100.058543751229
20.6846067321267
160.142349426041
160.30996021524
100.909019999283
40.2853956020643
20.8755334328638
240.863884718025
200.96352725278
20.1615245690538
120.290052195532
120.220220881721
20.8896243242714
80.5381934545078
120.317032835911
140.915921676415
100.596728314356
40.3193943947362
-19.5546490606565
0.874044391440677
60.7134147873048
40.691914449154
140.94549012747
20.7691343685421
-19.4994323220071
20.4511362216392
0.30696387724791
0.378667954959628
0.53483447802469
-19.2088503338973
20.4490741622447
20.0833462375346
80.306151947282
-59.7058956214204
-19.7921258837386
-19.0362487813131
-79.1266511240984
80.993787256762
60.7984747119249
-59.4788582110432
60.0184864940485
20.6292272563605
-39.0701633457743
-79.1442511218187
-139.735756478817
40.0503411070977
-99.6877411229123
-19.6288449320866
40.4675643237711
120.276833811602
120.793132522032
60.2478406183815
-139.702665335401
160.613870214519
0.550356402834666
-19.8229009206826
-59.132855397164
-39.4259335773344
-39.9948980912678
-39.8764227735601
-119.328958088226
20.9648437621823
-39.5184859726753
-99.4229249858646
-59.6996831891813
-19.6409801755344
-39.5700153553892
0.719354703748024
-119.106372309224
-19.5935302503963
-79.4395917537464
-119.486844373866
-79.6439811374311
-79.6530615164088
-59.4117473227021
60.8947899823177
-39.7370516399443
120.639993292196
-19.8831242726474
-59.4970049106128
20.4585544862379
200.798483638301
0.332711640654637
-39.5003359610407
60.8008031851546
20.6813344682217
-19.6385089093273
100.170980233898
120.932284588815
0.868986595425909
20.9476718085923
60.6611283616807
140.649496421791
100.639110823755
60.0039555007478
80.6076631761801
40.3905693355662
0.119769560539544
0.882255247549591
-19.1682951830901
-39.0859685105178
120.643350217623
40.6839697707416
-39.3030774522123
-19.3649689890877
-59.3438376946855
40.2534790466405
20.5382193377144
0.294239197023401
80.2031993015216
-39.679901878635
-159.047680221314
-19.2863945738212
-39.3516401361355
-179.071090305287
80.3757541181222
-79.7831207704395
100.758544644191
-19.9346986423676
20.4428194254953
-19.3408251169789
-79.0952181300262
-179.873392315968
100.993535816344
-79.8532498235456
40.5549890604586
-39.1094199603978
20.3375857369529
100.497123669756
-179.899509376685
20.3398963334981
60.8683948595707
80.5917390559339
-19.4453152698279
-19.0216596983443
-119.283836080497
-79.9075990964508
-79.6313800145828
-179.455908285586
-159.463310387856
-59.5478440300301
-139.434495941974
-119.810972485692
-79.0704260744449
-79.0314896993474
-59.6005433356679
-59.1041832019768
-159.892844647975
40.4696667700513
-39.216034278896
-79.4995033890683
220.120791376671
120.363684751385
180.840054883416
0.905208121113731
0.429528280014864
0.556714182585551
80.2429574338489
40.4639806796736
180.76075594048
-39.7629769294249
60.0182967766451
60.4498102644484
80.5653856562696
40.4154881899727
160.681632690938
140.281188369876
0.936656164000617
0.302626340885003
-39.1427575283176
20.9657622666259
40.1526512623487
40.4705897870356
-139.532874453315
20.3404029634166
-19.5636977706885
140.646000303586
-59.8216249736757
120.207594783757
-19.7290046589068
-119.264848687642
-159.012647904485
-19.119921619935
-119.98029220029
-59.6276091638847
-19.8613100821546
60.7636813495308
0.209557043514806
-39.1468151963682
-139.187320144818
-59.7215055637648
-99.9522321879129
-139.202001644386
120.645334939686
40.7966736519443
-99.6697343686281
60.0798121610575
80.2040542279118
120.752846454278
0.625171134776153
160.754317406113
-59.7546634251852
120.541318019035
-179.036464478493
-79.7607285766832
-79.5501437626463
-139.046850773178
-179.160943689522
-239.100479335064
-259.179784644016
-199.005689074082
-219.797529895125
-119.268119292463
-119.403903460896
-99.9453676260144
-39.3791190887877
-59.4154307333285
0.214445164636288
-39.5125857596653
-19.4147991035171
-39.0931097002126
120.364144389832
160.2883843259
80.8398588685811
40.0202461732187
0.54666375148993
60.8227850824765
-39.959285528146
-99.0679935515158
-59.5394341833281
-119.731228401352
-119.944541918224
-59.4187109914489
0.0348818044073766
40.4287286315682
-59.0764207990575
100.714401289883
0.693020854653997
0.607048199379232
0.26969119258807
-39.0297487900976
-79.0518711840031
20.1237795716541
-39.3363890931113
20.0807493909884
40.1647919816313
-39.1189369788441
40.315777544436
-39.2604428605155
60.5338418135655
-39.6046242419906
-99.573677018904
-99.5017000128316
-39.7895608767935
-39.0682488555794
-39.5225962104053
80.0793258194732
-159.076858999129
-119.3423874355
0.266874668358255
-119.129565718384
-159.634793902459
-119.75216489197
40.9951841987412
-79.3216053059105
220.877163560713
20.3190138526844
160.484310877064
80.6259754758409
80.94211660816
160.80652557942
120.287187164965
160.977403407404
-139.021828067497
-139.849908472365
-79.1927267943911
-19.0384604572816
-139.591073097552
-299.539445214816
-79.0187880068648
-39.1597529138172
-59.9680537700209
-99.5774179427434
-39.5086307238855
-139.57227221307
-139.739788041268
-19.7516653215801
-19.9734141570793
120.401734331324
-79.6844855748813
80.9246422684182
80.3698899972028
160.585113470634
220.180502706106
20.3311134063945
20.512612884921
120.47383630564
0.683950632669195
60.1745467350179
40.6752908628643
-59.4211716976208
20.6970579991877
0.734806823409414
20.1213840808587
-139.241034587385
-119.975897864393
120.784709683421
0.484857898091812
0.555474161611005
-99.9026931447653
40.2026287637663
60.8164636979786
-39.9773168335487
-119.134695215052
140.059404774515
120.625958100611
-39.7533325822734
140.758860525395
160.800159909323
40.4370592805632
-79.4390216060862
-39.6041190821136
-139.042177456895
-79.0840028659471
-79.6074581526234
-59.0838348871612
-79.9811910878615
0.158849868413952
0.405081393847595
-19.2430780633627
-79.6841856975056
-19.7218871679503
-119.618694619472
-19.9047343729768
-39.5815375220055
-159.102463239352
-39.159980039388
140.303622648436
20.882935208781
-99.40136241071
240.06582054888
180.948785268991
200.991314725649
-79.8250334651111
-39.0748801052027
-259.551450005217
-179.108583563216
-199.457418863111
-59.5323764104821
-99.722661374789
-179.994955878334
-119.609083307798
-99.6763258417299
20.8802775039778
-79.8472038553746
-99.6126853884422
-59.1174842668579
-59.8238168543822
-139.745312948968
-59.7611681500916
-19.565163610407
-59.0967768136065
-159.880085313027
60.0991726842115
100.203770772562
60.0059074868448
-19.7977473513204
60.2878794275281
-59.4755021597102
80.7303118698219
-179.826207662402
0.195425733720796
-79.8283260236527
40.1508401944904
-139.768718783227
20.8698437535409
-19.7669967285999
0.642273918778891
0.585611642393318
-159.497278846196
60.8691325241194
60.6727507479032
180.008984465874
-99.0260479175668
80.3288251706596
60.508092723894
-19.774229354686
200.456695030337
-59.5323125261144
-39.6778115772493
-99.1148355271332
-159.429850957778
100.89164673872
20.051943562602
-99.5151927895145
-19.0165765766445
60.8042396965859
0.462053201468336
-19.715912802054
-159.262256938838
-79.1542035722063
-139.629121084241
-159.783009300745
-79.4512168879882
-79.8811614997767
20.3854737270339
60.9241431323071
40.5066714491206
100.579593297485
180.057028698904
80.3615219308795
200.884532404162
100.901899319884
-19.3440227942896
20.7399773661386
-39.0794035651135
-199.884690250649
-139.602591722213
-99.0438148017886
-79.8681263185705
-119.192479798366
-279.241135118102
-199.625872066066
-99.1086498738122
-39.7154101749528
60.6273098742621
-179.956695692168
-79.3331837617386
0.0286929669793778
-59.2787607065259
-139.277788415636
-119.589909866884
80.1349203314488
60.2255655681635
-19.1159542202372
-139.477655518671
140.942945321407
-59.3915291476481
-79.5283015930423
-119.755105042303
-19.0305631375548
-39.4758357866298
-79.3021672047291
-79.6199308339581
-19.7560881444291
-19.6885640097374
-99.4997697303583
0.127857805108931
0.201033433408242
-59.9852391504925
-159.525336308711
60.5133015474206
-19.614622629656
-79.5976165425101
40.92705389223
40.5112807088296
-59.2388070763618
20.8849214177617
-59.6297219896766
-39.7499852197848
-19.2043685615981
-59.3249619786587
0.0725084112528265
60.7412890183028
40.1131367994677
20.1954389764304
-119.383997187109
-39.5083870419678
-99.2596710251349
-79.1179731778766
-119.059131356252
-119.140410354899
-179.988230757255
-39.3689237357065
40.0938296154838
-119.614747251144
-199.740730629227
80.0018740081459
-19.9942020160507
120.507623824459
20.1945010362301
40.8861536437294
0.81453693852454
-19.343474359599
-19.300435124386
-19.5760722584479
-39.1513656079915
140.628226141262
80.2628028352345
20.9475526865696
-39.2198438006909
-179.569148384461
-119.305291789291
-139.809991698969
20.1414837817318
-199.039870608064
-79.1351292493676
-99.0554166918923
40.9245231520941
-159.148400665997
-159.500282323474
-39.8629493586666
120.162425209481
40.6514798041226
-59.0379199469191
0.335763241397892
120.235852171933
60.8966745343201
-139.925812848827
-59.9573176359147
0.373667370304702
20.8464393108663
-39.3501160575571
-59.5654941051152
-39.5968063420029
0.250218601805095
-99.8393252951306
0.255975697338242
0.149110664534753
-59.5005445170833
-139.361189987933
40.0541496018202
-79.6671470425505
0.722387182891921
60.541088554952
80.5850417735074
-19.8456901078398
-19.9197642680734
-59.9060042046506
-79.2716919790958
160.289645734645
20.7669734853978
0.801891120149079
20.3700479675894
0.672414897392777
0.522335068787783
-99.6049909568016
-119.899426466983
-19.798469607651
0.444202861224966
-99.7617155492146
-79.6532340217345
-259.149721229711
0.971634554118815
-179.672510460464
-99.2107577343086
0.855657678514532
20.7371958154883
80.8264527902379
20.6562748391562
60.1029073530523
20.3329920062141
-199.420366068594
60.4449699420787
20.2939835997506
-39.4590619951286
-99.5375431877346
0.132923787081893
-79.4201164831122
-19.874419282592
80.7691152349952
-79.0881428305952
20.0436700654393
-79.5372080883188
40.7977008495504
200.486161581111
-99.3751239213194
40.0688990683202
-19.7367325009074
-139.810232768826
-59.6579881950338
120.961684847609
-199.241539583219
40.1006856125132
40.8804628948294
60.471089206639
0.056146217397
20.4795703688901
0.63857453751379
-59.1612456616574
-79.441063521335
80.8408118380173
20.2346897876959
-19.1749580507565
40.0174128371497
40.8835201957308
-39.0755234026133
0.973333585377773
0.629804998023654
-59.4934861978967
80.0345981728846
60.6129271117234
-39.4596136039872
-119.152270158801
100.536111927072
200.355230141753
-119.489567879998
0.561437006446837
-39.5960701660295
-179.42167489241
40.8754613692577
-119.852431651779
-59.4662005819192
20.9437677023273
-79.7808854445375
120.784857395019
-79.337472086666
-79.9418214851024
-79.5584116512425
0.895615706954814
-39.2091070814504
-139.218110087197
-99.3182525727628
-159.543769186308
-39.0052696116668
-119.962833682604
40.0829286295304
220.781272815635
80.0807945892485
80.08020305988
-79.3350398427436
0.819810529918499
-39.1947765651144
-199.657776334745
60.901197902961
-79.0397523718117
-19.8597307366628
40.2163737243176
-59.6224396617979
-219.241780812491
80.4454502120761
60.3021175801616
-59.3711707994135
-39.8170753168076
40.9286949660836
0.111875252826493
160.590058114469
160.300925030127
-59.05071526798
-59.6219789735287
-99.0866021238256
60.4377121734811
-79.2733579401075
80.6471786810958
-19.9286595139599
-79.5547708282272
60.7622602024122
60.3050499484815
-119.296561599562
0.824034546483233
40.7383133818109
-19.3709259581098
-19.8240860092832
-59.9393716098194
-159.662569380624
0.98743664786096
-99.2620253119561
0.68342688390099
0.507615287877842
-119.223111693337
60.547942204736
40.0445864480137
100.90875138134
-39.6215010885059
160.586122668438
60.0408936761263
-19.7690587269179
-19.6372039854309
-79.1840133867274
-79.3164954193043
0.0304556407106986
40.0852641196447
-39.1281457014139
-19.7885192827876
-179.371548400632
-59.0834450075359
-99.8129969188308
-19.3235098028296
-79.1691370037023
-59.3592500414509
-119.55897391557
-39.4729235163449
-219.623012490017
-179.093314515866
-39.5258517199842
-59.2740006758252
-79.769703530653
200.522383264262
100.179748644024
-139.476168677979
-139.426068418148
-159.80875027903
60.1434523847291
-79.5147619364532
0.714537758888113
-19.3279992282377
-299.250515358083
-199.815760348984
100.569469314567
-139.95558352418
-279.283792553987
-119.04702471229
20.6684969944374
-79.4377138700243
20.0682844808622
-159.642008098473
100.962930600841
100.407983528028
-39.9585312211164
20.5732537959207
-99.1626265480431
40.6392402214391
-79.9777693615246
60.632899697453
0.699262257579917
0.139488387574488
60.69066830753
80.3861268110204
-59.7543726716569
20.7680816086228
60.2363011335889
-39.0826799794371
-19.4246869920753
-99.0699079822254
-119.922817621973
-59.1479651615538
20.2259133179288
0.804580797703168
0.978410765400825
-139.09185376302
80.7116026320927
20.4177868262595
60.5684368434582
40.9494747508805
60.0213369189169
80.3892105725551
60.2997589913958
-99.8942277965525
-299.887205205001
-99.4964166127767
-19.2135190590371
-79.7846938315465
-99.656857684219
80.2041644003504
-99.2925900581779
40.613505388181
-79.6186942169297
20.2419343793928
-79.7904771210979
-79.763778666435
-159.793632880274
-219.832588605185
-159.886874899745
-139.690612654586
-159.55159310705
-119.089848741752
-119.352984733641
-19.0850029528657
40.3451745569457
-19.6603705893041
-39.8704094041921
-19.6182830582193
-159.968557136158
-179.03217115586
-19.5517422885895
-59.2774343760113
-179.902504892776
0.807507365746133
0.413341988907035
-39.2602991717996
-99.4344673274921
-59.1393749268932
-19.5174926097046
-39.281390105453
100.06994156078
0.681323461194104
-79.9213950371281
-19.6137950947997
140.278534345175
-159.940456856732
-119.709346246498
-99.0369844599196
-179.323335935988
-59.5155576703788
40.039997427365
80.4630415464222
60.5998798338362
240.074670520639
-139.25977356373
40.7187070405084
60.686872388019
60.1205536873026
-139.576403449313
-79.989440392961
-79.0387312745014
-139.170125058117
-99.9106334125412
0.914456343585241
0.507035561789959
-39.5212592569484
20.3504707668539
-19.4986016307618
0.462542857391014
-59.0305404051252
60.7734708135288
40.4256416429135
20.9268720171758
-59.3534055580137
-179.831138231227
-39.9507237043062
-19.6589711532386
20.8093048990588
100.925755066312
100.025327004552
0.835930969541849
20.1782298871033
-99.1627074001099
-79.6255292727425
-159.331039126115
-139.98092584223
-59.5585619898291
-99.2361943076594
-219.364933197212
-79.8908473601118
-159.071047993946
-179.146652499914
-159.137133435421
-99.7602846364349
-99.8153051082444
-39.5840291281895
20.7975387724854
-19.019886752913
60.838627347592
-19.0834598304895
0.634905345732221
-39.7442043772114
-19.7722048743051
-59.7028792678151
-79.8493036899302
-59.9746578041193
0.856076126061552
-19.7899588804263
-159.538595737012
40.874787734727
40.7117814644645
-59.3242494293023
-39.4424070005336
-99.0399303197354
140.636174243512
-119.538097404368
40.3928488573673
0.15844979565226
-39.5680191049231
0.0605006208296572
40.1082299102243
200.888904191173
60.0017594203519
-19.9113766578222
60.3667205372817
-79.8529013683404
180.802314181098
0.660007652574762
-79.6792661622319
0.502294397524906
-139.133835852643
-19.6752070839777
-119.689922451122
0.12765340935188
0.193326096065859
0.391328146909316
-19.0075242883675
40.6903198899748
60.5136501788477
0.0353205829417362
-59.6142595035581
60.223915686293
0.13878365244809
40.6712877834245
-139.812976375018
-59.3588883046796
20.2263549932578
0.463288005523623
20.483591126935
40.5027352184966
80.1306025051841
80.0511655575609
-39.1157384759388
-99.0240520115038
-99.2544813537574
-39.2602101814668
-159.776806999974
-179.166721279399
-199.99327264754
-99.2768963580944
-239.185770135136
-159.102743107465
0.176003286148585
-79.4031967334572
40.3599820980437
-19.7019854925848
100.166031780624
160.935696485185
140.213616620941
20.9120565847031
80.4093089423696
200.122479406524
0.336845929504051
80.0847659099958
80.5888767555222
20.5953990132694
120.200240900246
-19.8544265087474
-279.148599080168
0.282869719555492
-19.1340842901243
-39.7251406091736
-119.875515903512
120.206617519695
160.608508723415
-179.536025211987
0.472768645002681
-19.0967417716524
0.708519323017299
-79.6219507053769
120.821932698442
140.108994584904
40.4831947939244
40.6172733369355
60.6582647299598
40.674902384569
200.315696177935
0.35459485058874
-119.516443614213
-99.7512703051646
-159.316111065556
-39.6731514144945
-79.6220083701087
0.151294108183292
0.866371247331321
120.420292657364
-99.5782551249557
80.1727818571225
40.3710027619094
0.379464037364158
-19.6160663917393
-39.1131445717179
40.8352358768195
20.4985439020079
-159.978231343761
-39.525502915396
-99.5291954333205
-59.2290527946699
20.3088564512358
-159.127502201563
0.841458850913
60.2800874749499
20.1344372276969
40.5629320024607
-99.3285548747504
-99.3400662373251
-159.792160889365
-19.0941320360633
-159.049671598906
-139.998455481206
-199.173836065767
-79.3115216231818
-59.0125049220631
0.463696910520717
-19.3620884572715
100.823404317892
120.980859378625
40.3784406402136
60.6223033059341
120.026758809168
140.434522998291
20.3597036396926
100.135164633615
40.9178451353171
20.7823491702816
20.8599829928321
80.6051974626998
20.8451298539714
-19.0568393555776
200.573613253894
100.510166904555
-99.0371085049554
-59.6173797952463
-39.9741505299538
-39.2286217368441
-219.877181574768
20.1505097491472
-39.9775274916984
-99.700595133498
-99.7299987638004
0.0730992949884524
-39.4412634095985
-39.0730811406367
60.263547027425
-19.4339527624462
0.538387052767121
40.6543594099747
-39.7250283996246
-179.701949428614
-199.289099333152
-79.4479571371685
-119.213880877016
-79.1942573130636
0.413283437018163
0.283569786124555
160.787167694074
0.422261536755563
-19.8811550761127
140.884368272573
40.5267560324456
0.582480936574271
0.206443038231825
80.7823902601601
-39.9116800354854
-179.559165991873
-59.5759067209924
220.188996483585
-119.404665257898
40.0546072220333
40.6460819004567
-79.8234702442936
120.282890852381
40.7108567572141
-79.8913428374458
40.0966036756564
-79.5916426361254
0.815815064999839
-99.3495453101738
-179.949268311931
-99.2882306693549
-39.8551792537539
-79.6317842206223
40.0566881105463
-119.01882458012
140.22014999238
120.41150430275
-39.3593366951751
40.0903434989462
-19.1610934464782
0.8231835452669
80.1281229742347
-59.6125362063479
60.4829172044085
0.129125935914004
-79.6981899720053
80.9756204211028
80.9589013905841
-79.9814572217749
0.416179736084132
-139.095983374839
60.016590468433
-19.9025629449571
20.7792783216008
100.588481304033
-19.7752453532311
-39.4009291597112
0.233423559957444
-19.7508039346337
0.112758924019573
60.862852458422
60.131370085049
80.9324680731647
160.323380773562
160.357291660516
60.9978204873487
120.260720183631
40.1410199699758
-99.2765246551638
-199.245580035653
-39.6277515089981
-19.3208193683921
-139.156611155651
-39.0264520586522
0.580109533650657
0.418422118327213
60.3440008090093
-19.4121922333237
20.7347090226801
40.9970134743122
-19.1061353790943
-199.134289839137
-19.1439331178942
-59.2507753099728
0.277743848591172
-59.1911871403852
-39.5495522950255
0.736100767588439
0.861553062623642
100.56964371089
60.8650740002348
-19.5752539609113
-19.0867587525539
-59.3327642922203
-59.4769871827873
-59.6809368205325
-139.80587029314
-79.3581459439859
-139.224712816428
-59.021510935407
-219.980550625611
0.370804082262012
-19.4579672842956
40.6770045533132
0.27337776610257
40.2017922849405
100.881340817424
100.8340999569
20.0316808340732
0.874251950923089
60.5353954182305
20.8564604060603
-19.1822124757717
80.7274289384018
-19.6411439826643
0.878114299130161
100.629188751505
0.479545194693259
-119.572989907674
-99.4012186416422
-39.597070857096
60.8089011518518
0.719532466024333
240.307898117553
0.14273007298646
-39.8977108238082
40.7247242687243
0.703869757909828
-19.9102613730243
0.399952421621464
-19.7616096983966
40.7472736625606
120.964208095777
20.7778738584031
80.291692515975
100.215970288814
120.74131920363
40.7563384152021
-99.0807818275125
-19.0890066706168
-79.075991894506
40.1650279152808
-39.9578380170619
0.989981292431182
0.183149981042826
0.81338432204197
60.7562517857741
-79.6476019146254
80.6716679154855
60.1310311073369
80.6853154417546
-79.2877364289726
-39.6312205218233
-19.88309752534
120.424716772394
-159.036354100963
-19.4194311155858
-19.3436351349489
-19.9436396354819
-19.4656031473188
-39.9011491127346
20.8920540900407
40.3991822958249
-19.0854418834305
-99.2448805624557
-59.4974414855349
-139.976324154242
0.464292658052074
-79.3730121068441
-119.807197873696
-119.973640929108
40.1211951388301
140.311219088253
-59.147359404848
20.8678046307307
80.7853147292894
20.8358786425568
300.195310767074
60.0308707230136
20.6347763015291
-39.5856198679799
0.819032210894491
140.818720902851
-19.3061619485755
60.9928033379822
0.98353492489737
-79.0447498945733
-59.0083039019987
0.771910262172277
-79.3874526959163
0.971377859225072
-119.496383568619
40.3691005518008
0.153833964414261
60.1932283477078
-139.10011884931
-139.942239769203
-159.081225928278
120.008783241329
-79.0029362245518
60.856163828324
120.387920453633
80.7947225531884
120.376267656036
0.0936702058783538
0.721204778817238
40.4262481674448
-39.805435831599
-119.600577141681
-99.0098923305439
0.299869022807314
-79.959926781646
-119.728262667946
0.165382205414176
0.330120046761803
0.178070216482958
0.220763409030937
-59.8357310401192
20.9217514479717
-19.0834649663126
20.7026750774428
40.8828846068204
80.2234196942915
-79.8721241778252
60.3964427978131
-59.1610499248941
-39.1600349989904
60.2705015662436
100.816875787778
80.2156596931416
-39.1277569729719
60.4113208946709
20.3477780447317
0.504587572541553
20.011531056533
0.802834000313169
-79.7240108653641
-179.902228012958
-119.74572448507
-119.918495883491
-99.0308794458946
0.900669148367285
40.7917267020048
40.5128208272569
-19.1884101328922
-79.2745340885996
100.844764374767
0.455440147685266
40.5199634455565
60.6562576556515
20.01955221683
-59.3751034992562
-79.1927485533246
-19.2007258575976
60.9018736118791
-59.9813852671387
-99.1881761844701
100.046606423266
-119.280347894014
-59.4368226173202
-79.6465146774984
60.4434794923919
-39.8250817425502
-99.2202515683765
20.5335621104685
-159.720727607185
-19.6843732417429
0.758718181919889
0.423069455933849
20.6601690122337
20.9343725032327
100.072121318284
220.202724889827
40.5823952493361
-99.2320379186941
120.255386550887
-179.167880559351
-99.6691009098372
-139.944586607546
-99.128993890918
-39.7433453270942
-119.833529006919
-139.75999463078
0.641013445264278
0.444694080360085
0.747153290184321
-99.1898560505317
-19.4078179651532
100.183939320303
40.7659553104751
80.1921065952644
20.6770170946294
40.7499672277021
60.1274908650404
60.8335625629596
-139.320115075476
-79.0938656099883
-119.234351800881
40.6549534677681
40.8077900939477
60.2271545598904
180.815049316864
-19.8143972427071
20.8342344468997
-59.6672544851281
-19.8649364358642
80.1865313802232
-139.10518023244
-199.077607332773
-99.4786755980145
60.1690230247836
60.8620978003716
-119.595002638468
120.962598261981
-59.0209016539863
-59.9690810260835
40.5157081246718
120.314346640655
60.3858566480678
20.4554777934685
20.8965855956864
80.1647048078227
-39.3448554037184
-19.3900164688402
-99.8580171722488
-59.1003042073148
20.5485782899767
-159.90383357154
-199.272818505661
0.238292466554938
-19.7283012606678
-79.3809598999329
80.6081799814379
60.5151466868363
40.8443784167488
100.097299053857
-39.7952656897235
100.070046196637
-79.8834410199689
-79.8924478044258
120.749177750773
-59.1632334053218
140.611322572211
-59.0983933472399
80.1045216952066
-119.798127998677
-119.49739086234
20.4847733185297
-159.23251013005
-79.9209683803734
-59.1037296547892
-159.670052356787
-99.9490889401661
-19.0374650320407
0.164142520368218
0.169369010291704
-59.2759557368493
-79.4402939647081
120.01507077341
0.455541509860232
0.385848441484171
-19.2799461957057
20.0536584322233
-179.789044204914
160.86988483653
-79.4232322345676
-139.803892095067
-199.873486544446
40.0601390392149
-79.519616798192
0.361126966739647
160.514673138311
-59.9106768116131
-59.0468840587405
0.802923042446537
40.748562637683
-19.442176433973
-19.8116051621914
-139.187032624145
-39.2306779642033
60.8100170884716
-59.6415232491525
-19.8594943351263
100.242755082117
-119.891342422309
-159.13826642768
140.203503191311
0.00477505128804978
100.037963797248
-139.895072724713
60.8935477285058
-59.1816186899193
-59.2542760869638
-179.79994238599
-79.8206087152763
-99.2118483146214
-139.490779255721
-99.4910730288713
-139.798443790037
-139.078060178175
40.8933624974543
-39.4674496687154
-119.189502175053
-119.362239930081
-19.9074411438701
-79.1340769127122
-59.1450527234113
140.017672342114
0.677788375063969
80.7070731338478
40.6628989807521
120.746145861897
-19.6344963515146
40.3898158331922
-19.3817762934352
-79.930253212864
-159.73406234012
-139.746495576997
-39.9081917204176
-119.119746875902
-119.105948008902
-119.384758534224
-19.6416744565209
-39.1838793933858
0.582585452101849
0.124896127859887
60.9001475351649
-79.2565639159078
-19.9486357554296
0.0166324722885847
80.3462739885653
40.2761754070864
-19.2516564801281
-79.5275437781035
80.1185922535947
-99.475706021074
-39.985154070411
-19.4849494716678
-19.2924764294128
-59.240829703806
40.6287279657558
180.845473825527
40.4016718108391
40.9062352856524
0.286388108873879
40.3685604951768
20.9475666795872
-179.837260265126
0.721877859836155
-119.671550086585
20.573709714842
-79.5148398736849
-119.926580924044
-59.9141223270782
-59.8330825194896
60.7519287566007
120.330163932673
20.9103404172426
-39.8669661935037
40.9166409352795
-39.4304766091498
120.216853413894
-79.9654259493142
-199.122923485126
-199.645045994205
-159.895080255021
-139.9036751035
-99.5498585045891
-299.683591309384
-59.7061235556394
-139.577439558026
-79.804143015935
-59.5199269003413
-19.7315180490222
-159.563365138434
0.988660190052187
-59.6547548931186
0.634910016795004
0.0132157385990581
80.8962185202979
100.009021935181
40.1272477889485
140.63828889565
0.494927596306894
80.2766548954881
-59.3863262211577
20.8404082718711
-59.3822244557517
0.879802750409127
60.8379709164485
-79.7255248656181
-79.4791158007882
-19.6772826566306
40.968264600276
0.801582167179229
0.623532541543642
0.464422305134832
-99.9893973026384
-219.335203565411
60.6972403846228
40.8379191467819
80.1218454461102
80.0348997838104
-119.842412054259
-19.8123571225871
0.403637113593646
-59.0964210173681
120.943504934121
-19.590323911068
-119.114934063732
0.858827661513086
80.621738263495
60.5101095056513
-99.1426504282007
-59.9279011925582
20.2827379615925
-19.6421907663323
-139.248435968323
60.9380270679026
-59.8879376985474
-59.3891125789054
-99.6582395889784
100.376124103612
40.7240311753261
-39.193708476329
60.5389352474999
200.221249864104
40.2668880134636
120.907648496807
-19.976205790707
-79.0173186412473
40.240392602982
-199.123562965587
-299.055688487185
-259.680325112311
-159.12915861642
-159.413680928822
-119.787007660716
-159.956774224039
-139.417022292832
-39.9341102088742
-239.300749165165
0.856114008106758
-179.886177267594
-59.7330418741571
20.3219431557732
-59.1933596121854
160.806626365061
-19.2976651120931
120.209045171528
-59.9962647117226
-119.92493669097
40.4164209459803
-99.1520492795652
100.465672870511
-19.758664366727
-119.052211478492
80.6308511471037
40.5904204285423
-19.1789024575619
-119.988462640159
-19.7148923052977
-39.5947454030405
60.0953803804226
0.524665725563718
0.425325578394841
-19.0732121088322
-59.3060851810952
-39.5420753422464
-19.4722554058608
120.005167337976
0.738843962452606
160.305590483763
-99.3823907898347
0.126589550612188
-59.8153383276847
100.364233461423
-39.4982420742371
60.3608300672131
-99.3031783011841
-179.269008085399
140.513374317545
120.43131153577
-19.6123044526466
-99.5572651766881
-199.898599013974
-19.8660491952951
40.4549639074133
-59.1782967583708
20.4726170143971
180.062062177632
140.003187592717
140.287866599444
140.854091631226
0.584921143101148
80.7600794096036
-39.3407843942361
20.493246203416
20.6978270250772
0.0208528267127832
-139.53526685524
120.418558984389
-119.626983120528
-179.590256077545
-179.68833719459
-39.4286511930118
-199.984181174982
0.643199942610721
-139.447603594156
40.8624462696145
-119.721133876662
-99.1103139320783
-139.117664414417
-19.075595412231
-39.0237477905094
120.297834640663
180.813259500979
180.53613565597
100.856829239028
-99.2959072981334
80.0249729360745
20.7533848140452
20.8309061237405
-79.9605287831775
-59.1806152725789
-219.847820437543
-79.9976836430001
-39.3612733281904
-119.932047894937
-59.2793856348222
-99.245613405321
-59.7241816143331
-39.3209711786241
40.3720498863036
0.466449731818619
0.97747583711051
-39.0020852121194
-19.2023867310366
-59.9653837460904
20.3416394415588
100.795552022964
-39.0110575563437
40.3647472435357
-39.5993944353687
40.1414017746467
-39.2046907363299
-39.3664673562822
-99.0719312014237
-39.9811886402833
-79.909684718957
40.5288747504838
-59.4741421645326
20.6388085738868
-99.2400438397247
100.737521526106
80.6631788791661
-39.2371191737624
-19.9256455166645
0.830259983356726
-119.609968703507
80.6345285693979
260.33856479105
220.096864760528
60.3233249622342
-59.1713531047714
80.8112443887168
80.3750700048967
-19.5394493917831
0.0889290767205893
-119.802178801854
-159.80270974069
40.940117742217
-79.349290396574
-59.9369824431977
100.761581279603
0.985527382322431
120.557698727936
-59.1719232449301
-59.404091196719
-79.2647807456757
-159.188037330225
-19.3817335244853
20.7035146210899
80.0009908864727
120.057574911922
60.3220562036944
-99.3740517085946
220.557926185331
100.866826829327
-19.7535184759363
-39.1676794901077
40.735508993114
100.590982093449
20.8556691346828
80.7584179485289
20.4616616869011
60.2876507533991
20.8910461050781
-19.6763631126716
0.587375062963858
80.2536964935113
-139.0163077942
40.5129906464841
-59.8271948932881
0.201775805289211
0.20918416724153
-59.9357620656564
0.640800226643513
-19.6655575296257
20.6637307193366
40.2148298834271
-39.5949570925628
20.6447429661875
180.310837309738
140.991180945071
-119.754552363948
80.0227143037577
-79.7500058739126
20.1001562855232
-79.7111242839528
120.693615594825
-19.5299015791661
-79.4008212640993
-39.3408396151809
60.7912327102501
160.693392105639
60.64809084513
40.4149460667627
80.1980587805135
80.0300028621678
40.2195525980086
200.932925244735
120.474711232804
-39.7621246830077
180.361114858294
80.4977032807757
20.4517923292326
60.4749435410254
80.706214018178
20.7293354199138
40.2496900336514
40.3326097682828
260.922002319145
240.434305500722
180.652924123695
80.1467437388707
20.9866977279389
-19.4406365383754
-19.5420463202232
40.7999404972447
100.119351539682
-79.0863336675729
120.481011842278
240.104760467328
80.7377459664112
20.1371168162053
160.096379018686
120.333036464365
20.4420719169129
140.114189838017
0.233146769295509
200.006848662722
-59.2963011519231
0.121007032517568
-19.3692201115635
-79.3140193238337
-19.4198261240175
-19.9711912254034
80.2914406497721
80.7083504171166
-59.6342758146223
-159.273061448676
40.7709043128453
-79.8255855175479
0.154248078607697
0.526609971195979
20.2544806526586
-179.82236376125
-59.3281945144844
60.6604337363891
0.300988577087992
100.430823621537
-159.925451222201
20.9143884829494
40.4459365212765
160.262115780157
100.916776729221
80.3265609269765
60.756935826384
-119.905571954969
-19.8233504752777
0.690624070045814
-119.095605943722
0.484021858584072
100.703664504319
-19.1768114901497
60.3203099288831
-19.175985745571
-79.7581290124112
-139.887277149482
-119.416689379639
20.7841380048227
20.7554195660626
120.915183456597
120.519327632321
-39.8676231777262
-59.8957779497472
-59.2619546769599
20.997558970203
220.764230401571
180.756722985247
140.111357323628
140.885900770277
-39.3206943908498
80.164211757002
0.0642481471809901
160.909801202056
-139.817618733367
40.5187397055537
-59.7018320620558
180.308084767676
60.6671571254061
-59.5385123526994
-19.448052683965
180.849459337014
80.6654317248191
80.3306963647902
-39.8092744962084
-19.8961167949866
20.3783938430139
-19.1559457182888
-39.0649655709467
60.8503164913576
-159.209517320377
-59.4659991252793
40.032402769022
100.363566907724
40.5734536583358
0.414170643611143
0.373767350779254
20.4043710292875
0.331759268760827
140.044481456573
-159.022195123469
0.433378237861232
0.286640266468171
0.704137985400379
-99.1444083851823
80.0261976611994
80.8222030197113
60.9518511001342
80.3080589042215
-19.006071457681
-79.5007504979951
0.105216801212663
-59.7803397017723
240.745916111953
40.5891966891871
80.9553500938271
120.858269459329
0.296632644949732
-119.066526424107
160.08016583626
-39.2102390991693
20.5474392855514
-79.9440503651389
40.7902725185896
20.0551979157622
-79.994023682517
-19.7345233609825
-159.793549924215
80.6007704385794
0.306747371858989
40.4606264129934
120.170265694558
40.864902319481
-99.3106293079101
80.5207634257777
0.0854161658317452
0.773075428691556
160.289417877577
-59.383538580867
140.000834936502
-119.817572329501
-59.0070888594895
0.151242425423582
100.921097493364
160.065191639004
60.7493098579914
220.868375996432
260.868478338127
100.945182370622
120.081554271542
100.065744226055
20.9212948003524
40.0436435904727
-59.1554575719073
-79.8500737627844
0.0959649869444661
-19.1714090563311
60.6945644566885
0.824036282171448
-59.939240866951
0.12869168473128
120.556471666558
80.3942167059873
40.5920873243646
60.4946510773859
-59.2545356986042
-19.0086762762768
0.577351723913068
-99.5873395466318
20.3640094644292
-159.871991682553
0.0785501767360139
0.495094649303638
-39.7442102861902
-19.9239491565255
20.500690433957
120.547482565141
40.7533268066786
40.7463284505827
-19.2177986260729
-39.6799773834479
100.482036182445
-179.655007015723
120.986345514402
100.251341615524
140.686643809072
-39.4493258863109
0.631312781281309
0.112872349976527
-99.2454673507898
-79.401392462279
40.2293793350634
140.79685265509
-79.7774767938971
-119.186955181537
-199.614437589297
-19.9870789575719
20.3562434548534
40.732630958882
-79.8120196843737
80.6987436075885
40.9738455741778
100.545247670315
40.1411726563045
60.7712095790297
140.747103000882
60.1591953635311
100.420869217738
200.696426770154
180.766873843592
100.812332375963
80.6664852197238
-79.4622248828292
40.1993819141983
80.3690952504718
40.6896478955305
-19.3302525537067
0.567267783596094
20.1799734351011
20.8187630110888
-39.0844369103469
0.914468439204128
-159.062400670047
-39.8128586006881
40.3236862384853
40.4603807727083
0.426350472526735
-59.1874370612826
-19.0305157054845
0.370292323676175
-19.1458051597057
-79.3405040877606
0.944261861126677
-39.3935910530351
-39.6858780286909
40.5593556623211
-39.7779922528635
-239.211638415294
-39.2804705343064
-119.72114084845
-199.961552186347
0.668634205408531
0.806895829287102
20.4806987870922
-59.5547084069621
-59.7110435902655
-39.2556793800943
60.4057062521102
80.3068523528026
-99.4357083563572
60.2215580354713
40.9725802643334
-59.9029018275985
-79.7691609646959
0.520776952574479
160.760232328226
-19.5759743024819
40.2685747599868
20.8134621440549
120.493423914113
-139.738221282533
-79.5522336775843
-39.2975128671733
0.101796019678318
-19.0793945102441
-19.064721811187
-59.9154270225073
-79.3857436737526
-59.6456135929542
-19.7442564708425
-79.6908043848246
-199.58971847538
-79.564371567452
60.532667377324
40.3786777407094
-19.0649496002275
120.106814359146
120.611341853667
60.4869719887505
60.7490189906416
140.16106474753
220.898838617642
80.0247418962336
140.29122751324
160.198517507355
0.324430825897664
-59.7691116620408
60.2773177646348
-39.4053478752554
-59.7325615912585
-19.890266751251
20.3283718309094
20.8639366682555
-59.7453527682021
20.704862718939
-39.7528418309548
-159.776072961864
-159.581975261499
20.1526678305233
-139.191612682547
-179.149976936879
-219.249429398394
60.2808883425287
0.990166263448359
-39.5280207115671
60.642342488692
20.4825063358076
-179.885369623972
-99.2500153842277
-59.5021124250686
-179.082089550236
0.569259644494881
0.553724784808267
-19.9376892930637
-39.0699438936237
-119.753459344921
-79.5358153402026
-59.3685599708686
80.6966030320461
-179.181386978282
-19.6556939129486
40.4099747826947
-99.3374936147558
-59.9440821257069
80.2700335756434
80.0594337298473
0.545707160335013
40.7600207587147
-99.0178948026692
40.2427645961495
0.9182218418769
-19.1979481910224
100.624197151055
-79.1487253823298
-19.8111118687515
-59.9929552525996
-99.5108938283429
-39.2614449159297
-139.883819002449
-79.5300504545314
-119.95560176214
-159.039857730357
80.0964130580974
60.5746739211636
100.165421679143
-59.5447356016588
40.569559509985
120.784950560879
20.9433580243008
-19.9793605233378
-19.1796512030498
40.4071130055311
20.9602448594074
80.6612308168392
80.7671937701151
-59.6162067374183
-99.3870062272928
-159.998767031967
-99.641718650534
-159.421655892719
-19.1560352628755
-59.8873104231681
0.27110928588661
-19.3298919646765
-39.6038219964028
0.498321225071166
-59.5329500917037
-199.030947585857
140.528419689465
60.4311542212505
-39.8463683696327
-59.4511534132978
-39.2164730891673
40.1525859647678
20.5457691384797
60.5366898762643
40.7756577429059
-39.9012680187659
-99.1477129781739
-99.8434720736579
-39.2627778849485
0.564532887059962
0.0905059198528673
-39.0664537888185
-39.1574558234553
0.780844461587066
40.4634977167629
-79.6401580365313
20.0286635144225
20.5367723960867
-19.3885597860976
80.1679714695439
-39.2676947644172
-39.6327839829704
40.1081767911432
140.231688833323
100.404087049546
-119.966453488306
60.0590076654944
120.460019468344
-59.8959394109337
-59.6420178833415
-59.0454468904823
-39.4896419590191
120.55095025737
100.633724577476
40.4406784442845
-19.9620443610713
-39.798762495649
-19.3306684304547
20.4270069540222
-119.637722881737
-59.1762629137063
-59.8477115949644
40.904139456218
20.3436193907288
-119.723114249738
60.0484406013873
120.845986844974
-19.4390979649832
40.4106305802843
100.187092818884
60.8678785863654
-19.4895901011971
-39.9425149784929
0.760216059634303
-59.7300402044726
-79.1264939891742
-39.3690989458075
60.8153304574878
-39.839897118749
-39.1250736469635
0.296346798398432
-39.2600746254298
40.4272516575954
-99.0829420233949
-99.8214036042837
0.434156985089771
20.3045206829438
100.479134967682
-39.5737919094039
-199.340002137118
-59.8324613271215
20.1457446691975
0.346786967881428
-99.8023913778146
-19.0590396604192
80.1077152723566
0.140428182600772
-139.881965984896
-99.2832719995769
0.565084015520099
0.880690290070407
80.563821000074
-59.0804391201532
120.377732448677
0.443166802212957
40.2301737312623
0.2775858129244
-39.0758356136048
0.949654309393381
0.196488749475975
60.9079009734859
-19.8662273959263
100.099684929342
-19.518685771937
20.0972850455179
120.261544932418
-59.0390764342116
-59.3038828813489
-19.0612567533941
240.962371492597
240.116973251495
0.739428670299645
-19.7433620264702
20.9583509577626
40.0623519299577
60.2021386359214
80.6902460117262
140.284958367939
-19.4215339505771
20.7235001274867
160.540657166458
-39.8679262226232
0.300053605610302
0.745124007759898
20.2740935547523
-59.7709415657994
20.5029878811396
-39.0248580442388
180.22760260878
-19.7027020156335
0.17964897907175
-139.919922285757
-219.315688209485
-59.4400963249038
-79.4918724219234
60.0149491254668
20.0862766839987
80.77302368554
-19.4070548015628
-19.6556475099146
40.4959961281227
100.661418759111
-39.1351024337709
100.222047841006
-59.9720727412924
140.649766051437
0.769840590911393
20.3351287685015
-79.6656925509368
-119.627432133998
-59.2995303687582
0.676547718305216
80.284958465341
140.676982044743
180.415916973635
-39.5265889515386
-99.7365364334559
-99.6395040699914
20.0612375511098
0.925138490424159
0.39331906831843
-99.7863613501933
-39.3936275689513
-59.2320080990968
0.305818452113776
140.135041925916
-39.7549411431909
40.3912528525364
-119.062705602531
-99.1534588913426
-99.9218017443714
-19.1419876111563
40.7256743723077
-119.471222875311
0.929946415505384
-59.899089923358
-59.7679246466674
-39.9655072474034
80.2016532497371
100.395260365501
120.443436777159
180.858110533902
40.5298587995457
-19.7602529460941
100.383474271398
20.8272690848806
-19.1974114871966
40.3137469296779
0.750484056515702
-119.530241749797
40.3516044130002
-19.9183275330607
100.03684056455
20.9173202951553
-99.9892990298831
-99.1949361960592
40.199763601176
-79.0093506405698
20.8425723143766
60.3274515691217
0.738510018928146
-59.3739834266218
60.8858016818564
-39.3292359377686
60.5565626552472
-19.203784700078
60.9043997766562
140.546194954505
0.782286396738769
20.3211420282897
-99.3282322596128
-59.9267234230555
100.48852662759
20.964918472089
-139.416476053456
-79.5185476121418
-119.472971025313
40.1127996757666
140.564313891071
-199.853753371361
-39.824435511537
0.863267707664335
40.874825693572
180.167484846287
100.698939624249
-119.262918707069
-199.462633758778
-19.0415944895879
-119.959651353042
0.902255323461516
0.285256526445559
-19.6562258178885
-39.0722489286402
0.253220962775139
80.6142862237198
-79.55903078542
0.576050105178624
80.3180914325899
-59.5222283078373
60.1759063975703
0.528627625701816
80.6915468878263
20.9480708265792
40.5865923171217
20.9259456540873
140.249062034951
-19.9825258848922
80.7333811055065
80.3840735853433
140.568961961797
220.920965189665
100.953123498607
140.467857436988
-39.2736085982115
20.9484495124777
140.394635903442
60.0035155432285
60.6125431927711
140.758037929467
80.0536697111657
140.792881277356
-139.72937760537
-99.8265135303194
20.2504553698951
120.996596813941
40.0165054522763
-19.6639154535162
-39.9225677106894
40.6712451781657
0.123443259015403
60.0290390527412
0.613781537455516
60.5735849344462
-59.5602325553943
20.6436502792274
-19.4916595906471
-19.1866051162056
-59.9394700818211
-19.8887531802092
-59.85361103262
-19.7209622946535
-59.1963419919133
60.5187652397398
-59.8942915806646
-79.0565400390717
-39.3376212462263
-39.5013470920606
-39.0467560124101
20.4521724388694
0.0617670536278467
-19.5992311827787
0.271073937985328
0.752393776676726
200.892724577199
120.389411060815
-79.6823658064001
60.2287178570597
-79.0483500546908
0.454446867273887
0.187717711339061
0.887201974060755
20.5357865531924
20.6225001170061
60.613161971033
140.132491610979
80.8261769818564
60.4090805283235
60.0683078083521
-39.1360953318256
40.591949828021
60.6354502169255
-19.8522407762842
60.4651511921882
-59.8894177594781
60.9664710825876
60.5449880063563
20.9426822624298
40.4302790483053
-39.6268215704598
-59.2782468505585
20.1583651537714
0.850994842761864
0.986051599575411
100.36737489576
120.831195933822
20.895609423783
120.095768513036
60.2782591185055
120.65038189115
80.2993975216573
20.8708275197781
-39.2202044097179
80.5564588276564
0.992411774351098
80.6643991900346
-79.9734854375718
40.7543165410133
-39.024640765192
20.3063001166001
120.606403913865
100.789019461608
180.144577601125
40.0140615299241
-19.7075672137516
40.2133964048071
40.9145372998002
-19.7884079992738
120.779369533983
-79.3208371933555
-19.7999296253181
0.426893105867777
-79.4817955620183
100.460232611717
-19.1083503696904
-79.3778380019916
20.7262708723667
-119.477176293504
-59.3320683549689
140.811869811553
120.229720907995
20.7381481926178
-59.8641035872981
80.2060706139516
20.5820211203918
-59.0072797889208
-79.7593461821768
-19.0012747830946
-79.8725208756885
60.243800745778
0.079433426059071
0.946172005589037
0.64295574023901
0.631645934520989
-39.2617501544245
40.1322425185008
100.239396496582
60.524167755393
80.3111258805521
-19.1805535528861
20.2832147832885
20.6420686906871
60.9143959089291
-79.9216332697774
20.2170821972283
-19.3623530116079
-39.5072394365324
120.555511941579
20.5420323485794
0.0990133189859428
-39.959615773018
-59.5291959507713
-219.260973526616
-119.470481363603
-39.743531225272
-19.8503174488246
-19.869520693438
-19.3366537742189
-59.7633170585503
-79.8466985247606
80.1709123949898
0.446181701102589
0.858999102729129
0.911847667352333
-19.131548841012
-39.5193853913792
120.770430088981
160.038130471298
60.1082991450228
40.2384589890052
80.1579119153476
120.028623990186
20.3622812201227
0.590325369911923
-119.627657197168
-139.259533907704
0.145168235090068
-39.3662227057099
60.01561802014
-19.4230042431931
20.0301623332076
-99.7707519201039
-59.3764861430512
-59.8581853443018
-39.9356280259435
-159.979948921755
-119.776585391244
80.5739064718742
-39.0666238532482
0.900440636948119
-39.0601709203851
-19.04823280956
-39.8068499290637
-39.7594706734875
-59.2698775181589
100.983346993193
-59.021970560248
20.6927212201971
-99.2412064192024
-59.0449077456872
0.714820237571591
0.78795085381413
0.310930983029522
-99.369950227886
-119.023928269206
80.123530310818
80.1621993864453
-19.4216922777236
20.8494225426332
-59.2442295932161
0.0364791047243784
60.0445068734964
60.4391721138751
100.939421886503
60.7158832987907
40.7421122327073
60.149539662353
-59.969699303675
100.656789527299
-19.1207567484692
60.8400254272707
100.305657027627
80.919863245667
20.9195946386586
160.548870702728
60.7218652659012
-39.3716703735604
60.5369691352924
60.6205277702701
120.676401836725
60.7484874605311
-19.5497758038435
0.605659535126193
-39.3714439781673
60.2117478026807
-59.7325285566592
0.960251830198381
80.7685404448843
40.8050596419073
120.210282926126
-59.7785804549506
120.903432358131
80.9404151783899
-99.4471353366671
20.8226959492417
0.921176508977396
20.7421622700371
-59.9283224966469
-39.6355788048961
40.1963707777353
-39.2337770182007
-139.802748498917
-39.4180747453733
40.8130628114188
40.5935250741602
40.6621598603938
0.695899240993356
-79.8686251452983
-119.81917868397
-79.2189734041562
-39.805636989236
160.585322457113
-19.3505838751791
40.0854312593168
0.619832704024063
-19.0366467828803
60.855601232068
-19.6774418557627
-119.087867103106
0.149340981849726
0.829230016708318
0.263980736738385
-39.1488796378179
-59.5296154696896
0.911705280262836
-79.5823027610928
40.3394422001424
-19.4471817048845
40.2506351528437
20.3060548899092
20.9667263446742
20.1823612959794
120.331464070732
60.0054683306023
-19.5157394127263
-19.5164460522611
60.1619036967681
100.608400373643
160.634197660945
40.2742920466841
20.8626206083256
20.2794397947518
60.8267940726118
-139.210901817753
-39.3778278026376
120.564389541477
80.7270449801566
20.4613788794735
-19.1190976902007
80.283442683543
20.4114633147857
140.365713651945
20.3090964444242
80.4396852409432
100.36047736844
120.991348725595
0.564151219926117
-59.4141518695188
20.4148082205783
-19.5655185337762
80.8004133633995
20.2413129619519
80.6285262171797
80.8046590301465
-59.2060076046711
-59.3867123043304
-19.1455789291538
-119.501053364791
-39.4822980127463
-59.0588141965559
-99.53437934925
-139.762519445298
-19.3469580103965
80.2609699271291
0.0652976925936457
-59.5096486711488
-59.8907838852219
60.669485278394
0.442782539228517
60.4301498957101
0.0283646049097683
100.850630548687
120.385027744561
-39.4716209248914
80.1609698360217
-39.1590274452486
-159.926805298683
-99.7725026035886
40.0999394837721
-99.8737304554755
0.0511771160314264
0.241629462407371
0.945163803530292
-79.4139915543366
20.1829324169311
0.936465300288717
0.609741938183092
-139.671532434904
-39.6751442544154
-79.4891873732339
0.354657281598556
-79.7997845819376
80.3970634287023
40.4546266943568
40.1522502360853
-99.3064676446339
-59.6215389782124
0.075184101955557
40.2599891995325
-19.2992819953708
-79.1157487441287
-39.9553581013494
40.1342240068646
40.8495270263187
20.3423004961709
60.2645226480767
-59.6593310550429
60.9827943420902
-59.5052128850426
40.0265511525266
0.222311333175703
100.445664592383
0.0513838868636043
-19.2463597298859
60.986902715011
0.58892269069684
-39.7585166435669
-139.535162953587
0.35313924055535
80.3539256708026
120.412562792601
80.2058092882701
40.4902804256153
40.3647211096861
40.6694048833279
-19.2713523964188
-19.562275000438
100.274147515003
60.231843225748
120.919756633575
20.901201626237
-79.7290350023185
60.8292387917161
-19.9975690612809
-39.549839279723
-39.9882914285688
-119.22286620206
-39.9554280223004
100.385185714754
0.684563530576668
-79.7238277948677
40.0193946932395
140.073249722425
-59.2038451236996
20.9332796620118
60.4541194956567
-79.1269258805749
100.587200448835
0.329427820613535
-59.5826360406287
0.556003666713188
0.806868203165686
40.9373463861724
20.3992381050331
-39.0426124309667
0.687565038322802
-79.5644764555896
-139.410619919842
-59.232467178955
-39.1226993764587
-79.1251729284519
-59.4043367264206
0.347946018326127
0.795468407675841
100.872926629582
20.8562457307578
-59.1762555512487
20.9959497840554
20.7517111845227
0.524552890354684
20.7335808059367
100.330470637663
160.152296732775
80.0319809240514
0.106369139981872
20.850681463026
-39.8418559018595
80.5870070241699
120.957315379648
180.145617615099
80.6247452003554
20.2012521640421
-19.8845346506454
60.2281378332969
40.3765538949366
20.1443633156556
60.5184189001167
80.8461130493592
-19.8051515764247
-79.5103100226636
-59.0501299366787
-39.6264048580479
-59.6855330349918
-19.3181916421475
-19.673810474174
-59.2339248526113
-59.1305924517766
-99.4462271246067
-79.1301492198132
-139.582255498345
-99.2130761172182
-219.217319116363
-79.699848442291
-59.1529166561428
-39.3892176071112
-19.052401219829
-59.6356882543442
-79.9035581024386
-39.3590360849608
120.58977982076
-79.0680990473989
-19.5834450686342
140.790194575502
0.484190125414138
80.7554163212321
20.6803169075453
-19.7102425739516
20.1517917331833
20.45328164772
-39.892123917845
0.890355117765165
0.677983642926397
-79.5172491936318
-39.2309801272083
-59.5072804300986
-19.2332751261858
60.5086307841716
-119.341645767316
-79.1469028611733
-39.4105719334401
60.2353405522711
0.100422256360517
0.248911181416375
-39.497469879668
-19.1618354276732
-119.908165907342
40.9118538881245
20.6139472102581
0.996589832759327
0.782596696048671
0.961976180028032
80.6021237628126
60.3673272298021
40.3898983783007
0.502790093941925
0.129777775923078
0.408581910851012
40.0980810362066
60.3768976352348
100.016619865071
0.297194237969208
140.443332053946
120.443014341938
-79.293383964198
-59.7209691313072
-119.637548607968
-79.9900308204979
40.0463205618662
-39.1097206009273
60.8666334647599
40.0261952989131
40.5134485065699
100.799375125155
20.0482702443922
40.7545998632391
40.878737919355
120.095325879208
80.2045087763547
60.402883944304
20.2482942130392
100.061503251093
40.3367891891243
20.191787033945
-19.8572125764639
0.457198943352822
-19.2369246142199
-59.2450053444746
-19.5331772316353
-39.8485563191428
20.7162633546356
-119.95609900584
-79.4829503090719
0.816339660431339
0.0160904491471427
-19.1551339877854
-19.4792284957459
-39.9667102890886
-79.3933784653029
40.6258995958507
-99.5538308422935
0.82349935384879
0.751955054584129
0.508311689611623
0.243571437694501
0.894944023831717
0.105625659824614
0.171061227613421
0.515727206773283
0.081736849143623
0.479605058168809
0.288286363342039
0.00394022488009238
0.690796008218441
0.367051159503738
0.627383078842806
0.314123376390981
0.273415958969853
0.396278030802062
0.878300767377222
0.853094753216258
0.29963059819904
0.369561324229534
0.634926688279097
0.340599039055822
0.0436104462056737
0.800076139694502
0.086432236602748
0.835037937203113
0.824714118361285
0.327176526189491
0.0600632209737794
0.380485596467239
0.138260460296766
0.955262203466843
0.65145585398282
0.861360614329893
0.564405993778228
0.319075943119756
0.908874175228717
0.9514705641072
0.219880767351662
0.0634849157186907
0.832001689181435
0.88314414660689
0.428332121677492
0.51116856386759
0.890529024600248
0.192956033277731
0.181201667992807
0.356829273886277
0.324732254211482
0.618807691723014
0.342990166438617
0.994227530540025
0.840828842276407
0.710886534029438
0.985134705092305
0.278704419862045
0.909731113406112
0.0798151026478977
0.858177914577009
0.587388502488392
0.633219426743563
0.833355040795895
0.997849467317946
0.233390783039879
0.704467100174174
0.369836667421534
0.390432113693306
0.788115620768861
0.287292765080086
