1.41128670926383
0.487126929817805
0.544194250919139
0.398136079600013
0.626574547795092
0.684410641040894
0.550084767986233
0.228674842248009
0.305578312592261
0.331485665007778
0.695495505276972
0.473787134393678
0.234641993134832
0.601089514771536
0.575877130356628
0.470110048536584
0.53138220940631
0.452908963447294
0.386445945250192
0.644459648447633
0.364283941338617
0.523466415521275
0.441085807189083
0.451519715602123
0.486294311249281
0.363166568547325
0.408199147038256
0.725069034651052
0.669337589590626
0.290655632694197
0.565003450707712
0.616264510266998
0.595009636353007
0.470825483907204
0.780552502157297
0.473862929828364
0.468438325701941
0.371119875281231
0.513612505312803
0.579298749279026
0.538044445259442
0.561064229880724
0.583003725237318
0.458329165183576
0.576014955419672
0.465873712889315
0.422722066761652
0.402386374425023
0.64698175407513
0.480255350303315
0.29383206728886
0.415562147588461
0.518698011949093
0.700052538967989
0.468290415193169
0.699243286521351
0.617098054933009
0.797775405480319
0.677943831553801
0.430270326453945
0.351108690459449
0.54442381610201
0.527007125511661
0.155949902201943
0.818974076592676
0.454400925454528
0.452276806062059
0.419803609866151
0.610784230332645
0.51524453791382
0.60859239040972
0.40575399322219
6.26700944339612
-3.70740475295589
-7.35919873431836
-10.131227966054
-7.99595289311586
-10.2076589976514
-5.90170232696884
-5.87203924104602
-8.23621327571949
-7.26190192892819
-2.87296145117663
-14.2665893149015
-6.30445139832368
-13.9804774728592
-5.68847312381651
-6.75328689146432
-4.91580513669558
-8.44588410495948
-10.9493170462535
1.42894235492202
6.09457124015155
3.36467229565141
11.7989068088513
5.98606087448141
6.31947917871248
-1.18148236643732
-7.31490207052219
7.0135003846614
-3.27004691830783
-2.78448730583349
5.2731195155241
6.01806984067719
0.420802965690676
2.92601942802256
6.98533880268917
1.38252806284888
2.84188789370001
-3.06464038052902
-3.13339365492254
3.72826986038397
-0.178777050907728
1.23376166954159
-2.16142120999152
-3.89699807225201
0.50923648553385
-7.82560065718667
-5.55405541093256
-4.63547098166739
3.38514666392319
-3.82865328624492
-5.8713802335842
-5.66525677693543
-3.12224897488722
1.25612809676341
2.68672467148952
-5.48690632938112
-0.976636956154151
7.22257088741404
2.05882820647412
6.4174016910528
-3.47145329877617
8.50930364787313
4.16444483802364
6.55329890553029
3.68082386285414
1.30059678801226
-3.55975852884583
-3.39487826283211
0.297731596968175
0.403536391314169
-8.97419812197615
5.10893232605925
-5.56574955267433
-2.54362432755013
0.943623885147489
-0.53716197155236
-0.0185889694544158
0.482068425968176
-1.22397960833993
-1.98706690983958
5.55496776330261
2.89059402125346
5.42381943656461
2.50092697548302
0.675904637749315
-6.41200993725433
-0.477220873456923
-3.80339801632606
1.19178470215744
-7.99228857418506
3.65722992627553
0.848002669621785
-2.9479344667311
1.51167734690446
-3.1918562850735
-2.45803998029121
9.04600666767475
-3.79641525479481
-0.295585043720852
4.23042104551298
13.2656144157356
-4.18706118988728
-0.605199226411976
-4.10240533941338
-3.89066251763239
-6.46211032429916
-4.95422132227915
-10.4961430352954
0.396224049968312
-12.0113505224005
1.23174274989316
1.29227360725908
-1.19359628337253
-3.84803241539514
-1.42242522797307
1.72514870823025
0.0944621690415772
3.66193432710136
0.322185478442541
-7.59364470571754
0.0840620590221779
0.104954964089478
-1.84789415697235
-0.644271144854794
-0.774492706539482
-6.184803146199
0.338904433145763
9.40827759423515
-2.71224795708685
-3.03811794838019
-4.18649843697749
19.5310908519812
5.1793143442106
-2.30896635418627
0.931963338046122
-0.617862484864635
-3.57783246130977
-7.58289365558648
0.552828901129165
0.484784434236986
1.37741935437803
6.78719885266733
-0.700263269922088
-4.9456901317699
0.714221988804183
-12.7596217235469
2.00622683768681
-1.92301045393308
-5.49007613099545
5.0629814935344
0.738410304456454
-6.65335413753542
8.13645488992193
-9.23370385378014
6.5174841089168
-1.06277886629889
-0.207768708347513
4.35042890837476
-3.26664145459207
0.397514474399717
1.19178433783419
-0.738120957672218
-2.88118044697026
4.13351854448166
3.79919821170177
-4.56870175568725
3.72802818163938
8.02407462535188
0.201199672642874
-1.84300729161549
3.77336801705549
0.823709216218466
0.728412553757254
-0.628324775201418
4.62093551688039
3.8835583816474
-4.88294220822211
5.01971835102966
0.529062894730569
-9.89174509170917
2.81004528937991
4.97186396599078
8.75189149821278
-7.39397342321668
-0.455356797738427
-3.93536668249664
1.28338226885624
8.42685063707254
6.32911070519032
4.03949217372937
1.62457244806513
-6.46704553295914
2.03782762779732
0.0829328998571381
1.13002257027936
-3.70732928217758
3.83156710681955
3.52852718017379
1.48744545314794
-2.72583969835503
0.606947075793571
8.94230944552796
4.60488735681938
12.3736963730642
4.19107474684712
-2.56505209253502
5.93899762220451
-7.92304150687192
0.484208330406652
0.532635799491994
4.60990008143054
13.0140092184393
-5.98336081583742
-1.53628478927674
12.4215700992416
1.79851273329672
-3.42671248335998
-3.29945152234548
3.47996783931608
0.674313975057206
-4.91225629885505
0.243968639639986
6.05548098309085
-9.40868380400495
-6.72135529464411
-3.10818480325573
-7.47364622833255
-4.13930329415742
-8.55178335328258
-2.26615471887266
-5.99551212867781
-12.6131237672261
2.79723718763955
-0.926786441279552
6.10945925628907
-10.3233812388367
-2.1378430566308
-4.09992517268631
-7.56575156011574
-6.25690986408324
-2.52628655431384
-13.3793204272126
-2.98859383577329
-4.56049753856894
3.23022665130055
0.817454531545003
-8.48468968087213
2.10923887727282
-0.282439223714063
-11.1676743567424
-9.01282416244781
-6.73616084454835
-2.49533379873144
-10.2643667096263
0.643401442717782
2.66383672942218
-6.96612538525883
-3.54061509595611
4.37187349927001
-0.252223944866898
-1.42561490036984
-2.38329558766612
-8.06372022609302
-4.66422528656303
-4.34093279890485
-0.680178207681089
7.23086125641701
6.30786630442409
-5.39842244396419
-4.79350470332027
8.67150266737604
4.19667811161603
2.00204763830903
6.38032429603077
9.52788149416747
-5.54412271890997
-1.98660354002963
0.458788552413193
0.319656396110424
0.374292321709826
-1.49228892479952
4.63947491331988
-1.01687299087011
2.13968227091499
0.619395311808846
0.0460146376072058
7.34977258458261
1.50504954118961
8.47147411632263
8.9842532655301
-3.95635116939939
4.92756283815492
2.93039689082438
0.353144340622117
1.30420632568242
-5.32080781099977
2.07644071864469
-0.374143970160963
0.198770579621539
0.746997973377119
10.6370603478203
6.87524650641895
10.9256027421705
-0.594773226254374
11.5021782209033
7.95571709802055
-3.47879347711736
8.55172739517281
-3.88151433253851
-2.97577267134132
5.34542967351607
7.75089703360423
-4.3115896773276
3.98254897283962
-3.10108117546158
-9.59627972582363
-6.75034526167145
-6.25187442778278
-1.74787038832717
4.87801287944771
3.27189399796895
-4.98207568692987
-6.12562708228453
-8.84639584680069
-0.565776650358263
-0.253812747067878
-0.945085344630333
6.42312140236398
0.499331449851234
-13.2187303519164
-9.92202381172348
-8.91725362683158
-5.56748795718972
-8.08723353133392
-5.74978695150491
4.14236799615093
-1.61925450397864
11.4447465365121
-2.99498623475537
-6.43101604917821
5.26018060213129
-7.35453989308635
8.25967568552811
-2.12303870093984
-3.11187457359602
-11.5968392470744
-1.65218387666839
7.04274048495161
0.465221024478389
0.494764427818479
4.51535861677934
0.817062186952579
-1.90082554497605
-2.0488417580819
1.14497044807384
-7.52874879792263
1.19030689303744
2.3544685388794
-5.8748894804768
-8.13344829963997
-7.14330095607419
0.38941359687073
-9.92013514614754
-4.27312245079114
-3.85636523143303
-8.6545345409429
-17.5219361984088
-2.55737824534837
1.8348723915296
-0.422974439326928
-1.16222185981192
0.560594002761525
6.09745307802365
-1.47373998420865
8.75029808933859
-3.12615771241112
-8.34880852658798
-0.0463180652855839
-0.540660718033832
-8.44929535433711
-6.32415594522437
-8.69009675413053
-9.62437821490895
-2.13143154088268
-3.54648353219045
2.62912877966454
0.0239243782408816
10.2880273218003
-7.61312226730627
-0.510519188628177
-2.55379176344573
-1.60320460023852
-1.04107933975947
-1.6006081824696
2.5092582392402
0.946690626670829
5.29293648515146
-2.55933956601346
1.94934722427564
4.09390914799111
11.9812020405413
-2.74957872743523
2.98846824718266
4.65044376029489
-2.47494772607046
-3.4413626951046
-3.10033828634045
0.502115794676829
-4.3643381602138
0.617116309536578
-1.58378220086039
4.00284700276403
7.44645455793259
2.89226956164568
3.545067845855
-11.8278033850985
9.01467075895022
2.02354106238268
0.420112681258108
0.530049473082013
-7.51121447162582
6.12188611841181
0.569176595930918
-6.23418898687285
-0.731125233720461
-0.660175713553626
-5.35812347471047
-0.304355721848441
1.5890963242855
2.1535042679242
-5.93076538917702
-1.12474430827187
8.87762673550487
2.61019775319903
2.81073489915293
-1.46313474748659
-2.8304283147313
-5.03445098981138
-8.00728733329804
-1.75053033324239
-1.84418041913696
1.92266260650351
0.277054020407217
-12.1344286194234
-12.166517811287
-6.18841201098218
-5.53110831661203
7.32132284961902
-5.92472259553954
0.766093773476928
-0.179635180325305
4.72750961532639
-1.34641213273847
5.62772607666072
0.422504712798457
0.586137114822898
-7.4789935082811
2.63794295025796
5.05759307759983
5.61801338699463
2.48482864480538
-3.4668541863597
4.20739533303683
3.08968244789429
-3.24112816052331
-2.63737375697819
2.44591057608942
0.681157663889593
7.55606808373767
-2.99589371659498
10.1769876692858
-4.29881090249251
0.0812657099133269
-4.99944298185102
-0.206437961279004
-0.335661855919345
5.15667323491
-0.84608420316326
-0.116375774627447
-2.63838822526393
11.9721620435901
1.31776115567092
-7.16300182381973
8.01013483617018
5.00396082442712
-4.82822979890733
-3.68177398325023
-1.21529117390395
0.613405065713781
0.39581509282753
-7.07238801724073
3.29640922359979
-5.02623272929843
-5.26497471733659
-2.53753013876329
3.35304793203199
-0.0796102176679838
6.2816700053773
2.47531093988478
-7.97422519919065
3.14893885498986
4.40282221105258
2.25422540947808
6.36715749020093
-6.268100078855
0.195215800221939
-1.06874995805486
0.906767862174344
-6.15249089775429
-0.759058234951607
-6.62437977569287
-1.5902297295967
7.43141269869862
-1.93597618665471
2.25072724354358
0.540804658341764
-6.04686497622383
-0.0115008476025666
-15.4188623660527
-6.5846004861249
-7.941201114679
-1.67261346042789
-8.5183727345771
-3.74031518787367
2.87433312107584
-1.34251525561981
3.18648239432047
2.36508758564684
-4.01516724865255
-4.31873921507075
-4.4009305755455
-0.324657753498077
0.471105278697273
-3.23039110685894
-9.25842031967043
-16.1523102905151
-3.4015071318211
-1.81285537868125
-8.42314793174135
-5.23450705712875
-10.3329720039783
-3.09975497601447
-0.53437028638541
-3.9499688144088
-5.1352495879295
5.34438241840526
-2.26664233377175
-0.464175094508668
0.985686398295576
-3.86179999646377
-0.78913118703157
2.99339568791656
-5.5918258814055
4.18235272217953
-0.452821996985155
-14.8031859589631
0.440566452612451
-2.98495688718627
0.472622840098275
0.466227933134692
-2.10118303236613
4.8650937527889
5.61760660205205
1.66372724508944
-3.00196776840111
10.1138191344264
-11.2509977007526
-10.3687822948503
0.0237045694294493
-17.1265304071132
-5.7262367945016
3.4866928696651
-17.3657518335461
-10.241592956841
2.00351517570084
-7.69877981922484
-6.90287722440688
5.87652617786003
3.89002838436967
-8.14730859979209
16.2722698206947
10.2476947709522
1.4031069712463
-1.04346227332417
13.1398921590239
6.36391193216681
9.05397139912887
11.2904989799877
3.31265587496429
6.47684644712159
11.4107752508025
-2.19975034906906
3.66453414301062
4.92492976089726
-0.773901922195009
-0.790001331821493
1.65432764182068
3.58950929138872
-6.87647171888914
4.85243408611792
7.53127276048991
-0.14410770891599
-8.19114406145967
-7.97227570798585
-10.9984089564557
-15.5814492453472
1.63396694667534
2.01850529878611
2.51563052821944
-3.31996301228724
-2.55169437219257
1.61002735267412
-7.59641338721002
-9.97734353283197
-5.33325282611751
9.31713564286899
2.04378872840769
5.42726399946679
1.20601325274203
-10.1435618079844
-4.93727202710686
-0.287097511392222
6.99050906414885
2.59478630625234
-1.17260046907853
-1.9250323857426
3.34857571638333
-0.625836550923649
0.663597445383803
0.438516744643005
-6.35330257354158
-5.91143332751594
-5.08078163055967
-8.61858936287891
-3.92121203568108
-0.800202252596479
-15.7968250090174
-5.6959856863261
-2.22533284821428
-1.88340026883519
4.06912782407116
-5.09411707076702
-8.14515094833054
3.54990392623669
3.60015567362213
-4.56704234214631
1.59749608225558
6.8369649244524
7.64928016909478
10.4644690905343
-10.2653136918915
-0.0807261313802918
-10.1828128444361
6.85824531291502
10.7986285174264
8.39434296635906
6.0710367344498
7.18406619091224
12.6063611239873
6.55188618166326
-2.01806232555178
7.57056841967906
-1.39806241773053
1.81486365152501
-5.45126419968579
8.16133418419166
1.15290317490683
-4.08131035904244
9.02002883168173
-3.21290808784471
-3.25627706855889
5.00199225986538
-3.65600781140037
-0.831214329905791
10.4786184665571
1.37383516550441
-2.86170225304656
1.17330624986364
-4.90228305616081
-1.24494091205941
5.24593147077833
9.69970644323551
-5.17436092397317
2.54059641966558
-1.99592433894055
1.18081535677616
9.74751573872477
5.68559795571598
2.97465572385436
-11.6693847687025
0.603168787293982
-3.78504779235862
2.00215943523876
6.37122125409297
6.29561064144865
-9.40293454261999
2.78381758862211
0.510935458404964
0.530387537783097
0.32245881427682
-9.88479400230552
0.0619327934436393
-4.81873832569691
-1.20257345127086
-8.24711949822815
7.62978335403709
-6.71001786832379
-6.12706397156872
-2.38222455181301
6.59947187443153
12.1213135321899
1.18453591790817
1.82326387197973
4.7496690832221
4.1418921375952
-4.28996670022193
-3.90062491762212
-9.50407609410066
13.5302453674309
-1.97344588556432
-1.4716167129424
0.415101139027272
-0.632395783896547
-6.90960023269576
0.932571631994326
-5.08858904816682
6.08672624181694
-3.83392322628138
-11.8622184347104
-11.6743085147047
-6.96950752076843
-9.02748167614992
4.83942340030875
-0.895654039084384
-0.116380698724259
8.80695253721478
-1.06002848122008
5.77911304248416
4.13201196594862
5.76828296066011
11.5779244312022
6.34233977783312
-3.01320431388607
6.42673502681777
4.3914134800652
-5.83516059561966
-6.6829857516066
-2.58057362630075
-6.34041957707115
-11.7271625737202
2.92997400755806
3.68953455281788
-3.67415761068174
8.77296449950834
-3.38235943028993
1.34300353398052
14.9282699960645
14.031655857675
9.90763043238903
-0.973495525389031
-2.97623223395761
5.69726547424426
18.7574315148889
13.7450317657879
2.04979797389088
-3.53114039513395
3.28793237987795
-0.95594595778451
0.647696993967982
0.58632712105997
-3.9779568414914
11.339192773386
-3.53340038961336
-2.72512481368315
1.93611359406222
3.3663152401015
-4.28319341068171
4.04094218920311
0.201465333928917
-5.88727989231656
-1.60474072121649
0.323371914160993
7.31041049126587
-0.759052260888532
-7.36232387722082
-1.10435812501603
14.5498087217378
-4.77815777815129
9.40247842452139
8.89669388175152
4.05265955152815
1.90188896561234
-3.57988047555203
-9.28632750631088
-5.20909855263402
3.03218026177148
1.41435689075789
-6.25153659318172
-4.57400987777992
-12.7099317253323
11.1742256792849
-15.6008976872786
1.02579224833408
6.15022908868578
0.456975388406495
-1.16340552989044
3.0999789866913
-0.558009809502609
1.88807038604894
9.26794410586207
8.97916450092302
5.31768376669875
12.9118318074501
8.76006665190653
4.67072346779124
5.05114164255826
6.92438471329161
8.60802660299753
-6.25486036447811
-5.85014728851952
-4.94282967504233
-0.534482344407577
-2.91053002057106
-7.11442572252903
-4.77985276187608
-3.46061981690506
6.07640043919517
6.90995191091896
1.04963123374116
8.13234383927245
-2.58193673841485
10.0297759893349
0.55969044345844
-2.243284788813
0.207697609901156
5.24858115956205
10.3339482434781
2.70188157558052
0.265399503123493
0.406335962886848
-9.39359161189644
10.46437136798
0.520960341084319
-3.86844463034576
-7.04809475279
-0.551278946173949
-3.08268005735154
-9.99761435715189
-8.72007634471706
-5.68018960568058
-1.83984303426702
-7.13847008232569
13.3828163317215
1.27369795574943
3.6142126358826
-4.95590048096747
2.70143057107713
-4.69584877557071
-12.9710953666141
1.77296845395438
-7.50276687837154
-5.81213108169644
-9.7174161224902
-8.06710413790021
3.74433156940349
2.47224351733496
11.2548867473984
11.6910506283454
2.28672585523245
-0.708509976662982
-0.181922380423183
-9.77703388591822
4.52524357617383
6.79255736522623
7.94807194305807
15.7573803842433
8.03762941273039
5.01457105476974
17.3937198641566
16.9558949221574
13.5798818211471
9.36231812432534
9.90584761399359
4.81216148078012
-3.26509306218497
2.85760303614127
5.81214089164977
10.6133360917159
-0.192459918707124
-4.12122131043449
-4.98266336840637
-2.98458497198023
-7.32059327934569
-1.55274711469969
4.95567451553955
-5.74985638804774
0.612305148858853
4.79399140562054
6.96341520306012
-6.38117720163528
-5.64176116416826
-8.06781860122689
10.4352711834168
-0.858625493003085
7.384489381703
3.73364431439988
1.37092868154457
5.35680599772734
0.373145916111171
0.577121048641268
0.537847465787865
7.15414694981969
-2.27921676747292
-5.16465453488844
-10.5389443387136
0.424402334493895
6.22639933910024
-2.36380584166819
-1.47747910404099
-10.4548338320644
7.24817275349845
8.59323468457014
3.65473712670117
10.8718501196861
1.86813971787268
7.9366682932003
7.13506688649211
4.86105457807793
0.272724756805289
-2.8677090475864
-4.36064216541721
-0.271317035452437
4.33313645487802
-1.2400686935287
6.73021816911429
-0.722932611870757
2.7302862167357
11.1505287012392
5.68052207817952
9.8125340558895
7.98819397685129
4.50574814166959
9.50516639883574
16.8319549471083
10.4830177849199
8.71264182319209
-3.86565764763063
9.17241720203321
13.5432427105872
12.8850897812865
11.0354987555886
9.86912056816486
6.47336664098167
19.7348965795412
11.6138951469452
23.7065534910204
9.92860950859206
3.49871338210851
11.3297096141485
2.32048685658823
-3.94394420482251
-2.6163736930687
-11.635569529543
-2.82300060352412
7.55760768210856
-10.6805260968134
-5.00221303600137
-6.27520125140128
4.07878093814527
-4.23873536964813
9.87118536958918
1.72117601342662
3.0080919878137
6.58388358380074
-8.93318343454479
-2.70039267543069
9.69670334039733
1.31054553553275
0.443929096446597
0.404343453250703
-4.57305771264941
1.45563332395115
-0.323913231631692
-9.7730598955322
0.686302363093968
9.63674404289352
-3.38388686854099
6.07395728337591
10.780307187492
18.0327511257177
15.9148811110972
12.5367724966161
2.44303199415473
-1.46011721284526
18.2293545281919
-2.45671854923685
-2.7700840449191
-5.05931800532222
-2.36407218168654
-0.861266236690838
-0.0356184290294843
4.5984435358234
7.84988062045583
-0.125866106913366
-1.83457102556869
-9.18863097217577
5.10420462323555
10.4155697464679
10.3382221439163
5.59620820661327
-2.77976442578369
5.03674080873204
-0.852066189422034
8.59608665098893
2.11336183577529
12.2523551706957
-6.8069728607268
-1.85172159714356
0.631117315451555
9.07576506652348
-0.333114880265089
9.96886020054317
15.0469403152964
3.43728665775334
0.264231128842273
17.8860046856049
14.8069151106715
15.7057554982454
15.8760306838835
10.0164368104234
-2.90629646859835
2.56802578966179
5.63078671471288
6.22949456555757
9.66780103176253
0.489468194363464
6.79442777633388
-5.95380561508726
-0.664825438805835
-21.3019805313507
-5.7126985380694
-3.22905510485203
-6.36572089979169
2.08079135332656
-0.701085919868316
6.53579584291945
-4.64651558554209
4.99724181893307
0.445135717176163
0.463039814757881
-7.59574504942076
-5.66413597515643
-11.3625433250302
-13.1608037297447
-1.09027872906339
9.81610478384508
-0.0659816028796477
7.95880061754025
4.49288398361633
-5.85402884099118
1.68339430867608
-4.68939025838092
0.827238492996079
12.3320989328402
1.27444924299424
-6.48062040200869
-8.13867346135867
-1.07966204935292
2.9385940706856
-1.45430668140453
-1.92589080350968
2.09595520036134
-1.13770868838565
1.81989501194113
17.2138275904033
14.0765117564066
7.46564571004029
5.22952451181765
8.45267860946226
-10.4231875702455
-1.84287451142332
-9.52094281265983
0.948991037934489
-8.71513141851295
-16.0437990373262
2.01753112821029
-1.50397906075473
3.63949649710804
8.30104916188687
7.01862109174393
8.90661512169502
5.06966883942114
3.5957425945519
19.2338206495817
1.46016585010702
6.30040677185843
15.187845082182
14.36851128319
8.3960379366926
4.9065695437517
12.5420515536832
16.8904625222282
1.4925121451249
8.28522354777907
18.2904765424707
2.9393418505078
12.4584481601522
-0.111170024127128
-3.22040826491273
9.43747973338559
4.04711211513216
-4.38009235360277
-0.623190902596654
3.64677359869664
0.966856933574234
-2.06350386095815
5.19368621166323
6.05570681480243
0.328498367023592
0.465669442243736
1.98790843692223
-6.15029451546528
-3.07978564131548
-2.7115336622599
1.53183386682926
-0.159459525289581
4.22038094787749
-3.21995449066224
-6.31887421703112
3.70355965520082
2.63854303721794
-3.56889775898532
1.14968366745222
-4.37168934507665
-13.6716359425752
-9.09449892278807
1.75846289477823
-5.56580807530164
-0.765886108555771
-10.6680859110322
-12.5733354793724
-8.61394934899281
-13.110807611556
-2.47783962402587
4.38100708333504
4.35915674138842
0.565414094687405
8.55129976728428
3.08484539909016
5.82779783237164
12.4953938473719
-2.2986248257915
13.4741330156097
8.77187391447526
8.81052553028079
11.5217883246519
11.7404051268278
5.62850363708752
2.89756038443174
5.0811561319749
-2.1997550594034
2.52171513242882
5.03857843597085
7.73289595622434
18.0054476419565
7.61254660591129
0.0172594346127408
3.53402338773836
24.4229853952804
16.9950761574025
-0.959917373685782
5.01817255175448
17.149688091675
3.70359071841562
5.80656835006256
8.11993493364032
14.0038565710964
6.80130041578074
3.84051722455941
-4.29911794644692
-2.47923916407472
8.18867787805669
9.91948124050795
18.1325103918858
8.13679633640713
7.02376987623381
7.63856564917108
5.65076026880797
0.278592889770633
0.578024579946167
6.18458560123026
-0.636615140788191
1.1692669583377
3.00562946282875
3.71402642925785
-1.02035943143619
3.70462382340354
-6.45638808198327
14.5846671856894
2.69351977341671
-7.8626831050948
-1.61729481695753
4.09680189679555
-1.86126410853306
-15.5620713964772
-6.22413008162155
-2.0130836261813
-2.25371203659977
5.97028383715194
7.98623377403224
6.36887602617253
4.9983109143474
0.459374068414087
-9.6114183035489
7.65311950877154
2.85149789732573
0.397742013298948
-7.79992883546994
-3.04985049624415
-5.0069173540411
8.93439243931374
-3.67558334205572
3.46827028478127
-4.04178627676144
-3.43600874370345
-6.93052891802089
7.76281557166709
-5.76545789318659
0.502035035353244
3.06585252252394
-3.14103557477339
-8.79965674688884
-10.5948946896188
-6.02939385494824
-6.74829438886062
-2.80406070638994
-3.88848922943096
0.102656935353609
-0.886916147198579
-14.4294301689771
-6.05729539461294
11.9465187249634
10.1136746671622
6.04353404020163
1.02258207391868
-0.233186572081787
2.66396340098133
6.50359887312036
12.0854695816592
12.8495307224206
6.61589686297936
3.06169162760894
-1.71786278955716
5.17837867819254
3.17299760657158
1.49087312980538
10.4241318173498
5.49708779530723
0.448838499388401
0.420673526894569
2.50494195727753
0.188505431540092
7.03165032646021
1.36976850010757
-1.90059248897134
1.97849176645615
-14.7724537158554
-3.30265222452926
2.47218496009231
-5.29419411794383
0.223408938124728
-4.83861642287721
-6.93692074031052
-3.0140501735202
-9.42394487119703
-5.88704228137641
10.4720267120079
-1.30747449227003
3.75653556989571
-2.6155490905774
4.48096274111006
-3.77434342468869
-7.99142845570074
-14.272178985277
-2.703368807261
-2.51731096383852
6.43702466314368
7.96853531528041
2.89033763383801
8.91842775605598
-12.3852317471505
2.09219588948466
2.04346377078134
6.43269517628498
-6.44418662462899
-7.4984846417719
-5.87225077215145
-4.61564468553746
-3.35862143308636
-8.88301531269717
-11.1543697333188
-6.3832980288233
-6.16028780603607
-3.53675777350791
-5.38427773031132
-6.45105849307747
-3.8429477481611
-0.604592692723269
-10.8560914720223
-5.11502741843377
-7.29770308707657
-13.5197110717765
12.2674591676292
12.5555312493863
12.8710217017454
-3.87838870875103
-7.5443979277058
-1.17455616498584
4.80492194695704
-1.49173185384237
14.9599206809937
-2.26651715231588
-1.48710589547884
4.46179378395632
-2.05634043678597
-1.72500549756534
8.41193867303457
10.3819866807785
0.521132862809136
0.565759484384412
-0.28271286018358
6.91474438429085
11.2751114512415
0.246142793389415
-3.08278744500196
1.00056899218219
-2.31748669316334
5.14794166513482
-2.96818126960303
11.6412340625328
-6.48259550167853
-12.8606307120578
-7.92908102605465
-7.84695197306951
-15.2161398689462
-3.88654514640957
-1.15121288537788
14.2249917755596
-1.23439855136168
-8.20543125364228
-14.2064334817938
-2.44568623205288
-9.17343744041777
-10.2415789334881
-0.257941377287743
0.19118747699372
-2.47218246365439
1.23248684309435
5.62066821905348
9.87202532557977
-3.65376215086591
13.1237928270186
-10.7038542861014
14.0768344499539
-14.9918139629934
-2.19596465791414
-0.0555223332208527
-9.99426531160077
-12.7891518288773
-10.7265707962704
-16.3060772529392
-15.7327480007665
-12.6889863248348
-6.7999324254627
7.77710693983407
2.49530402883155
-0.670646983523299
-1.81993280143376
-2.56409734904782
1.57638986067544
6.09007333418304
-5.38445313969523
5.44721463046066
14.5656918924877
13.7925362493416
7.96810369388814
13.7393434923411
6.96809237351969
1.74689117702911
-2.95946293330853
1.1088933403383
-9.14053786489334
-11.9453209281415
0.00106670386996326
-0.640826560437982
-4.11590603502357
-0.0452141205590143
10.7962708780711
0.385698088450589
0.40954326431039
-0.0406312400666868
-0.475952913576248
-7.45651813565192
1.96610103885149
2.28680393640162
1.97390093677008
2.45037219117462
-3.5408424913176
6.35692569758339
-3.50469203593836
-0.566495287070192
-7.55820732430398
-8.43418013868236
-9.09179120829956
-8.22065447679497
7.11942570227453
-4.41534719434557
4.50100666369444
-7.80330245898863
-13.7315913317129
1.14950008163918
-11.4654901506655
-10.302732926812
-9.85544015844186
-5.36007623569502
-2.11583344968617
9.49706951139926
3.37743662354019
8.95966674166486
14.6937492180723
7.70861825664964
12.7483223273267
2.15857868355489
14.8153027764653
-9.11198167232898
-3.55070326489869
0.568406490213548
-5.56244822041702
-18.3970168909026
-27.6052559877639
-7.53875887805074
-5.7444260694789
-1.68450539888995
-7.81879413067029
-3.71726866275787
-5.95370429342495
-9.44050247783456
7.25014562383944
-2.92901109302677
12.1634278865788
2.97260676912909
12.4104826510188
0.523894072647487
14.4025974742122
7.09437020336346
9.89503706259915
-0.677840265497685
14.2195903703393
2.86202402126164
1.31778492906707
0.0260310689413416
4.90564556423276
-6.36098286088598
5.30001804220852
2.44629835336211
-10.8591253895145
-10.764628192952
7.71066994863618
0.313180571358487
0.720236965088656
-7.24984630815217
10.051860068895
5.02433336142928
0.258870649997319
-2.23460442300365
8.20606577989527
11.0306641418029
-2.82939749153512
11.310876068818
7.6624331454734
-0.150593275203681
-9.82141576052553
-0.251486857776325
-9.30967792828496
-8.64551387998805
5.34711488387952
0.889801284841048
-8.98699416253129
3.97092974486435
-3.48333202278627
-3.99085949271832
-0.161419199756456
-1.46036005086779
-16.2973952660412
-5.61403062135531
-0.911172510166102
-4.38273165617437
-0.34620086855986
8.27055835625735
-2.71916166148966
-6.86669794452982
21.2721582654256
16.0543347585646
17.0221875335229
-0.673774695171223
-0.777344199538251
-21.3884948244895
-12.9373003016612
-9.41769922402572
-5.16032332231987
-1.03338562519091
-18.2706943282466
-5.89029287945598
-11.9314096977729
-0.373332902963936
-11.066851876372
-10.1879807771483
1.06378834473854
-3.95118998120395
-1.06560433804303
-3.59114289660159
-6.65085188975239
-3.48858630336888
-2.84580653295295
3.0714642850612
5.42729719193719
6.10049538286356
-2.60090315900471
6.85440039416818
-2.84040794454816
3.77753761783477
-12.6129180190525
-1.87010492792093
-2.92904217562052
-2.49577014006489
-10.3717398414437
8.45847293260541
3.14127729183841
0.577344569082808
0.498672524751837
-4.54068004931545
3.77835546869105
5.05948487661903
13.8482695406802
-4.27971601797311
2.65891084785638
-1.04338967044829
-2.78260770179276
14.2926307187524
-12.7507289565524
-0.368537477272283
-12.4578137484864
-9.50118104933554
1.20996622861181
3.13306024490461
-8.43112497190482
-5.32063828440781
3.31347216899082
-5.43591212324188
-6.13415355597883
-9.6324981242234
-13.6966342807424
-7.58538495185588
-9.14939643902237
-3.81782091849874
2.6198715716561
7.08971360175068
7.92363205844766
2.59059369480114
7.91215335610507
17.6518379898133
18.2081979591465
10.7954188848348
2.99527097345151
-6.23869864313546
0.0628079320351331
-1.23521253028953
-13.9094771255973
-18.3137713352993
-0.881296955704648
0.201452415374473
-5.7352142866299
-14.5954354835322
-13.100275018621
0.485494929960271
-1.90524127191342
8.25276783861002
-12.2058891501957
0.284606159304544
4.47800485667787
-4.43994732070257
-10.4628778607385
-4.22582438061953
7.62780292946334
9.63112148740136
-7.60150328789446
-10.4749432044215
12.8078743270111
2.07303485267879
-14.6529476561108
-11.1935848503713
0.268623530255384
-10.8069681069511
-5.08534998524828
-7.17928003671629
-4.09419119062149
-1.79359108059476
-10.1711716215392
0.485588274292811
0.577832663799129
3.15468566452103
-6.35696656891254
3.40001551848488
-5.20903196629239
-5.23583833341079
8.28536216713955
-0.927942839931713
-4.85256896920761
1.91920082041503
-11.5869344307436
4.26526757526467
3.13145963333165
-4.2595299114297
-4.80716146800406
3.68709107510545
10.5671604243328
6.12856555716295
-9.50085544314643
-0.458122003366631
-6.14568342631544
-15.6029133109896
-15.2779644020329
-11.8176953819374
-13.2915665957264
-7.45730782127425
1.29894824913322
-1.46314839264802
-18.991630378763
5.9906088912749
5.35876884049974
2.27040944051116
0.554316512115342
-8.13207764453471
2.59314706045939
-5.32468804731462
0.684639137417486
-6.02823387052097
-9.82094111443204
1.68501593669896
0.121942946096965
-8.94604716486364
-4.74728440825815
-5.55837479224825
-9.23626431059191
-3.18171545967602
1.53300220235902
-7.37391551921148
-7.07167369353664
-10.5283569332406
-9.21936421356768
-11.9435578943292
-13.0236978990037
-12.0298564116186
4.67523445377705
0.119980663927173
-6.01788424193778
2.38956134211205
7.55435441518137
9.68087408243287
-9.93410340093446
-9.13426221479644
-1.83734915205072
-1.80702013837492
-8.24189566267179
-2.75802380886905
0.357314802994736
-7.13265231406218
-8.13428720805345
0.595638317194523
0.488489951955971
-1.79018191802401
-12.0829402890984
6.81729495457666
-5.81422026997301
-3.08688652661438
1.78197218003205
2.58718750979267
1.67319438174677
-2.06996827905487
-5.55949765955047
-7.5583975179263
6.26372175893691
4.9888053066356
-2.9330914029052
6.24038422166511
-1.08041915896701
-4.74963077119716
-2.29104285747272
-16.8137099922628
-2.04560262190232
-1.18165034461764
-6.70803527739499
-2.87366630951183
-11.0714378131927
-1.88467845695252
-15.2062658275405
-3.45091990256689
3.53267902494217
0.442847266850584
-0.145732242860594
-4.1945614595149
-3.78265851249566
0.435607929880822
-19.5916222822215
0.751700232942533
-5.83641188532928
-5.71236440517526
-10.5216093594756
3.71735593332575
-10.3691139916291
-7.54341730640221
4.95429104487998
-7.36476947979508
11.3007414951709
-2.7374596606523
6.92776219500879
10.806194912751
-2.84325818729799
3.87453602753072
-2.55353693786154
-11.7577427890079
-2.62999814347479
-0.874460924009985
-16.7933750702955
0.363321409892518
-1.80452498278423
4.07874867641329
5.64571147170395
-2.79012542975651
-1.63092385857555
0.395783504787818
-2.94328779997409
8.52692597308625
3.80871158836286
-3.85000442220629
-2.18358125626111
4.19787585547981
-8.54791043604459
0.487938365264276
0.66505138757222
0.497879181506695
-3.65549280693789
2.99665330948164
-12.1318972216485
-8.88607796984932
5.30711174380325
14.8940819125757
-8.05267604471865
8.48274965486811
-6.56777000300877
-9.13702894572295
-1.36708552953386
-10.2452873790176
-6.68178109153471
3.88257279571286
-2.39124317781937
7.06270322992565
-7.23290111002584
-4.96727195824262
-7.11659649310066
-4.39975362558281
-2.69997812357225
-4.66639473919484
-13.8117874744029
-15.1170492906923
-13.9995197555252
-5.04324509439347
0.174996627536063
15.6537268670912
8.32231551865325
10.3210992664616
-1.81526148122515
-3.98835173529176
-7.70229882700611
-5.8700638813314
1.6233569186964
-4.45276555367746
-3.85430987264346
6.80336517243976
-10.8719373333858
-15.9233750696275
13.695687286405
6.46724805135786
0.98446356575118
-2.15139709625948
1.31560947603476
0.0363995855510451
10.970747247338
12.591889563486
-1.66757827777334
-10.5722381558555
-2.88265509361583
-2.65827347773825
-7.94803087916929
-4.20371523839319
-1.49171135014181
1.82189302319261
1.65560395216013
3.04009783511166
-13.0944111722128
4.36109412447004
7.02121529635211
4.15022130639428
-6.35751656799344
-0.948778940135393
-7.90018062423739
0.788544944744698
-3.54915629830051
0.537758325383453
0.32530072625795
-1.93124749469781
6.95370337100318
11.1372893567613
2.52054717352125
-0.0629527760260757
5.65759762586776
8.12054017706445
0.400519187088851
6.05086638241277
-11.7730167507295
-7.09642440253254
-3.38073594293863
3.92715618348733
-11.3847139779988
3.28470419327644
-10.8728586440498
-6.03329914292632
-6.84805830296717
-2.93817108714019
-6.93318007446424
-5.10956902472345
-14.2067572475806
-6.03489657437655
-17.1556924016118
-15.2522850952372
-6.57145681324087
-9.64862942819524
-4.08432410212109
10.800639431991
1.70425725515697
-12.3155213308652
-9.48986333227944
-14.9303845270905
1.70665697167862
-9.89049719445222
0.238189903708928
-5.82409751399244
-19.1821345171447
-8.00520351323575
5.19932719020667
-11.5928875382482
-14.1955403726598
-2.06079148464328
2.26588937013898
-3.40658973530532
2.59910680008395
-5.43446483796389
6.90928939980544
4.15775267028616
-3.35167891374286
-3.72053878041461
-1.89556522156344
6.46505610374139
-8.32995889759149
3.61209849434686
4.97906328488723
5.08317577421146
1.6675618921073
10.7845172874702
-5.58738744632072
1.97791042146392
4.49165912690807
-1.91021010293189
-1.94912119420787
-9.08846949612048
-6.59829182516796
-11.6250264532006
-1.0421708811969
0.567298024667317
0.391345836530993
-9.50843496244885
8.35926429393546
-0.666134960298093
-5.06990069805314
1.62985442531138
1.20255433792077
3.10135517087096
15.6032329861703
-2.56503462524539
-29.597287002597
-17.358605455622
-8.15975359254366
-7.83267701800398
-2.25491583357418
-0.361646035745565
-9.79814519506932
-3.44115470223458
-5.22463965665718
-1.94698355839363
-10.8971412856755
-4.77833630605731
-13.910664859264
-17.2574921369925
-16.8366169296679
-11.719708823756
-12.7664961276226
-9.90828737090828
-15.8197591963178
-7.07667835055866
-0.31338840711904
-3.68017549112992
-5.42128358848928
-7.47838567760831
-12.469597256705
-13.0548671745994
-1.05961396422559
-2.39982777401467
-9.52737645384957
-4.78562676080125
2.37031161703529
-1.16341726535165
-1.14269406907606
-4.1021975318532
3.88473325938989
-5.30278634000081
12.2061942659987
1.60846294933225
-7.93187276643043
-1.24734141712387
12.0217544415816
-9.82457612322055
-11.9062525182082
2.84595304664146
-1.02765158948014
-1.22089651258512
8.44245507436849
5.71386550817565
5.32742216687385
14.904185871833
-7.24189717041183
4.37886777617635
1.59425357702549
11.173135745327
-7.57242401740206
-6.73764993445716
-6.30573109301888
-11.3231564785852
-8.20930438395537
0.456872053863228
0.574707814574037
-1.62270502641067
8.9203199484943
-0.847970918683217
-5.36963580460495
1.50102925626713
3.69325562736427
-4.21912476694324
14.1888049370787
-5.22620099861549
-22.0175251760658
-2.77426078508228
-10.3807821481922
-3.58461333042545
0.13633168098046
5.45959651227969
-3.11055408510201
-3.49672191681608
-12.1840279666325
-2.96679308786134
-13.5452909846442
-11.0300839526154
-10.7064138165257
-12.3273230524643
-18.3068544299134
-9.80532514563649
-14.3590285807772
-14.9071756251401
-19.867767264311
-5.05517457327176
-5.55229865131065
-7.30794638118855
3.89483029487038
-5.38053239833704
6.6292883545428
2.90206900351372
2.51596765758951
3.75326723592094
0.494310094981469
-10.2411446233917
-12.7067976382686
-2.58148965699904
-2.21925276600852
-0.324160028510758
-9.74127786333692
6.51795357337486
10.0800578993264
8.14148676583815
-0.104012231181325
-6.46301291461537
12.0450944385542
-9.46479601377105
7.72029441798294
3.2901986338844
3.73037403856846
2.58286355946753
3.40481437043021
21.7251587388477
5.66624616781702
-5.29983878071078
3.37465285779016
-5.18223068401947
9.86974488481506
1.65192502767914
-9.28506385779585
3.34129545820897
-10.443594429248
-0.602353614931795
-8.2944318850888
0.384100970281483
0.363596497254385
-4.12343022120616
-3.00938649260401
2.50788485344099
3.76264178101975
2.86050683111883
-10.3287068700146
-9.53136786653485
5.1997120829538
2.08063392287965
-7.9152855443813
-4.40450296818043
1.36243294307189
7.5166681521531
0.338603851143285
1.3794164067737
2.51649196246972
3.78952817594769
3.00997028855071
-6.82867779019832
-3.89695391350751
1.30022687329353
-16.2452512426658
-16.6287493357381
-24.9542230483625
-9.15088436680223
-16.8464697099234
-9.02924941929161
-12.6599493564304
1.75263433523614
8.19253594855699
-1.92617859570902
6.02662499577941
13.1711159366619
8.10188385705916
2.77859555369296
1.09398206007016
8.19190682068158
-0.562903778347162
1.40011602982966
-7.6000025426964
-2.94691698797696
-0.993104611724705
3.28524054011602
-16.1262895618815
1.40619216145771
2.03386464813859
-0.599690883194417
-6.67179665537757
13.3247165542712
9.70132218661755
-14.030940460113
-0.997028491553708
-3.80751884671748
2.14938947567462
-11.5888145810135
3.18784768207027
11.9375734982207
13.3491435215024
-5.6638314409483
12.0794301759371
2.53181702483242
9.69832931339592
0.154598503331151
-13.8436802023905
-7.00069150896804
-10.3411785920111
-4.71202149496219
-6.87033428480205
0.550900600760593
0.317708078539123
1.39960749409848
-10.0926972115913
0.543759046516284
4.49682535952469
3.08900848191886
-6.4909729108262
-6.80448579970046
6.91881649856992
-1.7701667122862
-19.0834812604201
-5.17779198172951
-12.3724234657602
-6.9521813733031
2.82330649910883
-17.8570898379682
-3.61602347954617
2.40032843358221
-0.108797035192898
-3.56453420076012
-7.75457839689927
-5.04496658779656
-16.9532997489753
-5.05192886635701
-16.2426999600763
-12.8378736708307
-21.7558362576641
-12.3749283937261
-12.1288823386734
0.578029801814594
2.47841998233301
-1.68943778544466
4.0351118701707
-5.1548670929739
-5.05083860993292
2.90512150573969
1.65691097426908
1.4329975250099
2.58347457333484
0.972660657573232
2.03037165913983
-1.89072496484681
9.38169088970129
6.01289753438389
-1.53249180806978
14.7850331773353
6.06645221146722
-6.60344147820126
-6.41500012112093
-7.47685652402909
-1.48785802327622
-18.0509461671804
-1.99205428359778
-7.76213552999977
-6.42326490928281
-3.88691503131707
3.41181857161392
-2.17946406972095
5.63670420884417
5.9212052630524
3.6500211136851
1.62470706299144
0.438642748231986
2.44061193633662
-11.4256119040965
-9.39131124458082
-3.91545365187997
-8.89777914195517
-3.2730688128564
0.736503922519981
0.418986370126576
11.9707533472518
1.76326130504849
-1.02951223949093
13.9909548530503
3.29630600716215
-0.607644267453559
-0.936186115151665
1.93725296358203
-2.71940733167648
-22.3749407507084
-1.94704836876732
17.7483155350847
-4.7285391315938
9.67143929717817
1.13891187571889
-5.94315272461707
2.25064033249839
-1.85532963445672
-12.1666600111352
0.893008164925463
0.188937612630451
-7.7466767728119
-5.4321703574373
-20.2397271816548
-11.37371488739
-9.3373998429806
-7.52374726329102
-0.3895206690713
0.324231454770311
8.00761261046422
1.67803609973471
3.76828879253422
0.857760504024879
0.103309940864158
-1.15314943057725
7.91521982322964
-3.32708154854633
6.76808549012999
4.22917803834704
-10.9866472095419
11.6874650389706
7.57380305628657
-0.657308140691737
-0.265048729317564
-13.0642525163781
3.52116721190562
-1.85128546982771
0.415358601801003
6.08207796601552
-2.2274676571538
-5.99009848859002
5.60434430294773
-0.765843237685435
-2.72124881974212
0.937998250893328
6.10258896976894
6.78895848130962
13.9452139710272
7.27269211144433
4.46217228100929
7.72214032826909
-4.20353628455583
-7.62061105623454
-14.9773304633783
-3.20787388623102
-1.76792557399246
-4.17406785211077
-2.26722777047669
0.53013777892266
0.552551594108268
10.3516426844945
-0.763995369881099
1.28729672916264
4.11368561444612
-1.67109277196994
-16.7595780136963
-2.37200628868085
4.88578880583939
2.88374724815262
-13.9455848295166
1.5750494704051
5.27344129616685
10.0766153004453
12.8698463296494
7.74943541094859
3.64983947180557
-8.63165792630753
-9.18988497727681
0.683167993917328
-5.57821220188748
-7.6631296202203
-9.55498309913023
-20.1695763997275
-12.0121366649642
-18.5621547793544
-1.26712381673774
-5.26127454219291
2.05959921400113
6.92121952653117
2.22871277883106
2.96175592895673
2.02605653668651
1.824998700368
4.53214329592713
6.71502584774808
-4.43010813425144
2.68866368194637
8.2904355480103
-3.25469381345907
-2.70406012689778
-3.8657663041659
8.24752072646034
-7.94093559125471
-10.3732188727516
1.74832121277678
8.51105498507232
3.09547548077311
14.1897573309324
0.228271197863309
-5.7329019579685
0.681089245769469
-0.745137222505275
-2.37178796260063
5.36425268516332
-7.19393738067954
3.08632263930246
19.2757982338164
5.95949060880573
8.47500497707967
1.84736438511906
10.7208880473274
1.60286714920311
-7.39604846658125
0.999358158276416
-5.57493363926018
8.61640290928164
3.4364567536736
-1.29463268737122
0.355226976099072
0.510166576526436
0.873230250414729
-5.41419098351453
1.12555813010214
-2.92401862273881
-0.0963817276244683
-7.46978016027979
-5.04201528465003
-2.96014938737295
5.9179040337818
-20.0387964585763
-5.00718636421202
-3.80856850813514
-4.13406770936735
-5.59364957633296
-8.15261543149237
-1.63583175833307
1.51480361475206
-8.31942234150986
-13.3515430507684
-1.85198093487303
-9.91179178964518
0.0460771309784026
-12.9390190794161
-11.3322506479722
-13.430091991046
5.15794658826323
11.3672023423892
-1.21874887675856
0.345440238094316
0.276023876560361
-7.94140685185094
13.0653123167649
6.54207483583083
-1.56361036644218
0.247264777019183
5.75956702048791
2.44737332825893
-5.56752051255766
11.8518924109129
-5.85536086581259
-9.88127959403161
0.345208131670697
-0.182689138478672
-6.59778392121871
-4.95448658013327
-7.1059319403181
-5.58473154067444
-3.47061576327704
-5.34574045855923
-7.57901530448152
-13.7830387941471
-16.3719363213319
-2.7467220433045
-9.77407226811754
4.63364955344375
13.7679290615434
10.948623498339
12.2848946660456
-0.883547694159138
-7.58551802905474
2.81060096169901
2.41530311672177
-3.54456085734024
-3.06890896977396
-3.44482382713164
-0.140142588846428
-3.42799867064874
3.74668834398194
0.620004313995993
0.596032098060026
-3.51373981144025
-3.3189979255185
-7.34713041239847
-0.789389995627473
4.29378416560254
5.843103620833
1.48579681712146
-1.39758294340929
-1.94696424105999
-8.20823857412157
-2.26313441476091
0.370116618175342
8.9218829410715
7.74070138389157
-3.16051822100839
5.92272842956906
1.76044037612673
-3.18685944222483
-8.33561646394397
-7.06491859949681
-8.96940749292161
-23.7918213230643
-8.90647563586651
-14.224535230479
-8.77143622401043
-5.09863874355045
3.74846886998135
7.09738637922332
-0.483186615478222
-4.72485351011872
0.992592779988813
1.86607998933791
1.29105505587652
6.23678784447158
-7.23143779502102
-10.765873179665
-7.42857281335898
-3.75106630030789
3.60184493304
-8.28851779823847
-3.9553900278251
5.34639481924854
-8.88091284433968
-7.17965688472179
-6.2886708284112
3.49526958634259
1.55254313695233
-16.4658754475773
-5.91394310360777
-15.2513859576191
-5.04709651881687
-2.40996356915786
-8.37455839810572
-4.88486960237382
2.07796106959485
11.8550027813719
17.6375050557662
5.62369074765876
-6.83844575733231
4.49991960606267
-5.78704314005612
-4.62803431639034
-9.9571577422726
0.602709503055571
-5.80278372913919
-11.1727550190854
1.28724568945748
5.6916111842781
0.557145904842347
0.476916387241698
-8.93183629099817
-1.50991610256486
9.48816182690735
-5.47548964127532
11.3125997380426
-2.04358578325025
-0.741710444202927
11.5355695117855
12.9000622634329
-12.5569356899098
-10.6743544751978
-13.5797988310943
3.20052703954131
-5.04153596868468
2.56276751088661
3.06961753929838
-0.162109552038943
1.30734633413143
3.08091324231559
-1.58337853038793
1.93979359018525
-12.3715045020371
-14.1894028806953
-4.78878813764191
8.9267085101322
-0.0232931334829859
-17.064408244975
7.2684108823661
1.03448229031923
-3.31215721368901
-14.3214208564053
10.8222035081248
7.28550720983225
-1.65499005803283
-12.2716124525591
1.09747627192708
-8.48199877666138
-4.92614844738145
-6.8978929633058
-4.29019256624972
-1.42119988473
-12.41180675678
-9.82006085266247
-0.661732615163528
-3.72465395792634
-3.76209772188013
9.1038800540205
5.8852562429101
1.23149149772485
3.291084781766
-4.65546012261969
6.51014058308852
-0.712334741523729
-3.04450805149845
15.2820012534803
-4.23471562093238
7.47299407988496
-3.54947980011028
9.15032889273834
-15.831191576032
-4.13539551735969
-3.38166911831992
-7.02719442986861
0.710391396856805
-2.82217024222115
-12.7792751816576
-7.8013136962734
-2.68341665042836
0.707362284954413
0.454713111179482
-7.86643648862722
-0.666407478447035
6.49824459926912
-7.27373887669041
-0.585522039686041
-0.860736654433956
-3.34238917117953
-13.9357224974091
9.48989852896228
-10.54144529745
-15.8629798327881
-13.4789539626247
0.874000780388512
-16.7551157791091
-5.95304128487461
-0.175870696157419
-5.54372321098088
1.2652590952306
6.08192432994325
5.73333964800509
-6.4407177956185
-11.9946970273303
-17.1242072896483
1.29665981274512
6.89577293841156
-3.6331724584705
-2.33204372979398
6.87473393964684
-8.26893870724298
-13.2409949629527
3.78841863058157
3.54830110753578
7.08788279556312
-7.1614208770376
4.08192129005679
-5.61288508911251
-5.38559928242091
-17.6059059113454
-10.7347170668857
-10.7675565868324
-16.8210626814183
-6.02335023651362
-8.79569803133399
-18.6364603945141
-5.49698887926639
-4.39671769791061
-12.9061612346608
-6.75563144028508
-0.346126052292662
-7.97580197696483
-13.0329454006344
6.08712280513221
2.86556314639507
8.30009339288646
-2.10707185684793
9.62954411273521
-6.44892739720649
2.59908157297831
-3.06906671179322
-10.4758046070981
-8.37602906993029
-15.0130384467329
-3.6086770072957
-6.56854675571718
-5.54241183111318
-12.7458938403822
-2.18507437167256
-3.21054611412459
0.468726371624783
0.415320580045833
5.41768970747484
-1.82751067199953
-5.50352182027046
2.58832459418855
7.04326377416225
-1.6913819214083
3.06503986059892
-6.24769211458397
14.599001534464
-6.69256629151508
0.13095480587776
2.05362786378109
-12.2532785316931
-4.08150751312953
2.57040285768945
9.44678136812902
-0.661985525054531
2.41398012145778
-0.84868337067299
3.81916282905936
7.60144808782402
-21.156292710591
-7.77551040024355
-8.60423314940093
8.13584955376119
-9.39749489417173
-11.4278643662883
-15.6036537337421
-2.93265447119092
10.3649278682813
9.25732439868077
-5.04231998574896
-2.75615040779499
13.3782564733686
-3.91816695648242
7.36040451892077
-7.91111293906214
-18.6095317752111
-15.8461185937628
-11.1077689916301
-7.62831208282735
-5.57569431826627
-16.1781590250091
-11.3168133661336
-10.3912407325122
-6.2754377168387
-13.4681882070007
-4.85567834599895
-13.2295701954208
-4.00727126808094
-7.41332693686642
0.0745081105125209
-0.554697241374233
5.73513177999361
10.8524802838498
8.83106230877886
1.28700449862509
3.69946805013793
8.21395262577804
-4.72375463379055
2.21488536910135
1.02830440302895
-4.8996867481844
0.500162255945912
3.01772079566681
-4.66097963520108
5.01317941072536
1.08829079860734
0.56307688316403
0.355773091111336
3.61657424250991
-6.97859635396229
-16.0806715353824
-9.22631476078773
4.73411072838557
8.19192401702223
-2.26842627766148
1.59949458543076
-11.3298201626735
9.12545206701364
4.88078125199571
10.0214393059271
-8.99923260881287
-19.6500475409602
-2.17455035589822
9.25121961469749
11.0349836823432
0.0786375654098062
-1.82400722328149
4.05147878594211
-7.123010605426
-0.820676491410847
-4.10192183494087
-6.6296455985532
-8.99895562674217
-12.5123793905915
16.7628875234738
-7.41975807668997
-3.00203985553159
5.79537280785802
7.6228657859698
13.6275595883232
7.11512712051371
-7.81838746064716
2.65977809778288
2.56690234732512
-9.8939142259566
-14.9790491408193
-17.8983857410948
-18.7010319294575
-7.85660908700683
-7.6287402677918
-15.3320889582954
-17.9511880343533
-14.5764237912402
-25.9162822626136
-7.68843284687007
-10.7525747432576
2.95444137431039
2.35736834739745
2.97621729823703
10.6622138641741
1.25320708985545
8.73343785130159
1.2275709629712
0.0593471680321727
1.92401298937238
-6.83620916240835
3.29667868197537
3.73433491898169
-1.06392695755035
0.938508880304135
-1.51575723326028
0.602287614071647
-5.38183037064207
2.67487438246988
2.79651618338004
8.16813935160545
0.323399672571908
0.54445993377204
5.67955822660571
-2.48367530813273
-7.43591214276925
-3.38876530449455
8.45080451326117
4.73745848173941
5.07531438678918
2.05637427823068
-6.63904305126895
-11.3083955938704
9.40037026114432
0.928091898482643
-1.97833878838201
-16.5657758178572
-12.8009227375125
20.1953635923383
3.72855462242361
0.189339187991247
2.7933539532285
-11.6142838213435
-3.06873577193402
-3.59653668339438
-7.54890048576032
-4.47862965267162
10.9547696741423
2.08111303543872
18.8246352866576
20.5270438571035
0.192166023114783
4.96222695553596
-5.67080195777508
8.77855791996326
-2.89064690544644
-4.04465372933779
-11.852141055397
-0.726890341246956
-8.41028493447882
-24.2835799479507
-16.4884716190735
-10.3751767464582
-16.4928241619177
-0.921487787062259
-4.88015291116679
5.15442992484249
-14.8601530157211
-5.38309868237537
-9.95532967777633
2.58114047556558
2.84264644645956
7.78888166149419
14.3844023908269
13.0792061548952
11.2836411596022
-0.679670101341892
5.53269190158045
7.22808881770498
0.755828208307943
-5.02118566204575
-6.73147597600259
-12.0067365651314
-3.98573004194564
-1.57007985965562
-16.4210625817246
-3.30201577577064
-9.54691345692551
-7.28930178639739
-5.40505098805713
3.01782785318721
0.479119274716249
0.63445841769396
1.27835510097317
7.14903348005464
-8.94374368771772
-6.81957564744534
14.8592303281233
-5.47265387751814
9.27699791764187
-0.781055853957003
2.31381799358291
-4.03007183611026
1.42106324841181
0.535080978134513
4.37402640897037
-2.13295765948335
-2.27207170741009
-2.3049638108212
1.78991930323444
-2.17608401472865
5.79653397084671
4.73006589476859
3.04605024110129
-2.48596876129581
2.01337319257606
-13.6360830113394
4.41864618697479
9.50829407481906
20.1204590183758
1.57276964146475
1.41227789868827
4.05562639477641
1.38870783342764
-4.05039232097093
1.71789502395777
-3.54880500205855
-7.23692567775548
5.60952237840714
-2.15494230446671
4.97394617415824
13.4934081775578
-4.93131726240553
10.0308978060694
-10.2070940207727
-4.35917252147262
-3.21939763793065
-9.59364108218957
-3.83923857909958
-6.36965151590459
-0.116738108067696
0.292739101543614
1.63390077790836
-5.26592272132825
13.4285048791943
12.5350254700453
5.90700476835403
2.89333761321553
7.67726082849096
8.26511950268302
12.5699603586256
10.1029917937916
-1.84098732917469
5.75516057570597
-3.3018347765156
-1.6183482573299
-0.279439056557226
5.22436834899434
-7.9415378793713
-2.66337484361848
5.33166867069415
0.691378628984665
0.264512464807055
-3.38185649616899
4.30951778180688
-7.15191819197934
-4.5595768299499
5.53993707758164
0.302724131503354
-1.83288756608192
15.2853088289919
12.177080355604
-12.6596281787063
-1.09242124745559
3.68240553186936
2.61569349808945
-7.79502486039481
1.77921334012917
-5.21659962612075
-7.51526789250688
-9.02270234518251
2.90009391978988
13.6171979368796
7.2897333582213
9.33327138419552
3.18418607847727
5.42907740213789
-6.72345336695402
12.2526988111338
8.14722286755697
1.75505925949445
10.4325907064335
10.3096329200556
3.64605883059018
6.14515816831702
4.5141208781561
9.62079463838535
17.0081173143326
-4.18437089660741
18.6605112777599
2.9550751700479
5.68527944602254
-3.447562873339
11.2724862441049
1.3013481825335
2.40672685910317
3.3982405413292
1.25809882516766
-4.90115586049196
5.67151504568613
14.5908952607596
4.68327050358868
-5.50966978709126
10.9409102795415
6.86991832189093
-9.01374936599732
9.70247827618686
-6.77865965549688
14.8047404527867
0.22700894244896
2.15116116039189
2.93240940407982
-8.65394804809014
-4.05845752498934
-1.9881089087489
6.47292849181769
5.49334630153086
1.20731229626886
-10.6810805384953
12.3270518534352
-0.373420194476746
0.55016862941677
0.529062458645751
0.0686887460993299
-11.1109434290479
-6.22284244398972
2.96115391258082
-1.88316943281771
2.19347577234039
-8.67176091676249
5.69777142435193
5.31442257666635
4.33324031818919
3.73007382394378
10.3715468518443
11.3176197473976
-11.5779060598136
0.782014741359751
-5.78000659196154
-7.13669080087032
-0.450570681689213
9.74040655492873
-11.5099287014649
1.67544563673564
-10.3454677493552
-19.1218917185534
0.576632367192573
-8.51330672074506
10.8951448784442
17.334896774911
14.4190740369944
7.9542337590933
1.27490090009313
-6.83037763883563
-5.66444053094501
-4.34233803065259
3.10223146311475
15.9302680983028
-0.654861343409468
6.44022484591813
0.883221438537632
6.46341782160573
7.52961517779476
16.2786365873061
6.71997451298878
15.007687709592
0.390453102544958
25.0725536416035
10.7987213676841
-4.72371254981898
4.37606392948671
9.271404702413
7.42402243698556
8.17067967447219
3.20556750794749
1.50449650058283
4.82416375581886
1.20372443685104
2.46929604412938
3.6196904229088
-14.1701113952541
-3.26745861787326
3.15145655759453
5.02070764150281
2.05571867434865
-5.04376915719435
2.89089985542949
1.47756299602059
-2.16222239314044
8.62915790552342
-4.16720154459044
0.407107181195083
0.873186859884433
-0.313944525469825
-1.33010724558101
1.95783596043698
4.55657091929643
-0.757238869876609
3.07873961585536
-10.5464858750636
-4.25416249012082
-0.0818998698374385
-3.0825195143713
9.37153143005248
-2.72446541914096
-3.11810359609448
6.02519795303419
-6.48173559495271
-9.55468310932921
1.35477252213012
-4.29166550079786
2.98395679471473
-2.44075401798843
-6.10657045460856
-3.05115252830126
-12.508509175846
-2.26268710977304
-7.21909891308874
10.4935638928281
8.07962575721631
7.75760069829648
15.1565113661355
10.3334896292331
2.05207554615897
3.53933123260059
-0.421613075255803
4.75380217430039
13.6435088176278
0.174310440247212
20.3744658365556
0.619196232291798
-1.32117818287559
5.57711774411583
7.61379482932639
16.1017093304465
5.77068106197433
11.2725521778016
9.28566992821565
7.28360997444674
7.76000410747594
6.92282252820293
-3.73888143262162
12.8529410501131
0.963157409974086
7.19084373725257
3.39902991028528
9.59416963005522
6.78977196474686
-3.67947999385197
-9.08408835274776
1.05844576375521
9.87185590011679
0.186838626070059
6.78337173494379
2.72704583773269
-13.8621849098281
-6.89996534959199
-2.99451194766022
-13.6892643399539
2.99309760716301
-6.48792327315431
0.673108268443813
0.427423940195559
-5.11612340455775
-4.20659659545844
-2.2430236514783
5.76154781012646
0.0140604068808176
4.38337917758881
-1.09925176613454
-3.27852539975134
4.91999957378619
-8.61602362359326
6.13109289688303
0.807060316924605
3.13639879952074
0.646954980375261
-1.11654331941325
0.533006623000295
-9.71808553609391
-0.831223990776667
1.64768538412961
14.6383065328173
-9.06675691535905
-12.8323307994964
-15.65350550909
-10.5223388437162
-1.99027541987286
-2.14795241679373
-2.28608471569351
6.07855220986
0.449701212733892
12.6796138211071
-1.08655573631392
-1.05803463376697
19.6137443062366
14.9137881964782
4.14760586841173
13.7773693945609
10.075530808342
3.36881755516238
4.88741294428504
-10.6091420790886
8.40748511681426
-1.23506962717445
-0.822300219923122
-5.86463229022325
-3.74227019991859
7.11534183050096
-4.31915573364899
-5.81616428855346
2.89357341796832
-12.6981923504342
-10.2642661796961
3.9199237713363
4.02653695543682
-5.55907347723375
4.56910372926475
-1.4775765575377
-5.86069103058815
-6.3025790287184
-5.91583600856483
-9.86811959516193
-2.72725599637946
-3.95319818179818
0.471231878774065
0.0196280698264555
-17.1205229317475
-1.62166763573117
-3.99375016192742
-9.42534951283965
0.465528754839987
0.718746884375905
0.182098535431214
-1.62969795190639
-4.04124596636396
-9.2764685668937
2.3745626872376
8.3860683632458
-2.76088297621384
3.41053926786895
3.38887245970902
6.96719006449431
-6.97459941935579
7.01536500071028
3.2186194938944
-8.06432701058349
3.13531710142234
9.83307878894516
4.4504122624201
0.224143659508786
0.865963138231088
-0.00955926711502393
0.716437513430087
0.102296864041197
3.26255793191477
-6.76688956608515
-5.30710743453097
-0.223860081274219
1.54843561329808
-11.8698729478556
-12.773187779626
-3.52293907772747
9.71740006346847
7.51570691022573
3.90894819401914
16.4329373593332
16.4390892092304
3.37645703169603
3.34372088715347
18.6628427083925
12.5672751856271
7.70547705395127
10.3681433801096
11.4421230072998
12.8524688187882
-7.15378686145076
-0.518485369851892
1.83487850592087
0.93169915516248
5.79375760671822
0.41590774977178
-1.01849066120475
-7.162468881511
3.2780040592367
4.53182154040735
-4.02610613131749
-6.03841991795621
11.0823164542228
-8.15878398386885
-8.4310697623705
-18.6497082768801
2.26598635983881
-1.87025368909063
-2.09201266778552
3.16126646875059
-1.4242624273908
-15.00356630723
-10.1009504637694
-3.6061449820941
-5.59739299950875
0.480116498758883
0.704399157130604
-3.42471077160511
5.23949663443195
-9.1390057692943
-6.8213921851654
-1.693475507939
3.98126778339473
-12.4328739499287
-1.51112903944151
-5.15889208468103
0.0659359498751126
-0.27860640348294
18.1535621146422
0.940527680747124
0.952472395973748
-5.58755066974494
-5.10859223341985
0.543230213219055
4.64427521928112
3.56389520866102
11.8177158565829
-4.1180571424863
-3.26536203783866
-5.53873573385375
-7.36864235455423
-9.46398898559298
-8.70273188999889
-2.02294381769813
-1.08986607102292
-7.88258030169587
6.98456309907422
3.75701211217879
7.17984952225785
2.09184792909144
17.159886907857
16.9463025055216
10.7679602546921
6.03248085365503
0.0526884880221923
-1.34994566930974
4.75825171476989
5.58004063953344
7.57355704645289
-4.36659546001072
-4.6981605389066
-10.5871741553629
-5.86792082382999
-12.053822196841
-4.17019364016034
-1.85247146376891
1.4747302722119
2.91588982697815
11.2656152225227
-2.44324171418426
5.11414650422226
-8.97135742259194
17.9053457644457
-1.91752864120755
-4.60720859856421
-5.2149740820437
-5.00311474905597
0.326533491605512
-2.62481405848761
-0.380768823410818
0.173843999476051
-5.74183744414818
-3.49332440680501
-6.7616388231805
-3.82374077031003
0.606461460265396
0.356154731569322
-4.31903160384172
0.673088315410714
2.9913287582577
2.455782341325
1.13769955296257
4.05285145910238
3.7753805244394
-2.04596508808047
-1.94433811798395
-7.80022522257426
-2.00571093295278
8.81381838894994
9.30082214439112
8.23676449615533
3.83282966479018
10.3211319537426
4.5358992068102
-5.48163306347632
-2.72189839039492
0.315247364102187
-2.09686865521044
6.31369966828599
3.63184107933458
6.40465381052954
-1.35289294363966
-0.130662739874621
0.429622641932698
-1.54509298700892
-8.91879711532732
-3.89717773298102
-4.64565508559523
4.07124857225319
3.62804657167719
-13.1746060000539
-1.96564714103269
4.83883845229295
2.77597082908401
5.72446767419959
1.58382479445006
6.2984390778454
3.59723551270444
-5.21930306869433
2.43022539339003
-4.71907343664473
-12.6344380777017
-6.37581118904273
7.65910155582192
0.973818823351599
-2.52415965175138
-8.65886631125342
2.10078026378719
0.371788303333946
-8.39024043975973
-6.6112731693957
1.40939678908278
2.46992712654455
-4.30341306346298
-3.66619715786635
-15.1483665760577
-11.5647604241092
1.89034011793021
1.04197760414194
-10.645749702918
-2.05328951257098
10.4201382713325
3.74775733288798
-7.1360401912455
-5.99348522223198
0.281429545481029
0.353714395212435
0.621269985059553
-6.33062100388348
3.81339766009578
-3.57854662041423
6.27475558538231
8.1973745819691
-3.90070543818041
1.92813512097984
-5.47542642028667
4.89189669757086
-0.868101630612098
15.2196561203619
-2.99376023179923
-1.80284141226111
7.97484238425847
-3.65946172427901
-4.84866381347154
-8.341108218577
12.5517270454148
11.5410190101177
-7.44342457315653
-2.87955696097374
-3.06708942648123
-2.6115276853669
4.15901041981084
6.12709694482026
6.04061192897114
-2.59576176121371
8.79069725429887
8.10983721358159
-8.46192010991794
-2.07849058617899
2.20830306044157
-1.35498552645026
3.08953206520054
3.53759443571933
1.25328027694913
16.3075693338747
-0.00487486945751572
3.08042450262482
-11.017972060623
-14.1605785684391
-2.77279371179415
-4.27600033347043
5.2462341277554
6.39120884570802
4.37118379095872
2.18088309489695
-3.08256292799813
6.4208149540131
5.76860557497069
-1.56672803532061
8.34039277382475
6.78591462009286
9.98242014815517
0.0584929355467867
3.9131923629144
3.21762481627669
-9.64563359795374
-9.81842087405236
-2.46317206046758
9.73371320775438
4.35578808205581
10.8069812452214
-2.64049674412551
-4.03083947589521
-11.5196769670906
1.1506114353564
0.573881310649143
0.41746288956859
-1.9973512720074
2.54589557730511
0.910361272526123
1.36416255997168
9.12004130810259
-0.682586604870525
-4.34904921148297
-11.2919367553451
-10.0013731119127
-4.32497478752687
6.05181207386383
2.44133238781678
-2.47894163342897
-2.22044432936235
-6.13699497402031
1.03129906190703
-3.17852948481515
0.431871481334853
7.33502694772827
8.11213354785148
6.5299387872017
3.54831691751933
-4.64404804917526
3.05023809403581
2.51761208616124
-1.62540389880471
3.80287242694417
-1.01332945425684
-10.3113311524498
4.148473663236
-7.39513934649992
9.9952015277123
0.706589811960414
-0.74793872050776
-4.50972460278846
6.79072531044319
-3.67813680693752
-3.77107419446654
3.2076977586195
-4.99942236613421
-3.4816534444119
-1.78651245736944
4.42744223986536
6.42247941282622
2.93029736599765
1.879361161899
6.43896321878144
-1.41714245585896
1.5807261866589
-9.51235074721303
-8.3392277901024
12.2414019534412
-3.02040292773449
-6.5406976038138
-6.05137703417149
-13.2784669106048
-1.75812178953306
6.11611291934264
-14.4197106863803
-8.4710025267177
-9.58734761592511
2.62703338746124
10.4081660376986
6.68063917789797
-6.70322921193274
-13.98602535033
4.19410172912988
-3.22782181320754
0.377499665779196
0.555707355141871
-1.67288315907968
5.80441101238145
-2.06244740513209
6.04437663028652
3.39460930844152
-0.727760389839858
2.88895160025204
-0.225004265993542
-2.98442374662638
3.95557809621751
4.04077447348967
1.41359293529558
-1.1191784780477
4.28576983650833
14.2665338667885
-0.672562628480794
6.77711456922618
12.1214990935334
7.74930431922837
11.854172294485
5.67388756115958
9.32413892698342
-1.58355682180518
-2.55990549343064
8.61682185924188
0.815299342288712
5.98872030151161
12.5041553379184
5.76684524693034
7.17942317594054
-12.4502087424229
-2.95884588306028
2.37938182725793
12.9777729775176
8.41059880163389
-0.678597646228502
4.62663929387161
8.21217968692375
7.81612636833134
8.9624452316434
5.85043771418127
11.9997713506495
7.17266272846003
2.52332811133031
-9.08792539918313
-7.29398993633289
-5.90617951862811
-3.29767624483757
-7.97206407603188
-7.88430108566239
0.533267961120613
4.76551783880268
-2.35277752334996
-5.03120133212162
-0.759702465475102
-2.68641943079696
-4.48085567594276
4.37862231388409
-5.2671444190736
-4.13386744779734
-6.19545146292364
-4.33164676197031
18.1207074623004
5.23207569140014
-6.78941625957692
0.0399497929849151
-5.78855827081489
4.52737947308813
0.4156738593651
0.640833998659476
3.93533250476229
8.84367997468193
6.05520980226118
6.9639420656599
11.3545835372901
4.15898467766827
6.6952921852917
-3.03730382468529
-0.575361307083053
3.93379406440769
0.0990903857115441
-1.37949907892518
4.65148197521523
10.3919044011952
1.01949842316086
3.14286412294323
6.29470880171736
-3.73481014213388
1.2574254149463
6.7533895635162
1.60831885310019
1.92606026668972
4.47768489227621
2.25747540316718
-2.53963658672849
6.6573758602422
6.34327017434505
3.73433310566415
5.02432310585148
-2.31549812636652
-3.58704923276532
8.26627888373191
0.413270224688228
5.67123429253731
5.24022539406743
6.11960341210019
3.40092428914406
6.90013700403279
17.4784473751335
8.06009968184251
13.5740811682119
-5.93792609851791
-1.29697017982309
-2.75717794998909
-3.21882781147757
-4.12306191868195
-1.01923723524855
-6.58068324360544
-8.81584002217911
-4.57671520153509
-6.49034856977656
1.7824676334028
2.13841000987955
-2.9773736253793
3.77654155940643
-9.031609948759
-6.42127156418329
17.216452351579
-1.63216407921252
2.04283142271133
-5.22710397581918
-5.06261323834924
3.63822603881144
-7.50531567070122
-5.5872031179362
-3.30430213308106
-9.81399492179737
2.66942370175358
0.502616104818602
0.406270337765248
-0.35209535355995
3.70639775288669
-4.64819745977913
1.47049026249588
9.47626588616824
2.08482170215858
0.243771671526515
-5.46297250375213
-4.34739396849576
-0.358252197994811
-0.443196006903069
-5.44609694410916
0.375445439037902
4.2544262507763
1.72530693290371
9.22204772937063
-6.69540560535008
-7.05023793578859
-1.8336831140764
2.26269394730965
-15.1526512446843
-11.4614551778162
1.41645341140223
0.629813609806948
9.19994677668423
-1.37437119821246
-9.28433062656991
-7.97075248917111
10.6108782576127
5.75573001806794
-2.33033225375011
2.2944958438367
4.94332710136607
5.95171173233132
11.4212384449171
11.2795686447312
0.568973792691549
3.18777687241218
3.23338346361433
6.79257224791571
3.20269925642291
-3.96383082621771
-2.71587033227838
-3.82959271303375
3.99474911826533
4.02747005822863
-3.13940726155706
3.55951616878338
2.14399276070949
-6.71235710746608
-4.87771967471566
-6.25337894969449
1.6549056184787
-2.32616028931339
-0.0240354383514228
3.69133313549323
-0.578607710874798
4.07152442418546
6.38620090257553
-4.14578742708566
-4.47841054450929
0.0818393228452726
-2.08223569055318
4.01407191926703
-2.12986991919722
-7.1332010243646
-7.12433136612963
-0.631406455665421
0.574711825471243
0.471331844150374
-1.256497576444
-6.17544639820512
-8.58195805100869
2.97049894102362
13.9206096320902
3.96215128638344
-1.20334414012197
-3.76917926556999
-5.06692089031455
0.349157099623513
2.35084662978461
9.31913629345209
5.37803004130339
-3.45185654618554
-1.53154937540831
1.51274641169335
3.3930274012554
-1.61012337094975
6.55897645956516
-1.79706995110665
3.29557087845387
1.68722545455849
5.80531829096302
-1.67658634850252
-10.7242239100012
-2.66046579496472
2.54041686696069
5.26743245152302
0.582413148041452
-7.93504246782408
-0.587020532680789
-7.85239012755431
-7.68289763786917
-3.26338936214032
-0.682717210767099
2.21721271492135
-1.08558435030051
8.65795915863704
-3.90210783159811
4.45936076848496
11.8835382909592
-5.27847925200394
8.07069149236004
4.11988521178615
-1.34116876919044
-5.75794839307854
-2.6695669581379
5.82775630712343
-2.50431467025674
-8.5292502125666
3.71899430680938
5.36511674150674
1.70025536744455
6.77055570209387
-4.39088861638294
-7.40832476811575
-4.36648903477886
-2.38400088773092
3.57261327267888
2.66407596369096
-8.62632434366848
1.51305826842427
-2.28768127800258
-4.23869665786509
0.608559811427617
-4.90356844921038
-10.7144711544051
3.50089657080954
0.418721222200016
0.335707561317249
-0.836289516843215
0.557503495893993
0.694183467692079
-2.03856363573753
-0.577381521993211
0.824907937676741
0.741079538015075
-2.02538759049507
-3.96891866502512
-1.67875977391129
8.1472648253337
3.29209189099776
0.972970079384735
-7.01777342743925
1.48168239545181
8.90039725494038
12.5603751029403
5.09918724157307
-5.56611412354335
-1.16199671987448
5.73057106641264
-7.06938385016749
-1.9162567282416
8.47257032436505
9.5669560549122
3.26949363059055
0.347294251329257
10.6419921397233
6.22446092035634
10.2603857132001
-0.68882427299804
6.08629846875209
7.95652694197431
10.387982309299
6.91197773808568
-6.68815117037434
8.99477823387474
2.78053137106694
6.16409363906448
5.77106607286101
-0.0113604105160537
5.42130645747734
2.38149898950896
0.780872278883799
-3.14952934240273
-8.75915843329247
-2.30279664923459
0.783176569983213
5.81457011299251
-7.04110713426605
3.78971617602252
1.53337663418998
1.1760352550343
-6.53240907593582
-6.3146354715494
2.43151291655119
3.52622100794952
4.93691637033863
-3.94315493380301
12.0296763329951
1.76555714998128
-1.54481413382768
1.35011620764381
-5.53603643485709
-7.13568539620074
-9.9188587578867
3.13730443306063
-6.93556143396955
0.49008095955339
0.497976170871269
3.40870042757751
-2.67936779345915
6.54948240212704
1.19982623993642
3.23338420439938
-6.32089328311936
-2.1794798896521
-9.0426748118531
-1.7290877062723
-4.45550079247787
10.0082562319896
2.52758137874913
1.90041256711576
1.91412114568556
-1.87982494609038
5.76898685788808
9.16770123306882
-0.702137915356239
0.700070082261095
5.45240082600807
2.9333238754663
-2.37128943719464
-3.15454992286222
1.57755180165534
-1.01154705648814
-0.831111720932463
-5.47186932682034
2.85545861479767
2.00415544073835
5.08248199301936
0.288678691266843
1.88857435754502
5.29115499711614
5.98117404867288
3.50267833594303
-0.923503475271327
1.38922864806902
8.97885744326913
10.6840406688788
4.21535500662364
4.91253953449222
6.16529548447396
14.1747262804407
9.31509197707216
6.50615604618544
18.9867007695511
2.35369180052611
12.9582333957961
6.37380640371106
1.72137746967875
13.4440234920258
7.29975033303446
0.314194729047523
3.91024649749626
-1.6306765212036
0.841686130554175
13.3984765613766
9.61580670825436
-2.63546852656883
10.2381957770034
15.2274687673103
-0.733646461922675
6.23787657108256
17.178002857472
-5.4949257112298
0.0144570113436211
-1.46305543678769
0.191336352656622
0.461682650732527
0.657952976769675
2.04638935177784
-0.117153340981732
-5.12903749305356
-0.521861118952409
-4.68529517647689
-10.2508936664525
-1.2872818448859
-1.12490107241967
-4.93958603771117
-1.68279881263602
-2.87103112531152
-4.55357112802478
13.0979707040999
2.5355424689142
-5.78523523944974
4.49136464473926
3.99635283295834
2.15923156521359
3.12063522444258
5.50380028262622
13.8698825968367
5.80794281426702
-2.47808507226646
-10.4474435628786
-4.30274047342773
4.54380371442569
1.81300198592532
6.91118065938496
1.72255179853407
0.21323252770168
-7.05095539013383
4.22747826550344
1.75375652299073
-4.74995950887102
-1.98672610698809
-2.41618250886334
-8.24395124978873
-11.7443589370897
-14.1285774150143
-11.2515310634753
-10.3023831495476
-7.5479045680086
-9.75901386988773
-11.1381490713746
-8.30802061353681
-5.14094884536365
-13.8835054563361
-9.09651588306311
-7.49833493236108
-17.1330293580796
-7.75798569979694
-2.32730869064276
-1.29498968207735
1.04997533972188
-3.54353771222623
2.21012400227309
-3.17145934710577
9.31587640866148
-6.06442895632684
1.83070339371548
13.1110777585383
-0.786956614364426
6.13606445125419
12.2351639755503
0.179938516811712
1.76930073529568
0.375390158648263
1.86057157194288
0.358319946638311
0.270123433335722
-0.0295721532065068
-2.12495297250148
-2.66179542071036
1.37182222400373
7.17678798158174
-8.81706047515595
-2.55115270378881
-5.87281487761848
-0.316313050422727
-2.70950988759236
0.522162759531399
-1.85422457537822
-2.81222352731952
-5.23652510678767
6.79214886654997
9.2180170581507
-0.859039160763613
-1.15799906935955
-1.02248616731059
4.62467628443411
-3.41004193797936
-1.60686262939772
4.82015399921578
4.29991048917904
3.67606352402909
1.51047232835623
1.6814830912667
-0.991660150531399
-9.28266444177705
4.84623536468431
1.63395224575455
-8.37099022158827
-6.64733569566236
-6.72473920714299
-7.7192859680335
-0.224057666177286
-11.0438595555243
-2.18411348907237
0.0689742917288713
4.2053664431577
9.07076360739628
-1.98772948298543
-3.50722619736573
-4.83803714949598
-2.43200145044194
-2.36581265297054
-4.61223259243813
-5.47288773136302
6.61632720778636
-0.845129055888996
-5.41173959224573
-3.21038897727826
-9.6865251410374
1.80686625971379
-1.25659493272004
-0.398492777655118
-11.8811834033239
-2.82487673549139
-10.1762489219683
-8.8567835026095
-1.35474425857343
-5.30552677726682
2.52449887833296
0.173945770775439
-2.55895432645655
-4.22755022964458
-1.05333746909836
-1.17853820238713
0.539410550215929
0.526933990213306
0.570342410803423
0.444381567016855
0.706350964481364
0.475821228793407
0.586795092323837
0.601085004918693
0.596479198848488
0.482851704264943
0.496640012671813
0.435988708149663
0.664907917696362
0.752036615313217
0.449201674849244
0.504832442897158
0.441556733835341
0.465732111509216
0.615639704789933
0.309127328811801
0.497833298833628
0.373251690606897
0.569981419238615
0.549319600682141
0.618828870170231
0.581551524003675
0.573614890418707
0.4425512116285
0.822749371571122
0.548045001698318
0.432666536618743
0.41360931493935
0.572483749848134
0.364243021194556
0.675628192649978
0.388130480056468
0.245897455453524
0.31122788767354
0.386334972842295
0.821731361157581
0.559039925094825
0.64116315277349
0.297731837277299
0.566207431414542
0.607394686125708
0.521435826302615
0.605206930586851
0.584491666196407
0.330179594257158
0.433863180086561
0.778117328383663
0.352951591212038
0.487779508928532
0.503727122727043
0.372652329115097
0.46336401978639
0.322114082070716
0.198242739558556
0.725086468851917
0.293791938599436
0.44109022158519
0.424020463125253
0.681097685082759
0.470470512223983
0.364198383439414
0.457564381570274
0.611336904562296
0.468981510067481
0.303827904561537
0.473516071682428
0.598943791847618
