1.31791612356791
0.852787964393161
0.975367623336118
0.874059097395806
0.998745130718381
0.130618226119201
0.141601681728479
0.240409960972527
0.355493844696416
0.560983730645641
0.822074875954921
0.821017769767355
0.0450845879681377
0.603109824338824
0.955930044427504
0.257885139618927
0.455278570558027
0.0750297139708573
0.243507073926261
0.5370944258318
0.0636856845432054
0.311896113567775
0.503096663044813
0.568147198499669
0.191216084395287
0.946783986150203
0.855788219976292
0.581172682005956
0.580302877267763
0.158079206841287
0.70375560702383
0.512133217328062
0.848030375216529
0.828812920916836
0.165942756165419
0.263578389721678
0.694468952276984
0.157620541305029
0.59532226429663
0.84532379176684
0.880013095364877
0.152493475596338
0.875270905662528
0.108691209777197
0.199154815309405
0.209923120822074
0.752657891699418
0.704959144926708
0.962123843542379
0.198404832100899
0.0483711095501085
0.64174623427036
0.621109345678455
0.0481696787642059
0.630761200169164
0.696617543432862
0.527678832605612
0.903263156146714
0.73566440478909
0.880314492876914
0.424201781658889
0.204691543591844
0.368944491064142
0.41949259585929
0.98080076164819
0.581097574501371
0.972591765143927
0.722852800517609
0.612202343618859
0.0756864349578523
0.411357421952462
0.165602121694277
-3.83003308349577
-3.08229202193429
-1.84096804896859
-3.5264879047437
-5.55465665433693
-5.21357591584154
-3.0229300419794
0.390912272339777
-7.35593650604828
-3.08609307441093
0.180390276100482
-9.19038082057571
-5.42252314012181
-11.9868638452876
-5.74377562033239
-11.4182528819628
-11.9611132536304
-11.3043229208821
-11.9873100411411
-5.82897766896438
-1.42675754170751
-5.03220907950912
0.68109220695206
-5.54106488320865
-5.43633459844424
-3.27198762224351
-15.7570125210627
2.85097250633027
2.0610886904008
-3.41730903115807
4.51007561412981
4.48557550387708
-3.84270883414458
-5.70017698075741
-1.94923633077865
-3.98912668502084
2.31702378733806
-3.15002066924509
-3.98044508105896
2.30158314230098
-9.61378096082034
-7.07140972369606
-9.20232833293286
-13.2831402959904
-1.64941485319785
-15.7598364999305
-9.02887453483986
-13.1973023728962
0.206961543789232
-11.8019265404359
-3.25543571815935
-5.27233014444294
0.472329555315707
-1.55720943235814
0.987787870498602
-9.03005643958361
-3.77446577205237
4.85557759452409
0.294572333275155
4.59952878087483
-7.38086494720185
4.69674900148173
4.73868950233915
6.42393376576453
6.23381054391674
-1.7967479457485
-7.43269846331523
-13.8199384449032
0.732676624311987
0.729925518988276
-9.84617144847222
2.28979628173979
2.71379838856939
0.313117271235097
8.0210785000774
4.99860365690554
-1.47332223381624
6.12717427334078
-1.70111294467672
-1.13374519355052
6.07532902839663
2.64403326720863
12.4391216588991
2.69250640458847
4.42567718673065
0.743528607086589
4.03300170119252
0.828394659836553
0.161066942546809
-5.32157298272745
2.70083001633438
6.86559551825811
0.292880717860758
6.20983916084138
-5.65318774282995
-3.27766039166611
4.06702422677962
-3.10627734052339
0.234956153121102
0.60519097318719
6.76195078763245
-3.66352471938792
0.0964409207876091
-1.20824606583376
-3.74013725419805
-9.04644121878389
-5.93949760454126
-23.917726262631
-1.1739666292788
-7.48026413204047
2.38290322923156
2.27963475239999
0.764683285689227
-3.51418593169769
-3.30405564114209
-7.34329828842061
-7.89524755177646
-1.90320804616563
-5.78125045837151
-9.01638445707687
0.710053096074637
0.618485413444397
-9.65011986598898
0.168570692905816
0.927827965722694
-7.90686897368145
-5.04173594145063
10.210198907658
-1.54497887322687
0.241931624698173
-3.65030074148763
24.7137472866415
4.07382699224653
4.58794840777393
-3.86004757346676
0.219800982235237
-1.38433362912078
-11.8082598780369
0.702042072792022
0.796328646791914
2.00462457318819
2.60250504523795
-1.64721266314945
-5.44556340420201
2.02466093598631
-15.6926490668003
-3.97345464667932
-7.09702128332688
-9.98046016062166
2.25562707055052
0.58959007019511
-15.2043683203913
-1.41397685664947
-21.6805355216257
2.08622602064677
-9.62341719127696
-1.43637530783838
-1.48822721201994
-7.33426901290651
-1.3314887208533
0.591012663030689
0.227061176715067
2.65121833891241
0.155337695103021
4.90853732305381
-3.71194947678941
0.862955069118945
10.6776862889982
10.587250175344
-1.07878499339169
8.06100095542162
8.57756020904673
2.3514066351825
2.9281681263887
2.41964279285618
6.16335482366252
2.23346356904883
2.02631447935285
4.53440820079939
-3.08756335813237
2.75072450873209
4.48387233899678
2.66555396508324
-1.13459362043478
4.34239021854166
-7.93568754827929
0.163216050031298
-1.82761660959833
0.744958496222129
-7.64141877273961
-7.68695804354745
-7.97484675799795
0.994115478033547
-1.97929662135464
-7.80245629662657
-9.84366651885697
6.22875670904028
0.468345862746816
2.81897823898384
-1.13062272178027
0.807216769724804
12.4799006940877
2.09414159694611
14.5704836165593
2.57831939008246
-7.33205746446854
-3.29860508897235
-5.8089729313396
0.170166416252051
0.111178541711599
4.28296996123683
12.4733195149656
2.73047171559676
-3.96680528620566
10.5539736053933
4.56737905249177
-5.71361748273392
2.50720024827009
4.36259596244705
2.62957563401517
-1.46678557004121
-5.77028288977894
6.52461795093319
-9.09796664688818
-3.22990980775582
-5.45405708649106
-3.89127825210583
-3.42367973318752
-1.12350892518894
2.62550947612168
-5.96693577389652
-13.9232500871265
2.99872569208244
-3.78381311729667
4.0566470427796
-7.37333529420713
-3.16254935585102
-1.48364586472422
-5.04077393406586
-3.87565028701581
-3.92416900402193
-15.0157976555033
0.106384924297988
-3.03360160919721
6.37888787457065
-1.56693578174599
-7.19413000826614
2.39503749648708
2.94654933634608
-7.25290505880596
-11.869327413109
-9.19479886907971
0.88700666970316
-11.7631364437116
0.329924856692136
-3.38014195356136
-11.2924907591384
-1.81066305569419
-3.84753910828187
-3.52451633206187
-3.36643606231698
-5.8387297416114
-5.97071733825398
-3.42364336614231
-3.93050695370905
2.16628432245244
4.06438206624107
2.98934522209436
-7.6582418576423
-1.48645194652081
12.388699528349
4.31275441941819
2.24707393335801
6.09103596313847
4.35999400319021
-7.54690341701385
-3.48450250519868
-3.52798685050509
0.605344515649834
0.576910216364773
-5.28759615371289
-3.78634355660377
6.85115901825287
4.64957118718682
6.40670694171024
6.11902147715317
12.9155632053517
4.72320700614326
8.06202102388635
12.1361386675809
-11.0569437990466
0.631184324434527
4.62954971820044
-7.09109352432661
-9.24354062942164
-3.19121732553133
-1.73544880504078
-5.18808667266331
-7.30550604245648
-9.15569330936726
10.3006434885153
2.83839903458149
16.3095229505654
0.253851375977139
10.426666422305
4.7134780851189
-7.2984721309689
8.87155597567133
-7.77093673545574
-13.901238394323
0.248141702910088
4.77974744657872
-3.73199354751456
2.36727039047336
-5.67447851323266
-9.86743601609338
-3.02924309525046
-5.16484964509099
-3.30706177951014
8.24271905806317
2.03278599329126
-9.33732172178798
-7.46354466241607
-11.4221332744841
-1.41089093365722
-5.81582787484404
-3.01160510055185
4.94363726389517
0.625755134251653
-11.2670919792212
-5.2289591603138
-5.666566676987
-3.22453294402207
-17.2269284638149
-7.89193517819013
0.924940027737131
-3.70855423377943
16.2100421015286
-1.95557353510162
-7.92320201836817
4.23340074758796
-5.45120087423306
10.0780269113815
-3.8814504575152
4.88713306554397
-9.49590099049601
-5.18339991348237
-1.68435982723251
0.954712455032592
0.904700313821444
-1.17460303023442
0.201116812075541
-3.97246611468454
0.684079815272234
-1.13217938755803
-9.5611820502818
-1.56469675251808
4.80680721937817
-7.76748097004413
-7.4484629767084
-7.17292862131021
-3.38629022799489
0.126285546559183
2.92654718960083
-5.47216639650798
-9.67560190982414
-7.94186886387703
6.19732078385456
6.10839464078306
-1.1751767327369
10.4100742515321
6.50699651330081
20.1789517062189
2.24257236976901
14.0437457251303
6.0510689995307
-13.7540104765387
0.878739380376245
-1.19500116270776
-15.3374074187801
-11.8423341926439
-7.11291276579057
-7.91974095930662
-5.8602400750738
-13.363844002565
0.759878022845755
2.67078536060398
6.51455251099432
-13.819930488582
2.39566724753888
2.35469461825124
-5.98507306063086
-5.21258805905188
6.41413047967615
-1.04025427222503
0.8283676144874
0.485070805625146
-9.02072048180748
2.38647102245246
4.95473651135338
12.8225184772406
-3.92168326120285
2.90252754815599
0.763634957407781
-13.6493884457744
-3.39561632331677
-3.3975889166868
4.79724411941638
-13.8619211707075
-3.14947575722251
-5.59939604308997
-5.49997286988833
10.6953601204304
-1.59404226338144
0.101968797575375
-9.33016556701119
4.441472848719
0.933813875390753
0.0767176542674363
0.297373970568606
-3.88277254448774
4.28840024402269
0.941619782592516
-1.38793739203598
4.07877359032413
-1.98583021948941
-5.68978806242634
2.28739461175744
-5.28670480759475
6.60367504982286
-9.09175681086099
6.26562672941761
12.4696197523848
8.32698574824443
-5.5893589395871
4.46612056649685
0.532825036148409
6.54240926424305
-7.49127275117651
-1.38754798224505
8.50852241730771
4.83133588081272
6.4009183860392
-9.72999683418475
-7.02521492802465
-5.32632031864591
-3.27114801864587
6.15787978147307
-7.04859337987913
-9.4141214260902
-1.41692040926147
4.73638375599016
-9.1200674714308
-11.6777041877353
-1.1243049452592
-9.36056928875501
-13.9313989927767
-3.9000326594912
2.00300642575016
2.09339049452372
-5.93086133214936
-7.84808017329332
-7.22056989552445
2.47186502431506
-9.58211341168082
-1.93201732112683
6.97414657015501
0.241529540288512
-3.03657630675597
-5.62091605328061
10.4368083695973
-7.55718678568771
0.126258088455058
-5.59467005823145
0.447948319250415
-3.97551307344631
-1.57781077028645
4.50327645716087
-11.4057202080999
4.45218665480757
16.0406499722809
-1.89770883547574
-9.70740055145652
4.56459950335475
6.6437166190256
-3.40750900003804
-13.1972037956932
-3.57379263525114
0.431975559818653
0.14956106055647
-5.61163387004244
2.20268435310748
-11.3457675851272
-5.58369684528953
-3.8998552746961
0.0849311932871357
4.45393392497333
-1.20691048878557
-5.55526417353781
-17.7589800805283
-1.01110935515571
0.00959571574085416
-3.47524680041949
12.9346637065712
-21.7477319783116
-9.56649322151593
-3.63513537831147
2.56136080247406
-3.42125880555682
2.82814623389643
-5.33248462435002
-7.39965572897443
2.77067909643635
-7.09235357368675
-5.34536294507371
-3.99695611102805
-13.0789013463456
4.29653487111949
-19.9462468637716
-11.4907496981861
-5.07114316484642
0.455538242204594
-15.8394650388723
-3.0169920056043
6.56876680191245
-1.24882911759492
0.0960031141345299
4.72078961215195
-7.56505922705499
-1.35128786087118
0.336890476906177
4.11891988747744
-1.79636443341708
6.2617897443196
-5.95716243177626
-17.1354613236479
-3.66843209408325
-3.54297752394737
-3.51401545566909
-1.00684757037654
-11.8202459012421
-5.89405615474581
-1.72203527440015
-7.40630180521075
-5.81563436757986
2.55513755902794
-3.37712964055849
-3.05492263039015
-5.52724916249973
-3.14736054562961
0.318771551879085
6.93533697849932
-11.2614893911992
2.44256851421749
0.884585587369523
-17.9344487161997
-5.15319010637309
-9.06325616840451
0.55124479649021
0.258381017393116
0.823916308998587
-3.54514062454818
2.54168370875275
6.78083369943705
0.789535296302916
6.96663446936123
-17.6760301826
-3.66890338543774
-3.87011403533765
-11.2760894437579
-7.38937005940293
6.89639847827468
-13.065602588456
-9.03401388253049
2.13012024730319
-5.04066090281957
-5.06846785381966
2.47019034898929
4.58931648815598
-15.2283064156231
16.9619095341131
6.47849754398561
0.862842281894473
2.00852187701549
8.72866655223451
0.384872695726473
4.28506965739721
10.6885988463149
12.1711136915372
6.43781169833106
14.6804679562621
0.00732058144542691
6.0799592631487
6.31648814410049
0.623985260489765
6.88132567593229
-5.06925207700241
-1.588548468398
-1.42003962983317
12.2169446860195
-5.87316495478861
2.86409801060011
-9.30139657989019
-9.86167280793355
-25.1552094147561
-27.5661707755297
-11.856003903528
-3.14112702195949
-15.3089529739346
-9.27584296879346
2.18619706304738
2.71840070443988
-3.35120822523594
-13.1451869564578
-5.69010199591098
12.6942944268581
-1.64359559630941
-1.43810573566997
-1.14767726311437
-9.85540874644737
2.94865808907951
-1.59180844103081
4.50955678082466
-5.48565517427277
-1.71464477326684
0.808752332175033
0.617711083823391
-5.73023234603481
0.374990239851359
0.411753604053965
-1.4789930864287
-13.1328151997586
-13.7872516246065
-7.37529651024826
-5.03791208659967
-5.49912304337629
-21.5434388034596
-9.53841277411384
0.25990974868529
-7.98282428643635
8.97037641438718
-5.74880174965125
-9.01121446145438
2.3375136797583
0.0308424814381674
2.27291241632991
8.27783630019649
14.8363607758495
8.30287614381145
12.6696166353943
-11.4658714128871
0.585572017503835
-5.16390927186748
6.2782038590205
14.0842798114266
8.92464598613477
2.0237089944632
2.52028732144643
14.6368040090904
2.24932124094944
-1.62978614103622
8.00985625404054
0.856554257270388
6.15105850204496
-5.43945271542731
12.9923853722242
-1.89866146258867
-7.35495561987585
4.30202672970131
-1.77418595401618
-9.94809260812069
2.53315463127722
-3.24617448062981
4.40739553308887
10.9069941891721
2.08930150201931
-1.85928483689833
0.440252848217787
-3.73719262939323
4.69817955313571
4.90910440056215
10.4430579824802
2.11041497946409
8.75784421747983
8.42496095125092
4.50872152494896
10.2768528701647
12.18349938465
2.46893651471778
-1.05902772949731
-3.51828265191972
-3.82509377666207
-3.55336680699262
8.82034664112413
4.70183654332444
-5.91366119077207
2.45627565424064
-3.75555980294626
0.446456697535282
0.706495197208963
-7.87535569800529
-5.02887065585544
-9.82832894946846
4.17573488955563
-19.3410052421209
-1.60377003451687
-9.95357785768453
-7.52160621283388
0.0491213833942528
0.603642611277589
10.0971187314481
0.434193634462783
0.920984737553391
14.2406886026794
2.3591928831301
-3.02054185832867
8.74566321827039
-9.59892557811245
16.1560299263632
12.9995893554901
10.7665465974305
6.38487702636424
0.293157579169497
-9.24372971579874
-5.72532256064132
-11.8546606292382
-3.52650213999803
-7.25279423580616
-15.0693375919061
-13.5647769443208
-7.43836989300552
-7.46976482549055
12.4285398833317
-1.7583938809866
-7.97601055475987
4.5132250386066
-3.79688611801249
-1.90535774583994
6.98299888518256
4.31368052357356
6.68640527204425
8.23967047651273
-7.54155872792076
8.07830788551406
2.06286604264292
0.818750313699876
-5.17517235928728
0.67365391963779
-7.15606304606635
-9.95924395005559
0.546284798956737
-1.81804208508073
-9.44719748565054
10.5757439355549
-5.50001523627348
4.3109680727784
12.0465158345521
18.223141455049
10.4943032025639
4.79720424480329
2.07126663585113
8.59173614882087
18.2268184647354
12.6229211705367
4.9912593716775
-7.61195374315964
-5.16007938747098
-9.99971968692889
0.490678701317919
0.225948877607497
-3.54684025076338
8.81548076378656
-5.17668477235777
4.13339032713931
0.365238481824152
0.740454652404966
-1.25172746853484
0.163626737711558
4.50665810825202
-3.79166326617282
-3.11955808480398
4.25640278622851
14.1113642793807
-1.19768552457557
-3.23627806932237
0.758669842573646
20.9351219919313
0.530579826071256
8.25813864378035
6.2207725074009
6.71709518436165
2.03708437405521
-5.48270501649493
-15.7046227094224
-7.67963308065639
2.67621576718286
0.334351041891786
-11.3133719360175
-1.45852713569905
-11.509151173368
8.29130351494149
-13.4115286736669
6.33507189141261
16.207226736706
-1.51159075169863
4.39258882046572
-1.43049370445424
-7.54796739578762
-1.51043870689687
4.69988020886057
2.32800597478117
10.4630733508971
6.351431569513
8.87495216146718
6.53741487901861
12.6338687903146
6.2976044171084
2.21773675642242
-13.1364189510338
-3.62903833611493
-3.35306517507319
-7.77465117747769
-1.19035040644903
0.367391599585699
-1.9240069447148
-7.34979657311549
8.17717936120666
8.20843841836599
0.729531403113503
12.3281277331118
-1.07663308576102
10.7299101399708
6.7016190364079
6.05145405053742
4.61200386850794
0.807844892862652
8.03111111534538
-1.31673236278476
0.2135093856369
0.664774387053984
-5.03935770868715
0.746067332863657
0.413498644265638
2.00701476006266
-1.63405145205052
-1.88284824362527
-1.46134734725199
-13.7881308580349
0.295353238003878
-3.57420487641743
0.282647721751081
-7.96698426012687
8.4798674606727
-1.87221082322806
4.95469904833657
-1.72705740557768
-1.28356547737963
-9.34236993046383
-13.2853344485616
-1.03386675228558
-15.4632037932021
-3.44964458344412
-5.02525478797028
-5.71702884734626
8.25189829763299
2.02786210047966
6.80736467311307
16.216454721964
4.51685914181685
4.69764840297186
-3.70836859461363
-5.70987680621478
4.37809752833679
18.8294842154292
8.88648228033577
18.3307225230191
14.9216804335567
10.7531358810911
24.3553495398991
26.9035771342691
14.6566985660423
18.3917570241825
6.64782360033193
12.2033502262081
-1.13204414522614
4.57333491342641
8.10535193905941
6.24873386229311
-7.14353600209938
-1.46375443418904
4.58472112828539
-3.16328013839098
-1.98166694466432
2.94268211289738
8.86073107160564
-7.23194142259133
2.69609143480445
8.80587177146626
6.09372284232807
4.1714237564359
-1.5690504204247
-3.31356213694822
14.1560576918179
0.787198955231862
14.0772804189206
-1.95969855195097
-1.19004230501743
8.48017906176148
0.317924130912006
0.378958627587228
6.08779723778365
4.8954156397326
-5.18349112143265
-1.05646601407637
-11.7837852702086
-9.91104610130464
10.256819031881
0.873468594230777
8.35422830023314
-1.99530556374797
4.84651746997209
4.17591819624145
8.23996874355465
16.7086664026686
2.7672048661651
8.99831596733656
16.0784415017194
4.24838233295636
4.86934645864971
0.543643953229454
0.9518290795569
8.67553088094933
0.133378855621618
-7.97680874713667
6.35730287117105
4.64664499715062
-1.36638559752235
4.56445636393084
10.2402343250562
8.41942575980893
14.3460895565386
4.51738564626885
14.8879490268287
6.47281365814145
6.81425309365843
10.5076130894572
2.7630432696713
12.5672507033297
14.1100146503861
24.2879319848037
6.69502491484479
16.1160981580503
-3.49344804107542
20.463089386229
24.7812881906096
34.0364649571694
16.821089089251
12.1120235537711
6.69729278915923
4.66188301598367
2.25574046097983
0.537904915327339
-5.37603835448768
-3.62991555370481
6.58258559171407
-11.8468957924795
-5.31561050684772
-5.90688104155407
4.1944532954535
6.79542416352199
-3.09896645644212
2.35920229489757
10.2909652914364
14.7815503985645
-3.15171400937244
-3.23742533785746
6.98957347984442
2.2211296942968
0.869192738825919
0.0546427227604255
-1.05851742663214
0.584734865344469
-5.55311596799511
-1.23265516237657
0.350087869636709
0.608697690920405
4.39250145703371
14.0431832100993
16.5892173212905
20.1299468962649
12.0425354205541
14.9437770303152
6.57007966087171
4.51562423544266
14.0750488014218
-1.12971465194265
-5.97042050437515
-3.61174117965605
-1.07275576942564
-7.9165893808615
6.97722566511748
14.8764609415551
8.5080313139557
2.5220854197741
6.24990762051763
-5.51949125231784
0.909159867233571
12.3005078236233
4.68545446810967
14.9605146024356
-7.31918544949637
10.1007728163488
4.68259745735027
8.16219493041479
8.93478511890808
14.0470448486669
0.474869769883243
-3.21249154565652
2.64952933818624
14.1361004461014
4.43281940403037
14.9661610302723
12.5568816750368
6.94524111659818
2.51491825334828
22.7973769671131
16.5873273041725
26.9227616529834
24.6938763484099
14.9828231800394
0.235329459076557
4.30164245671876
4.65542825634653
12.3821590987794
10.4219946911406
4.05688454968932
-1.05435362140067
2.10017569729106
6.21280931639301
-17.6951345356633
-9.84172546918168
-11.9492293571352
-5.7489140622757
0.883293360298143
4.25183396846069
4.66668128332271
-11.0919697090489
0.761683471216313
0.873400243035221
0.506593970116991
-5.35554535333824
-11.2627278288812
-19.8112366896776
-11.8416475540654
-3.35352678976496
6.11502700921713
-5.21351925323376
4.86207180568301
-1.58048390980816
-13.3358077731266
4.96575881596399
-5.16456266908307
10.5319370654077
10.2480827955368
4.32105297209042
-13.4465891449447
-5.69902846980454
0.537281217980723
6.5774239227154
-3.71713120384076
-5.59818200519184
4.15396598262954
4.23617059072306
-1.47824057442669
24.3451679169601
16.2548225219409
8.66806362211298
10.789559945346
8.11871347715701
-1.02353508081854
6.71565229543435
-1.48922912869805
8.89092480245719
-1.99405763466019
-7.97325741852599
12.4161990284418
0.267192601252576
2.05125247415184
14.2519327034189
8.81495322860863
6.71127882471778
0.0575867048853675
2.62880192517255
14.7416504707112
4.79857476640244
0.0732499820944792
18.7420644869254
16.0093937811369
10.7102699861515
16.7285306471224
22.5114780000045
24.791196855556
4.4723562244776
8.98662922993984
12.0904238935166
4.21634801332359
14.0056165321082
0.707505202898943
-5.35101556339529
10.133162672604
6.64890790734674
0.665094805443673
4.35323051201259
-1.09120823762966
2.67659237956943
0.473902295387745
8.75596254833557
6.85564987967856
0.510076284896362
0.537437981184817
2.62887057301181
-11.1855490327584
-13.9911418396337
4.79051113549745
4.66178425353206
-3.36285227646819
6.70076451967107
-11.802538359965
-17.396839330091
-1.95645445032027
-3.0629422136214
0.151900937968619
-1.78932349998242
-1.32502167407617
-15.6778023824912
-11.3695547571711
2.88032106258091
-3.48144345869175
-3.75182672150214
-19.4214067831241
-15.5166209307627
-1.06222909443959
-15.6924598902752
4.87255788492745
10.8305658637257
8.01724776601113
4.03364561316752
6.44140811344817
-1.52134560659568
-1.55731642083156
16.3320006676263
0.735859145167963
16.6313301532115
4.24631812250892
2.59279196253094
14.0226798193135
14.7849074998461
2.82339097263287
6.7453090290824
18.168383746322
2.75326763184839
4.12728439224012
0.212279717464438
8.12703915595244
18.0467957748257
6.75304272972423
6.18045893435912
6.13709111424712
28.9303011911879
24.6074671269994
10.7570305707013
4.61014416181268
26.5973830103761
10.4175980802958
6.08068360718942
16.4765233034126
4.00423382270239
6.381229670012
0.293936024993998
2.27025899472969
2.57007103746873
16.1602387721113
6.96003282464023
12.1942452126453
12.2149194183426
6.41643323433344
12.56512619652
6.57645406624898
0.700610631514366
0.696945975068354
-1.84604700789502
-3.72288936620897
-1.62500238934125
10.823744278079
2.99049164376757
-3.18027591887777
2.45704573429907
-7.90268467279808
6.81584679544213
4.57649529768655
-3.1768129526358
2.51741095868091
0.631690569822545
-5.0464855746852
-13.7399894654104
-13.2941565511671
0.420808475448694
-9.21329591586676
0.943548789197834
16.3069035066199
8.34416358786941
8.3255632525831
6.18168462397323
-11.6604427588653
14.2118720066139
2.43604360317432
4.67857520252596
-5.57272705560487
-7.6295111734401
-3.91388959685853
10.5866176351816
-7.04902594502063
-1.21486814226139
-1.94684090476086
-5.00463498091843
-3.26398692933417
6.28892061048622
-13.3554743783804
-7.55747111126886
0.802425262611171
-5.33167696311685
-9.22919712600402
-11.4414757593679
-11.5013206905885
-15.4901483029578
-5.88125474295571
6.87766426879915
-5.42294637886193
0.24413963123558
-9.55841271138924
-3.61590006354115
10.5445777628272
22.8000857487885
2.19326838911921
-7.00322057396937
0.126627647853479
4.62129595892036
-1.34833568025287
10.5602918163607
18.9549415895172
14.1681319310201
8.17392511775298
4.9799158749308
8.27665371311614
6.46654567898076
2.18506507684317
8.5123773225957
8.02682270592836
0.98480013135858
0.959857312533241
2.09506275963069
-1.88994423599241
6.56537223167434
8.36305575822529
-1.22765598182111
-1.6939550330106
-9.78616511654246
-3.86973735024333
-9.19000827523379
0.829631883004033
6.57121908786652
-3.67339495327808
-17.4745070601151
-3.98140385899401
-9.79652348545947
-13.8557884154325
12.4588893174389
-9.08040764624881
8.02144011893911
-7.03380149608365
4.73791556115629
0.943098477103295
-3.23400512891562
-9.53093354879652
4.14855121623795
2.36985339623549
10.5600048948034
2.91752827966215
-1.60729672710371
6.13510441799731
-15.8917897901825
10.0484540482403
12.6205514184967
14.2320149098061
-3.66672462022568
0.0682843252408789
0.786466771263097
-9.87282319823154
-7.42756005606789
-17.6537924140351
-15.8966880455277
0.449241338632952
-9.71700365666098
-13.8346004879244
-9.91629927977818
-15.3664063935145
-21.983685569969
-9.98960367075863
-19.4182352344832
-9.36288656649509
-7.70547089204247
-7.28553512382791
22.4561482676924
12.3061961827632
18.9407039413233
10.2169658520031
2.23272991971673
-1.63981476527293
4.15349273902954
0.630545176819738
16.1642391808633
4.24249919878787
6.82269051486932
2.18065984101749
8.03379074207483
-5.3445985971083
10.0636901051843
8.97939764641447
0.948271264689646
0.56077936424873
-1.46976533685511
0.801142398607286
2.45263796994799
6.5578427502304
-3.53708376735969
6.35844936690254
-1.42516825403942
0.691334031566646
-1.6630149172169
12.9281885933384
-1.7849409749278
-7.33148501002993
-9.07944072384956
-7.87400848627781
-15.445045229541
-1.60114777416972
-3.63538944046352
2.31277169055555
-1.60475129113367
-1.2581190864313
-11.8437060395806
-1.76329838593781
-5.28266708062689
-15.3873032424979
0.236775767311524
2.07476298575983
0.248466102451829
4.78273844399923
4.22264982589019
4.1016692251099
-5.9201153524611
22.1742853420391
-17.8709683650923
20.3660859508427
-15.2708315908903
-5.11362130862618
-5.45778644238971
-11.6165873781006
-13.1672259869397
-17.9499496214135
-21.0586225429069
-11.6801969752602
-19.651439703725
-1.36256748661243
-1.668061844897
-3.08627069601301
-1.51832889395917
-5.21651284856491
-7.15213811775128
-3.16332861055463
-1.11698291670859
-5.21319119594731
6.34295149018809
6.06814835096811
10.0846806234313
12.4587267510789
10.8921803096395
8.23281897562319
-5.03456904061602
-3.74123146637944
-3.94004082596045
-5.75568366864244
-11.4416790790871
-1.31477153999062
4.15026704642409
-3.33007348028399
-9.81655615754979
2.64411553183835
0.435201492712844
0.799754490262162
-3.17807713957044
-3.69355785383386
-13.6468577739197
10.7426362813493
2.9702469741075
-9.85626688946273
4.23184059800994
-5.85712627207747
8.31568136208406
0.759101687466046
2.3254587629525
0.207060335581492
-7.50526526453712
-13.8049077490764
-15.5874007352027
10.5888316474605
-11.4711769934173
6.49596045393797
-15.529927414424
-11.6939009260713
0.0268055124774804
-9.5034940144504
-17.4857107221196
-9.56404006011576
-7.22141881120726
-11.5953564493578
22.3450873495521
2.91011722485567
14.5108904319323
4.38994644053205
16.8748102506815
6.19017369882349
8.99837357376329
26.6004590245268
-11.5467072264162
-9.66204734108009
-3.629024035814
-1.94109626902168
-11.4750333489297
-27.1040153672623
-11.8407363358148
-17.5227383262398
-7.89039535069993
-9.61302417813601
-1.9684010736564
-13.2617382331272
-11.2236264059809
4.42768324881627
2.537531925348
12.0765642694386
4.39283080359191
10.7138107243983
-3.73199554671821
12.4972626761061
14.6486319415429
8.88960213892863
-1.02432278590596
24.6150762895802
0.844332356016437
8.23336274223237
8.71449992990154
-1.88617756213247
4.38448942611756
2.43794409838229
10.158606630539
-7.14398850544693
-11.725060403073
-1.84446401250278
0.796930109144868
0.942602810510462
-7.63973955608218
8.48538328114647
4.84321852056356
4.44432958472089
-5.75775662161545
4.663843945441
16.4644969528361
-1.80700696783379
16.7945902204677
10.0588185567393
6.60931232953536
-7.01454660777522
-1.82830347317822
-11.6940801731474
-15.1879242960529
6.06210072920843
0.90519059692649
-13.4033892825524
0.442203133112934
8.78285482443331
-7.83627921889097
-1.26757609795933
0.896401475028089
-9.57714086472557
0.659262941403679
-5.27479608088755
-5.74000273139157
4.47880043917911
14.4088393615762
-1.59018926548006
-11.4635180156524
16.7817898375734
12.8009773256027
26.4959108465851
4.31313029463123
-1.07521700072914
-19.0496424582905
-13.3477652273836
-13.9753975611276
-7.43887815773711
-3.84675309027654
-13.1063193873959
-9.92579070365037
-11.8927453197704
-3.02573567099021
-7.8529977633605
-13.1683277971824
-1.94548775062979
-7.59074967909042
0.863871563987384
-3.37256236956719
-1.78381169872954
-1.89111958439456
-15.5859080602731
6.12361097652588
10.1317407837004
6.00921977523943
6.6058033160831
6.82394198707915
-5.24155360840815
6.8595655731386
-19.7106794056775
-1.44929632869465
-11.1993230485953
6.14344334632962
-9.82098352621364
2.02099913417428
-9.19488887040424
0.670846867990172
0.861303354445519
-5.58724737937788
8.63369780932004
2.23721135461491
20.5226794337513
-5.81673465020525
2.68782133294977
-1.02282793567121
-1.83279223308009
14.2818604019878
-9.91961879587976
-3.99764108267415
-9.5139983096887
-15.3429354233109
2.20697247978938
4.0813790917502
-1.83381142830516
-9.37977085987621
-1.24073127447504
0.890126943667941
-9.51450751293584
-13.4928283391098
-5.86194062215062
-9.83547542173488
-11.3989651870102
4.65468648638717
-1.57012398239555
4.14789112851403
14.4906232461181
8.499162648595
2.04650962604849
22.7289811175866
6.31847477678978
10.7188935877956
4.48786686342342
-1.52682284963649
0.0717853570289844
-1.10785477771892
-21.008122031481
-19.6301074353075
-9.78345914759688
-5.50401737943973
-5.75722168557773
-33.0912688619592
-17.1977797802148
-3.79268319967123
-7.3174998833461
2.01637823297602
-19.0188753675169
-3.06828006315936
-1.66808834468985
-3.98710757384425
-19.9631183535696
-9.69981074983948
4.24651207925967
2.32393167290655
-3.71861831608985
-3.83126103809493
26.6743280539008
-3.78535369406046
-13.7186340705142
-5.72035445326746
-3.41653314555957
-3.03387081891415
-1.22558262347123
2.23419156899925
2.17674622060287
-1.324463068717
-17.5226194139203
0.606935622626613
0.349129342699859
2.25772719278287
-7.5152280892611
4.61791838862689
2.51964593504226
-11.2571501251495
8.22885322935083
-9.79112884849067
-11.1004132894958
-1.77635106428041
-7.54840721633459
0.530468918557895
2.77075035709557
-13.4132791610084
-1.13963303616556
6.18507152500094
14.2122701372932
0.436908724905152
-13.5596875402014
4.1551215480476
-3.57714862865221
-13.1998639646443
-19.5374717363707
-11.7756774612105
-17.9713743698639
-5.19480971423627
-5.78401826656716
-9.40448294871843
-25.9789958779628
8.39064352080728
-1.74298975366223
10.8915235955588
8.48176909284692
-5.76928210946577
2.41902228288308
-5.45839438034761
-1.90494917701678
-7.90633385282973
-9.94658265819891
6.68964024034297
0.227399442780166
-5.72672849595738
0.609371039950899
-9.93919145492707
-11.1015633260226
-3.10928096528148
-3.50534390096478
-23.7749554193637
-15.4922338854941
-11.9592006395196
-3.35450261655852
-11.3709609924675
-17.7792347598039
-15.4430728614736
0.949032868853789
-1.73825007470878
-9.79047754229504
-1.15811741763596
8.73099082508021
6.24554407730441
-5.77596080255549
-3.3142185390477
-5.86512966237193
0.569437333871786
0.13427268977542
4.19329205959082
0.678299188755918
2.66259675256285
-13.2489408224122
0.154085864013946
0.116819087837882
-7.84156840806972
-15.3638125511119
10.8174596376819
-7.31498541489922
-11.6885557818832
8.19034650364691
2.1846842032938
-3.03163828072134
0.0552782498307032
0.622830274858106
-5.9279006459209
4.89992246510562
-1.08960689027281
-3.60014610123888
4.03465496438557
0.404865953236872
-5.72849122962734
-13.5300154081741
-7.7060110052467
-1.32090887538008
-5.10127493896037
-9.41479479061311
-11.0676724946739
-29.2558318842287
2.13238241498826
-21.5904495098267
-9.49436511414362
10.8414349057277
4.17820073376219
2.20855282402454
-9.33841192100277
4.29452434374428
0.483977141525163
-11.335490593477
8.23769818442515
-1.61905429476673
-7.02836447039486
-13.9111885265185
2.04704104471313
2.81185883455624
-11.3396507991484
2.23614527227688
-19.8766530271845
0.861279483130723
-1.57081459938817
0.559880890130011
10.3646268618142
-3.14754900535057
6.20385712192198
-5.64431186588914
-9.23502439515272
-9.58246742610205
2.40631140729661
-17.8182580321907
4.53348420347117
2.47149029159101
14.7831129308123
-1.51963578171179
-5.41457062523972
10.3083011640884
4.1494622677924
-9.77374639555052
6.66986784783979
4.76019083542337
-3.10932082261168
4.05042796662018
-3.52618130089487
-5.84751335838211
0.0103083994211115
0.0629288300869217
-1.523578027374
8.1015787364779
4.43989054504623
-5.44096599769398
-15.296045855833
4.78140970085909
12.6695074077741
-17.9171653815285
8.37933037710294
-5.13757969082257
-5.08419975076975
4.79533808096845
-7.37378200604152
-5.60411295084786
6.06013130868835
-5.05655678594871
-1.84039745291691
-7.13474009757777
-3.44360959380558
-9.63186546115783
-7.41073070044734
-5.92663619990079
-11.5704723751383
-17.02471064377
-17.8926904859712
-5.47056885658939
-13.5919917038034
6.57466063095739
22.792231454464
14.6228111780182
16.994249750515
-3.59510935766549
-5.70331949515889
2.46326050155826
-9.70852001365919
2.37393589983691
-11.9992708190455
-3.07810668857929
-5.97024522868429
-11.2582382846772
-33.1701018700051
10.0219862323483
2.71020665674429
-1.21557687098694
2.67278067443754
4.6094613126709
-9.39770423071788
12.7080633785938
14.935744760217
-13.7626113461133
-9.64700268367311
-9.48347691900509
-5.39271414568748
-11.0379882140724
-7.19981834388406
4.87377583707282
0.685108825419512
2.5253365936125
2.26923583667315
-5.76160223636823
2.16387117770958
-3.38397838001328
2.53668619510248
-1.9552676451904
0.194242538113166
-15.5343820304745
-7.75815939063957
-15.2934925866027
0.103494320297937
0.122120496029175
-9.79293421548416
8.604328650234
10.3231084124986
2.94793072273819
-1.97283216130514
10.4921042913924
10.2245330082478
-5.63024809932582
2.38100423368815
-7.60301893614995
-3.9055013277613
-1.91954925607545
2.07915834355457
-15.6878618307747
4.36065053217344
-13.2028681340363
-5.76459497506804
-11.3229703501609
2.90413291807887
-5.4819086660258
-3.17251748041351
-15.5164407065131
-7.93446102220332
-21.0426934572944
-13.2818088641699
4.61141825349183
-5.49916742362543
-11.273905285614
20.7132285677269
4.36868359586564
-3.96150587326629
-5.34595866575601
-23.9303641759097
2.44858569816942
-5.25563617866636
0.877925610457755
-7.98155295245351
-21.1078716589552
-21.0900044108913
2.95710287967039
-7.51057437812369
-11.425676509866
-3.42046195304052
2.5058454923241
0.194561716049064
2.28260710680778
-19.2275414267908
10.8136036634735
10.3962976360526
-5.84194814389964
-1.41831246867497
-7.56636784881231
0.689250012253939
-9.13595934744796
-1.45278338295431
-1.40676669658779
8.46486152585708
-1.618939390514
12.1758086532812
-5.82053182045933
4.09025921241305
10.1833065355786
-3.19488663977053
0.669829264160814
-7.78387617710728
-5.9755094777803
-9.45405160275496
2.78302749060523
0.227636593524212
0.349724774913426
-11.4090310598186
8.15996880583736
2.40535579053309
-1.11463806831062
2.13267979137814
6.70665284141918
14.2086571868291
8.60628538311154
-7.79357006097137
-29.9131934723121
-15.6181575298217
-5.4661186714245
-7.75460644583588
-9.65262168683278
4.80289249905342
-13.2055088441003
-3.89229357084921
-11.3970830085508
0.945682768796027
-11.4158469565522
-3.75029456475516
-19.1871572187255
-17.1553275057393
-19.5141444407295
-11.0733780987856
-13.8721404245324
-11.333444923476
-9.76119712110728
0.377627179687065
6.90938826216396
-3.27898025320099
2.51039659604855
-3.29436666330405
-17.8485260675897
-15.8550149797489
-1.62721490049633
-7.37080310431945
-17.6666544589779
-7.3724042170425
4.29834318029205
-5.03721176002935
0.196386992034287
2.26492270982369
0.158214117790216
-5.15508212135983
4.09677616590907
-3.44742980116027
-5.08435501382606
0.402400816249974
8.94348653686461
-13.6480533048631
-17.1564226778401
-7.96225915657077
-15.4343040108246
-11.7163910403602
4.83925129664705
2.0170312484419
6.39047566314155
16.2644289348463
-5.04127909847097
4.82995092129968
10.0358118873311
8.30451869386867
-19.9735462368604
-5.50310248950515
-9.57942768721679
-17.1637317853825
-9.99540115555304
0.465754220950659
0.623587988891366
-5.85146467509783
6.39128732456871
0.906234965906096
0.0195294842397935
0.921989088933184
8.1295693848576
4.83841380610309
10.2893195811592
-1.00902252783855
-15.4719467859572
-3.37593533178892
-13.8736614873907
-5.64668045132949
-3.87802422825222
6.80778094456416
-3.8231492399959
-3.83425151234368
-13.4171563485305
-1.16605190495933
-13.2686991513739
-17.1402033168335
-13.0782594375301
-17.9948551403929
-23.9475297265754
-7.74653121804214
-13.0437929696195
-17.4077546899211
-17.8095942577168
0.9805665857613
-5.85785914036751
4.58060024960386
4.90785384565184
-3.26517613772308
10.1114310544471
-1.73695842985549
-3.3347472705742
-3.5256353894576
-3.98995899063698
-9.34352379802197
-11.348731945673
-5.38703342869607
0.205745335584072
4.62854093985209
-11.6118205329226
-5.34425092088305
8.76897939854457
-3.45270534271146
-7.26656541052042
-11.503319439503
12.0938599338766
-13.5088132160612
2.41263171735118
-3.54820388055615
-3.41832057997736
-1.01438884344809
4.2161611958385
18.3757305720068
10.9075287823152
0.561238860353894
0.544701799020416
-9.71783176100406
20.9116338964685
0.370634942900418
-15.5700070463402
-1.7309129773699
-15.1108700138617
2.61023682937354
-11.3443612643334
0.376180148909301
0.249219852265578
-3.94723808946368
-5.97249944065423
-7.50185475117337
2.12530746037834
0.44781737041318
-7.85498309695416
0.0904287398511308
0.2108953375309
0.367460089445795
-1.94364520450874
-1.69125314678966
0.60185529467734
0.386220702078583
2.21711228220098
2.54321612176427
8.52649165575672
4.93296707873826
2.12201842656369
-9.02763011632281
-7.54311689285006
2.14045972455935
-13.3378085045558
-13.6066224041242
-19.4167557273484
-5.34143190852446
-17.5063036864106
-15.198927053674
0.533696565457911
-1.89250586358304
10.8461458968751
-3.63021461848203
6.86846137229108
18.5722580727536
8.44840531635987
-5.08572145991094
0.884270632590034
8.29076585637426
0.344946289678107
0.248862983217162
0.434920156107047
-1.10739556822031
8.97525005769371
4.23943157198496
-27.5010135839047
-7.78508043967194
-5.8642741022522
-5.68304158976293
-13.4526173515617
10.6045753763712
10.4517945459837
-13.1545581874079
-7.5527405699419
-7.18202555440571
-3.54039038617404
-9.06796882943397
2.27283378097328
8.86231927827943
10.9044925146486
-3.89083699209108
8.24463891830277
4.77465108747635
20.4153246806501
0.438830126756553
-11.2063250148528
-11.0337062646266
-9.34528065466068
-3.35956499080097
-5.84383554459193
0.977329425589055
0.0618479375841871
4.33199844666387
-7.40251264426011
2.39529669406092
12.8713484744901
2.71624348674744
0.0488248317050761
2.80347343501423
2.69234564214976
0.450055826034642
-17.7873314144079
-7.8262625598873
-11.890156008325
-11.3665738084369
6.12561525171038
-27.8727178515015
-1.61500840068177
6.58513906161382
0.924048896360219
0.565887172004956
-11.0783337435439
-15.4077392193255
-21.3770288820143
-9.96930993126853
-11.5933884327532
-17.1053800688227
-21.352098643079
-19.7525139116992
-9.36607710856513
-5.98186536344923
-5.5571418087214
-1.60577071910936
4.73745430616391
0.0698138716341834
-7.10841284273352
2.97235566211466
8.94368018733185
10.3504140829956
14.5123614817082
12.5879263706847
4.12439124496973
6.47225549162744
4.16561190983955
10.2940714152332
-3.5502852512689
14.6091919507906
12.020169467809
-3.92231830271583
-11.9744975922279
-9.66603063247219
-1.78546440616096
-19.8099171507625
-3.1129739400178
-5.50371935356191
-7.46530005569196
-7.47329719801363
2.65193912984126
-3.31581085945812
8.90802578115646
12.0373488729392
2.53959462757664
-3.74368625987166
8.30554700260567
8.43411730977456
-5.01641895937328
-5.27945407817883
-5.11777251137297
-11.7511112340918
-5.94214709223255
0.342941982332649
0.864676478013993
14.5099623868065
2.65816742062488
-3.66167511577534
16.8633303106195
4.10932349669739
0.0404375811002939
4.04066226682459
-1.95208214189217
-5.51519142418833
-21.0627058860149
-5.63235510810143
20.1883300076765
-13.4668988237602
10.7431709646284
-5.10354784644249
-9.96833545452413
2.83581373875874
0.274774069065059
-11.5657779189154
2.94011412725219
-11.0098211719754
-9.93150227762186
-5.59090927544666
-11.456383280884
-7.72926059183245
-3.51210660679164
-5.49175108637133
4.69287433848876
-3.68620650504604
2.00073775343728
6.05918335919412
4.88456341659887
0.639849655955368
-1.52318553968624
0.196380189095542
6.85150867071276
-1.57000378751068
8.0198511853225
16.5740876300165
-5.63751407539247
8.69582684531188
10.2558228374174
0.592318310041978
-3.9219020774397
-13.5931703424918
6.76991227956982
-13.8200872752782
-3.66253255814522
12.1237006165608
0.151204917365063
-5.15808201495236
0.991590270453823
-5.51750034403785
-7.29256606702725
0.57806264536487
4.62568090506847
6.87414979862254
18.7618373486619
10.0844457294615
-1.23750857410934
8.96203210103229
-1.11975125171813
-5.31764691034478
-17.5817491624064
0.722931758957223
-3.0391899409953
-5.76021875797002
-5.21930603096431
0.725857123912238
0.195274596146992
8.79305562016974
-5.29944161110363
2.39845178583996
10.0478226346014
4.89421436066634
-15.3290365480068
8.73037766873311
-7.93263225028272
6.05888714497354
-5.36066251214714
0.568324314289789
2.85455364297586
8.69937772675758
12.8544748325189
6.59694508578544
4.99528494438972
-5.07648591101673
-7.27573208491963
-7.44081488165475
-5.72561233697575
-7.88265945617239
-11.0488470628394
-25.7020747222376
0.329557966165211
-17.3404874021372
0.2416994938028
-5.48371675979393
10.8588921991987
6.57142223089062
2.75776414939765
14.1041849385981
8.59640358255202
0.564358480153404
8.12485673704754
8.24055310025518
0.543607934063794
0.336599959320687
6.80257438163
-3.08121831791292
-1.20317103740404
4.86078347430375
6.13105381302232
-7.31788463131162
-9.645945934091
0.547849420815576
12.0466210732621
0.841781542560854
8.15989439630171
-3.81782095005607
0.484594255684584
8.51400935046297
4.53491372316263
-5.67955348471732
-7.8335850723892
-3.91692573301556
2.86311262489177
18.9652090362187
2.87117457155629
6.78550603238759
-1.60001678733435
10.4725920057558
4.05486895885634
-7.66115075984122
-1.58426095716189
-9.82766903616435
8.06930209571224
-5.82609930626424
-1.47628489091817
0.649162329124189
0.508202948984679
4.0222789755649
-3.32000427187311
2.01929650235733
6.88264723229893
6.28191327829423
-3.45117124057337
-7.68678588864444
-9.97111587251781
10.2369876672115
-19.6438780619747
-3.87810745251508
0.00823778852841173
-7.15803137029815
-7.41644845588955
-11.9485299270629
-1.43841003440951
2.90736802245805
-5.31885352268819
-13.3033257924232
-1.16376070677987
-3.41990783703273
8.56755843842071
-13.9407627921072
-7.15085901657809
-13.0038264530652
10.0986083441997
6.81263917931322
2.98047301145312
-5.1463782367937
-3.7675120747412
0.266834936748918
22.2341189092351
2.32729628636693
0.123778165190759
4.23727436148451
6.86734462025806
0.193360732951562
-9.40148621774093
12.387831405074
0.17583644661926
0.930501713559494
2.01706375226074
4.09220773456357
-5.2042103341797
6.03341983569962
-1.47813699776668
-9.9719460506831
-7.90812367312039
4.12142679992451
-5.49755876779842
-9.42772195401991
-9.91068167816083
4.23505886143567
-11.3266557586449
6.75964279194049
14.4742878531308
16.4856473510949
18.9645598482567
-3.49096146201509
-5.6872971503333
2.28627095419213
6.53496885033506
-13.8335758997227
-5.35999418831107
-1.54957556274251
-1.47194260374011
-13.018112126718
0.490350538408542
0.242776131869872
0.142323290967187
-7.04013237885944
-1.5625610505694
-5.0613232979963
-3.08121900796409
0.801043402463309
6.31644454360076
4.56400980004755
-5.10518207311606
8.95987684700401
-9.05983636725425
-1.0148953435389
6.12299656900207
8.9972553704158
14.3486047345484
-5.81667915406306
10.5647550666939
0.475623971137302
-5.72696760929647
0.888794719521861
-11.4286872185218
-1.25669471701174
-23.0889851839478
-7.78158746847323
-15.3190737039324
-9.31847980411307
0.306606210008209
-1.8256663232687
16.2464430626609
-7.09681264026316
4.8747654752376
12.3930781065872
4.06219643876091
0.234957073629965
12.2718630774885
-3.3138911654334
-9.32188736211002
-9.5835209350475
-1.08886536676437
-1.3239625338441
-1.13099523156737
-5.82972862370672
4.36737445793276
-3.99022802657664
-9.55383333391275
6.90052068112764
8.84322729273192
-3.29042991281551
-7.35993265589277
12.3333505414456
-15.5596564111559
2.42021597478849
-1.15438123068257
-11.3803671442951
-3.37418590198558
-11.2137616556161
6.38760153255402
26.4505577963106
14.9103104415947
-9.73581017603301
4.56124063935508
-11.7952870767296
-13.8318478856947
-17.6709502888882
-3.21916653510159
-1.93901335094921
-17.2020810311019
-7.6604016882926
2.23464651620593
0.993769450807549
0.139372529514846
-11.0474863203011
2.88100250597336
14.7766335174255
6.07449207122217
12.9019395296174
-1.92098547152574
4.87687145499217
10.0501125061032
14.398299758678
-15.3524583586941
-13.1162112983982
-21.9727096778422
-1.00241035015459
2.97039982989208
-3.95772411427147
10.0094332196541
-3.84292583637415
-3.65056493545093
0.118337533330541
-3.16497157316185
-3.15275589871478
-9.50185212127529
-19.0528331865138
-15.4110262210732
8.89509433686235
2.04181317147051
-15.3240679175144
6.581592861727
-5.34654294636116
-3.87655761677898
-3.33984162510734
4.58479193122295
8.50494146302395
2.70811896009708
-3.82947873557132
2.90884301007509
-9.35025421271363
-11.8615816360581
-5.76999595643843
-9.16849479279945
-5.66279376436138
-17.1650936136936
-15.9015877416181
-7.13585840397993
-9.20172537105655
-11.8580941742473
4.59474794202941
0.893009019786735
2.68525232318931
4.93005852672624
-7.34360568421413
6.56162858444609
-7.24259440281769
-15.0355398854458
20.031371575193
-7.39522231074688
10.4514411496935
2.95045082973558
8.47066029821589
-19.2754309191651
-7.71825298676526
-3.27571317436902
-9.7354280905918
-5.33480414105728
2.00791778860464
-13.4557281142076
-7.49103548500488
0.826283753249097
0.865429881614566
0.630162820624206
-7.49881526405254
-1.642045208975
16.5423545967682
-1.93752217800469
2.94717806043248
2.42583863033423
-3.79388098580604
-9.86082797533808
6.57907342507755
-7.13121407880735
-11.5888342051316
-11.7475862179576
0.787268629274188
-9.41240527244094
-5.03018196868282
0.390631499446059
-5.90044841258586
0.314587432830001
6.79892210447473
2.40847528468214
-3.67028263619349
-1.28153922953404
-9.70666468428009
4.74028867729394
10.5133793689789
-3.90354337325318
8.07963501173943
18.3522248440163
-11.8339285070881
-9.40608586425075
0.64123812080866
-7.56419533913452
10.2620764649041
-5.15489935962618
6.92093797102693
0.405551735373582
-7.65198017025005
-21.2250775125464
-11.1509051218715
-15.4160686736921
-17.2898907167602
-9.97945190284975
-11.1245139490934
-13.4173987880151
-9.31974074906736
-7.04835982695351
-13.2212036600694
-7.47410130021808
-3.82259847626131
-9.14409121349015
-7.63873781957262
4.42471652045014
8.69933646549649
10.5758034266856
4.82199140527908
10.2178551961549
8.38619489816418
0.575549045389034
-7.7449305523392
6.32553935161744
-17.3010580826513
-13.9449040793308
0.703870545949474
-1.27482349719843
-9.26395672812392
-17.5102405867418
0.892056604190578
-7.38315807362026
0.264684253519897
0.776758583010487
2.30484145217444
-3.22988341120135
-7.91186204519197
6.94977029885241
10.4652633652843
2.57754576594661
-9.75158407671794
2.87630900289224
12.188385582406
-9.60413683218257
0.0921258360236896
-1.90257326204311
-3.17439838261862
2.0975428712139
6.13441884528799
12.0809370831085
-7.89419232646294
4.44081555919083
-3.84168134208922
2.56274051095975
-1.69372144701219
-25.5441281874824
-5.22470257216607
-15.929462406794
8.05124614282528
0.271007735911727
-9.41534118637107
-9.55686830241025
6.60126681179377
6.23269262768613
-1.77802431763956
-5.87842606720622
-1.0797134748206
16.3726981452591
-9.12588552000548
14.8862080163051
-15.9361059045995
-21.6736307879739
-25.2879188388572
-5.74608077022687
-3.65563492558567
-7.36001111153463
-21.2185046954515
-5.75977361396314
-11.9840640471112
-3.84894524314134
-7.33705482624145
0.957377328597165
-11.7544357003188
4.11066935673273
0.621571930400613
12.5297173399373
-3.38255710092698
10.3160101208242
14.6501415697377
4.06409542688206
6.54906258834351
4.92899543241411
8.10825069094937
-1.72493038418106
8.89717775031407
2.93180204477446
-1.22342285344633
4.77023853588962
-5.29987502296754
-9.88289732611702
0.647982785345215
0.101154502855361
0.293585961602397
0.811557999681424
-3.42169109248655
-11.8527049400387
-23.3449375484285
8.70745353707506
10.7556393437567
10.1764981297297
-3.60327294756572
-1.02656330769072
-1.08043403722355
0.0118478682464911
-5.89269821748826
12.0601581452072
-7.20273725057168
-27.135619985348
-3.13033866494248
12.1770915310749
0.0604389005115618
-7.32928407250545
-13.900754011317
-1.24561008200013
-11.6792385980984
-11.929086905732
0.167608126676601
-11.4323505604858
-11.4285650600625
-3.76504800840415
24.4452070561982
-5.47199705471456
-1.88595826936911
0.382740160623381
14.9889424289728
6.58146491432677
8.56394008474347
2.67064801287026
-5.94030479547988
-3.27946956061693
-13.8467575436865
-23.4951164539392
-27.811352776
-23.6439861504163
-15.7883680342776
-3.66692285758274
-11.3410747020321
-5.86981259083696
-3.75528201679032
-17.7996030732874
2.68975381995366
-11.9648912496422
-1.50230673133245
0.723478711932778
6.69029872955792
10.9170745480552
-3.86174879180041
4.73391422640201
-7.92551013187751
-5.17072075339971
0.385603757441798
-11.3331625637872
12.8955468487547
-9.80244138005225
-9.39393735203397
2.32946406389902
4.37470888638485
-1.69510065735808
-5.83681251571687
0.857344411755337
-3.95857558369697
4.00064359891746
0.834267979246402
0.997940257946967
-1.96472880354689
-7.53446801401087
-11.5910942284604
-3.79035740980584
10.9258551689188
6.90259338648086
2.54222960081969
-3.34743378730519
-1.50793692775018
-5.75572198160913
6.92897585058899
0.991568837727345
-5.87118379395494
-23.2628115038816
-17.5510678432662
18.7753236420222
10.4507534033134
-9.74974138815278
-7.15385143599921
-13.7917223926904
-3.40519314853905
-3.64439492818847
-9.88820604513067
-1.11292616407509
16.9301910700696
10.6861076134665
20.0578645724009
22.2420762551418
-3.68600901263259
10.5691043959243
0.441129707711321
2.67938181431065
-1.17418223600178
-9.04113855753139
-7.86345762259828
8.4040844538528
-11.3594805614678
-25.5733905820218
-15.6810678795931
-13.3665809030443
-25.1016946241972
6.07186704868355
-11.4027603510496
10.7257165783899
-17.5444070774258
-7.04136947418308
-19.8860287528419
-5.75106200229665
-7.39247427564102
10.4897187961791
18.0175282773282
16.9277607681986
4.38226480477559
4.59421922690082
6.6677437277414
12.1360914621085
4.17371889539958
-7.80282346064978
-13.2738953928155
-15.8415186561902
-5.01631738392278
-9.22129073783806
-13.8735503601988
-5.14786346875952
-13.629199776903
-7.81527398861269
-7.33999946789866
4.37510467660385
0.286467402300483
0.774113270242844
6.21486973302653
2.87305977282978
-13.5948580386897
-1.64892130382554
12.2875496577064
0.937492426272628
2.19506600291423
-9.30824393347467
2.27349125059784
-5.14983131461305
-9.17639823640496
-7.73670968472207
-3.94877480973712
-17.8708666488496
0.0963348084206075
-7.14786290559403
-3.61397419618029
-3.74480297344184
4.93975826424325
10.5431625301683
2.69658139035674
-5.53572050346447
0.881710110480896
-9.56241533663932
2.55076837199132
10.4560714543325
24.684903184113
4.49018840891688
-1.27997876599744
4.27845088928836
2.48563742087398
-1.92089842153833
2.91281925690233
-5.27038990342283
-1.91516126519077
10.6017901160162
0.1324949053389
4.68801135626202
14.2951659233479
2.08643988074371
16.7820161465532
0.791854050909363
-7.39350920905075
6.63252708658981
-9.44304086348024
-5.09087623669494
2.84730224976305
16.3829055933211
8.99825221441182
14.3529868172692
2.05664585359469
26.4848752740676
12.6159019055894
-3.53701099695549
2.73103192736592
4.06688528421016
18.7773198012546
14.8076052586289
14.0969318778885
8.64881674269794
10.4319512407467
0.400574565945286
-1.26588313263468
4.94536468692075
8.22801059606617
-11.3274328766435
0.355397416774781
-3.36936436894163
0.209540946774855
0.742416362232227
0.774054495591363
4.86991499864521
-5.6056456631041
4.05729300487892
0.227991019185328
0.689750517472582
-1.03608889150775
8.92028703066552
12.2686623237249
-9.56330195296457
-3.59388544542162
-3.60858632965066
-3.38338403319172
-5.34894257955554
8.34229182989779
-3.2212033470529
-9.108132425058
-7.24267982815606
-3.95324073635807
12.6098927729119
8.5455647698642
4.46079819137545
2.97658096731332
2.77255183924281
4.97409449220741
20.5853696152874
10.2869842583768
4.17500320828347
18.4254787307427
6.26963936750734
-1.11037117347891
8.40284410833302
12.3789824586794
6.34955455188463
18.6371559653477
0.315935673339327
18.6981351139015
8.04854277723391
20.5235973745737
6.68885111057334
2.62139249391516
2.52189791858288
4.79909392693657
10.4613802248301
4.42125885582607
0.0793071416627811
16.374306263332
20.5314921266172
10.4142911420268
0.882923864457306
16.652829935888
4.95690015313808
-9.40120439966832
4.5930082870002
0.670360397407704
14.5335105957982
-1.32148804865352
-5.90038447552906
-1.57625235058786
-11.4202209047574
0.595368418699728
2.07688846153963
20.4818805205405
12.3624918941994
4.32056784763203
-11.8453223061926
-1.18796306206987
0.227581611799812
0.146798877086598
0.206570320331194
0.331842401966574
-17.8007302685137
-7.07297073323798
8.36281412582319
-5.01617488125778
4.5020834565181
-19.396458007991
0.0209902758443059
4.45002454563312
12.4049672122315
0.641256473290789
10.2492966227386
6.33208372537709
-15.4004740478121
-1.54386375125523
0.37111261601328
-13.9033332234511
-1.11602861250883
6.47490052126363
-5.07510767339242
4.21277464968363
4.3818225772915
-5.54223734088561
-7.21624949594842
-13.2282698499054
8.92611388643098
2.83042157635955
8.42144634785942
8.53499808374237
-3.91581244773057
-5.57670099734025
-3.43126459555042
2.5359141028625
4.03235010238528
10.0183586165014
8.58940670086711
8.84490092689247
-1.92343242534196
8.57417950833774
-1.11792589926449
14.9888473644764
4.89337496202458
12.113336889755
0.884493849979547
24.7750201130049
16.94038381264
-9.89083222720986
10.7216448691245
8.59234027894899
-1.73149270020095
2.47827199786386
-5.36643963834106
4.59833002706696
0.245760095540001
-1.4715834926596
0.351687879824134
8.74620830638309
-13.514195131655
-1.78639535360258
2.19746797529151
14.2322090096997
-1.56731750690138
-7.71421509437267
0.923686868253888
2.07895285156255
-3.34092679966013
14.5124934526656
-5.12781479370063
0.450659616368944
0.366273974345183
2.60359954110041
-11.2703398122936
-1.74997157648574
10.9540837561559
0.656474374160333
12.6175186602441
-11.5564136330543
-9.35415897244666
2.47518400839159
-1.47555681595755
10.6573498856005
-3.57231825165425
-1.97130838644382
4.01101645406178
-5.34535758580664
-9.06207846199907
6.03071551620187
-15.5348102550719
0.530059807196745
-3.69149073574425
-5.89859037651071
-3.62470237851915
-13.896678808504
-3.65226078215122
-13.7233801596474
8.63120601002099
8.47626019952942
4.85351007707096
22.8692279775192
14.6531056919799
0.643846345370072
6.77589641189998
8.96222604044173
8.85299701142411
14.7365370127704
4.12274983156128
22.5044065122329
-3.93813407627874
-3.92979434282393
-3.60574422656806
10.6871485278889
24.6362409171961
8.36537293303082
16.0567158425361
12.9523659015887
10.4237812226614
0.533267678156458
12.4925049176063
-3.25373454290482
10.4625944768855
-5.30172894049483
8.43083650932725
4.24610160340422
6.88802809180324
8.28531934609022
-9.02762691449555
-13.0841230208596
2.18101063686024
12.0478143280549
2.99958228713695
8.65018796783019
2.40082299714037
-15.7761939093532
-1.39426166803384
0.358982254019772
-9.71184425696142
-3.52837454831051
-15.6357616295519
0.574159749487001
0.365198417201462
2.37563624549472
-9.57770696423961
-1.929563020324
8.7765628650807
-1.93913952897336
6.73803598790788
-7.57055454120978
-9.44735280854379
8.09248523218277
-7.61327170873822
0.149089812430519
4.19984051687912
6.33526868288881
-1.91546725065365
-5.06192067465562
8.12368806862345
-5.41798705845736
-7.43939862131289
4.93920376495081
16.8844751793522
-13.4278070305853
-9.67583933586244
-15.1640734818383
-11.1430512342415
4.08071101652942
4.22994207834127
2.91351889772746
2.5454097162311
-11.3164300599758
2.01010617282336
0.0109977984108784
0.478573952594149
10.6720976982844
6.24226084792464
2.87675372089588
14.0989418633735
4.52434841281993
6.79407598678935
6.35282443123669
-7.84971197002983
8.66570942877532
10.7984542808052
0.401521849501515
-11.6725231747227
-5.9927798899469
4.93121492063529
-3.30826881007069
0.288686826166902
2.00552193212676
-17.6911924085597
-13.3575877799637
4.1106656255432
8.71526736354318
-7.06629547801677
-11.5545469363909
2.74111638065629
-3.94550417464967
-3.64030015330254
-7.03481900100686
-7.78943490179986
0.43277382903333
-7.91210674889434
-1.91415105366414
2.43340911847897
-23.8934689423065
-11.0401738144378
-13.4604693274049
-17.0851841844752
0.400392631642286
0.66350860959585
4.23893265560145
-7.51873737385975
-9.04083912220193
-3.80520569023385
-1.53337159482268
2.17896558393066
-9.30409107536532
4.70167449475049
8.57841910036009
-3.94846954170379
-21.4041211794885
2.28372040752973
6.50704550327036
-9.8250388045627
-1.56415050942778
8.76987411750187
10.2694688218756
-11.4631905565036
-3.48122894780299
2.2367288745768
0.109408925569261
0.674534354423539
0.94489629963995
-15.2765174957359
-15.571432086476
-7.9889027634644
-3.21094291883543
-11.6884703500878
-17.5658047155448
-1.07725592177101
8.49649039192238
2.09343055541244
-7.09176681490453
10.3546374292121
8.67563673205054
-1.62182391655124
6.25916464992047
16.245513867863
24.6286126468279
12.2130455293802
16.7518023231292
14.6876122040294
-3.4228477873647
-5.68618254326702
-1.62486750748963
6.45485509473874
-7.89623437076152
8.69877229827685
-3.35579082188202
-5.61039893669831
-7.34677964949843
2.46216805883155
-5.56420056281146
-9.34154001952327
-11.6413827154573
-1.52899685782171
-15.7171975203325
-19.1524031626682
-25.2745964812658
6.70465043156529
2.17619876764819
0.415451994349015
4.10912285136203
6.10084781139125
-13.1097493244856
-7.37142909715814
-9.64121710922734
-5.3717248048329
0.542218623226663
0.851915693090977
-1.42272981297961
-3.79658915781433
-3.89614122626454
-1.66800305618773
-3.6223398370899
8.52414834899088
-13.0078223069294
2.15772375109562
2.50437824222789
-1.0204946716246
-7.07556677802607
14.2444337192901
0.408196301487184
-9.54611705872422
-7.65285151988389
4.87673025349931
8.85717754046224
-7.84373324445849
0.948603045777008
10.2938623296567
-13.7371868731616
-5.09115942383026
-5.23351252596905
-9.61444997302303
-1.52911764607903
-5.04670345019876
-3.04180334514819
-11.9941709070721
-7.28119128419449
12.9022973665437
16.465722603947
6.12497177047475
-1.78125829215283
6.49713874051761
16.0683811079746
-3.05917381409572
-7.38700389093316
-3.52995024585523
0.58014704866112
-3.42398814581695
2.61611064179931
6.89658570137179
-9.03971352178138
-9.07518661525709
-9.5074887679106
-7.35267514106423
-13.2039154173675
0.043431903421693
-3.92659116116483
-7.17778520410255
-3.06731107840467
-7.16655366698694
-1.43559081816706
-3.93562466313912
-11.6589110837785
20.6149556314726
4.11795762915026
2.45966453801361
-9.23470431869859
2.55111294314532
-1.61684115535611
6.61648341615604
-1.02904878310517
0.0480319912970923
-3.86817882156406
-11.5235378786171
-7.039194652822
-3.38585629186033
0.582707776767996
0.220679295048811
0.472562884197149
-3.93150570647799
-1.06441262129312
6.27117570122834
0.826892663992926
-1.02708979256441
2.79642963605568
-1.3866708195799
2.08203380160039
-13.3635242907698
-11.9063629525166
2.62171871429858
20.2600962343688
6.32683397662767
-5.44456352685361
6.2091639535937
4.77490372828813
-11.7474279084424
-5.11253114848769
-1.27713381337243
-7.46001390784169
6.22057297153561
12.8524419678436
10.3322902554833
-5.05013053151712
4.70467605777499
0.304364995160185
8.99353101260959
6.68410829645294
2.81501757598823
-1.15544061328035
12.3707047344503
10.0169250744815
-13.3781642859727
6.40375977004949
16.4603934436043
2.95554423435363
10.3547620179542
4.66137834000124
4.53741809389717
8.65515284791081
0.108414779363818
2.07859128004425
6.64099183123549
-11.8890833481226
0.973777012376667
8.43740305737514
6.81215789757588
-11.9475556607357
-1.73921020831014
-1.47549414149058
-1.36512729105451
-11.8241529788585
-9.99876585632392
-3.41136698050147
8.35815957776348
8.78120176790008
-3.4576300975203
-13.4632018091289
-11.9304692908888
6.04012314434784
8.3511254823874
-11.8248681915463
-9.65407765876124
8.23088001038498
-1.05769975552117
-13.4134536027761
-15.8809673175275
0.229073045888853
0.255738543893067
10.8075545684246
-1.0710460618814
12.3091268848037
2.70496937180329
10.7311585747254
6.8199128576203
-1.95360836199471
8.25596687526025
-3.49927561335669
2.59331116449706
-3.39357442825275
10.6936336413551
-9.33609375014973
2.55854382573332
20.9596403158335
2.15111277891913
-9.0858193187111
-11.2835331179585
20.1879721801881
14.2918433582061
-3.59948748971224
-7.55392029041624
0.00509380549485883
-1.38701679449438
8.78959349815517
12.2704743556462
12.2198478955512
6.46064291174871
4.76088740052113
2.78525081399114
-3.62088983876924
-1.6945118287036
6.23031916404149
6.77653553528016
10.454960540908
12.8872195568998
-5.01560506915563
12.9014454671428
2.46114039450478
0.986230886292406
-9.44463510084643
-7.02508675515549
-5.65484101513668
2.87509998316294
12.9655142433011
10.4895697676973
12.2614281056617
2.43791488056158
6.01592573172424
4.4691453208478
10.5019590845893
-3.34130483328513
10.0195572332799
-7.86019615749263
8.71487449662249
-1.54305310964145
2.31705230598228
-7.67494840722071
-11.4353016601633
-13.3496965557493
0.402853255512905
18.735233299407
20.5174295356603
14.0297366602347
4.39855173535065
-5.53428892056299
-5.6497613847096
2.88076572183105
0.0388603295162976
0.415202741431112
-1.6468085550455
-3.85356549501744
4.71108242991982
-1.45010114553308
16.9029994667894
-3.21211508106355
-3.46282056341972
-11.5980440385937
-9.39717716563808
-5.89474744091676
4.06467853462886
-5.42590970278185
-3.44203311084703
4.42011187785013
-15.5845097248554
2.26173483761899
6.29701099189948
6.48776365796459
10.6669513985405
10.2437144003444
8.15719588985429
-1.84916959292653
-9.37503537943298
10.1932069301659
-3.42006106376668
-1.40550944035867
2.68056690288397
4.2581200966322
-7.66394757638872
2.25385037082517
-7.5127026463285
-1.01331338781399
-3.98116459756711
-9.17843644352349
-13.8147354415891
-1.67156022160393
-13.4758110211256
-5.52702666972657
-3.73677629262138
-5.95145386567333
-3.95721944588611
-3.63095103423589
0.379608868358243
10.2745819786392
0.54334730738152
0.498185148154912
8.25409760236614
-1.42360510958526
-5.44105821357533
-15.3792021160938
-3.02287646759863
8.78752869173908
-1.75549067984543
-9.72258933868723
-11.3018480155496
-11.1326559803399
-1.37059311235248
6.08050860962036
-19.2649805046616
-11.8740585017754
-5.18818489178416
12.1823423766874
12.8824676686523
2.30331482217196
-9.76568660326661
-23.7601662556457
-1.36286051599997
-3.74830384906809
0.496921777634247
0.809378330749342
-1.22793742972911
2.46667186537014
-1.29814289120651
0.024668792008125
-5.32220274548046
4.17183877061909
4.41665981211211
-3.27675154605702
2.72001446207675
10.6574299789976
0.21766115678806
-3.68566383181104
2.94745842360318
0.923841407024176
4.15742621126165
-17.2280913955998
-1.47940495427176
8.91406343150391
8.18629792827779
26.942287618842
12.0420011243341
12.9073776674162
4.14571818304524
4.31850935007052
16.251531999345
6.0465522040951
8.1182857819825
10.1693249002089
2.52422952206953
6.10035058346467
-15.6460270777616
-7.96163613114074
0.130840142235442
10.6938582863819
4.64862279953179
-5.22123834747216
-9.84500311518606
8.23206384423875
0.192430804459468
8.5675546570748
2.10941097657115
8.82218335477114
-5.39341116589082
0.114244608464138
-1.89187305206693
-5.00240692761777
-11.041477368322
0.427960880287884
-5.0139443723822
-7.62293577724238
6.52896750272347
4.19205847331105
-1.51546025744336
-9.90836884938923
-5.29715854924528
-3.98845975572909
-9.62521732813758
4.59069696270741
-5.11072133190335
-11.5153823760418
2.63889132240293
-5.7360933551156
14.001177144133
10.0085416521723
-11.7676048452537
0.0960979318208519
0.209976659649807
2.0878073477144
0.3165261916149
0.633148701769241
2.18282020174052
8.77053483917052
10.2300017949136
12.3755641331278
12.1396299317779
6.91136179172204
10.5709880778944
-11.2303363317313
4.35405487880727
14.5522009594909
-3.61660827738821
-7.37772223737511
0.200363477877785
16.0862623471591
0.0735279748117224
2.21681548338566
6.76459644837771
-7.32681724612343
0.473052452955308
14.2993295611132
0.183076662079111
10.6628344379174
-1.9749162655358
4.76374298587858
2.56545354576843
6.52599085544414
6.06855412552595
12.1140217392599
4.42188367600077
-3.23473269793173
-13.4468863717211
0.00362952076174405
0.1861364113119
10.0137597115213
0.232455388140378
4.34376220823934
-3.71816003371426
4.5457100294819
16.0339728210284
8.24352360949444
8.30263515869443
6.37871217360606
-5.0839614417142
0.464854396379914
4.74124179895631
2.24360546473959
-1.90444940129
0.538900844942082
-1.29872748342562
-3.89184777571171
-11.5272177695863
0.440965663904629
6.14448393550903
-15.7347422460317
2.00136305309822
-11.0699888408343
-9.03372052721902
12.9471624235825
6.06861127275686
-1.83708348106302
-3.93097630839113
2.05471065158761
2.26586531354753
-5.99849052716694
-15.1347752652481
-3.95308508934944
-13.4631669800107
2.50478808337468
0.762509193018063
0.110867058411436
-1.51686805274851
4.62267552334804
-1.15622365013757
4.01250204491989
16.6751748343919
4.08834682380719
0.812941284365303
-3.00230886220891
-1.46230154830979
2.39331931978611
0.974388339047664
-13.6455681612324
2.16554787149882
6.39346070498354
0.519274983095297
4.31554968800172
-1.72678438703872
-3.16966065149733
0.575258784063225
-7.83397866972634
-17.7699743369839
-7.31602059980764
0.118752406994412
-1.75363606597697
4.13819513436554
-3.45507032533601
-11.8765356669331
-7.21880963021198
14.1710326788846
12.3321901005801
10.1778287927878
12.1924166683582
2.72480052729663
-3.36165020836287
14.2448602793046
12.8173873791504
4.47511116928589
6.25479333882798
6.84903748531056
4.74012194195019
4.43257840359141
8.18897279458752
-13.1684816538427
-13.2791998466586
-1.86361007272422
-3.80032878078312
2.76813692715875
2.01730960897464
2.68365690704979
-5.06605315081374
-9.0767505531786
-9.74233188929485
-5.1166014839254
-15.1835734124101
-9.8091038224347
8.06288114342802
-11.2409095141692
-3.60239938620657
6.43629488129814
-5.07652805488719
-3.45664824305429
-3.02490544730813
0.055292582848562
6.54989679871632
-3.69366143506597
-9.47403540493272
-7.03194199347867
-3.84163631421412
0.19367802329133
0.645325904377041
-1.07818544482075
-9.65790316394726
-7.37102655785335
4.4688651765417
14.2627678445141
-3.78180976867037
0.438247752647129
-15.2157902643712
-5.18087226725863
0.802999047301983
-1.69915482475217
4.25760271318077
6.88241026953074
-5.68317166598726
-1.65748749942839
-5.72359289436694
0.368094088862006
0.245465391003751
8.07537148960997
4.94327096918858
-3.09641669474816
8.03687637002288
8.3921645627655
0.799864715233245
-5.24202390257508
0.826109418096403
-1.86706752498873
8.40401559908607
-1.40891816289023
-5.41580399506945
2.55828798790769
-3.31373147624475
-1.67467921318988
-5.04751951507956
8.52630334169324
0.376410016986965
2.4662402933974
6.24873385912604
-5.47779885752744
-3.17891367398619
2.43729444389179
-7.41830516184029
-1.77867784336853
-5.4979803010042
0.299573044086612
-9.7091502076751
-3.02035635501288
6.45699956259534
-9.84308822010047
-7.66267536939224
0.0614336106656017
0.757162883369475
8.58860567118071
4.40022205311958
-3.1787343013557
-3.99993986717601
-15.9913436252755
-7.88808954248657
0.349506197427658
12.1951849432486
-5.38131587689693
6.54959978483468
-1.96052005950064
-3.33720329487791
4.28638545585088
-5.63011261677241
-15.288304151225
6.64334636292715
0.396856267988188
0.365521847316707
4.62902715310571
6.72976290021677
6.58144333048187
-1.86946582912199
-1.80245683092386
-1.69651004025143
2.61063405961321
4.94970346499296
2.75555533193877
4.88400984724066
12.6701951875383
2.04238043895508
4.22971796884965
0.340386036774519
0.184410576634971
6.55715204982295
6.43203309193852
2.596124358803
4.98140353635428
0.448712480075999
2.57584545505779
-5.14323199360599
-1.26178895289569
10.1927124465609
14.1604161972646
10.8775220635372
-7.42809370402621
4.26295989283649
12.4793377408436
14.5035710869491
2.87746453443701
6.57475490958181
2.5012519044096
12.3717264657132
12.1020937088409
-11.6145481702111
10.5110053878361
4.43970411952405
12.8056566548227
4.12102733638644
4.34267715687238
8.29990900191694
-5.50220480781942
-1.2946638068382
0.797986122074978
-7.09796137112374
6.72960977253064
2.45139242001405
2.07153901221524
-5.73010525677385
4.99644403337369
0.87555333904111
2.15581767727555
-5.24056953266687
-13.1672152539093
4.4714583184677
-5.97837665511927
6.90472139693391
4.42908216971253
20.8289725633185
4.7595354660051
-1.42208179869313
6.61801299997422
-1.06652263149248
-11.7517702436503
-9.23237156566047
0.789082137022109
-7.43011992634648
0.845976167383346
0.476843247544484
4.23249072743223
-3.49576464024732
2.81582408211003
-5.86802631895237
-1.8607097656731
-9.70283581809082
0.662111662774862
-9.97493457126357
-7.1668625834238
-1.31646776225864
6.75428151059964
-1.88951837643487
4.23797553014584
4.895936221929
0.661482933553156
8.65633603272237
6.14330762290942
-7.79968263297937
-5.40759037803145
0.234635328848055
4.56384967153993
2.50811704266084
-5.49303557657507
4.55546615044305
0.629671514952763
4.29585546442223
-15.8115076625401
2.5034335202274
0.199645004921066
4.88125171514838
0.440948953842382
-1.54469710027659
10.3268689318425
-1.20894183864529
-7.99293013321655
-9.34982000577341
-9.83470943549377
4.0595422164333
14.2813096855207
-1.06163134047225
2.03792780241762
8.14115791462644
8.36299251590317
4.8706720388594
2.03243438761926
12.5380966608084
2.25941179088211
8.62375864750723
4.33110111670838
-5.3003679619951
0.734117215784662
-5.41028895324137
-7.89911495060365
-7.15808514716898
-13.2980276321382
-9.18170783598705
6.21971090689616
4.29107962608562
-7.65929709014494
2.82833424620218
14.3817537288415
-7.57393019390446
0.0355435898125389
16.3386389003946
-7.72049631827716
10.3345294055188
-5.3840010885806
-1.53219402019534
0.517152628991784
0.291479193588629
4.73875574602403
2.32594037859534
0.458173977505882
-5.34634528627447
-1.25151977542295
-11.5098276496974
-1.75659487541554
0.307887845841574
-1.84078096917824
-7.1232183594805
-5.57023063803241
-5.93345042412502
10.1003319399254
4.24570836248138
-1.78414052657116
-1.08731212637191
6.35111661597753
6.02137909107274
10.4276854083807
8.00158171547459
16.2091909649134
12.1724495402955
0.752854380621473
2.45834093137145
-7.98353619840772
-3.69899522411932
8.12563722460543
10.7505828750662
6.05261738777058
-1.04660760763014
-5.43213749406444
0.741379245527173
4.8984634220447
-1.31538638337927
4.78253802414685
-1.74100965531984
0.566130217224471
-3.05474275696893
-3.704422462018
-3.7901631328014
-5.55981071375461
-5.21838196346115
0.648321287446617
-7.41397270707752
-7.73199673270047
-11.7416909706196
-17.4788670774835
-15.3732333893545
-13.7921989104238
-23.758490009607
-17.3618518066301
-15.3032913667358
-11.8357868727374
-5.03382428393381
-19.5410878327972
-7.35419960490504
-9.44965440268546
10.6125309248127
-5.04836110326329
-7.46123756586072
18.9570805488704
4.45165484308294
4.98952620811545
0.398918011659754
-3.98285227637944
8.36719850373811
-1.60829770520206
-3.63313200594944
0.464251620390315
0.162986592320498
-1.89233915004745
8.26396279405634
4.76089573840074
6.57261399841587
10.7265163886038
-3.07860570931004
-5.50220869187407
-1.39560846369774
4.83395496336153
4.99433581873761
6.55123169350599
-3.57858321697472
2.86663566164567
-5.39177173332042
6.94297915325908
2.9772035341792
-1.93448471370653
-3.65534382752561
2.25701075700399
6.60630597085575
-3.71989322881094
2.01162395420645
0.445969133791635
4.30784530536232
0.545560564666694
2.48649128601641
2.34349603103775
0.0256845844084577
-7.56021495331034
4.58408334324819
-1.37026746548421
-13.8299785415636
-3.90722489060945
-9.77835083947956
-3.14136644380913
4.56708704985274
-5.08313980771949
-3.45093565543274
0.152729241533795
-5.45312855557678
6.73902357438125
-3.9821984914334
6.20256555881912
0.248837222422424
12.7179982557212
8.90191176883784
6.96616097789485
4.05243997664823
10.5518783605051
6.63219505737667
-3.63601931036787
-1.08683190864876
-5.16120368478658
-1.97398212717451
-5.18059357214674
-1.62951745635441
-7.25362462321888
-1.01660908010097
-13.686932797864
-13.9186546862297
0.625993325839845
-3.87527832311658
0.45102858100415
-1.59219801446136
0.256314639721095
-7.47731223180532
2.71272925500578
0.748688650626121
0.515819310335335
0.45966452393935
0.537298996499158
0.823547385823176
0.296295697928314
0.366060495568441
0.089322412484964
0.824922546868142
0.31418454252344
0.208545433450216
0.303235518793065
0.430051131619195
0.6257835242587
0.95030264492172
0.06064178414206
0.347126322993038
0.866700867244467
0.549255933366979
0.736965942527008
0.758274117319054
0.220944841320557
0.714373869093197
0.0871128583531453
0.374900648646606
0.0685155324590122
0.663373665606476
0.978643201627224
0.261398533560461
0.780903377635499
0.77639119498361
0.245309870173118
0.876313210202802
0.0551233732931113
0.140834713679699
0.53977691323075
0.288867749746482
0.901408228767698
0.426397250664031
0.802596504022869
0.530114857315471
0.553980978956992
0.00216957022884645
0.62044072351079
0.765420125862944
0.399953779264886
0.501290282774618
0.699948160614048
0.307460408165375
0.995138282998526
0.921023172278593
0.741569608867277
0.14697067157525
0.661621412692043
0.718035109950036
0.879620493242883
0.310313321292538
0.699687280757418
0.604271349529778
0.225334937355805
0.647239146717043
0.794521057105759
0.775005467198798
0.545545355573671
0.194473741763357
0.708331179988599
0.189116118784174
0.906545003304619
0.18178808517913
0.841098289148876
0.154308246689287
0.99251013635973
